FANN_FLO_2.1
num_layers=3
learning_rate=0.700000
connection_rate=1.000000
network_type=0
learning_momentum=0.000000
training_algorithm=2
train_error_function=1
train_stop_function=1
cascade_output_change_fraction=0.010000
quickprop_decay=-0.000100
quickprop_mu=1.750000
rprop_increase_factor=1.200000
rprop_decrease_factor=0.500000
rprop_delta_min=0.000000
rprop_delta_max=50.000000
rprop_delta_zero=0.100000
cascade_output_stagnation_epochs=12
cascade_candidate_change_fraction=0.010000
cascade_candidate_stagnation_epochs=12
cascade_max_out_epochs=150
cascade_min_out_epochs=50
cascade_max_cand_epochs=150
cascade_min_cand_epochs=50
cascade_num_candidate_groups=2
bit_fail_limit=1.00000000000000005551e-01
cascade_candidate_limit=1.00000000000000000000e+03
cascade_weight_multiplier=4.00000000000000022204e-01
cascade_activation_functions_count=10
cascade_activation_functions=3 5 7 8 10 11 14 15 16 17 
cascade_activation_steepnesses_count=4
cascade_activation_steepnesses=2.50000000000000000000e-01 5.00000000000000000000e-01 7.50000000000000000000e-01 1.00000000000000000000e+00 
layer_sizes=16 4 2 
scale_included=0
neurons (num_inputs, activation_function, activation_steepness)=(0, 0, 0.00000000000000000000e+00) (0, 0, 0.00000000000000000000e+00) (0, 0, 0.00000000000000000000e+00) (0, 0, 0.00000000000000000000e+00) (0, 0, 0.00000000000000000000e+00) (0, 0, 0.00000000000000000000e+00) (0, 0, 0.00000000000000000000e+00) (0, 0, 0.00000000000000000000e+00) (0, 0, 0.00000000000000000000e+00) (0, 0, 0.00000000000000000000e+00) (0, 0, 0.00000000000000000000e+00) (0, 0, 0.00000000000000000000e+00) (0, 0, 0.00000000000000000000e+00) (0, 0, 0.00000000000000000000e+00) (0, 0, 0.00000000000000000000e+00) (0, 0, 0.00000000000000000000e+00) (16, 6, 5.00000000000000000000e-01) (16, 6, 5.00000000000000000000e-01) (16, 6, 5.00000000000000000000e-01) (0, 6, 0.00000000000000000000e+00) (4, 4, 5.00000000000000000000e-01) (0, 4, 0.00000000000000000000e+00) 
connections (connected_to_neuron, weight)=(0, -1.88292505225001138847e+00) (1, 1.70423059457340353440e+00) (2, 1.50910069432275162349e+00) (3, 4.90710257926201265377e-01) (4, 1.41307069804938501001e+00) (5, 1.82616780505351372632e+00) (6, -3.01718087345421381862e-01) (7, 2.40995991346229121444e-01) (8, -1.23171542676605483280e+00) (9, 6.92213750792924575883e-01) (10, 1.01898141941640707486e+00) (11, 6.12380661616412025339e-01) (12, -2.04785428459207524687e-01) (13, 1.53962458159099657706e+00) (14, 1.10749970399817584954e-01) (15, -6.18768555181937074394e-01) (0, -1.86696415027437967460e+00) (1, 1.98882933946871576225e+00) (2, 1.35965041827576027522e+00) (3, 5.76334498265003825068e-01) (4, 1.49300756894155806087e+00) (5, 1.68827355460099526319e+00) (6, -3.88089375048935592005e-01) (7, 1.43227408942569439665e-01) (8, -1.26716311367668388321e+00) (9, 9.56818510091565377351e-01) (10, 1.00328388801429602140e+00) (11, 7.14088611850825172311e-01) (12, -2.05706595892469396025e-01) (13, 1.61509462679992754630e+00) (14, 4.77160520642112340184e-01) (15, -9.65936127764492780123e-01) (0, -4.98087818527548797931e+00) (1, 2.41272444138381203516e+00) (2, 2.21583803787573430100e+00) (3, 1.54991543326074809883e+00) (4, 2.38759620377611980757e+00) (5, 2.18389531641944500961e+00) (6, 4.03276627992440794834e-01) (7, -2.73176522541656363607e-01) (8, -1.43667153718389761785e+00) (9, 1.37779143991950614456e+00) (10, 2.28779831892354446055e+00) (11, 7.80772472677823681231e-01) (12, 4.44686492130099308984e-01) (13, 2.65539889637104264963e+00) (14, 7.52728521357194924057e-01) (15, -2.16019659479914460931e+00) (16, 1.18688758985385600653e+00) (17, 2.05666635747131953948e+00) (18, 3.45106764449491834057e+01) (19, -2.46708873977719145287e+00) 
