FANN_FLO_2.1
num_layers=3
learning_rate=0.700000
connection_rate=1.000000
network_type=0
learning_momentum=0.000000
training_algorithm=2
train_error_function=1
train_stop_function=1
cascade_output_change_fraction=0.010000
quickprop_decay=-0.000100
quickprop_mu=1.750000
rprop_increase_factor=1.200000
rprop_decrease_factor=0.500000
rprop_delta_min=0.000000
rprop_delta_max=50.000000
rprop_delta_zero=0.100000
cascade_output_stagnation_epochs=12
cascade_candidate_change_fraction=0.010000
cascade_candidate_stagnation_epochs=12
cascade_max_out_epochs=150
cascade_min_out_epochs=50
cascade_max_cand_epochs=150
cascade_min_cand_epochs=50
cascade_num_candidate_groups=2
bit_fail_limit=1.00000000000000005551e-01
cascade_candidate_limit=1.00000000000000000000e+03
cascade_weight_multiplier=4.00000000000000022204e-01
cascade_activation_functions_count=10
cascade_activation_functions=3 5 7 8 10 11 14 15 16 17 
cascade_activation_steepnesses_count=4
cascade_activation_steepnesses=2.50000000000000000000e-01 5.00000000000000000000e-01 7.50000000000000000000e-01 1.00000000000000000000e+00 
layer_sizes=17 11 2 
scale_included=0
neurons (num_inputs, activation_function, activation_steepness)=(0, 0, 0.00000000000000000000e+00) (0, 0, 0.00000000000000000000e+00) (0, 0, 0.00000000000000000000e+00) (0, 0, 0.00000000000000000000e+00) (0, 0, 0.00000000000000000000e+00) (0, 0, 0.00000000000000000000e+00) (0, 0, 0.00000000000000000000e+00) (0, 0, 0.00000000000000000000e+00) (0, 0, 0.00000000000000000000e+00) (0, 0, 0.00000000000000000000e+00) (0, 0, 0.00000000000000000000e+00) (0, 0, 0.00000000000000000000e+00) (0, 0, 0.00000000000000000000e+00) (0, 0, 0.00000000000000000000e+00) (0, 0, 0.00000000000000000000e+00) (0, 0, 0.00000000000000000000e+00) (0, 0, 0.00000000000000000000e+00) (17, 6, 5.00000000000000000000e-01) (17, 6, 5.00000000000000000000e-01) (17, 6, 5.00000000000000000000e-01) (17, 6, 5.00000000000000000000e-01) (17, 6, 5.00000000000000000000e-01) (17, 6, 5.00000000000000000000e-01) (17, 6, 5.00000000000000000000e-01) (17, 6, 5.00000000000000000000e-01) (17, 6, 5.00000000000000000000e-01) (17, 6, 5.00000000000000000000e-01) (0, 6, 0.00000000000000000000e+00) (11, 6, 5.00000000000000000000e-01) (0, 6, 0.00000000000000000000e+00) 
connections (connected_to_neuron, weight)=(0, -6.17046480314977809079e-03) (1, 2.92462726648415587832e-03) (2, -2.89211211580458760206e-02) (3, -6.11024064797584046116e-02) (4, -1.18504525520247663839e-01) (5, -8.15194130444846232209e-01) (6, -2.23789767811018655563e-02) (7, -3.28494816448143778231e+00) (8, -1.01346958032831863106e-01) (9, 8.03829648367186422320e+00) (10, -7.03693665121185307765e-02) (11, -8.52598525310409249833e-01) (12, 5.19376314712160946918e-01) (13, -4.20415616512240242209e-01) (14, 7.43881318879071828931e-01) (15, 4.05160945275887973693e-01) (16, -9.87804905695915391739e-02) (0, -4.82918203934196599292e-01) (1, -7.73765184651856591236e-02) (2, -2.34665312539583011120e-02) (3, -6.38784282576089490480e-02) (4, -1.32730592108870198986e-01) (5, 1.91073094660867998096e-01) (6, 2.03868443490503814530e-01) (7, 4.57626161248855112262e+00) (8, 8.80467375360421133923e-02) (9, -9.48130499843486695966e+00) (10, -1.47093549130762526328e-02) (11, 5.88504451675613382555e-01) (12, 4.17351501599972848910e-02) (13, 1.93314021307040284636e-01) (14, 3.72429989022679874822e-01) (15, 2.70686205971619797683e-01) (16, -8.47082536112811201878e-02) (0, 7.10103427202009473973e-01) (1, 5.75545652796569440213e-01) (2, 6.86431965817752232084e-01) (3, 6.32032952298465122709e-01) (4, 6.65372534682097782621e-01) (5, -2.42963906970902421278e+00) (6, 6.76061125567931853197e-01) (7, -9.82160810114860116649e-01) (8, 7.83307517422173193999e-01) (9, 7.61256105470862909357e+00) (10, -8.60075498421711048813e-01) (11, 1.56206063297634734077e+00) (12, -5.37773325284859216033e-01) (13, -1.21117267664118588577e+00) (14, -6.89022688529857957329e-02) (15, 1.44768138496344955790e+00) (16, 1.59143405926834802244e+00) (0, -3.15049679666440429759e-01) (1, -1.48696120951894217299e-01) (2, 2.96734309451548439185e-02) (3, 3.74821162478892119796e-02) (4, 3.57243454711405547530e-02) (5, 3.04292644333186756977e-01) (6, 4.61988322153077390908e-02) (7, 4.52928677015203895451e+00) (8, -1.48307348458816875419e-02) (9, -9.10267404141666425232e+00) (10, -1.39208953047267991465e-01) (11, 4.85186939619195678475e-01) (12, 1.40106299656220616157e-02) (13, 1.41620191907473380599e-01) (14, 3.29030843579097398433e-01) (15, 2.73652200053394856205e-01) (16, -1.06128470926490192650e-01) (0, 6.60296436102155492875e-01) (1, 6.24186023165526737699e-01) (2, 6.76898791481795658598e-01) (3, 5.56567668010535809842e-01) (4, 6.41237451721968998442e-01) (5, -2.33683873184155821434e+00) (6, 7.24201509824771605395e-01) (7, -7.89477910336918942136e-01) (8, 8.18572590602371863433e-01) (9, 7.74934012517278780763e+00) (10, -9.20991542239708027573e-01) (11, 1.50727638718729628486e+00) (12, -3.21074606360969794228e-01) (13, -1.19990222837626747676e+00) (14, -8.65474538304373541830e-02) (15, 1.12330150699496034150e+00) (16, 1.58664750826966027830e+00) (0, -3.94478703916311568278e-01) (1, -1.17572684784760198018e-01) (2, -7.76957543691299129529e-02) (3, -9.46340831121108422286e-02) (4, -1.57276053925385156385e-01) (5, 2.05470292009773347619e-01) (6, 8.38408315306283513646e-02) (7, 5.23852334238968797564e+00) (8, -6.84323919759818877218e-02) (9, -9.34443793013788415180e+00) (10, -2.50962628280977095852e-02) (11, 3.98479353420526538621e-01) (12, 3.02849057418308025003e-02) (13, 2.75132330266671498720e-01) (14, 1.60751363452441980995e-01) (15, 1.36543593611524877174e-01) (16, -2.08301612449751476219e-02) (0, -9.29984529078453081574e-01) (1, -1.37133669368353500184e-01) (2, -1.20878864339914876558e-01) (3, -1.64672736338701830583e-01) (4, -1.73361417166319475847e-01) (5, 6.11191713460691232740e-01) (6, 2.60453261890913667642e-01) (7, 5.43633681785626876604e+00) (8, 1.64299504386500622166e-01) (9, -3.46549995457428972045e+00) (10, -7.53335813751034449881e-02) (11, 1.06295778683568720169e+00) (12, -4.85538102649196376404e-02) (13, 4.57647682797594101967e-01) (14, 4.09847884516089389084e-01) (15, 3.22544961273162511528e-01) (16, -3.01817272934463087797e-01) (0, 3.10321508737951967660e+00) (1, 7.38092421611814764049e-01) (2, 6.56936897954015996959e-01) (3, 7.54048361500768926646e-01) (4, 6.00840865692167547252e-01) (5, 5.62207469592416302362e+01) (6, 5.15637348977738163569e-01) (7, 1.50000000000000000000e+03) (8, 9.08105019089305520730e-01) (9, -2.31602617603494564946e+00) (10, 1.24773829014444032737e+02) (11, -1.93798627391105482420e-01) (12, 1.33983040936539565813e+00) (13, 3.82355204496042722084e+00) (14, -6.40193114351615966129e-01) (15, 1.48229103371745918594e+03) (16, 4.55148769611082637532e-01) (0, -6.35479589458065263763e-01) (1, -2.22408062085064535396e-02) (2, -8.77060776814373860288e-02) (3, -1.32302734838381702565e-01) (4, -1.31342146383181507252e-01) (5, 3.17531137674272101457e-01) (6, 7.02814332021012705409e-02) (7, 4.85573734103238763282e+00) (8, 8.57844203194478571728e-02) (9, -9.54401341403962710785e+00) (10, -6.36239929400149034633e-02) (11, 6.17169630175369632319e-01) (12, -5.33552891126793035759e-02) (13, 1.58660654767063508119e-01) (14, 1.86106259789971278940e-01) (15, 1.40651221147441718440e-01) (16, 1.71557922465266840528e-02) (0, -1.36753603120574829255e+00) (1, -1.02601235001538379499e-01) (2, -1.13889244585488422223e-01) (3, -1.09102633982155902692e-01) (4, -1.26144689708207274892e-01) (5, 8.37768736178416545402e-02) (6, 2.03186699756577326959e-01) (7, 5.81687882698948310889e+00) (8, 1.49398891946178391521e-01) (9, -9.90900966035744801275e+00) (10, -1.16784737463155971482e-01) (11, 2.38672499434818025099e-01) (12, 2.47654949644950800325e-02) (13, 1.49485778571194355413e-01) (14, 1.22272398487413322399e-01) (15, 1.89674665315151425027e-01) (16, -6.88971768111930164824e-03) (17, 1.09864857607239185810e-01) (18, -2.64754679174984575152e-01) (19, -2.75305830641312143658e-01) (20, -2.44243878980135498136e-01) (21, -1.96022250457330182716e-01) (22, -2.48518038181677169973e-01) (23, 1.40232821971282728413e+00) (24, 4.29906457033509437071e-01) (25, -5.31191163601761773272e-01) (26, -2.59771687794663697080e-01) (27, 3.09734451155131873534e-01) 
