FANN_FLO_2.1
num_layers=3
learning_rate=0.700000
connection_rate=1.000000
network_type=0
learning_momentum=0.000000
training_algorithm=2
train_error_function=1
train_stop_function=1
cascade_output_change_fraction=0.010000
quickprop_decay=-0.000100
quickprop_mu=1.750000
rprop_increase_factor=1.200000
rprop_decrease_factor=0.500000
rprop_delta_min=0.000000
rprop_delta_max=50.000000
rprop_delta_zero=0.100000
cascade_output_stagnation_epochs=12
cascade_candidate_change_fraction=0.010000
cascade_candidate_stagnation_epochs=12
cascade_max_out_epochs=150
cascade_min_out_epochs=50
cascade_max_cand_epochs=150
cascade_min_cand_epochs=50
cascade_num_candidate_groups=2
bit_fail_limit=1.00000000000000005551e-01
cascade_candidate_limit=1.00000000000000000000e+03
cascade_weight_multiplier=4.00000000000000022204e-01
cascade_activation_functions_count=10
cascade_activation_functions=3 5 7 8 10 11 14 15 16 17 
cascade_activation_steepnesses_count=4
cascade_activation_steepnesses=2.50000000000000000000e-01 5.00000000000000000000e-01 7.50000000000000000000e-01 1.00000000000000000000e+00 
layer_sizes=13 11 2 
scale_included=0
neurons (num_inputs, activation_function, activation_steepness)=(0, 0, 0.00000000000000000000e+00) (0, 0, 0.00000000000000000000e+00) (0, 0, 0.00000000000000000000e+00) (0, 0, 0.00000000000000000000e+00) (0, 0, 0.00000000000000000000e+00) (0, 0, 0.00000000000000000000e+00) (0, 0, 0.00000000000000000000e+00) (0, 0, 0.00000000000000000000e+00) (0, 0, 0.00000000000000000000e+00) (0, 0, 0.00000000000000000000e+00) (0, 0, 0.00000000000000000000e+00) (0, 0, 0.00000000000000000000e+00) (0, 0, 0.00000000000000000000e+00) (13, 6, 5.00000000000000000000e-01) (13, 6, 5.00000000000000000000e-01) (13, 6, 5.00000000000000000000e-01) (13, 6, 5.00000000000000000000e-01) (13, 6, 5.00000000000000000000e-01) (13, 6, 5.00000000000000000000e-01) (13, 6, 5.00000000000000000000e-01) (13, 6, 5.00000000000000000000e-01) (13, 6, 5.00000000000000000000e-01) (13, 6, 5.00000000000000000000e-01) (0, 6, 0.00000000000000000000e+00) (11, 6, 5.00000000000000000000e-01) (0, 6, 0.00000000000000000000e+00) 
connections (connected_to_neuron, weight)=(0, -8.64419013448404527367e+00) (1, 4.05961191394284381939e-01) (2, 5.60382945575669366711e-01) (3, 5.74406502881005365246e-01) (4, 4.46190832295373096539e-01) (5, 7.67722146374386738010e-01) (6, 8.83109878222549160576e-01) (7, 2.84132613635331321422e-01) (8, 2.42212085514733654890e+00) (9, -8.57448943080119652116e-01) (10, -1.08477162489572243054e+00) (11, -1.11591411653714622787e+00) (12, 3.07232826721703355943e+00) (0, 2.91078944878502776650e-01) (1, 2.52992359623430661253e-02) (2, 7.83171428069589364851e-02) (3, 6.64990616664407480085e-02) (4, 8.63423419818399179304e-02) (5, 1.96367828253481313538e+01) (6, -1.16153579406677942565e+00) (7, -6.58968723275618395441e-01) (8, 1.04436696803730750815e+01) (9, -1.82956591059526829657e-01) (10, 2.37399524338948730851e-01) (11, 1.55363707601068656849e-01) (12, 1.70461443483681113209e-02) (0, -1.13547993937287516886e+00) (1, -2.33445023957317504548e-01) (2, -2.28364115420406493806e-01) (3, -3.02697090271538016282e-01) (4, -2.31519898239200744294e-01) (5, 1.04719518550353063446e+00) (6, 2.08696992238615486315e-01) (7, 1.13448879685557657560e+00) (8, 1.82539466438647690616e+00) (9, -1.02956800986754633959e-02) (10, 3.48104235667058836690e-01) (11, -1.76525609651208559292e-02) (12, -1.35982559274359038337e-01) (0, 6.23084973990223889295e-01) (1, -8.08050809952694654159e-02) (2, 5.01253352907221894075e-02) (3, 3.47098605182688882409e-02) (4, -7.88337765786129712753e-02) (5, -1.49321787579053677497e+00) (6, -1.51291383897345421694e-01) (7, -5.93362864576228221658e-01) (8, -3.87169131222029783146e+00) (9, 9.16351872324153299276e-02) (10, -4.98407235114921784436e-02) (11, 8.57751823656227735393e-02) (12, 5.06598497154823079747e-01) (0, 6.64384420799917774225e-01) (1, 3.08616319352818455068e-02) (2, -6.97681783085631335162e-02) (3, 1.70431742126179661123e-02) (4, -4.90249088352488343601e-02) (5, -1.53782306304543392450e+00) (6, -7.36773000111989595506e-02) (7, -6.62393103761229951054e-01) (8, -3.53846241730073707288e+00) (9, 1.25606392992908821871e-02) (10, -8.30054783514634283992e-03) (11, -7.01901617721053042165e-03) (12, 4.72759913768295236824e-01) (0, 8.42516215045742478118e-01) (1, -1.10980670020290064781e-01) (2, -2.49061910960156236705e-02) (3, 7.16216312196772536547e-02) (4, 6.47287712839167417300e-02) (5, -1.29444706291290367872e+00) (6, -1.54036855792086480044e-01) (7, -6.11545037947543335122e-01) (8, -3.77896693679352857487e+00) (9, 1.72882297264398687719e-01) (10, -9.12513782947410173607e-02) (11, 7.28500939600136426799e-02) (12, 4.67301907363048385502e-01) (0, 9.32399853301891234914e-02) (1, 4.26393903656973397021e-02) (2, 5.97944341465010339998e-02) (3, 1.48400255279160925292e-01) (4, 1.05289571718789540244e-01) (5, 1.51306731764281843233e+00) (6, 4.06859522073367951833e-01) (7, 5.98535492460225526656e-01) (8, 6.14744833919749211759e+00) (9, -1.87280941519716789823e-02) (10, 9.20744969327330631259e-02) (11, 1.25517821668623130726e-01) (12, -4.93679873839480365394e-01) (0, -1.12227971651325120206e+00) (1, -3.51797994139936121005e-01) (2, -2.74702485564496556858e-01) (3, -4.20879002574231664280e-01) (4, -3.43232463959004918674e-01) (5, 1.44257422086213216161e+00) (6, 2.29367294396855964100e-01) (7, 1.03936391317554543967e+00) (8, 3.84084543235153086371e+00) (9, -2.90836374015704779428e-01) (10, 2.17207604087037681184e-01) (11, 2.91966084097645850459e-01) (12, -1.41505038756204903905e-01) (0, 8.76022042808912937417e-01) (1, -1.10199844316993436633e-01) (2, -1.35336777047668194163e-01) (3, 4.68486046032564884545e-02) (4, -8.68462453050953958611e-02) (5, 2.62890773912052289063e-02) (6, 1.19483540921433162296e+00) (7, 1.58530385458559042178e+00) (8, -1.91332952349074325582e+00) (9, 1.65433547714443385246e+00) (10, 1.06964044187068152425e+00) (11, 7.64707151240546556537e-01) (12, 7.67216671234667718648e-02) (0, 1.59076234711233055474e-01) (1, 2.68377170644302831537e-01) (2, 1.29950550131102154916e-01) (3, 1.54671766541500610437e-01) (4, 1.17240217260618673212e-01) (5, 4.82097313798412407948e+00) (6, -5.56148573932634171513e-01) (7, -9.83707346887586764339e-02) (8, 5.24634638964864841171e+00) (9, -1.01132131923994464384e-01) (10, 2.32429495342481140518e-01) (11, 2.01140976308820801366e-01) (12, -2.12868320524840504149e-02) (13, -1.53771836844814185907e-01) (14, 3.60117433430155620133e-01) (15, 3.66247972759691065026e-01) (16, -2.09942088153468209288e-01) (17, -2.30339781072245675109e-01) (18, -2.13886999216185647033e-01) (19, 6.44507041939513469764e-01) (20, 4.04296257503747757944e-01) (21, 5.96825304619226115754e-01) (22, 3.73481465442088766959e-01) (23, 4.00550568763844039299e-01) 
