FANN_FLO_2.1
num_layers=3
learning_rate=0.700000
connection_rate=1.000000
network_type=0
learning_momentum=0.000000
training_algorithm=2
train_error_function=1
train_stop_function=1
cascade_output_change_fraction=0.010000
quickprop_decay=-0.000100
quickprop_mu=1.750000
rprop_increase_factor=1.200000
rprop_decrease_factor=0.500000
rprop_delta_min=0.000000
rprop_delta_max=50.000000
rprop_delta_zero=0.100000
cascade_output_stagnation_epochs=12
cascade_candidate_change_fraction=0.010000
cascade_candidate_stagnation_epochs=12
cascade_max_out_epochs=150
cascade_min_out_epochs=50
cascade_max_cand_epochs=150
cascade_min_cand_epochs=50
cascade_num_candidate_groups=2
bit_fail_limit=1.00000000000000005551e-01
cascade_candidate_limit=1.00000000000000000000e+03
cascade_weight_multiplier=4.00000000000000022204e-01
cascade_activation_functions_count=10
cascade_activation_functions=3 5 7 8 10 11 14 15 16 17 
cascade_activation_steepnesses_count=4
cascade_activation_steepnesses=2.50000000000000000000e-01 5.00000000000000000000e-01 7.50000000000000000000e-01 1.00000000000000000000e+00 
layer_sizes=16 11 2 
scale_included=0
neurons (num_inputs, activation_function, activation_steepness)=(0, 0, 0.00000000000000000000e+00) (0, 0, 0.00000000000000000000e+00) (0, 0, 0.00000000000000000000e+00) (0, 0, 0.00000000000000000000e+00) (0, 0, 0.00000000000000000000e+00) (0, 0, 0.00000000000000000000e+00) (0, 0, 0.00000000000000000000e+00) (0, 0, 0.00000000000000000000e+00) (0, 0, 0.00000000000000000000e+00) (0, 0, 0.00000000000000000000e+00) (0, 0, 0.00000000000000000000e+00) (0, 0, 0.00000000000000000000e+00) (0, 0, 0.00000000000000000000e+00) (0, 0, 0.00000000000000000000e+00) (0, 0, 0.00000000000000000000e+00) (0, 0, 0.00000000000000000000e+00) (16, 6, 5.00000000000000000000e-01) (16, 6, 5.00000000000000000000e-01) (16, 6, 5.00000000000000000000e-01) (16, 6, 5.00000000000000000000e-01) (16, 6, 5.00000000000000000000e-01) (16, 6, 5.00000000000000000000e-01) (16, 6, 5.00000000000000000000e-01) (16, 6, 5.00000000000000000000e-01) (16, 6, 5.00000000000000000000e-01) (16, 6, 5.00000000000000000000e-01) (0, 6, 0.00000000000000000000e+00) (11, 6, 5.00000000000000000000e-01) (0, 6, 0.00000000000000000000e+00) 
connections (connected_to_neuron, weight)=(0, 2.04470978511055268001e+00) (1, 5.27152036077424668292e-01) (2, 6.22330509818240562581e-01) (3, 6.35260083473369041585e-01) (4, 4.74415377474471766650e-01) (5, -3.39671020749797447635e+00) (6, -6.07741834752442056100e+00) (7, -1.09386431639149162010e+00) (8, -4.83785226189745870551e-03) (9, -8.90336938685050982567e-02) (10, 3.72746399715002008080e-01) (11, -8.32334983363781333310e+00) (12, 1.10592082596205742301e-02) (13, 1.81835794155964708407e-01) (14, -1.01057934780871860880e+00) (15, 3.00324634221819486424e-01) (0, 9.06631814281435488567e+00) (1, 2.94022274133974748089e-01) (2, 3.40188146499211085949e-01) (3, 4.02720642206484569225e-01) (4, 3.72938726959044231091e-01) (5, -8.77100275958476949256e-01) (6, -2.03576565300779099843e+00) (7, -1.56648549287646954298e+00) (8, -1.91116803114862743307e+00) (9, -1.34647836310693591599e+00) (10, -7.51963660346869011697e-01) (11, -1.90166187464753333458e+00) (12, -5.40838832348540465844e-01) (13, -7.60848973320597421477e-01) (14, -2.70910881033018124953e+00) (15, 1.35917639864088307666e-01) (0, -3.32563721029344749880e+00) (1, -3.22685064677394328747e-01) (2, -2.43959600035346557689e-01) (3, -4.15139796141780315075e-01) (4, -3.87981047783292343212e-01) (5, 5.59010404128082338815e-01) (6, 1.50623846691669038833e+00) (7, 9.40581470341270042823e-01) (8, 1.76187888061373598703e+00) (9, 6.44319882328213244804e-01) (10, 9.63925645670850039792e-01) (11, 1.35596482042476584873e+00) (12, 4.46285971275682757931e-01) (13, 1.14814496854120906555e+00) (14, 2.31183857733972342174e+00) (15, 1.06165032060130698488e-01) (0, -2.86012735065926326783e+00) (1, -1.95857169972748934583e-01) (2, -2.93779569612832136549e-01) (3, -1.78560125576348482923e-01) (4, -1.98392602549882113294e-01) (5, 3.28005113593843655728e-01) (6, 2.14539014548280748684e+00) (7, 4.10013569720374726479e-01) (8, 1.77957840537398226388e+00) (9, 6.29587313461225234201e-02) (10, 7.63106688848787073631e-01) (11, 1.39729269251441023947e+00) (12, 2.83223987338981464390e-01) (13, 8.59231343959878324235e-01) (14, 2.03764578175036614738e+00) (15, 7.68254478703425808250e-02) (0, -2.84810799208391918214e+00) (1, -2.05150308953614413099e-01) (2, -2.06067177401871859388e-01) (3, -1.95316794263215243177e-01) (4, -2.64526995765061667676e-01) (5, 2.89153314781226300489e-01) (6, 2.14235862344720873196e+00) (7, 4.57439881965219119486e-01) (8, 1.61980980163185961374e+00) (9, -1.02103430099764372341e-01) (10, 6.86904933669960970910e-01) (11, 2.31373850919571477647e+00) (12, 2.93830523505028529119e-01) (13, 1.30374840512571710249e+00) (14, 2.06157676350562280021e+00) (15, 2.96543617974208244259e-02) (0, 4.13079031887664793743e+00) (1, 2.01710308329094201163e-01) (2, 2.16091024116504937247e-01) (3, 2.79452572003830224112e-01) (4, 3.51568447784412652091e-01) (5, -2.63214376631679791707e-01) (6, -1.90096613286274118693e+00) (7, -1.24575477855585781128e+00) (8, -2.50048578180338187948e+00) (9, -1.31870762537169283757e-01) (10, -2.28028312296849722252e-01) (11, -2.06493943645579713930e+00) (12, -4.88107280668458487494e-01) (13, -8.66050913219412299426e-01) (14, -2.08578422629991955262e+00) (15, 1.39972759919712086418e-01) (0, 2.80336502700894740769e+00) (1, 6.02705874641123462432e-01) (2, 6.64720931251230884307e-01) (3, 5.85306608278933215850e-01) (4, 6.47924968202295947783e-01) (5, 6.07780557413706823411e+00) (6, 7.08694938998907186800e+00) (7, 4.33386810632566052415e-02) (8, -1.08878320318870636108e+00) (9, 2.47025116125701105219e-01) (10, -3.86649077395861240358e-01) (11, 9.50711598899030718712e+00) (12, 1.83262136354854732190e+00) (13, 3.76039070808700204296e+00) (14, -1.12563157213855635774e+00) (15, -1.22185988946048840198e+00) (0, 9.19240713881630888693e+00) (1, 3.20821537131419198818e-01) (2, 3.17273458892455062497e-01) (3, 2.21164627427210852550e-01) (4, 3.16284833902468642819e-01) (5, -1.22400540780285282949e+00) (6, -2.27141291280884161097e+00) (7, -3.25060233403420661968e-01) (8, -1.16510764213135398215e+00) (9, -9.66091062499646713313e-01) (10, 5.11654856667660751235e-01) (11, -2.56344004398885694229e+00) (12, -1.06166265107643020826e+00) (13, -8.58898031508066317485e-01) (14, -1.28525466188227044384e+00) (15, -8.24255144090795671685e-02) (0, 2.73906007915585902879e+00) (1, 6.77250781257334399932e-01) (2, 6.92248963911715198272e-01) (3, 5.80709711809340167754e-01) (4, 5.81836433310690570586e-01) (5, 6.11330967684397919015e+00) (6, 6.99999144356935598665e+00) (7, -4.15093205360551747996e-02) (8, -1.11557291311435791137e+00) (9, 2.68568592856286203485e-01) (10, -5.23822614560787713778e-01) (11, 9.52373716141843829064e+00) (12, 1.82930809035709529553e+00) (13, -3.18288672585371468227e-01) (14, -1.00114884732294884273e+00) (15, -1.36873033864585957886e+00) (0, 9.19670116918463698141e+00) (1, 3.33251970734596891788e-01) (2, 2.98880330201388266786e-01) (3, 3.76940312709809099978e-01) (4, 3.31103022124767942813e-01) (5, -1.14517101934008214137e+00) (6, -2.41363991277487732745e+00) (7, -9.33546469153010982645e-01) (8, -1.17361657770207084006e+00) (9, -5.01853320277386050208e-01) (10, 4.14360644226411001245e-01) (11, -2.88611428401355718520e+00) (12, -8.37987162380606109835e-01) (13, -9.62295904534665402785e-01) (14, -1.83036569644982449745e+00) (15, 1.30308215902799335965e-03) (16, -6.41186243561281954406e-02) (17, -3.52494356008854481388e-01) (18, 5.59090411828119027149e-01) (19, 5.27384951103684329610e-01) (20, 1.84791045078238069799e-01) (21, -1.51177402764437973648e-01) (22, 7.59660453110582167824e-01) (23, -2.11332294468867781800e-01) (24, 7.76516423135644728859e-01) (25, -1.69694969045838250921e-01) (26, 6.46013154608029327441e-01) 
