FANN_FLO_2.1
num_layers=3
learning_rate=0.700000
connection_rate=1.000000
network_type=0
learning_momentum=0.000000
training_algorithm=2
train_error_function=1
train_stop_function=1
cascade_output_change_fraction=0.010000
quickprop_decay=-0.000100
quickprop_mu=1.750000
rprop_increase_factor=1.200000
rprop_decrease_factor=0.500000
rprop_delta_min=0.000000
rprop_delta_max=50.000000
rprop_delta_zero=0.100000
cascade_output_stagnation_epochs=12
cascade_candidate_change_fraction=0.010000
cascade_candidate_stagnation_epochs=12
cascade_max_out_epochs=150
cascade_min_out_epochs=50
cascade_max_cand_epochs=150
cascade_min_cand_epochs=50
cascade_num_candidate_groups=2
bit_fail_limit=1.00000000000000005551e-01
cascade_candidate_limit=1.00000000000000000000e+03
cascade_weight_multiplier=4.00000000000000022204e-01
cascade_activation_functions_count=10
cascade_activation_functions=3 5 7 8 10 11 14 15 16 17 
cascade_activation_steepnesses_count=4
cascade_activation_steepnesses=2.50000000000000000000e-01 5.00000000000000000000e-01 7.50000000000000000000e-01 1.00000000000000000000e+00 
layer_sizes=9 4 2 
scale_included=0
neurons (num_inputs, activation_function, activation_steepness)=(0, 0, 0.00000000000000000000e+00) (0, 0, 0.00000000000000000000e+00) (0, 0, 0.00000000000000000000e+00) (0, 0, 0.00000000000000000000e+00) (0, 0, 0.00000000000000000000e+00) (0, 0, 0.00000000000000000000e+00) (0, 0, 0.00000000000000000000e+00) (0, 0, 0.00000000000000000000e+00) (0, 0, 0.00000000000000000000e+00) (9, 6, 5.00000000000000000000e-01) (9, 6, 5.00000000000000000000e-01) (9, 6, 5.00000000000000000000e-01) (0, 6, 0.00000000000000000000e+00) (4, 4, 5.00000000000000000000e-01) (0, 4, 0.00000000000000000000e+00) 
connections (connected_to_neuron, weight)=(0, -1.25019312321148645673e+00) (1, 1.09909436508318836268e+00) (2, 1.76564666289889404815e+00) (3, -8.33179167690492938902e-01) (4, 4.56117235829367251299e-01) (5, 1.50202267080477347427e-01) (6, -5.05157840195489926671e-01) (7, 4.22227908231460336008e-01) (8, -1.24215691742398393060e+00) (0, 2.15483744401686960757e+00) (1, -1.17925739887884728496e+00) (2, -2.75346589642943895271e+00) (3, 1.55994204886171261570e+00) (4, -1.67381602622759673160e+00) (5, 5.77944123957683908444e-01) (6, 1.89769973732899455143e+00) (7, 5.08733769796492318882e-01) (8, 2.20577956695311794277e+00) (0, -1.24329673170052301678e+00) (1, 1.42244463169397028501e+00) (2, 1.57314841855370635137e+00) (3, -9.12455446305490802672e-01) (4, 3.29385437776579470537e-01) (5, 2.42460236161879200134e-01) (6, -1.07977600011908414501e+00) (7, 4.52726718343936684885e-01) (8, -1.30678191986777436639e+00) (9, 6.97914964564278861303e+00) (10, -1.98343404394812483638e+00) (11, 2.13008611011677260194e+01) (12, -1.32859260794617783930e+00) 
