FANN_FLO_2.1
num_layers=3
learning_rate=0.700000
connection_rate=1.000000
network_type=0
learning_momentum=0.000000
training_algorithm=2
train_error_function=1
train_stop_function=1
cascade_output_change_fraction=0.010000
quickprop_decay=-0.000100
quickprop_mu=1.750000
rprop_increase_factor=1.200000
rprop_decrease_factor=0.500000
rprop_delta_min=0.000000
rprop_delta_max=50.000000
rprop_delta_zero=0.100000
cascade_output_stagnation_epochs=12
cascade_candidate_change_fraction=0.010000
cascade_candidate_stagnation_epochs=12
cascade_max_out_epochs=150
cascade_min_out_epochs=50
cascade_max_cand_epochs=150
cascade_min_cand_epochs=50
cascade_num_candidate_groups=2
bit_fail_limit=1.00000000000000005551e-01
cascade_candidate_limit=1.00000000000000000000e+03
cascade_weight_multiplier=4.00000000000000022204e-01
cascade_activation_functions_count=10
cascade_activation_functions=3 5 7 8 10 11 14 15 16 17 
cascade_activation_steepnesses_count=4
cascade_activation_steepnesses=2.50000000000000000000e-01 5.00000000000000000000e-01 7.50000000000000000000e-01 1.00000000000000000000e+00 
layer_sizes=14 11 2 
scale_included=0
neurons (num_inputs, activation_function, activation_steepness)=(0, 0, 0.00000000000000000000e+00) (0, 0, 0.00000000000000000000e+00) (0, 0, 0.00000000000000000000e+00) (0, 0, 0.00000000000000000000e+00) (0, 0, 0.00000000000000000000e+00) (0, 0, 0.00000000000000000000e+00) (0, 0, 0.00000000000000000000e+00) (0, 0, 0.00000000000000000000e+00) (0, 0, 0.00000000000000000000e+00) (0, 0, 0.00000000000000000000e+00) (0, 0, 0.00000000000000000000e+00) (0, 0, 0.00000000000000000000e+00) (0, 0, 0.00000000000000000000e+00) (0, 0, 0.00000000000000000000e+00) (14, 6, 5.00000000000000000000e-01) (14, 6, 5.00000000000000000000e-01) (14, 6, 5.00000000000000000000e-01) (14, 6, 5.00000000000000000000e-01) (14, 6, 5.00000000000000000000e-01) (14, 6, 5.00000000000000000000e-01) (14, 6, 5.00000000000000000000e-01) (14, 6, 5.00000000000000000000e-01) (14, 6, 5.00000000000000000000e-01) (14, 6, 5.00000000000000000000e-01) (0, 6, 0.00000000000000000000e+00) (11, 6, 5.00000000000000000000e-01) (0, 6, 0.00000000000000000000e+00) 
connections (connected_to_neuron, weight)=(0, -1.31414524716008673799e+00) (1, 2.07993175799171294005e-02) (2, -1.11555463451691497245e-01) (3, -9.23949841445167868725e-02) (4, -5.52434761112412034412e-02) (5, 1.36264664671266322316e+00) (6, -2.28700610548355026674e-01) (7, -1.07723244502223647334e-01) (8, -3.10584011259812442507e-01) (9, 1.36393693779938596222e+00) (10, -1.76484752936300948178e-01) (11, 3.18264012907082172177e-01) (12, 2.55020753303151526126e+00) (13, 4.32609648220554920961e-02) (0, 2.23934254139748816215e+01) (1, 9.15045717848966960739e-02) (2, 1.52538915921611589743e-01) (3, 1.58189667214317153388e-01) (4, 1.20157306839389618758e-01) (5, -1.95962370076355130166e+00) (6, 1.76732737450644272759e-01) (7, -2.41254583248628806658e+00) (8, -7.69455242308277331809e-02) (9, -2.41999340444858201948e+00) (10, 2.02301311415232359936e-01) (11, 4.33595763583165538790e-01) (12, -1.93697219220194671863e+00) (13, -4.66776107328992995171e-01) (0, 3.16367611985272709774e+01) (1, -1.14115397090951947723e-01) (2, -1.29171493108312690490e-01) (3, -5.87900454354687157510e-02) (4, -1.51341194863359507217e-01) (5, -1.58349677303417757379e+00) (6, -1.31601706135798446340e+00) (7, -1.93782723265691192438e+00) (8, -2.23088193782661825537e+00) (9, -3.38359610149212475250e+00) (10, -3.29694281055336269048e+00) (11, -2.95639121719014053014e+00) (12, -1.95810278795055703327e+00) (13, -5.32318059683726918507e-01) (0, -1.40598329592325477222e+00) (1, -8.07648997789104788891e-02) (2, -3.87515116518219460140e-02) (3, 4.15111865813056757357e-02) (4, -7.53172922914703696362e-02) (5, 1.33692886671865229786e+00) (6, -2.68449186086751889757e-01) (7, 4.64070373861019506989e-03) (8, -1.62953471748070621850e-01) (9, 9.08949424332780586688e-01) (10, -1.82979557686945681905e-01) (11, 1.15108611229944812759e-01) (12, 2.59557374701878584844e+00) (13, 1.19326514907925479436e-02) (0, 3.63777899387166385736e+01) (1, -2.88049813794932607625e-01) (2, -2.00271551000914788121e-01) (3, -1.04908910083613693409e-01) (4, -2.20627244996867394322e-01) (5, -1.77186996823391362810e+00) (6, -1.73282196209732175518e+00) (7, -2.17243646204182550008e+00) (8, -1.57501842844133466137e+00) (9, -2.88590048396005949272e+00) (10, -2.13542113345621498155e+00) (11, -2.20001425602420708216e+00) (12, -2.00201723621346960869e+00) (13, -7.17473726268153810803e-02) (0, 1.15315319706757657414e+00) (1, 3.93835321139643160238e-02) (2, 3.26387524675676790609e-02) (3, 1.90542095906669900485e-01) (4, 1.00593523688251751391e-01) (5, -1.00365238666854916794e+00) (6, 1.61557176245234968004e-01) (7, 1.77953603790535236362e-01) (8, 9.49645019233950060666e-02) (9, 5.16422881249739007536e-01) (10, 9.84415627418852995367e-02) (11, 5.89798554037904376735e-01) (12, 4.98837375094698387556e+01) (13, 1.14723766137889884864e-01) (0, -1.48108696628191283118e+00) (1, -3.03040359204491127620e-02) (2, -9.05919995194156973950e-02) (3, 8.97725782936018359970e-03) (4, -2.93020594900330090538e-02) (5, 1.15651266851308287542e+00) (6, -1.88972945064403430315e-01) (7, -4.12303367993008401671e-02) (8, -2.17548830417828381600e-01) (9, 7.23046549817687789208e-01) (10, -2.11588922911783994252e-01) (11, -4.84580901743199565779e-02) (12, 2.49959190986613410956e+00) (13, -3.54637134788816921205e-04) (0, 3.39917805577407960982e+00) (1, 7.21251329681854125297e-01) (2, 7.95483393869380828178e-01) (3, 7.11610475829820510185e-01) (4, 7.39417856833915587700e-01) (5, 3.13362033346167967451e+00) (6, 6.33427373999610687783e-01) (7, 3.81902358608467240586e+00) (8, 8.54664516159240883475e-01) (9, 3.16547468957125355260e+00) (10, 1.51040115212505599018e+00) (11, 3.04043763587450710517e+00) (12, 2.18123952035997481502e+00) (13, 4.85757818552308817672e-01) (0, 6.01208776372354858353e+00) (1, 3.14135711545131801614e+00) (2, 3.11026359254501461038e+00) (3, 3.01280736828230066848e+00) (4, 3.05302797162912487039e+00) (5, 3.14483867266646788252e+00) (6, 3.09583671711832231210e+00) (7, 5.09729457386880913106e+00) (8, 3.02198297217969047423e+00) (9, 3.63442462894947437846e+00) (10, 3.82055642175389431614e+00) (11, 3.60160732185456389232e+00) (12, 2.19887066317794133141e+00) (13, -4.24188573944404545557e+00) (0, 5.97348555698359540145e-01) (1, -1.77048723413645275881e-01) (2, -1.17308470620810012530e-01) (3, -1.43347586705385693362e-01) (4, -1.08930501355825881671e-01) (5, -2.29453880481564932714e-02) (6, 1.95206644687680286321e-01) (7, 5.46221596954295729454e-01) (8, 1.52128117235567295040e-01) (9, 2.97098654342438406317e+00) (10, 3.09717555448097148219e-01) (11, 9.34792733804356790195e-01) (12, 4.95924340241582228828e+01) (13, -1.22267439438436667509e-01) (14, 5.80240007463400653265e-01) (15, -1.75364286355140702733e-01) (16, -2.55043776844755987199e-01) (17, 7.56254787168025299771e-01) (18, -2.10951713984028704774e-01) (19, -5.33872607600288998086e-02) (20, 7.72406029126166626675e-01) (21, 5.63706811748801550621e-01) (22, 6.27562479190671540508e-01) (23, -8.62665113359805668658e-01) (24, 4.65515783886826961524e-01) 
