FANN_FLO_2.1
num_layers=3
learning_rate=0.700000
connection_rate=1.000000
network_type=0
learning_momentum=0.000000
training_algorithm=2
train_error_function=1
train_stop_function=1
cascade_output_change_fraction=0.010000
quickprop_decay=-0.000100
quickprop_mu=1.750000
rprop_increase_factor=1.200000
rprop_decrease_factor=0.500000
rprop_delta_min=0.000000
rprop_delta_max=50.000000
rprop_delta_zero=0.100000
cascade_output_stagnation_epochs=12
cascade_candidate_change_fraction=0.010000
cascade_candidate_stagnation_epochs=12
cascade_max_out_epochs=150
cascade_min_out_epochs=50
cascade_max_cand_epochs=150
cascade_min_cand_epochs=50
cascade_num_candidate_groups=2
bit_fail_limit=1.00000000000000005551e-01
cascade_candidate_limit=1.00000000000000000000e+03
cascade_weight_multiplier=4.00000000000000022204e-01
cascade_activation_functions_count=10
cascade_activation_functions=3 5 7 8 10 11 14 15 16 17 
cascade_activation_steepnesses_count=4
cascade_activation_steepnesses=2.50000000000000000000e-01 5.00000000000000000000e-01 7.50000000000000000000e-01 1.00000000000000000000e+00 
layer_sizes=17 11 2 
scale_included=0
neurons (num_inputs, activation_function, activation_steepness)=(0, 0, 0.00000000000000000000e+00) (0, 0, 0.00000000000000000000e+00) (0, 0, 0.00000000000000000000e+00) (0, 0, 0.00000000000000000000e+00) (0, 0, 0.00000000000000000000e+00) (0, 0, 0.00000000000000000000e+00) (0, 0, 0.00000000000000000000e+00) (0, 0, 0.00000000000000000000e+00) (0, 0, 0.00000000000000000000e+00) (0, 0, 0.00000000000000000000e+00) (0, 0, 0.00000000000000000000e+00) (0, 0, 0.00000000000000000000e+00) (0, 0, 0.00000000000000000000e+00) (0, 0, 0.00000000000000000000e+00) (0, 0, 0.00000000000000000000e+00) (0, 0, 0.00000000000000000000e+00) (0, 0, 0.00000000000000000000e+00) (17, 6, 5.00000000000000000000e-01) (17, 6, 5.00000000000000000000e-01) (17, 6, 5.00000000000000000000e-01) (17, 6, 5.00000000000000000000e-01) (17, 6, 5.00000000000000000000e-01) (17, 6, 5.00000000000000000000e-01) (17, 6, 5.00000000000000000000e-01) (17, 6, 5.00000000000000000000e-01) (17, 6, 5.00000000000000000000e-01) (17, 6, 5.00000000000000000000e-01) (0, 6, 0.00000000000000000000e+00) (11, 6, 5.00000000000000000000e-01) (0, 6, 0.00000000000000000000e+00) 
connections (connected_to_neuron, weight)=(0, 1.41255060183121661233e+00) (1, 3.40879523336373002618e-01) (2, 3.92132097064934403985e-01) (3, 3.31031487464390428155e-01) (4, 2.91813121318302781670e-01) (5, 4.71110452570079940582e-01) (6, 1.18044919351866917090e+00) (7, 2.62589507005727529343e-01) (8, 1.29262018917983123600e+01) (9, 1.00887770936402194621e+01) (10, 1.14119772609725411705e+00) (11, 2.81385137273419183579e-01) (12, 1.57000612322757433503e+01) (13, 2.98202195333656439047e-01) (14, 3.21096565500050390440e-01) (15, 5.76379312924153563991e-01) (16, 5.41405564198683797450e-01) (0, 1.58223494543288967229e+00) (1, 6.11603599489305094217e-01) (2, 7.08430942595574708598e-01) (3, 5.75575072765920237039e-01) (4, 5.89948136807057932351e-01) (5, 9.26477867734262217070e-01) (6, -1.77690241301848295130e-01) (7, 6.30296558966208397834e-01) (8, -2.96184628808935035416e-01) (9, -1.02356119569752621601e+01) (10, 5.52621752988683101471e-01) (11, 5.92062330840661954490e-01) (12, -1.22887112108528073762e+00) (13, -2.98322603089291593648e-01) (14, -1.98626235110242133075e-01) (15, 9.33964506762526847083e-01) (16, 5.64633400030228216337e-01) (0, 3.86829909264502114219e-01) (1, 2.55833560036569374052e-01) (2, 3.76769752608686336881e-01) (3, 3.57067958818822750455e-01) (4, 2.75970303820520290738e-01) (5, 3.62718161799072347229e-01) (6, 1.13077710400155262427e+00) (7, 3.23199371330164353378e-01) (8, 1.30029702230279990971e+01) (9, 1.01764232948931567790e+01) (10, 5.77965685647730320618e-01) (11, 2.83289611425937337685e-01) (12, 1.56024862606594751924e+01) (13, 2.52636074700794410752e-01) (14, 2.48146688219128025432e-01) (15, 6.11933856061703917995e-01) (16, 4.02260075449126786040e-01) (0, 3.91434657586510581506e-01) (1, -5.77611939173162947103e-03) (2, -8.31898795173686839144e-02) (3, -7.99403758452457285921e-02) (4, 5.66364852978664609640e-02) (5, 1.92553758259243412709e+00) (6, 5.14906744203202093590e-02) (7, -6.81796233106771315535e-02) (8, -5.52432256675443333904e+00) (9, 1.60093943999913790321e+00) (10, -4.37488594448329215503e-02) (11, 9.07024596923761139422e-02) (12, -6.37174606812630894837e+00) (13, 7.73128054373400236399e-03) (14, -3.57968996995523675020e-02) (15, 2.24884429718720157965e+00) (16, -5.92460484599830264352e-02) (0, 4.62479574794426973039e-01) (1, -4.55129230127853320886e-02) (2, -5.33122287254751778957e-03) (3, -3.33730252192539073031e-02) (4, 8.44734041287380360563e-02) (5, 2.05883868302209194212e+00) (6, 1.40786680123440709894e-02) (7, 9.54956634973395807053e-02) (8, -5.42456641531667393963e+00) (9, 1.54993456082252123451e+00) (10, 1.10815048089051085278e-01) (11, -1.01217175727911085081e-02) (12, -6.32624123734866383728e+00) (13, 8.27644264176186916782e-02) (14, -5.32793182664946032845e-02) (15, 2.12837236146794994696e+00) (16, 6.99149666929481938826e-02) (0, 3.04857220160700048694e-01) (1, -7.83014447784187023194e-02) (2, -7.55733848905326549561e-02) (3, 4.94035928154228712317e-02) (4, -5.81481383538009280465e-02) (5, 5.77059424733075254643e-01) (6, 7.47696421059500793138e-02) (7, -1.70779834438482130965e-02) (8, -9.90437324589268897057e+00) (9, 3.08030386947130718767e+00) (10, 3.48969965622096811586e-02) (11, 3.26147918511391840535e-02) (12, -6.32137612742816212830e+00) (13, 1.06316141107012179789e-01) (14, 4.75781816454972847352e-02) (15, -8.69719024179703426025e-02) (16, -4.66519064521152965197e-02) (0, 2.24042484332878588660e+00) (1, 5.80898352275714180415e-01) (2, 6.74704723368510284054e-01) (3, 6.20711122016534111445e-01) (4, 7.72369087050780334103e-01) (5, 2.56243361797032687122e+00) (6, -2.73758271766253447055e-02) (7, 7.69760117243155517208e-01) (8, -4.01605162774005403081e-02) (9, -1.19186624275910695303e+01) (10, 6.71429358817265398152e-01) (11, 7.70286278616898023586e-01) (12, -8.55550067828018789839e-01) (13, -2.32683442515809302265e-01) (14, 3.04113689193729552773e-01) (15, 2.64826708551345202380e+00) (16, 6.96325949885545414375e-01) (0, -6.93069061969723176908e-01) (1, -9.38705798431264948345e-02) (2, -9.26160063787328791118e-02) (3, -2.39292241279684209099e-01) (4, -2.22615647707782887688e-01) (5, 1.24836700747236917231e+00) (6, -2.62672376504764826244e-01) (7, -1.83577342941408122590e-01) (8, -2.99716534102053389077e+00) (9, 8.09195895787962271584e+00) (10, -1.86077877816592435201e-01) (11, -4.00407974616015294167e-01) (12, 8.90203555349318698120e+00) (13, -1.90150975437404140544e-01) (14, -5.29416077403964013826e-01) (15, 1.12764154688915563263e+00) (16, -2.13793080410615010667e-01) (0, 1.70117703481172344304e+00) (1, 5.78086156845662668680e-01) (2, 6.92137714922997804301e-01) (3, 6.23786777705524042581e-01) (4, 7.68187668622109742778e-01) (5, 1.56655802175194969195e+00) (6, -3.91123909534358493723e-01) (7, 6.85243565259252895849e-01) (8, -3.45021881789807083329e-01) (9, -1.02225572880719113300e+01) (10, 4.10719914122558038549e-01) (11, 6.72266070630656908946e-01) (12, -1.71670880105725975895e+00) (13, -2.03379921597916846210e-01) (14, -2.66741473210532209492e-01) (15, 1.31751025156917744852e+00) (16, 5.74747225517329707323e-01) (0, 9.93016540881159981424e-01) (1, 2.77992592560201534635e-01) (2, 3.61692131863981136686e-01) (3, 3.17617372976690182096e-01) (4, 2.50897323148399242765e-01) (5, 4.43464805044292587066e-01) (6, 1.18030816147854999976e+00) (7, 3.75911357323285955090e-01) (8, 1.28859772390609332859e+01) (9, 1.01118176565083377483e+01) (10, 7.01044821661715111816e-01) (11, 3.12115481628525426316e-01) (12, 1.57165313516328524202e+01) (13, 4.33047175088367708451e-01) (14, 1.78235081609306650341e-01) (15, 6.92461496940858123317e-01) (16, 3.66377945183890885161e-01) (17, 3.01730998107485770543e-01) (18, -2.22416341666722805481e-01) (19, 3.89196343967013358434e-01) (20, -6.33642442681714296304e-02) (21, -3.13775752421954490234e-01) (22, -2.97895249308732859572e-02) (23, -2.24811072885316570735e-01) (24, 6.82790831682013044102e-01) (25, -2.15925737523064570356e-01) (26, 3.83025609203867911656e-01) (27, 2.14529366599469972776e-01) 
