FANN_FLO_2.1
num_layers=3
learning_rate=0.700000
connection_rate=1.000000
network_type=0
learning_momentum=0.000000
training_algorithm=2
train_error_function=1
train_stop_function=1
cascade_output_change_fraction=0.010000
quickprop_decay=-0.000100
quickprop_mu=1.750000
rprop_increase_factor=1.200000
rprop_decrease_factor=0.500000
rprop_delta_min=0.000000
rprop_delta_max=50.000000
rprop_delta_zero=0.100000
cascade_output_stagnation_epochs=12
cascade_candidate_change_fraction=0.010000
cascade_candidate_stagnation_epochs=12
cascade_max_out_epochs=150
cascade_min_out_epochs=50
cascade_max_cand_epochs=150
cascade_min_cand_epochs=50
cascade_num_candidate_groups=2
bit_fail_limit=1.00000000000000005551e-01
cascade_candidate_limit=1.00000000000000000000e+03
cascade_weight_multiplier=4.00000000000000022204e-01
cascade_activation_functions_count=10
cascade_activation_functions=3 5 7 8 10 11 14 15 16 17 
cascade_activation_steepnesses_count=4
cascade_activation_steepnesses=2.50000000000000000000e-01 5.00000000000000000000e-01 7.50000000000000000000e-01 1.00000000000000000000e+00 
layer_sizes=67 11 2 
scale_included=0
neurons (num_inputs, activation_function, activation_steepness)=(0, 0, 0.00000000000000000000e+00) (0, 0, 0.00000000000000000000e+00) (0, 0, 0.00000000000000000000e+00) (0, 0, 0.00000000000000000000e+00) (0, 0, 0.00000000000000000000e+00) (0, 0, 0.00000000000000000000e+00) (0, 0, 0.00000000000000000000e+00) (0, 0, 0.00000000000000000000e+00) (0, 0, 0.00000000000000000000e+00) (0, 0, 0.00000000000000000000e+00) (0, 0, 0.00000000000000000000e+00) (0, 0, 0.00000000000000000000e+00) (0, 0, 0.00000000000000000000e+00) (0, 0, 0.00000000000000000000e+00) (0, 0, 0.00000000000000000000e+00) (0, 0, 0.00000000000000000000e+00) (0, 0, 0.00000000000000000000e+00) (0, 0, 0.00000000000000000000e+00) (0, 0, 0.00000000000000000000e+00) (0, 0, 0.00000000000000000000e+00) (0, 0, 0.00000000000000000000e+00) (0, 0, 0.00000000000000000000e+00) (0, 0, 0.00000000000000000000e+00) (0, 0, 0.00000000000000000000e+00) (0, 0, 0.00000000000000000000e+00) (0, 0, 0.00000000000000000000e+00) (0, 0, 0.00000000000000000000e+00) (0, 0, 0.00000000000000000000e+00) (0, 0, 0.00000000000000000000e+00) (0, 0, 0.00000000000000000000e+00) (0, 0, 0.00000000000000000000e+00) (0, 0, 0.00000000000000000000e+00) (0, 0, 0.00000000000000000000e+00) (0, 0, 0.00000000000000000000e+00) (0, 0, 0.00000000000000000000e+00) (0, 0, 0.00000000000000000000e+00) (0, 0, 0.00000000000000000000e+00) (0, 0, 0.00000000000000000000e+00) (0, 0, 0.00000000000000000000e+00) (0, 0, 0.00000000000000000000e+00) (0, 0, 0.00000000000000000000e+00) (0, 0, 0.00000000000000000000e+00) (0, 0, 0.00000000000000000000e+00) (0, 0, 0.00000000000000000000e+00) (0, 0, 0.00000000000000000000e+00) (0, 0, 0.00000000000000000000e+00) (0, 0, 0.00000000000000000000e+00) (0, 0, 0.00000000000000000000e+00) (0, 0, 0.00000000000000000000e+00) (0, 0, 0.00000000000000000000e+00) (0, 0, 0.00000000000000000000e+00) (0, 0, 0.00000000000000000000e+00) (0, 0, 0.00000000000000000000e+00) (0, 0, 0.00000000000000000000e+00) (0, 0, 0.00000000000000000000e+00) (0, 0, 0.00000000000000000000e+00) (0, 0, 0.00000000000000000000e+00) (0, 0, 0.00000000000000000000e+00) (0, 0, 0.00000000000000000000e+00) (0, 0, 0.00000000000000000000e+00) (0, 0, 0.00000000000000000000e+00) (0, 0, 0.00000000000000000000e+00) (0, 0, 0.00000000000000000000e+00) (0, 0, 0.00000000000000000000e+00) (0, 0, 0.00000000000000000000e+00) (0, 0, 0.00000000000000000000e+00) (0, 0, 0.00000000000000000000e+00) (67, 6, 5.00000000000000000000e-01) (67, 6, 5.00000000000000000000e-01) (67, 6, 5.00000000000000000000e-01) (67, 6, 5.00000000000000000000e-01) (67, 6, 5.00000000000000000000e-01) (67, 6, 5.00000000000000000000e-01) (67, 6, 5.00000000000000000000e-01) (67, 6, 5.00000000000000000000e-01) (67, 6, 5.00000000000000000000e-01) (67, 6, 5.00000000000000000000e-01) (0, 6, 0.00000000000000000000e+00) (11, 6, 5.00000000000000000000e-01) (0, 6, 0.00000000000000000000e+00) 
connections (connected_to_neuron, weight)=(0, 9.95404247356530769153e-01) (1, 1.46187359808256867044e-01) (2, 2.46598543940356296211e-01) (3, 1.61582725463679077738e-01) (4, 2.04513507304957486976e-01) (5, -3.12067661975548427122e+00) (6, 7.99222628373781596167e+00) (7, 2.69481176567555369417e+00) (8, 1.21869169605552007951e+00) (9, -7.37072442597525157026e+00) (10, 8.67936409841258260656e+00) (11, 1.27833987585796504671e-01) (12, -4.65989544443370762306e-01) (13, 5.60721130409050338983e+00) (14, -4.18190798872846269951e-01) (15, 6.59515881943943327315e+00) (16, 5.12748491394103833585e-02) (17, 4.19323467624268708676e+00) (18, -3.27751581899583399604e+00) (19, 3.92775199262674368228e+00) (20, -3.39532796673745140836e+00) (21, -5.57973613479337715582e-01) (22, -5.26643172683845042781e-02) (23, 2.46338679416683206114e+01) (24, 1.59501394722235323442e+00) (25, 1.23712197743683805129e+03) (26, -4.47816669836377523328e-01) (27, -3.91075778732753287503e-01) (28, 9.00180887176588662157e+00) (29, -4.10351825112093493431e+00) (30, 1.50000000000000000000e+03) (31, -1.73415875345569570065e+00) (32, 3.80753942083773444516e-01) (33, -3.63789043226880171034e+00) (34, -7.01958729043329232589e-01) (35, -1.55901149660193971691e+00) (36, 1.09719693907821813639e+01) (37, 6.39124250125737347616e+00) (38, 1.19229549395972594539e+03) (39, -4.14507564073715251141e-01) (40, -1.15642642517223559473e+00) (41, -5.19819604479475727565e-01) (42, -4.30265939997295365771e+00) (43, -3.61604336395109449143e+00) (44, -3.09729820490220308926e+00) (45, 1.50000000000000000000e+03) (46, 3.97355676331477866370e+02) (47, -1.98675285094795772700e+00) (48, 1.50000000000000000000e+03) (49, 1.40440021656480706902e+00) (50, -3.98470458610152622470e-01) (51, -6.62076605362779568864e-01) (52, -2.57179400443577288460e-01) (53, -2.85285470011745534435e+00) (54, -6.78752884022842284395e-01) (55, 6.39721295532461624589e+01) (56, -7.76817253474584579198e-02) (57, -1.36561874245096581681e-01) (58, -8.97885998662501960688e-01) (59, -1.50042143911857306371e+00) (60, 5.43216791676765296870e+02) (61, -3.60850995791914952449e+00) (62, 8.03655563166728259539e-01) (63, -2.40954372664722660247e+00) (64, 1.50000000000000000000e+03) (65, -1.17090218872881610124e-01) (66, 4.07540887840422583199e-01) (0, 1.04928405197292136108e+01) (1, 4.21603476239203023290e-01) (2, 4.75915474427698603765e-01) (3, 4.89153174293993409094e-01) (4, 4.14941114915369557714e-01) (5, 1.11027835756523529653e+00) (6, 1.85539172657180145842e-01) (7, -1.01826174432116736690e-01) (8, 1.63058554300424973782e+00) (9, 1.23417532630243287350e+00) (10, -3.37396189399733614778e+00) (11, 2.81512108398050298064e+00) (12, 5.25348924954458396108e-01) (13, 5.96827938007119485064e+00) (14, 9.23923216108435751970e-01) (15, -4.25111777672049040433e+00) (16, 9.06670696235747541891e+00) (17, -6.49847130627005764580e+00) (18, 2.64124984731349021772e+00) (19, 1.24437827226235981470e+03) (20, 4.60425724379946466058e+00) (21, -2.90726340350762446629e-01) (22, 8.15005682827606992014e-01) (23, -4.26505184057808062192e+00) (24, 7.92194433324768798599e+00) (25, 9.91822090545977630427e+02) (26, 3.73313284014230806207e+00) (27, 7.75774229406852255941e-01) (28, -3.82681371794155289479e+00) (29, -7.06881286303835953966e-01) (30, -1.27322673857895776045e-02) (31, -1.34067823534820218523e-01) (32, 1.02517811239701952530e+01) (33, 2.14826586970029165258e+00) (34, 4.60339793638714467328e-01) (35, -1.24705044549444732382e+00) (36, 1.74956026625411742437e+00) (37, 5.04592713564547068472e+00) (38, 1.19229549395972594539e+03) (39, 1.34377763045735287850e-01) (40, 3.79910220881066962306e+00) (41, 2.12566518457538378151e-01) (42, -1.47851937203222288941e-01) (43, 1.05575431063442639612e+01) (44, 1.50000000000000000000e+03) (45, 2.54730089143968534415e+01) (46, 3.97371327266948924262e+02) (47, -7.62495579897513819922e-01) (48, -3.36508808163098249722e+00) (49, -1.54065100189714354606e+00) (50, 5.85709970048379435781e-01) (51, 8.99599641264783089767e-01) (52, -1.46762729587273321741e+00) (53, 1.48468773759736086504e+03) (54, -3.06390720260089599591e+00) (55, 1.00787941788583434999e+00) (56, 4.34574802513869318243e-01) (57, -1.01064658643100813151e+01) (58, -2.92747549020792030561e-01) (59, -1.62315401297479922071e+00) (60, -3.43042629830938849977e+00) (61, 1.49790775797409821735e+02) (62, 1.50000000000000000000e+03) (63, -3.44377862558323899478e+00) (64, -9.74106321713822942421e-02) (65, 2.98016867829976273008e-01) (66, -2.38959750911523016725e+00) (0, 4.87805898139379845446e+00) (1, 1.86099567107136827648e-02) (2, 1.76098414569275996122e-01) (3, 1.55514710455315730009e-01) (4, 1.79550670891183039579e-01) (5, -7.31933701941743647401e-02) (6, 7.01697019501571817024e-01) (7, 2.06267804043525959656e+00) (8, 1.11237194692991270273e+00) (9, -1.37309413500791643870e+00) (10, -6.16946529400120624587e-01) (11, 1.23821555171143993235e+00) (12, 5.59180568558923840605e-01) (13, -7.42882363831124603593e-01) (14, 1.78525484385279431532e-01) (15, -1.43313597896544275834e+00) (16, 4.22090774793399015063e-01) (17, 1.64387289615580156621e+00) (18, -4.77195312796165282965e-01) (19, 2.12161805667707525913e+00) (20, -2.77797967767030318242e+00) (21, 4.51752988601020533110e-01) (22, -2.77833817830442919572e-01) (23, -1.58459350558057887604e+00) (24, 3.01494463185521342080e-03) (25, 2.42043969123903623952e+00) (26, -5.23859183138192653455e-04) (27, -4.37697858030752021130e-02) (28, -1.95371475472014655139e+00) (29, 1.54033922285078817005e+00) (30, 1.23895347019176732539e-01) (31, -4.92821768650210600970e-01) (32, -2.60349350465496176543e-01) (33, -2.66589016200983808247e+00) (34, 1.78636607616225490114e-01) (35, -1.20840594525852687013e+01) (36, 8.60297704088252501720e+00) (37, 3.76653861522985689003e-01) (38, -3.35987922012432660424e-01) (39, 1.20485411806939696211e-01) (40, 1.17507297939139304654e-01) (41, -5.80886105263338059501e-01) (42, -2.67778918597270987334e+00) (43, -6.56045881667003061288e-01) (44, -1.08504768588295186227e+00) (45, 2.87652353718254572001e+00) (46, 5.54695315300074084930e-02) (47, 2.79472374551268609721e-01) (48, -1.29293631750952542347e+00) (49, -9.09809022727174676604e-01) (50, -1.50337270700099417953e-01) (51, -8.12051666166135749370e-02) (52, -2.57499377242556837242e-01) (53, 2.41947996366607798180e+00) (54, -3.45866441646185984737e+00) (55, 2.53056002702822091521e+00) (56, 4.05769867974564313329e+00) (57, -6.40821459335702403592e+00) (58, -3.82968267752095192780e-01) (59, -8.51433285342635959303e-02) (60, 1.96036021390414028076e+00) (61, 6.94691214841140869396e+00) (62, 8.62801018003344855067e-01) (63, -8.79178039662044330527e-01) (64, 2.12613733539734652001e-02) (65, -3.68406154819538700362e-01) (66, 5.58039472502229183526e-01) (0, 2.13438528902086410710e+01) (1, 2.93915773330194418644e-01) (2, 2.78166013358098540564e-01) (3, 2.28304895160655746400e-01) (4, 3.10046816764337485051e-01) (5, -7.95320735355199381900e+00) (6, 9.39787290301865851916e+00) (7, 2.25478186124025509196e-01) (8, 4.60834240018765939340e+00) (9, -2.66079160841203821164e+00) (10, 1.00116500593885628945e+01) (11, -5.33522546264198815891e-01) (12, 4.73615641907875239980e+00) (13, 1.01408516681605416210e+01) (14, -1.38288102520514777360e+00) (15, 8.63877236133846615473e+00) (16, 2.66351336311207109731e+00) (17, 4.19028545203166624677e-01) (18, -7.34372986818129991349e+00) (19, 2.59323415421117697832e+00) (20, -1.07585481834657659128e+00) (21, -4.02492331950143666930e-01) (22, 5.70453803571189577148e-01) (23, 1.07554574296666309863e+01) (24, -4.53907602591787107116e+00) (25, 1.34258628460237048330e+02) (26, -8.22569771918151171342e-01) (27, -8.63052710047961024742e-01) (28, 7.93213869616430589105e+00) (29, -3.85355739283729104017e+00) (30, 1.50000000000000000000e+03) (31, -1.28977891330602978393e+00) (32, -2.33277146887719677437e+00) (33, -1.16610106520415501841e+00) (34, -3.96467878003480544979e-01) (35, -1.77127769201408780120e+00) (36, 1.21818223075534550759e+01) (37, 2.33216296010812158102e+02) (38, 1.19229549395972594539e+03) (39, 4.84661581973460431350e-01) (40, -8.96515049816503317714e-01) (41, 1.21382045884221834164e+00) (42, -8.87512257295949424929e+00) (43, -9.56088038253985672554e+00) (44, -5.95507092544463212391e+00) (45, 1.50000000000000000000e+03) (46, 3.97293072593318925101e+02) (47, -1.04326209418415127850e+00) (48, 1.50000000000000000000e+03) (49, 1.16848112923624380954e+00) (50, -2.68497690190845281211e-03) (51, 2.67991513224000721394e-01) (52, 2.36448194029833663743e-01) (53, 9.67514695073321036034e+02) (54, -1.06802809285756716839e+00) (55, 1.06897805619260051202e+01) (56, 2.75860718226892949190e+01) (57, -4.35525396403600328910e+00) (58, -1.30562614176492036711e-01) (59, -1.56828162521857916722e+00) (60, -2.22339979586036656789e-01) (61, 1.78871036684610373868e+01) (62, 9.08684344292118062469e+00) (63, -8.67986940367236003979e-01) (64, 1.18093702258589128284e+00) (65, 8.45206631108793793317e+00) (66, 8.31192715989578445601e-01) (0, 9.45666711451938546418e+00) (1, 2.77582362109442926101e-01) (2, 3.77149186843655004342e-01) (3, 3.92521567457935649514e-01) (4, 3.38253848069927587350e-01) (5, 4.18687834006850945201e+00) (6, -1.13226099827448845048e+00) (7, 2.51631142811644226143e+00) (8, 3.24943477240532274664e+00) (9, -9.64679279254060340065e+00) (10, -5.69372807572744310534e+00) (11, 4.89350945593860320315e+00) (12, -2.33041063976298801208e+00) (13, 2.05585660005860653143e+01) (14, 4.43962634479182216563e-01) (15, -5.34590270663037436805e+00) (16, 4.22264415596050124435e+00) (17, 9.73801981915582004490e+00) (18, 3.65480306104887775476e+00) (19, 1.50000000000000000000e+03) (20, 1.49999194253008772648e+03) (21, -1.52061653272183294749e-01) (22, -5.58650990567709726520e-01) (23, -5.13149342422743792724e+00) (24, 8.77449109373197977391e+00) (25, -8.39759359456041076797e-01) (26, 1.28387889651671671665e+00) (27, -1.09648782872638905772e-01) (28, -7.04097677530260579459e+00) (29, 1.18725066478241725321e+01) (30, 1.00904594583234352712e+01) (31, -1.27304155135554664113e+00) (32, 7.49996161223974500132e+00) (33, 1.50000000000000000000e+03) (34, 6.61242602316788885553e-01) (35, -2.54894325310723601774e+01) (36, 3.73341441971369789599e+01) (37, 1.43732487761834404338e+00) (38, 1.19229549395972594539e+03) (39, 4.75955319322732772758e-01) (40, -1.50591820003688070528e+00) (41, -1.12617602136987993156e+00) (42, 3.44962054166188902826e+00) (43, 2.67653266311135640265e+00) (44, 2.10679111898383020218e+01) (45, 1.50000000000000000000e+03) (46, 3.97397692576902613837e+02) (47, -1.50642908269220154871e+00) (48, -2.35304834168352261514e+00) (49, 1.65738819832795880593e+00) (50, 1.17472523308103249384e+00) (51, -1.49246889129205984048e+00) (52, -9.48768153213535692103e-01) (53, 1.48468773759736086504e+03) (54, -1.29033281146244394044e+00) (55, 1.41502536446853910412e+00) (56, 7.92669054944385442774e-01) (57, -8.71007067431263237722e+00) (58, -2.30400792497623546629e-01) (59, -6.52514934392587675482e-01) (60, -2.45238700433827949698e-01) (61, 1.80387857137872089197e+02) (62, 1.50000000000000000000e+03) (63, -1.39510705842728977011e+00) (64, -1.81975343133603861823e+00) (65, -1.33260483275215957377e+00) (66, 3.99746316882380325897e-01) (0, 1.92607792084127082965e+00) (1, 1.18599354264721207342e-01) (2, 2.70012235021445910765e-02) (3, 1.05410105524047989500e-01) (4, 1.20565540132507670323e-01) (5, -1.96982569530775286637e+00) (6, -8.06849896916689846016e-01) (7, 1.37309486298656358017e+00) (8, 2.46392335707976872783e+00) (9, -6.02514760651407499381e+00) (10, 2.97829278304106492836e-01) (11, -4.99681707034986377636e-01) (12, -7.18669883181022428609e-01) (13, -8.77124609685602379949e-02) (14, 3.93268449083230497987e-01) (15, -2.52731521865232344748e-01) (16, -5.17498439785045394324e-01) (17, 4.07945489612124312373e+00) (18, -2.11995984928384428869e+00) (19, 4.32708551478747516228e+00) (20, -2.75811364753211385459e-01) (21, 2.69764652752586486795e-01) (22, 1.72669706333670708309e-01) (23, 9.76470172607219799588e-01) (24, -3.74600620724674704398e-01) (25, -4.67905848011151481725e-01) (26, -2.74571494989172437684e-01) (27, -1.66682681607779825672e-01) (28, 1.96817049483148154287e+00) (29, -1.23078489446673722263e+00) (30, -1.10342453341820329049e-01) (31, -5.72975364411216880889e-01) (32, 6.05214068846986336103e-02) (33, -2.47834317784013685726e-01) (34, 3.82914346630733204435e-01) (35, 1.42007402090665180161e+00) (36, -2.05966465249806551796e-01) (37, -1.75032614371036321366e+00) (38, 4.42164122115845242833e-02) (39, -2.16916470755219081834e-01) (40, -1.33167653533975471891e-01) (41, -1.27081071015839291993e-01) (42, -1.85630840121565876544e+00) (43, -2.06168157583149769252e+00) (44, -1.94868789017081334158e+00) (45, 4.78356894898046025588e+00) (46, 1.19967934430131109580e-01) (47, -8.03455709117136041009e-01) (48, 3.53369728452325393420e-01) (49, 2.07172449788127738257e-01) (50, -2.37937812953516125702e-01) (51, -1.46682505265968238239e-01) (52, -3.35734435843803080690e-01) (53, -2.60469564364634775799e+00) (54, -6.32921959508060094635e+00) (55, 3.24233595971060628571e+00) (56, 4.60433900497464954071e+00) (57, -6.70416708445732112409e+00) (58, -1.28617524334268029662e+00) (59, -8.42696691786362639398e-01) (60, 3.46351366458608089793e-01) (61, -1.22599060042077745436e+00) (62, 9.52507740296330562835e-01) (63, -9.67771821797009046406e+00) (64, 5.15239881210705341630e+00) (65, 4.17589251633313995882e+00) (66, 1.12389312117196008001e-01) (0, 2.71333675143856256629e-01) (1, 2.73446266681364631712e-02) (2, 8.74922623068499910604e-02) (3, 8.41892113119769441854e-02) (4, 1.35905293110053837502e-01) (5, -1.35552750862748028204e+00) (6, 1.89375993767586126015e-01) (7, 5.56005738723222425746e-02) (8, 3.91358098158300959923e+00) (9, -1.75771660399758955506e+00) (10, -4.67244875762036393496e+00) (11, 2.64336986247634175839e+00) (12, 1.59828365241262954077e-01) (13, 2.17809806578462206161e+00) (14, -4.53913207899190984662e-01) (15, 1.29041102734973878796e+03) (16, 3.89278274177660588151e+00) (17, 4.76717212538687906687e+00) (18, -9.00236916903272677004e-01) (19, 4.32652962429166976221e+00) (20, -1.22585889180410090304e+00) (21, -7.70281043835577272638e-02) (22, 8.38624518204409835631e-02) (23, -6.94474897983106309596e+00) (24, 4.32812463333325325721e+00) (25, -1.14707692132398131335e+00) (26, 1.96979041635815449451e-01) (27, 6.11884599309891960561e-02) (28, -9.56968268367145036279e+00) (29, 2.63090939915756771850e-01) (30, 5.70536502116237076443e-01) (31, 1.59848704021827403565e+00) (32, 2.04904613989508677108e+00) (33, -1.44795792797624108061e+03) (34, 5.75812775056561254594e-01) (35, -1.57258944767283592725e+00) (36, -1.07985183323721445348e+00) (37, 1.32818711091892538434e+00) (38, 2.56275470988066000899e+00) (39, -1.59669567343398904891e-01) (40, -4.65136697150654809807e-01) (41, -7.88504558007757511140e-02) (42, 1.50000000000000000000e+03) (43, -1.31579312659961433774e+00) (44, -8.37465570660009039905e-01) (45, -2.22161071801990989139e-01) (46, -1.62531618552435084268e+01) (47, -8.91107637504773064663e-01) (48, -9.59112292055044335370e-01) (49, 2.68292905916159307722e+00) (50, -9.67559574784389586632e-02) (51, -2.77457729748059156449e-01) (52, 1.30348175883961414634e-01) (53, 1.72623699634687155502e+00) (54, -6.39271017941782915273e+00) (55, 4.61428517939716709151e+00) (56, 2.51345858019433032737e+00) (57, -1.73347498277822396062e+01) (58, 1.00450095949139961427e+00) (59, 2.04842832800631979850e+00) (60, 6.58334418083383998699e-01) (61, -7.09839266422323200700e-01) (62, 1.41039673522514164006e+00) (63, -6.18696496239605409073e+00) (64, -6.46088837318875008897e-01) (65, 3.82110053635267110650e+00) (66, 1.45657353139960754618e-01) (0, -1.50000000000000000000e+03) (1, 3.93888443303356192149e-02) (2, -1.49625301766148407351e-02) (3, -5.36445923554650788700e-02) (4, 7.73233860326058425327e-02) (5, 8.76910239708771022116e-01) (6, 5.34992802974939696270e+00) (7, -5.26973452324115201884e-02) (8, -1.54425121428277023483e-01) (9, 3.88020437563991946184e-02) (10, 4.89415269150968224032e-01) (11, 2.32295378129398555345e+00) (12, 1.57302043339473729411e-01) (13, 1.13354495362243712364e+00) (14, -2.73366373602693779610e-01) (15, 2.65784949974213269286e+00) (16, -7.85156939772011841505e-01) (17, 4.03523991572864171307e-01) (18, 1.37537512518326909827e-01) (19, -4.19886843182622149229e-01) (20, 2.98942285892043324580e+00) (21, -1.72807659412309327918e-01) (22, -4.99353513907447588149e-01) (23, -1.35710320361959245299e-03) (24, 5.44017878873602089840e+00) (25, 2.45660913538734462236e+02) (26, -9.20055745885045017651e-02) (27, -1.05228154470875009951e-01) (28, 5.37996303090147676151e-01) (29, 6.15974341924181612029e+00) (30, -6.70357683754027822154e-01) (31, 2.46790451234607701281e+02) (32, 2.16687867452726123929e+00) (33, 6.88826113214774715665e-01) (34, 7.15791399763722413496e-01) (35, 1.59984297596343694181e+00) (36, 2.09128891176318987277e+00) (37, 2.28717446049746087056e+02) (38, 8.82349656118046471454e-02) (39, -3.03073605988511352027e-01) (40, -3.84927504268433862133e-01) (41, -3.75070493928502002312e-01) (42, 7.40574052890143441630e-01) (43, 3.39677219577875388890e-01) (44, -3.45312104922447626887e-01) (45, -3.20776963259861425115e+00) (46, 1.60630839764712884943e+00) (47, 8.00188100321728490449e-01) (48, 8.37211170379456914858e-01) (49, -1.53233882709092994467e-01) (50, -4.55454328388856188869e-01) (51, -2.36245365133106344224e-01) (52, -1.64371393467593246429e-01) (53, 1.21333368777409167372e+00) (54, 4.45652546473033983609e-01) (55, -6.10026140940870154061e-01) (56, -1.40128853994107654968e-01) (57, 6.87801725658064277980e+00) (58, 5.41993748004098718773e-01) (59, 5.02330432566311158027e-01) (60, 3.25830747215856086907e-01) (61, 6.48117603951400278461e-01) (62, -4.91062783379953948781e+00) (63, 1.05063670874690795465e+00) (64, -4.46433178574360600699e-01) (65, 1.68097942839632397138e+00) (66, -1.40363888277943521521e-01) (0, 3.73828637843022137943e+00) (1, 9.71531568847373849795e-02) (2, 1.47487707325048483797e-01) (3, 1.96919716783590326159e-01) (4, 7.51202924929337545468e-02) (5, 6.64531317516301989201e+00) (6, -2.39089654452017441599e+00) (7, -6.24389697597672044260e-01) (8, -2.03327053548358671620e+00) (9, 3.53334463783047336705e+00) (10, -1.88027733084643644546e+00) (11, 1.05775620576767023784e-02) (12, -4.34975857072829152905e-01) (13, -1.18020897864996143767e+00) (14, 8.07575328709813411443e-01) (15, -4.47841820678147506385e+00) (16, 4.92907162694452782858e+00) (17, -8.54778316700357865265e-01) (18, 6.30078407435990506258e+00) (19, -1.34050382033436843443e+00) (20, -2.28183776391378190240e+00) (21, 3.72824134482332638640e+01) (22, 5.53740686775967660971e-01) (23, -3.92025663935343748889e+00) (24, -2.29545500288518972143e-02) (25, -2.14723727918915185953e+00) (26, 2.36607638806614700711e-01) (27, 1.37871486620459171579e-01) (28, -1.11115573308780941630e+01) (29, 1.13609354037421343975e+01) (30, 5.29623153233518384475e-01) (31, -2.50690862618452925403e+00) (32, -1.78432502639402179589e+00) (33, 1.50000000000000000000e+03) (34, 3.72150452382827401365e-01) (35, 4.06570783694255677432e+00) (36, -9.91607402344600252775e+00) (37, -5.56490131524581066458e+00) (38, -2.34964151806208532136e+00) (39, -3.79279439178657085119e-01) (40, -1.16256731190021000977e-01) (41, -1.42478011546794514075e-01) (42, 6.38154788437816211655e+00) (43, 6.11674567443997219129e+00) (44, 6.30944749434372464947e+00) (45, 1.51547157095043116826e+00) (46, -3.35887273959197019124e+00) (47, 1.25257353196650877969e+00) (48, 1.50000000000000000000e+03) (49, 4.35845585676670033148e-01) (50, -5.36676794000992773981e-01) (51, -3.28895532858998917991e-01) (52, -3.52983459428873269648e-01) (53, 6.98905459736344791821e+00) (54, -1.49788830820535334709e+00) (55, 1.39409959879108913405e+00) (56, 1.62764433283588090262e+02) (57, -1.65051989507436559279e+02) (58, -8.79148971871226314612e-01) (59, 4.35770590866130991259e+00) (60, -7.13403670322475813581e-02) (61, -4.24840555769330130431e+00) (62, 2.55415522690631879854e+00) (63, -8.48040950258734582690e+00) (64, 1.50000000000000000000e+03) (65, -1.44549942087095262266e+00) (66, -3.73559173240314956743e-01) (0, 2.62809110458857864145e+00) (1, 2.25182784528292295745e-01) (2, 1.47997727424658415130e-01) (3, 2.77486083836117947143e-01) (4, 2.84446952671567165893e-01) (5, -2.61483128939802833557e+00) (6, 4.79410696170278072259e+00) (7, -3.64088273499032888392e-01) (8, 2.78280784531704572515e+00) (9, -3.55575272157420441133e+00) (10, 7.17364168958787740138e+00) (11, -1.14037608739670437430e+00) (12, -2.21583958840382777566e+00) (13, 6.00690884964776827815e+00) (14, 1.03386935658694678608e+00) (15, 5.18865233749030441146e+00) (16, -1.05598776022934459640e+00) (17, 3.04243412894519726919e+00) (18, -2.64262435628413383526e+00) (19, 3.81039080230519333625e+00) (20, -3.11379059179323114392e+00) (21, -5.12833639057946544249e-01) (22, -1.70185599316527103042e+00) (23, 2.69986462574291508076e+01) (24, 4.11512508127568654714e+00) (25, 2.68216080698565342288e+01) (26, -6.81251517327382205558e-01) (27, -5.38768711262831323516e-01) (28, 6.63642002385815121812e+00) (29, -3.56584817927778585656e+00) (30, 1.50000000000000000000e+03) (31, -4.02884792127959023844e+00) (32, -1.52417161257344702108e+00) (33, -4.67886982205228108000e+00) (34, -8.09735281096922387967e-01) (35, -2.60372707252503454711e+00) (36, 3.03186393163813434626e+01) (37, 5.36532227109436121282e+02) (38, 1.19229549395972594539e+03) (39, -4.08003189848924918692e-01) (40, 9.74797828457709014671e-01) (41, 8.93945946492455401078e-01) (42, -3.78082088267508309443e+00) (43, -1.96412827267225109651e+00) (44, -2.55289397587359934150e+00) (45, 1.50000000000000000000e+03) (46, 3.97268450268464789588e+02) (47, -2.06512380111782611891e+00) (48, 1.50000000000000000000e+03) (49, -2.10390301163425741393e+00) (50, 1.14520176839686760664e-03) (51, 7.70668987696818907907e-01) (52, 4.41472455007555331097e-01) (53, -3.85629646182353535977e+00) (54, -1.65200630933594783123e+00) (55, 8.61508928768156212463e-01) (56, 7.12117012014106904871e+01) (57, -6.11356718518843464949e+01) (58, -1.17371757605670001823e+00) (59, -1.57159241657955472959e+00) (60, 4.02707461362134755412e-01) (61, 1.77563602534703086633e+01) (62, 6.58012970006745079310e-01) (63, 4.32717994378739589934e-01) (64, 1.50000000000000000000e+03) (65, -1.94835198854470481589e-01) (66, 1.35877093306203566847e+00) (67, 6.90665600748467278791e-01) (68, 5.34515274420159447466e-01) (69, -4.83254978646079358384e-01) (70, 6.67368790675709866456e-01) (71, 4.45106145486329263239e-01) (72, -8.97370249125396424184e-01) (73, -2.09056561631972670501e-01) (74, 1.86815971661170410201e+00) (75, 5.60074469282534126435e-01) (76, 3.06100067658290397876e-01) (77, 1.33576226618305538008e-01) 
