FANN_FLO_2.1
num_layers=3
learning_rate=0.700000
connection_rate=1.000000
network_type=0
learning_momentum=0.000000
training_algorithm=2
train_error_function=1
train_stop_function=1
cascade_output_change_fraction=0.010000
quickprop_decay=-0.000100
quickprop_mu=1.750000
rprop_increase_factor=1.200000
rprop_decrease_factor=0.500000
rprop_delta_min=0.000000
rprop_delta_max=50.000000
rprop_delta_zero=0.100000
cascade_output_stagnation_epochs=12
cascade_candidate_change_fraction=0.010000
cascade_candidate_stagnation_epochs=12
cascade_max_out_epochs=150
cascade_min_out_epochs=50
cascade_max_cand_epochs=150
cascade_min_cand_epochs=50
cascade_num_candidate_groups=2
bit_fail_limit=1.00000000000000005551e-01
cascade_candidate_limit=1.00000000000000000000e+03
cascade_weight_multiplier=4.00000000000000022204e-01
cascade_activation_functions_count=10
cascade_activation_functions=3 5 7 8 10 11 14 15 16 17 
cascade_activation_steepnesses_count=4
cascade_activation_steepnesses=2.50000000000000000000e-01 5.00000000000000000000e-01 7.50000000000000000000e-01 1.00000000000000000000e+00 
layer_sizes=11 4 2 
scale_included=0
neurons (num_inputs, activation_function, activation_steepness)=(0, 0, 0.00000000000000000000e+00) (0, 0, 0.00000000000000000000e+00) (0, 0, 0.00000000000000000000e+00) (0, 0, 0.00000000000000000000e+00) (0, 0, 0.00000000000000000000e+00) (0, 0, 0.00000000000000000000e+00) (0, 0, 0.00000000000000000000e+00) (0, 0, 0.00000000000000000000e+00) (0, 0, 0.00000000000000000000e+00) (0, 0, 0.00000000000000000000e+00) (0, 0, 0.00000000000000000000e+00) (11, 6, 5.00000000000000000000e-01) (11, 6, 5.00000000000000000000e-01) (11, 6, 5.00000000000000000000e-01) (0, 6, 0.00000000000000000000e+00) (4, 4, 5.00000000000000000000e-01) (0, 4, 0.00000000000000000000e+00) 
connections (connected_to_neuron, weight)=(0, 3.98804780977596862179e-01) (1, -1.92256284368259522388e+00) (2, -2.86949368935821746973e+00) (3, 3.25870414739827252149e+00) (4, 1.49025903561737615988e+00) (5, 6.56745805081967137795e+00) (6, 1.22267657212677627321e+00) (7, 1.15531823858173172681e+01) (8, -2.94373995665925569654e+00) (9, 6.95040720569849224120e+00) (10, 2.33497299482676945459e+00) (0, 5.42325178478637436735e-03) (1, 4.00047946028541545616e+00) (2, 1.13997147935098297467e+00) (3, -1.56531179961299038439e+00) (4, 1.70883181701534692110e+00) (5, 4.58702910596168245139e-01) (6, -3.12868992238748200307e-01) (7, -3.11297862235899502892e+00) (8, 2.93273567973357129901e+00) (9, -1.91526314748839410207e-02) (10, -1.77840174927614969036e+00) (0, 1.46811465313934214061e-01) (1, 2.53683731110375321194e+00) (2, 2.48296977571796739781e+00) (3, -1.45545535298688655246e+00) (4, 1.73997151107429770533e+00) (5, 2.22016794129081729281e+00) (6, 1.02560304522142972661e-01) (7, 5.39157112746450506435e-01) (8, 2.75771870297126797666e+00) (9, -6.33182047327055963493e-01) (10, -3.41968042645277003899e+00) (11, -8.44498071684719242569e+00) (12, 2.71129568532768949751e+01) (13, 3.17264333334555601596e+01) (14, -1.70200612202051804189e+00) 
