FANN_FLO_2.1
num_layers=3
learning_rate=0.700000
connection_rate=1.000000
network_type=0
learning_momentum=0.000000
training_algorithm=2
train_error_function=1
train_stop_function=1
cascade_output_change_fraction=0.010000
quickprop_decay=-0.000100
quickprop_mu=1.750000
rprop_increase_factor=1.200000
rprop_decrease_factor=0.500000
rprop_delta_min=0.000000
rprop_delta_max=50.000000
rprop_delta_zero=0.100000
cascade_output_stagnation_epochs=12
cascade_candidate_change_fraction=0.010000
cascade_candidate_stagnation_epochs=12
cascade_max_out_epochs=150
cascade_min_out_epochs=50
cascade_max_cand_epochs=150
cascade_min_cand_epochs=50
cascade_num_candidate_groups=2
bit_fail_limit=1.00000000000000005551e-01
cascade_candidate_limit=1.00000000000000000000e+03
cascade_weight_multiplier=4.00000000000000022204e-01
cascade_activation_functions_count=10
cascade_activation_functions=3 5 7 8 10 11 14 15 16 17 
cascade_activation_steepnesses_count=4
cascade_activation_steepnesses=2.50000000000000000000e-01 5.00000000000000000000e-01 7.50000000000000000000e-01 1.00000000000000000000e+00 
layer_sizes=16 11 2 
scale_included=0
neurons (num_inputs, activation_function, activation_steepness)=(0, 0, 0.00000000000000000000e+00) (0, 0, 0.00000000000000000000e+00) (0, 0, 0.00000000000000000000e+00) (0, 0, 0.00000000000000000000e+00) (0, 0, 0.00000000000000000000e+00) (0, 0, 0.00000000000000000000e+00) (0, 0, 0.00000000000000000000e+00) (0, 0, 0.00000000000000000000e+00) (0, 0, 0.00000000000000000000e+00) (0, 0, 0.00000000000000000000e+00) (0, 0, 0.00000000000000000000e+00) (0, 0, 0.00000000000000000000e+00) (0, 0, 0.00000000000000000000e+00) (0, 0, 0.00000000000000000000e+00) (0, 0, 0.00000000000000000000e+00) (0, 0, 0.00000000000000000000e+00) (16, 6, 5.00000000000000000000e-01) (16, 6, 5.00000000000000000000e-01) (16, 6, 5.00000000000000000000e-01) (16, 6, 5.00000000000000000000e-01) (16, 6, 5.00000000000000000000e-01) (16, 6, 5.00000000000000000000e-01) (16, 6, 5.00000000000000000000e-01) (16, 6, 5.00000000000000000000e-01) (16, 6, 5.00000000000000000000e-01) (16, 6, 5.00000000000000000000e-01) (0, 6, 0.00000000000000000000e+00) (11, 6, 5.00000000000000000000e-01) (0, 6, 0.00000000000000000000e+00) 
connections (connected_to_neuron, weight)=(0, -2.77988165223076039156e-02) (1, -7.78556733267219552852e-02) (2, -8.97028713362129220821e-02) (3, -5.86658648090274681408e-02) (4, -1.20035648985377094156e-01) (5, -6.67038299990208360946e-01) (6, 2.15181555476352670553e+00) (7, 4.02078880975268004860e-01) (8, -2.52155247755435740764e-01) (9, 2.97627846327866096843e-01) (10, 1.14320143164038623418e+00) (11, -2.33842307127603898920e+00) (12, 1.46349433493312038046e-02) (13, 3.91715724186010860741e-01) (14, 7.07184926127574553512e-01) (15, 3.81743535929092825398e-01) (0, 2.98127817063841416001e+00) (1, 3.65237671286740117615e-01) (2, 3.71787759811558538026e-01) (3, 2.53500785083451085633e-01) (4, 3.99480152280010991639e-01) (5, -6.03010755282641919273e-01) (6, 1.47651758394853827028e+00) (7, 2.89440160548037095367e+00) (8, -1.85525859926466440974e+00) (9, 6.44508675131753361320e-01) (10, -9.13756932461729093342e-02) (11, 1.08991573667177488183e+00) (12, 3.41367057611856650201e-01) (13, -7.89743430761256526296e-01) (14, -3.06879361474971501522e+00) (15, -7.08709244876288724235e-01) (0, -1.61844220109885661429e+00) (1, -1.60979806714896700459e-01) (2, -1.42547219329719088154e-01) (3, -2.20965042048339443959e-01) (4, -1.80893182092551729756e-01) (5, 1.16789735251742743394e+00) (6, 5.36285437583559843056e-01) (7, 1.77453436917039200638e-02) (8, 1.26157818777096975005e+00) (9, 7.92295778403105832588e-01) (10, 5.35535331121266278132e-01) (11, 1.80495212826277429130e+00) (12, -2.73175283259181167494e-01) (13, 8.26118870772681535009e-01) (14, 7.14164232936760123849e-01) (15, -1.99384777401882540282e-02) (0, 5.99071358791321284532e-02) (1, -5.62896883875790288165e-02) (2, 1.23817987105184518226e-01) (3, 2.97868543475207844806e-02) (4, 1.24330259224706612953e-01) (5, 1.28496811704667895926e-01) (6, -3.20157992906016364287e+00) (7, -1.14629817213781473595e-01) (8, -2.58977437419725897705e-01) (9, 2.57844132431458428201e-01) (10, -1.05852674568044022307e-01) (11, 1.92158884272982694030e-01) (12, 2.25748551863945608187e-03) (13, 1.32553247090851977763e-01) (14, 4.24863908342602236701e-01) (15, 6.47406831593326237417e-02) (0, -9.09238105825902387380e+00) (1, -1.98649741140614649604e-01) (2, -3.37100758579980008811e-01) (3, -2.69663422731171720237e-01) (4, -2.13195926872502466987e-01) (5, 1.70422807957811439650e+00) (6, 1.00548645835445515928e+00) (7, 3.79762462944037815227e-01) (8, 7.92476462080326404802e-01) (9, 1.53135121816872699085e+00) (10, 2.89022756650016143798e-01) (11, 2.50873069438894091832e+00) (12, 1.85079824150621491397e-01) (13, 9.66011147265723457700e-01) (14, 2.73457410044534832139e+00) (15, -4.65143099712560237347e-01) (0, 1.12523883997409619440e+01) (1, 5.68140164530213653826e-01) (2, 6.59962162887986480975e-01) (3, 5.24868991738494106158e-01) (4, 4.93455589330132726733e-01) (5, -4.06371389992626319554e+00) (6, -6.27734125047815183507e+00) (7, 1.50287006744183382345e-01) (8, -9.97968717622355394603e-01) (9, -3.03734111027618913781e+00) (10, -9.15058491770874282700e-01) (11, 2.97612969886616118842e+00) (12, 2.42969542708676433662e+00) (13, 2.08973588383887376452e+00) (14, -5.28781931750142675241e+00) (15, 1.16508255417737283111e+00) (0, 1.35144624326578988160e+01) (1, 5.39129972905340260070e-01) (2, 6.61972310841503319701e-01) (3, 5.25593735725107258361e-01) (4, 5.75934987962665734251e-01) (5, -2.65010393815947464802e+00) (6, -7.75656658685302780043e+00) (7, -1.00122212823379283519e-01) (8, -1.77610911966842310861e+00) (9, -1.32914194410251362832e+00) (10, -1.07180348599399200005e+00) (11, 3.98359505352287701641e+00) (12, 2.47760421004574871162e+00) (13, 2.12867423194188765123e+00) (14, -6.41766100991036303469e+00) (15, 2.16532452427586985522e+00) (0, -1.52283384003346888846e+00) (1, -1.73777746801338339733e-01) (2, -2.38309758548698624736e-01) (3, -1.30547734742126608776e-01) (4, -2.73067596201858664440e-01) (5, 1.03385135752199430748e+00) (6, 7.71885161394232688359e-01) (7, 5.19381569138544496589e-02) (8, 1.25007920009625661528e+00) (9, 1.46647419143975854539e+00) (10, 1.58671408245163320094e-01) (11, 2.00429699760746427017e+00) (12, -3.05577019104128592975e-02) (13, 7.41756527818999589208e-01) (14, 9.35894231990561542567e-01) (15, -1.28204522064115394864e-01) (0, 1.68174356056929363845e+00) (1, 3.98020782098625680590e-01) (2, 3.31315607354496388659e-01) (3, 2.51095131561611673021e-01) (4, 3.58534955010269662523e-01) (5, -1.61444470270068918261e+00) (6, 6.05153484090479665269e+00) (7, -2.99740506808429840735e-01) (8, -2.67203772584014087599e+00) (9, -2.88291397529684179091e+00) (10, 1.91536699091921225335e-02) (11, 3.66540504899378749570e+00) (12, -6.29359199747081404785e-02) (13, -2.39973045929238004703e+00) (14, 1.49754516863254263370e+01) (15, -4.32223841791894602959e-01) (0, 2.05714785681741574308e+00) (1, 4.06718536930056162593e-01) (2, 2.28732637779684666590e-01) (3, 3.88789877014132090327e-01) (4, 4.12654220776529856440e-01) (5, -1.62050324662120615038e+00) (6, 5.96744154646724833668e+00) (7, -2.21642716328769723289e-01) (8, -2.57863687867336421888e+00) (9, -1.43476760267124570092e+00) (10, -7.57346886489419085509e-02) (11, 3.33006493013091464661e+00) (12, 2.21965315551579181474e-02) (13, -9.23592418361414146943e-01) (14, 6.86743846069424535017e+00) (15, -4.00165286137718678727e-01) (16, -1.64418953065826545235e-01) (17, 4.91845949270851068302e-01) (18, 7.06913214377832388458e-01) (19, 1.75214865519982554432e-01) (20, 6.78706228217888840604e-01) (21, -1.37757687153448271644e-01) (22, -2.15127195271882093452e-01) (23, 7.24192184377622671931e-01) (24, 4.61577340151528459078e-01) (25, 4.65640402521351914888e-01) (26, 8.65956181719091722115e-01) 
