FANN_FLO_2.1
num_layers=3
learning_rate=0.700000
connection_rate=1.000000
network_type=0
learning_momentum=0.000000
training_algorithm=2
train_error_function=1
train_stop_function=1
cascade_output_change_fraction=0.010000
quickprop_decay=-0.000100
quickprop_mu=1.750000
rprop_increase_factor=1.200000
rprop_decrease_factor=0.500000
rprop_delta_min=0.000000
rprop_delta_max=50.000000
rprop_delta_zero=0.100000
cascade_output_stagnation_epochs=12
cascade_candidate_change_fraction=0.010000
cascade_candidate_stagnation_epochs=12
cascade_max_out_epochs=150
cascade_min_out_epochs=50
cascade_max_cand_epochs=150
cascade_min_cand_epochs=50
cascade_num_candidate_groups=2
bit_fail_limit=1.00000000000000005551e-01
cascade_candidate_limit=1.00000000000000000000e+03
cascade_weight_multiplier=4.00000000000000022204e-01
cascade_activation_functions_count=10
cascade_activation_functions=3 5 7 8 10 11 14 15 16 17 
cascade_activation_steepnesses_count=4
cascade_activation_steepnesses=2.50000000000000000000e-01 5.00000000000000000000e-01 7.50000000000000000000e-01 1.00000000000000000000e+00 
layer_sizes=14 11 2 
scale_included=0
neurons (num_inputs, activation_function, activation_steepness)=(0, 0, 0.00000000000000000000e+00) (0, 0, 0.00000000000000000000e+00) (0, 0, 0.00000000000000000000e+00) (0, 0, 0.00000000000000000000e+00) (0, 0, 0.00000000000000000000e+00) (0, 0, 0.00000000000000000000e+00) (0, 0, 0.00000000000000000000e+00) (0, 0, 0.00000000000000000000e+00) (0, 0, 0.00000000000000000000e+00) (0, 0, 0.00000000000000000000e+00) (0, 0, 0.00000000000000000000e+00) (0, 0, 0.00000000000000000000e+00) (0, 0, 0.00000000000000000000e+00) (0, 0, 0.00000000000000000000e+00) (14, 6, 5.00000000000000000000e-01) (14, 6, 5.00000000000000000000e-01) (14, 6, 5.00000000000000000000e-01) (14, 6, 5.00000000000000000000e-01) (14, 6, 5.00000000000000000000e-01) (14, 6, 5.00000000000000000000e-01) (14, 6, 5.00000000000000000000e-01) (14, 6, 5.00000000000000000000e-01) (14, 6, 5.00000000000000000000e-01) (14, 6, 5.00000000000000000000e-01) (0, 6, 0.00000000000000000000e+00) (11, 6, 5.00000000000000000000e-01) (0, 6, 0.00000000000000000000e+00) 
connections (connected_to_neuron, weight)=(0, -1.12607344477449422548e+00) (1, 1.69531778595132312515e-02) (2, -8.36599607256225535901e-03) (3, -7.50473736622648684991e-02) (4, -1.51131302008898765754e-01) (5, 5.76887690007448772356e-01) (6, -2.26833243424985030179e-02) (7, -3.55801933228735767223e-01) (8, -4.12393955070613105196e-01) (9, -4.78451548948184094551e-03) (10, -4.37235694422318244001e-02) (11, 2.56080505382203615916e-01) (12, -6.52206390872953484239e-02) (13, -2.45254450538129969983e-01) (0, 4.39986871292909498266e+00) (1, 5.09169632538569949531e-01) (2, 4.58570966466678164863e-01) (3, 4.36839746280921481514e-01) (4, 3.53927457674754752937e-01) (5, -2.93515386172894432448e+00) (6, 4.08920749099679181615e-01) (7, 1.17009891494397022527e+00) (8, 4.06868112801017822733e+00) (9, 3.66656140643767669562e-01) (10, 3.48796017675737290986e+00) (11, -2.21122094240155275813e-01) (12, 3.88634325266661306841e+00) (13, -3.13163278575988912600e-01) (0, -5.23886502172975365710e+00) (1, -2.86379077584577312887e-01) (2, -2.26460644156766810475e-01) (3, -3.14502016753984203756e-01) (4, -2.88660795540643444479e-01) (5, 4.37834551114523584658e+00) (6, 2.21438135037640593250e-01) (7, -1.47422649641157449407e-01) (8, 7.38632900668472092143e-01) (9, 5.32971272323543243665e-01) (10, 1.15498636445524338612e+00) (11, 6.75651223800594613600e-01) (12, 5.23774308943423805296e-01) (13, -1.41025040870002948967e-01) (0, 5.67069968920346556551e-01) (1, -2.73332188915655326100e-02) (2, 1.88888941813066257858e-02) (3, 5.69719706583573931580e-02) (4, -5.46897466372892465669e-02) (5, -8.16447620130063556054e-02) (6, -1.09348615256829234665e-01) (7, 1.82866354472353664917e-01) (8, 2.42618570799386201742e-01) (9, -1.57996495811028481171e-01) (10, 2.58753121145665676561e-01) (11, -1.14786753077857306415e+00) (12, 3.69582716074163097897e-01) (13, 6.76464290519161043358e-02) (0, -5.28513998922138039660e+00) (1, -2.35535481758712139655e-01) (2, -2.82249385305045341621e-01) (3, -3.89594504423735832344e-01) (4, -3.19966958649752830635e-01) (5, 4.65000452808895659018e+00) (6, 1.35836849937657377918e-01) (7, -2.68671557999034027464e-01) (8, 1.70058986456827221367e+00) (9, 2.39224028202061261839e-01) (10, 1.36291464992641886411e+00) (11, 6.36767262831862690398e-01) (12, 6.57751956380881241948e-01) (13, -2.57376202568979917107e-01) (0, 2.57618572308642423963e+00) (1, 9.72753735193363722189e-01) (2, 8.44390796431652601584e-01) (3, 8.48079333016029890402e-01) (4, 8.55534003981701429709e-01) (5, -5.32399676339170113692e+00) (6, 2.21002759081961458465e-01) (7, 2.57973522472796812366e-01) (8, 3.11647497260333894431e+00) (9, 2.96350872278927757186e-01) (10, 3.27243923285716409310e+00) (11, -1.04757921895246172705e-01) (12, 2.95808788792460219952e+00) (13, -7.18575273937724634532e-02) (0, 5.00812078143271754982e+00) (1, 4.12146322478766702346e-01) (2, 5.11876709808821828140e-01) (3, 4.16035067339654229812e-01) (4, 3.86321827818866037063e-01) (5, -5.20820594850621709782e+00) (6, -6.89925802281603828270e-01) (7, 5.76964801167079044397e-01) (8, -2.26302051842283225014e+00) (9, -3.55691416715850527996e-01) (10, -2.44705022879861067153e+00) (11, -5.58455758977487448647e-01) (12, -2.56311887400484206267e+00) (13, 5.18833723718045702888e-01) (0, 5.21209426938294928533e+00) (1, 3.71217497116441974558e-01) (2, 4.72166359847898731150e-01) (3, 4.58290525204057941355e-01) (4, 3.66103046065683612742e-01) (5, -6.37757190834769449594e+00) (6, -5.19525670581814646987e-01) (7, 7.54340838698734472700e-01) (8, -2.51323852603726116683e+00) (9, -1.05293332769937442173e+00) (10, -2.58015116057133031546e+00) (11, -8.93362791733488315060e-01) (12, -2.80737703300568464115e+00) (13, 4.74563998782525475750e-01) (0, -5.21798068668870751452e+00) (1, -3.50809244253037666450e-01) (2, -2.48256543465255080649e-01) (3, -2.82156521268485283027e-01) (4, -2.94302807934878563056e-01) (5, 4.64600866362229147910e+00) (6, 7.57228872920993389961e-01) (7, -2.00585178022581106516e-01) (8, 5.81439180327743110333e-01) (9, 5.15340506889346072761e-01) (10, 1.09973467669012192616e+00) (11, 5.46076441707296189598e-01) (12, 5.32803309940967140257e-01) (13, -2.36170589952539505818e-01) (0, 2.52535189433915174817e+00) (1, 5.46163350805448533087e-01) (2, 4.60210368498968069861e-01) (3, 4.73247081503080313514e-01) (4, 5.82342029079603085151e-01) (5, -3.20766323828632859971e+00) (6, 4.03959774790252024168e-01) (7, 5.90757686530363423927e-01) (8, 3.62183060576243720519e+00) (9, 3.47219457778237150514e-01) (10, 3.31140321386575076090e+00) (11, 4.84195612482132137222e-03) (12, 3.57491245464281259814e+00) (13, 5.02467977062587278780e-03) (14, 3.58396015965505854162e-01) (15, 4.52207397639442842951e-01) (16, 3.55240518044222963745e-01) (17, 1.22204386725204301040e-02) (18, 3.58628282140483034546e-01) (19, 4.69175811826874178401e-01) (20, -2.28781360810587641730e-01) (21, -8.77200085785151406625e-02) (22, 4.94175200167723982503e-01) (23, 4.11525946080376070491e-01) (24, 3.65838896417727099664e-01) 
