FANN_FLO_2.1
num_layers=3
learning_rate=0.700000
connection_rate=1.000000
network_type=0
learning_momentum=0.000000
training_algorithm=2
train_error_function=1
train_stop_function=1
cascade_output_change_fraction=0.010000
quickprop_decay=-0.000100
quickprop_mu=1.750000
rprop_increase_factor=1.200000
rprop_decrease_factor=0.500000
rprop_delta_min=0.000000
rprop_delta_max=50.000000
rprop_delta_zero=0.100000
cascade_output_stagnation_epochs=12
cascade_candidate_change_fraction=0.010000
cascade_candidate_stagnation_epochs=12
cascade_max_out_epochs=150
cascade_min_out_epochs=50
cascade_max_cand_epochs=150
cascade_min_cand_epochs=50
cascade_num_candidate_groups=2
bit_fail_limit=1.00000000000000005551e-01
cascade_candidate_limit=1.00000000000000000000e+03
cascade_weight_multiplier=4.00000000000000022204e-01
cascade_activation_functions_count=10
cascade_activation_functions=3 5 7 8 10 11 14 15 16 17 
cascade_activation_steepnesses_count=4
cascade_activation_steepnesses=2.50000000000000000000e-01 5.00000000000000000000e-01 7.50000000000000000000e-01 1.00000000000000000000e+00 
layer_sizes=17 11 2 
scale_included=0
neurons (num_inputs, activation_function, activation_steepness)=(0, 0, 0.00000000000000000000e+00) (0, 0, 0.00000000000000000000e+00) (0, 0, 0.00000000000000000000e+00) (0, 0, 0.00000000000000000000e+00) (0, 0, 0.00000000000000000000e+00) (0, 0, 0.00000000000000000000e+00) (0, 0, 0.00000000000000000000e+00) (0, 0, 0.00000000000000000000e+00) (0, 0, 0.00000000000000000000e+00) (0, 0, 0.00000000000000000000e+00) (0, 0, 0.00000000000000000000e+00) (0, 0, 0.00000000000000000000e+00) (0, 0, 0.00000000000000000000e+00) (0, 0, 0.00000000000000000000e+00) (0, 0, 0.00000000000000000000e+00) (0, 0, 0.00000000000000000000e+00) (0, 0, 0.00000000000000000000e+00) (17, 6, 5.00000000000000000000e-01) (17, 6, 5.00000000000000000000e-01) (17, 6, 5.00000000000000000000e-01) (17, 6, 5.00000000000000000000e-01) (17, 6, 5.00000000000000000000e-01) (17, 6, 5.00000000000000000000e-01) (17, 6, 5.00000000000000000000e-01) (17, 6, 5.00000000000000000000e-01) (17, 6, 5.00000000000000000000e-01) (17, 6, 5.00000000000000000000e-01) (0, 6, 0.00000000000000000000e+00) (11, 6, 5.00000000000000000000e-01) (0, 6, 0.00000000000000000000e+00) 
connections (connected_to_neuron, weight)=(0, -5.95756434368784226763e-01) (1, -5.41337506904030554833e-02) (2, -1.01322012080575247356e-02) (3, -6.11252265109445275248e-02) (4, -1.44123305219662125459e-03) (5, 2.31175906019880222919e-01) (6, -1.03440077812901362608e-01) (7, 7.38828589212187636370e-01) (8, 8.97654238695638345691e-02) (9, -1.14647074141406516562e-02) (10, -7.47195600297298617720e-02) (11, -2.04626489903705188755e-01) (12, 6.33470862913108390124e-01) (13, 8.09218561324946850100e-01) (14, -5.13392039264589428171e-01) (15, 6.50233749911798497578e-01) (16, -1.36640048565198124475e-01) (0, -4.59784944092119507442e-01) (1, -1.43313089718203612311e-01) (2, -6.06702364581633429852e-02) (3, 2.31450476151894811438e-02) (4, -6.75637520450163980845e-02) (5, 2.80494688898831445734e-01) (6, -4.62733325952332311126e-02) (7, 1.78458739902956065038e+00) (8, -1.94854522059237436626e-02) (9, -4.12458667875864470886e+00) (10, -9.29655115754874916689e-01) (11, -4.86333288490770776491e+00) (12, 6.04540010383988746234e-01) (13, 2.21381635086756700659e+00) (14, -1.57578531123196596830e+00) (15, 2.43499346689848544800e-01) (16, -6.38120021400052570004e-03) (0, -4.88310370272601357300e+00) (1, -2.07046227832424240001e-01) (2, -1.16247216542350942370e-01) (3, -2.20647001941787823664e-01) (4, -1.72094578226196337489e-01) (5, 9.89894088857180776131e-01) (6, -7.66616996428535479868e-02) (7, 1.33024223812436104275e+00) (8, 2.34962980763568862752e-01) (9, 7.71679090529162725609e-01) (10, 7.02980494600501160107e-01) (11, 4.46426100946301918082e-01) (12, 1.83758508107475071469e-01) (13, 3.83912452750161481418e+00) (14, -9.54141207615879283210e-01) (15, -5.59352939173647575877e-02) (16, -1.73244224866256263384e-01) (0, -1.20285841283322469941e+00) (1, -8.15330937472118766340e-02) (2, -1.60740558799816579683e-01) (3, -1.63380053636146993501e-01) (4, -1.15205545720173302415e-01) (5, 1.56619691441063774162e-01) (6, -1.22551519457409746616e-01) (7, 3.71465270514421552761e+00) (8, -3.97580794178749793999e-02) (9, -3.87441754459106757480e+00) (10, -1.95440484233966738081e+00) (11, -4.58206253640486238510e+00) (12, 4.65980367557921881794e-02) (13, 1.09749174425111428732e+00) (14, -1.55451272784615568412e-01) (15, -1.30349310001784890467e+00) (16, 2.11674975568837686613e-01) (0, 1.85040238847358851082e+00) (1, 1.51844710843141578183e-01) (2, 2.14101270572717716778e-01) (3, 1.55518390969808600888e-01) (4, 2.07211793200548194394e-01) (5, -9.51532625991877711868e-01) (6, -1.33589796052059922582e-01) (7, -1.27630406775328775204e+00) (8, -6.75854710423606452885e-01) (9, 3.97393716987045841904e+00) (10, 2.86352248746911064448e-01) (11, 5.55785471228850358472e+00) (12, 7.74245174076253483975e-02) (13, -2.83890610979412549852e+00) (14, 3.41106306144764670485e-01) (15, -7.42214352297982715712e-01) (16, 3.22555851718186112342e-02) (0, -5.44314422448765711238e-01) (1, -1.37015917709935403090e-01) (2, -7.93636081730015457980e-02) (3, -1.12645754030812506041e-01) (4, -3.85963333760387522497e-02) (5, 3.16790758632697955210e-01) (6, 4.74530847750174594735e-02) (7, 3.46573997950865653195e+00) (8, -3.16251769441874205913e-02) (9, -3.97911968424775741582e+00) (10, -8.67950413510284679575e-01) (11, -6.62575926111727309120e+00) (12, 7.16703527388645178497e-01) (13, 8.74443598442531833115e-01) (14, -1.19602612509871808477e+00) (15, 5.88255841741128437938e-01) (16, 2.00135917350303865758e-01) (0, -6.16142384045444746477e-01) (1, -5.31894189450055343560e-02) (2, -1.01695283982446760263e-01) (3, -1.07017822298696607675e-01) (4, -1.43518745634248795495e-01) (5, 2.85502333395781460190e-01) (6, -5.33480512799171732730e-02) (7, 1.66297389713028787028e+00) (8, 4.01652918513506693166e-02) (9, 1.35771774555052571198e-01) (10, -1.78074226719357464610e-01) (11, 5.97522997243880790719e-02) (12, -6.40896657165481581364e-02) (13, 1.61067638974954951969e+00) (14, -3.04891778738112628755e-01) (15, -4.76260830749049915434e-02) (16, -5.15353248486757065105e-02) (0, 2.99556810046961574656e+00) (1, 2.29622756351056528379e-01) (2, 7.58796457539228363931e-02) (3, 1.39981006492200299451e-01) (4, 2.48650838841023846815e-01) (5, -9.07159162517680028870e-01) (6, -7.54988473408236271389e-02) (7, -1.28729449523764172270e+00) (8, 1.01959873718988194846e-01) (9, 3.83750288471248479638e+00) (10, -1.09034811825556565701e+00) (11, 5.90296266909739308915e+00) (12, -2.20030356817727174024e-01) (13, -2.63734785052477027634e+00) (14, 3.19507420705684830331e-01) (15, 9.61273959599069638404e-02) (16, 1.56940347590809048395e-01) (0, -6.12339386604737412334e-01) (1, -4.41969054237920863648e-02) (2, -5.92938237348392301052e-03) (3, -8.26324694314792447536e-03) (4, -7.35487210051139900235e-02) (5, 2.80913639766907530237e-01) (6, 3.92667895223427782653e-03) (7, 3.94953520806102797991e-01) (8, 1.34615105433704140836e-01) (9, 6.16743993715009736212e-02) (10, -6.81873423408501766474e-01) (11, -4.61585092268155749995e-01) (12, 9.57083853985821964017e-01) (13, 3.07666671892083853912e-01) (14, -2.00923615066967542475e-01) (15, 1.19465513438274939517e+00) (16, -7.22242752200596832557e-02) (0, -6.34332903524136293427e-01) (1, -6.05266651435917221735e-02) (2, -3.22674474044864767475e-02) (3, -1.41655634932142976412e-01) (4, -2.13092926733118748217e-01) (5, 2.47586507418951745629e-01) (6, -1.17469977778071436869e-02) (7, 1.62010450205478617747e+00) (8, 3.30286581812507945566e-02) (9, 2.48391646965431173166e-01) (10, 1.79952213890282514130e-01) (11, 1.87684906391499095601e-01) (12, -7.05324822560562392226e-01) (13, 1.50942252321197378784e+00) (14, -8.21578467821761804224e-01) (15, -5.46594195241320468526e-01) (16, -1.52195464660341700514e-01) (17, 4.36511264939173304622e-01) (18, -4.63993055279903698906e-01) (19, 7.94358276461126555645e-01) (20, -1.87968263958368020372e-01) (21, 6.70024108133776552521e-01) (22, -1.15410820144472750504e-01) (23, 5.88296474798168822495e-01) (24, 4.67057433057466331316e-01) (25, 4.30252306854606969555e-01) (26, 4.27786631333535338761e-01) (27, 2.87374710373301534005e-01) 
