FANN_FLO_2.1
num_layers=3
learning_rate=0.700000
connection_rate=1.000000
network_type=0
learning_momentum=0.000000
training_algorithm=2
train_error_function=1
train_stop_function=1
cascade_output_change_fraction=0.010000
quickprop_decay=-0.000100
quickprop_mu=1.750000
rprop_increase_factor=1.200000
rprop_decrease_factor=0.500000
rprop_delta_min=0.000000
rprop_delta_max=50.000000
rprop_delta_zero=0.100000
cascade_output_stagnation_epochs=12
cascade_candidate_change_fraction=0.010000
cascade_candidate_stagnation_epochs=12
cascade_max_out_epochs=150
cascade_min_out_epochs=50
cascade_max_cand_epochs=150
cascade_min_cand_epochs=50
cascade_num_candidate_groups=2
bit_fail_limit=1.00000000000000005551e-01
cascade_candidate_limit=1.00000000000000000000e+03
cascade_weight_multiplier=4.00000000000000022204e-01
cascade_activation_functions_count=10
cascade_activation_functions=3 5 7 8 10 11 14 15 16 17 
cascade_activation_steepnesses_count=4
cascade_activation_steepnesses=2.50000000000000000000e-01 5.00000000000000000000e-01 7.50000000000000000000e-01 1.00000000000000000000e+00 
layer_sizes=21 11 2 
scale_included=0
neurons (num_inputs, activation_function, activation_steepness)=(0, 0, 0.00000000000000000000e+00) (0, 0, 0.00000000000000000000e+00) (0, 0, 0.00000000000000000000e+00) (0, 0, 0.00000000000000000000e+00) (0, 0, 0.00000000000000000000e+00) (0, 0, 0.00000000000000000000e+00) (0, 0, 0.00000000000000000000e+00) (0, 0, 0.00000000000000000000e+00) (0, 0, 0.00000000000000000000e+00) (0, 0, 0.00000000000000000000e+00) (0, 0, 0.00000000000000000000e+00) (0, 0, 0.00000000000000000000e+00) (0, 0, 0.00000000000000000000e+00) (0, 0, 0.00000000000000000000e+00) (0, 0, 0.00000000000000000000e+00) (0, 0, 0.00000000000000000000e+00) (0, 0, 0.00000000000000000000e+00) (0, 0, 0.00000000000000000000e+00) (0, 0, 0.00000000000000000000e+00) (0, 0, 0.00000000000000000000e+00) (0, 0, 0.00000000000000000000e+00) (21, 6, 5.00000000000000000000e-01) (21, 6, 5.00000000000000000000e-01) (21, 6, 5.00000000000000000000e-01) (21, 6, 5.00000000000000000000e-01) (21, 6, 5.00000000000000000000e-01) (21, 6, 5.00000000000000000000e-01) (21, 6, 5.00000000000000000000e-01) (21, 6, 5.00000000000000000000e-01) (21, 6, 5.00000000000000000000e-01) (21, 6, 5.00000000000000000000e-01) (0, 6, 0.00000000000000000000e+00) (11, 6, 5.00000000000000000000e-01) (0, 6, 0.00000000000000000000e+00) 
connections (connected_to_neuron, weight)=(0, 3.51959202114734370781e+00) (1, 3.63339005417156024613e-01) (2, 5.09238651401326181123e-01) (3, 5.01703208691406166153e-01) (4, 5.37807977206036014195e-01) (5, -5.86556893626562159128e-01) (6, 3.25573528562772640527e+00) (7, 4.30006669227455895488e-01) (8, 4.51899072684814773204e-01) (9, -5.17035434746836219944e-01) (10, -5.00387814721608203961e-01) (11, -7.06217789885682645235e+00) (12, 9.27278164703479790276e-01) (13, -2.17656014624645122169e+00) (14, 1.18464512874893435068e+00) (15, 1.49237498975847233851e+03) (16, -3.23286486970351338854e-01) (17, -2.25927441584242849615e+00) (18, -2.62770857532402868362e-01) (19, 1.93281786793797982771e-01) (20, 5.01576371906201079476e-01) (0, -2.69113586072007606731e+01) (1, -1.91370947674564056973e-01) (2, -3.28413358346274220079e-01) (3, -2.59021809712699613293e-01) (4, -2.87292199597409481093e-01) (5, 2.99749818016093960704e-01) (6, 2.74614385160210194847e-01) (7, 1.99255971332854386890e-01) (8, 2.63007087019981114495e-02) (9, 1.98521465401382130045e-01) (10, 4.00571813177589608479e-01) (11, 7.73188870792039395496e+00) (12, 6.21543811364306697520e-01) (13, 9.45627223293718177644e-01) (14, -9.30644948474067118527e-02) (15, -6.90488988983214868611e-01) (16, 5.72140376460054445040e-01) (17, 3.51145809239884310049e-01) (18, -2.32883158210876406446e-01) (19, 8.06291064462878792618e-01) (20, -8.28810051474126452398e-01) (0, -4.99466095386336572659e+00) (1, 2.55452713332888936559e-01) (2, 2.14432424269435178976e-01) (3, 2.97881281338451042728e-01) (4, 3.39377804063080379393e-01) (5, 1.07527012184759529489e+00) (6, 7.69480237121020538282e-01) (7, 3.61017607904062065582e-01) (8, -6.37006402927775217115e-01) (9, 6.12276732086278641098e-01) (10, 2.41592495274708468633e-01) (11, 2.37182288241269922935e+00) (12, 2.35786102888816490042e-01) (13, -9.98678929233263268372e+00) (14, -4.46819808001380880391e-01) (15, -4.61193029269436838291e+00) (16, 3.40437097500961349805e-01) (17, -2.56112095466694533741e+00) (18, -2.15051946206992283805e+00) (19, -2.54023081102723147229e-01) (20, 8.75915492390297201197e-01) (0, -2.50572491352460291480e+00) (1, 1.44315946538851824776e-01) (2, 1.68637875159190264718e-01) (3, 2.81875665922568741095e-01) (4, 2.33709361095831624766e-01) (5, -1.74740033239866948689e-01) (6, 3.47600449055349203231e-01) (7, -7.64563871157171170978e-02) (8, 6.96190361222174591838e-01) (9, -3.24618621605504351080e-02) (10, 5.90619475511164823689e-02) (11, 1.50000000000000000000e+03) (12, 5.65676061022989062899e-01) (13, 2.06936317523448254363e+00) (14, -1.03890594048351464496e-01) (15, 1.36497423789306426833e+00) (16, 7.57670259715276461776e-01) (17, -3.41039036397111749999e-01) (18, 5.32280142981871651209e-01) (19, 9.91624413592401277029e-01) (20, 1.49349414385400969252e+00) (0, 1.04071813204678946363e+02) (1, 1.92107044440715313272e+01) (2, 1.93349821289091110543e+01) (3, 1.93555940409212112741e+01) (4, 1.92844494898824692086e+01) (5, 1.49838286508538340058e+03) (6, 1.33674063449554660110e+03) (7, 1.24557453039215010904e+03) (8, 9.91747942519402386097e+02) (9, 1.26843927752868194148e+03) (10, 1.44448060205502906683e+03) (11, -1.43202418639568941217e+03) (12, 8.16736853964846091003e+02) (13, 8.85495944667224392788e+01) (14, 1.48041294326490856292e+03) (15, 4.47793254851608253375e+01) (16, 1.20454351135592901301e+03) (17, 1.50000000000000000000e+03) (18, 1.47036093138637306765e+03) (19, 3.47301341031204970022e+02) (20, 2.94269342994524896184e+00) (0, 1.04053827957603388654e+02) (1, 1.49999592382180594541e+03) (2, 1.49999592382180594541e+03) (3, 1.49999592382180594541e+03) (4, 1.49999592382180594541e+03) (5, 1.49838286508538340058e+03) (6, 1.33674063449554660110e+03) (7, 1.24557453039215010904e+03) (8, 9.91747942519402386097e+02) (9, 1.26843927752868194148e+03) (10, 1.44448060205502906683e+03) (11, -1.43202418639568941217e+03) (12, 1.14019067758814207991e+03) (13, 1.47951485322816915868e+03) (14, 1.48041294326490856292e+03) (15, 1.49237498975847233851e+03) (16, 1.48943405121275350211e+03) (17, 1.50000000000000000000e+03) (18, 1.47036093138637306765e+03) (19, 3.47301341031204970022e+02) (20, 7.55758621265794960919e+00) (0, -2.76663087734877635171e+01) (1, -1.49174435347026734799e-01) (2, -2.88284631728833229403e-01) (3, -2.31132952779239314589e-01) (4, -3.29040294795935328587e-01) (5, 3.92891389473805432986e-02) (6, -1.02762195369526000699e-02) (7, 2.33742057507378087067e-01) (8, 2.46347917599926066745e-02) (9, 1.64589461808074821736e-01) (10, 7.13080058690069434890e-02) (11, 7.95166642223672148759e+00) (12, 4.52037852631530290282e-01) (13, 9.02825686065128252267e-01) (14, 7.16132247038305802533e-02) (15, -1.03653854334848860574e+00) (16, 3.83458961296077871506e-01) (17, 5.34919642411405660276e-01) (18, -2.31692008501354268502e-01) (19, 5.09580953479985887533e-01) (20, -8.27488982803531669674e-01) (0, -1.02406617516346076791e+00) (1, -1.03181722504318118538e-01) (2, -1.88115718704879586465e-01) (3, -1.12768399459541174279e-01) (4, -1.37567880493819988397e-01) (5, 2.05251741741326626522e-01) (6, -1.65528938625548460717e-01) (7, -1.29350190102351852994e-01) (8, -1.05659544053725640289e+00) (9, -1.37735892806803400523e-01) (10, -4.70775732319822243915e-03) (11, 9.84764350167220392507e+00) (12, 1.35228508024314297842e-01) (13, 3.92809994803331119506e-01) (14, -2.87195894499858384030e-01) (15, -1.23376961533789808456e+00) (16, 2.23560139588297512869e-01) (17, 6.69097548276611719942e-01) (18, -7.51090644768822035537e-01) (19, 1.03382301292081341115e-01) (20, -7.04969009828063208900e-01) (0, 5.19776905922232496104e-02) (1, -2.01522236650945207881e-01) (2, -2.07497967368127367305e-01) (3, -2.26615222131968996333e-01) (4, -1.20348686313392252978e-01) (5, -9.23000040356422857268e-02) (6, -6.27981898210069888755e-01) (7, -3.37691342082604872843e-01) (8, -2.55069566330493113782e+00) (9, -9.80645214696342637506e-02) (10, -3.34523541677708036168e-01) (11, 3.99943021724346436940e+00) (12, -7.56411800859184912937e-01) (13, -1.05996663515133970890e+00) (14, -3.77512704274162280704e-01) (15, -1.33318211601594027726e+00) (16, -7.12873821569047216862e-01) (17, -1.50000000000000000000e+03) (18, -9.30234536986068394349e-01) (19, -7.37818374953876254807e-01) (20, 1.22425456007727517793e+00) (0, 1.93677391138434487061e+01) (1, 4.41819818749352777321e-01) (2, 5.25048026873990325569e-01) (3, 4.18040210440083825905e-01) (4, 4.13507940306588495094e-01) (5, 1.21426166970014981494e+00) (6, -1.69295761592302063114e+00) (7, -2.46007995674024981803e-01) (8, -1.77957795876796387446e+00) (9, 9.42875263649621153661e-01) (10, -2.39620329573455359551e-01) (11, -4.91200374067511003062e+00) (12, 1.11870342109455811475e+00) (13, -6.10761123014386606012e-02) (14, -1.21658402804106757777e+00) (15, 5.69022784273002635302e+00) (16, -1.37287878504175842043e-01) (17, -2.22314063316475252208e+00) (18, 5.92008722177338908566e-01) (19, 3.47301341031204970022e+02) (20, 2.95485466736263024945e-01) (21, 8.62155125294054580642e-01) (22, 7.29801968424463987084e-01) (23, -2.05306270313978522779e-02) (24, -3.96515885789331001821e-01) (25, 4.39917393728326777680e-01) (26, 3.23697750383033833188e-01) (27, 9.18897594321117172633e-01) (28, 7.90168172988684913705e-01) (29, -4.90206875633729888264e-01) (30, 4.41209220351522601877e-01) (31, 2.60991859248647595226e-01) 
