FANN_FLO_2.1
num_layers=3
learning_rate=0.700000
connection_rate=1.000000
network_type=0
learning_momentum=0.000000
training_algorithm=2
train_error_function=1
train_stop_function=1
cascade_output_change_fraction=0.010000
quickprop_decay=-0.000100
quickprop_mu=1.750000
rprop_increase_factor=1.200000
rprop_decrease_factor=0.500000
rprop_delta_min=0.000000
rprop_delta_max=50.000000
rprop_delta_zero=0.100000
cascade_output_stagnation_epochs=12
cascade_candidate_change_fraction=0.010000
cascade_candidate_stagnation_epochs=12
cascade_max_out_epochs=150
cascade_min_out_epochs=50
cascade_max_cand_epochs=150
cascade_min_cand_epochs=50
cascade_num_candidate_groups=2
bit_fail_limit=1.00000000000000005551e-01
cascade_candidate_limit=1.00000000000000000000e+03
cascade_weight_multiplier=4.00000000000000022204e-01
cascade_activation_functions_count=10
cascade_activation_functions=3 5 7 8 10 11 14 15 16 17 
cascade_activation_steepnesses_count=4
cascade_activation_steepnesses=2.50000000000000000000e-01 5.00000000000000000000e-01 7.50000000000000000000e-01 1.00000000000000000000e+00 
layer_sizes=16 11 2 
scale_included=0
neurons (num_inputs, activation_function, activation_steepness)=(0, 0, 0.00000000000000000000e+00) (0, 0, 0.00000000000000000000e+00) (0, 0, 0.00000000000000000000e+00) (0, 0, 0.00000000000000000000e+00) (0, 0, 0.00000000000000000000e+00) (0, 0, 0.00000000000000000000e+00) (0, 0, 0.00000000000000000000e+00) (0, 0, 0.00000000000000000000e+00) (0, 0, 0.00000000000000000000e+00) (0, 0, 0.00000000000000000000e+00) (0, 0, 0.00000000000000000000e+00) (0, 0, 0.00000000000000000000e+00) (0, 0, 0.00000000000000000000e+00) (0, 0, 0.00000000000000000000e+00) (0, 0, 0.00000000000000000000e+00) (0, 0, 0.00000000000000000000e+00) (16, 6, 5.00000000000000000000e-01) (16, 6, 5.00000000000000000000e-01) (16, 6, 5.00000000000000000000e-01) (16, 6, 5.00000000000000000000e-01) (16, 6, 5.00000000000000000000e-01) (16, 6, 5.00000000000000000000e-01) (16, 6, 5.00000000000000000000e-01) (16, 6, 5.00000000000000000000e-01) (16, 6, 5.00000000000000000000e-01) (16, 6, 5.00000000000000000000e-01) (0, 6, 0.00000000000000000000e+00) (11, 6, 5.00000000000000000000e-01) (0, 6, 0.00000000000000000000e+00) 
connections (connected_to_neuron, weight)=(0, 1.10055191804007748146e+01) (1, 3.19885391025829177170e-02) (2, 7.39533233671473555493e-02) (3, 5.80870065121935896801e-02) (4, 3.10003611474323134689e-02) (5, -1.03424627467444948947e-01) (6, 3.70055872531006802006e-01) (7, -7.58435143795836763658e-01) (8, -1.46036001021180944504e-01) (9, 8.39770584654689483672e-02) (10, 1.31512432098650222656e+00) (11, -7.51716082316049583056e-01) (12, -4.36057159879500777500e-01) (13, 3.95840468116122834452e-01) (14, 1.76451720774895959298e-01) (15, 1.06205686309123659150e+00) (0, -2.37321255592927438105e-01) (1, -7.59165086777141839836e-02) (2, -1.67192074003927770853e-01) (3, -1.62918055895083013773e-01) (4, -8.98589887649944574211e-02) (5, -9.82172120617205018922e-02) (6, 4.88293834019129679991e-01) (7, -4.02110988181992090595e-01) (8, -1.43094562896739024849e-01) (9, -3.52580968331829447404e-01) (10, 2.66912361304616307933e+00) (11, 1.97090948688048134274e-01) (12, 1.92084174021922640674e-02) (13, -2.73508447297987233870e-01) (14, -1.60119929262536493664e-02) (15, -7.14287558366290209477e-01) (0, 1.57497539535679687006e+00) (1, -1.20394099120182587054e-02) (2, -9.12572998443074261121e-03) (3, 2.13919002946334202431e-02) (4, 5.39202932651954291998e-02) (5, -2.00055769367588672653e-03) (6, 3.51000442036523918610e-01) (7, 1.29697083606030538760e+00) (8, -1.92955236167108475087e-02) (9, 1.04178363226723365298e-02) (10, -8.06985049721696046099e-01) (11, 6.69218622412109276354e-01) (12, 7.77717891862072630005e-01) (13, 4.45988992150002927506e-01) (14, 3.02246866548267045793e-01) (15, 3.31375751070559776412e-01) (0, 5.32078676740081313312e+00) (1, 4.03262332517848709479e-01) (2, 3.81912678916202286139e-01) (3, 3.33323926169620254889e-01) (4, 3.54690328676448562994e-01) (5, 2.25273844180970961304e-01) (6, 9.13475064928599422842e-02) (7, 5.67421383891044062153e+00) (8, 6.73422201186049812494e-02) (9, 1.46641851184000898911e+02) (10, -4.48400949893946698666e+00) (11, -3.57653167466195176516e+00) (12, 3.08624809122393672922e+00) (13, 4.60970899447297810525e+00) (14, 2.99197155366995026782e+00) (15, 1.51184890534209331880e-01) (0, 2.03845853446004232623e+00) (1, 4.52108103596779609124e-01) (2, 4.78536750936123522759e-01) (3, 5.40279816650959143765e-01) (4, 5.12271623873325587795e-01) (5, -7.75814829836462216406e-01) (6, -6.45185984956881952712e-01) (7, -1.47712296257447506242e+00) (8, -9.20792218294346320739e-01) (9, -3.45573645318629718570e-01) (10, -6.45534947435409289795e+00) (11, -1.05158250808882480776e+00) (12, -1.13714914493539276386e+00) (13, -1.76416633678784823269e-01) (14, -1.18980770288671089396e+00) (15, 8.70274217809682948399e-01) (0, 1.55447357721221046667e+00) (1, 3.86884878333188186872e-01) (2, 4.77092693503475939742e-01) (3, 4.74278452749825163437e-01) (4, 5.07779593523121297594e-01) (5, -6.16498571641090120643e-01) (6, -1.72896910106587337053e-01) (7, -1.22593288141426870475e+00) (8, -1.02905952002103084908e+00) (9, -3.57610658149647264725e-01) (10, -7.59050213700009823725e+00) (11, -7.00146046405086264208e-01) (12, -4.30982499289095322137e-01) (13, -2.23339130258406320939e-01) (14, -3.19986649043914217483e-01) (15, 6.94934112806393611272e-01) (0, 1.60695029631806818315e+01) (1, 5.41325550178055947548e-01) (2, 5.43305296102528756386e-01) (3, 5.20706195035939400917e-01) (4, 5.67429195741181557899e-01) (5, -1.00547225952183683084e+00) (6, -1.56241801158309479014e+00) (7, -2.62431826015366409521e+00) (8, 6.01771506237995246202e-02) (9, -9.05236996172139707362e-01) (10, -6.57025990533448656095e+00) (11, -1.03361746489683081762e+00) (12, -1.52484896205344244713e+00) (13, 3.42907242854089550077e-02) (14, -1.47225130310417018364e+00) (15, 4.86378462871930372646e-01) (0, 3.27640714791018305974e-01) (1, 2.87341095789822920104e-01) (2, 3.49335506841096266051e-01) (3, 2.27023668869885508759e-01) (4, 2.35182430877837245209e-01) (5, -1.81296897439009757624e-01) (6, -5.59971695763363919163e-01) (7, 3.64855986523292097345e+00) (8, 1.71148859763564059611e-01) (9, 1.93036533187442627124e-01) (10, -5.17534814513376950629e+00) (11, 7.63980365323357446528e+00) (12, 6.57114831559113876658e-01) (13, 2.34886001113875336754e-01) (14, 1.39985947664641274812e+00) (15, 3.53807438926327433304e-01) (0, 1.42601706836571695547e+00) (1, -2.42737714436671234153e-02) (2, -1.26925107327124555429e-02) (3, -5.51668513801714735512e-02) (4, 1.41880009672341628191e-01) (5, 3.16658408072181829247e-04) (6, 1.21418759562776812366e+00) (7, 2.21187145627965575656e+00) (8, 1.22475474298415348828e-01) (9, -1.14259783142044574200e-02) (10, -9.38603019687680312222e-02) (11, 3.53142778962334591419e-01) (12, 2.53139495407598547061e+00) (13, 5.99276255344305841533e-01) (14, 6.97956351994181378728e-01) (15, 1.80856942549747684579e-01) (0, 3.16915339336654522384e+00) (1, 2.93682005391900424751e-01) (2, 3.43008402870480899605e-01) (3, 3.00835784660165195259e-01) (4, 3.26878581331555728706e-01) (5, -4.04639807381913449436e-02) (6, -6.55766570144722282798e-01) (7, 5.62424920829506103104e+00) (8, 9.00644553211537440829e-02) (9, 2.42213968835735399265e-01) (10, -4.11329728434748265187e+00) (11, 6.52411307646602711685e+00) (12, -6.13330620707052132090e-01) (13, 2.56050411852794035372e-01) (14, 4.41359880632623408081e-02) (15, 2.95414046429813448302e-01) (16, -1.61229067336244369368e-01) (17, 6.81322894464666761749e-01) (18, -5.80239909397868638963e-02) (19, 4.49614191620283321082e-01) (20, -2.50679278765401913898e-01) (21, -1.88605915820157565843e-01) (22, -8.65859009707294791092e-01) (23, 5.98165553653163373227e-01) (24, -4.56604295806930168822e-02) (25, 6.51442636526923690710e-01) (26, 3.92662799743267842967e-01) 
