FANN_FLO_2.1
num_layers=3
learning_rate=0.700000
connection_rate=1.000000
network_type=0
learning_momentum=0.000000
training_algorithm=2
train_error_function=1
train_stop_function=1
cascade_output_change_fraction=0.010000
quickprop_decay=-0.000100
quickprop_mu=1.750000
rprop_increase_factor=1.200000
rprop_decrease_factor=0.500000
rprop_delta_min=0.000000
rprop_delta_max=50.000000
rprop_delta_zero=0.100000
cascade_output_stagnation_epochs=12
cascade_candidate_change_fraction=0.010000
cascade_candidate_stagnation_epochs=12
cascade_max_out_epochs=150
cascade_min_out_epochs=50
cascade_max_cand_epochs=150
cascade_min_cand_epochs=50
cascade_num_candidate_groups=2
bit_fail_limit=1.00000000000000005551e-01
cascade_candidate_limit=1.00000000000000000000e+03
cascade_weight_multiplier=4.00000000000000022204e-01
cascade_activation_functions_count=10
cascade_activation_functions=3 5 7 8 10 11 14 15 16 17 
cascade_activation_steepnesses_count=4
cascade_activation_steepnesses=2.50000000000000000000e-01 5.00000000000000000000e-01 7.50000000000000000000e-01 1.00000000000000000000e+00 
layer_sizes=18 11 2 
scale_included=0
neurons (num_inputs, activation_function, activation_steepness)=(0, 0, 0.00000000000000000000e+00) (0, 0, 0.00000000000000000000e+00) (0, 0, 0.00000000000000000000e+00) (0, 0, 0.00000000000000000000e+00) (0, 0, 0.00000000000000000000e+00) (0, 0, 0.00000000000000000000e+00) (0, 0, 0.00000000000000000000e+00) (0, 0, 0.00000000000000000000e+00) (0, 0, 0.00000000000000000000e+00) (0, 0, 0.00000000000000000000e+00) (0, 0, 0.00000000000000000000e+00) (0, 0, 0.00000000000000000000e+00) (0, 0, 0.00000000000000000000e+00) (0, 0, 0.00000000000000000000e+00) (0, 0, 0.00000000000000000000e+00) (0, 0, 0.00000000000000000000e+00) (0, 0, 0.00000000000000000000e+00) (0, 0, 0.00000000000000000000e+00) (18, 6, 5.00000000000000000000e-01) (18, 6, 5.00000000000000000000e-01) (18, 6, 5.00000000000000000000e-01) (18, 6, 5.00000000000000000000e-01) (18, 6, 5.00000000000000000000e-01) (18, 6, 5.00000000000000000000e-01) (18, 6, 5.00000000000000000000e-01) (18, 6, 5.00000000000000000000e-01) (18, 6, 5.00000000000000000000e-01) (18, 6, 5.00000000000000000000e-01) (0, 6, 0.00000000000000000000e+00) (11, 6, 5.00000000000000000000e-01) (0, 6, 0.00000000000000000000e+00) 
connections (connected_to_neuron, weight)=(0, -9.89617831966495886675e-01) (1, 1.64538896109780591326e-01) (2, 5.11047154924482022187e-02) (3, 1.00992067184171030458e-01) (4, 1.08773032601794536478e-01) (5, -7.27714418726699285855e-01) (6, -1.28789245874716957729e+01) (7, -3.12329267746760441682e+00) (8, -5.41686667103172397875e-02) (9, 4.83628920675096019011e+00) (10, 4.64070207808864876320e-01) (11, -3.83851555493680163256e-01) (12, -1.70191753536796108737e-01) (13, 2.97714829927346429084e-02) (14, -3.14675463193364812753e-01) (15, -2.67761309895323706964e-01) (16, -1.17130936525113416025e+01) (17, -2.47682953406818118225e-01) (0, 1.06034694271206308969e+00) (1, 5.25046483300578570308e-01) (2, 4.38372851036441080197e-01) (3, 4.79861807696473574580e-01) (4, 5.22909194849383807124e-01) (5, -7.73411842627695245156e-01) (6, 5.14384535973333800740e+00) (7, 4.62830876038136607153e-01) (8, 7.29291978285881326016e-01) (9, 4.59715510832919793671e+00) (10, 4.62427264047682862191e-01) (11, 8.41162749288771993683e-01) (12, 4.35623267769561950402e-01) (13, -2.57475190472825771204e-02) (14, 2.13958211878158610642e-01) (15, 5.73550158241143304139e-01) (16, 1.62051714254574386054e+00) (17, -1.89446541488662556496e+00) (0, 9.36026426145350853858e+00) (1, 5.07108469782884263566e-01) (2, 6.21449926225955517900e-01) (3, 5.74552574484164857438e-01) (4, 6.59197443454082043779e-01) (5, 3.19052860752610634165e+00) (6, 5.26852798917156750491e+00) (7, 2.53175217041932354434e-01) (8, 9.67189422964157441420e-01) (9, -4.42513621068358453670e+00) (10, 2.48561119073764160703e+01) (11, 8.35950540912039241626e-01) (12, 4.26470540778114770575e+00) (13, 2.12616105315534653641e+00) (14, 2.04766626298942755469e+00) (15, 3.56716992542431610147e-01) (16, -1.82291238318634718496e+00) (17, 6.87576996620482883138e-01) (0, 1.08562516064801206639e+00) (1, 5.07629695170507933000e-01) (2, 5.11338813983784334916e-01) (3, 5.37376000367985384720e-01) (4, 5.26892936610565798539e-01) (5, -3.99591194049840847669e+00) (6, 2.55749250145494055886e+00) (7, 5.50788853222564878109e-01) (8, 9.02700860289305406781e-01) (9, 2.38362637773591634627e+00) (10, 2.02733793958361635523e-02) (11, 4.74844100951817338352e-01) (12, -1.70972931635857500199e-01) (13, 5.38158766895256324148e-01) (14, 8.02883224748385582181e-01) (15, 5.91784097930703301138e-01) (16, 1.46867216475813422427e+00) (17, 5.83772838042419750515e-01) (0, 4.77527252243305944113e-01) (1, 1.93429721611706434414e-01) (2, 2.01509205716816602871e-01) (3, 1.27486882823673902676e-01) (4, 1.54054081159798322842e-01) (5, 3.16345589514373581874e-01) (6, -1.93275638049904374682e+00) (7, 7.57291918889321236108e-01) (8, -3.31611192723021364070e-01) (9, -1.45169073439419782368e+00) (10, 7.90932335204434178166e-01) (11, -1.72875253868831568749e-01) (12, -1.42866288340260744194e-01) (13, 2.15066190997888595504e-01) (14, 2.51558146649661307226e-01) (15, -1.08534603886475081169e-01) (16, -8.70601815556769054183e+00) (17, -2.62859500163504060388e-02) (0, -1.86562130724110417646e+01) (1, -1.60856161355298232785e-01) (2, -5.73606156700069633181e-02) (3, -9.43764337294514393806e-02) (4, -1.18744101464074436336e-01) (5, 9.04927658450204591700e-02) (6, 2.04979389102893305719e+00) (7, 7.11675740899090691904e-01) (8, -2.16381650460808955261e-01) (9, 4.38316939789857951126e+00) (10, -3.39987228924003570540e-01) (11, 3.84111369281691539257e-01) (12, -1.37733559392844540081e-01) (13, -1.94736892684724105518e-01) (14, -4.04900855671787907042e-01) (15, -2.30437648669824496350e-01) (16, 2.94330792313653732961e+00) (17, -1.11998211396007052443e+00) (0, 9.40489955359613816199e+00) (1, 6.22662359206493043473e-01) (2, 5.66653528539950990250e-01) (3, 6.28748634187991761735e-01) (4, 4.93800909547622346452e-01) (5, 3.03386114840052423247e+00) (6, 5.29233283259731823733e+00) (7, 2.65298771986924419863e-01) (8, 6.77113009252561459661e-01) (9, -4.47041853001708400228e+00) (10, 2.53307269384226927400e+01) (11, 6.67703096480649960220e-01) (12, 4.27104531542732690497e+00) (13, 2.10004035321323456742e+00) (14, 2.13809013382115553625e+00) (15, 2.73109437213971739666e-01) (16, -1.92989255645090573843e+00) (17, 5.81110066260880686606e-01) (0, 4.96336885423398432859e-01) (1, 1.54153803314459769691e-01) (2, 2.23931783761275204903e-01) (3, 1.74273619379294364418e-01) (4, 2.21371436442625912910e-01) (5, 6.19344026471403685807e-02) (6, -2.42099843857051277851e+00) (7, 4.13558490300940551077e-01) (8, -2.13933185093907358987e-02) (9, 4.12618642652393496917e+00) (10, 3.17350271041435039177e-01) (11, -1.79027073195543423578e-01) (12, -1.38499806769926625538e-01) (13, 1.58155923948890442254e-01) (14, -3.00074329136431006138e-01) (15, -6.23598143688786354932e-02) (16, -2.56318224336947153574e+00) (17, -1.45597806676893537503e-01) (0, -5.43953353010834828041e+00) (1, -8.01124111248968373555e-02) (2, -2.02786257906150652053e-01) (3, -1.69825723810386547408e-01) (4, -2.60907909317207364897e-01) (5, -8.84590978674527073089e-01) (6, 3.45247414108796668586e+00) (7, 8.17478726025945956479e-01) (8, -8.22921244322812189820e-02) (9, 4.88298335240053127393e+00) (10, -6.95965311642448569707e-01) (11, 2.82800369947826646388e-01) (12, -1.20067723493430741910e-01) (13, -1.64177526028879611220e-01) (14, 6.11321191870169006188e-02) (15, -1.92163309704759810437e-01) (16, 3.73950723621397784768e+00) (17, -3.92230647589336411940e+00) (0, 2.57835335835677692540e-01) (1, -1.71138714194559005133e-01) (2, -1.56561344057582763067e-01) (3, -6.46496258082617653029e-02) (4, -8.14608178439368002532e-02) (5, 8.33116900750840438938e-01) (6, -9.94393652113437442885e-01) (7, 2.20999756397158675369e+00) (8, 1.13182331927147453166e-01) (9, -1.17931322436339613979e+00) (10, 1.32892845135420589742e+00) (11, -3.82143740312324065034e-01) (12, 2.63369009517274814403e-02) (13, 2.17622716071099148172e-01) (14, 5.05125860208475163660e-01) (15, 1.15454287047307091463e-01) (16, 8.87617778539486756983e-01) (17, -9.85865515637098510648e-02) (18, -2.03748579321505973727e-01) (19, -1.81798052280927185942e-01) (20, 4.91250225690877229123e-01) (21, -1.19180160877523422247e-01) (22, 3.25859283843685926252e-04) (23, 5.39637057344375947743e-01) (24, 4.84115788129842072873e-01) (25, 2.31998838042639238255e-01) (26, 8.43501151967553708388e-01) (27, -1.64835180440758954923e-01) (28, 4.43678751979423247054e-01) 
