FANN_FLO_2.1
num_layers=3
learning_rate=0.700000
connection_rate=1.000000
network_type=0
learning_momentum=0.000000
training_algorithm=2
train_error_function=1
train_stop_function=1
cascade_output_change_fraction=0.010000
quickprop_decay=-0.000100
quickprop_mu=1.750000
rprop_increase_factor=1.200000
rprop_decrease_factor=0.500000
rprop_delta_min=0.000000
rprop_delta_max=50.000000
rprop_delta_zero=0.100000
cascade_output_stagnation_epochs=12
cascade_candidate_change_fraction=0.010000
cascade_candidate_stagnation_epochs=12
cascade_max_out_epochs=150
cascade_min_out_epochs=50
cascade_max_cand_epochs=150
cascade_min_cand_epochs=50
cascade_num_candidate_groups=2
bit_fail_limit=1.00000000000000005551e-01
cascade_candidate_limit=1.00000000000000000000e+03
cascade_weight_multiplier=4.00000000000000022204e-01
cascade_activation_functions_count=10
cascade_activation_functions=3 5 7 8 10 11 14 15 16 17 
cascade_activation_steepnesses_count=4
cascade_activation_steepnesses=2.50000000000000000000e-01 5.00000000000000000000e-01 7.50000000000000000000e-01 1.00000000000000000000e+00 
layer_sizes=16 4 2 
scale_included=0
neurons (num_inputs, activation_function, activation_steepness)=(0, 0, 0.00000000000000000000e+00) (0, 0, 0.00000000000000000000e+00) (0, 0, 0.00000000000000000000e+00) (0, 0, 0.00000000000000000000e+00) (0, 0, 0.00000000000000000000e+00) (0, 0, 0.00000000000000000000e+00) (0, 0, 0.00000000000000000000e+00) (0, 0, 0.00000000000000000000e+00) (0, 0, 0.00000000000000000000e+00) (0, 0, 0.00000000000000000000e+00) (0, 0, 0.00000000000000000000e+00) (0, 0, 0.00000000000000000000e+00) (0, 0, 0.00000000000000000000e+00) (0, 0, 0.00000000000000000000e+00) (0, 0, 0.00000000000000000000e+00) (0, 0, 0.00000000000000000000e+00) (16, 6, 5.00000000000000000000e-01) (16, 6, 5.00000000000000000000e-01) (16, 6, 5.00000000000000000000e-01) (0, 6, 0.00000000000000000000e+00) (4, 4, 5.00000000000000000000e-01) (0, 4, 0.00000000000000000000e+00) 
connections (connected_to_neuron, weight)=(0, -2.66650796489944541534e+00) (1, 1.02650436556561830415e+00) (2, 4.33669585193229156772e+00) (3, -6.31236711015275009373e-01) (4, 2.98992901014343781529e-01) (5, 7.44247516526996277797e-01) (6, 2.18365984518541589310e+00) (7, 6.68829738621337188675e+00) (8, 4.95635302893301987748e-01) (9, 7.37473747487282338398e+00) (10, 5.34842193916632968609e+00) (11, 4.85336097373589847592e-01) (12, 3.92393674186522767311e-01) (13, 1.94937284650769093730e+00) (14, 3.82699321440512940651e-01) (15, -9.82197650374217912095e-01) (0, 1.97855339067133995101e+00) (1, -1.72348833857689420768e+00) (2, -7.71493337504539744565e-01) (3, 2.03667091676177774984e-02) (4, 1.05264456687363838761e+00) (5, -8.05505399291354895475e-01) (6, 1.73738645289618881540e-01) (7, -7.61034495642086694644e-01) (8, -1.91069742064009950866e+00) (9, -1.23286318986924325891e+00) (10, -1.36625148998627404806e-01) (11, -2.04777595313246374431e+00) (12, 3.90716665839769827784e-01) (13, -1.67852037707532680821e-01) (14, 3.08632109265493559391e-01) (15, 1.40122765219284528548e+00) (0, -6.57835186163191298903e+00) (1, 2.46360135008890424047e+00) (2, 1.65368570418993399151e+00) (3, -1.13495556331141389528e+00) (4, -5.09658508535923981952e-01) (5, 7.37064114970832351403e-01) (6, 2.30026610582833995755e-01) (7, 1.52417288295071040594e+00) (8, 1.83372748362521154064e+00) (9, 1.16452335610740043137e+00) (10, 5.15342900484568100516e-01) (11, 2.01963938255528319132e+00) (12, 2.12006846113404173737e-01) (13, -5.13188227742683689137e-01) (14, -1.01872219809521435963e-01) (15, -9.72051173759823639031e-01) (16, 4.53417725267919191623e+00) (17, -9.23362595130321395231e+00) (18, 1.45356105171221550165e+01) (19, -7.76524525861234216073e-01) 
