FANN_FLO_2.1
num_layers=3
learning_rate=0.700000
connection_rate=1.000000
network_type=0
learning_momentum=0.000000
training_algorithm=2
train_error_function=1
train_stop_function=1
cascade_output_change_fraction=0.010000
quickprop_decay=-0.000100
quickprop_mu=1.750000
rprop_increase_factor=1.200000
rprop_decrease_factor=0.500000
rprop_delta_min=0.000000
rprop_delta_max=50.000000
rprop_delta_zero=0.100000
cascade_output_stagnation_epochs=12
cascade_candidate_change_fraction=0.010000
cascade_candidate_stagnation_epochs=12
cascade_max_out_epochs=150
cascade_min_out_epochs=50
cascade_max_cand_epochs=150
cascade_min_cand_epochs=50
cascade_num_candidate_groups=2
bit_fail_limit=1.00000000000000005551e-01
cascade_candidate_limit=1.00000000000000000000e+03
cascade_weight_multiplier=4.00000000000000022204e-01
cascade_activation_functions_count=10
cascade_activation_functions=3 5 7 8 10 11 14 15 16 17 
cascade_activation_steepnesses_count=4
cascade_activation_steepnesses=2.50000000000000000000e-01 5.00000000000000000000e-01 7.50000000000000000000e-01 1.00000000000000000000e+00 
layer_sizes=9 4 2 
scale_included=0
neurons (num_inputs, activation_function, activation_steepness)=(0, 0, 0.00000000000000000000e+00) (0, 0, 0.00000000000000000000e+00) (0, 0, 0.00000000000000000000e+00) (0, 0, 0.00000000000000000000e+00) (0, 0, 0.00000000000000000000e+00) (0, 0, 0.00000000000000000000e+00) (0, 0, 0.00000000000000000000e+00) (0, 0, 0.00000000000000000000e+00) (0, 0, 0.00000000000000000000e+00) (9, 6, 5.00000000000000000000e-01) (9, 6, 5.00000000000000000000e-01) (9, 6, 5.00000000000000000000e-01) (0, 6, 0.00000000000000000000e+00) (4, 4, 5.00000000000000000000e-01) (0, 4, 0.00000000000000000000e+00) 
connections (connected_to_neuron, weight)=(0, -2.48109230099286870441e+00) (1, 1.83938105837636700635e+00) (2, 7.76214412606955672658e-01) (3, 1.88464413928146590216e+00) (4, 2.04539748554835432159e+00) (5, 5.52011544199390025156e-01) (6, 1.65633012358389430929e+00) (7, 1.51607084401228187076e+00) (8, -1.34336755003807506448e+00) (0, -2.41587929872836904011e+00) (1, 1.77301292554670086865e+00) (2, 1.35665127804827023716e+00) (3, 1.80366475479955901129e+00) (4, 1.87356177245984190094e+00) (5, 6.78649248869819254892e-01) (6, 1.70193193856916957785e+00) (7, 1.57511065282203910343e+00) (8, -1.38281233932850322610e+00) (0, -6.81495070788457391053e-01) (1, 1.41087641662843465973e+00) (2, 2.70331167667520910758e-01) (3, 1.44277818819686332041e+00) (4, 3.64796802970626665719e-01) (5, 1.11609203741114071384e+00) (6, 5.19193994771158129353e-01) (7, 3.32059124812880468447e-01) (8, -7.62995466920926679322e-01) (9, 7.38603587556367546796e+00) (10, 7.37059022593980461835e+00) (11, 9.85962221800389837512e-01) (12, -2.81282873559549528863e+00) 
