FANN_FLO_2.1
num_layers=3
learning_rate=0.700000
connection_rate=1.000000
network_type=0
learning_momentum=0.000000
training_algorithm=2
train_error_function=1
train_stop_function=1
cascade_output_change_fraction=0.010000
quickprop_decay=-0.000100
quickprop_mu=1.750000
rprop_increase_factor=1.200000
rprop_decrease_factor=0.500000
rprop_delta_min=0.000000
rprop_delta_max=50.000000
rprop_delta_zero=0.100000
cascade_output_stagnation_epochs=12
cascade_candidate_change_fraction=0.010000
cascade_candidate_stagnation_epochs=12
cascade_max_out_epochs=150
cascade_min_out_epochs=50
cascade_max_cand_epochs=150
cascade_min_cand_epochs=50
cascade_num_candidate_groups=2
bit_fail_limit=1.00000000000000005551e-01
cascade_candidate_limit=1.00000000000000000000e+03
cascade_weight_multiplier=4.00000000000000022204e-01
cascade_activation_functions_count=10
cascade_activation_functions=3 5 7 8 10 11 14 15 16 17 
cascade_activation_steepnesses_count=4
cascade_activation_steepnesses=2.50000000000000000000e-01 5.00000000000000000000e-01 7.50000000000000000000e-01 1.00000000000000000000e+00 
layer_sizes=6 4 2 
scale_included=0
neurons (num_inputs, activation_function, activation_steepness)=(0, 0, 0.00000000000000000000e+00) (0, 0, 0.00000000000000000000e+00) (0, 0, 0.00000000000000000000e+00) (0, 0, 0.00000000000000000000e+00) (0, 0, 0.00000000000000000000e+00) (0, 0, 0.00000000000000000000e+00) (6, 6, 5.00000000000000000000e-01) (6, 6, 5.00000000000000000000e-01) (6, 6, 5.00000000000000000000e-01) (0, 6, 0.00000000000000000000e+00) (4, 4, 5.00000000000000000000e-01) (0, 4, 0.00000000000000000000e+00) 
connections (connected_to_neuron, weight)=(0, -4.20520248485665870675e+00) (1, -5.18383002952110327755e+00) (2, 5.31928116476370893562e-02) (3, -3.64992579585762699779e+00) (4, -5.22416634475526819870e+00) (5, 6.68343610033910895396e+00) (0, -1.14973185062226668229e+00) (1, -3.83691698402871705920e-01) (2, 5.53353548557902086280e-01) (3, -6.73434076927198788098e+00) (4, -2.28958289049615348887e-01) (5, 7.41403458683046356903e-01) (0, 6.35564625316883957673e-01) (1, 2.23193938859257556828e+00) (2, -1.64251820216181654288e+00) (3, 1.32672703744253475122e+01) (4, 2.01168838847426423300e+00) (5, -4.14898788878104107791e-01) (6, -1.48852697981460142529e+01) (7, -5.72262992554855465244e-01) (8, 1.57275065596532082068e+00) (9, -1.58213766991825788288e+00) 
