FANN_FLO_2.1
num_layers=3
learning_rate=0.700000
connection_rate=1.000000
network_type=0
learning_momentum=0.000000
training_algorithm=2
train_error_function=1
train_stop_function=1
cascade_output_change_fraction=0.010000
quickprop_decay=-0.000100
quickprop_mu=1.750000
rprop_increase_factor=1.200000
rprop_decrease_factor=0.500000
rprop_delta_min=0.000000
rprop_delta_max=50.000000
rprop_delta_zero=0.100000
cascade_output_stagnation_epochs=12
cascade_candidate_change_fraction=0.010000
cascade_candidate_stagnation_epochs=12
cascade_max_out_epochs=150
cascade_min_out_epochs=50
cascade_max_cand_epochs=150
cascade_min_cand_epochs=50
cascade_num_candidate_groups=2
bit_fail_limit=1.00000000000000005551e-01
cascade_candidate_limit=1.00000000000000000000e+03
cascade_weight_multiplier=4.00000000000000022204e-01
cascade_activation_functions_count=10
cascade_activation_functions=3 5 7 8 10 11 14 15 16 17 
cascade_activation_steepnesses_count=4
cascade_activation_steepnesses=2.50000000000000000000e-01 5.00000000000000000000e-01 7.50000000000000000000e-01 1.00000000000000000000e+00 
layer_sizes=25 11 2 
scale_included=0
neurons (num_inputs, activation_function, activation_steepness)=(0, 0, 0.00000000000000000000e+00) (0, 0, 0.00000000000000000000e+00) (0, 0, 0.00000000000000000000e+00) (0, 0, 0.00000000000000000000e+00) (0, 0, 0.00000000000000000000e+00) (0, 0, 0.00000000000000000000e+00) (0, 0, 0.00000000000000000000e+00) (0, 0, 0.00000000000000000000e+00) (0, 0, 0.00000000000000000000e+00) (0, 0, 0.00000000000000000000e+00) (0, 0, 0.00000000000000000000e+00) (0, 0, 0.00000000000000000000e+00) (0, 0, 0.00000000000000000000e+00) (0, 0, 0.00000000000000000000e+00) (0, 0, 0.00000000000000000000e+00) (0, 0, 0.00000000000000000000e+00) (0, 0, 0.00000000000000000000e+00) (0, 0, 0.00000000000000000000e+00) (0, 0, 0.00000000000000000000e+00) (0, 0, 0.00000000000000000000e+00) (0, 0, 0.00000000000000000000e+00) (0, 0, 0.00000000000000000000e+00) (0, 0, 0.00000000000000000000e+00) (0, 0, 0.00000000000000000000e+00) (0, 0, 0.00000000000000000000e+00) (25, 6, 5.00000000000000000000e-01) (25, 6, 5.00000000000000000000e-01) (25, 6, 5.00000000000000000000e-01) (25, 6, 5.00000000000000000000e-01) (25, 6, 5.00000000000000000000e-01) (25, 6, 5.00000000000000000000e-01) (25, 6, 5.00000000000000000000e-01) (25, 6, 5.00000000000000000000e-01) (25, 6, 5.00000000000000000000e-01) (25, 6, 5.00000000000000000000e-01) (0, 6, 0.00000000000000000000e+00) (11, 6, 5.00000000000000000000e-01) (0, 6, 0.00000000000000000000e+00) 
connections (connected_to_neuron, weight)=(0, -9.70252843346854770834e-02) (1, 5.25826094947953112668e-02) (2, 1.33322085281481289565e-01) (3, 1.72574381371607327162e-01) (4, 2.02824513455500093917e-01) (5, 5.28429848024843717980e-01) (6, 7.05130793688413803899e-01) (7, 1.11733401085437569766e-01) (8, 1.46334259025985541358e-01) (9, -6.66143182545537460015e+00) (10, 1.38954011808112010140e-01) (11, 9.16489122974129266641e-02) (12, 1.79267832800814097549e-01) (13, 1.73431359725364810098e-02) (14, -6.54483375436010761383e-02) (15, 1.49188798914778819604e-01) (16, 4.05432156505294516435e-01) (17, -7.02389531351067852860e-01) (18, 2.68329731896859331741e-02) (19, 2.37689378462667605385e-01) (20, 7.45815888799081505578e-02) (21, 2.28982149752352565075e-01) (22, -4.67975834073965701876e-01) (23, 3.26481333361055892084e-01) (24, 1.76032814847571300598e-01) (0, 3.45029479237479952403e-01) (1, 5.19448896281243938100e-02) (2, 6.72863354317666112481e-02) (3, 4.08508559100152351951e-02) (4, 7.66265769831658283273e-02) (5, 2.08104321427340949180e-01) (6, -2.28663411323884346871e-01) (7, 7.36053244376833493839e-03) (8, 2.15911764341305718873e-02) (9, 9.25708773992883493520e+02) (10, -3.28548703037649728054e-02) (11, 8.93272059790533728973e-02) (12, 7.43439325803407630167e-02) (13, 6.10655975606723758209e-02) (14, -7.73321063666500829736e-02) (15, 1.34052633296257139861e+00) (16, -4.69773623012640501040e-03) (17, -2.98769876028245340294e-01) (18, 4.90368546780221570280e-02) (19, 6.63213478880967932660e-02) (20, 5.21131308392955711062e-02) (21, 9.58162768564538858129e-01) (22, 2.43359961216299458542e+00) (23, -1.49223708819325798225e-02) (24, 4.97868022880748693076e-03) (0, 9.43794670571652671853e-01) (1, 4.41005949037222233500e-01) (2, 3.76267295437006321634e-01) (3, 4.96290046827940312113e-01) (4, 4.43141337590364781107e-01) (5, 2.08931697031340596338e-01) (6, 2.10015865435540516337e-01) (7, 1.05509180759077292322e+00) (8, -2.41440849344864788550e-01) (9, 7.44078556694154236162e-01) (10, 3.83590120901663722552e-01) (11, 5.31733527389208759928e-01) (12, -8.57454809940942586088e-01) (13, 1.79477239114288894539e-01) (14, 4.53135821836057606227e-01) (15, -2.72518465203632453964e+00) (16, 1.03864718329582750300e+00) (17, 1.43466781567840340195e+00) (18, 9.19622402616838585665e-01) (19, 1.36347446638553471132e+00) (20, 4.93330566596805630830e-01) (21, -1.93892955625875051950e-02) (22, -2.61201261599179712647e+00) (23, 3.13461200677767337641e-01) (24, -3.49024769364346121314e-01) (0, 4.74070631954552901277e+00) (1, 4.33172591293170816673e-01) (2, 3.62568676734283334984e-01) (3, 3.80317479634597666038e-01) (4, 2.61701233947589761986e-01) (5, 6.58798527950286372246e-01) (6, 6.95317886048659739018e-01) (7, 8.55582123483018264221e-02) (8, 4.50634551086895651650e-01) (9, 1.16833882176026531852e+03) (10, 4.61613930906683067601e-01) (11, 3.85379365673348239785e-01) (12, 4.37647105971116001655e+00) (13, 1.50992849561098085864e+00) (14, 2.82947013993189111503e-01) (15, 7.56833010287323637577e-01) (16, 5.80494469377088595508e-01) (17, 1.72067473909039175828e-01) (18, 7.08969924063833301098e-01) (19, 1.88887667038328876945e-01) (20, -1.46199727899503667539e-01) (21, 1.23480218737668373530e-01) (22, 1.14249193250579716974e+00) (23, 1.48406787877737644799e+00) (24, -5.46459365564014087902e-01) (0, 1.58292625924335226273e+01) (1, 1.82023267555528778239e-01) (2, 2.09441486108595031901e-01) (3, 1.27362924921804537837e-01) (4, 2.40132007110410827799e-01) (5, 2.01395329977114539988e-01) (6, 2.60263712103207422999e-01) (7, 1.40056193183206334485e-01) (8, -3.97260314858235083491e-02) (9, -6.22995924810471812805e+00) (10, 8.45697327794653064270e-02) (11, 2.29952395217597818644e-02) (12, -1.74435223470595590634e-01) (13, -2.78053334179140299032e-01) (14, -3.31920886278081916920e-01) (15, 4.27932285832258174629e-01) (16, 4.65154577775702682274e-01) (17, 1.04197859187531674530e-01) (18, 7.89137495943735056692e-01) (19, 2.83558506617027306085e-01) (20, 1.80928121285537563123e-01) (21, -7.64435193441299065675e-02) (22, 4.84480209417502694080e-01) (23, 1.73835730625826245799e+00) (24, 2.88642397649697068918e-01) (0, 1.01906505982187667314e+00) (1, 4.23238270619476830703e-01) (2, 3.78777526953781640273e-01) (3, 4.66993548610771691543e-01) (4, 3.74597855547035729629e-01) (5, 4.86768486993226168202e-01) (6, 2.00952696075379688700e-01) (7, 1.98194471285733930799e+00) (8, 7.48040873111721904554e-02) (9, 2.97818847972729838780e-01) (10, 3.80034973907209527866e-01) (11, 3.10570834653963012695e-01) (12, -3.31291286226039261020e-01) (13, 9.00790110800210180875e-02) (14, 1.49816371642478096682e+00) (15, -1.43633425491772626081e+00) (16, 7.97794920762022297112e-01) (17, 1.13484302838164707872e+00) (18, 9.58248968200994366562e-01) (19, 4.24886689477936130288e+00) (20, 1.98694676154326455020e-01) (21, 3.02543821566532700196e-01) (22, -8.66161764130948363949e-01) (23, 4.52060866445495035393e-02) (24, -9.73901809882886770886e-01) (0, -7.43959103516654352006e+00) (1, -1.74176016314385756489e-01) (2, -2.62445709243996454230e-02) (3, -1.87536230818016770583e-02) (4, -1.40975212170241559484e-01) (5, -2.76833618962188908463e-02) (6, 5.68564170940581425917e-01) (7, -9.34548827177527907661e-02) (8, -3.38920980758182568970e-02) (9, 3.81447718024423432226e+00) (10, -6.51387299259110208460e-02) (11, -4.06516581853191769080e-02) (12, -1.25894378710010190758e-01) (13, -3.24324877765776939387e-02) (14, 3.41843940546739832875e-01) (15, -2.79127333738609983982e+00) (16, -7.02504207642924760613e-01) (17, 1.08061568282394659946e-01) (18, 1.48580552487482669966e-01) (19, -4.60548820899860877898e-01) (20, -5.72668951107104251541e-02) (21, 9.37709876848645262903e-02) (22, -2.76260426007185833086e+00) (23, -6.48438109521432881621e-01) (24, 1.46141675958574634997e-01) (0, 1.02859329352961137438e+00) (1, 4.81553876443984008038e-01) (2, 4.17185300632597899639e-01) (3, 5.17711603685500509897e-01) (4, 3.54183042093398070538e-01) (5, 2.39093256613097215890e-01) (6, 2.18139742887000137594e-01) (7, 1.92842238307985947010e+00) (8, 1.35686567614106468049e-01) (9, 5.54836562109576547641e-01) (10, 4.71931780638138620443e-01) (11, 2.70107140806356782470e-01) (12, -8.51268606171003278105e-02) (13, -3.62683035707109984250e-03) (14, 1.59620181164756447245e+00) (15, -1.25344366278814578486e+00) (16, 7.96285824288566868034e-01) (17, 6.57862831775720580119e-01) (18, 4.21396753702065918201e-01) (19, 1.91759914653960406028e+00) (20, 2.62536093586157648350e-01) (21, 1.28790824485216587325e-01) (22, -8.80190826393724035093e-01) (23, 1.94135554874654031599e-01) (24, -1.99418134273421876479e+00) (0, 1.57959452202306493973e+01) (1, 1.34222884718472185162e-01) (2, 1.83977087084347457058e-01) (3, 2.44063404444748555111e-01) (4, 2.41365891937309895443e-01) (5, 2.41781433929556782703e-01) (6, 2.28004463906128745920e-01) (7, 1.22969774690351210666e-01) (8, 9.67212149470658352768e-04) (9, -6.74821598495327368283e+00) (10, 7.41825932202819920969e-02) (11, -9.10347166854430511762e-02) (12, -6.12069795583986275833e-02) (13, 2.16647985825725794551e-02) (14, -4.60706464364984857873e-01) (15, 3.53061739916324279775e+00) (16, 1.79429797114506045519e-01) (17, 1.55503191076900415535e-01) (18, 3.33302171637710364926e-01) (19, 6.84407877759508509463e-01) (20, 7.24315064262240626558e-02) (21, 9.37237943626761937921e-02) (22, 3.71493674845574695098e+00) (23, 5.41035082474302764233e-01) (24, 2.89495488682009249892e-01) (0, 3.24069332535173604271e+00) (1, 3.27728603435266385713e-01) (2, 3.64297885847795377412e-01) (3, 3.02899618101823697724e-01) (4, 3.44327476275670896211e-01) (5, 7.56963995331763728203e-01) (6, 5.97718774774601113720e-01) (7, 1.28900802680333048666e-01) (8, 3.93605096744866267411e-01) (9, 1.16825928639143535293e+03) (10, -3.06229421099273924067e-01) (11, 3.56275027190986082193e-01) (12, 4.66471845864490042288e+00) (13, 7.25594527857659765679e-01) (14, 1.42231643358092629814e-01) (15, 8.02387074501553221317e-01) (16, 1.21626485489748925595e+00) (17, 2.66742077151648160349e-01) (18, 6.65022331686170642406e-01) (19, 1.62803705737692067101e-01) (20, -2.20903845680866989243e-01) (21, 1.03998902528828957026e-01) (22, 1.20054237871808866522e+00) (23, 1.24084671078979025260e+00) (24, -6.98376638448323872055e-01) (25, -3.50387896725807335141e-01) (26, 6.78402639664308915179e-01) (27, -5.01021650785186678512e-02) (28, 4.83254171241116581292e-01) (29, -3.53901266311167361778e-01) (30, -6.91227746361472022985e-02) (31, 4.08428306785122152700e-01) (32, -4.25453615540245105864e-02) (33, -3.83378827204762184788e-01) (34, 4.01434590353692388742e-01) (35, 3.63338423452352954346e-01) 
