FANN_FLO_2.1
num_layers=3
learning_rate=0.700000
connection_rate=1.000000
network_type=0
learning_momentum=0.000000
training_algorithm=2
train_error_function=1
train_stop_function=1
cascade_output_change_fraction=0.010000
quickprop_decay=-0.000100
quickprop_mu=1.750000
rprop_increase_factor=1.200000
rprop_decrease_factor=0.500000
rprop_delta_min=0.000000
rprop_delta_max=50.000000
rprop_delta_zero=0.100000
cascade_output_stagnation_epochs=12
cascade_candidate_change_fraction=0.010000
cascade_candidate_stagnation_epochs=12
cascade_max_out_epochs=150
cascade_min_out_epochs=50
cascade_max_cand_epochs=150
cascade_min_cand_epochs=50
cascade_num_candidate_groups=2
bit_fail_limit=1.00000000000000005551e-01
cascade_candidate_limit=1.00000000000000000000e+03
cascade_weight_multiplier=4.00000000000000022204e-01
cascade_activation_functions_count=10
cascade_activation_functions=3 5 7 8 10 11 14 15 16 17 
cascade_activation_steepnesses_count=4
cascade_activation_steepnesses=2.50000000000000000000e-01 5.00000000000000000000e-01 7.50000000000000000000e-01 1.00000000000000000000e+00 
layer_sizes=17 11 2 
scale_included=0
neurons (num_inputs, activation_function, activation_steepness)=(0, 0, 0.00000000000000000000e+00) (0, 0, 0.00000000000000000000e+00) (0, 0, 0.00000000000000000000e+00) (0, 0, 0.00000000000000000000e+00) (0, 0, 0.00000000000000000000e+00) (0, 0, 0.00000000000000000000e+00) (0, 0, 0.00000000000000000000e+00) (0, 0, 0.00000000000000000000e+00) (0, 0, 0.00000000000000000000e+00) (0, 0, 0.00000000000000000000e+00) (0, 0, 0.00000000000000000000e+00) (0, 0, 0.00000000000000000000e+00) (0, 0, 0.00000000000000000000e+00) (0, 0, 0.00000000000000000000e+00) (0, 0, 0.00000000000000000000e+00) (0, 0, 0.00000000000000000000e+00) (0, 0, 0.00000000000000000000e+00) (17, 6, 5.00000000000000000000e-01) (17, 6, 5.00000000000000000000e-01) (17, 6, 5.00000000000000000000e-01) (17, 6, 5.00000000000000000000e-01) (17, 6, 5.00000000000000000000e-01) (17, 6, 5.00000000000000000000e-01) (17, 6, 5.00000000000000000000e-01) (17, 6, 5.00000000000000000000e-01) (17, 6, 5.00000000000000000000e-01) (17, 6, 5.00000000000000000000e-01) (0, 6, 0.00000000000000000000e+00) (11, 6, 5.00000000000000000000e-01) (0, 6, 0.00000000000000000000e+00) 
connections (connected_to_neuron, weight)=(0, 2.99791721657212875130e+01) (1, 1.14619987962978814311e-01) (2, 2.20100636540192073909e-01) (3, 2.50975671170490688411e-01) (4, 2.24404166398781246272e-01) (5, -1.93817249487058584911e+00) (6, -2.68741847050614079961e+00) (7, -6.10495052576055449722e-02) (8, -1.72966162195627060072e+00) (9, -4.22638290670308558461e-01) (10, -5.38909962270991460542e+00) (11, -6.76128885794431644385e-01) (12, -4.25327961557288136696e-01) (13, -8.70508271087481189099e-02) (14, 1.23577617567443148738e-01) (15, -9.09170963658835429300e-01) (16, 2.19142333561725077828e+00) (0, 1.95406138164644005428e+00) (1, 2.20685479653739080597e-01) (2, 2.05183913422488317657e-01) (3, 2.25686249745749634155e-01) (4, 2.22921860826872930694e-01) (5, 3.76316775615331744476e+00) (6, -5.07714846524618579338e+00) (7, 1.83129615042388804724e+00) (8, 4.64901879263341299975e+01) (9, -4.24093424365193438774e+00) (10, 6.83462031970469929831e+00) (11, -1.58524774179596789070e-01) (12, 1.74078273648604314738e-01) (13, 4.47215651270258307548e-01) (14, 7.28411940045886191486e-02) (15, 1.74952043805186002734e-01) (16, -2.18374152365350959748e-02) (0, 7.48051745572107074089e-01) (1, 2.77954633753203617097e-01) (2, 2.72070731441878543855e-01) (3, 1.47723409752749557100e-01) (4, 1.42018813114070052706e-01) (5, 5.79811461630980762294e+00) (6, -1.01202319379467962079e+01) (7, -6.17748295595143659398e-01) (8, 5.12402491190568412094e+01) (9, -6.53762312415407098598e+00) (10, 6.89462283064916903186e+00) (11, 1.24234468658678540720e+01) (12, 2.57288557204807366574e-01) (13, 1.36090507829896064512e-02) (14, 2.65453269112603862379e-01) (15, 2.21764378999168912387e-02) (16, 1.19861668180073510648e+00) (0, -1.08424887566987209198e+01) (1, -1.07603249177121412794e-01) (2, -1.87608194574498315932e-01) (3, -1.41895127519749836287e-01) (4, -1.68731746300839563490e-01) (5, 6.21087744774927674740e-01) (6, 3.40097072129389177420e+00) (7, -5.12798107674592218430e-01) (8, 4.55718431087114073108e-01) (9, 3.05461900998073732083e+00) (10, 1.51855659022138689274e+00) (11, 6.54795143992051298376e-01) (12, 3.82185736383355706414e-02) (13, 1.77139016635228491170e-01) (14, 1.71700353159337543163e-01) (15, 8.67277049897413832014e-01) (16, -9.48221980965462174495e-01) (0, -9.17099716866581871066e-01) (1, -1.01553520658632365214e-01) (2, -1.24209469655176249492e-01) (3, -2.24701392003913952289e-01) (4, -1.68558350303789211688e-01) (5, 4.30858169437307314542e-01) (6, 7.92293571255217177196e+00) (7, -2.20357935174020891367e+00) (8, -4.28077974315594494970e-03) (9, 3.19975767082493645077e+00) (10, 2.19958537566744272151e-01) (11, -9.42429461962811521047e-01) (12, -1.71451190299431621700e-01) (13, 2.65367119603890311286e-01) (14, 8.90644273094659683077e-02) (15, -2.26507173888536167405e-02) (16, -5.28128276101293217537e-02) (0, -1.65162147654973973099e-01) (1, -5.58040010456018822915e-02) (2, -8.63399075988703218476e-02) (3, -1.05113329244034811594e-01) (4, -1.71160818887131804811e-01) (5, -3.93840295956076102968e+00) (6, 8.06691548323431639744e+00) (7, 3.54305307960205428941e-02) (8, -8.51389622072170615397e-01) (9, 4.78367213193206275434e+00) (10, -3.97278456085486564309e-01) (11, -2.52011296572710996600e+00) (12, -1.91081806343506660495e-01) (13, -7.79740437296368854581e-02) (14, -1.67616304662291493166e-01) (15, -4.85609445344200363337e-01) (16, 1.28862115813947269993e-01) (0, 5.55476043266651231534e+01) (1, 7.73850301873938717367e-02) (2, 2.52152978874470412585e-01) (3, 1.32995444781805749468e-01) (4, 2.60556324816967610492e-01) (5, -3.35494521887207675093e+00) (6, -7.96183425029097224801e-01) (7, -1.57075676269252495487e+00) (8, -1.35650890745772412238e+00) (9, 1.53743409123579116704e-01) (10, -5.37898334352173090878e+00) (11, -1.13716293626151232488e+00) (12, -2.10694460112620518544e+00) (13, -7.77879280273143514091e-02) (14, -1.23245308153790894545e-01) (15, -2.84377335154225807656e+00) (16, 2.04340520644730938571e+00) (0, 1.03873807992537656730e+01) (1, 2.27743777307324424264e-01) (2, 3.70419385703854520120e-01) (3, 2.41601119610123732384e-01) (4, 2.44314598711781599816e-01) (5, -4.44227457514706769448e-01) (6, -2.30956019632935216634e+00) (7, -4.91349366471109660903e-02) (8, -4.61625058054258907703e-01) (9, -9.65423944964668478974e+00) (10, -3.96060982634888425480e+00) (11, -6.77048249862112316855e-01) (12, 5.03352034972212938890e-03) (13, 3.45249276835266627472e-01) (14, 3.82709421084302059413e-01) (15, -6.73015161267443207116e-01) (16, 1.69535247222282015045e+00) (0, 1.61071127977853412183e+00) (1, 1.91666431889218835671e-01) (2, 2.20440991387052087624e-01) (3, 2.56775878534001855691e-01) (4, 2.14440390631837396462e-01) (5, 7.30201669579499323959e+00) (6, -5.76626725082471125461e+00) (7, 1.11002042091531993862e+00) (8, 9.37754375014555563439e+00) (9, -2.30263301968409050957e+00) (10, 4.49660596393151035244e+00) (11, 1.03255906532390824282e+01) (12, 2.56071857973236394201e-01) (13, 1.14311316798261786154e+00) (14, 2.50789271561680349176e-01) (15, 1.43395087194019965615e+00) (16, 8.80119202373303849418e-02) (0, 1.00522402169229696511e+00) (1, 2.68018951007292949296e-01) (2, 1.35790896901057583923e-01) (3, 1.17534672209189824943e-01) (4, 2.39458029457496140990e-01) (5, 1.76924130939099626403e+01) (6, -1.41031186428322765636e+01) (7, 9.24305942170857819384e-01) (8, -6.61589086609714827070e-01) (9, 9.28122153057559184930e-01) (10, -9.32146651625802458163e-01) (11, 4.55075566873491581532e+01) (12, 2.11639759679237565715e-01) (13, -1.19027862866143685494e+00) (14, -4.72622750143320335958e-01) (15, 3.22733649574467040821e-01) (16, -4.58060629399288876673e-01) (17, -1.86731727839414191061e-01) (18, 3.82447923826368163525e-01) (19, 3.75137905882985955852e-01) (20, 6.48936977882591081723e-01) (21, 5.25702928092112276026e-01) (22, 2.50633063713556925034e-01) (23, -2.00151758314077027334e-01) (24, -4.96487623647392309345e-02) (25, 3.61952261166040067941e-01) (26, 3.28152536918313142422e-01) (27, 3.13275535444973718402e-01) 
