FANN_FLO_2.1
num_layers=3
learning_rate=0.700000
connection_rate=1.000000
network_type=0
learning_momentum=0.000000
training_algorithm=2
train_error_function=1
train_stop_function=1
cascade_output_change_fraction=0.010000
quickprop_decay=-0.000100
quickprop_mu=1.750000
rprop_increase_factor=1.200000
rprop_decrease_factor=0.500000
rprop_delta_min=0.000000
rprop_delta_max=50.000000
rprop_delta_zero=0.100000
cascade_output_stagnation_epochs=12
cascade_candidate_change_fraction=0.010000
cascade_candidate_stagnation_epochs=12
cascade_max_out_epochs=150
cascade_min_out_epochs=50
cascade_max_cand_epochs=150
cascade_min_cand_epochs=50
cascade_num_candidate_groups=2
bit_fail_limit=1.00000000000000005551e-01
cascade_candidate_limit=1.00000000000000000000e+03
cascade_weight_multiplier=4.00000000000000022204e-01
cascade_activation_functions_count=10
cascade_activation_functions=3 5 7 8 10 11 14 15 16 17 
cascade_activation_steepnesses_count=4
cascade_activation_steepnesses=2.50000000000000000000e-01 5.00000000000000000000e-01 7.50000000000000000000e-01 1.00000000000000000000e+00 
layer_sizes=19 11 2 
scale_included=0
neurons (num_inputs, activation_function, activation_steepness)=(0, 0, 0.00000000000000000000e+00) (0, 0, 0.00000000000000000000e+00) (0, 0, 0.00000000000000000000e+00) (0, 0, 0.00000000000000000000e+00) (0, 0, 0.00000000000000000000e+00) (0, 0, 0.00000000000000000000e+00) (0, 0, 0.00000000000000000000e+00) (0, 0, 0.00000000000000000000e+00) (0, 0, 0.00000000000000000000e+00) (0, 0, 0.00000000000000000000e+00) (0, 0, 0.00000000000000000000e+00) (0, 0, 0.00000000000000000000e+00) (0, 0, 0.00000000000000000000e+00) (0, 0, 0.00000000000000000000e+00) (0, 0, 0.00000000000000000000e+00) (0, 0, 0.00000000000000000000e+00) (0, 0, 0.00000000000000000000e+00) (0, 0, 0.00000000000000000000e+00) (0, 0, 0.00000000000000000000e+00) (19, 6, 5.00000000000000000000e-01) (19, 6, 5.00000000000000000000e-01) (19, 6, 5.00000000000000000000e-01) (19, 6, 5.00000000000000000000e-01) (19, 6, 5.00000000000000000000e-01) (19, 6, 5.00000000000000000000e-01) (19, 6, 5.00000000000000000000e-01) (19, 6, 5.00000000000000000000e-01) (19, 6, 5.00000000000000000000e-01) (19, 6, 5.00000000000000000000e-01) (0, 6, 0.00000000000000000000e+00) (11, 6, 5.00000000000000000000e-01) (0, 6, 0.00000000000000000000e+00) 
connections (connected_to_neuron, weight)=(0, 2.85296854635266967648e+01) (1, 1.99327583881743208849e-01) (2, 2.52243902059920532821e-01) (3, 2.62462887438662861861e-01) (4, 2.31087173792250438753e-01) (5, -5.24905066989364321728e+00) (6, -5.25887536020865553610e+00) (7, -5.25802779415668375407e+00) (8, -1.37858794430175013446e-01) (9, -6.51293149357103695607e-01) (10, -1.16266145708672774539e+00) (11, -2.41255195874432093461e+00) (12, -4.62809129129920671097e-01) (13, -6.78414379907838593908e-01) (14, -7.38144410307646436920e-01) (15, 3.33606772642102811233e-01) (16, -5.29619126613373314427e+00) (17, -4.50755100545756715036e+00) (18, 1.13131965096075504107e+00) (0, 2.93972755855271508096e+01) (1, 8.28434816796004169781e-01) (2, 7.30450264412581318219e-01) (3, 7.31330937940298908551e-01) (4, 7.82319328982054584820e-01) (5, 2.05027145218723241271e+01) (6, 3.44389773544280544115e+01) (7, 2.28568761537141433848e+01) (8, 7.68137444074901365454e-01) (9, 1.90215423626163926407e+00) (10, 5.79597319876134609018e-01) (11, 4.77311708550734348222e+00) (12, 3.60066244674926316804e-01) (13, 1.58897268766983024157e+00) (14, 1.26662258114148285060e+00) (15, 1.06296822928574496991e+00) (16, 1.95301398735150542052e+01) (17, 3.09132809415193321456e+00) (18, -1.69667726582126232593e+00) (0, -2.54671099038212567223e+00) (1, 3.29672674229435358484e-01) (2, 3.50412684073738489587e-01) (3, 2.37075681379131292248e-01) (4, 3.28501152386955652673e-01) (5, 7.00767078942345591486e+01) (6, 2.60565129212600936626e+01) (7, 1.88138689145797535218e+01) (8, 2.74502184837846940901e-01) (9, 7.61321401608084147306e-01) (10, 9.22484466497742405799e-01) (11, -1.20553295160824136545e+00) (12, 2.01960701576036683047e-01) (13, 1.16003052346526147609e+00) (14, 1.62546554959858213785e+00) (15, -1.15349782088542740510e+00) (16, 2.59816745227350587299e+01) (17, 4.79716229469156818510e+00) (18, 1.20728526880746589445e-01) (0, -5.70669726615561367922e-01) (1, -2.19046721066149738255e-02) (2, 1.90487032924977518766e-02) (3, -3.21178236807497935468e-02) (4, -3.96928662265452480984e-02) (5, 2.06409109310319704989e+00) (6, 1.62850141389678726433e+00) (7, 1.69671474914316067206e+00) (8, -1.97079154934348937944e-01) (9, 6.25915214634338995525e-02) (10, -1.57566079674982435777e-02) (11, -1.57448777775050174910e-01) (12, 7.97682698682717350458e-02) (13, 5.40274040503066974028e-02) (14, -1.40075827413013248579e-01) (15, -6.76649988233371524338e-02) (16, 1.54970040096720884648e+00) (17, -3.41766867133312557403e-01) (18, 2.36109803200597628825e-01) (0, 2.80161720637565174741e+01) (1, 5.11954480100214581739e+00) (2, 4.96532614964783292066e+00) (3, 4.99441124934494595777e+00) (4, 4.96752169418871503126e+00) (5, 3.41346730118080401439e+01) (6, 6.45999776660028004471e+01) (7, 1.81955533827522657475e+01) (8, 4.96836454041185149322e-01) (9, 3.34311870124815069261e+00) (10, 4.82822572403012884479e+02) (11, -5.54830255444642439500e+00) (12, 1.25312639841636812577e+01) (13, 1.47819385974458139543e+00) (14, 3.53181936360772386063e-01) (15, -2.06829598464825958892e-01) (16, 3.05955534997915101769e+01) (17, -4.17212070581175265005e+00) (18, -7.57985160758032461281e-01) (0, -5.78022167565650502041e-01) (1, -4.72278137050444399292e-02) (2, -5.80714557610328835358e-02) (3, -8.18430397949991284001e-02) (4, -7.46180478773889460653e-02) (5, 2.43682633918380231464e+00) (6, 3.26379625616728352711e+00) (7, 1.60258488687251565707e+00) (8, -1.04919775784223803794e-01) (9, -4.43671847203773866974e-02) (10, -1.97530825881005150935e-01) (11, -2.19473752340352101786e-01) (12, -2.76547138477934051348e-01) (13, -2.68677691864464662785e-01) (14, -1.76849093065967494232e-01) (15, 3.37077450315945784109e-02) (16, 1.75794508964138596063e+00) (17, -2.52027787900842084601e-02) (18, 2.65527076736161216086e-01) (0, 1.97451667970889133130e+01) (1, 3.20037893341364509947e-01) (2, 2.08540878580393163055e-01) (3, 1.95752724395574950744e-01) (4, 1.98112412677587890197e-01) (5, -3.73367627226711951138e+00) (6, -3.49924874287385501148e+00) (7, -4.25786111672445954923e+00) (8, -4.13869257159260262036e-01) (9, -3.71143488638493890264e-01) (10, -3.19246442155169396493e-01) (11, -5.39011541635288846108e-02) (12, -6.72218348084825945143e-01) (13, -5.07451643222312842596e-01) (14, -6.22521646671183925825e-01) (15, -3.36470122762163148522e-01) (16, -4.15007157025229567182e+00) (17, -3.27864990794521204975e+00) (18, -5.80829045887548897631e-02) (0, 2.40762565114386495324e+00) (1, 7.35856693849315512956e-02) (2, 9.09728062019100058855e-02) (3, 2.24498686060657960673e-02) (4, 1.02068613158201204616e-01) (5, 1.87923647935933821884e+01) (6, 6.76755035916659686279e+00) (7, 1.52586381106280235542e+01) (8, -2.56996362268598482759e-02) (9, -9.34581673222924735889e-01) (10, -5.19998075955574234897e-01) (11, 9.08708860387934413971e-01) (12, -4.02853618285780312736e-01) (13, -6.58655970676891189264e-01) (14, -5.16827828472409378513e-01) (15, 2.58462361009593188932e-01) (16, 4.34557935400217942856e+00) (17, -5.16675366615614972687e-01) (18, 2.51185991666966701441e-01) (0, 2.10357966302309540296e+00) (1, 6.46136523700417519933e-01) (2, 6.62400947428406827733e-01) (3, 4.96878528512180284160e-01) (4, 6.34686113811195995460e-01) (5, 2.05082324069612447204e+01) (6, 3.43247945618240848376e+01) (7, 2.27529563607937888037e+01) (8, 6.04470984992894977417e-01) (9, 3.08357080470368005720e+00) (10, 4.36518409399930149561e+01) (11, 1.09102823463919351710e+00) (12, 4.64701630079168648280e+00) (13, 1.97294725112314295323e+00) (14, 1.13218811976271105380e+00) (15, -1.92235023702231888620e+00) (16, 1.97096266548737695246e+01) (17, 1.54082788672621773252e+00) (18, 8.66136281226441484549e-01) (0, 6.60719160166412589064e+00) (1, 6.00764350475520458872e-01) (2, 5.96235433103293632762e-01) (3, 7.26306074740142193491e-01) (4, 6.99438036860675405038e-01) (5, -4.74294424788364921142e+00) (6, -3.98087587424649846923e+00) (7, -6.28486574212921222937e+00) (8, 1.57955293588409695360e+00) (9, 2.07085538043947758879e+00) (10, 2.01417997233758416797e+00) (11, 1.90696446477579129031e+00) (12, 2.31230290360980417219e+00) (13, 2.01910515095763765103e+00) (14, 1.97668749719833436451e+00) (15, 4.95026174617924585863e-01) (16, -6.32718662859803782084e+00) (17, -6.45170961683237909057e+00) (18, -1.23602919932631144517e-01) (19, -1.06895251834754012599e+00) (20, 7.11073817212793946041e-01) (21, 1.40453521514871532139e-01) (22, 7.07270074524958936024e-01) (23, 2.06302109434530728249e-01) (24, 5.68616428858076727870e-01) (25, -5.80712353817483095675e-01) (26, 6.17784216981819955805e-01) (27, 6.48364724973228501170e-01) (28, -6.67317869190699908266e-01) (29, 5.39521054860534032827e-01) 
