FANN_FLO_2.1
num_layers=3
learning_rate=0.700000
connection_rate=1.000000
network_type=0
learning_momentum=0.000000
training_algorithm=2
train_error_function=1
train_stop_function=1
cascade_output_change_fraction=0.010000
quickprop_decay=-0.000100
quickprop_mu=1.750000
rprop_increase_factor=1.200000
rprop_decrease_factor=0.500000
rprop_delta_min=0.000000
rprop_delta_max=50.000000
rprop_delta_zero=0.100000
cascade_output_stagnation_epochs=12
cascade_candidate_change_fraction=0.010000
cascade_candidate_stagnation_epochs=12
cascade_max_out_epochs=150
cascade_min_out_epochs=50
cascade_max_cand_epochs=150
cascade_min_cand_epochs=50
cascade_num_candidate_groups=2
bit_fail_limit=1.00000000000000005551e-01
cascade_candidate_limit=1.00000000000000000000e+03
cascade_weight_multiplier=4.00000000000000022204e-01
cascade_activation_functions_count=10
cascade_activation_functions=3 5 7 8 10 11 14 15 16 17 
cascade_activation_steepnesses_count=4
cascade_activation_steepnesses=2.50000000000000000000e-01 5.00000000000000000000e-01 7.50000000000000000000e-01 1.00000000000000000000e+00 
layer_sizes=6 4 2 
scale_included=0
neurons (num_inputs, activation_function, activation_steepness)=(0, 0, 0.00000000000000000000e+00) (0, 0, 0.00000000000000000000e+00) (0, 0, 0.00000000000000000000e+00) (0, 0, 0.00000000000000000000e+00) (0, 0, 0.00000000000000000000e+00) (0, 0, 0.00000000000000000000e+00) (6, 6, 5.00000000000000000000e-01) (6, 6, 5.00000000000000000000e-01) (6, 6, 5.00000000000000000000e-01) (0, 6, 0.00000000000000000000e+00) (4, 4, 5.00000000000000000000e-01) (0, 4, 0.00000000000000000000e+00) 
connections (connected_to_neuron, weight)=(0, 2.34091936402969080788e+00) (1, 1.28946547504112896121e+00) (2, -7.49695457496212941395e-02) (3, 1.83470053374729591411e+00) (4, -9.13401368470496133334e-02) (5, -1.77201812225791455191e+00) (0, 1.69051495003989371568e+00) (1, 1.71410626032495927440e+00) (2, 1.37828398182725586629e+00) (3, 1.71400400859370694029e+00) (4, 3.06604171538426339971e-01) (5, -2.53759647441261160239e+00) (0, 2.34345533304862696511e+00) (1, 1.14081737320468601382e+00) (2, 7.68787629924251730840e-02) (3, 1.77790640738126404230e+00) (4, -1.43146463802606344062e-01) (5, -1.74730958301040173453e+00) (6, 1.48017893242642339935e+00) (7, 2.88053647140182988551e+02) (8, 1.36469649221598765543e+00) (9, -2.41656463126828979782e+00) 
