FANN_FLO_2.1
num_layers=3
learning_rate=0.700000
connection_rate=1.000000
network_type=0
learning_momentum=0.000000
training_algorithm=2
train_error_function=1
train_stop_function=1
cascade_output_change_fraction=0.010000
quickprop_decay=-0.000100
quickprop_mu=1.750000
rprop_increase_factor=1.200000
rprop_decrease_factor=0.500000
rprop_delta_min=0.000000
rprop_delta_max=50.000000
rprop_delta_zero=0.100000
cascade_output_stagnation_epochs=12
cascade_candidate_change_fraction=0.010000
cascade_candidate_stagnation_epochs=12
cascade_max_out_epochs=150
cascade_min_out_epochs=50
cascade_max_cand_epochs=150
cascade_min_cand_epochs=50
cascade_num_candidate_groups=2
bit_fail_limit=1.00000000000000005551e-01
cascade_candidate_limit=1.00000000000000000000e+03
cascade_weight_multiplier=4.00000000000000022204e-01
cascade_activation_functions_count=10
cascade_activation_functions=3 5 7 8 10 11 14 15 16 17 
cascade_activation_steepnesses_count=4
cascade_activation_steepnesses=2.50000000000000000000e-01 5.00000000000000000000e-01 7.50000000000000000000e-01 1.00000000000000000000e+00 
layer_sizes=19 4 2 
scale_included=0
neurons (num_inputs, activation_function, activation_steepness)=(0, 0, 0.00000000000000000000e+00) (0, 0, 0.00000000000000000000e+00) (0, 0, 0.00000000000000000000e+00) (0, 0, 0.00000000000000000000e+00) (0, 0, 0.00000000000000000000e+00) (0, 0, 0.00000000000000000000e+00) (0, 0, 0.00000000000000000000e+00) (0, 0, 0.00000000000000000000e+00) (0, 0, 0.00000000000000000000e+00) (0, 0, 0.00000000000000000000e+00) (0, 0, 0.00000000000000000000e+00) (0, 0, 0.00000000000000000000e+00) (0, 0, 0.00000000000000000000e+00) (0, 0, 0.00000000000000000000e+00) (0, 0, 0.00000000000000000000e+00) (0, 0, 0.00000000000000000000e+00) (0, 0, 0.00000000000000000000e+00) (0, 0, 0.00000000000000000000e+00) (0, 0, 0.00000000000000000000e+00) (19, 6, 5.00000000000000000000e-01) (19, 6, 5.00000000000000000000e-01) (19, 6, 5.00000000000000000000e-01) (0, 6, 0.00000000000000000000e+00) (4, 4, 5.00000000000000000000e-01) (0, 4, 0.00000000000000000000e+00) 
connections (connected_to_neuron, weight)=(0, 3.14093524038613303162e+00) (1, 1.08925085349865042872e+01) (2, -8.21812922288964409212e-01) (3, 2.38327257830683036932e-01) (4, 3.36819197845165285710e-01) (5, 7.16319482391939543753e-01) (6, 6.32140004419988632556e-01) (7, -6.88685846585156524746e-01) (8, -9.82259344080046781222e-01) (9, 4.14243711261105471144e-02) (10, -4.00893627892800419321e-01) (11, 1.13514123245609681589e+01) (12, 1.63444461326959800118e+00) (13, 2.35309030723278189701e-01) (14, 1.57058734493382967656e+00) (15, -7.42991854317430422405e-01) (16, 4.09263928105040353245e+00) (17, 1.13469768635464589579e+01) (18, 7.65528093840353918154e-01) (0, -5.43540106161410574437e-01) (1, 5.74921285994371089600e+00) (2, 2.43185970442196336405e-01) (3, 2.97228421136765785793e-01) (4, 3.83846282079844725033e-01) (5, 2.53559024093052975957e-01) (6, 2.97699201605824970152e-01) (7, 2.25284900494901324519e-01) (8, 3.70101415130033195577e-01) (9, 7.22896993951482991214e-01) (10, 1.49527838221333042590e+00) (11, 5.77161332853158626222e+00) (12, 4.01963374471679069089e-01) (13, 6.66792017121502385291e-04) (14, 3.72122484212390469693e-01) (15, 3.62125005551663936565e-01) (16, 5.65876538939794215821e+00) (17, 5.62403945140560779237e+00) (18, 2.71255582872705236497e-01) (0, -5.65203794245597990198e+00) (1, 3.25876330978943542505e+01) (2, 1.32752690002711792872e+00) (3, 6.30636819154309080648e-02) (4, -2.34062174713825857375e-02) (5, -2.78003759571413822105e-01) (6, -1.90075696758054607516e-01) (7, 1.39221875465879452172e+00) (8, 1.37730095336592173183e+00) (9, 5.49174851028682298182e-02) (10, 5.68715456447703854304e-02) (11, 3.26121277011706069970e+01) (12, 1.94264248484019619312e+00) (13, 4.37224780761981540733e-02) (14, -1.08931506008634715332e-01) (15, 1.36077395922908794823e+00) (16, 3.24336880616618827844e+01) (17, 3.25801615662647918725e+01) (18, -3.81837675932015341296e-01) (19, -7.82814153546391011673e+00) (20, 4.62941368858720114776e-01) (21, 1.58343699256765315653e+01) (22, -2.37168397643665984642e-01) 
