FANN_FLO_2.1
num_layers=3
learning_rate=0.700000
connection_rate=1.000000
network_type=0
learning_momentum=0.000000
training_algorithm=2
train_error_function=1
train_stop_function=1
cascade_output_change_fraction=0.010000
quickprop_decay=-0.000100
quickprop_mu=1.750000
rprop_increase_factor=1.200000
rprop_decrease_factor=0.500000
rprop_delta_min=0.000000
rprop_delta_max=50.000000
rprop_delta_zero=0.100000
cascade_output_stagnation_epochs=12
cascade_candidate_change_fraction=0.010000
cascade_candidate_stagnation_epochs=12
cascade_max_out_epochs=150
cascade_min_out_epochs=50
cascade_max_cand_epochs=150
cascade_min_cand_epochs=50
cascade_num_candidate_groups=2
bit_fail_limit=1.00000000000000005551e-01
cascade_candidate_limit=1.00000000000000000000e+03
cascade_weight_multiplier=4.00000000000000022204e-01
cascade_activation_functions_count=10
cascade_activation_functions=3 5 7 8 10 11 14 15 16 17 
cascade_activation_steepnesses_count=4
cascade_activation_steepnesses=2.50000000000000000000e-01 5.00000000000000000000e-01 7.50000000000000000000e-01 1.00000000000000000000e+00 
layer_sizes=49 11 2 
scale_included=0
neurons (num_inputs, activation_function, activation_steepness)=(0, 0, 0.00000000000000000000e+00) (0, 0, 0.00000000000000000000e+00) (0, 0, 0.00000000000000000000e+00) (0, 0, 0.00000000000000000000e+00) (0, 0, 0.00000000000000000000e+00) (0, 0, 0.00000000000000000000e+00) (0, 0, 0.00000000000000000000e+00) (0, 0, 0.00000000000000000000e+00) (0, 0, 0.00000000000000000000e+00) (0, 0, 0.00000000000000000000e+00) (0, 0, 0.00000000000000000000e+00) (0, 0, 0.00000000000000000000e+00) (0, 0, 0.00000000000000000000e+00) (0, 0, 0.00000000000000000000e+00) (0, 0, 0.00000000000000000000e+00) (0, 0, 0.00000000000000000000e+00) (0, 0, 0.00000000000000000000e+00) (0, 0, 0.00000000000000000000e+00) (0, 0, 0.00000000000000000000e+00) (0, 0, 0.00000000000000000000e+00) (0, 0, 0.00000000000000000000e+00) (0, 0, 0.00000000000000000000e+00) (0, 0, 0.00000000000000000000e+00) (0, 0, 0.00000000000000000000e+00) (0, 0, 0.00000000000000000000e+00) (0, 0, 0.00000000000000000000e+00) (0, 0, 0.00000000000000000000e+00) (0, 0, 0.00000000000000000000e+00) (0, 0, 0.00000000000000000000e+00) (0, 0, 0.00000000000000000000e+00) (0, 0, 0.00000000000000000000e+00) (0, 0, 0.00000000000000000000e+00) (0, 0, 0.00000000000000000000e+00) (0, 0, 0.00000000000000000000e+00) (0, 0, 0.00000000000000000000e+00) (0, 0, 0.00000000000000000000e+00) (0, 0, 0.00000000000000000000e+00) (0, 0, 0.00000000000000000000e+00) (0, 0, 0.00000000000000000000e+00) (0, 0, 0.00000000000000000000e+00) (0, 0, 0.00000000000000000000e+00) (0, 0, 0.00000000000000000000e+00) (0, 0, 0.00000000000000000000e+00) (0, 0, 0.00000000000000000000e+00) (0, 0, 0.00000000000000000000e+00) (0, 0, 0.00000000000000000000e+00) (0, 0, 0.00000000000000000000e+00) (0, 0, 0.00000000000000000000e+00) (0, 0, 0.00000000000000000000e+00) (49, 6, 5.00000000000000000000e-01) (49, 6, 5.00000000000000000000e-01) (49, 6, 5.00000000000000000000e-01) (49, 6, 5.00000000000000000000e-01) (49, 6, 5.00000000000000000000e-01) (49, 6, 5.00000000000000000000e-01) (49, 6, 5.00000000000000000000e-01) (49, 6, 5.00000000000000000000e-01) (49, 6, 5.00000000000000000000e-01) (49, 6, 5.00000000000000000000e-01) (0, 6, 0.00000000000000000000e+00) (11, 6, 5.00000000000000000000e-01) (0, 6, 0.00000000000000000000e+00) 
connections (connected_to_neuron, weight)=(0, 2.99284929626411795589e-02) (1, -1.73370322864485593671e-03) (2, -5.55700712529940965556e-02) (3, -6.54281132547182980863e-02) (4, -1.15904120418243009039e-01) (5, -1.29487878186028892991e+00) (6, -2.08781396044689399050e-01) (7, 2.26089465889528717923e+00) (8, -5.34991896950334777650e-02) (9, 2.07944862056441998055e-01) (10, 9.88192431049121355890e-01) (11, 2.22191024774473033787e+00) (12, 1.33235740332009178211e+00) (13, -3.22152782935052617308e-02) (14, -1.44385670453238829092e-01) (15, 2.62992737433737300279e+00) (16, 4.57811917805778734181e-01) (17, -3.98877692342854972551e-01) (18, 7.49773937705675241894e-01) (19, 1.39333722144334859472e+00) (20, 1.94928457827409329362e+00) (21, 8.32861674764838189056e-01) (22, 3.24127661754087892376e+00) (23, 9.64958865551802547067e-01) (24, -7.05943810705207397405e-01) (25, 1.57128960700641795434e+00) (26, 1.50000000000000000000e+03) (27, 4.40749016064458876141e-01) (28, 2.18529199658831752018e+00) (29, 3.94964230418648643006e-01) (30, 2.22671128221182868856e+02) (31, 2.61204450188260606236e-01) (32, 9.24030213191557314723e-01) (33, 1.05582180789169491342e-01) (34, 1.63426179067110188825e+00) (35, 9.95387214935366526625e-01) (36, 6.72447201717230602647e-01) (37, 2.61314550756784003127e+00) (38, 1.18717277724859981980e+00) (39, -1.82399922058873675823e-01) (40, 3.33180367014249911861e-01) (41, 8.03828279054883743093e-01) (42, 2.47695141314134659183e+00) (43, 3.55245252172201805840e-02) (44, -9.34616345200481174471e-02) (45, 2.69335548251783685192e-01) (46, 2.89821376700125421522e+00) (47, 7.07732138657431120166e-01) (48, 3.04505159662487936978e-02) (0, 4.07829118690407721459e+00) (1, 4.25832587338650314646e-01) (2, 3.35813610858881561594e-01) (3, 4.30978375531399338083e-01) (4, 4.15915573991501474893e-01) (5, -7.51336083163196000179e-01) (6, 1.17027971957133081204e+00) (7, 1.50000000000000000000e+03) (8, 3.76984486011477493150e-01) (9, 7.76914172030746286168e+00) (10, -4.84885844465919646495e+00) (11, -2.65528973281747138202e+00) (12, 1.50000000000000000000e+03) (13, -2.56330138477388669305e-01) (14, 4.35987622682908582128e-01) (15, -5.98824220084976399647e+00) (16, 7.37928611344456157894e+01) (17, 1.76005762798397960012e+01) (18, -1.03651187940569777801e+00) (19, -2.17458687489049840025e+00) (20, 3.12976263658976101567e+01) (21, -6.54143705537379016590e+00) (22, 1.47027675290713000322e+03) (23, 1.52370908008307770487e-01) (24, 3.65028903781735493794e+02) (25, 9.64914893405162672479e+01) (26, -4.29337884751066045652e+00) (27, -1.93945304711739896497e+00) (28, 1.50000000000000000000e+03) (29, 8.18090951545108358012e-01) (30, -4.60624279260482172305e+00) (31, 9.59116184478491391019e+02) (32, 4.23925602061741235715e-01) (33, 1.50000000000000000000e+03) (34, -2.58649428042366513747e-01) (35, 3.31658046450445331832e-01) (36, -3.77654207375206774078e-01) (37, 1.50000000000000000000e+03) (38, 4.56654766983037065098e-03) (39, -4.96138760091363206772e-01) (40, 1.43523935263408611718e+03) (41, -9.96156168317152874991e-03) (42, -1.08341993703256544990e+00) (43, 1.64462196003221892970e-02) (44, -9.50279439518084689809e-01) (45, 1.17125071548716208625e+00) (46, -1.24061935548001200935e+00) (47, -2.58108490463119155320e-03) (48, 5.98609748628334936704e-01) (0, 6.16179065145726401198e+00) (1, 5.87312973334085053345e-01) (2, 6.18516749932061848938e-01) (3, 5.10898581935654849673e-01) (4, 5.09897842301617942873e-01) (5, 2.65585222599578285596e+00) (6, -2.63836674234717083465e+00) (7, 1.50000000000000000000e+03) (8, -3.83763204334673369011e-01) (9, 4.61526713495121043707e+00) (10, -4.44497329921422057453e+00) (11, 4.96457265029165341730e+02) (12, 1.50000000000000000000e+03) (13, -2.83888846254998494789e-01) (14, -1.17019827543282617377e+00) (15, -4.20382600544375595319e+00) (16, 7.33136224575968498129e+01) (17, 1.75000644197373809163e+01) (18, -1.11436037345858474090e+00) (19, -1.14719624044026535792e+00) (20, 1.50000000000000000000e+03) (21, 8.95761759062362905581e+00) (22, 1.28114088748101130477e+03) (23, -1.68726187898146329225e+00) (24, 3.65123393751048638478e+02) (25, 4.96289227762744133088e+02) (26, -4.35636987647528606260e+00) (27, -1.43422941443657925298e+00) (28, 1.50000000000000000000e+03) (29, -1.28584716067673299200e+00) (30, -4.65269231141411410135e+00) (31, -3.60134333131516592985e+00) (32, 1.61523268455537438726e-01) (33, 1.50000000000000000000e+03) (34, -1.43544838140789865477e+00) (35, -1.88096840764024886283e+00) (36, -1.56471494283303841355e-01) (37, 1.50000000000000000000e+03) (38, -7.78130268509959477363e-01) (39, 1.94797065695863740042e-02) (40, 1.43523935263408611718e+03) (41, -1.79393318062245316069e-01) (42, -1.07490124759484251271e+00) (43, -1.58030646746888869814e+00) (44, 3.49605632531687471332e-01) (45, -2.48793592679656550004e+00) (46, -1.06473712504636175424e+00) (47, 3.58113448821895552499e-01) (48, -1.42038686378659101406e-01) (0, 1.76098065323553818473e+01) (1, 2.38678987106986262301e-01) (2, 1.93656104585833710452e-01) (3, 2.40958626351065852145e-01) (4, 3.39670601269908778441e-01) (5, -3.95447785619827696380e+00) (6, -2.20936497479843924063e-01) (7, -9.38600449713863582701e-01) (8, 1.13997080644989937093e-01) (9, -2.23901106179038089650e+00) (10, -5.14159543901005555711e+00) (11, -7.85019920061796327992e-01) (12, -9.89578869069745126197e-01) (13, 1.16299038772046459123e+00) (14, -1.73076983024692349078e-01) (15, 8.35374183075844456425e+00) (16, -1.21181154622883879846e+00) (17, -7.60733947577210578572e+00) (18, -3.80360534974149344656e-01) (19, -8.84293215699507140215e-01) (20, -3.47639568151352995606e-01) (21, -4.04751287371563961415e+00) (22, -1.29601672278127089122e+00) (23, -1.09904340905854880361e+00) (24, -4.57019350237291810402e+00) (25, -1.12514796930473437442e+00) (26, -4.52305191728207134361e+00) (27, -9.32113636047911531257e-01) (28, -4.11368186303260829906e-01) (29, -1.76957586033179659069e+00) (30, -3.14620328181099084830e+00) (31, -1.81102468906741465027e+00) (32, -7.22347249220195330999e-01) (33, -5.88311984593643977348e-01) (34, -8.44041978551741123304e-01) (35, -6.09348346367348803199e-01) (36, -1.92682555924537785019e-02) (37, -1.58833279055910625566e+00) (38, -1.19109332348129370871e-01) (39, 5.05164789202372954691e-01) (40, -3.62588617268035984242e-01) (41, -8.32397806234996123775e-02) (42, -4.86361164795658218463e-01) (43, -5.35364973324634826901e-02) (44, -2.66172867730831042010e+00) (45, -1.03477812820955117346e+00) (46, -1.91749084059431273985e+00) (47, -3.43045395180338441588e-01) (48, 1.01890798520931413762e+00) (0, 2.44860219566209125208e-01) (1, 2.05560332366823000916e-01) (2, 7.83545656293616887833e-02) (3, 1.30208982357381736206e-01) (4, 8.85815752834067937638e-02) (5, 6.97090180120715263712e+00) (6, 6.35600594954273900861e-01) (7, -3.94631970540316556750e+00) (8, 6.45574079396869365821e-02) (9, -8.78097799817391777566e-01) (10, -3.63251371168885173191e+00) (11, -4.12152027991268621321e+00) (12, -5.71676715058353934751e-01) (13, 2.33609475674572547588e-01) (14, 4.66292516563694414700e-01) (15, 2.95606992128729245906e+02) (16, -9.54565492052020569957e-01) (17, 1.75381811095087947194e+01) (18, -1.08494767173262496307e+00) (19, -2.61674751787301573813e+00) (20, -1.46105301110773644346e+00) (21, 1.53563219802107475687e+01) (22, -3.23763207373284256363e+00) (23, -1.57760167110130100632e+00) (24, 7.78514705690948744632e+02) (25, -2.99961271711731303213e+00) (26, -3.32981729857093444735e+00) (27, -7.88103888028106602803e-01) (28, -2.27929525145458100610e+00) (29, -9.44919665521818608056e-01) (30, -4.75393187254212090664e+00) (31, -3.49346731174296765143e-01) (32, -8.90113826396636387273e-01) (33, -6.35063122395338575110e-01) (34, -1.94938688494388001615e+00) (35, -1.52618346900627610552e+00) (36, -1.05764200347797077129e+00) (37, -1.90823509743576757991e+00) (38, -1.44728926202755525665e+00) (39, 2.39890707181325102404e-01) (40, -6.66865153891150641563e-01) (41, -1.30118466195372817218e+00) (42, -1.16065493339355207958e+00) (43, -8.93751894610289032705e-01) (44, -1.67740093064280310076e-01) (45, -7.73710670481613682625e-01) (46, -1.23694019917660624763e+00) (47, -1.35425864971205855980e+00) (48, 1.98436936625355581088e-01) (0, 1.78500434875676461388e+01) (1, 2.04158516976749138117e-01) (2, 2.64107333872235061634e-01) (3, 2.68895047161495925891e-01) (4, 3.12503563616192581165e-01) (5, -3.35492123657610852305e+00) (6, -5.95376652790804095083e-01) (7, -2.57757262278099341657e+00) (8, 1.24472141051730642025e-01) (9, -1.83282900501946510730e+00) (10, -2.34446538721019681617e+00) (11, -2.18354909476616487751e+00) (12, -1.77113958107653068907e+00) (13, -7.66369192142333899298e-01) (14, 1.42392243398936635401e-01) (15, -2.16204196429653938694e+00) (16, -1.45903370242525709521e+00) (17, -2.19328884614556407495e-01) (18, -1.76596105922054258386e+00) (19, -2.60007835963923650269e+00) (20, -6.17930132824433209215e-01) (21, -1.70071295883912143587e+00) (22, -2.65363439579384019495e+00) (23, -1.29526037774397018154e+00) (24, -2.64561417401623977241e-01) (25, -6.31785047738768867909e-01) (26, -3.68894645792762565506e+00) (27, -1.99686512548330497019e+00) (28, -5.61998608181372372172e-01) (29, -1.68731022418971887689e+00) (30, -1.92107527512206743836e+00) (31, -2.36406966474429491853e+00) (32, -1.17057956665355344938e+00) (33, -2.35878549481556953893e+00) (34, -6.10700932303453569716e-01) (35, -1.28317333834942193249e+00) (36, -2.46611412752273523319e-02) (37, -2.03588722224627982627e+00) (38, -2.07295441034530125712e-01) (39, -8.77295473049006097055e-02) (40, -1.11302045433788165951e+00) (41, -3.56722896818766566085e-01) (42, -7.01647769051592984368e-01) (43, 2.30985753612489491671e-01) (44, -8.81687058037640913888e-01) (45, -1.30769735802697906202e+00) (46, -1.92957593181225917078e+00) (47, -3.04574590597660399549e-01) (48, 1.08667220678075104878e+00) (0, 9.88004446119457813147e-01) (1, 9.15232523479788534493e-02) (2, 2.69268564800296317241e-01) (3, 1.11783906737837099299e-01) (4, 2.10609503010782600496e-01) (5, -8.98508045203904592846e-01) (6, 7.54330601938618339197e-01) (7, -1.50000000000000000000e+03) (8, 1.62792016420817586830e-01) (9, -3.65075999763383496344e+00) (10, -1.50000000000000000000e+03) (11, -5.53823599425445767253e+00) (12, 9.91475528563802166460e-02) (13, 1.19653908479873072324e+00) (14, 3.05028251595344856995e+00) (15, -4.90782338571496552504e+01) (16, -8.67762186307869942681e-01) (17, -4.51307819894968975660e+00) (18, 5.24645012728749859932e-01) (19, -3.25726324354726592958e+00) (20, 2.06399044179570312352e+00) (21, 2.40401918356986277203e+00) (22, -5.17723071504027601009e+01) (23, -2.52385187651303155576e+00) (24, 1.15810334528544678356e+00) (25, -8.57561383654277475941e-01) (26, -1.50000000000000000000e+03) (27, -1.16458000155109722695e-01) (28, -4.99830795311512243728e+00) (29, -1.82992150260417263397e+00) (30, -3.43150521068311009643e-01) (31, 5.74422209351885482143e-01) (32, -9.02824587678901363530e-02) (33, -8.80869879147372580874e-01) (34, -8.24083952270936670459e-01) (35, -2.53724842566649178011e+00) (36, 9.01516924515713543795e-04) (37, -2.14494089318949843204e+00) (38, -1.15072641359677896311e+00) (39, 3.56919227854926079946e-01) (40, -1.33876734423221478210e+03) (41, -8.32392833969173406850e-01) (42, -2.07185821402259895407e+00) (43, -1.79858039215327947247e-01) (44, -4.88024143792246400952e-01) (45, -1.05751597583487688681e+00) (46, -3.05438374947045687691e+00) (47, -1.85616058390770066744e+00) (48, 1.83862839278790463071e-01) (0, -1.51686420821247569535e+00) (1, -7.17449239038803199264e-02) (2, -2.55246763541636778605e-01) (3, -1.76113945856032516613e-01) (4, -1.69892636551795150890e-01) (5, 1.60596240628388242655e+00) (6, -1.10276042103670079975e+00) (7, 2.07539566105715200806e+00) (8, -3.29550769976075463852e-01) (9, 3.68560216421528752395e-01) (10, 1.50000000000000000000e+03) (11, 2.39417522021703987889e+00) (12, -1.02104851257227860484e-01) (13, -4.99965816657977568660e-01) (14, -6.37054157271633281212e-01) (15, 1.82701181205706864041e+00) (16, 4.70683510147634542875e-01) (17, 6.79776899468788275982e-01) (18, 4.09567863372484630702e-01) (19, 2.33975654963660373298e+00) (20, 4.71228310079419676626e-01) (21, 1.51223060324662683662e+00) (22, 1.33519472340531564214e+00) (23, 8.22186770338165895389e-01) (24, 2.02468177137977090041e+00) (25, 7.74621179223773603795e-01) (26, 1.50000000000000000000e+03) (27, 1.93189970095167473652e-01) (28, 6.56459414615824243810e-01) (29, 5.61009729719645688917e-01) (30, 2.22671128221182868856e+02) (31, -1.42289049779448228961e-01) (32, 4.29361292372631542236e-01) (33, 4.92385014914722196622e-01) (34, 8.34219058506715183121e-01) (35, 9.05640866539279554281e-01) (36, 3.35663001010895467591e-01) (37, 4.95642064957829253657e-01) (38, 9.17162738457427018091e-01) (39, -3.46817856582811112620e-01) (40, 3.76548109003986664067e-01) (41, 9.11905349742552884251e-01) (42, 3.66339028637404595656e+00) (43, 1.34291093695346552828e+00) (44, 1.48214263404364360310e-01) (45, 6.36256578086485613532e-01) (46, 2.55731065336095708673e+00) (47, 8.58277563425777545447e-01) (48, -3.01370600409461980584e-02) (0, 2.06421750384963118563e+01) (1, 2.09979992667795517525e-01) (2, 2.05049168626428940376e-01) (3, 1.85727682272554733833e-01) (4, 3.63164086202742319998e-01) (5, -3.28414356129492235326e+00) (6, -1.23221315599948888497e+00) (7, -1.75958792512693684706e+00) (8, -8.99074047420007488318e-02) (9, -2.22823213519736240684e+00) (10, -1.03079414856619013818e+01) (11, -2.12654285247389918112e+00) (12, -5.53575833565234098899e-01) (13, -1.40124292720111731647e-01) (14, -6.53356894409297339621e-01) (15, -3.48221442180029772118e+00) (16, -2.16172346946096194387e+00) (17, -9.13162480428421186041e-01) (18, -1.79691359917700022031e+00) (19, -2.46616155193060171413e+00) (20, -1.34649386832096795708e+00) (21, -2.17142291941075393780e+00) (22, -1.44122025104412609942e+00) (23, -1.95593412625918761094e+00) (24, -7.71104887803281013881e-01) (25, -1.61298110899086188930e+00) (26, -6.14802377232246044514e+00) (27, -1.84525269038311101610e+00) (28, -1.55180901033384488485e+00) (29, -2.13856967583110479936e+00) (30, -9.32891260505554420490e+00) (31, -1.09600559829815247248e+00) (32, -3.49178740564467016139e-01) (33, -1.67387678526905125942e+00) (34, -1.06995631799767987324e+00) (35, -1.69902807059044280713e+00) (36, -4.44983307701750152585e-01) (37, -2.24085257625644374002e+00) (38, -6.52703065079875272003e-02) (39, -2.31157084926422951021e-01) (40, -1.55567918208966071703e+00) (41, -3.76706507560665260215e-01) (42, -6.17620816804892447394e-01) (43, -2.57727169710890580134e+00) (44, -1.84039275320191153540e+00) (45, -9.88421616018801851844e-01) (46, -1.86896294932877315986e+00) (47, -3.04759750469260071171e-01) (48, 2.14714864316496711893e+00) (0, 1.89217961910746801379e+00) (1, 6.51109086698254069248e-01) (2, 5.65220492309292166233e-01) (3, 5.93735875910480825901e-01) (4, 6.48545312112530192294e-01) (5, -7.27460276910041248044e+00) (6, 7.83550278769484243035e-01) (7, 1.50000000000000000000e+03) (8, -5.57406665087864516828e-01) (9, 4.61252067212924998785e+00) (10, -6.42200735403318745398e+00) (11, 4.96648495631636876624e+02) (12, 1.50000000000000000000e+03) (13, -4.82462239249598578983e-01) (14, 7.83481348820026374247e-02) (15, 1.53155945494369891691e+01) (16, 7.33730483152129409063e+01) (17, 1.74628272412031115834e+01) (18, -1.08339493655842677988e+00) (19, 4.93429911032779315860e+01) (20, 1.50000000000000000000e+03) (21, 1.89998184308572639623e+01) (22, 1.28476087453201444077e+03) (23, 1.04792298133644941061e+01) (24, 3.65115420124792649403e+02) (25, 2.27038069647695124331e+02) (26, -5.47494219045151453429e+00) (27, -1.87736583190580930136e+00) (28, 1.50000000000000000000e+03) (29, 6.00439887870652114543e+02) (30, -4.68286572310074244996e+00) (31, 9.59116184478491391019e+02) (32, -1.36982569795274611302e+00) (33, 1.50000000000000000000e+03) (34, 8.41446272085445867717e-01) (35, -1.02918626817930736195e+00) (36, -5.89253155012339324692e-01) (37, 1.50000000000000000000e+03) (38, -6.43044708495963956985e-01) (39, -2.74501940928251197960e-01) (40, 1.43523935263408611718e+03) (41, -5.31472239135147433986e-02) (42, -1.17042024546916745287e+00) (43, -6.16871098931784933583e-01) (44, 2.77151513343132904765e+00) (45, -1.35253919154489032906e+00) (46, 1.27504919902585123204e+00) (47, 6.01800826943825861726e-01) (48, 2.30302002086135448877e+00) (49, 4.57596832224562266589e-01) (50, 7.08589503252362473695e-01) (51, 4.51050101777778433831e-01) (52, -5.71698637157412314913e-01) (53, 7.42856709960463934550e-01) (54, -6.85253183386865249993e-01) (55, -1.04138756344831204248e-01) (56, 5.37675809098949408771e-01) (57, -5.51311364158252992240e-01) (58, 4.18491750879798729557e-01) (59, 3.43538132946953844726e-01) 
