FANN_FLO_2.1
num_layers=3
learning_rate=0.700000
connection_rate=1.000000
network_type=0
learning_momentum=0.000000
training_algorithm=2
train_error_function=1
train_stop_function=1
cascade_output_change_fraction=0.010000
quickprop_decay=-0.000100
quickprop_mu=1.750000
rprop_increase_factor=1.200000
rprop_decrease_factor=0.500000
rprop_delta_min=0.000000
rprop_delta_max=50.000000
rprop_delta_zero=0.100000
cascade_output_stagnation_epochs=12
cascade_candidate_change_fraction=0.010000
cascade_candidate_stagnation_epochs=12
cascade_max_out_epochs=150
cascade_min_out_epochs=50
cascade_max_cand_epochs=150
cascade_min_cand_epochs=50
cascade_num_candidate_groups=2
bit_fail_limit=1.00000000000000005551e-01
cascade_candidate_limit=1.00000000000000000000e+03
cascade_weight_multiplier=4.00000000000000022204e-01
cascade_activation_functions_count=10
cascade_activation_functions=3 5 7 8 10 11 14 15 16 17 
cascade_activation_steepnesses_count=4
cascade_activation_steepnesses=2.50000000000000000000e-01 5.00000000000000000000e-01 7.50000000000000000000e-01 1.00000000000000000000e+00 
layer_sizes=10 11 2 
scale_included=0
neurons (num_inputs, activation_function, activation_steepness)=(0, 0, 0.00000000000000000000e+00) (0, 0, 0.00000000000000000000e+00) (0, 0, 0.00000000000000000000e+00) (0, 0, 0.00000000000000000000e+00) (0, 0, 0.00000000000000000000e+00) (0, 0, 0.00000000000000000000e+00) (0, 0, 0.00000000000000000000e+00) (0, 0, 0.00000000000000000000e+00) (0, 0, 0.00000000000000000000e+00) (0, 0, 0.00000000000000000000e+00) (10, 6, 5.00000000000000000000e-01) (10, 6, 5.00000000000000000000e-01) (10, 6, 5.00000000000000000000e-01) (10, 6, 5.00000000000000000000e-01) (10, 6, 5.00000000000000000000e-01) (10, 6, 5.00000000000000000000e-01) (10, 6, 5.00000000000000000000e-01) (10, 6, 5.00000000000000000000e-01) (10, 6, 5.00000000000000000000e-01) (10, 6, 5.00000000000000000000e-01) (0, 6, 0.00000000000000000000e+00) (11, 6, 5.00000000000000000000e-01) (0, 6, 0.00000000000000000000e+00) 
connections (connected_to_neuron, weight)=(0, -2.92629138630888574468e+00) (1, -1.16055004981744661063e-01) (2, -2.32242368844735980193e-01) (3, -2.65116569337833229980e-01) (4, -1.95767939773786509017e-01) (5, 2.03591307613915750707e+00) (6, 3.89342437266064211876e-02) (7, -2.03559796391342334720e-01) (8, 2.11027967815790029604e+00) (9, -9.41087960555394009710e-01) (0, -1.43852324991096836015e+00) (1, -1.64841215303152988092e-01) (2, -2.21106070270747134821e-01) (3, -2.14404332628458926813e-01) (4, -3.18809661259859822291e-01) (5, 2.53180683310068177505e+00) (6, 6.93802375792523379205e-02) (7, -2.24678391721271297765e-01) (8, 1.98892111714161834435e+00) (9, -7.82857416854740306711e-01) (0, -1.35938013552297887188e+00) (1, -1.83278391405008733717e-01) (2, -1.61446871503256317304e-01) (3, -1.80236676975153414793e-01) (4, -1.83308089419268072096e-01) (5, 1.63662787852992042126e+00) (6, 9.13384416615738853329e-02) (7, -2.13246273007415554357e-01) (8, 2.57649613004769539870e+00) (9, -7.83221869455219432687e-01) (0, 9.39696557421610179084e-01) (1, 3.67146650472298607948e-01) (2, 3.50956374922409997108e-01) (3, 2.74638036409035668495e-01) (4, 2.13802771785870399102e-01) (5, -1.36688124885337214387e+00) (6, -8.81931467494395382456e-02) (7, 1.68496765784106022901e-01) (8, 5.99954769584808467187e+00) (9, 4.06368167210877873075e-01) (0, 2.71493536143159630569e-01) (1, 3.18553082746960647409e-01) (2, 2.30868972939946154321e-01) (3, 1.95063576204277971948e-01) (4, 2.38860674304463366235e-01) (5, 3.11329279391541514921e-02) (6, -6.48749311453202248678e-02) (7, 1.81069251445677037449e-01) (8, 2.76814940859710523213e+00) (9, -6.61658947140969372347e-02) (0, 6.54449720342047038674e-03) (1, -1.21188375881406754098e-01) (2, -1.70152185172767235477e-02) (3, -1.32097907146903947861e-01) (4, 2.99952945998004311470e-03) (5, 7.65752782668452924852e-01) (6, -6.91148155371405503722e-02) (7, -7.35026025661863480209e-02) (8, -6.06754128502775074594e+02) (9, -7.14211334334511893651e-02) (0, 1.58544911106076447105e+00) (1, 3.38534449367905221351e-01) (2, 3.81316055684471688636e-01) (3, 3.67282484798813424476e-01) (4, 2.18476866512680500954e-01) (5, 9.59778330464281070888e-01) (6, 1.04425514807324515409e+00) (7, 5.75958363608484846807e-01) (8, -2.07607271103958357372e+00) (9, 4.79857798250264866446e-01) (0, 1.08892867674343341022e+00) (1, 3.59140293420223188914e-01) (2, 3.24528390289215040720e-01) (3, 2.18509504319099351344e-01) (4, 3.87490423143772078074e-01) (5, 2.34742199428045555942e-01) (6, 3.18264666809443319551e-01) (7, 4.41218300832867116323e-01) (8, -1.34458244826522826942e-01) (9, 3.42993144888697254480e-01) (0, -3.25717143443812195969e-01) (1, 2.83973652258592335063e-01) (2, 3.53011119499879566508e-01) (3, 4.03856258228497910778e-01) (4, 3.14053613081651528116e-01) (5, 2.91708009475538565525e+00) (6, 9.87687492032765512739e-01) (7, 6.74062351110301327672e-01) (8, 3.44241315564104644054e+00) (9, -5.48423014003684650142e-01) (0, -4.24412294951666768661e-01) (1, 4.22582604427050922968e-01) (2, 3.89685884554099692956e-01) (3, 3.85223720658731116906e-01) (4, 3.88849504728030814782e-01) (5, 2.45410471550137199159e+00) (6, 8.57258622755526666914e-01) (7, 6.80128926036752123885e-01) (8, 3.25755742648208013179e+00) (9, -4.12112427005219772447e-01) (10, 5.06368134519378232383e-01) (11, 5.23158002993384663171e-01) (12, 4.89755355170290007649e-01) (13, 4.08409864265053990096e-01) (14, 3.28706552227105541775e-01) (15, -1.98453993679657714200e-01) (16, 4.00375724393456700057e-01) (17, 4.13038358646958592146e-01) (18, -1.53885708022053924182e-01) (19, -2.45474841151173739373e-01) (20, 2.40677766180609431501e-01) 
