FANN_FLO_2.1
num_layers=3
learning_rate=0.700000
connection_rate=1.000000
network_type=0
learning_momentum=0.000000
training_algorithm=2
train_error_function=1
train_stop_function=1
cascade_output_change_fraction=0.010000
quickprop_decay=-0.000100
quickprop_mu=1.750000
rprop_increase_factor=1.200000
rprop_decrease_factor=0.500000
rprop_delta_min=0.000000
rprop_delta_max=50.000000
rprop_delta_zero=0.100000
cascade_output_stagnation_epochs=12
cascade_candidate_change_fraction=0.010000
cascade_candidate_stagnation_epochs=12
cascade_max_out_epochs=150
cascade_min_out_epochs=50
cascade_max_cand_epochs=150
cascade_min_cand_epochs=50
cascade_num_candidate_groups=2
bit_fail_limit=1.00000000000000005551e-01
cascade_candidate_limit=1.00000000000000000000e+03
cascade_weight_multiplier=4.00000000000000022204e-01
cascade_activation_functions_count=10
cascade_activation_functions=3 5 7 8 10 11 14 15 16 17 
cascade_activation_steepnesses_count=4
cascade_activation_steepnesses=2.50000000000000000000e-01 5.00000000000000000000e-01 7.50000000000000000000e-01 1.00000000000000000000e+00 
layer_sizes=37 11 2 
scale_included=0
neurons (num_inputs, activation_function, activation_steepness)=(0, 0, 0.00000000000000000000e+00) (0, 0, 0.00000000000000000000e+00) (0, 0, 0.00000000000000000000e+00) (0, 0, 0.00000000000000000000e+00) (0, 0, 0.00000000000000000000e+00) (0, 0, 0.00000000000000000000e+00) (0, 0, 0.00000000000000000000e+00) (0, 0, 0.00000000000000000000e+00) (0, 0, 0.00000000000000000000e+00) (0, 0, 0.00000000000000000000e+00) (0, 0, 0.00000000000000000000e+00) (0, 0, 0.00000000000000000000e+00) (0, 0, 0.00000000000000000000e+00) (0, 0, 0.00000000000000000000e+00) (0, 0, 0.00000000000000000000e+00) (0, 0, 0.00000000000000000000e+00) (0, 0, 0.00000000000000000000e+00) (0, 0, 0.00000000000000000000e+00) (0, 0, 0.00000000000000000000e+00) (0, 0, 0.00000000000000000000e+00) (0, 0, 0.00000000000000000000e+00) (0, 0, 0.00000000000000000000e+00) (0, 0, 0.00000000000000000000e+00) (0, 0, 0.00000000000000000000e+00) (0, 0, 0.00000000000000000000e+00) (0, 0, 0.00000000000000000000e+00) (0, 0, 0.00000000000000000000e+00) (0, 0, 0.00000000000000000000e+00) (0, 0, 0.00000000000000000000e+00) (0, 0, 0.00000000000000000000e+00) (0, 0, 0.00000000000000000000e+00) (0, 0, 0.00000000000000000000e+00) (0, 0, 0.00000000000000000000e+00) (0, 0, 0.00000000000000000000e+00) (0, 0, 0.00000000000000000000e+00) (0, 0, 0.00000000000000000000e+00) (0, 0, 0.00000000000000000000e+00) (37, 6, 5.00000000000000000000e-01) (37, 6, 5.00000000000000000000e-01) (37, 6, 5.00000000000000000000e-01) (37, 6, 5.00000000000000000000e-01) (37, 6, 5.00000000000000000000e-01) (37, 6, 5.00000000000000000000e-01) (37, 6, 5.00000000000000000000e-01) (37, 6, 5.00000000000000000000e-01) (37, 6, 5.00000000000000000000e-01) (37, 6, 5.00000000000000000000e-01) (0, 6, 0.00000000000000000000e+00) (11, 6, 5.00000000000000000000e-01) (0, 6, 0.00000000000000000000e+00) 
connections (connected_to_neuron, weight)=(0, 1.37482969844555191763e+00) (1, 1.77343371289275991698e-01) (2, 9.87959308200110492004e-02) (3, 5.02470088773002004912e-02) (4, 3.07455015950431377603e-02) (5, -6.17925161778439258065e-01) (6, 1.48929184773963330102e-01) (7, 3.44894711625754468720e-01) (8, 1.99572115604463706795e+00) (9, 5.16449617175583575168e-01) (10, -2.31360583969653588188e-01) (11, -1.47733096142860675926e-01) (12, -6.61265324249792119105e-01) (13, 3.05299281811286404853e-01) (14, 2.61911092713886073380e-01) (15, -1.44970466789025392851e-01) (16, 4.45300283847141140092e-02) (17, 1.61142967632811384693e-01) (18, -1.25308890669984379640e-01) (19, 6.19811909592322463070e-01) (20, 3.23698520030272607340e-01) (21, 6.02521566358238058747e-01) (22, 2.96854701893827732651e-01) (23, -8.34943722875311072906e-02) (24, 1.19893677841971535436e+00) (25, 1.23110206675525857278e+00) (26, -2.02064346014711654353e-01) (27, 1.95478929446841587225e-01) (28, 2.69681431273543992244e-01) (29, 1.50944072890147940047e-01) (30, 2.17594068537725282564e-01) (31, -3.35002974783570467432e-02) (32, 1.79178854948976951089e-01) (33, 1.05822190265116713448e+01) (34, 1.84465382394943588906e-01) (35, -6.33540868416155311671e-02) (36, -2.01106849958321509675e-01) (0, -1.71479521197524986675e+00) (1, 3.70718738535902148090e-01) (2, 3.69941821793577318989e-01) (3, 3.52578642318508272968e-01) (4, 4.54415234277507906757e-01) (5, 6.54472538179812102221e-01) (6, 8.45817544239576224463e-01) (7, 9.73304057031308955672e-01) (8, 2.02065666787371522872e+00) (9, 8.02326451580974930877e-01) (10, 9.13579881727072939945e-01) (11, 9.07516280582246204212e-01) (12, 1.42384878639524892208e+00) (13, 4.26623942294971469913e-01) (14, 5.90959164834622407980e-01) (15, 1.08981064099183400096e+00) (16, 1.30349621368965928880e+00) (17, 8.42026140897731756318e-01) (18, 1.03534555295698704747e+00) (19, 4.46288924271492304374e-01) (20, 9.74814748943800268854e-01) (21, 5.96439492468149201621e-01) (22, 5.54536286731840855069e-01) (23, 1.18234481863701423876e+00) (24, 1.36844396191213357739e+00) (25, 9.15780215917250561830e-01) (26, 8.22346996544528141548e-01) (27, 2.04245110689387487923e+00) (28, 7.23864679740020555698e-01) (29, 7.52077893335133085273e-01) (30, 5.54423242050346209986e-01) (31, 1.54193513269747595196e+00) (32, 6.59183974014542428677e-01) (33, -9.26925094365089030646e+00) (34, 1.09609974170919066694e+00) (35, 1.09437247395535974803e+00) (36, 1.50101898163194502622e+00) (0, 1.45041332529188626843e+00) (1, 1.99476855772041189452e-01) (2, 2.11164507048629629393e-01) (3, 1.61229628103278982421e-01) (4, 8.81161344819297448483e-02) (5, -2.75732168504078334337e-01) (6, 1.92815340388878819766e-01) (7, 3.52484253699833605111e-01) (8, 1.39657254117268547766e+00) (9, 1.79863891758114485819e-01) (10, -3.06670123830197094428e-01) (11, -2.41892021634909498706e-01) (12, -4.89522349410275059434e-01) (13, 4.20196272396185344089e-01) (14, -2.79632256037976256735e-01) (15, -4.12650631674434775764e-01) (16, -2.33206149425828179744e-01) (17, 8.64004157398155364644e-02) (18, -1.69349980383557613406e-01) (19, 4.94374903237990714899e-01) (20, 1.60877569879782827966e-01) (21, 5.17426975433616931355e-01) (22, 2.09658350885921329620e-01) (23, -1.63081154253897131490e-01) (24, 9.56851637523090547965e-01) (25, 9.52416485282071345608e-01) (26, -1.79132402418319763848e-01) (27, 2.34682349728251748999e-01) (28, 2.87115342835509934627e-01) (29, 1.02198895203933493026e-01) (30, -3.58436597575258864001e-01) (31, -6.48569167363649112801e-01) (32, 1.52567172921398597207e-01) (33, 1.06869610543308279915e+01) (34, 4.65614728803542474167e-03) (35, -3.25951397075975937700e-02) (36, -4.47323484594335851749e-01) (0, 8.50856340156944845887e+00) (1, 1.46668897124774100238e-01) (2, 1.34813831302172781879e-01) (3, 7.42229531731673358719e-02) (4, 2.55938687476164827839e-01) (5, 1.59408463800762484341e-01) (6, 8.80427106197514963704e-02) (7, 7.12316782237257112298e-02) (8, 2.92140768070612399931e-01) (9, -1.88999675380299748950e-02) (10, 2.17593757441869956049e-01) (11, 3.03426406019701333516e-01) (12, 1.39479784441712412191e-01) (13, -9.12881957656783565858e-02) (14, 5.16683504878184055031e-02) (15, 2.66314294844738119750e-01) (16, 1.47904071255799296480e-01) (17, 2.98146898897478918045e-01) (18, 1.32265071423838476150e-01) (19, 1.31562834517451373445e-02) (20, 1.68956082524860939920e-01) (21, 1.68721842874461791517e-01) (22, 1.76639501648727936800e-01) (23, 1.93242880554983953445e-01) (24, 5.72853788627959992219e-01) (25, 2.93571619508137482413e-01) (26, 2.25125609441091445451e-01) (27, 1.73741426805318066595e-01) (28, 2.11766490958332664896e-01) (29, -2.40580943916736067489e-01) (30, 1.08961022259730630490e-01) (31, 2.90893474208328735309e-03) (32, 4.68113441905007199306e-01) (33, 4.72542473274048724363e+00) (34, 4.81655854867005517317e-02) (35, 3.37436193025939079604e-01) (36, 3.18044676529133707454e-01) (0, 1.24465708071207337149e+00) (1, 9.38757313065757409420e-02) (2, 1.47399309056304800292e-01) (3, 1.15225355105899748831e-01) (4, 1.45513000863098013182e-01) (5, -3.11274345795033435813e-01) (6, 2.56941260620658140645e-01) (7, 3.42961782659116698468e-01) (8, 1.25304836007493936023e+00) (9, 5.73861295017262351692e-01) (10, -2.36298905804512598960e-01) (11, -3.77926294246050564762e-01) (12, -6.94126656422215798647e-02) (13, 3.82870830558874553073e-01) (14, 1.17849475160652084060e-01) (15, -2.98750804435060808573e-02) (16, 9.57311782059955540536e-02) (17, 1.55596278599303083912e-01) (18, -2.02479247778100335253e-01) (19, 5.06295065473216121532e-01) (20, 1.81704226251137884729e-01) (21, 6.89555359688430624665e-01) (22, 3.56633387221861941629e-01) (23, -5.14980774314597322672e-02) (24, 1.45201706078270831313e+00) (25, 1.27927083027359200784e+00) (26, -1.53056731214554014864e-01) (27, 1.30170865224505882818e-01) (28, 2.59282462219321996333e-01) (29, 4.91088518379781818757e-02) (30, 2.25417297373784852876e-01) (31, -1.08592007207494484211e-01) (32, 1.93875996894338931131e-01) (33, 1.06386456335840247078e+01) (34, 1.67972973194354113780e-01) (35, -1.33889433707269411844e-01) (36, -1.74326944996735622162e-01) (0, 5.55539793831689499015e-01) (1, 3.21460064554445756890e-02) (2, 1.12553551425956965826e-01) (3, -3.27263999676473196776e-02) (4, 1.17870118522875322320e-02) (5, -3.43161313263599873635e-02) (6, -3.98425800365071691722e-01) (7, 3.94114422058039412522e-02) (8, -2.13908222345623144633e+00) (9, -4.02913866260116659834e-01) (10, -1.05004556351511943446e-03) (11, -1.00437899921982834450e-01) (12, -3.28085964004546704054e-01) (13, -2.15684511861307277869e-02) (14, -1.47752498223418876622e-01) (15, 2.42674346910895261109e-01) (16, -1.55312615977412721291e-01) (17, -3.55366593367033162254e-02) (18, 1.02187262090884176113e-02) (19, -1.71807628184761362888e-01) (20, -9.99929440006128572582e-02) (21, -3.93310583723162243697e-01) (22, 5.17608556420462995185e-02) (23, 6.84574069983322208710e-02) (24, 1.94396228553594063726e-01) (25, 2.30640883678109254173e-01) (26, -3.03248473390523021198e-02) (27, -4.59395807398884148398e+00) (28, -8.39884182578496674143e-02) (29, -1.96011599799174769665e-02) (30, -1.16294087934371681570e-01) (31, -9.48988552968749177197e-01) (32, 1.61808272639845374119e-01) (33, -1.60683494583661379274e+00) (34, -1.96947936271472473502e-01) (35, 1.39820828623956783243e-01) (36, 1.45292107435954082062e-01) (0, 1.03103374665537206312e+00) (1, -2.75669921135671194823e-02) (2, -7.92308188436103774666e-03) (3, 8.13252475166551386243e-02) (4, 1.23191430797600046110e-01) (5, -4.80650287194195474649e-02) (6, -8.77161176221265270758e-02) (7, -7.08166751612626377277e-02) (8, -1.73896934155310889381e+00) (9, -2.37951043377215953889e-01) (10, 2.07642041656222964274e-01) (11, -3.40931991475185713902e-02) (12, -2.99024414057290910396e-01) (13, -1.39876004973909610907e-02) (14, -5.62227190872380128139e-02) (15, 1.65657896446169738969e-01) (16, -1.09012189851886293068e-01) (17, -5.19941162963885594728e-02) (18, -3.21774839249409777553e-02) (19, -2.95112002700771702823e-01) (20, 1.17796988019595372243e-01) (21, -3.60644917530392239424e-01) (22, -2.63821094122685499694e-02) (23, -2.58895817825626761710e-02) (24, -1.90554806393734392500e-02) (25, 1.96778710120827760033e-01) (26, 4.60684011148421723725e-02) (27, -3.97152712907878191473e+00) (28, -1.87226286298208220715e-02) (29, 3.04863962630253226838e-02) (30, -6.40777816055981969123e-02) (31, -1.07925849018598474238e+00) (32, 3.04984831629139974130e-01) (33, -1.47509526238734545167e+00) (34, -2.13166233454986170370e-01) (35, -3.48360119695548031693e-01) (36, 2.78278511437666964401e-01) (0, 1.48090510950685971814e+00) (1, 1.18426221387885943770e-01) (2, 1.52412715333007681151e-01) (3, 1.14874730783008513479e-01) (4, 1.11949245410465178518e-01) (5, -7.36102681380548795609e-02) (6, 1.16734258164032919658e-01) (7, 2.75198009562670931061e-01) (8, 1.35202681618470177405e+00) (9, 4.45381032256607800601e-01) (10, -1.37614511938024985938e-01) (11, -2.65439789851757146355e-01) (12, -1.50814676857908364083e-01) (13, 3.15220024570415147114e-01) (14, -4.10013661391522343802e-01) (15, -4.36030732165621076613e-02) (16, 5.98187867974974765706e-02) (17, 1.58012099555533247486e-01) (18, -8.47389072472282400827e-02) (19, 4.80530428087882544030e-01) (20, 1.56278490390074881189e-01) (21, 5.67526226547389822663e-01) (22, 4.47786315991450412088e-01) (23, 3.08921787946030770855e-02) (24, 1.05491495964946313535e+00) (25, 1.21359078463908387491e+00) (26, -1.82558451873705042401e-02) (27, 1.41210025416518669683e-01) (28, 1.52058172891462090037e-01) (29, 1.90471414613590073195e-01) (30, 3.68540026650560903487e-02) (31, -1.76622612885156293761e-01) (32, 1.59789054221609549966e-01) (33, 1.06550957406816504403e+01) (34, 1.72897084982331167291e-01) (35, -1.54015120414144465397e-03) (36, -2.81295973708054536377e-01) (0, 9.45639461333867892279e-01) (1, -1.06532667198029923350e-01) (2, 1.85442078925691124225e-02) (3, -1.14385415234414505870e-01) (4, -1.35688964643327164561e-01) (5, 6.55233275906620254991e-02) (6, -9.72086110272491338291e-02) (7, -1.29405117845969142021e-01) (8, -2.26902185175055226551e+00) (9, -3.06940656551384194461e-01) (10, 2.40449172467021854427e-01) (11, 1.50468828809542237712e-01) (12, -4.20397820162085669726e-02) (13, -1.81174632416592318318e-01) (14, 4.76451080651084588058e-02) (15, 5.29104505096781974061e-01) (16, -1.49657529125518995450e-01) (17, 1.11235442856770089248e-02) (18, -1.32060800025768448895e-01) (19, -2.97127168300983957039e-01) (20, 1.31868009470487240753e-01) (21, -1.59471874682351494323e-01) (22, -3.25888422324653245776e-02) (23, -3.88011405568715467274e-02) (24, -8.91741477543119498428e-01) (25, -1.53785155539326229279e-01) (26, 2.94700520697313950169e-01) (27, -1.65240448812968754311e+00) (28, -1.09865337319332054267e-01) (29, 2.93107167044935005423e-03) (30, -7.51029652638953359664e-04) (31, 6.95153661098290992504e-02) (32, 2.79022890687833757806e-01) (33, -5.02968825413343978425e+00) (34, 1.19863085428410495736e-01) (35, 6.24652997300986334572e-01) (36, 3.63978707085698849344e-01) (0, -2.35899469995929074173e+01) (1, 1.35261096811244957427e-01) (2, -3.19998480320472927785e-02) (3, 7.72346712707977084422e-02) (4, 9.87337611674766330028e-02) (5, 1.15656552209445173673e+00) (6, 1.81710051356090279695e-01) (7, 4.97105370950861047419e-01) (8, -7.64504860889838877558e-02) (9, 3.08533118397262773325e-01) (10, 1.44126325138224709033e-01) (11, 1.36978273825750784809e-01) (12, 3.29245957728965976674e-01) (13, 2.18318753189970654605e-01) (14, 5.49723105427317504379e-01) (15, 2.69164735239618702067e-01) (16, 3.54837132700266733032e-01) (17, 1.38205395353195509278e-01) (18, 6.09150777929251679987e-02) (19, 2.68326665607000636182e-01) (20, -1.72094862598781844776e-01) (21, 2.46505576719323271639e-01) (22, 1.25831508350727372392e-01) (23, 1.31821584584921241978e-01) (24, 7.75945252798082574230e-01) (25, 5.75760529796637943178e-01) (26, 2.22060152306059355176e-01) (27, 8.95859692028094234395e-01) (28, 2.06249461706447895226e-01) (29, 4.24856103250318140052e-01) (30, 2.98423946511430282502e-01) (31, 1.23554436982935639255e-01) (32, -4.03769919186784287390e-01) (33, 3.07409130975492272952e+00) (34, 4.42479185703584521061e-02) (35, 3.75568809226400762702e-02) (36, -3.30591095175743199253e-01) (37, 4.35510616465079325454e-01) (38, -1.38232414632742262733e-02) (39, 6.19767502014588078652e-01) (40, 1.68556916181993032833e-02) (41, 4.48566514714228647964e-01) (42, -2.04490142142716269102e-01) (43, -2.02890062904301504698e-01) (44, 4.66396998329627054947e-01) (45, -2.94042276606607366762e-01) (46, 1.31747663122636926580e+00) (47, 3.62949498232512823837e-01) 
