FANN_FLO_2.1
num_layers=3
learning_rate=0.700000
connection_rate=1.000000
network_type=0
learning_momentum=0.000000
training_algorithm=2
train_error_function=1
train_stop_function=1
cascade_output_change_fraction=0.010000
quickprop_decay=-0.000100
quickprop_mu=1.750000
rprop_increase_factor=1.200000
rprop_decrease_factor=0.500000
rprop_delta_min=0.000000
rprop_delta_max=50.000000
rprop_delta_zero=0.100000
cascade_output_stagnation_epochs=12
cascade_candidate_change_fraction=0.010000
cascade_candidate_stagnation_epochs=12
cascade_max_out_epochs=150
cascade_min_out_epochs=50
cascade_max_cand_epochs=150
cascade_min_cand_epochs=50
cascade_num_candidate_groups=2
bit_fail_limit=1.00000000000000005551e-01
cascade_candidate_limit=1.00000000000000000000e+03
cascade_weight_multiplier=4.00000000000000022204e-01
cascade_activation_functions_count=10
cascade_activation_functions=3 5 7 8 10 11 14 15 16 17 
cascade_activation_steepnesses_count=4
cascade_activation_steepnesses=2.50000000000000000000e-01 5.00000000000000000000e-01 7.50000000000000000000e-01 1.00000000000000000000e+00 
layer_sizes=12 4 2 
scale_included=0
neurons (num_inputs, activation_function, activation_steepness)=(0, 0, 0.00000000000000000000e+00) (0, 0, 0.00000000000000000000e+00) (0, 0, 0.00000000000000000000e+00) (0, 0, 0.00000000000000000000e+00) (0, 0, 0.00000000000000000000e+00) (0, 0, 0.00000000000000000000e+00) (0, 0, 0.00000000000000000000e+00) (0, 0, 0.00000000000000000000e+00) (0, 0, 0.00000000000000000000e+00) (0, 0, 0.00000000000000000000e+00) (0, 0, 0.00000000000000000000e+00) (0, 0, 0.00000000000000000000e+00) (12, 6, 5.00000000000000000000e-01) (12, 6, 5.00000000000000000000e-01) (12, 6, 5.00000000000000000000e-01) (0, 6, 0.00000000000000000000e+00) (4, 4, 5.00000000000000000000e-01) (0, 4, 0.00000000000000000000e+00) 
connections (connected_to_neuron, weight)=(0, -7.72858749521273535876e-01) (1, 3.91666586737206934288e+00) (2, 1.15230108018965338168e+00) (3, -1.74599065588618129752e+00) (4, -1.79079155580902904532e+00) (5, -1.87912531154061168692e+00) (6, -8.09711801104079365032e-01) (7, 1.11303010795776757824e+00) (8, 1.17613586749882315097e+00) (9, 8.73802723509258361112e-01) (10, -6.06729993027843028663e-01) (11, 8.53495055616493858430e-02) (0, -8.21003209245699805408e-01) (1, 3.93846458981803415611e+00) (2, 1.10115362670273397860e+00) (3, -1.75555787192488521598e+00) (4, -1.71777475582266658805e+00) (5, -1.72875563012266963980e+00) (6, -7.40602521441708683270e-01) (7, 1.09030735705559167492e+00) (8, 1.11113190617413137851e+00) (9, 8.99180302542633036467e-01) (10, -6.39350087744391948341e-01) (11, 1.19038393515407597834e-01) (0, -2.22293791789789307867e-01) (1, 3.94107164308599067226e+00) (2, 1.99844673099222913670e+00) (3, -1.65780214803124303913e+00) (4, -1.71943075792694921589e+00) (5, -1.73818494217301244831e+00) (6, -3.41453666494055063652e-01) (7, 1.16198583484739947913e+00) (8, 1.99336025687161222386e+00) (9, 1.17205500395149875281e+00) (10, -5.18447332185901554880e-01) (11, -2.45493671678246871970e-01) (12, 9.22228814865064450146e+00) (13, 3.86681712590030279841e+00) (14, 3.77749211442044696696e+00) (15, -6.16370720147539699618e-02) 
