FANN_FLO_2.1
num_layers=3
learning_rate=0.700000
connection_rate=1.000000
network_type=0
learning_momentum=0.000000
training_algorithm=2
train_error_function=1
train_stop_function=1
cascade_output_change_fraction=0.010000
quickprop_decay=-0.000100
quickprop_mu=1.750000
rprop_increase_factor=1.200000
rprop_decrease_factor=0.500000
rprop_delta_min=0.000000
rprop_delta_max=50.000000
rprop_delta_zero=0.100000
cascade_output_stagnation_epochs=12
cascade_candidate_change_fraction=0.010000
cascade_candidate_stagnation_epochs=12
cascade_max_out_epochs=150
cascade_min_out_epochs=50
cascade_max_cand_epochs=150
cascade_min_cand_epochs=50
cascade_num_candidate_groups=2
bit_fail_limit=1.00000000000000005551e-01
cascade_candidate_limit=1.00000000000000000000e+03
cascade_weight_multiplier=4.00000000000000022204e-01
cascade_activation_functions_count=10
cascade_activation_functions=3 5 7 8 10 11 14 15 16 17 
cascade_activation_steepnesses_count=4
cascade_activation_steepnesses=2.50000000000000000000e-01 5.00000000000000000000e-01 7.50000000000000000000e-01 1.00000000000000000000e+00 
layer_sizes=45 11 2 
scale_included=0
neurons (num_inputs, activation_function, activation_steepness)=(0, 0, 0.00000000000000000000e+00) (0, 0, 0.00000000000000000000e+00) (0, 0, 0.00000000000000000000e+00) (0, 0, 0.00000000000000000000e+00) (0, 0, 0.00000000000000000000e+00) (0, 0, 0.00000000000000000000e+00) (0, 0, 0.00000000000000000000e+00) (0, 0, 0.00000000000000000000e+00) (0, 0, 0.00000000000000000000e+00) (0, 0, 0.00000000000000000000e+00) (0, 0, 0.00000000000000000000e+00) (0, 0, 0.00000000000000000000e+00) (0, 0, 0.00000000000000000000e+00) (0, 0, 0.00000000000000000000e+00) (0, 0, 0.00000000000000000000e+00) (0, 0, 0.00000000000000000000e+00) (0, 0, 0.00000000000000000000e+00) (0, 0, 0.00000000000000000000e+00) (0, 0, 0.00000000000000000000e+00) (0, 0, 0.00000000000000000000e+00) (0, 0, 0.00000000000000000000e+00) (0, 0, 0.00000000000000000000e+00) (0, 0, 0.00000000000000000000e+00) (0, 0, 0.00000000000000000000e+00) (0, 0, 0.00000000000000000000e+00) (0, 0, 0.00000000000000000000e+00) (0, 0, 0.00000000000000000000e+00) (0, 0, 0.00000000000000000000e+00) (0, 0, 0.00000000000000000000e+00) (0, 0, 0.00000000000000000000e+00) (0, 0, 0.00000000000000000000e+00) (0, 0, 0.00000000000000000000e+00) (0, 0, 0.00000000000000000000e+00) (0, 0, 0.00000000000000000000e+00) (0, 0, 0.00000000000000000000e+00) (0, 0, 0.00000000000000000000e+00) (0, 0, 0.00000000000000000000e+00) (0, 0, 0.00000000000000000000e+00) (0, 0, 0.00000000000000000000e+00) (0, 0, 0.00000000000000000000e+00) (0, 0, 0.00000000000000000000e+00) (0, 0, 0.00000000000000000000e+00) (0, 0, 0.00000000000000000000e+00) (0, 0, 0.00000000000000000000e+00) (0, 0, 0.00000000000000000000e+00) (45, 6, 5.00000000000000000000e-01) (45, 6, 5.00000000000000000000e-01) (45, 6, 5.00000000000000000000e-01) (45, 6, 5.00000000000000000000e-01) (45, 6, 5.00000000000000000000e-01) (45, 6, 5.00000000000000000000e-01) (45, 6, 5.00000000000000000000e-01) (45, 6, 5.00000000000000000000e-01) (45, 6, 5.00000000000000000000e-01) (45, 6, 5.00000000000000000000e-01) (0, 6, 0.00000000000000000000e+00) (11, 6, 5.00000000000000000000e-01) (0, 6, 0.00000000000000000000e+00) 
connections (connected_to_neuron, weight)=(0, 3.34659979712367272597e+00) (1, 3.96315966314482126531e-01) (2, 3.00250772899794016180e-01) (3, 2.61031263089584741888e-01) (4, 3.18120178348230753240e-01) (5, 4.55509818341544248099e-01) (6, 5.68661109052529464836e-02) (7, 5.97991093858485811552e+00) (8, 2.45003178132837673431e-01) (9, -8.80571665160775896020e-02) (10, 2.07768286670687407636e+00) (11, -1.28118204272295754809e-01) (12, 2.60792125972096333619e-01) (13, -2.40872147112754786402e-02) (14, 2.30552574183599379154e+00) (15, 1.32490218048822383512e-01) (16, 3.29140532156218801330e-01) (17, -5.92937736773564316728e-01) (18, 3.03108854247087222689e+00) (19, 2.30192782289791120220e-01) (20, -1.90460156670487990027e-01) (21, 1.06778546841539156986e+00) (22, -2.79493798297026030397e-01) (23, 6.06613852866245584217e-01) (24, 1.41415035333595406897e+00) (25, 4.20585207984766462630e+00) (26, 2.36230431690656439425e-01) (27, 3.96721326315190747636e-01) (28, 3.48104920752195734490e-01) (29, 5.74543245095081811513e-01) (30, 2.96195535042235516543e-02) (31, 1.17212145449317706181e+00) (32, 1.68526014056617212677e-01) (33, -5.10009841335269831220e-01) (34, 4.04671748182091783885e-01) (35, 4.89994792177645877018e+00) (36, 2.38672199036733623245e+00) (37, 2.91075563927382208185e-01) (38, 3.79697185072538134776e-01) (39, 1.11874703154573795771e+00) (40, 5.41032787370749002065e-01) (41, -7.52737663342805118916e-02) (42, 4.23809871651570357898e-01) (43, 1.89780111492741584978e-02) (44, -9.51243468468991104636e-01) (0, 8.11558013327400828985e+00) (1, -4.66146004167576205601e-02) (2, 6.53620082172374494700e-02) (3, 8.58909207614879238735e-02) (4, -3.58069111374397647252e-02) (5, -1.22217671407173877896e-01) (6, 3.18498532175744974992e-01) (7, -1.53127978432053124536e+00) (8, -5.40167788083448230374e-01) (9, -1.35345724448169585363e-01) (10, -1.21011212773480525406e+00) (11, -1.12733502825300480055e-01) (12, -1.29002189699206938622e-02) (13, -1.39083035890384315580e-01) (14, -4.86027639687346857400e-01) (15, -3.71255665743934620826e-02) (16, -1.02940572407884434192e+00) (17, -4.36045988639159054490e-02) (18, -4.08132791847276132913e-01) (19, -3.97941517080916407068e-02) (20, -9.05704539629517413335e-02) (21, -1.46362332217775281684e+00) (22, -1.90013302223310920347e-01) (23, -2.17095300921185341281e-01) (24, -9.42105365544075423756e-01) (25, -1.55340768086784875024e+00) (26, -2.94193426712106187448e-01) (27, -9.04252097450427283487e-02) (28, -2.11023943901493926667e-01) (29, -1.44099315664058869046e-01) (30, -1.73074914061102702600e-01) (31, -1.50063573267462135874e+00) (32, -6.90426989847227334796e-02) (33, -1.56156680273820569482e-01) (34, -1.25101274537850998270e-01) (35, -1.01042679550361236274e+00) (36, -3.66933375925111215921e-01) (37, 2.55901516875716494859e-01) (38, 1.29280548344078965312e-02) (39, -1.79742842375050826398e+00) (40, -3.38850838982138469202e-01) (41, 1.20068732619554030538e-01) (42, -8.79555805975004295627e-02) (43, -3.98725502218220784201e-01) (44, 3.11610209105984525824e-01) (0, 5.51274170273082297911e+00) (1, -4.32315997039156990622e-02) (2, -4.83551926170664794769e-02) (3, -6.66686228667574681817e-02) (4, 9.55662422622364920999e-02) (5, 1.73169696500790094851e-02) (6, 2.00591753124918059648e-01) (7, -1.54299301344030892480e+00) (8, -6.22333804774593324360e-01) (9, -1.11961644841808816153e-01) (10, -1.22286433814089212646e+00) (11, -2.75584207377836988562e-02) (12, -7.85372287880274494443e-02) (13, -4.72778944712119730820e-02) (14, -3.64795849055337351174e-01) (15, 8.76144305145156593317e-02) (16, -9.65424947262237931334e-01) (17, 9.87615943710045823822e-02) (18, -4.37994100481557291360e-01) (19, -3.54656631081052831078e-02) (20, -1.26167949649392159561e-02) (21, -1.51241959594570096748e+00) (22, -9.85620363136688465433e-02) (23, -2.93213382729275551242e-01) (24, -6.18580193137609923859e-01) (25, -1.57319127458208596337e+00) (26, -2.12530786736558396921e-01) (27, -1.27258056446187928223e-01) (28, -5.46109028462914494750e-02) (29, -5.38287344090982791678e-02) (30, -2.66787176870379283411e-01) (31, -1.53649348464014412485e+00) (32, -7.18759908729597329913e-02) (33, -1.23798017714074393147e-01) (34, -1.21877408313562057840e-01) (35, -8.96117170216387148862e-01) (36, -4.43187050849484842630e-01) (37, 4.24004524434539287192e-01) (38, -7.86041680922087565575e-02) (39, -1.02906826736640533149e+00) (40, -2.69390521489653422815e-01) (41, 1.65872056007653700949e-01) (42, -8.92191916161581138889e-02) (43, -4.03261058057759358420e-01) (44, 2.49218667207733862723e-01) (0, 3.25937487404942727309e+00) (1, 3.58207408851789865789e-01) (2, 2.34468613332914743719e-01) (3, 2.76900318032907877264e-01) (4, 2.67143939203428659734e-01) (5, 5.30045054104140378470e-01) (6, -1.04118495740064889721e-02) (7, 5.98924347623592012724e+00) (8, 4.83928016505447033957e-01) (9, -1.27891546665918898196e-01) (10, 2.05916848684790343427e+00) (11, -5.37128917341487613357e-02) (12, 9.53280674536866046154e-02) (13, -1.24079299959507338702e-01) (14, 2.29936880949341970748e+00) (15, 7.97495994622821890996e-02) (16, 3.50694100698222432921e-01) (17, 5.63200298561773726735e-02) (18, 2.47958367905408483267e+00) (19, 1.89645616270113059887e-01) (20, 1.60075471042748607164e-01) (21, 1.14958455087341082645e+00) (22, -1.38194364290812055085e-01) (23, 5.73076907284221892525e-01) (24, 1.32170296045245616590e+00) (25, 2.68444054784846919404e+00) (26, 1.71268923774205994448e-01) (27, 5.91349206777837199667e-01) (28, 1.83599826462416071404e-01) (29, 4.82401043134995044515e-01) (30, 6.52853896894404484019e-02) (31, 1.12039144755996478153e+00) (32, 2.38275265064650854097e-01) (33, -5.40126168442222498456e-01) (34, 5.68810802897725231730e-01) (35, 4.71872093065945819035e+00) (36, 2.43114089157239909866e+00) (37, 1.87936655183523926294e-01) (38, 2.77805915784790469214e-01) (39, 3.09904374133485038811e+00) (40, 5.98059505182571782278e-01) (41, -6.56826041295381912732e-02) (42, 3.35685205288569599169e-01) (43, 1.10540669697629184709e-01) (44, -8.41644369905796829734e-01) (0, 5.35902358138101142515e+00) (1, 5.66273256651780073495e-04) (2, 4.87349115263643016538e-03) (3, 7.54930966342610421105e-02) (4, 5.46446882928532454149e-02) (5, -3.16121852228152741549e-02) (6, 1.77444654404844359696e-01) (7, -1.56738795775049721826e+00) (8, -1.50165125690780576484e+00) (9, -2.01268419989331093234e-01) (10, -1.65860726382734657847e+00) (11, -7.24199135547103634014e-02) (12, -1.50929064160922637994e-01) (13, -3.35335418991619584744e-03) (14, -4.98762585550832193704e-01) (15, -6.72966107452499379127e-02) (16, -1.05801022034926250903e+00) (17, 9.19304401437478074799e-02) (18, -3.68554592460679453225e-01) (19, 1.49524493188909618491e-02) (20, 9.10362932953253864432e-03) (21, -1.40527210347734388129e+00) (22, -2.04315213219747993101e-01) (23, -2.20560148724301186007e-01) (24, -6.43891067122900451203e-01) (25, -1.53023957151049172509e+00) (26, -2.40631552978108842478e-01) (27, -1.94377263679378464722e-01) (28, -7.59805091027764278877e-02) (29, -1.98974790087228958768e-01) (30, -1.67427865706953837854e-01) (31, -1.51158120181562782847e+00) (32, -8.50961595231100181858e-02) (33, -2.19357012498189563043e-01) (34, -1.54803401517678906885e-01) (35, -9.50258892835920687681e-01) (36, -5.39528213769483233619e-01) (37, 2.85145507654639529527e-01) (38, 4.28591828594628229676e-02) (39, -1.73811834140430732099e+00) (40, -1.82674197398695781214e-01) (41, 1.48498807072907912374e-01) (42, -7.68753528052373985568e-02) (43, -3.80577705825779988302e-01) (44, 2.75769951103703281348e-01) (0, 5.51108698838489097227e+00) (1, -5.52548400317507751311e-02) (2, 8.72000598157567224922e-02) (3, 6.72117017949742240335e-02) (4, 1.23121201320998102657e-01) (5, -1.05848600549410559735e-01) (6, 2.34146150648321227372e-01) (7, -1.27845848821525276406e+00) (8, -1.17203779125184870402e+00) (9, -8.18720913962311808154e-02) (10, -1.25050137279550943603e+00) (11, -5.33143599276962310007e-02) (12, -3.24465394649847997319e-03) (13, 2.11330236453575390221e-02) (14, -5.44051781624841357399e-01) (15, -1.61718417001984304804e-01) (16, -8.91366995692680741392e-01) (17, 1.08560195640726567246e-01) (18, -4.25271600812959116311e-01) (19, -2.46080363123365487843e-02) (20, -3.25203355762063023304e-02) (21, -1.43365780227266248481e+00) (22, -6.02992443820396795129e-02) (23, -4.59111896658805779259e-02) (24, -7.09887266969168151398e-01) (25, -1.47561841148012673486e+00) (26, -2.47013683064530809030e-01) (27, -1.90135074450843766236e-01) (28, -1.45957800031140227937e-01) (29, -2.53025468641395079317e-01) (30, -1.65504438721213176233e-01) (31, -1.62949509617092491709e+00) (32, -1.00234338586907015256e-01) (33, -1.35107001948167493310e-01) (34, -1.44948054602232340171e-01) (35, -8.96920551420992251401e-01) (36, -5.29514618546056414772e-01) (37, 2.15651692351790713609e-01) (38, 6.49864336351785743667e-03) (39, -1.70766215606342597333e+00) (40, -1.64867876016173198206e-01) (41, 2.33378372791113314344e-02) (42, -2.73136063867613111678e-02) (43, -4.15086977209065510763e-01) (44, 1.75095370321051380103e-01) (0, -7.19031496404975545289e+00) (1, 5.97714231564958620169e-02) (2, -8.09827699110547694072e-02) (3, 5.39625481917818117239e-02) (4, -1.85695468232671620501e-02) (5, 1.47829632019825130129e-01) (6, 5.06766574896971855324e-03) (7, 1.01471407812246372515e+00) (8, 7.62408338052188994105e-01) (9, 1.20397637826626352497e-01) (10, 5.96685774792463097249e-01) (11, 2.17379526450594134923e-02) (12, 1.53807831156520136151e-01) (13, 1.51487032606568289284e-02) (14, 3.42628082942787737242e-01) (15, -8.20785074249288787440e-02) (16, 3.91765309413680040684e-01) (17, 3.51992922724362888864e-01) (18, 4.85485942865429065396e-01) (19, 7.59640142743039648021e-02) (20, 3.25379790526524326211e-02) (21, 1.18418371714581649456e+00) (22, 7.68877856474878690340e-02) (23, 6.25713978042785612388e-04) (24, 5.32777524267153079762e-01) (25, 9.03182366415540283100e-01) (26, 7.29782838674687406311e-02) (27, 9.27939215481944357222e-02) (28, 3.01516830511326834607e-02) (29, 2.83184950212308661488e-01) (30, 3.55980833274391395005e-01) (31, 9.09962619488918322830e-01) (32, 7.19210998874798695946e-02) (33, 4.54570050602035924392e-01) (34, -3.07609428750707965261e-02) (35, 1.25159819086544055189e+00) (36, 3.51904093038860887876e-01) (37, -3.31215101143842671760e-01) (38, -8.57611187454851292555e-02) (39, 1.91382539042202193258e+00) (40, 3.29291691285637122544e-01) (41, 7.26826789049862809211e-02) (42, 5.38590373259678761864e-02) (43, 4.94594566030665983014e-01) (44, -1.84399429114348784031e-01) (0, -7.21460925101607930543e+00) (1, 1.85659275605638690587e-02) (2, -7.70226522133390101299e-02) (3, -6.43372750625650358103e-02) (4, 7.53531501843889284231e-02) (5, 2.40284199571437900866e-01) (6, 6.65670229724804884963e-02) (7, 1.09710328754195285406e+00) (8, 7.53370932799732329066e-01) (9, 3.92629709680053090581e-02) (10, 6.31180979479581627523e-01) (11, -1.28917364599042318790e-02) (12, 3.08451459689715434820e-01) (13, 1.22032421386070372149e-01) (14, 4.41080874514404752684e-01) (15, -8.85597078815481414393e-02) (16, 5.62924849082109712839e-01) (17, 4.33244245947476902536e-01) (18, 5.21784869785127836117e-01) (19, 5.59137419287610570873e-02) (20, 1.17490132318128673306e-01) (21, 1.15572348274220626507e+00) (22, 7.54847370129587552645e-02) (23, 1.90957053206196630812e-01) (24, 5.03633147750811027699e-01) (25, 9.59691019281427304399e-01) (26, 2.39854324266543295074e-01) (27, 6.10442111075587615088e-02) (28, 2.32935283048837038500e-01) (29, 2.58589153150388495472e-01) (30, 2.25450779160524472644e-01) (31, 8.93974340354882879289e-01) (32, 6.11979977904708767611e-03) (33, 4.26496121351795598464e-01) (34, 1.80969468867461236172e-01) (35, 1.27971958031408328260e+00) (36, 4.16284738790813901854e-01) (37, -6.63610285163321433899e-01) (38, 5.70703658259655022267e-02) (39, 1.76916862794128615377e+00) (40, 4.28307664793995124253e-01) (41, 2.17688478734945983772e-01) (42, 2.91291149121418735390e-02) (43, 4.93526927633449186139e-01) (44, -1.77953406574017897190e-01) (0, 6.43557905122193185665e-02) (1, 2.75686035952367632096e-03) (2, -9.11261772076149695332e-02) (3, 8.23766926964263068722e-02) (4, -1.04156989351894505025e-01) (5, -9.62088516704140417346e-02) (6, 1.93472583332442715776e-01) (7, 2.67057227721039125434e-01) (8, 2.58201466766137976983e-01) (9, 2.10215266635378206228e-01) (10, 5.89228759981865302109e-01) (11, 3.72281803049320347831e-01) (12, -4.13039274328117822499e-01) (13, -1.33618553434908748923e-01) (14, 1.69480185777509673173e-01) (15, 9.35212354915229970853e-02) (16, 1.69119521234095149254e+00) (17, 1.58493454899208685571e-01) (18, 1.75172050478346497115e-01) (19, 8.35681907501676091155e-02) (20, 1.13599621949892759520e-01) (21, 6.73838950842644668349e-01) (22, 1.91473190384482572224e-01) (23, 6.19386985884017415849e-01) (24, 1.43804739982450496827e-01) (25, 3.22172432663825669685e-01) (26, 1.07932761268957189138e+00) (27, 3.01338613094156770877e-01) (28, 3.11093453269139452733e-01) (29, 4.48898942277184187510e-01) (30, 1.14867080705507329519e+00) (31, 4.47636439076277814486e-01) (32, 2.83292198985207577255e-01) (33, 1.32704649799014640088e+00) (34, 4.51759394464275598757e-01) (35, 3.71399444514722010258e-01) (36, 1.49849574834669124757e-01) (37, 2.29781272436468980702e-01) (38, 1.63282718681170058161e-01) (39, 2.75366567560051456187e-01) (40, 8.34855363800942273933e-01) (41, 2.99342108124679928682e-01) (42, 2.46048087685692778992e-01) (43, 6.91343468573256125786e-01) (44, -1.97367050718905874540e-02) (0, 3.27357010763287759048e+00) (1, 3.64306654876295543666e-01) (2, 3.46584495252195812220e-01) (3, 2.71938789731089092250e-01) (4, 2.41729419773642012492e-01) (5, 6.38481467213442899222e-01) (6, 1.54446983381353875053e-01) (7, 5.85278595104222887358e+00) (8, 2.25526943219965358978e-01) (9, -1.61002664446127374820e-01) (10, 1.56911608386440404317e+00) (11, -1.84182795084025185961e-01) (12, 2.36190651567761283891e-01) (13, 3.45889645108299961795e-02) (14, 2.23866575542294699019e+00) (15, -1.43150758092287569423e-02) (16, 2.39092010399093057860e-01) (17, -4.04595269823147862809e-01) (18, 2.43899190268308263541e+00) (19, -8.36016857167797278194e-02) (20, 1.34455949305650024339e-01) (21, 1.00515412213004884379e+00) (22, -1.40832331758120099519e-01) (23, 5.74986073858700041939e-01) (24, 1.43314864840469491369e+00) (25, 2.58664942743850367890e+00) (26, 7.77663294396325338598e-03) (27, 2.23247319960382051285e-01) (28, 3.19380667574552912225e-01) (29, 5.58687508064575677480e-01) (30, -2.62662721842775448433e-01) (31, 1.54166425167862541912e+00) (32, 1.58391890790873984818e-01) (33, -5.24512113345119379559e-01) (34, 5.51556271514210827434e-01) (35, 4.85115395023791506901e+00) (36, 2.35519135679857249954e+00) (37, 3.35540949304789282159e-01) (38, 4.03778236422178027354e-01) (39, 2.60069037505419431433e-01) (40, 5.12552671092815992360e-01) (41, -2.79541500563846079253e-01) (42, 3.16738419808785587328e-01) (43, -3.41035907088648795882e-02) (44, -8.09044905846920792136e-01) (45, 5.43654271173305891907e-01) (46, -2.46104312835365129919e-01) (47, -1.83760521543090693530e-01) (48, 5.36245547938175581848e-01) (49, -1.28436231430337138848e-01) (50, -1.68689963948791377124e-01) (51, 7.01327710379756164016e-01) (52, 5.05049107179258549571e-01) (53, 9.91476368589750828297e-02) (54, 5.52868433999843977844e-01) (55, 4.67427579000676662879e-01) 
