FANN_FLO_2.1
num_layers=3
learning_rate=0.700000
connection_rate=1.000000
network_type=0
learning_momentum=0.000000
training_algorithm=2
train_error_function=1
train_stop_function=1
cascade_output_change_fraction=0.010000
quickprop_decay=-0.000100
quickprop_mu=1.750000
rprop_increase_factor=1.200000
rprop_decrease_factor=0.500000
rprop_delta_min=0.000000
rprop_delta_max=50.000000
rprop_delta_zero=0.100000
cascade_output_stagnation_epochs=12
cascade_candidate_change_fraction=0.010000
cascade_candidate_stagnation_epochs=12
cascade_max_out_epochs=150
cascade_min_out_epochs=50
cascade_max_cand_epochs=150
cascade_min_cand_epochs=50
cascade_num_candidate_groups=2
bit_fail_limit=1.00000000000000005551e-01
cascade_candidate_limit=1.00000000000000000000e+03
cascade_weight_multiplier=4.00000000000000022204e-01
cascade_activation_functions_count=10
cascade_activation_functions=3 5 7 8 10 11 14 15 16 17 
cascade_activation_steepnesses_count=4
cascade_activation_steepnesses=2.50000000000000000000e-01 5.00000000000000000000e-01 7.50000000000000000000e-01 1.00000000000000000000e+00 
layer_sizes=45 11 2 
scale_included=0
neurons (num_inputs, activation_function, activation_steepness)=(0, 0, 0.00000000000000000000e+00) (0, 0, 0.00000000000000000000e+00) (0, 0, 0.00000000000000000000e+00) (0, 0, 0.00000000000000000000e+00) (0, 0, 0.00000000000000000000e+00) (0, 0, 0.00000000000000000000e+00) (0, 0, 0.00000000000000000000e+00) (0, 0, 0.00000000000000000000e+00) (0, 0, 0.00000000000000000000e+00) (0, 0, 0.00000000000000000000e+00) (0, 0, 0.00000000000000000000e+00) (0, 0, 0.00000000000000000000e+00) (0, 0, 0.00000000000000000000e+00) (0, 0, 0.00000000000000000000e+00) (0, 0, 0.00000000000000000000e+00) (0, 0, 0.00000000000000000000e+00) (0, 0, 0.00000000000000000000e+00) (0, 0, 0.00000000000000000000e+00) (0, 0, 0.00000000000000000000e+00) (0, 0, 0.00000000000000000000e+00) (0, 0, 0.00000000000000000000e+00) (0, 0, 0.00000000000000000000e+00) (0, 0, 0.00000000000000000000e+00) (0, 0, 0.00000000000000000000e+00) (0, 0, 0.00000000000000000000e+00) (0, 0, 0.00000000000000000000e+00) (0, 0, 0.00000000000000000000e+00) (0, 0, 0.00000000000000000000e+00) (0, 0, 0.00000000000000000000e+00) (0, 0, 0.00000000000000000000e+00) (0, 0, 0.00000000000000000000e+00) (0, 0, 0.00000000000000000000e+00) (0, 0, 0.00000000000000000000e+00) (0, 0, 0.00000000000000000000e+00) (0, 0, 0.00000000000000000000e+00) (0, 0, 0.00000000000000000000e+00) (0, 0, 0.00000000000000000000e+00) (0, 0, 0.00000000000000000000e+00) (0, 0, 0.00000000000000000000e+00) (0, 0, 0.00000000000000000000e+00) (0, 0, 0.00000000000000000000e+00) (0, 0, 0.00000000000000000000e+00) (0, 0, 0.00000000000000000000e+00) (0, 0, 0.00000000000000000000e+00) (0, 0, 0.00000000000000000000e+00) (45, 6, 5.00000000000000000000e-01) (45, 6, 5.00000000000000000000e-01) (45, 6, 5.00000000000000000000e-01) (45, 6, 5.00000000000000000000e-01) (45, 6, 5.00000000000000000000e-01) (45, 6, 5.00000000000000000000e-01) (45, 6, 5.00000000000000000000e-01) (45, 6, 5.00000000000000000000e-01) (45, 6, 5.00000000000000000000e-01) (45, 6, 5.00000000000000000000e-01) (0, 6, 0.00000000000000000000e+00) (11, 6, 5.00000000000000000000e-01) (0, 6, 0.00000000000000000000e+00) 
connections (connected_to_neuron, weight)=(0, 4.56676429312205556243e+00) (1, 8.84078261283986477359e-02) (2, 1.14454169276153316925e-01) (3, 1.18472021845929913197e-02) (4, 1.29879203143512506058e-01) (5, -9.58852544048553467881e-02) (6, -1.00721180888729694436e-01) (7, -1.11658095342176233444e+00) (8, -9.31986222822266952015e-01) (9, 4.51053870860417677191e-02) (10, -9.66679873723584548451e-01) (11, 4.89632994669080903738e-02) (12, -1.60823070298530795830e-01) (13, -3.93979301870085785175e-01) (14, -3.91296258396903517962e-01) (15, 6.62400477012794197673e-02) (16, -7.94870390488587652555e-01) (17, -2.91319408468557108222e-03) (18, -4.75381305456653469044e-01) (19, 1.97203987313926465408e-01) (20, -6.15417772301993237782e-02) (21, -1.46988633103792443180e+00) (22, -1.25980097653442951744e-01) (23, -3.00499288270148046109e-01) (24, -7.07022285726114696480e-01) (25, -9.55425018233288958491e-01) (26, 2.53644905948137919238e-02) (27, -3.02270082449769439403e-01) (28, -2.34269691825129633411e-01) (29, -3.84637484235639426355e-01) (30, -2.42222439315012250116e-01) (31, -1.30585369959481201185e+00) (32, 6.19921351610835599799e-02) (33, -1.34362746657191473032e-01) (34, -2.18191538740841822763e-01) (35, -1.06154515375993097059e+00) (36, -5.41855911993037175911e-01) (37, 1.24852473936423374878e-01) (38, -8.69086243764704835524e-02) (39, -1.58751877449359568573e+00) (40, -5.82076146645967518189e-01) (41, -5.97625997501113198629e-02) (42, -2.02276473634381226407e-01) (43, -1.65748937212499669602e-01) (44, 1.04457622274313363664e-01) (0, 4.65877001534676793426e+00) (1, 3.69189423350446410677e-02) (2, 1.03857730033790340851e-01) (3, 1.68025684061443053574e-01) (4, 1.30058866444026727249e-01) (5, -1.38853415808988189806e-01) (6, -1.83695927712040574242e-01) (7, -1.03251787793891702805e+00) (8, -8.89869826693135634876e-01) (9, 9.67059845097853823526e-04) (10, -8.99228217858868972279e-01) (11, 5.42388730483652284353e-02) (12, -2.61746763038629148834e-01) (13, -3.11969107210852747425e-01) (14, -3.74526703930894377947e-01) (15, 3.44787503420527913223e-02) (16, -7.77874818934880529753e-01) (17, -6.83146297310275735226e-02) (18, -4.71071964145198696094e-01) (19, 2.34032862855613477127e-01) (20, 3.07331121197380909005e-02) (21, -1.31425056435291542911e+00) (22, -1.68581563832336994713e-01) (23, -1.97041472324999578092e-01) (24, -6.85952595140978282906e-01) (25, -1.04588625745200070050e+00) (26, -1.38737393174221512737e-01) (27, -3.91568849225901571831e-01) (28, -2.31927840233065729603e-01) (29, -3.16775211973066184168e-01) (30, -2.56252612735918317011e-01) (31, -1.21150613322861677723e+00) (32, 7.83655310808833716063e-02) (33, -1.58989374221621682093e-01) (34, -2.01769605580421729218e-01) (35, -1.04499210944077813856e+00) (36, -4.09450690530787420052e-01) (37, 9.24037798265067017445e-02) (38, -1.86292500104124014726e-01) (39, -1.61299716733302744842e+00) (40, -6.58663182897989307740e-01) (41, -9.16948345142104270789e-02) (42, -2.22479296617646149503e-01) (43, -2.10165126406225255540e-01) (44, 1.54535589620027946633e-01) (0, 4.65533677290654424041e+00) (1, 8.88842761794260069474e-03) (2, 1.70931276383792601914e-01) (3, 5.28487902907483694803e-02) (4, 1.06337678137218227814e-01) (5, -3.49509939172988753908e-02) (6, 3.82021052869994728884e-02) (7, -1.27874710062942109623e+00) (8, -8.28568870980340488330e-01) (9, 8.15228639189084364203e-02) (10, -9.46243940699893371082e-01) (11, 2.50785783665777445295e-02) (12, -2.25914448963372094248e-01) (13, -2.23172946095683222278e-01) (14, -4.01345154471198561907e-01) (15, 1.87949578105624653945e-02) (16, -7.03108823790036474577e-01) (17, -7.85517630426385907172e-04) (18, -4.70382375658050411182e-01) (19, 8.41722274557951122276e-02) (20, -5.12117409476599561025e-02) (21, -1.49700793452684655094e+00) (22, 1.39630252103265448116e-02) (23, -3.11435026952894933316e-01) (24, -7.68093823161169364511e-01) (25, -1.08882005677842030877e+00) (26, -1.29717981073906418743e-01) (27, -2.80531635200833739940e-01) (28, -2.95064462542750483021e-01) (29, -3.52171989066476676111e-01) (30, -3.20248100723913353693e-01) (31, -1.27807601287968597426e+00) (32, 1.49382392703708080650e-02) (33, -1.55911308409033944056e-01) (34, -1.83516361120792698136e-01) (35, -1.13214056720635736220e+00) (36, -5.02470220707903814095e-01) (37, 8.77550049642172730335e-02) (38, -1.41526394392663901201e-01) (39, -1.64471574179734858490e+00) (40, -5.82756138785306965211e-01) (41, -9.39444330173232200476e-02) (42, -2.83358158313174179899e-01) (43, -2.17804154538187078050e-01) (44, 2.41082152232084651056e-01) (0, -4.83926210803484924128e+00) (1, 1.72650921927610195850e-01) (2, 1.19329158054509915088e-01) (3, 1.97659245001467059888e-02) (4, 7.07897654043825319548e-02) (5, 1.88009522844921145301e-01) (6, 1.07940772903337478539e-01) (7, 8.93143381685424730954e-01) (8, 1.76424341473478102360e-01) (9, -1.08552925980378828230e-01) (10, 5.55758560848007676647e-01) (11, 2.21147544782551414011e-01) (12, 3.32071663214643209017e-01) (13, 3.35924854681682261148e-01) (14, 4.55994808982765786887e-01) (15, -1.17583505411814726038e-01) (16, 3.02222175613059695909e-01) (17, 1.49354243954717219589e-01) (18, 3.49357440241807593040e-01) (19, 1.49350059225316800227e-01) (20, -1.15878000027980869457e-02) (21, 5.76017398252396617409e-01) (22, -1.61405621730902781863e-01) (23, 1.87392482801073345655e-01) (24, 4.67723195588707563175e-01) (25, 8.68267615160831618404e-01) (26, 1.89100982260012095981e-01) (27, 2.64114002651155477253e-01) (28, 2.18660774148500269831e-01) (29, 2.45917352218625318017e-01) (30, 1.49313072285883141621e-01) (31, 4.24942251588545538699e-01) (32, 4.94965629520886588044e-02) (33, 3.14138030812930735269e-01) (34, 2.88484812014507541189e-01) (35, 1.00263923982292868509e+00) (36, 3.50661199798676492811e-01) (37, -3.63210824459889863869e-02) (38, 2.12485046137559530077e-01) (39, 9.67558773037249908455e-01) (40, 1.47846778355272434613e-01) (41, 8.97230244992895942246e-02) (42, -2.91373353725606798470e-01) (43, 2.72386599840189591593e-01) (44, -4.94190940092140540418e-01) (0, 8.28312190560958061525e-02) (1, -4.19061199278093071685e-02) (2, -7.30877496749616356597e-02) (3, 9.29141811579012599775e-02) (4, -5.00785425752855034576e-02) (5, -1.68798398246734447647e-02) (6, 1.38111522151093762956e-01) (7, 3.75947535102236884974e-01) (8, -2.76850398522387221301e-02) (9, 3.65140527309900875252e-01) (10, 2.67451751506949053638e-01) (11, 2.18581119166993437242e-01) (12, 5.19623045744642353405e-01) (13, 2.40469385628619636286e-01) (14, -1.00449383051752494378e-04) (15, 3.75392074383214480182e-01) (16, 2.67294855936737740798e-01) (17, 3.28621348206529884095e-01) (18, 5.52208057773495575304e-01) (19, 3.05241423709150472288e-01) (20, 3.24043728504896599851e-01) (21, 1.63729017315188463133e-01) (22, 3.28147167709905374089e-01) (23, 2.20177355930321561051e-01) (24, 1.94055798576503235608e-01) (25, 3.93215561137306601758e-01) (26, 4.57387647739793290480e-01) (27, 3.33728997780875336066e-01) (28, 3.09587486479266205119e-01) (29, 4.15400243593162188382e-01) (30, 3.23205984905413301611e-01) (31, 3.82287467996713536955e-01) (32, 2.74996087303127023649e-01) (33, 5.10454842972830835635e-01) (34, 2.51411672083223292073e-01) (35, 5.35534942359319976468e-01) (36, -2.59193929232260124318e-02) (37, 3.75943739460154968679e-01) (38, 3.59567481551144152441e-01) (39, 1.50601119971501495876e-01) (40, 4.29426719714426030627e-01) (41, 3.55324524603572722281e-01) (42, 4.54247288496790468937e-01) (43, 3.46497690770779964708e-01) (44, 3.87188922991703265986e-01) (0, 3.75198705529455178720e+00) (1, 3.18520958126972120183e-01) (2, 2.41127709449718508061e-01) (3, 1.59598367811630337254e-01) (4, 2.41630124451110872563e-01) (5, 6.81543438525111566761e-01) (6, -3.00631102894459767416e-01) (7, 4.91133824467521140633e+00) (8, 3.99439749875877436747e-01) (9, 1.22350065891395798356e-01) (10, 2.78302337104765307174e+00) (11, 1.86600164878024443738e-01) (12, 4.68285276545790316027e-02) (13, -7.02586940874060261741e-01) (14, 2.79258979330410639363e+00) (15, 2.28059388379043492812e-01) (16, 6.95654598147861125135e-01) (17, -5.92159858167970662435e-02) (18, 2.30237073104308098692e+00) (19, 3.31653176547799743989e-01) (20, -1.63753675502402107345e-01) (21, 2.41034478663575502111e+00) (22, -2.16097415582319596350e-01) (23, 5.00491343028128365944e-01) (24, 1.51501752166988046255e+00) (25, 4.82291365498687696345e+00) (26, 2.46062950858305595769e-01) (27, 1.85736457945529148672e-01) (28, -1.09003629840819502017e-01) (29, 3.59752981116549519491e-01) (30, -4.18084934979768771401e-02) (31, 1.38884062281408859896e+00) (32, 3.30395640621711617069e-01) (33, -4.70837510602389985870e-01) (34, 2.24331679245144743895e-01) (35, 4.31201710619752631715e+00) (36, 2.99570564328926725040e+00) (37, -7.27029834881013914405e-02) (38, 1.51398390412433359042e-01) (39, 1.42774434960383977966e+00) (40, 3.14963858730303858380e-01) (41, -3.67001731330630298622e-01) (42, 2.30779107540948491550e-01) (43, 2.69685368865830998875e-01) (44, -5.48211066140245062428e-01) (0, -2.76410613389533543760e-01) (1, -3.88323219871217484300e-01) (2, -4.77036754047567235215e-01) (3, -4.44831194734269963487e-01) (4, -4.29883936798269028490e-01) (5, -2.14909482401166279653e-01) (6, -4.41495407286480109899e-02) (7, 1.31428069535884123331e-01) (8, -2.96806775841174999564e-02) (9, 2.87513334459959968292e-01) (10, -7.39745608076555205557e-02) (11, -4.36989031536111238729e-01) (12, -2.12143409554092776670e-01) (13, 9.60642503439913114649e-03) (14, -6.73468007304715288175e-02) (15, 2.21022763286349427370e-01) (16, 2.56443996001765039949e-03) (17, 4.20375364855812061471e-01) (18, 1.78531630048885142648e-01) (19, 2.06367664802290406989e-01) (20, 1.85968166444820504069e-01) (21, 6.95995817556730178577e-02) (22, 3.36304462761325917430e-01) (23, -1.37430994700154651689e+00) (24, 6.93271815424128939886e-02) (25, 1.97923737814768491150e-01) (26, 2.65913940030389317482e-01) (27, 1.25245755201690484038e-01) (28, 1.07004293679749437618e-01) (29, 2.94399981900882234953e-01) (30, 2.44976553418381731708e-01) (31, 2.67807877175644082346e-01) (32, 1.80381576951414379639e-01) (33, -2.21709523833114485747e-01) (34, -5.42262350009824367625e-01) (35, 1.26391329475848634978e-01) (36, -4.84350972105240140664e-01) (37, 1.86008910603675220452e-01) (38, 2.42003845877826889721e-01) (39, 1.78879135939647965214e-01) (40, 3.66702489162566647174e-01) (41, 1.99838703560064417930e-01) (42, 3.06798202025446165031e-01) (43, 2.70697023036959472098e-01) (44, 3.32513057534622957778e-01) (0, 3.06516072737595646203e+00) (1, 3.46828443351353932211e-01) (2, 2.02666503730382252524e-01) (3, 2.06903760674561787436e-01) (4, 2.35089664700593281577e-01) (5, 3.05354332811508977219e-01) (6, 1.27960705747992398162e-01) (7, 5.67217702276600022060e+00) (8, 7.02107604197143020386e-02) (9, 4.69225173636774670061e-02) (10, 9.28582739787300992518e-01) (11, 1.59495288678293989371e-01) (12, 3.54567536199152710807e-01) (13, -5.27215137171548400841e-02) (14, 1.33223722147201839583e+00) (15, 1.91784854256366377179e-01) (16, 2.99306411366785207750e-01) (17, -3.63556387049040363735e-01) (18, 9.27028671349918731437e-01) (19, 2.60023710490975334952e-01) (20, -8.92848498797554346318e-02) (21, -6.82885466820641329200e-01) (22, -2.83381989577412979342e-02) (23, 1.00673026855203562313e+00) (24, 6.92508568774616972696e-01) (25, 2.60894142636091919130e+00) (26, 5.69059626547792282714e-02) (27, 1.44390116187149503135e-01) (28, -2.17786679062383997652e-01) (29, 2.38317858984247621379e-01) (30, -2.64416360858092669428e-01) (31, 6.22485303463256034462e-01) (32, 1.80788424114514456598e-01) (33, -1.83877302695456372461e-02) (34, 3.18223569297141628542e-01) (35, 3.10657936619615782092e+00) (36, 2.23638527623704508329e+00) (37, 1.41314023490650614301e-01) (38, 1.50023341676115612442e-01) (39, -4.09086613724126246794e-01) (40, 1.55939365348175124071e-01) (41, -1.30208233562190967003e-01) (42, -7.85752401350909568389e-02) (43, 5.75319699348038407494e-02) (44, -6.49831615044187849151e-01) (0, 3.72396447544578546029e+00) (1, 2.66195959071405363616e-01) (2, 1.20448222975023305770e-01) (3, 1.82939043859727812347e-01) (4, 8.82532211344318612278e-02) (5, 5.00847085208804609913e-01) (6, -2.16119681273614083761e-01) (7, 4.94485880166154334603e+00) (8, 4.59976019700445770688e-01) (9, 1.65090455596100083024e-01) (10, 3.60909867057895539233e+00) (11, 5.52146037992376145787e-02) (12, 1.97932918275764341276e-01) (13, -1.75859292018471197183e-01) (14, 2.82950555751671473104e+00) (15, 2.19331569651550206679e-01) (16, 7.28121084244243266248e-01) (17, -3.34675764859521870931e-02) (18, 2.22109630356953591246e+00) (19, 3.56233565809045471529e-01) (20, -1.36632042211157600509e-01) (21, 2.65200046487226970271e+00) (22, -1.85847458587070801794e-01) (23, 5.90807803125902530894e-01) (24, 1.62788108798843911273e+00) (25, 4.77832768941308927424e+00) (26, 3.37890425392817050909e-01) (27, 2.48760759027424921408e-01) (28, -1.30158499702492075345e-01) (29, 3.90788508703486470175e-01) (30, 1.31358000556730386554e-01) (31, 1.40043823009887269393e+00) (32, 3.79996409456063999333e-01) (33, -4.43884200827991182159e-01) (34, 3.30160214056879897093e-01) (35, 4.27913121946876273682e+00) (36, 3.04196259527701062808e+00) (37, -8.23630188598817869483e-02) (38, 2.25559983315611722876e-01) (39, 2.69311855923788234790e+00) (40, 1.48044210082995592037e-01) (41, -2.57246753532210173376e-02) (42, 2.26738389462335210300e-01) (43, 2.53870095938546758152e-01) (44, -2.39616217806704778770e-01) (0, 4.50626744877076390594e+00) (1, 8.89994115369917015990e-02) (2, 4.77457963662744691580e-02) (3, 1.15657976342976198669e-01) (4, 1.66164270116627266205e-01) (5, -1.15910872779203033556e-01) (6, -1.23044416758137348245e-01) (7, -1.17334233743207727585e+00) (8, -6.92199786642131553727e-01) (9, 8.25013933721860243109e-02) (10, -8.82488067109185592152e-01) (11, 6.43350318806768517454e-02) (12, -1.10890724550583116836e-01) (13, -4.02253298282839844013e-01) (14, -4.72247871054096934884e-01) (15, 8.95543063818629858641e-02) (16, -7.53891154124223028532e-01) (17, -1.03040988681165665564e-01) (18, -6.55456201957182127416e-01) (19, 1.06674962712943827148e-01) (20, -1.12876784182485062624e-01) (21, -1.48540703036014809513e+00) (22, -1.43608372511440846031e-01) (23, -1.97143187651308782193e-01) (24, -7.72205724086805656015e-01) (25, -1.01715649829529675152e+00) (26, -2.81305588818097224157e-02) (27, -1.57477160608624877636e-01) (28, -3.99138746977068969990e-01) (29, -3.68707554323549124842e-01) (30, -4.12066463198354882014e-01) (31, -1.33121961101897201551e+00) (32, 8.77045209347423193602e-02) (33, -6.23279630464901757136e-01) (34, -1.30555820454804405450e-01) (35, -9.90356830560181977674e-01) (36, -3.89243076824198674935e-01) (37, -9.83504290188874988332e-03) (38, 1.54370387596855562773e-01) (39, -1.95020897129388814939e+00) (40, -4.79367643042032220979e-01) (41, -1.61143871827671703034e-01) (42, -1.85996154035452831987e-01) (43, -2.13108098291429570725e-01) (44, 1.94802356764231104913e-01) (45, -6.14789436795472377106e-01) (46, -3.99872786154296055994e-01) (47, -4.25712081392552510462e-01) (48, 3.76679925166819473681e-01) (49, 5.56133998897238579495e-01) (50, 7.15591516713067421485e-01) (51, -3.48029071703832709739e-02) (52, 3.57146771700973864050e-01) (53, 7.40902174631520638037e-01) (54, -5.96365849711655848786e-01) (55, 2.18411803475597826596e-01) 
