FANN_FLO_2.1
num_layers=3
learning_rate=0.700000
connection_rate=1.000000
network_type=0
learning_momentum=0.000000
training_algorithm=2
train_error_function=1
train_stop_function=1
cascade_output_change_fraction=0.010000
quickprop_decay=-0.000100
quickprop_mu=1.750000
rprop_increase_factor=1.200000
rprop_decrease_factor=0.500000
rprop_delta_min=0.000000
rprop_delta_max=50.000000
rprop_delta_zero=0.100000
cascade_output_stagnation_epochs=12
cascade_candidate_change_fraction=0.010000
cascade_candidate_stagnation_epochs=12
cascade_max_out_epochs=150
cascade_min_out_epochs=50
cascade_max_cand_epochs=150
cascade_min_cand_epochs=50
cascade_num_candidate_groups=2
bit_fail_limit=1.00000000000000005551e-01
cascade_candidate_limit=1.00000000000000000000e+03
cascade_weight_multiplier=4.00000000000000022204e-01
cascade_activation_functions_count=10
cascade_activation_functions=3 5 7 8 10 11 14 15 16 17 
cascade_activation_steepnesses_count=4
cascade_activation_steepnesses=2.50000000000000000000e-01 5.00000000000000000000e-01 7.50000000000000000000e-01 1.00000000000000000000e+00 
layer_sizes=24 11 2 
scale_included=0
neurons (num_inputs, activation_function, activation_steepness)=(0, 0, 0.00000000000000000000e+00) (0, 0, 0.00000000000000000000e+00) (0, 0, 0.00000000000000000000e+00) (0, 0, 0.00000000000000000000e+00) (0, 0, 0.00000000000000000000e+00) (0, 0, 0.00000000000000000000e+00) (0, 0, 0.00000000000000000000e+00) (0, 0, 0.00000000000000000000e+00) (0, 0, 0.00000000000000000000e+00) (0, 0, 0.00000000000000000000e+00) (0, 0, 0.00000000000000000000e+00) (0, 0, 0.00000000000000000000e+00) (0, 0, 0.00000000000000000000e+00) (0, 0, 0.00000000000000000000e+00) (0, 0, 0.00000000000000000000e+00) (0, 0, 0.00000000000000000000e+00) (0, 0, 0.00000000000000000000e+00) (0, 0, 0.00000000000000000000e+00) (0, 0, 0.00000000000000000000e+00) (0, 0, 0.00000000000000000000e+00) (0, 0, 0.00000000000000000000e+00) (0, 0, 0.00000000000000000000e+00) (0, 0, 0.00000000000000000000e+00) (0, 0, 0.00000000000000000000e+00) (24, 6, 5.00000000000000000000e-01) (24, 6, 5.00000000000000000000e-01) (24, 6, 5.00000000000000000000e-01) (24, 6, 5.00000000000000000000e-01) (24, 6, 5.00000000000000000000e-01) (24, 6, 5.00000000000000000000e-01) (24, 6, 5.00000000000000000000e-01) (24, 6, 5.00000000000000000000e-01) (24, 6, 5.00000000000000000000e-01) (24, 6, 5.00000000000000000000e-01) (0, 6, 0.00000000000000000000e+00) (11, 6, 5.00000000000000000000e-01) (0, 6, 0.00000000000000000000e+00) 
connections (connected_to_neuron, weight)=(0, 1.04237850864428978070e+01) (1, 3.63961805143277361552e-01) (2, 2.79004995264928168375e-01) (3, 4.23083458580891913492e-01) (4, 2.57794809081475451151e-01) (5, -1.81803657120418415971e+00) (6, 1.38891250359940454651e+00) (7, 1.83929975205351592393e-01) (8, 3.36177864689942840215e+00) (9, 5.81190969699327908415e+00) (10, 3.62483768004581285993e+00) (11, 3.98006423379399166151e+02) (12, -9.38928295094998088821e-01) (13, 1.59650447014352270259e+00) (14, 4.62692366603593696617e-01) (15, -1.90441722985782657673e-01) (16, 2.15986775030413468812e+02) (17, 2.22560328874459312232e+00) (18, 1.86813322886958976810e+00) (19, 1.59993449270741661117e+00) (20, 3.18288700743698138584e-01) (21, 5.03521268512567417019e+01) (22, 1.92631190238102023571e+00) (23, -1.64820432393023130757e+00) (0, -5.90325922366664701535e-01) (1, 7.84163795487259063233e-02) (2, -1.27636416989822124371e-03) (3, 1.13713316695068424739e-02) (4, -6.79641939623976953921e-02) (5, 1.30920091276593701934e+01) (6, -6.25147956052174574859e-02) (7, 3.95992461487549921029e-02) (8, -4.13939517535158951755e-01) (9, 1.19188680775802649525e-01) (10, -1.69256502320813989604e-01) (11, 1.70370507963337018964e+01) (12, -1.29524039523446848898e-01) (13, -2.65803122180062190161e-01) (14, 9.69078696370992143105e-02) (15, -3.62345700448206478606e-02) (16, 1.98883806205114197496e+01) (17, -1.61803739722731015904e-01) (18, 1.44445807041720247765e-01) (19, -2.40219361252121621497e-01) (20, -5.91319840574683119883e-01) (21, 1.34073173275611807753e+01) (22, 2.26112499001594413617e-01) (23, -5.01600443084497457646e-02) (0, 1.61095219475026141254e+01) (1, 3.10679986855327716633e-01) (2, 2.26531468114196610220e-01) (3, 4.10614497741996875568e-01) (4, 3.84302772363960376545e-01) (5, -8.39245916656497059627e-01) (6, 2.06580168119693707851e+00) (7, 4.09671865481432861955e-01) (8, 4.57881822968349805336e+00) (9, 5.00116685553415152299e+00) (10, 4.62873646965456586599e+00) (11, 3.96665503988658429080e+02) (12, 2.49590774978034446452e-01) (13, 3.72742262830523141126e-01) (14, 2.28740735055302686629e-02) (15, 6.60046386782767391388e-01) (16, 2.14127786684423540464e+02) (17, 4.44694943858654934132e+00) (18, 6.67049829368239755034e-01) (19, 5.62156938101778691497e-01) (20, 1.07832856282752453936e+00) (21, 4.98665479987833180076e+01) (22, 6.55727054237185802421e-01) (23, -2.71789076117476779970e+00) (0, 2.22511094259419905939e+01) (1, 2.21817422887622045513e-01) (2, 2.97127757450877605372e-01) (3, 2.21724223574935125347e-01) (4, 2.03068521103201976574e-01) (5, -4.65537816998298836779e+00) (6, -1.41492528093390967925e-01) (7, -4.13540948712269540444e-01) (8, -7.85385652962568986402e-02) (9, 7.22600309408846785963e-02) (10, -4.97690864759109452553e-01) (11, -4.31668145045740914156e+00) (12, -4.59232999875843095339e-01) (13, -6.77586266781974533302e-01) (14, -1.94520657072711739000e-01) (15, -9.25950937707955695766e-02) (16, -4.34541657498572408969e+00) (17, -6.42567336487733231642e-01) (18, -7.87872545581288608041e-01) (19, -6.84704598906016426163e-01) (20, -6.88174573473600892370e-01) (21, -4.33573640308865293491e+00) (22, -8.78242276913555719453e-01) (23, 1.11525559128832302269e-01) (0, 1.40771222597689760203e-01) (1, 6.86426659178579756659e-02) (2, 6.84916128468359419745e-02) (3, 3.92693181586111356163e-02) (4, 2.84092922758901710034e-02) (5, 2.79259962214645334200e+01) (6, -2.46129400123022180902e-02) (7, 7.32399770946336736710e-02) (8, 3.12315871747281849358e-02) (9, 1.34578138545696002204e-01) (10, 7.42985729480303835892e-02) (11, 7.29882353577964977376e+01) (12, -2.39105023907068697797e-02) (13, 8.07090638328004206237e-01) (14, 1.34563907438335184086e-01) (15, -6.51908500651088851363e-02) (16, 9.35442584647475001702e+01) (17, -1.00084141661668180046e-01) (18, 3.39681033426979472889e-01) (19, 1.30476298213660468761e-01) (20, -4.67428547386690818044e-01) (21, 2.48997499908583748152e+01) (22, 2.44103734366402230771e-01) (23, -3.55265581264908175685e-02) (0, -5.81826652947553646378e-01) (1, 9.65334199444626006592e-02) (2, -7.62567423208380945621e-02) (3, 4.76976208464477968718e-02) (4, -9.48467828257704703709e-02) (5, 1.31707307329006688690e+01) (6, -7.18189465442051894195e-02) (7, 4.08424425765771051400e-02) (8, -2.21550690467066449529e-02) (9, 2.34997093208473284420e-01) (10, -2.16201515426683255061e-01) (11, 3.30818201664949071983e+01) (12, -5.95964886711481262038e-02) (13, -3.85021195965367046821e-01) (14, 3.27276005400040440052e-02) (15, -5.83286856597116445955e-02) (16, 1.99323403722366165880e+01) (17, -1.49368854816915835881e-01) (18, 2.21092611851290421487e-01) (19, -2.49326667851738598136e-01) (20, -3.78897792247267328758e-01) (21, 1.30793320315736654180e+01) (22, 1.53679627093644771696e-01) (23, 8.67677540819386111659e-02) (0, 1.59120401582509902738e+01) (1, 3.39387835606960508450e-01) (2, 2.70821692094234622861e-01) (3, 1.87878736898330761518e-01) (4, 3.47150297507671623531e-01) (5, -3.15642418138191782617e+00) (6, 1.02553312577154875918e+00) (7, -6.04888043865195124127e-01) (8, 1.50700944047432505712e+00) (9, 2.33339058611621785744e+00) (10, 1.72754062076490910727e+00) (11, 1.66703571926642354128e+02) (12, 5.22059793958853241014e-03) (13, 1.53477500372638575588e-01) (14, -9.53782497382006932973e-01) (15, 7.41780989773807464260e-01) (16, 9.05812991134150848893e+01) (17, 1.13404922233438210100e+00) (18, 7.38708640500360225190e-01) (19, 2.46592954912243089716e-01) (20, 6.10197391272717215571e-01) (21, 2.22233359161678016847e+01) (22, 4.23404101934793941631e-01) (23, 3.25038703984631027755e-01) (0, -4.39080450299867697250e-01) (1, -1.48728690965796803841e-02) (2, 5.94260118977402163054e-02) (3, 3.58985237852905286760e-02) (4, 8.11681375664214700694e-03) (5, 1.29930108939834187964e+01) (6, -1.92682812328687669279e-01) (7, 1.23111456761049828379e-01) (8, 2.65455616181188430724e-02) (9, 3.08842360504310797786e-01) (10, -1.84217960539289155042e-01) (11, 7.29857446566809926480e+01) (12, -4.03945620782815845162e-02) (13, -3.44805379616575868873e-01) (14, 1.72816034427364165205e-02) (15, -1.33129928185695550757e-01) (16, 4.12271091426022024962e+01) (17, -4.91006994805359767153e-02) (18, 1.28928149906598898955e-01) (19, -1.87614268665642458522e-01) (20, -3.31582836717531026505e-01) (21, 1.33620671352765967299e+01) (22, 2.11335717800231748242e-01) (23, 1.43349306027631250710e-02) (0, 4.29302742188975301474e+01) (1, 2.41223816506578814245e-01) (2, 1.06264111332609517691e-01) (3, 1.08101119034006459829e-01) (4, 1.85708475045873983023e-01) (5, -7.16611394951340585635e+00) (6, 8.12199454622742567089e-01) (7, -2.01021881459773288370e-01) (8, -5.55465101601299471312e-01) (9, -9.13601609365140565622e-01) (10, -2.31968429978324408580e+00) (11, -5.47703484123020523100e+00) (12, -4.73912469329729080236e-01) (13, 4.99185397163481002492e-03) (14, -3.39536733939459156595e-01) (15, -2.34769592883699557140e-01) (16, -5.49600073765726904185e+00) (17, -9.59700038030673274747e-01) (18, -2.60336155363816434960e-01) (19, -5.56659074759625754902e-02) (20, -1.26563347585009200458e-01) (21, -5.40155804664342031884e+00) (22, -1.52176161273785692796e-01) (23, 8.63128077729937159823e-01) (0, 4.24803194475351517667e+01) (1, -6.79432723782340958207e-02) (2, -7.51896251104156448930e-02) (3, -1.63063620414523352542e-01) (4, -1.31942381348399390140e-01) (5, 2.08970153740592312630e+00) (6, -4.18100049769718307147e+00) (7, -6.42488413495226673433e-01) (8, 6.46528470112179509677e-01) (9, -9.46018539704020167136e-01) (10, -2.24896708828367142274e+00) (11, -2.81690079291079120694e+00) (12, 2.46305452388118489848e-01) (13, -1.33066190937312256448e-01) (14, -1.35981860893689598946e+00) (15, -6.91454894623343557791e-02) (16, -2.84900129075110086774e+00) (17, -4.81580454500688925901e-01) (18, -1.16192566339060077141e+00) (19, -9.56756253051827820766e-02) (20, -2.16769991834578457102e-01) (21, -2.63119775352234119836e+00) (22, -1.84316758912753808630e+00) (23, 1.33857967284715040357e+00) (24, 2.65966650260186954213e-01) (25, 3.81685354864070403025e-01) (26, 1.29941602285149532259e-01) (27, -7.41522122613817002978e-01) (28, 4.77476375789984974762e-01) (29, 4.33738217770108791527e-01) (30, 6.65878400738805109604e-01) (31, 4.16532138225738424175e-01) (32, -8.75012266134465477307e-01) (33, -2.06676519138284331412e-01) (34, 5.70699271803806751358e-01) 
