FANN_FLO_2.1
num_layers=3
learning_rate=0.700000
connection_rate=1.000000
network_type=0
learning_momentum=0.000000
training_algorithm=2
train_error_function=1
train_stop_function=1
cascade_output_change_fraction=0.010000
quickprop_decay=-0.000100
quickprop_mu=1.750000
rprop_increase_factor=1.200000
rprop_decrease_factor=0.500000
rprop_delta_min=0.000000
rprop_delta_max=50.000000
rprop_delta_zero=0.100000
cascade_output_stagnation_epochs=12
cascade_candidate_change_fraction=0.010000
cascade_candidate_stagnation_epochs=12
cascade_max_out_epochs=150
cascade_min_out_epochs=50
cascade_max_cand_epochs=150
cascade_min_cand_epochs=50
cascade_num_candidate_groups=2
bit_fail_limit=1.00000000000000005551e-01
cascade_candidate_limit=1.00000000000000000000e+03
cascade_weight_multiplier=4.00000000000000022204e-01
cascade_activation_functions_count=10
cascade_activation_functions=3 5 7 8 10 11 14 15 16 17 
cascade_activation_steepnesses_count=4
cascade_activation_steepnesses=2.50000000000000000000e-01 5.00000000000000000000e-01 7.50000000000000000000e-01 1.00000000000000000000e+00 
layer_sizes=14 11 2 
scale_included=0
neurons (num_inputs, activation_function, activation_steepness)=(0, 0, 0.00000000000000000000e+00) (0, 0, 0.00000000000000000000e+00) (0, 0, 0.00000000000000000000e+00) (0, 0, 0.00000000000000000000e+00) (0, 0, 0.00000000000000000000e+00) (0, 0, 0.00000000000000000000e+00) (0, 0, 0.00000000000000000000e+00) (0, 0, 0.00000000000000000000e+00) (0, 0, 0.00000000000000000000e+00) (0, 0, 0.00000000000000000000e+00) (0, 0, 0.00000000000000000000e+00) (0, 0, 0.00000000000000000000e+00) (0, 0, 0.00000000000000000000e+00) (0, 0, 0.00000000000000000000e+00) (14, 6, 5.00000000000000000000e-01) (14, 6, 5.00000000000000000000e-01) (14, 6, 5.00000000000000000000e-01) (14, 6, 5.00000000000000000000e-01) (14, 6, 5.00000000000000000000e-01) (14, 6, 5.00000000000000000000e-01) (14, 6, 5.00000000000000000000e-01) (14, 6, 5.00000000000000000000e-01) (14, 6, 5.00000000000000000000e-01) (14, 6, 5.00000000000000000000e-01) (0, 6, 0.00000000000000000000e+00) (11, 6, 5.00000000000000000000e-01) (0, 6, 0.00000000000000000000e+00) 
connections (connected_to_neuron, weight)=(0, -1.99668021394284855852e+00) (1, -1.90215282869666130194e-01) (2, -1.80018753540843040595e-01) (3, -2.95479343068926869620e-01) (4, -2.74916902911990224112e-01) (5, -1.76178866264767475247e-01) (6, 3.34791084567235761038e-02) (7, -4.91216267108010751219e-01) (8, -1.21428915880285967499e-01) (9, 9.62747008264305537129e-02) (10, -4.53457585287580303146e-02) (11, -4.13546613971278842481e-01) (12, 7.82822409079295500334e+00) (13, -5.57422704533941049121e-01) (0, 1.95868677169867583254e-01) (1, 1.95835722479073520708e-01) (2, 1.17383910211770053911e-01) (3, 1.53483806046692816683e-01) (4, 2.55274584385602076875e-01) (5, 4.96791851496436009938e-01) (6, 1.25566599294958364252e-01) (7, 3.87958793948861457856e-01) (8, 1.66617072342781891159e-01) (9, -8.36975306779065397755e-01) (10, 1.72876788344656084906e-01) (11, 7.65387210807739637453e-01) (12, -1.94592643860651981491e+00) (13, -6.75523569964791154030e-02) (0, 2.86083717370948598102e+00) (1, 3.30182642546094862190e-01) (2, 2.94771061149038282601e-01) (3, 3.34366329815782514778e-01) (4, 2.50479341354764795113e-01) (5, 5.96223399376785700987e-01) (6, 1.26974564932448941157e+00) (7, 6.91568037222736742287e-01) (8, 3.45806864287557969018e-01) (9, -2.11334527439595437626e-01) (10, 6.01724552616278163253e-02) (11, 5.33900891141589561961e-01) (12, -4.01627467231441226403e+00) (13, -7.32266990378637322445e-02) (0, 2.17520334404543858042e+00) (1, 3.08856053623022708265e-01) (2, 2.45587727400126104582e-01) (3, 2.35770410271944702574e-01) (4, 4.03201049538912448256e-01) (5, 2.50430042412256359530e-01) (6, 1.80516535123840227151e+00) (7, 5.26773533935064541822e-01) (8, 1.43203517437384048039e-01) (9, 7.76025945045604959027e-01) (10, 2.64908309645300321655e-01) (11, 3.15826270190578517472e-01) (12, -4.48570658878585337703e+00) (13, -7.24537080678840962611e-03) (0, 3.35688317848159289980e+00) (1, 2.15499020730292589754e-01) (2, 3.31521287177836632143e-01) (3, 3.29492553685939049135e-01) (4, 3.29539596651828026186e-01) (5, 3.74663002659204380507e-01) (6, 1.82280858741412132851e+00) (7, 4.90832222493203906843e-01) (8, 8.00201915760079124373e-02) (9, 1.10582584159545160851e+00) (10, 6.31278990942059775593e-02) (11, 3.61056878813602655232e-01) (12, -4.36859140276309787509e+00) (13, -7.14683970268215201793e-02) (0, -2.10067445283383102961e+00) (1, -1.25274824565686809796e-01) (2, -6.12147474944969086086e-02) (3, -2.52323547965325911679e-01) (4, -2.33130226498880016583e-01) (5, 1.99515848073089710479e-02) (6, 2.35361325802912052518e-01) (7, -2.22850088449741912111e-01) (8, -1.63778465660835870210e-01) (9, 2.06540250879365228087e+00) (10, 3.45515239201591217721e-01) (11, -2.28487771424080443605e-01) (12, 4.44259549836097056286e-01) (13, -3.89951369924105673004e-01) (0, 1.85054635445451087783e+00) (1, 3.60479966830612064133e-01) (2, 3.91177670192123294601e-01) (3, 3.47862922679782748947e-01) (4, 3.85231361817718387375e-01) (5, 2.01128268849494551418e+00) (6, 1.38307574915061137766e+00) (7, 2.60951192577596302602e-01) (8, 1.86620474644520167873e-01) (9, 4.45385755384558393311e-02) (10, 1.57927157254590694313e-01) (11, 3.41641922092955629964e-01) (12, -6.43896404920831333385e+00) (13, 4.77885619196689037658e-01) (0, -2.29514213721724003037e+00) (1, -1.94178115841092929772e-01) (2, -2.87827889286897849186e-02) (3, -1.15694742914380865884e-01) (4, -6.07809464299105053908e-02) (5, 1.30943969557306028051e-01) (6, 2.12256412386069820419e-01) (7, -1.78373295637006573644e-01) (8, -1.53103119444487567602e-01) (9, 1.47659026515852009886e+00) (10, 2.72839146927004339016e-01) (11, -2.78713451416655322301e-01) (12, 9.68653440092148376728e-01) (13, -3.43155577046431681243e-01) (0, 2.84406148369035527423e+00) (1, 3.20189747876257313486e-01) (2, 2.42399725979894981043e-01) (3, 3.69315121239752186533e-01) (4, 2.48080324298471766031e-01) (5, 5.28779283036115654859e-01) (6, 1.82295894013056725136e+00) (7, 4.90956185253175525496e-01) (8, 3.80491924669447312279e-01) (9, -2.42740327931451477239e-01) (10, 1.02562496314922937946e-01) (11, 7.20205601947005558117e-01) (12, -4.42815407908953506677e+00) (13, -2.21780464595508035319e-02) (0, 3.09146776921404065064e+00) (1, 3.13135527490432885589e-01) (2, 2.26671278892810940109e-01) (3, 3.42741199253852990569e-01) (4, 3.20723660706337121429e-01) (5, 2.15519106503700458299e-01) (6, 1.44635855271881741402e+00) (7, 4.35046047838032412525e-01) (8, 1.88212057590887493763e-01) (9, 7.25487896897449746625e-01) (10, 1.35617989714771503690e-02) (11, 7.74430742481845624248e-01) (12, -3.91910799147496247130e+00) (13, -1.26355919379486536513e-01) (14, 1.20032707228394008858e+00) (15, 1.63918976132960934888e-02) (16, 1.77755521154462248212e-01) (17, 1.49115623450337797529e-01) (18, 1.86165274596272800611e-01) (19, 2.72427321249925469271e-01) (20, 5.55199560091362287473e-01) (21, 2.68989689433247358696e-01) (22, 1.66205064868985563642e-01) (23, 1.48081184840260893232e-01) (24, 2.38184188102045862889e-01) 
