FANN_FLO_2.1
num_layers=3
learning_rate=0.700000
connection_rate=1.000000
network_type=0
learning_momentum=0.000000
training_algorithm=2
train_error_function=1
train_stop_function=1
cascade_output_change_fraction=0.010000
quickprop_decay=-0.000100
quickprop_mu=1.750000
rprop_increase_factor=1.200000
rprop_decrease_factor=0.500000
rprop_delta_min=0.000000
rprop_delta_max=50.000000
rprop_delta_zero=0.100000
cascade_output_stagnation_epochs=12
cascade_candidate_change_fraction=0.010000
cascade_candidate_stagnation_epochs=12
cascade_max_out_epochs=150
cascade_min_out_epochs=50
cascade_max_cand_epochs=150
cascade_min_cand_epochs=50
cascade_num_candidate_groups=2
bit_fail_limit=1.00000000000000005551e-01
cascade_candidate_limit=1.00000000000000000000e+03
cascade_weight_multiplier=4.00000000000000022204e-01
cascade_activation_functions_count=10
cascade_activation_functions=3 5 7 8 10 11 14 15 16 17 
cascade_activation_steepnesses_count=4
cascade_activation_steepnesses=2.50000000000000000000e-01 5.00000000000000000000e-01 7.50000000000000000000e-01 1.00000000000000000000e+00 
layer_sizes=12 11 2 
scale_included=0
neurons (num_inputs, activation_function, activation_steepness)=(0, 0, 0.00000000000000000000e+00) (0, 0, 0.00000000000000000000e+00) (0, 0, 0.00000000000000000000e+00) (0, 0, 0.00000000000000000000e+00) (0, 0, 0.00000000000000000000e+00) (0, 0, 0.00000000000000000000e+00) (0, 0, 0.00000000000000000000e+00) (0, 0, 0.00000000000000000000e+00) (0, 0, 0.00000000000000000000e+00) (0, 0, 0.00000000000000000000e+00) (0, 0, 0.00000000000000000000e+00) (0, 0, 0.00000000000000000000e+00) (12, 6, 5.00000000000000000000e-01) (12, 6, 5.00000000000000000000e-01) (12, 6, 5.00000000000000000000e-01) (12, 6, 5.00000000000000000000e-01) (12, 6, 5.00000000000000000000e-01) (12, 6, 5.00000000000000000000e-01) (12, 6, 5.00000000000000000000e-01) (12, 6, 5.00000000000000000000e-01) (12, 6, 5.00000000000000000000e-01) (12, 6, 5.00000000000000000000e-01) (0, 6, 0.00000000000000000000e+00) (11, 6, 5.00000000000000000000e-01) (0, 6, 0.00000000000000000000e+00) 
connections (connected_to_neuron, weight)=(0, 1.47832787020099143405e+01) (1, 4.79180683560895326334e-01) (2, 5.26788172491120754160e-01) (3, 6.21429612107800899423e-01) (4, 5.28997433550881801523e-01) (5, -1.30520650507546731589e+00) (6, 5.46092374854645790094e-01) (7, -5.93333015305800959283e+00) (8, -1.53249505660291468478e-01) (9, 4.16889160368515365729e-01) (10, -7.57278999205388991811e+00) (11, 1.19946616184752552492e+00) (0, 6.52080451424494533796e+00) (1, 3.81645725373622402010e-01) (2, 4.24931445423957332430e-01) (3, 4.56579544846412166414e-01) (4, 4.24036004845496639071e-01) (5, -3.75068041686382036559e+00) (6, 1.84108851259642114506e+00) (7, 5.62396371127445338090e+00) (8, -1.39975980768181229585e+00) (9, 4.84558155297332315836e-01) (10, 5.43175612311328759318e+00) (11, 1.83307187550405370491e-01) (0, -2.00438521887553644518e+00) (1, -1.45974527623944999588e-01) (2, -1.69096286919408589355e-01) (3, -1.62666644480520039551e-01) (4, -1.59296836283498555176e-01) (5, 1.49204908344614461946e+00) (6, -7.47776471009730769879e-01) (7, 1.13520313417161466951e+00) (8, 9.27748211355433283209e-01) (9, 6.00094326566768046516e-03) (10, 6.70080955660438015720e-01) (11, -3.85538761274858254868e-01) (0, -1.89052499170793053551e+00) (1, -3.05792090594980525697e-01) (2, -3.44183636009905147279e-01) (3, -3.66079260707113551820e-01) (4, -3.70878045559141444887e-01) (5, 1.62257780912983373689e+00) (6, -4.46797698473016480225e-01) (7, 1.49375954962681434246e+00) (8, 9.35008459420428095221e-01) (9, -7.95065573393777674793e-02) (10, 1.37566468221588800169e+00) (11, -2.45539644822916736100e-01) (0, -2.03102393202562681029e-01) (1, 3.22403553055855413012e-02) (2, 2.85194310473534246020e-02) (3, 1.50609673850450209720e-01) (4, 1.35556878440293959720e-01) (5, 9.55495302782890520987e-02) (6, 4.39541902695139041768e-01) (7, -1.33405264188560934713e+00) (8, -6.25140914342485642941e-01) (9, -4.80349048657072175139e-02) (10, -8.56039913759406911886e-01) (11, 2.49568291219974362771e-03) (0, 6.33546283232656604056e-01) (1, 1.51085082192283892688e-01) (2, 1.79149817426067670123e-01) (3, 1.95477083076101620929e-01) (4, 3.08708462614876055774e-01) (5, -1.56028691702394581853e+01) (6, 2.86148450174364521459e-01) (7, 3.20352274875300935264e-01) (8, -2.96914246466659648149e-01) (9, 1.88663723119453174970e-01) (10, 5.73091310592786506994e-01) (11, 9.42626960044785078274e-02) (0, -1.39233482826170651414e+00) (1, -9.82964431175254171880e-02) (2, -9.23616980442069634982e-02) (3, -1.39832334710028011182e-01) (4, -2.34403969837095604856e-01) (5, 1.74966134933570871546e+00) (6, -3.61289895807782757142e-01) (7, 6.32020269070584839177e-01) (8, 6.58570801834105212791e-01) (9, -9.97499453203765928944e-02) (10, 6.03888976907824726048e-01) (11, -2.17277904674053501388e-01) (0, -6.26271348475965772273e-01) (1, -1.79977861810945091725e-02) (2, 4.60070299338080010432e-02) (3, -3.39627524484418449879e-02) (4, 5.48071341942526352176e-02) (5, 2.86674418309899869950e-01) (6, -5.76952466694287235960e-01) (7, -1.68495228005881947375e+00) (8, -2.50820185040890375472e-01) (9, 3.15468922572480423017e-02) (10, -9.51467274122338002584e-01) (11, -4.10128883159813356629e-02) (0, 8.07422786995127772514e+00) (1, 3.45948083363279701441e-01) (2, 3.44448043070539833277e-01) (3, 2.52615613899931312769e-01) (4, 3.27342880926832557886e-01) (5, -3.75280009214248400085e+00) (6, 1.80892611449652163103e+00) (7, 5.59023530544120905716e+00) (8, -1.32371019670940781587e+00) (9, 4.70058975278430490885e-01) (10, 6.03977374273968514728e+00) (11, 1.72447504394391881721e-01) (0, -1.26556854264403995103e+01) (1, -1.86665753370054116056e-01) (2, -1.43940749114282479093e-01) (3, -1.71513068025834908292e-01) (4, -1.34793261533506264493e-01) (5, 1.05772159151417799450e+00) (6, -7.33517615461562133561e-01) (7, -4.26613232820550614122e+00) (8, -3.00898740982472101546e-01) (9, -5.36940902156484711760e-02) (10, -2.31499179432798696254e+00) (11, 6.09515457791874534776e-02) (12, -3.23441330370749124956e-01) (13, 5.22290406285815800302e-01) (14, 5.68400424650248980996e-01) (15, 5.61844325784209508434e-01) (16, -1.13899509644390956736e-02) (17, -1.21800256468560769152e-01) (18, 5.95362189873413827357e-01) (19, -6.65498885547997354184e-02) (20, 5.49505618869357670420e-01) (21, -2.26686640482025358878e-01) (22, 4.10547357681267821583e-01) 
