FANN_FLO_2.1
num_layers=3
learning_rate=0.700000
connection_rate=1.000000
network_type=0
learning_momentum=0.000000
training_algorithm=2
train_error_function=1
train_stop_function=1
cascade_output_change_fraction=0.010000
quickprop_decay=-0.000100
quickprop_mu=1.750000
rprop_increase_factor=1.200000
rprop_decrease_factor=0.500000
rprop_delta_min=0.000000
rprop_delta_max=50.000000
rprop_delta_zero=0.100000
cascade_output_stagnation_epochs=12
cascade_candidate_change_fraction=0.010000
cascade_candidate_stagnation_epochs=12
cascade_max_out_epochs=150
cascade_min_out_epochs=50
cascade_max_cand_epochs=150
cascade_min_cand_epochs=50
cascade_num_candidate_groups=2
bit_fail_limit=1.00000000000000005551e-01
cascade_candidate_limit=1.00000000000000000000e+03
cascade_weight_multiplier=4.00000000000000022204e-01
cascade_activation_functions_count=10
cascade_activation_functions=3 5 7 8 10 11 14 15 16 17 
cascade_activation_steepnesses_count=4
cascade_activation_steepnesses=2.50000000000000000000e-01 5.00000000000000000000e-01 7.50000000000000000000e-01 1.00000000000000000000e+00 
layer_sizes=38 4 2 
scale_included=0
neurons (num_inputs, activation_function, activation_steepness)=(0, 0, 0.00000000000000000000e+00) (0, 0, 0.00000000000000000000e+00) (0, 0, 0.00000000000000000000e+00) (0, 0, 0.00000000000000000000e+00) (0, 0, 0.00000000000000000000e+00) (0, 0, 0.00000000000000000000e+00) (0, 0, 0.00000000000000000000e+00) (0, 0, 0.00000000000000000000e+00) (0, 0, 0.00000000000000000000e+00) (0, 0, 0.00000000000000000000e+00) (0, 0, 0.00000000000000000000e+00) (0, 0, 0.00000000000000000000e+00) (0, 0, 0.00000000000000000000e+00) (0, 0, 0.00000000000000000000e+00) (0, 0, 0.00000000000000000000e+00) (0, 0, 0.00000000000000000000e+00) (0, 0, 0.00000000000000000000e+00) (0, 0, 0.00000000000000000000e+00) (0, 0, 0.00000000000000000000e+00) (0, 0, 0.00000000000000000000e+00) (0, 0, 0.00000000000000000000e+00) (0, 0, 0.00000000000000000000e+00) (0, 0, 0.00000000000000000000e+00) (0, 0, 0.00000000000000000000e+00) (0, 0, 0.00000000000000000000e+00) (0, 0, 0.00000000000000000000e+00) (0, 0, 0.00000000000000000000e+00) (0, 0, 0.00000000000000000000e+00) (0, 0, 0.00000000000000000000e+00) (0, 0, 0.00000000000000000000e+00) (0, 0, 0.00000000000000000000e+00) (0, 0, 0.00000000000000000000e+00) (0, 0, 0.00000000000000000000e+00) (0, 0, 0.00000000000000000000e+00) (0, 0, 0.00000000000000000000e+00) (0, 0, 0.00000000000000000000e+00) (0, 0, 0.00000000000000000000e+00) (0, 0, 0.00000000000000000000e+00) (38, 6, 5.00000000000000000000e-01) (38, 6, 5.00000000000000000000e-01) (38, 6, 5.00000000000000000000e-01) (0, 6, 0.00000000000000000000e+00) (4, 4, 5.00000000000000000000e-01) (0, 4, 0.00000000000000000000e+00) 
connections (connected_to_neuron, weight)=(0, 7.31389153543727577045e+00) (1, 1.50000000000000000000e+03) (2, 1.50000000000000000000e+03) (3, 5.83621008360602711029e-01) (4, 1.00818379649829363842e+01) (5, 1.63543310047745205082e+00) (6, 1.24390697596341096021e-01) (7, 1.50000000000000000000e+03) (8, 7.45555004501805340666e-01) (9, -4.36344629073882273040e-01) (10, 3.84653617013532678204e-01) (11, -6.54066158862001034713e-01) (12, 1.50000000000000000000e+03) (13, 2.67523563365400229852e-01) (14, 6.34860674006145098147e-01) (15, -3.83878882935176246605e+00) (16, 2.88602272884391108931e-01) (17, -9.86094298922299938859e-01) (18, -3.25261123417536143765e-02) (19, -1.61756283792973154512e+00) (20, 8.45756907664995671858e-02) (21, 6.48043603298827819437e-01) (22, -1.09526935748874731935e+00) (23, -1.77157691204405454144e+00) (24, -2.07708599924197406805e-01) (25, -3.27530777063439137997e-01) (26, -3.03217633208945069878e-01) (27, -1.45068856309850024999e+00) (28, 2.62839703840496319298e-01) (29, 3.98265122066138593793e-02) (30, -6.55530517467828088840e-01) (31, -8.40106009747716153679e-02) (32, -6.44501009117137035886e-01) (33, -1.35406657139767960807e+00) (34, -1.60579270521211259215e+00) (35, 3.10224401861083076692e-01) (36, -8.65841083094892383087e-01) (37, -8.74008607962856287621e-01) (0, -3.96010120462024195476e+00) (1, 1.50000000000000000000e+03) (2, 6.29504710688935560370e+01) (3, -4.60161397397452986979e-01) (4, 1.15571557731705052419e+01) (5, -2.39850905124205970864e+00) (6, -5.35969710896195161709e-01) (7, 8.88364382367073801561e+01) (8, -3.35452817483038845392e-01) (9, 5.26135399609361731343e-01) (10, -2.93596399303793442748e-01) (11, -4.28746892679812072191e-02) (12, 1.50000000000000000000e+03) (13, 8.83708407506234361328e-01) (14, -4.28383305751527720950e-01) (15, 3.22285133862803663263e+00) (16, 4.36133084748875576864e-01) (17, 1.44288226941475639098e-01) (18, -9.40645250212071792895e-01) (19, -5.36834164191108853537e-01) (20, -1.56692787124950216882e-01) (21, -5.21442963876294740544e-01) (22, -2.97522226550698487557e-01) (23, -8.33595534525962245098e-01) (24, 8.26973370824822140435e-01) (25, 6.92797125699085247774e-01) (26, 2.75772154382896761415e-01) (27, -3.37341675606008473132e-01) (28, -8.07211088907117124691e-02) (29, -7.08728778086953004056e-01) (30, -9.11186375513468732601e-02) (31, 5.69547187881095706707e-01) (32, 2.23399392774293992225e-01) (33, -1.34507538005295051997e-01) (34, -2.94518018146065152507e-01) (35, 5.61140891524135390633e-02) (36, 2.06086041026409649835e-01) (37, 1.27059392433356066476e+00) (0, -1.58828656632136433480e+00) (1, 1.50000000000000000000e+03) (2, 9.03661725114990543872e-01) (3, -1.46736714491101177815e-01) (4, 6.45398043521615782936e-01) (5, -1.47897337035253872983e+00) (6, -9.19889355097848193665e-01) (7, 1.02539282811096676973e+00) (8, -1.31076312883309370472e-01) (9, -1.14028389936158469631e+00) (10, -8.00256148960581059626e-01) (11, -1.15318569980500651440e+00) (12, 1.50000000000000000000e+03) (13, -1.64072378819290198848e+00) (14, -9.14728910193495364789e-02) (15, 1.60297648337463094492e+00) (16, -1.22340550066762743242e+00) (17, -1.48409025097127522663e+00) (18, -8.97704807503346136066e-01) (19, -1.97564241396892326108e+00) (20, -1.18807845199648309809e+00) (21, -1.50314035907461646113e-01) (22, -1.65410954135456522707e+00) (23, -2.10177840135965743329e+00) (24, -9.31644571976106061761e-01) (25, -1.13740916426159865971e+00) (26, -9.39905194649767850024e-01) (27, -1.93751962877388317352e+00) (28, -9.85180948826669622420e-01) (29, -9.11196188333356804634e-01) (30, -1.06225801720102208670e+00) (31, -8.02344625748680817523e-01) (32, -1.26287845258593756093e+00) (33, -1.82118167260151953002e+00) (34, -2.11047455329417799064e+00) (35, -1.00520962262339064175e+00) (36, -1.48483097819499976211e+00) (37, 1.05266191396119457302e+00) (38, -4.12472507997176478511e+01) (39, 1.83718306607493424565e+01) (40, 2.87375504443526104126e+01) (41, 9.12468146907068122786e-01) 
