FANN_FLO_2.1
num_layers=3
learning_rate=0.700000
connection_rate=1.000000
network_type=0
learning_momentum=0.000000
training_algorithm=2
train_error_function=1
train_stop_function=1
cascade_output_change_fraction=0.010000
quickprop_decay=-0.000100
quickprop_mu=1.750000
rprop_increase_factor=1.200000
rprop_decrease_factor=0.500000
rprop_delta_min=0.000000
rprop_delta_max=50.000000
rprop_delta_zero=0.100000
cascade_output_stagnation_epochs=12
cascade_candidate_change_fraction=0.010000
cascade_candidate_stagnation_epochs=12
cascade_max_out_epochs=150
cascade_min_out_epochs=50
cascade_max_cand_epochs=150
cascade_min_cand_epochs=50
cascade_num_candidate_groups=2
bit_fail_limit=1.00000000000000005551e-01
cascade_candidate_limit=1.00000000000000000000e+03
cascade_weight_multiplier=4.00000000000000022204e-01
cascade_activation_functions_count=10
cascade_activation_functions=3 5 7 8 10 11 14 15 16 17 
cascade_activation_steepnesses_count=4
cascade_activation_steepnesses=2.50000000000000000000e-01 5.00000000000000000000e-01 7.50000000000000000000e-01 1.00000000000000000000e+00 
layer_sizes=33 11 2 
scale_included=0
neurons (num_inputs, activation_function, activation_steepness)=(0, 0, 0.00000000000000000000e+00) (0, 0, 0.00000000000000000000e+00) (0, 0, 0.00000000000000000000e+00) (0, 0, 0.00000000000000000000e+00) (0, 0, 0.00000000000000000000e+00) (0, 0, 0.00000000000000000000e+00) (0, 0, 0.00000000000000000000e+00) (0, 0, 0.00000000000000000000e+00) (0, 0, 0.00000000000000000000e+00) (0, 0, 0.00000000000000000000e+00) (0, 0, 0.00000000000000000000e+00) (0, 0, 0.00000000000000000000e+00) (0, 0, 0.00000000000000000000e+00) (0, 0, 0.00000000000000000000e+00) (0, 0, 0.00000000000000000000e+00) (0, 0, 0.00000000000000000000e+00) (0, 0, 0.00000000000000000000e+00) (0, 0, 0.00000000000000000000e+00) (0, 0, 0.00000000000000000000e+00) (0, 0, 0.00000000000000000000e+00) (0, 0, 0.00000000000000000000e+00) (0, 0, 0.00000000000000000000e+00) (0, 0, 0.00000000000000000000e+00) (0, 0, 0.00000000000000000000e+00) (0, 0, 0.00000000000000000000e+00) (0, 0, 0.00000000000000000000e+00) (0, 0, 0.00000000000000000000e+00) (0, 0, 0.00000000000000000000e+00) (0, 0, 0.00000000000000000000e+00) (0, 0, 0.00000000000000000000e+00) (0, 0, 0.00000000000000000000e+00) (0, 0, 0.00000000000000000000e+00) (0, 0, 0.00000000000000000000e+00) (33, 6, 5.00000000000000000000e-01) (33, 6, 5.00000000000000000000e-01) (33, 6, 5.00000000000000000000e-01) (33, 6, 5.00000000000000000000e-01) (33, 6, 5.00000000000000000000e-01) (33, 6, 5.00000000000000000000e-01) (33, 6, 5.00000000000000000000e-01) (33, 6, 5.00000000000000000000e-01) (33, 6, 5.00000000000000000000e-01) (33, 6, 5.00000000000000000000e-01) (0, 6, 0.00000000000000000000e+00) (11, 6, 5.00000000000000000000e-01) (0, 6, 0.00000000000000000000e+00) 
connections (connected_to_neuron, weight)=(0, 1.03300810435996281988e+00) (1, 9.55607327662980621241e-02) (2, 1.76631625279096426961e-01) (3, 1.49261105343011624136e-01) (4, 8.60672327720201080226e-02) (5, 8.68314525316640106745e-01) (6, -4.57956344314861124589e-02) (7, 4.43623815565617529710e-01) (8, -4.34383956616440136678e-01) (9, -1.19833063504023695778e+00) (10, 3.91858998097894928314e-01) (11, 3.96136905773922798346e-01) (12, 2.60430432227136965384e-01) (13, 1.63716434933752497116e+00) (14, 1.64717601404592212111e-01) (15, -4.89963438884098712034e-03) (16, 1.28445083222207512286e+00) (17, -2.30728914440098582805e-02) (18, 4.21164705010934281582e-01) (19, -1.78393592538063916475e-01) (20, -4.81269497719088001908e-01) (21, 1.50000000000000000000e+03) (22, 8.79824399587387118160e-01) (23, -3.09078336413538545813e-02) (24, 4.07077988309020755153e-01) (25, 3.12614416446771459235e-01) (26, 4.62708003871168893628e-01) (27, 8.74394177870406075215e-01) (28, 6.08297773969939498784e+02) (29, 6.40870540194996896055e-01) (30, -5.02674769618312700104e-01) (31, 6.20351463371325961837e-01) (32, 8.90276178814771931846e-03) (0, 8.57004136629706536610e+00) (1, 2.05765305877038784388e-01) (2, 2.79482713759252432428e-01) (3, 1.34430377602884232324e-01) (4, 1.10406628668615280908e-01) (5, 7.33086054614421112063e-01) (6, 9.47453774614103627627e-01) (7, -4.97551056170628225317e+00) (8, 1.91925695209290942955e+01) (9, -4.53653261748341130044e+00) (10, 3.50964975213668068932e+01) (11, -1.09897302363874671549e+00) (12, 2.43116293242060130808e+01) (13, 9.16672797864436089688e-02) (14, 2.79691860068743580747e-01) (15, 9.26535151168070281180e-01) (16, -2.70421378642175369578e+00) (17, 4.35343391653942757280e-01) (18, -7.59262283326285314367e-01) (19, 4.06731048258761074266e+00) (20, 5.41736567770362356100e+01) (21, 1.38004003461676438747e+03) (22, 7.76346918478656305984e-02) (23, 2.58130780774587353932e+00) (24, -4.68100049461054601441e-01) (25, 9.32195697895097041830e-01) (26, 8.19596427413278316720e-01) (27, 2.60308729877565814270e-01) (28, 6.08355821145346908452e+02) (29, 1.00844969881745605278e+00) (30, 4.40869780184834780812e+00) (31, 3.02134363935017713487e+00) (32, -3.66358912219320431713e-01) (0, -1.03194167375567715794e+01) (1, -1.09742940089752202826e-01) (2, -1.65065244457771126418e-01) (3, -8.31135815597076471617e-02) (4, -1.10521346948196444449e-01) (5, 7.37900257943069071143e-02) (6, -5.10457976507025720792e-02) (7, 2.76830155800198918215e+00) (8, 1.19299974361897730135e-02) (9, 1.59288872951157428615e-01) (10, 2.19670426383667335979e-02) (11, 2.60517800310880476289e+00) (12, 6.30150575977263815997e-02) (13, 3.03485416197918089765e+00) (14, -5.61935349952576435051e-02) (15, 1.61779642114216914983e-01) (16, 2.50642733397892136793e+00) (17, 9.32521697073337291206e-02) (18, 2.33446581417489262833e+00) (19, 3.41856538663953130053e-02) (20, 1.54511261268920535583e-01) (21, 2.29352244324266862918e+00) (22, 8.69725998203093736416e-02) (23, -3.87842669449458971043e-02) (24, 1.90691887620204059139e-01) (25, 2.75963286808531194083e+00) (26, 9.30919827855970216657e-02) (27, 2.53371811639550914563e+00) (28, -5.44554242636283047929e-01) (29, 8.09406701367713504736e-02) (30, 1.95002140021747399912e-01) (31, -7.03558378657811733792e-02) (32, -1.88951792108120630864e-01) (0, -5.95854120575754997446e+00) (1, -9.78421161384412652051e-02) (2, -2.28873301527006273171e-01) (3, -9.57844594926664516521e-02) (4, -7.73982892246077025522e-02) (5, -4.74619386871066382128e+01) (6, -4.93344418071298862483e-01) (7, -3.43971261096748719410e+01) (8, -1.50753554517144428004e+00) (9, 2.76277095775853887005e+00) (10, -5.75099307741451593046e+00) (11, 2.42004933913186545680e-02) (12, -2.36831286324468130999e+01) (13, -6.47856999374896047605e-01) (14, -2.25519192164667492406e+00) (15, -1.11793723973430281227e+00) (16, -7.05485215110130869931e+00) (17, -2.98962313508712940191e+00) (18, 2.22479445905981065845e-01) (19, 2.82653878021963921030e-02) (20, -1.12797171477282134333e+01) (21, 3.13472180560465263355e+00) (22, -7.31260580673552151865e+00) (23, -2.33734776794051218873e-01) (24, -4.26779276416418440476e+00) (25, -1.89925115939546473864e-01) (26, -4.91213841481143731471e+00) (27, -7.90551355738784100602e-01) (28, 3.51584053064071477834e+00) (29, -5.61130875221726270752e+01) (30, -1.02182954919441759678e+00) (31, -1.96006944428413848458e-01) (32, 3.29469336943663870798e-01) (0, 1.22763951913562641138e+00) (1, 1.87109763917138877121e-01) (2, 1.39899204668214705016e-01) (3, 1.00722174343278847441e-01) (4, 8.02252992955951038656e-02) (5, 2.55055702704136189052e-01) (6, -3.93626624271094571750e-01) (7, 5.06380807188378634365e-01) (8, -7.48444815404516572421e-01) (9, 3.62581391744918671294e-02) (10, 2.12150965318059908649e-01) (11, 3.93014657007777656883e-01) (12, 4.10006115603680831860e-01) (13, 3.41693626285517637609e-01) (14, 1.87863399279360986094e-02) (15, -1.37585456760713042978e-01) (16, 5.59134428390139048837e-01) (17, 1.44599139505781493220e+00) (18, 3.76299781593559756754e-01) (19, -6.01924135990530961848e-01) (20, -5.45545247367700381069e-01) (21, 1.38186310257982536420e+00) (22, 7.66636829673326802848e-01) (23, -4.80481806434312763709e-01) (24, 4.34135166854887233345e-01) (25, 2.34597372563479567020e-01) (26, 3.45104647557869348429e-01) (27, 6.55213821948920638327e-01) (28, 6.08373497662714271428e+02) (29, 4.88558378644091961807e-01) (30, -3.95715955007425845835e-01) (31, 1.18893774887816591757e-01) (32, -1.39951305370634648817e+00) (0, 1.09316184010441852514e+00) (1, 2.37202136708162120149e-01) (2, 2.05060495925805413853e-01) (3, 2.47335060430429382050e-01) (4, 1.82547836495301596393e-01) (5, 3.04252292597484430559e-01) (6, 1.58519276745728368572e-02) (7, -5.10281378655255579702e+00) (8, 1.24711570693488749129e+00) (9, -1.42165769812187847698e+00) (10, 4.63140995691284584890e-01) (11, -5.09510372258629384845e+00) (12, 3.78498446521221443284e-01) (13, -4.11838916343146621557e+00) (14, 4.41104836008018585947e-02) (15, 1.80368836571235480193e-01) (16, -4.90420250428677295673e+00) (17, 8.88171769223835977369e-02) (18, -4.98532500786682408744e+00) (19, -6.14907076138457922565e-02) (20, 1.93234531986752222643e-01) (21, 2.89631780808828143137e+00) (22, 3.82791587180637105092e-01) (23, -4.15258918381928132657e-01) (24, 4.06073913133092823102e-01) (25, -4.79297142092346106779e+00) (26, 3.42917444588127562355e-01) (27, -4.85744877222611570744e+00) (28, -8.83684036856600130250e-01) (29, 2.97710135330782665886e-01) (30, 1.95222122715352081057e-01) (31, -8.34686339609017058372e-02) (32, 3.64473098372684822799e-01) (0, 1.69364794867230683550e+00) (1, 9.38177381390997711108e-02) (2, 2.52061871134705683950e-01) (3, 1.71326359056896887489e-01) (4, 1.13231723451084759224e-01) (5, 1.19636198620553013683e+00) (6, -2.24412919590525145042e-01) (7, -7.03334324560681706240e-02) (8, -1.52568562644003147266e-01) (9, -1.50154805781797162645e+00) (10, 2.02474475825220956438e+00) (11, 1.37015166009963795801e+00) (12, 1.64887203634065726554e+00) (13, 9.34511124446839858138e+00) (14, 1.23377223774258792943e+00) (15, 1.48660842349586519440e+00) (16, 8.15641223983797902797e-01) (17, 7.62638460540407736588e-01) (18, 6.74559017614792089113e-01) (19, -2.06356568728312872452e-01) (20, 1.09881729080063286763e-01) (21, 1.50000000000000000000e+03) (22, 5.85994078010764307685e-01) (23, -7.82643379623385905541e-03) (24, 1.32048784211678849054e+00) (25, 4.55908634660778189218e-01) (26, 1.58752799808828282124e+00) (27, 2.52246985468432383115e+00) (28, 6.08326204700043945195e+02) (29, 9.92101001386041514429e-01) (30, 1.56686894603199511344e-01) (31, 7.07168747789434837259e-01) (32, -1.00934652741953290178e-01) (0, 1.51920460307631688401e+00) (1, 1.30556661079491681532e-01) (2, 8.62978803020370693888e-02) (3, 5.97194688421146327451e-02) (4, 1.93114976773823499023e-01) (5, 2.22913641493322017828e-01) (6, -9.21898814169861552381e-02) (7, 1.41231922123490422072e-01) (8, 2.16502405975348560796e-01) (9, -5.00452412227344045625e-01) (10, 5.06686163622390939310e-01) (11, 1.84811920438780974418e-01) (12, 5.23903994270431105917e-01) (13, 1.93391694861403729000e-01) (14, 1.08817261746963434010e-01) (15, 1.06266542594141338851e-01) (16, 2.16979014180871176976e-01) (17, 2.34180483731705385564e-01) (18, 2.04980908259273703065e-01) (19, 1.16888457695901809563e-01) (20, 4.43366302115974358911e-02) (21, 1.00737794544670178354e+00) (22, 1.95256661856502589103e-01) (23, -4.30090519675708701786e-02) (24, 4.05780429030909994825e-01) (25, 1.59294458221306972634e-01) (26, 3.03767608869905780811e-01) (27, 2.43898247267999218613e-01) (28, 6.01869686854141718868e+02) (29, 3.12076540182137207591e-01) (30, 4.04292141441771502031e-01) (31, 2.00985887365364768176e-01) (32, -3.82024794801623046592e-01) (0, 7.13472844461814315054e+00) (1, -1.95624923518186361049e-01) (2, -1.41319832017904017940e-01) (3, -1.16375176420694115276e-01) (4, -2.08419917335992604945e-01) (5, 4.86222425369454008814e-02) (6, 4.64914159368205959222e-01) (7, -2.73573497409225296906e+00) (8, -2.26584127716651539952e-01) (9, 1.05788091971587725482e+01) (10, 3.28801364637208104469e-01) (11, -2.50740827700583723825e+00) (12, 4.57218957694286373683e-02) (13, -2.79197961822181239810e+00) (14, 2.19294371762421197447e-01) (15, 2.70190832346611897741e-01) (16, -2.31756331119547365205e+00) (17, -2.94942079901426790212e-01) (18, -2.75819982480278858006e+00) (19, 1.65539405480975093665e-01) (20, -1.36380707710585857839e+00) (21, -1.04094086761807980146e+00) (22, -4.57552112240618286121e-02) (23, 2.45427841009870029154e-01) (24, -1.50467864437888343421e-01) (25, -2.09960866824356040539e+00) (26, 4.04303890481774175214e-02) (27, -2.27828457816056495489e+00) (28, -1.86903879512694687248e-01) (29, -4.40729184040665952771e-02) (30, -2.06479547796430490392e-01) (31, -3.60588418135041055557e-02) (32, 1.29682658613675033665e-01) (0, -1.16270350608114352298e+01) (1, -1.01467699872551220253e-01) (2, -1.22341484891472146446e-01) (3, -1.40188084112701671913e-01) (4, -1.32215798961220043495e-01) (5, 1.56635072904414029971e-01) (6, 1.20132165955828557752e-02) (7, 2.25204725639346836630e+00) (8, -6.20946830314710526699e-02) (9, 7.10847693676541436680e-01) (10, 1.41361119150057001903e-01) (11, 2.58427729631873948080e+00) (12, 1.18738686561086187465e-01) (13, 2.39435079634183045627e+00) (14, -5.94480672096451140396e-02) (15, 4.48125309776727705907e-03) (16, 2.37147771137079121928e+00) (17, -1.40895374501010722801e-01) (18, 3.01004454184324199417e+00) (19, 4.82301721733200405851e-02) (20, 1.92116951178031736269e-01) (21, 3.03913121098117544605e+00) (22, 1.19629186112202079428e-01) (23, -1.40154452049485372944e-01) (24, 7.56070683446114361059e-02) (25, 2.39879751176685829250e+00) (26, 1.40546970972492663021e-01) (27, 2.45103316460475939564e+00) (28, -8.68086370137145069137e-01) (29, 1.38060714831316266871e-01) (30, 1.88663012068327529125e-01) (31, -1.79799826482638841485e-01) (32, -5.59870781616613327758e-02) (33, 2.55372212296083200833e-01) (34, 4.79028487814773029640e-01) (35, 1.37349049204681694647e+00) (36, -4.79781412813633512116e-01) (37, 2.64088471605066543724e-01) (38, -4.67617583371142619963e-01) (39, 2.59829594845748690357e-01) (40, 3.45079839600182014525e-01) (41, 1.16790233281869415549e+00) (42, 1.32970042215621564452e+00) (43, 4.05337399398140452167e-01) 
