FANN_FLO_2.1
num_layers=3
learning_rate=0.700000
connection_rate=1.000000
network_type=0
learning_momentum=0.000000
training_algorithm=2
train_error_function=1
train_stop_function=1
cascade_output_change_fraction=0.010000
quickprop_decay=-0.000100
quickprop_mu=1.750000
rprop_increase_factor=1.200000
rprop_decrease_factor=0.500000
rprop_delta_min=0.000000
rprop_delta_max=50.000000
rprop_delta_zero=0.100000
cascade_output_stagnation_epochs=12
cascade_candidate_change_fraction=0.010000
cascade_candidate_stagnation_epochs=12
cascade_max_out_epochs=150
cascade_min_out_epochs=50
cascade_max_cand_epochs=150
cascade_min_cand_epochs=50
cascade_num_candidate_groups=2
bit_fail_limit=1.00000000000000005551e-01
cascade_candidate_limit=1.00000000000000000000e+03
cascade_weight_multiplier=4.00000000000000022204e-01
cascade_activation_functions_count=10
cascade_activation_functions=3 5 7 8 10 11 14 15 16 17 
cascade_activation_steepnesses_count=4
cascade_activation_steepnesses=2.50000000000000000000e-01 5.00000000000000000000e-01 7.50000000000000000000e-01 1.00000000000000000000e+00 
layer_sizes=15 4 2 
scale_included=0
neurons (num_inputs, activation_function, activation_steepness)=(0, 0, 0.00000000000000000000e+00) (0, 0, 0.00000000000000000000e+00) (0, 0, 0.00000000000000000000e+00) (0, 0, 0.00000000000000000000e+00) (0, 0, 0.00000000000000000000e+00) (0, 0, 0.00000000000000000000e+00) (0, 0, 0.00000000000000000000e+00) (0, 0, 0.00000000000000000000e+00) (0, 0, 0.00000000000000000000e+00) (0, 0, 0.00000000000000000000e+00) (0, 0, 0.00000000000000000000e+00) (0, 0, 0.00000000000000000000e+00) (0, 0, 0.00000000000000000000e+00) (0, 0, 0.00000000000000000000e+00) (0, 0, 0.00000000000000000000e+00) (15, 6, 5.00000000000000000000e-01) (15, 6, 5.00000000000000000000e-01) (15, 6, 5.00000000000000000000e-01) (0, 6, 0.00000000000000000000e+00) (4, 4, 5.00000000000000000000e-01) (0, 4, 0.00000000000000000000e+00) 
connections (connected_to_neuron, weight)=(0, 2.75603544436093050862e+00) (1, 2.00878825141343542171e+00) (2, 3.66333915067513828490e+02) (3, -1.56219162121601695681e+00) (4, 4.47706040509293146101e+00) (5, -1.91865835305461684968e+00) (6, 3.84232188268479823989e-01) (7, -1.66466391539793701071e+00) (8, -3.16821780731978142054e-01) (9, -4.27519010672874122392e-01) (10, 6.24850461305212712126e-01) (11, -1.31455035653935392581e+00) (12, -3.00641593293454079117e+00) (13, 3.66445465733905678007e+02) (14, 2.04740177974389681026e+00) (0, -2.94084714960934290318e+00) (1, 3.33382558334362100183e+00) (2, 9.44797951828474197100e+02) (3, 6.74793251026819196348e-01) (4, 4.15096751229503091452e+00) (5, 2.61858675432621446078e+00) (6, 4.04120369589989147929e-01) (7, 1.79264343812194915095e+00) (8, 1.46058234629648242553e+00) (9, 1.80406290496333476803e+00) (10, -1.45947478968120569753e+00) (11, 2.77680321833475751703e+00) (12, 1.84625258301122574522e+00) (13, 9.44779671322340163897e+02) (14, -2.91574079778672823338e+00) (0, -6.58461611818606185054e-01) (1, 1.70324520076128904655e+00) (2, 7.04670610721877892502e+02) (3, 3.83009455285040267825e-01) (4, 4.25893409789701316015e+00) (5, 1.37991878015895341747e+00) (6, 1.62606255066218952088e-01) (7, 1.09807979093640795121e+00) (8, 1.07835111364150781910e+00) (9, 9.85913119176304419966e-01) (10, -2.99081495957381038320e-01) (11, 2.67253006044847973843e-01) (12, 1.04045264459581709993e+00) (13, 7.04817324187330086716e+02) (14, -6.59722706961759497446e-01) (15, -3.77555380320814792938e+00) (16, 2.01841853347817163922e+01) (17, 1.46050048772170759648e+00) (18, -1.46411244872987933441e+00) 
