FANN_FLO_2.1
num_layers=3
learning_rate=0.700000
connection_rate=1.000000
network_type=0
learning_momentum=0.000000
training_algorithm=2
train_error_function=1
train_stop_function=1
cascade_output_change_fraction=0.010000
quickprop_decay=-0.000100
quickprop_mu=1.750000
rprop_increase_factor=1.200000
rprop_decrease_factor=0.500000
rprop_delta_min=0.000000
rprop_delta_max=50.000000
rprop_delta_zero=0.100000
cascade_output_stagnation_epochs=12
cascade_candidate_change_fraction=0.010000
cascade_candidate_stagnation_epochs=12
cascade_max_out_epochs=150
cascade_min_out_epochs=50
cascade_max_cand_epochs=150
cascade_min_cand_epochs=50
cascade_num_candidate_groups=2
bit_fail_limit=1.00000000000000005551e-01
cascade_candidate_limit=1.00000000000000000000e+03
cascade_weight_multiplier=4.00000000000000022204e-01
cascade_activation_functions_count=10
cascade_activation_functions=3 5 7 8 10 11 14 15 16 17 
cascade_activation_steepnesses_count=4
cascade_activation_steepnesses=2.50000000000000000000e-01 5.00000000000000000000e-01 7.50000000000000000000e-01 1.00000000000000000000e+00 
layer_sizes=13 4 2 
scale_included=0
neurons (num_inputs, activation_function, activation_steepness)=(0, 0, 0.00000000000000000000e+00) (0, 0, 0.00000000000000000000e+00) (0, 0, 0.00000000000000000000e+00) (0, 0, 0.00000000000000000000e+00) (0, 0, 0.00000000000000000000e+00) (0, 0, 0.00000000000000000000e+00) (0, 0, 0.00000000000000000000e+00) (0, 0, 0.00000000000000000000e+00) (0, 0, 0.00000000000000000000e+00) (0, 0, 0.00000000000000000000e+00) (0, 0, 0.00000000000000000000e+00) (0, 0, 0.00000000000000000000e+00) (0, 0, 0.00000000000000000000e+00) (13, 6, 5.00000000000000000000e-01) (13, 6, 5.00000000000000000000e-01) (13, 6, 5.00000000000000000000e-01) (0, 6, 0.00000000000000000000e+00) (4, 4, 5.00000000000000000000e-01) (0, 4, 0.00000000000000000000e+00) 
connections (connected_to_neuron, weight)=(0, -5.31822067726051184167e+00) (1, 2.06653734757813545286e+00) (2, 1.81449291242764920717e+00) (3, -5.34241065447609186911e-01) (4, 3.23260984805312845403e-01) (5, 1.79187542730186200046e+00) (6, 7.10567189627129947027e-01) (7, 3.55627655217069515992e-01) (8, -1.55013104511134147678e+00) (9, 1.41692089280997257639e+00) (10, 2.05885250601832847650e+00) (11, -2.36233628698319853001e+00) (12, -1.27256085222444514926e+00) (0, -2.23944544302845693906e+00) (1, 3.96193726155759207153e-01) (2, 6.62994171535110976556e-01) (3, 1.01232118055198716533e+00) (4, 1.05580759569123272534e+00) (5, 6.18193370984164713988e-01) (6, 2.68723659017630183143e+01) (7, -2.10930297444638981119e+00) (8, -6.08517565983607511271e+00) (9, 6.40082759913271071017e-02) (10, 1.81743852892617435701e-01) (11, 1.20540483197829972895e+00) (12, -1.68731903304356833928e-01) (0, -3.85005507470453212093e+00) (1, 1.59583159851524780670e+00) (2, 1.01614656861984609115e+00) (3, 4.15509192418674969116e-02) (4, 2.73435126951530216299e-01) (5, 1.23111358935688830485e+00) (6, 2.89357984632804321468e-01) (7, -1.46240760184592727411e-01) (8, -1.89207388394966979916e+00) (9, -5.43287468476228926906e-03) (10, 3.67191552995940306836e-01) (11, -1.01125056515426847703e+00) (12, -4.43923306035360287769e-01) (13, 1.64833762808939994216e+01) (14, 3.75051032194942779441e+00) (15, 2.40404644295938130227e+00) (16, -2.95494091183015994417e+00) 
