FANN_FLO_2.1
num_layers=3
learning_rate=0.700000
connection_rate=1.000000
network_type=0
learning_momentum=0.000000
training_algorithm=2
train_error_function=1
train_stop_function=1
cascade_output_change_fraction=0.010000
quickprop_decay=-0.000100
quickprop_mu=1.750000
rprop_increase_factor=1.200000
rprop_decrease_factor=0.500000
rprop_delta_min=0.000000
rprop_delta_max=50.000000
rprop_delta_zero=0.100000
cascade_output_stagnation_epochs=12
cascade_candidate_change_fraction=0.010000
cascade_candidate_stagnation_epochs=12
cascade_max_out_epochs=150
cascade_min_out_epochs=50
cascade_max_cand_epochs=150
cascade_min_cand_epochs=50
cascade_num_candidate_groups=2
bit_fail_limit=1.00000000000000005551e-01
cascade_candidate_limit=1.00000000000000000000e+03
cascade_weight_multiplier=4.00000000000000022204e-01
cascade_activation_functions_count=10
cascade_activation_functions=3 5 7 8 10 11 14 15 16 17 
cascade_activation_steepnesses_count=4
cascade_activation_steepnesses=2.50000000000000000000e-01 5.00000000000000000000e-01 7.50000000000000000000e-01 1.00000000000000000000e+00 
layer_sizes=12 4 2 
scale_included=0
neurons (num_inputs, activation_function, activation_steepness)=(0, 0, 0.00000000000000000000e+00) (0, 0, 0.00000000000000000000e+00) (0, 0, 0.00000000000000000000e+00) (0, 0, 0.00000000000000000000e+00) (0, 0, 0.00000000000000000000e+00) (0, 0, 0.00000000000000000000e+00) (0, 0, 0.00000000000000000000e+00) (0, 0, 0.00000000000000000000e+00) (0, 0, 0.00000000000000000000e+00) (0, 0, 0.00000000000000000000e+00) (0, 0, 0.00000000000000000000e+00) (0, 0, 0.00000000000000000000e+00) (12, 6, 5.00000000000000000000e-01) (12, 6, 5.00000000000000000000e-01) (12, 6, 5.00000000000000000000e-01) (0, 6, 0.00000000000000000000e+00) (4, 4, 5.00000000000000000000e-01) (0, 4, 0.00000000000000000000e+00) 
connections (connected_to_neuron, weight)=(0, -7.35780232163461445083e-01) (1, 6.33003416206334379446e-01) (2, 2.58655746071574710321e-01) (3, 2.03508601448433026349e+01) (4, -6.72946870808480146486e-02) (5, -2.09520326355538161200e-01) (6, -2.72187087517484382904e-01) (7, 1.66822356616419142927e-01) (8, 1.07283333126985278017e-01) (9, 9.60541840842711769355e-01) (10, 5.13488204245214685528e-01) (11, -4.31592423307570860480e-01) (0, 6.12024785302372631435e+00) (1, -2.95281864477330246999e+00) (2, -1.57386813174818329664e+00) (3, -3.83329116058774621578e+00) (4, -1.55766472156670521265e+00) (5, -1.65148041795740940785e-01) (6, 4.98538705006387772301e+00) (7, -5.85403278824181860784e+00) (8, -1.58974908844287110554e+00) (9, -1.92980362256023618706e+00) (10, -1.69065864404762056239e+00) (11, 2.95245251711943357265e+00) (0, 7.91821545803193749258e-01) (1, -2.23183986500607556280e+00) (2, -1.13981197947015977512e+00) (3, -3.21262582563070775432e-01) (4, -4.13752773505276116861e-01) (5, 7.19365218334965028646e-01) (6, 2.79216503740614863105e+00) (7, -5.71979813130425673862e-01) (8, 1.71646313043281262267e-01) (9, -7.63351281285758354045e-01) (10, -1.06841196629205867907e+01) (11, 1.26297788195157956181e+00) (12, 6.84000875553321674438e-01) (13, -1.37973908652097634331e+01) (14, -1.76494200082547081365e+00) (15, -1.31466239730627121318e+00) 
