FANN_FLO_2.1
num_layers=3
learning_rate=0.700000
connection_rate=1.000000
network_type=0
learning_momentum=0.000000
training_algorithm=2
train_error_function=1
train_stop_function=1
cascade_output_change_fraction=0.010000
quickprop_decay=-0.000100
quickprop_mu=1.750000
rprop_increase_factor=1.200000
rprop_decrease_factor=0.500000
rprop_delta_min=0.000000
rprop_delta_max=50.000000
rprop_delta_zero=0.100000
cascade_output_stagnation_epochs=12
cascade_candidate_change_fraction=0.010000
cascade_candidate_stagnation_epochs=12
cascade_max_out_epochs=150
cascade_min_out_epochs=50
cascade_max_cand_epochs=150
cascade_min_cand_epochs=50
cascade_num_candidate_groups=2
bit_fail_limit=1.00000000000000005551e-01
cascade_candidate_limit=1.00000000000000000000e+03
cascade_weight_multiplier=4.00000000000000022204e-01
cascade_activation_functions_count=10
cascade_activation_functions=3 5 7 8 10 11 14 15 16 17 
cascade_activation_steepnesses_count=4
cascade_activation_steepnesses=2.50000000000000000000e-01 5.00000000000000000000e-01 7.50000000000000000000e-01 1.00000000000000000000e+00 
layer_sizes=16 11 2 
scale_included=0
neurons (num_inputs, activation_function, activation_steepness)=(0, 0, 0.00000000000000000000e+00) (0, 0, 0.00000000000000000000e+00) (0, 0, 0.00000000000000000000e+00) (0, 0, 0.00000000000000000000e+00) (0, 0, 0.00000000000000000000e+00) (0, 0, 0.00000000000000000000e+00) (0, 0, 0.00000000000000000000e+00) (0, 0, 0.00000000000000000000e+00) (0, 0, 0.00000000000000000000e+00) (0, 0, 0.00000000000000000000e+00) (0, 0, 0.00000000000000000000e+00) (0, 0, 0.00000000000000000000e+00) (0, 0, 0.00000000000000000000e+00) (0, 0, 0.00000000000000000000e+00) (0, 0, 0.00000000000000000000e+00) (0, 0, 0.00000000000000000000e+00) (16, 6, 5.00000000000000000000e-01) (16, 6, 5.00000000000000000000e-01) (16, 6, 5.00000000000000000000e-01) (16, 6, 5.00000000000000000000e-01) (16, 6, 5.00000000000000000000e-01) (16, 6, 5.00000000000000000000e-01) (16, 6, 5.00000000000000000000e-01) (16, 6, 5.00000000000000000000e-01) (16, 6, 5.00000000000000000000e-01) (16, 6, 5.00000000000000000000e-01) (0, 6, 0.00000000000000000000e+00) (11, 6, 5.00000000000000000000e-01) (0, 6, 0.00000000000000000000e+00) 
connections (connected_to_neuron, weight)=(0, -1.20087015346580727737e+00) (1, -7.67343358649266588101e-02) (2, -6.98958651675237047085e-02) (3, -1.42010682965661300114e-01) (4, -1.55368031705762160710e-01) (5, -1.72280232196324212257e-01) (6, 9.99558678690845137105e-01) (7, -1.87275254640831612107e-01) (8, 3.03209093508892291169e+00) (9, -1.39158521634698689740e-01) (10, 7.88449273807953154858e-01) (11, -6.73304406074695521722e-02) (12, 1.30095817154186887965e-01) (13, -1.11154868692643496800e-03) (14, -9.15312999537846172515e-02) (15, -5.48694047038745247313e-01) (0, 2.29243468808898204214e-01) (1, -5.96396482657726434429e-02) (2, -3.14646131926351268170e-04) (3, -9.27772156071003384348e-02) (4, -9.82249758314426568706e-02) (5, 3.79808488485009587698e-01) (6, 6.27467256282288388114e-01) (7, 9.64743349749066919641e-02) (8, -4.29143140141910208740e+01) (9, 6.65051806490827956964e-01) (10, 3.75630142476874606672e+00) (11, 2.68406946773216581459e-01) (12, 8.22698799438342232015e-02) (13, 2.41534278381629829990e-01) (14, 2.28713597112616018325e-01) (15, 4.24035076441511560308e-02) (0, 1.09026930817097489346e+00) (1, 3.31145035336777748824e-01) (2, 2.00156415115162772400e-01) (3, 3.27819096158310951949e-01) (4, 3.38368462632462563278e-01) (5, 4.53118637660771383935e+00) (6, 1.29289642131499249444e+02) (7, 2.04942673471928460405e-01) (8, -6.51384773777205960954e+00) (9, 1.74084717221751761329e+00) (10, 1.12621210840604213388e+01) (11, 4.29140584900979282779e-01) (12, 1.85135380111304304052e+00) (13, 2.64678623718550443122e-01) (14, 8.14844834134381412749e-02) (15, 5.23447058830341704905e-01) (0, 1.43261419169199140100e+01) (1, 4.92319522618245741796e-01) (2, 6.33539306192587914346e-01) (3, 4.56821957795810362768e-01) (4, 4.43144368200492411169e-01) (5, -1.40440568749483940536e+00) (6, -8.54914757833155825040e+00) (7, 1.83190189334113656683e-01) (8, 5.78162597957811108529e-01) (9, -1.58246950772346828273e+00) (10, -5.62379257781145813766e+00) (11, -3.10148651356026150427e-01) (12, -2.30755307800971615206e-01) (13, 6.83893799867464569076e-01) (14, -1.88556542350798972407e+00) (15, 5.72028903503138730358e-01) (0, -1.85666658582984318571e+01) (1, -2.17409199216742371474e-01) (2, -3.24416143087337821571e-02) (3, -4.51076460269878715126e-02) (4, -3.85925603298137992470e-02) (5, 4.75715962584120299894e-01) (6, 1.18437154718951775934e+00) (7, 7.41953968163798660562e-01) (8, 1.59084121310089710022e+00) (9, 3.73987240321118463715e-01) (10, 3.19844373638269496851e+00) (11, -6.08610615297671547763e-02) (12, 2.29393038376945718193e-01) (13, 1.03817927602796802877e-01) (14, 1.58161440508913953007e-01) (15, -1.01592328033681211785e+00) (0, 4.49870750743000513694e+01) (1, 5.67972478205444497590e-01) (2, 5.33387255603553933625e-01) (3, 4.56289847130062709013e-01) (4, 4.27785371178867834807e-01) (5, -7.13427025307425477507e+00) (6, -1.36706931987819224616e+00) (7, -2.39074121128639099920e-01) (8, -8.48883546926704313229e-01) (9, -9.24700275300679841450e+00) (10, -7.73998932116654181357e+00) (11, -1.79143657997277983007e+00) (12, 6.97324654361290152682e-02) (13, 6.85448559752249164667e-01) (14, -2.05436881292456341441e+00) (15, 2.21082992758942964429e+00) (0, 1.02028608821417083874e+01) (1, 4.08902777750417112390e-01) (2, 4.88470977563783048669e-01) (3, 3.58295319993420846583e-01) (4, 3.56347097475453622462e-01) (5, 1.12250092655322859514e+01) (6, -2.03097485179712178294e+00) (7, 5.87904126267901561143e-01) (8, -3.80031692727094272399e+00) (9, 8.12633169330480242820e+00) (10, 1.62611005489837552318e+01) (11, 4.93398432968805200627e-01) (12, 3.42952611239917404262e+00) (13, 2.44107865173358862254e-01) (14, 1.32972497442842008120e+00) (15, 1.89413788020261070200e-01) (0, 1.85371173392860399964e+00) (1, 3.63910824852078929048e-01) (2, 1.98540561692803929628e-01) (3, 2.08705783681958745301e-01) (4, 2.35225451039165117662e-01) (5, -1.16501764703090815445e+00) (6, -4.73926002432191761926e+00) (7, -5.75565205050029393696e-01) (8, 7.18816481993101490389e+01) (9, -2.09443878893075030589e+00) (10, -2.22727032863314899913e+00) (11, 2.00450011646287479250e-01) (12, -2.68374903401538000836e+00) (13, -4.28667634971506394947e-01) (14, 5.29097614033526619792e-01) (15, 6.55205608335032607670e-01) (0, 3.49722312741352236998e-01) (1, -1.00727389831329686154e-02) (2, -9.11454233605648450611e-02) (3, -9.11100405533100538014e-02) (4, -1.16900951721170098807e-01) (5, 5.43764821487624019913e-02) (6, -4.37308185348301459161e-01) (7, -1.44752385399882829015e-02) (8, -1.92907265347790835008e+00) (9, -2.43016346003494421169e-01) (10, 7.23239036177994232268e-01) (11, 1.65589250803150456193e-01) (12, 1.32009132646898008634e-01) (13, 7.48395506155997564113e-02) (14, 1.13572861961163170536e-02) (15, 7.80503859045469650102e-02) (0, 2.59493431943473018553e-01) (1, -7.97177973468090467213e-02) (2, 5.26400719504569250540e-02) (3, -1.36046569127823251122e-02) (4, -2.03170935888077192066e-02) (5, -9.46283423107904253513e-02) (6, -6.28853867115398590393e-01) (7, -1.08050041047388824950e-02) (8, -1.23748727872843433673e+00) (9, -3.59792732806897830322e-01) (10, 3.08732057834348871950e-01) (11, 3.59709156173969979431e-01) (12, -6.68296762134178101711e-01) (13, 1.42665422799384794539e-01) (14, -7.16413591278688977049e-03) (15, 5.39301906029830899203e-02) (16, 9.18509047241667264672e-01) (17, -1.15252086275240944735e-01) (18, 7.36290426432668509982e-01) (19, -2.25279629517551122087e-01) (20, 6.75451507242043391877e-01) (21, -1.52069241103353486322e-01) (22, 4.37303333273367678125e-01) (23, 3.95203676471378162471e-01) (24, -6.62114864528080965256e-02) (25, -5.03140873966371054982e-02) (26, 2.65710037271537469206e-01) 
