FANN_FLO_2.1
num_layers=3
learning_rate=0.700000
connection_rate=1.000000
network_type=0
learning_momentum=0.000000
training_algorithm=2
train_error_function=1
train_stop_function=1
cascade_output_change_fraction=0.010000
quickprop_decay=-0.000100
quickprop_mu=1.750000
rprop_increase_factor=1.200000
rprop_decrease_factor=0.500000
rprop_delta_min=0.000000
rprop_delta_max=50.000000
rprop_delta_zero=0.100000
cascade_output_stagnation_epochs=12
cascade_candidate_change_fraction=0.010000
cascade_candidate_stagnation_epochs=12
cascade_max_out_epochs=150
cascade_min_out_epochs=50
cascade_max_cand_epochs=150
cascade_min_cand_epochs=50
cascade_num_candidate_groups=2
bit_fail_limit=1.00000000000000005551e-01
cascade_candidate_limit=1.00000000000000000000e+03
cascade_weight_multiplier=4.00000000000000022204e-01
cascade_activation_functions_count=10
cascade_activation_functions=3 5 7 8 10 11 14 15 16 17 
cascade_activation_steepnesses_count=4
cascade_activation_steepnesses=2.50000000000000000000e-01 5.00000000000000000000e-01 7.50000000000000000000e-01 1.00000000000000000000e+00 
layer_sizes=15 4 2 
scale_included=0
neurons (num_inputs, activation_function, activation_steepness)=(0, 0, 0.00000000000000000000e+00) (0, 0, 0.00000000000000000000e+00) (0, 0, 0.00000000000000000000e+00) (0, 0, 0.00000000000000000000e+00) (0, 0, 0.00000000000000000000e+00) (0, 0, 0.00000000000000000000e+00) (0, 0, 0.00000000000000000000e+00) (0, 0, 0.00000000000000000000e+00) (0, 0, 0.00000000000000000000e+00) (0, 0, 0.00000000000000000000e+00) (0, 0, 0.00000000000000000000e+00) (0, 0, 0.00000000000000000000e+00) (0, 0, 0.00000000000000000000e+00) (0, 0, 0.00000000000000000000e+00) (0, 0, 0.00000000000000000000e+00) (15, 6, 5.00000000000000000000e-01) (15, 6, 5.00000000000000000000e-01) (15, 6, 5.00000000000000000000e-01) (0, 6, 0.00000000000000000000e+00) (4, 4, 5.00000000000000000000e-01) (0, 4, 0.00000000000000000000e+00) 
connections (connected_to_neuron, weight)=(0, 2.53069291534772631280e+01) (1, -1.51683435193966809074e+00) (2, 2.60106256741291674839e-01) (3, 1.50155312248714367662e+00) (4, -2.92675387040520429416e-01) (5, 5.51830025417418990052e-01) (6, 2.78068737014401379248e-01) (7, 2.18967645252097309339e+00) (8, 1.25468206270317517159e+00) (9, 4.51870431278720174895e-01) (10, 2.26557181780908528657e-01) (11, 4.98470757937287345385e+00) (12, -5.24163440794064960926e+00) (13, 2.94992901562545040139e-01) (14, -2.38957247105326153758e+00) (0, -1.89014814467869349812e+01) (1, -1.03041909705636480776e-01) (2, -6.30855472335098310666e-01) (3, 2.54935335075174962505e-01) (4, 2.42032501144185396846e-01) (5, 1.35320390546505486817e+00) (6, 1.88077356606862822197e+00) (7, 2.64164326505379465360e+00) (8, 1.23581937201967093642e+01) (9, -6.06685325766703087425e-01) (10, -6.79473201868462384212e-01) (11, 1.32081534900977466407e+01) (12, -3.27230498280734416472e-01) (13, -5.72212442046282632191e-01) (14, 8.46629904359773699518e-01) (0, -1.29066521820288784284e+01) (1, 3.14047142101321208330e+00) (2, 1.04467844792710717883e+01) (3, 3.81849190271498217797e-01) (4, 7.07296567487644911587e-01) (5, 2.87962205102764823295e+00) (6, 9.30848416389624233602e-01) (7, 2.33223850289106104938e+00) (8, -2.37965779868948867914e+00) (9, -2.68447761087048153428e+00) (10, 1.03582126187912635373e+01) (11, -5.84933377707696422476e+00) (12, -2.15693792976254421490e+01) (13, 1.02775770610933481208e+01) (14, -5.71811437050725346332e-01) (15, -2.03482436981476872973e+01) (16, 1.07999515242739807519e+01) (17, 1.05792262930647229524e+01) (18, -2.66934280941160950729e-01) 
