FANN_FLO_2.1
num_layers=3
learning_rate=0.700000
connection_rate=1.000000
network_type=0
learning_momentum=0.000000
training_algorithm=2
train_error_function=1
train_stop_function=1
cascade_output_change_fraction=0.010000
quickprop_decay=-0.000100
quickprop_mu=1.750000
rprop_increase_factor=1.200000
rprop_decrease_factor=0.500000
rprop_delta_min=0.000000
rprop_delta_max=50.000000
rprop_delta_zero=0.100000
cascade_output_stagnation_epochs=12
cascade_candidate_change_fraction=0.010000
cascade_candidate_stagnation_epochs=12
cascade_max_out_epochs=150
cascade_min_out_epochs=50
cascade_max_cand_epochs=150
cascade_min_cand_epochs=50
cascade_num_candidate_groups=2
bit_fail_limit=1.00000000000000005551e-01
cascade_candidate_limit=1.00000000000000000000e+03
cascade_weight_multiplier=4.00000000000000022204e-01
cascade_activation_functions_count=10
cascade_activation_functions=3 5 7 8 10 11 14 15 16 17 
cascade_activation_steepnesses_count=4
cascade_activation_steepnesses=2.50000000000000000000e-01 5.00000000000000000000e-01 7.50000000000000000000e-01 1.00000000000000000000e+00 
layer_sizes=7 4 2 
scale_included=0
neurons (num_inputs, activation_function, activation_steepness)=(0, 0, 0.00000000000000000000e+00) (0, 0, 0.00000000000000000000e+00) (0, 0, 0.00000000000000000000e+00) (0, 0, 0.00000000000000000000e+00) (0, 0, 0.00000000000000000000e+00) (0, 0, 0.00000000000000000000e+00) (0, 0, 0.00000000000000000000e+00) (7, 6, 5.00000000000000000000e-01) (7, 6, 5.00000000000000000000e-01) (7, 6, 5.00000000000000000000e-01) (0, 6, 0.00000000000000000000e+00) (4, 4, 5.00000000000000000000e-01) (0, 4, 0.00000000000000000000e+00) 
connections (connected_to_neuron, weight)=(0, -9.92824340109349723349e-01) (1, 2.33934366438635610308e+00) (2, 9.56398255033062194563e-01) (3, 2.71282058150274441033e+00) (4, 1.49397158843314858956e+00) (5, 5.40246871759562985460e-01) (6, -3.03025339201859722493e+00) (0, -1.72308020683695195530e+00) (1, 2.22677013013609670367e+00) (2, 8.70475849909351673261e-01) (3, 3.33129978102845081267e+00) (4, 1.20436774599474283320e+00) (5, 6.93298085160224258905e-02) (6, -2.33532887141844236467e+00) (0, -1.04668790275287770797e+00) (1, 2.27640017602690480913e+00) (2, 1.02702239791827043547e+00) (3, 2.72955399692756817132e+00) (4, 1.62652576372697499352e+00) (5, 4.31142238428264157335e-01) (6, -3.05588892877868900655e+00) (7, 3.67041047825667643423e+00) (8, 7.33062220930056618329e+00) (9, 3.74476422532651209707e+00) (10, -1.03336890497277167356e+00) 
