FANN_FLO_2.1
num_layers=3
learning_rate=0.700000
connection_rate=1.000000
network_type=0
learning_momentum=0.000000
training_algorithm=2
train_error_function=1
train_stop_function=1
cascade_output_change_fraction=0.010000
quickprop_decay=-0.000100
quickprop_mu=1.750000
rprop_increase_factor=1.200000
rprop_decrease_factor=0.500000
rprop_delta_min=0.000000
rprop_delta_max=50.000000
rprop_delta_zero=0.100000
cascade_output_stagnation_epochs=12
cascade_candidate_change_fraction=0.010000
cascade_candidate_stagnation_epochs=12
cascade_max_out_epochs=150
cascade_min_out_epochs=50
cascade_max_cand_epochs=150
cascade_min_cand_epochs=50
cascade_num_candidate_groups=2
bit_fail_limit=1.00000000000000005551e-01
cascade_candidate_limit=1.00000000000000000000e+03
cascade_weight_multiplier=4.00000000000000022204e-01
cascade_activation_functions_count=10
cascade_activation_functions=3 5 7 8 10 11 14 15 16 17 
cascade_activation_steepnesses_count=4
cascade_activation_steepnesses=2.50000000000000000000e-01 5.00000000000000000000e-01 7.50000000000000000000e-01 1.00000000000000000000e+00 
layer_sizes=23 11 2 
scale_included=0
neurons (num_inputs, activation_function, activation_steepness)=(0, 0, 0.00000000000000000000e+00) (0, 0, 0.00000000000000000000e+00) (0, 0, 0.00000000000000000000e+00) (0, 0, 0.00000000000000000000e+00) (0, 0, 0.00000000000000000000e+00) (0, 0, 0.00000000000000000000e+00) (0, 0, 0.00000000000000000000e+00) (0, 0, 0.00000000000000000000e+00) (0, 0, 0.00000000000000000000e+00) (0, 0, 0.00000000000000000000e+00) (0, 0, 0.00000000000000000000e+00) (0, 0, 0.00000000000000000000e+00) (0, 0, 0.00000000000000000000e+00) (0, 0, 0.00000000000000000000e+00) (0, 0, 0.00000000000000000000e+00) (0, 0, 0.00000000000000000000e+00) (0, 0, 0.00000000000000000000e+00) (0, 0, 0.00000000000000000000e+00) (0, 0, 0.00000000000000000000e+00) (0, 0, 0.00000000000000000000e+00) (0, 0, 0.00000000000000000000e+00) (0, 0, 0.00000000000000000000e+00) (0, 0, 0.00000000000000000000e+00) (23, 6, 5.00000000000000000000e-01) (23, 6, 5.00000000000000000000e-01) (23, 6, 5.00000000000000000000e-01) (23, 6, 5.00000000000000000000e-01) (23, 6, 5.00000000000000000000e-01) (23, 6, 5.00000000000000000000e-01) (23, 6, 5.00000000000000000000e-01) (23, 6, 5.00000000000000000000e-01) (23, 6, 5.00000000000000000000e-01) (23, 6, 5.00000000000000000000e-01) (0, 6, 0.00000000000000000000e+00) (11, 6, 5.00000000000000000000e-01) (0, 6, 0.00000000000000000000e+00) 
connections (connected_to_neuron, weight)=(0, 1.02039924098440337730e+01) (1, -1.08668097041153433047e-01) (2, -1.81165949187778924090e-01) (3, -2.36632995985054384036e-01) (4, -2.44836614213489844882e-01) (5, -6.44597267816466201751e-01) (6, -2.60337668821716550216e-01) (7, -3.81838988948765167830e-01) (8, 1.16529134749393123438e-01) (9, 6.89385068910670528730e-01) (10, 7.70765273410506934759e-01) (11, -6.98110085893105414279e-01) (12, -3.66563042706400596393e-02) (13, 4.01043382219984700932e-01) (14, -2.80003865247494154733e-01) (15, -2.53435649770403503833e-01) (16, 2.80967804138114618517e-01) (17, 4.19658396235715491773e-01) (18, 3.61085349778963338174e-01) (19, 5.63830647133988671627e-01) (20, 4.48832670900993546681e-01) (21, -9.58290748780299683762e-02) (22, 1.15628219231399942402e+00) (0, -9.58772702488482053695e+00) (1, -2.28203636811111498783e-01) (2, -3.62373356924388767553e-01) (3, -2.37762701914642410328e-01) (4, -3.15979753837917265447e-01) (5, 1.52092467558488131374e+00) (6, 2.30359531773708869906e+00) (7, 1.31847529571348864863e+00) (8, -5.45525387672209149947e-01) (9, -1.33314507143501154163e-02) (10, -4.56136778529872888299e-01) (11, -2.79569369096469788616e-01) (12, 9.05211890011945685686e-01) (13, -3.33465134617486225199e-01) (14, 1.21065612308593406610e+00) (15, -2.43311680332291918605e-01) (16, -2.70530782300672123508e-01) (17, -5.63325330096162346649e+00) (18, -4.09473000204870415941e-02) (19, -1.33875046885431512322e+01) (20, -1.86258004196338227132e+01) (21, -4.09605820731981840055e+00) (22, -2.06487387662183302650e-01) (0, 1.14052765891734928516e+01) (1, 4.54648399007090087132e-01) (2, 5.16902444165714403113e-01) (3, 5.62071253758438249548e-01) (4, 5.89642425280578752478e-01) (5, -1.88705722250911733795e+00) (6, -2.04022188843356744314e+00) (7, -1.55733489735936592169e+00) (8, 1.51215462997849520166e-01) (9, -1.30649430862239318563e-01) (10, -1.23416118708818145500e+00) (11, 1.26966650520250823320e+00) (12, -7.68836747416055676929e-01) (13, -1.02368267044416649814e-01) (14, -1.62956065171591668594e+00) (15, 7.31965558158012119527e-01) (16, 1.72483838291736996107e-01) (17, 5.76958517132066250888e-01) (18, -3.66924513834644472343e-01) (19, 1.06876476088095380135e+01) (20, 9.81248849568936165610e+00) (21, 4.50362340374992431435e+00) (22, -4.85686600172233751138e-01) (0, -8.92076263618839604419e+00) (1, -2.93695628363012495310e-01) (2, -2.07575134652971421412e-01) (3, -1.66229724604009782007e-01) (4, -1.12557679134725821535e-01) (5, 2.16561686196149322248e-02) (6, 1.33187242235431746451e+00) (7, 4.02913590670568144692e-01) (8, 1.07407239137240678728e-01) (9, 2.39381249393900874534e-01) (10, -1.26815873521865407625e-01) (11, -9.99704731744776309288e-02) (12, 1.52782240440067995646e-01) (13, -8.65211030067514069719e-02) (14, 3.08938753151738854097e-01) (15, 2.37884573026498485904e-01) (16, -3.22093188523549178726e-01) (17, -9.26806394414233847279e-01) (18, 1.34442808797940278540e-03) (19, -1.00788319853337160481e+01) (20, 4.84132798234436556584e+00) (21, -3.98213881028560301445e+00) (22, 1.91141393973675993712e-01) (0, 9.03517112432299374092e-01) (1, 9.93667009829412445354e-02) (2, 2.04828052556408596319e-01) (3, 1.98092846906079006475e-01) (4, 1.38108922874821377080e-01) (5, -8.73849233303172656662e-01) (6, -7.94767115950206215480e-01) (7, -8.72110206835833179362e-01) (8, -6.61870759614181791708e-02) (9, -1.44257989733419023093e-01) (10, -7.60410150685187913311e-01) (11, -6.21228678750450291624e-01) (12, -4.93993496077364147023e-01) (13, -5.17803535181538654442e-01) (14, -1.02284199484669380276e+00) (15, -5.44566264138762301528e-01) (16, -4.17699755155148899632e-01) (17, -2.13540928364865864597e-02) (18, -5.32507130711376008847e-01) (19, 1.87465955430978978291e-02) (20, -1.85304740807404388914e-01) (21, -2.32108991494658391253e-02) (22, 2.37446437859449660523e-01) (0, -5.38580724169107405430e+00) (1, -2.88650479438162965717e-01) (2, -2.49381918730594009936e-01) (3, -2.22273085536815018237e-01) (4, -2.85018045725680513325e-01) (5, 8.68979028300344902291e-01) (6, 1.38308851007475719364e+00) (7, 8.47303780044637466773e-01) (8, -1.07642447450619391236e-01) (9, 1.82781678896187349537e-01) (10, -2.85936819477382531129e-01) (11, -3.64085072765177764076e-01) (12, 4.94882369623958706661e-01) (13, 1.05752113493746607853e-01) (14, 1.02559814392593540155e+00) (15, -3.36483079499961756920e-01) (16, -6.71472130325273391938e-02) (17, -1.55581139701812265486e+00) (18, -8.31505735104356713538e-02) (19, -1.35214812558353667526e+01) (20, -9.50088056416595705400e+00) (21, -4.32678678337894062622e+00) (22, 2.72595110665540096839e-01) (0, 9.65246086038937711749e+00) (1, 1.92521917858479718610e-01) (2, 1.52521866598485211775e-01) (3, 1.39375972786305646345e-01) (4, 1.72575286814330319807e-01) (5, -1.49357595796885833650e+00) (6, -1.44208211068723368697e+00) (7, -1.48798417793067438986e+00) (8, -4.49987052424681913121e-02) (9, -1.91230287130391390926e-01) (10, -4.38199835901572298802e-01) (11, -5.74523754513091788887e-01) (12, -4.12412743859901120835e-01) (13, -2.33351887630477483615e-01) (14, -1.43400970573969299693e+00) (15, -7.87153181104220500686e-01) (16, -1.40344246627209262579e-01) (17, 9.22212050968109986471e-01) (18, -3.75388851868787731814e-01) (19, 5.88176155733097782985e-02) (20, -2.71336867617540701547e-02) (21, -7.02196232038340806270e-01) (22, 6.90985555716811084004e-01) (0, 9.00983644428724694819e+00) (1, 9.32531274238126428600e-02) (2, 1.27539659974862801262e-01) (3, 2.61506526855518284247e-01) (4, 1.23614515302468974678e-01) (5, 6.11826065120603779235e-01) (6, 3.38803617541268753399e-01) (7, 4.70188089981243839688e-01) (8, -6.02735556410312345310e-02) (9, -8.64463654664110320303e-02) (10, -9.22765125121461499136e-03) (11, -3.43435686667744710654e-01) (12, 5.56381200883176108007e-01) (13, 1.61635656570249419683e-01) (14, 6.26120388139638883729e-01) (15, -1.22713090335700458766e+00) (16, 2.52646266500649196995e-01) (17, -5.62503597624990636650e-02) (18, 1.56053727990551588389e-01) (19, -2.96838591261387951814e-01) (20, -1.96920621247587301905e-01) (21, -1.86361986455772288274e-01) (22, -4.27988660977692281229e-01) (0, 2.44422187150464615968e+01) (1, 7.37680076692127512095e-02) (2, 9.81237358484291360972e-02) (3, 1.44827040943863255551e-01) (4, 2.19372670266392094662e-01) (5, -1.03234310966484810201e+00) (6, -9.38141158734970836974e-01) (7, -9.38842504078534201284e-01) (8, -2.05910257559700993202e-01) (9, -7.10855230428464546222e-01) (10, -5.22673053591454661593e-01) (11, -6.59349783696831170943e-01) (12, -3.19378314283656483674e-01) (13, -3.37738232957309869597e-01) (14, -9.38546137544085223858e-01) (15, -5.86386029798018126868e-01) (16, -9.91336915129616969011e-02) (17, -1.80883843864963006487e-01) (18, -1.75249336703392183390e-01) (19, 3.26258424557113319020e-02) (20, -3.46913058770459414859e-01) (21, -6.84985688790628599598e-01) (22, 8.14789219909755502158e-01) (0, 1.05782547494169354430e+00) (1, 1.52883217113701314060e-01) (2, 5.63536886150517515870e-02) (3, 1.05652645605293679654e-01) (4, 3.04135345169682458702e-03) (5, -9.76561247146190414270e-01) (6, -7.89302505476674576279e-01) (7, -9.33791158707582225063e-01) (8, -3.46261555300685502923e-02) (9, -7.38313149374191478314e-03) (10, -2.60921652923600144725e-01) (11, -2.53577524639836571207e-01) (12, -4.63018713390399794250e-01) (13, 3.48025854249774391214e-02) (14, -1.00532841518666682390e+00) (15, -3.78528773301075371904e-01) (16, -1.07378905770870950592e-02) (17, 7.59451801357606676168e-02) (18, -1.42573290334749025465e-01) (19, -4.27330775589664021985e-02) (20, -1.13494092429600335753e-02) (21, -6.33415283923621924567e-02) (22, -1.21781329700347953904e-01) (23, -4.21020948054868948685e-01) (24, -3.33839939131324314747e-01) (25, 7.50779834865894168949e-01) (26, -1.13713600766485609106e-01) (27, -2.04619335079363556806e-01) (28, -3.21423371722285244889e-01) (29, -1.27281980828994223387e+00) (30, 6.04632785168657815866e-01) (31, -7.32959813201899956780e-01) (32, -6.02850230587012037020e-01) (33, 7.40545976341484668559e-01) 
