FANN_FLO_2.1
num_layers=3
learning_rate=0.700000
connection_rate=1.000000
network_type=0
learning_momentum=0.000000
training_algorithm=2
train_error_function=1
train_stop_function=1
cascade_output_change_fraction=0.010000
quickprop_decay=-0.000100
quickprop_mu=1.750000
rprop_increase_factor=1.200000
rprop_decrease_factor=0.500000
rprop_delta_min=0.000000
rprop_delta_max=50.000000
rprop_delta_zero=0.100000
cascade_output_stagnation_epochs=12
cascade_candidate_change_fraction=0.010000
cascade_candidate_stagnation_epochs=12
cascade_max_out_epochs=150
cascade_min_out_epochs=50
cascade_max_cand_epochs=150
cascade_min_cand_epochs=50
cascade_num_candidate_groups=2
bit_fail_limit=1.00000000000000005551e-01
cascade_candidate_limit=1.00000000000000000000e+03
cascade_weight_multiplier=4.00000000000000022204e-01
cascade_activation_functions_count=10
cascade_activation_functions=3 5 7 8 10 11 14 15 16 17 
cascade_activation_steepnesses_count=4
cascade_activation_steepnesses=2.50000000000000000000e-01 5.00000000000000000000e-01 7.50000000000000000000e-01 1.00000000000000000000e+00 
layer_sizes=13 4 2 
scale_included=0
neurons (num_inputs, activation_function, activation_steepness)=(0, 0, 0.00000000000000000000e+00) (0, 0, 0.00000000000000000000e+00) (0, 0, 0.00000000000000000000e+00) (0, 0, 0.00000000000000000000e+00) (0, 0, 0.00000000000000000000e+00) (0, 0, 0.00000000000000000000e+00) (0, 0, 0.00000000000000000000e+00) (0, 0, 0.00000000000000000000e+00) (0, 0, 0.00000000000000000000e+00) (0, 0, 0.00000000000000000000e+00) (0, 0, 0.00000000000000000000e+00) (0, 0, 0.00000000000000000000e+00) (0, 0, 0.00000000000000000000e+00) (13, 6, 5.00000000000000000000e-01) (13, 6, 5.00000000000000000000e-01) (13, 6, 5.00000000000000000000e-01) (0, 6, 0.00000000000000000000e+00) (4, 4, 5.00000000000000000000e-01) (0, 4, 0.00000000000000000000e+00) 
connections (connected_to_neuron, weight)=(0, 3.78581796388217650673e+00) (1, -7.30266481967636771344e-01) (2, -2.83737714499133586443e+00) (3, -8.57974515205965282405e+00) (4, 1.68605401902689044924e+00) (5, -1.88491113500262352787e+00) (6, 1.20849508775698799568e+00) (7, -2.83733640077543469715e+00) (8, -3.19469551632099246774e+00) (9, -4.13630353505583303608e-01) (10, 6.96594826176677339724e-01) (11, -1.85001635301702993530e+00) (12, 1.66501300323143675008e+00) (0, 3.82911763886996947548e+00) (1, -1.41415534289905275855e+00) (2, -5.18367321686671433945e-01) (3, -1.83207389120021679751e+00) (4, 3.14371947200021484292e-01) (5, -1.93832198546792122684e+00) (6, 1.93779623069998874207e+00) (7, -1.22933575199032341096e+00) (8, -2.29507607188441031809e+00) (9, -5.53352752919168966450e-01) (10, 6.56320254873686281805e-01) (11, -4.43694276912409968361e+00) (12, 1.67214244145289137045e+00) (0, -1.17663893651044459965e+00) (1, 6.41211255101609900464e+00) (2, 1.87668118062186140005e-01) (3, 2.10066132848687869838e+00) (4, -5.51036669387118926977e-01) (5, 1.23197070989691792597e+00) (6, -7.82707945674343008591e+00) (7, -2.54585876101123043114e+00) (8, 2.19609995675124602954e+00) (9, 8.26536340958245796529e-01) (10, -1.01694254458333993574e-01) (11, 8.31345222506881920133e-01) (12, -1.04480132816567583554e+00) (13, -4.98953823181922651031e+00) (14, -1.01335458643959466229e+01) (15, 4.68491593557512153723e+00) (16, -3.77385181251111534451e+00) 
