FANN_FLO_2.1
num_layers=3
learning_rate=0.700000
connection_rate=1.000000
network_type=0
learning_momentum=0.000000
training_algorithm=2
train_error_function=1
train_stop_function=1
cascade_output_change_fraction=0.010000
quickprop_decay=-0.000100
quickprop_mu=1.750000
rprop_increase_factor=1.200000
rprop_decrease_factor=0.500000
rprop_delta_min=0.000000
rprop_delta_max=50.000000
rprop_delta_zero=0.100000
cascade_output_stagnation_epochs=12
cascade_candidate_change_fraction=0.010000
cascade_candidate_stagnation_epochs=12
cascade_max_out_epochs=150
cascade_min_out_epochs=50
cascade_max_cand_epochs=150
cascade_min_cand_epochs=50
cascade_num_candidate_groups=2
bit_fail_limit=1.00000000000000005551e-01
cascade_candidate_limit=1.00000000000000000000e+03
cascade_weight_multiplier=4.00000000000000022204e-01
cascade_activation_functions_count=10
cascade_activation_functions=3 5 7 8 10 11 14 15 16 17 
cascade_activation_steepnesses_count=4
cascade_activation_steepnesses=2.50000000000000000000e-01 5.00000000000000000000e-01 7.50000000000000000000e-01 1.00000000000000000000e+00 
layer_sizes=32 11 2 
scale_included=0
neurons (num_inputs, activation_function, activation_steepness)=(0, 0, 0.00000000000000000000e+00) (0, 0, 0.00000000000000000000e+00) (0, 0, 0.00000000000000000000e+00) (0, 0, 0.00000000000000000000e+00) (0, 0, 0.00000000000000000000e+00) (0, 0, 0.00000000000000000000e+00) (0, 0, 0.00000000000000000000e+00) (0, 0, 0.00000000000000000000e+00) (0, 0, 0.00000000000000000000e+00) (0, 0, 0.00000000000000000000e+00) (0, 0, 0.00000000000000000000e+00) (0, 0, 0.00000000000000000000e+00) (0, 0, 0.00000000000000000000e+00) (0, 0, 0.00000000000000000000e+00) (0, 0, 0.00000000000000000000e+00) (0, 0, 0.00000000000000000000e+00) (0, 0, 0.00000000000000000000e+00) (0, 0, 0.00000000000000000000e+00) (0, 0, 0.00000000000000000000e+00) (0, 0, 0.00000000000000000000e+00) (0, 0, 0.00000000000000000000e+00) (0, 0, 0.00000000000000000000e+00) (0, 0, 0.00000000000000000000e+00) (0, 0, 0.00000000000000000000e+00) (0, 0, 0.00000000000000000000e+00) (0, 0, 0.00000000000000000000e+00) (0, 0, 0.00000000000000000000e+00) (0, 0, 0.00000000000000000000e+00) (0, 0, 0.00000000000000000000e+00) (0, 0, 0.00000000000000000000e+00) (0, 0, 0.00000000000000000000e+00) (0, 0, 0.00000000000000000000e+00) (32, 6, 5.00000000000000000000e-01) (32, 6, 5.00000000000000000000e-01) (32, 6, 5.00000000000000000000e-01) (32, 6, 5.00000000000000000000e-01) (32, 6, 5.00000000000000000000e-01) (32, 6, 5.00000000000000000000e-01) (32, 6, 5.00000000000000000000e-01) (32, 6, 5.00000000000000000000e-01) (32, 6, 5.00000000000000000000e-01) (32, 6, 5.00000000000000000000e-01) (0, 6, 0.00000000000000000000e+00) (11, 6, 5.00000000000000000000e-01) (0, 6, 0.00000000000000000000e+00) 
connections (connected_to_neuron, weight)=(0, 7.27591455698739597580e+00) (1, 3.51049552669184361520e-01) (2, 3.45961104144709263863e-01) (3, 2.91216294278757059644e-01) (4, 2.60222855021611909621e-01) (5, -1.89799560350241730555e-01) (6, 5.88498342097028281916e-02) (7, -2.21203243608686284105e+00) (8, 8.46783705681770015872e+00) (9, -2.84052289528716039868e+00) (10, 1.50000000000000000000e+03) (11, 1.41503481271031905653e-01) (12, -2.07177059297180043984e+00) (13, 7.47768843313982678467e+00) (14, -9.43599637882560071667e-02) (15, 1.85987255502616938285e-02) (16, 1.22769789556337283187e+01) (17, 1.62063639507591200628e-01) (18, -3.23815935348099492863e-01) (19, 7.83182617792267277146e-01) (20, 1.32621365984428827289e+01) (21, 7.06861469787177565394e+00) (22, -1.66895385891890624119e-01) (23, -9.25808031385923824175e-01) (24, -1.00686159437489086699e+00) (25, 7.11117041247524062086e-01) (26, -7.41593772027671738201e-01) (27, 1.83265770153197204984e+00) (28, 2.87982587816792889868e+00) (29, -2.90116440818526344358e+00) (30, -1.17389475441360291441e+00) (31, -6.43868646101762309719e-02) (0, -7.83144472767866073326e+00) (1, -1.55585075834030167607e-01) (2, -1.40750105598205554891e-01) (3, -1.69773983874553668905e-01) (4, -2.84275184490912435908e-01) (5, 1.50908640154088002916e-01) (6, 1.62925423162783328257e-01) (7, 4.30305538119177932721e-01) (8, -1.06481835513744342581e-02) (9, 4.97536856929510218350e+00) (10, 1.18426400574760518070e-01) (11, 1.56518160893118735144e-01) (12, 4.17337554736264271238e-01) (13, -7.02453336528551051249e-03) (14, 1.57284975118299863439e-01) (15, 1.30090265955148304267e-01) (16, 4.61876330483163965307e-03) (17, 9.76562197754626687418e-02) (18, 1.49273464628594754178e-01) (19, 4.03595263300630460734e-02) (20, 1.02645090342801892369e+00) (21, 3.36335156130344481440e-01) (22, 2.03445033711760675521e-01) (23, 5.23953530932510735951e-01) (24, 6.13078659203097453556e-01) (25, 7.34059803623799633776e-01) (26, 3.88832412565575602503e-01) (27, 1.25046204589991072353e+00) (28, 2.50925633896937998191e-02) (29, 5.63609771237361889540e-01) (30, 2.90712461940670352512e-01) (31, -5.69903144760224411591e-01) (0, -6.10886782404426664783e+00) (1, -1.08319549034147366573e-02) (2, 4.08873269190282440100e-02) (3, -7.33123628001500736440e-03) (4, -6.33651671510030226053e-03) (5, 5.48521499147268443153e-01) (6, 2.53543973211699025239e-01) (7, 1.16000735822862388602e+00) (8, -4.11626925560783341052e-01) (9, -1.00019333470794478558e+02) (10, -5.87988575783019884469e-01) (11, 1.13178188734052431741e+00) (12, 6.64454137298237434983e-01) (13, -4.49161439286377639490e-01) (14, 3.35619671495825666607e-01) (15, 3.16524270923065342842e-01) (16, -6.99463509004695005444e-01) (17, 2.06461022601657107067e-01) (18, 3.57469368619982963420e-01) (19, 8.29747652593245399455e-02) (20, 3.08673793407686458679e+00) (21, 1.11267872421501756719e+00) (22, 4.15490340213802655800e-01) (23, 1.25418536438093086716e+00) (24, 7.04351373170629679876e-01) (25, 8.67209531028262148311e-01) (26, -1.76750484285747411217e-01) (27, 1.61354609774700961111e+01) (28, -3.42650348986555663977e-01) (29, 1.64114820968583940974e+00) (30, -7.45161273492472986391e+00) (31, -1.05032829613179445882e-01) (0, -7.97659627889510947085e+00) (1, -2.85888449413027566359e-02) (2, 6.21032654183659160729e-02) (3, 1.58033658440440887352e-03) (4, 1.51292397516522066775e-02) (5, 4.48925643840611399149e-01) (6, -6.22471730113230314885e-01) (7, 1.54003265187449289719e+00) (8, -1.25743596983090233365e-01) (9, -1.00084899645480433605e+02) (10, 6.18548401658769231304e-01) (11, -1.27035170418291021299e+00) (12, 1.86012689945463915997e+00) (13, -3.32103307291737384621e-02) (14, 2.31166993862448100217e-01) (15, -4.50417244725108856240e-01) (16, 1.14808453252711856196e-01) (17, 2.34833281570672958161e-01) (18, -1.17811102564323672004e-01) (19, -3.47351777604611222650e-01) (20, 4.40405261701365624560e+00) (21, -1.50180406392283782857e+00) (22, -3.05518826624415140714e+00) (23, 4.32326162655367718379e-01) (24, 9.89101313994613651204e-01) (25, 1.37601228701912781105e+00) (26, -1.38740337458888862709e-01) (27, 2.74290656198510340857e+00) (28, -7.97835195765996485484e-01) (29, 1.92028453856939118616e+00) (30, 5.14675402642888024651e-01) (31, -2.82734023727595429332e-01) (0, 5.65509470436507157842e+01) (1, 4.66981885663669660236e-01) (2, 5.03720538399618056324e-01) (3, 5.94107100449006608756e-01) (4, 5.98838189325730851920e-01) (5, 3.33907094551596417276e+00) (6, 1.28180727751408318760e+00) (7, -1.58169358961086192750e+00) (8, -5.74226874562207179054e+00) (9, 2.99926223720261475592e+01) (10, -8.97384071277513406528e+00) (11, 3.94076418935818972855e+00) (12, 3.35246090322557499519e+00) (13, -5.59976831933587382295e-01) (14, 7.30102684218325359566e-01) (15, 1.26149827494016908425e+00) (16, 5.80523191813385630589e-01) (17, 5.54032780864408458399e+00) (18, 5.83744674733412871603e+00) (19, 4.24572407909461979614e+00) (20, 3.08141929117021895479e+00) (21, 7.73070500657499604102e-01) (22, 3.66740265356257388873e+00) (23, 1.81488944523965600730e+00) (24, 1.42717960784281072684e+00) (25, 1.79665232962452514620e+00) (26, 1.96211229088532279619e+00) (27, 2.40224564720028467946e+02) (28, 1.50486320023269293245e+00) (29, -3.74246637862645581407e+00) (30, -1.67834964439673006709e+00) (31, -1.31324375303160967299e+00) (0, -8.34412207983233855657e+00) (1, 7.93801813624876685324e-04) (2, -1.34121421048782321281e-03) (3, -1.64082080818632431536e-04) (4, 9.56234541466094260798e-03) (5, -4.58519248423629177669e-01) (6, -2.60176406380248192995e-01) (7, 1.38749329738605053919e+00) (8, -1.21669070537897688888e-01) (9, 9.23725620849061499484e+01) (10, 5.72569869361327921098e-02) (11, -2.60486537513962002066e-01) (12, 1.50573689089000128938e+00) (13, -1.71427657773708802535e-01) (14, 1.15077992417650293300e-01) (15, -7.15684982882667464210e-01) (16, -2.17847763977245367784e-01) (17, -2.10985508631275603397e-01) (18, -3.70883542069943894504e-01) (19, -1.40611685591552060259e+00) (20, 5.05728392760105016634e+00) (21, 1.64587046228714517504e+00) (22, 8.89866233597641276276e-01) (23, 1.13739682872098457622e+00) (24, 1.10282765946873118068e+00) (25, 1.41972661553723500383e+00) (26, 1.71999454502351822871e-01) (27, 1.36833766120437871905e+03) (28, -2.12758459092513202426e-01) (29, 1.60304145473827297508e+00) (30, 1.28461359330057045547e+00) (31, -6.69326725951143175486e-02) (0, 4.17000459805201462160e+00) (1, 8.49048900077856161239e-02) (2, 6.09073745677984196290e-02) (3, 1.15065234373128710832e-02) (4, 2.72321249018228593586e-02) (5, 2.11737407456930565308e-01) (6, 6.15281367612718232962e-01) (7, 4.84283235506394582615e+00) (8, 3.46258592648437557582e-01) (9, -4.16700685959370275668e+02) (10, 6.76040046960574986246e-03) (11, 8.38251262538344948938e-02) (12, 2.73967650087878933363e+00) (13, -5.14450699511183828783e-01) (14, -5.77162111572023309169e-03) (15, -5.13762815997049135386e-02) (16, -4.53628688998868156990e-01) (17, 2.56494846612440374756e+00) (18, -7.32857853486645338670e-01) (19, 9.02924368555133444181e-02) (20, 4.17216585916801729894e+00) (21, 5.77487514826724357420e+00) (22, 3.76462592755987035531e+00) (23, 7.81417607226836119505e-02) (24, 1.12784817521563274223e-01) (25, -1.42857453397337841317e+00) (26, 2.25825749630814254232e+00) (27, 4.10545412220744935894e+02) (28, 6.28478102406167860039e-01) (29, 5.09408558774249442536e+00) (30, 6.18312427906267947364e-01) (31, -2.49663173535231812383e-02) (0, 5.36060335648717227741e+02) (1, 5.35729422992712978058e-01) (2, 6.72048732465750475740e-01) (3, 5.92063441699988035616e-01) (4, 5.60835890299326678132e-01) (5, 1.57712285908998439687e-01) (6, 3.29422252112685429171e-02) (7, 1.08440912095647767899e+00) (8, -8.46544931105128323212e-02) (9, -1.59907117393060769217e+01) (10, 6.09801666321811208782e-01) (11, 1.27733418335036708058e+00) (12, 1.55411555173848348055e+00) (13, -9.72829635485099458725e-02) (14, -8.22941828511744244423e-01) (15, 8.86854954466812506197e-01) (16, -3.15438828614611616041e-02) (17, 2.88529819000543363838e-01) (18, -8.52123669175040898693e-01) (19, 1.78924064878182553784e+00) (20, -2.63667404045942632695e-01) (21, -7.92137498227838743325e-01) (22, 1.79569072489228287459e+00) (23, -3.78844140585607114247e-01) (24, -9.08786505871280847479e-01) (25, 3.26044064794941013813e-03) (26, -3.02545725550267723472e-03) (27, -1.07734295423948989168e+00) (28, 5.74532648835001880094e-01) (29, 1.42150681505467613164e+00) (30, -2.54518792210454414260e+00) (31, -2.92030797004004027961e-01) (0, 1.07936415713499282987e+01) (1, 4.90755759521249168564e-01) (2, 4.81704302473786705185e-01) (3, 3.35493497892144498795e-01) (4, 4.52445440335992210557e-01) (5, 1.49929381438934547077e+03) (6, 3.19361035479679977733e-01) (7, 1.50000000000000000000e+03) (8, 6.55878986553444898178e-01) (9, -4.59962357341057970217e+00) (10, 1.50000000000000000000e+03) (11, 1.50000000000000000000e+03) (12, 1.45024362770574862225e+03) (13, 3.16301270585477078967e-01) (14, 1.50000000000000000000e+03) (15, 8.63147328491838394804e-01) (16, 9.38096498572371206848e-01) (17, 1.48113513552516792515e+03) (18, 1.50000000000000000000e+03) (19, 1.93755116767007464773e+01) (20, 1.13278388600688639798e+01) (21, -1.47566718427525334079e-01) (22, 3.20337363584185311538e+02) (23, -2.86210616428691166924e-01) (24, -6.32076425525821106177e-01) (25, 6.11358086304133796496e-01) (26, 2.85500319531186219635e+00) (27, 5.73066562331130047170e+00) (28, 2.06218996424212264174e-01) (29, 2.08025786993466610397e+00) (30, 1.76667932913905083581e+01) (31, -5.08364760427851614111e-01) (0, 5.68634462918274241616e+00) (1, 2.76808464976518897593e-01) (2, 3.54341829272478425761e-01) (3, 3.60921034666269624491e-01) (4, 2.54703210743635444224e-01) (5, 1.49929381438934547077e+03) (6, 3.51481790416422579248e-01) (7, 1.50000000000000000000e+03) (8, -1.00449051116180632093e+00) (9, -4.58979092630421181553e+00) (10, 1.50000000000000000000e+03) (11, -4.97162708956076115907e-01) (12, 1.45024362770574862225e+03) (13, -1.11654338676452469237e+00) (14, 1.50000000000000000000e+03) (15, 5.65511178753957399756e-01) (16, -1.14739282046147028638e+00) (17, 1.48113513552516792515e+03) (18, 1.50000000000000000000e+03) (19, -6.92914950599444967594e-01) (20, 2.21260279660723107042e+01) (21, -9.46431025703133033122e-02) (22, 5.73505968164183315139e+01) (23, 1.63237899629361549181e+00) (24, 1.34918157912652714181e+00) (25, -1.78913869168180150737e+00) (26, 2.67227334985122944033e+00) (27, -6.16538252500524741606e+00) (28, 5.08240843012112031296e-01) (29, 2.43562909601048005470e+00) (30, 1.76798129053121506615e+01) (31, -1.08600554483588837562e-01) (32, 5.02972517610940972332e-01) (33, 1.29933741248881684527e+00) (34, -2.56813148588309128617e-02) (35, -6.06537738310632262850e-02) (36, -2.07570830094976371827e-01) (37, -8.74240815453168618188e-02) (38, -1.00939090439890841178e-01) (39, -1.19408180375000649853e+00) (40, 1.23242485026631665157e+00) (41, 6.36646193047731734360e-01) (42, 2.52874795900305260332e-01) 
