FANN_FLO_2.1
num_layers=3
learning_rate=0.700000
connection_rate=1.000000
network_type=0
learning_momentum=0.000000
training_algorithm=2
train_error_function=1
train_stop_function=1
cascade_output_change_fraction=0.010000
quickprop_decay=-0.000100
quickprop_mu=1.750000
rprop_increase_factor=1.200000
rprop_decrease_factor=0.500000
rprop_delta_min=0.000000
rprop_delta_max=50.000000
rprop_delta_zero=0.100000
cascade_output_stagnation_epochs=12
cascade_candidate_change_fraction=0.010000
cascade_candidate_stagnation_epochs=12
cascade_max_out_epochs=150
cascade_min_out_epochs=50
cascade_max_cand_epochs=150
cascade_min_cand_epochs=50
cascade_num_candidate_groups=2
bit_fail_limit=1.00000000000000005551e-01
cascade_candidate_limit=1.00000000000000000000e+03
cascade_weight_multiplier=4.00000000000000022204e-01
cascade_activation_functions_count=10
cascade_activation_functions=3 5 7 8 10 11 14 15 16 17 
cascade_activation_steepnesses_count=4
cascade_activation_steepnesses=2.50000000000000000000e-01 5.00000000000000000000e-01 7.50000000000000000000e-01 1.00000000000000000000e+00 
layer_sizes=9 4 2 
scale_included=0
neurons (num_inputs, activation_function, activation_steepness)=(0, 0, 0.00000000000000000000e+00) (0, 0, 0.00000000000000000000e+00) (0, 0, 0.00000000000000000000e+00) (0, 0, 0.00000000000000000000e+00) (0, 0, 0.00000000000000000000e+00) (0, 0, 0.00000000000000000000e+00) (0, 0, 0.00000000000000000000e+00) (0, 0, 0.00000000000000000000e+00) (0, 0, 0.00000000000000000000e+00) (9, 6, 5.00000000000000000000e-01) (9, 6, 5.00000000000000000000e-01) (9, 6, 5.00000000000000000000e-01) (0, 6, 0.00000000000000000000e+00) (4, 4, 5.00000000000000000000e-01) (0, 4, 0.00000000000000000000e+00) 
connections (connected_to_neuron, weight)=(0, -2.32124706594370837365e-02) (1, 1.86809365074857902655e+00) (2, 2.34038530769875741111e-01) (3, 2.52946821578309777312e-01) (4, 1.41849375250867132392e-01) (5, 6.80236743145961164636e-01) (6, 1.77222787212356758246e+00) (7, 3.08129771533540042228e-01) (8, -1.75648899400795421855e-01) (0, -6.21774287848655751731e-02) (1, 8.17296860732719565590e-01) (2, 1.71661351332249079160e-01) (3, -1.78145156782186925293e-02) (4, 3.62497552199057992972e-01) (5, 2.61577743333760548428e-01) (6, 9.08677449443027529519e-01) (7, -5.78326159697092542777e-02) (8, 4.45274544925506540749e-02) (0, 2.31918632957576331677e+00) (1, -2.23851542809017622915e+01) (2, 1.53537511549065563976e+00) (3, 3.32806061149906007302e+00) (4, 1.78941986681140474680e+00) (5, 3.44696373414004053615e-01) (6, -2.23045047559746230093e+01) (7, 1.38738785407612774669e+00) (8, 2.38444994363425744055e+00) (9, 1.51729990510686918448e+00) (10, 1.50403759597286268423e+00) (11, -4.61383930370880523952e+00) (12, -1.94220165874006878148e+00) 
