FANN_FLO_2.1
num_layers=3
learning_rate=0.700000
connection_rate=1.000000
network_type=0
learning_momentum=0.000000
training_algorithm=2
train_error_function=1
train_stop_function=1
cascade_output_change_fraction=0.010000
quickprop_decay=-0.000100
quickprop_mu=1.750000
rprop_increase_factor=1.200000
rprop_decrease_factor=0.500000
rprop_delta_min=0.000000
rprop_delta_max=50.000000
rprop_delta_zero=0.100000
cascade_output_stagnation_epochs=12
cascade_candidate_change_fraction=0.010000
cascade_candidate_stagnation_epochs=12
cascade_max_out_epochs=150
cascade_min_out_epochs=50
cascade_max_cand_epochs=150
cascade_min_cand_epochs=50
cascade_num_candidate_groups=2
bit_fail_limit=1.00000000000000005551e-01
cascade_candidate_limit=1.00000000000000000000e+03
cascade_weight_multiplier=4.00000000000000022204e-01
cascade_activation_functions_count=10
cascade_activation_functions=3 5 7 8 10 11 14 15 16 17 
cascade_activation_steepnesses_count=4
cascade_activation_steepnesses=2.50000000000000000000e-01 5.00000000000000000000e-01 7.50000000000000000000e-01 1.00000000000000000000e+00 
layer_sizes=27 11 2 
scale_included=0
neurons (num_inputs, activation_function, activation_steepness)=(0, 0, 0.00000000000000000000e+00) (0, 0, 0.00000000000000000000e+00) (0, 0, 0.00000000000000000000e+00) (0, 0, 0.00000000000000000000e+00) (0, 0, 0.00000000000000000000e+00) (0, 0, 0.00000000000000000000e+00) (0, 0, 0.00000000000000000000e+00) (0, 0, 0.00000000000000000000e+00) (0, 0, 0.00000000000000000000e+00) (0, 0, 0.00000000000000000000e+00) (0, 0, 0.00000000000000000000e+00) (0, 0, 0.00000000000000000000e+00) (0, 0, 0.00000000000000000000e+00) (0, 0, 0.00000000000000000000e+00) (0, 0, 0.00000000000000000000e+00) (0, 0, 0.00000000000000000000e+00) (0, 0, 0.00000000000000000000e+00) (0, 0, 0.00000000000000000000e+00) (0, 0, 0.00000000000000000000e+00) (0, 0, 0.00000000000000000000e+00) (0, 0, 0.00000000000000000000e+00) (0, 0, 0.00000000000000000000e+00) (0, 0, 0.00000000000000000000e+00) (0, 0, 0.00000000000000000000e+00) (0, 0, 0.00000000000000000000e+00) (0, 0, 0.00000000000000000000e+00) (0, 0, 0.00000000000000000000e+00) (27, 6, 5.00000000000000000000e-01) (27, 6, 5.00000000000000000000e-01) (27, 6, 5.00000000000000000000e-01) (27, 6, 5.00000000000000000000e-01) (27, 6, 5.00000000000000000000e-01) (27, 6, 5.00000000000000000000e-01) (27, 6, 5.00000000000000000000e-01) (27, 6, 5.00000000000000000000e-01) (27, 6, 5.00000000000000000000e-01) (27, 6, 5.00000000000000000000e-01) (0, 6, 0.00000000000000000000e+00) (11, 6, 5.00000000000000000000e-01) (0, 6, 0.00000000000000000000e+00) 
connections (connected_to_neuron, weight)=(0, 1.44882172636625163875e+01) (1, 4.44348078636523480256e-01) (2, 4.01301999060508007844e-01) (3, 4.93278038172122235139e-01) (4, 3.39863859532471890290e-01) (5, 1.00532853953525052049e+01) (6, 4.34160712004287407950e-01) (7, 1.09044469984266356732e+01) (8, 1.86090585080518899908e+00) (9, 8.98515938529416047231e+00) (10, 2.45382757657059746847e+00) (11, 1.06431106600657514605e+01) (12, 4.93863564377013730677e+00) (13, 2.24428332281212306043e+00) (14, 9.68379262563453835355e+00) (15, 2.49143034750850977943e+00) (16, 6.19630233048672818263e-01) (17, 2.44974124088730704774e-01) (18, 3.73692298859719385096e-01) (19, 4.88657530504710557739e-01) (20, 6.53684045312604311562e+00) (21, 3.86318657142942667448e-01) (22, 8.33679601088687860511e+00) (23, 2.56578440330122496960e+01) (24, -5.70312356000013487289e+00) (25, 4.99946828283934010528e+01) (26, 4.30585177959169673745e-01) (0, -3.38684682945517068209e-01) (1, 6.08521005737262671298e-02) (2, 6.07584914791065161532e-02) (3, -1.08295420683674259443e-01) (4, -4.96562556696456894323e-02) (5, 2.95961275045275762352e+00) (6, 6.87045499180111290949e-02) (7, 1.30587964398659761578e+00) (8, 2.71725561400268170176e-02) (9, 3.33595597052451994791e-02) (10, 2.04625270460463637434e-01) (11, 1.91623664141852878551e+00) (12, 8.11360051724537845175e-01) (13, 1.02399605926243530973e+00) (14, 3.46633090179739089542e-01) (15, 1.08487236836853226385e-01) (16, 5.34990007218890464835e-02) (17, -8.68037716707420747841e-02) (18, 1.46200348348058895009e-01) (19, 2.72867737407555535287e-03) (20, 8.59552605740442121629e-01) (21, -7.30243424760734505252e-02) (22, 1.37234757624304437584e+00) (23, -2.70824640054006970935e-01) (24, 1.17948901464069808714e-02) (25, 1.16576520773304204148e+00) (26, -7.12253073944723452682e-02) (0, 2.93184433940065716229e+01) (1, 2.90596810365546187604e-01) (2, 2.30494504059184146527e-01) (3, 1.66256112242568088178e-01) (4, 1.64728206778395724896e-01) (5, -4.39940142218523533302e+00) (6, -1.81144123883363761252e-01) (7, 1.33236063642602187151e+00) (8, -2.28399133554609878871e+00) (9, -4.62866386442665600498e+00) (10, -7.12875078175518095414e-01) (11, -4.57671294107968851250e+00) (12, 1.46900929656056233874e+00) (13, -3.68609578904362522600e-01) (14, -4.46080803840177075870e+00) (15, 2.04489953419738253182e-02) (16, -1.37719891317872267233e-01) (17, -8.37157556828462823262e-02) (18, -4.78470512287190885559e+00) (19, -1.07527577560516274940e-02) (20, 9.71690217974796044409e-01) (21, -1.95332088949864146610e-02) (22, -2.72418860705669318989e+00) (23, -4.78645965853581678573e+00) (24, 1.30004232996424073932e+00) (25, -6.71108302088340824554e+00) (26, 5.50271914230334946438e-01) (0, -2.14229365861413922900e+00) (1, -2.29331338590432975977e-01) (2, -1.41271138376047045160e-01) (3, -1.71247394567777544427e-01) (4, -9.14671437800424480535e-02) (5, -9.62056323020536474644e+00) (6, 2.68368749758129576666e-01) (7, 5.08820624150549161158e+00) (8, 2.52720950467743177281e-01) (9, -2.48042239472327636918e+01) (10, 4.17062873704230518968e+00) (11, 9.21864848754399335284e-01) (12, 3.51481539841827705928e+00) (13, 1.63800673526627882381e+00) (14, -2.19327010763235321633e+01) (15, 1.23987906308464207461e-01) (16, 1.31361012304513809223e-02) (17, -7.24286295357808862505e-02) (18, -2.12067336796407381883e+01) (19, -1.17441543436248310717e-01) (20, 2.24119052241639016287e+00) (21, -8.90632920258094401555e-02) (22, 4.57952923940826828186e+00) (23, -1.86312164392465717810e+01) (24, -2.49326895305845084749e+02) (25, -1.08538332478750447763e+02) (26, -6.85086692835296384718e-02) (0, -3.62401779775528509742e-01) (1, -6.46029548121017926920e-02) (2, 6.72484389173465119116e-02) (3, 4.15313443767505521831e-02) (4, -4.99146667843286973715e-03) (5, 2.32168450252474567463e+00) (6, -1.43830583437507385919e-02) (7, 2.17323726762820701452e+00) (8, 9.89430415873706614605e-02) (9, 1.76238266884030242432e-02) (10, 3.29458153937674580458e-01) (11, 1.89737159253318332652e+00) (12, 8.79056548957490746510e-01) (13, 9.79238270688824741228e-01) (14, 4.31664048306691749968e-01) (15, -4.09127860948270763441e-02) (16, -1.27422393323275706667e-01) (17, 7.02496234951177633832e-02) (18, 8.60399237877503969552e-02) (19, -8.05885021832857817436e-02) (20, 9.48191519609239530375e-01) (21, -7.19723875510131783084e-02) (22, 1.15493970997572481529e+00) (23, 2.77877502129766973393e-01) (24, 5.49103956494872286198e-02) (25, 1.69522290330574376682e+00) (26, -5.83835076814446032878e-02) (0, 3.32592597533310012636e+01) (1, 2.43626821070233562372e-01) (2, 2.93961870699445015909e-01) (3, 3.55908083944836750590e-01) (4, 2.65746931760827198588e-01) (5, -1.28733140217970154495e+00) (6, -2.35009664109187721426e-01) (7, -4.22626452228190563343e-01) (8, -3.69384732554479544575e+00) (9, -3.48814557035452610378e+00) (10, -1.61524149027578034499e+00) (11, -2.60320445997589056120e+00) (12, -1.15067147729609220441e+00) (13, 5.35006939792951954904e-02) (14, -2.96561852194835617880e+00) (15, -5.39224557058099115969e-02) (16, 5.69652155145952965309e-02) (17, -1.79920025969754038275e-01) (18, -3.21353453281620105031e+00) (19, 3.48827696812314291819e-01) (20, -1.58891527761318473999e+00) (21, 1.77646436507302440955e-02) (22, -4.59658285799378329983e+00) (23, -8.48803999184270407952e-01) (24, 3.61013520955988598260e-01) (25, -7.29240648385356626804e-01) (26, 6.98807496222337065639e-01) (0, 3.22807103599178049080e+01) (1, 5.15357577613034870123e-02) (2, 5.39022409728208348745e-02) (3, 1.62707516363302176488e-02) (4, -3.81949743816217546222e-02) (5, -3.70221816658003799461e+00) (6, -1.33587778099744119986e-01) (7, 7.28914756755491444196e-01) (8, -3.12743243368534473703e+00) (9, -3.64750906582763523289e+00) (10, -5.23814051510286593505e-01) (11, -8.51920223705521006963e-01) (12, 9.06328581306480085544e-01) (13, -5.37040519771150651196e-02) (14, -3.78637390031194076556e+00) (15, -1.86902173050779218944e-01) (16, -1.33482564515139540129e-01) (17, 9.19195913929607560933e-02) (18, -3.91251088974041749680e+00) (19, -5.23560203438500959550e-01) (20, 5.99528760039725550079e-01) (21, -6.71536890206613501508e-02) (22, -2.88946814063023849073e+00) (23, -4.10927713605449440593e+00) (24, 5.20316952351102979257e-01) (25, -5.20539567967955374428e+00) (26, 1.51622030851205447100e+00) (0, 6.39199965399326996973e-01) (1, -2.58951877793859794319e-02) (2, 9.03611461081910427584e-02) (3, 3.88461629310060327369e-02) (4, -4.62671612939428364419e-02) (5, 7.96273949238311851140e-01) (6, -1.14996580083749952439e-01) (7, 1.20157470100229576970e-01) (8, 1.78138604293204383389e-01) (9, -1.05186989408339415242e+00) (10, 3.70655848061357429124e-01) (11, 1.88923926400221681154e-01) (12, 4.16571322889151343660e-02) (13, 2.26093033967890510993e+00) (14, -3.33645030594630220833e+00) (15, -1.47841763392571934332e-01) (16, 1.17083368677511151512e-01) (17, -2.16874619182651114102e-02) (18, -1.40516335942751635635e+00) (19, 6.45121402318176856427e-02) (20, -3.48609927789088780425e-01) (21, 4.32722160101760289219e-01) (22, 3.61219856229607794162e+00) (23, -1.41594571046017225768e+00) (24, -5.48972673675689137873e-01) (25, 4.78657606407807256071e-03) (26, 7.68646375910179285862e-02) (0, -3.92224709828602247086e+00) (1, -1.10561064192583005661e-01) (2, -1.34455012836982717994e-01) (3, -1.47879521110584277732e-01) (4, -2.88636858850021098266e-02) (5, -7.76753519811740744672e+00) (6, -2.69847819503556185516e-01) (7, 1.25665737343362060585e+00) (8, 2.98799460882055278876e-01) (9, -2.73712880787284724704e+01) (10, 2.34466245465699651973e+00) (11, -9.69413025431491853778e-02) (12, 9.71213069465055367502e-01) (13, 7.54544984482072078613e-01) (14, -1.24055268325066165858e+01) (15, -1.38163130856974014637e-01) (16, -3.85977962913263417111e-01) (17, -5.84776415764406906628e-02) (18, -2.37940102208428747588e+01) (19, -2.87054188372015461894e-01) (20, 1.83487673358186009764e+00) (21, -3.50328374192847180613e-01) (22, -9.40803786451359924659e-02) (23, -1.79314003257839686967e+01) (24, -4.96692521712606733786e+01) (25, -2.52804283606068736390e+02) (26, 5.03170204667982637337e-02) (0, 1.12496177555282397265e+01) (1, 2.13348789603627880807e-01) (2, 2.89632386059678836876e-01) (3, 2.54775139034904174462e-01) (4, 2.40463516206658928231e-01) (5, -3.55729915255770856586e-01) (6, 1.14682256610926638918e-01) (7, -3.13634058377218050140e+00) (8, -6.22157750586407654048e-01) (9, -3.47410071608453518976e+00) (10, -1.03995946680016881913e+00) (11, -2.28373860737811940069e+00) (12, -4.19240814732792266284e+00) (13, 1.26686034870369623739e+00) (14, -3.70235318168114790893e+00) (15, 9.56147942805276734868e-02) (16, 2.25179338915787119468e-01) (17, 1.85302881473423414205e-01) (18, -3.43390100445682389108e+00) (19, 3.39353230235246161595e-01) (20, -4.17153848047908848429e+00) (21, 2.37068461666720547987e-01) (22, -1.69230514178277435811e+00) (23, -3.42615093903216472171e+00) (24, -2.54892556857064800369e+00) (25, 3.33741200731754339426e-01) (26, 2.94366018464933765220e-01) (27, 4.56752334632358092392e-01) (28, 5.66489198745112276789e-01) (29, -3.89960520188296855260e-01) (30, -4.24160213862073032232e-01) (31, 6.89483437511959729171e-01) (32, -5.55113436438611884682e-01) (33, -2.04065073123715828851e-01) (34, 1.80327242744690113829e-01) (35, -5.20913778635498148084e-01) (36, -5.91144714842497975837e-01) (37, 4.56573003585154235662e-01) 
