FANN_FLO_2.1
num_layers=3
learning_rate=0.700000
connection_rate=1.000000
network_type=0
learning_momentum=0.000000
training_algorithm=2
train_error_function=1
train_stop_function=1
cascade_output_change_fraction=0.010000
quickprop_decay=-0.000100
quickprop_mu=1.750000
rprop_increase_factor=1.200000
rprop_decrease_factor=0.500000
rprop_delta_min=0.000000
rprop_delta_max=50.000000
rprop_delta_zero=0.100000
cascade_output_stagnation_epochs=12
cascade_candidate_change_fraction=0.010000
cascade_candidate_stagnation_epochs=12
cascade_max_out_epochs=150
cascade_min_out_epochs=50
cascade_max_cand_epochs=150
cascade_min_cand_epochs=50
cascade_num_candidate_groups=2
bit_fail_limit=1.00000000000000005551e-01
cascade_candidate_limit=1.00000000000000000000e+03
cascade_weight_multiplier=4.00000000000000022204e-01
cascade_activation_functions_count=10
cascade_activation_functions=3 5 7 8 10 11 14 15 16 17 
cascade_activation_steepnesses_count=4
cascade_activation_steepnesses=2.50000000000000000000e-01 5.00000000000000000000e-01 7.50000000000000000000e-01 1.00000000000000000000e+00 
layer_sizes=75 11 2 
scale_included=0
neurons (num_inputs, activation_function, activation_steepness)=(0, 0, 0.00000000000000000000e+00) (0, 0, 0.00000000000000000000e+00) (0, 0, 0.00000000000000000000e+00) (0, 0, 0.00000000000000000000e+00) (0, 0, 0.00000000000000000000e+00) (0, 0, 0.00000000000000000000e+00) (0, 0, 0.00000000000000000000e+00) (0, 0, 0.00000000000000000000e+00) (0, 0, 0.00000000000000000000e+00) (0, 0, 0.00000000000000000000e+00) (0, 0, 0.00000000000000000000e+00) (0, 0, 0.00000000000000000000e+00) (0, 0, 0.00000000000000000000e+00) (0, 0, 0.00000000000000000000e+00) (0, 0, 0.00000000000000000000e+00) (0, 0, 0.00000000000000000000e+00) (0, 0, 0.00000000000000000000e+00) (0, 0, 0.00000000000000000000e+00) (0, 0, 0.00000000000000000000e+00) (0, 0, 0.00000000000000000000e+00) (0, 0, 0.00000000000000000000e+00) (0, 0, 0.00000000000000000000e+00) (0, 0, 0.00000000000000000000e+00) (0, 0, 0.00000000000000000000e+00) (0, 0, 0.00000000000000000000e+00) (0, 0, 0.00000000000000000000e+00) (0, 0, 0.00000000000000000000e+00) (0, 0, 0.00000000000000000000e+00) (0, 0, 0.00000000000000000000e+00) (0, 0, 0.00000000000000000000e+00) (0, 0, 0.00000000000000000000e+00) (0, 0, 0.00000000000000000000e+00) (0, 0, 0.00000000000000000000e+00) (0, 0, 0.00000000000000000000e+00) (0, 0, 0.00000000000000000000e+00) (0, 0, 0.00000000000000000000e+00) (0, 0, 0.00000000000000000000e+00) (0, 0, 0.00000000000000000000e+00) (0, 0, 0.00000000000000000000e+00) (0, 0, 0.00000000000000000000e+00) (0, 0, 0.00000000000000000000e+00) (0, 0, 0.00000000000000000000e+00) (0, 0, 0.00000000000000000000e+00) (0, 0, 0.00000000000000000000e+00) (0, 0, 0.00000000000000000000e+00) (0, 0, 0.00000000000000000000e+00) (0, 0, 0.00000000000000000000e+00) (0, 0, 0.00000000000000000000e+00) (0, 0, 0.00000000000000000000e+00) (0, 0, 0.00000000000000000000e+00) (0, 0, 0.00000000000000000000e+00) (0, 0, 0.00000000000000000000e+00) (0, 0, 0.00000000000000000000e+00) (0, 0, 0.00000000000000000000e+00) (0, 0, 0.00000000000000000000e+00) (0, 0, 0.00000000000000000000e+00) (0, 0, 0.00000000000000000000e+00) (0, 0, 0.00000000000000000000e+00) (0, 0, 0.00000000000000000000e+00) (0, 0, 0.00000000000000000000e+00) (0, 0, 0.00000000000000000000e+00) (0, 0, 0.00000000000000000000e+00) (0, 0, 0.00000000000000000000e+00) (0, 0, 0.00000000000000000000e+00) (0, 0, 0.00000000000000000000e+00) (0, 0, 0.00000000000000000000e+00) (0, 0, 0.00000000000000000000e+00) (0, 0, 0.00000000000000000000e+00) (0, 0, 0.00000000000000000000e+00) (0, 0, 0.00000000000000000000e+00) (0, 0, 0.00000000000000000000e+00) (0, 0, 0.00000000000000000000e+00) (0, 0, 0.00000000000000000000e+00) (0, 0, 0.00000000000000000000e+00) (0, 0, 0.00000000000000000000e+00) (75, 6, 5.00000000000000000000e-01) (75, 6, 5.00000000000000000000e-01) (75, 6, 5.00000000000000000000e-01) (75, 6, 5.00000000000000000000e-01) (75, 6, 5.00000000000000000000e-01) (75, 6, 5.00000000000000000000e-01) (75, 6, 5.00000000000000000000e-01) (75, 6, 5.00000000000000000000e-01) (75, 6, 5.00000000000000000000e-01) (75, 6, 5.00000000000000000000e-01) (0, 6, 0.00000000000000000000e+00) (11, 6, 5.00000000000000000000e-01) (0, 6, 0.00000000000000000000e+00) 
connections (connected_to_neuron, weight)=(0, -2.14304610838674065576e+01) (1, -9.72901712481034214308e-02) (2, -2.22576653522635614646e-01) (3, -1.14372162086154222083e-01) (4, -1.32320878965045130027e-01) (5, 1.20500391349765356708e+00) (6, 6.79274003240878831988e-01) (7, 3.66972910400916563223e-01) (8, 3.30699597533426681295e+00) (9, 1.14587434045547564843e+00) (10, 3.31106124542279633971e+00) (11, 1.07828263552540204451e+00) (12, 9.16140342450855738043e-02) (13, 7.23995145370448844879e-01) (14, 1.12447121763867197153e+00) (15, 1.53763151128191344341e+00) (16, 1.20378987712387997000e+00) (17, 5.46069714815400453212e-01) (18, 3.31386543952162959670e+00) (19, 1.78136327886255052544e-01) (20, 9.33486149146761090556e-01) (21, 9.46426776255566037932e-01) (22, 6.52822503193695835577e-01) (23, 8.75602983937997292330e-01) (24, 6.61714563629540286627e-01) (25, 1.21774334854114041349e+00) (26, 1.47379842065627553183e+00) (27, 3.37833824293675311079e-01) (28, 6.41944971726355784192e-01) (29, 1.58152987393384081294e+00) (30, 1.22240391753140431597e+00) (31, 1.46181031402338557079e+00) (32, 8.99851237521750557669e-01) (33, 8.07457631400049780090e-01) (34, 7.94337911153978448731e-01) (35, 7.68433981824649614545e-01) (36, 1.27351023405158647606e+00) (37, 1.31655801825177709574e+00) (38, 3.93579970762729602907e-01) (39, 3.33896172494971699152e+00) (40, 6.38358176362569418316e-01) (41, 1.17367801865431209407e+00) (42, 1.17576472882543536791e+00) (43, 1.85239637500289799910e+00) (44, 2.80656930519365133136e-01) (45, 1.59600838545762568899e+00) (46, 1.12039642717447401887e-01) (47, 1.37343249126483546441e+00) (48, 9.80483368582282022174e-01) (49, 1.39829183318763416999e+00) (50, 5.61419690235768986675e-01) (51, 7.27818462896292039943e-01) (52, 1.61343192977409910505e+00) (53, 1.17406552809120867664e+00) (54, 1.50687496717968505422e+00) (55, 1.47174829683097052602e+00) (56, 1.65636523353100040268e+00) (57, 9.11923490945238834904e-01) (58, 1.66297463223095753904e+00) (59, 8.34250240225873462840e-01) (60, 7.60479305452542608812e-01) (61, 3.72703837556622241678e+00) (62, 3.59303053607091493760e+00) (63, 1.66370976180530272259e+00) (64, 3.37801667196225796630e+00) (65, 1.92358796765717932065e-01) (66, 3.40298769150576052578e-01) (67, 1.80406510460533042739e+00) (68, 1.21130411997475917474e+00) (69, 2.73977387882465128754e+00) (70, 1.17478281045802468441e+00) (71, 3.50119749139306213337e-01) (72, 7.80330805867711196910e-01) (73, 3.40648487848710690429e+00) (74, -3.12885758311983008806e-01) (0, -7.72205237557644030844e-01) (1, -1.44040455882383622299e-01) (2, -1.15371865992380417953e-01) (3, -6.24483207510245497129e-02) (4, -6.55935237453711406097e-02) (5, 1.02101632431285871405e+00) (6, 8.67266168189829156354e-01) (7, -2.66146126377378167138e-01) (8, 1.58833791510190280860e+00) (9, 1.21214344096687298702e+00) (10, 1.40423063672339787367e+00) (11, 6.37660438073575641660e-01) (12, -7.68858303485004807021e-02) (13, 8.14636284922775066875e-01) (14, 5.96265322269817654721e-01) (15, 1.00987908721590691208e+00) (16, 5.30556875737885569322e-01) (17, -1.84430408623124320044e-01) (18, 2.39529085826265264458e+00) (19, -1.25340788754254695014e-01) (20, 1.48650310254387818532e+00) (21, 7.77042151473464670630e-01) (22, 1.30587121801446270908e+00) (23, 6.03794420748994697945e-01) (24, 7.39735700445865451691e-01) (25, 6.36046135081276609036e-01) (26, 8.78146029494727531350e-01) (27, 4.24154857096083026669e-01) (28, 5.69707913560470458059e-01) (29, 1.15023076421696868188e+00) (30, 7.78404337049542704996e-01) (31, 4.81866518420659029065e-01) (32, 1.14950327210061442607e+00) (33, 7.93204304420007333398e-01) (34, 9.19465386797853945211e-01) (35, 1.02004429810974128756e+00) (36, 1.00977255139542587692e+00) (37, 9.74602351333864636018e-01) (38, -6.00451026469371540450e-01) (39, 2.85209815708094964748e+01) (40, -7.71645345474581689782e-02) (41, 1.01644251094033100102e+00) (42, 1.13427111749619280445e+00) (43, 6.83273308765283582389e-01) (44, -2.14595468367473757310e-01) (45, 1.83782971942506700991e+00) (46, 3.19659860908875270713e-01) (47, 2.13923283651644968728e+00) (48, 9.36309030892839233573e-01) (49, 1.20543633094649282889e+00) (50, 4.93124769151578490334e-01) (51, 8.23365702807464128199e-01) (52, 1.37658153234476343663e+00) (53, 9.96179250116295711415e-01) (54, 6.17180155409708319780e+00) (55, 7.35071601643126903980e-01) (56, 4.17364684896016913118e-01) (57, 9.28199421769510979452e-01) (58, 1.34813818693703857399e+00) (59, 1.49232091240795589071e-01) (60, 9.75379389282459152710e-01) (61, 2.65431234403933924426e+00) (62, 2.42854290399171102166e+00) (63, 7.46217053829607457338e-01) (64, 2.43725299619364177417e+00) (65, 1.07156716725409370539e-01) (66, 2.41330022171288760546e+00) (67, 1.23058559582307935898e+00) (68, 1.32920327655980474724e+00) (69, 2.36587816177612797475e+00) (70, 7.18063670488305993977e-01) (71, 3.64818262614113542064e-01) (72, 4.16013301736757545868e-01) (73, 2.42323804430889522266e+00) (74, -1.01493827145511111842e-01) (0, 1.71686619577997348074e+01) (1, 5.40249289081168093674e-01) (2, 4.98333734527897975752e-01) (3, 6.66276698068451800339e-01) (4, 5.54307025924992702315e-01) (5, -1.53170098520218056493e+00) (6, -2.37929759523463735249e+00) (7, -3.62053344048851588610e-01) (8, -6.37727656833358835797e+00) (9, -2.76162151385634357936e+00) (10, -5.67695349522229086858e+00) (11, -1.98762721653408847011e+00) (12, -4.28752388614533963551e-01) (13, -1.67852786995097735812e+00) (14, -6.74942430804860826754e-01) (15, -4.31622419418770331134e+00) (16, -7.99750273246188192466e-01) (17, -6.67417289349743647620e-01) (18, -7.06488467078314652525e+00) (19, -6.01011543435325923390e-01) (20, -3.39928348909065736194e+00) (21, -2.18642440109374147639e+00) (22, -1.83912954431698261182e+00) (23, -1.19262102190128871371e+00) (24, -1.52152317174485118834e+00) (25, -5.01767539300323681117e-02) (26, -4.30861962158555211744e+00) (27, -6.23882806871039141683e-01) (28, -1.67189102608209938516e+00) (29, -2.49349785260501244366e+00) (30, -2.07206593265821581440e+00) (31, -2.53459640302284761049e+00) (32, 5.09457024556496940182e-02) (33, 2.59427789377451756270e-01) (34, -6.36395039706927700962e+00) (35, -1.88395390870504564340e+00) (36, -3.52652446737720159931e+00) (37, -1.78755178582977358737e+00) (38, 4.87020281338132299265e-01) (39, -5.77588198436187294504e+00) (40, -4.17631214256329152956e-01) (41, -1.85792374421871930856e+00) (42, -9.27271773597554971325e-01) (43, -3.96774216873693186258e+00) (44, 2.24840313571372296675e-01) (45, -4.06021678377354788836e+00) (46, -9.35709664982369848651e-01) (47, -2.10725602297712333311e+00) (48, -1.55048615040703618995e+00) (49, -4.96696813913739898538e+00) (50, -3.60394442077291043969e-01) (51, -2.27632863025601706042e+00) (52, -2.51423731953299434139e+00) (53, -2.09451834988740470678e+00) (54, -2.43900620447413851721e+00) (55, -1.56994343602902586277e+00) (56, -4.35443564104625746580e+00) (57, -6.62409488234906931869e-03) (58, -6.59147881922243428221e+00) (59, -2.41798667505057518490e-01) (60, -3.48383639256674371154e-01) (61, -6.41699346026956618516e+00) (62, -6.41591008994490508144e+00) (63, -2.28240008212974210267e+00) (64, -6.66719254099371028133e+00) (65, 3.60946342800337161005e-01) (66, -6.71641826631421334781e+00) (67, -2.41317971086862614882e+00) (68, -2.26650392095223462974e+00) (69, -6.90880885516630360854e+00) (70, -2.13812639643215485208e+00) (71, 1.14422823368768689090e-01) (72, -1.12717454581382470202e+00) (73, -7.05062777274419882900e+00) (74, 7.24693275407018111522e-01) (0, 4.19777228928216228354e+00) (1, 5.35525602628901808977e-01) (2, 5.06125969221308924517e-01) (3, 5.32456514765933364153e-01) (4, 3.94874495794490187883e-01) (5, 9.52231083821795776245e-01) (6, -5.80542398699899875325e-01) (7, 7.41647804550628841902e-01) (8, 6.23723677113025676277e-01) (9, 1.15351372597374690621e+00) (10, 6.62880938740110448038e-01) (11, -4.36853990905743838624e-01) (12, 9.35708723829090316393e-01) (13, -2.31617712709015662054e-02) (14, -8.94876727933115234670e-01) (15, 2.14191364681100671064e+00) (16, -4.85540842136509109839e-01) (17, 4.49475115801532432158e-01) (18, 3.64109386378899770875e+01) (19, 5.57759242710879843408e-01) (20, 1.97136576113942774136e+00) (21, 8.72150321370443792901e-01) (22, -3.94818159824109449207e-01) (23, 1.03178705008174853575e+00) (24, -7.10767274627853939961e-01) (25, -1.00116329307027940310e+00) (26, 1.76350988388556584319e+00) (27, 3.43351872049344974958e-01) (28, 1.98971598532143678639e+00) (29, 8.82455907560711239057e+00) (30, 1.18804086575952627669e+00) (31, -1.94646624624970093764e-01) (32, -1.65245539264400498336e-01) (33, 1.48195880677144953275e-01) (34, 9.49040729652477543787e-01) (35, -3.60250013550864334189e-01) (36, 9.03189039093799328484e-01) (37, -9.01823786838423346879e-01) (38, 5.78800116940940134747e-02) (39, 2.06979314848392732529e+01) (40, 2.65850311653646587118e-01) (41, 6.64742874611322420719e+00) (42, -6.40490621684282168680e-01) (43, 9.82015863193438032219e-01) (44, 3.95321913738551800055e-01) (45, 1.28661353953929219474e-01) (46, 4.97527838341123643251e-03) (47, -1.08183639568333545000e+00) (48, 4.55501445348000189028e+00) (49, 2.16047141877050696834e+00) (50, 1.18398614014440503595e-01) (51, -5.45000009738772911438e-02) (52, 5.41354594148973689016e+00) (53, 2.21146552644589426961e+01) (54, 1.97186064838036201330e+00) (55, 3.15977154754210343146e-01) (56, 2.16719847494550599265e+00) (57, -3.67429255619349248718e-01) (58, 6.94627288578773649519e-01) (59, -4.13274824948384605916e-02) (60, 5.32630704341590377471e-02) (61, 5.39240312350050245982e+01) (62, 2.16228678209325444470e+01) (63, 5.81606256469771820683e-01) (64, 7.24814336337121147835e+01) (65, 5.70581794803452391207e-01) (66, 1.06869442257535176566e+01) (67, -1.15820561784771758340e+00) (68, 1.95134658864258518918e+01) (69, 3.63559281477705198427e+01) (70, 2.12670206854761971726e+01) (71, 2.42306611193935879101e+01) (72, 1.61490672884539385734e+01) (73, 7.24898331798585076058e+01) (74, -2.31681567241201946672e+00) (0, -3.65045098505996090665e+00) (1, -9.17582804072039487364e-02) (2, -2.40860521208061423293e-01) (3, -1.29715173851265158644e-01) (4, -2.32121399949802575957e-01) (5, 9.58793525782556610437e-01) (6, 9.66745187831705377057e-01) (7, 3.38101858187655965327e-02) (8, 1.45167550167493430990e+00) (9, 1.04653979396042751127e+00) (10, 1.47761797055590049510e+00) (11, 7.91809079644657076713e-01) (12, -1.59959027681039561708e-01) (13, 8.28817230569657392714e-01) (14, 7.32325730007724939874e-01) (15, 7.68921329193385405532e-01) (16, 4.95584167243229178901e-01) (17, 1.07536564210450588663e-01) (18, 2.32059440055581056583e+00) (19, -9.13061349387121051757e-02) (20, 9.10400092231097857187e-01) (21, 6.55284454130094173863e-01) (22, 8.20125949570470913486e-01) (23, 6.30184595082884824180e-01) (24, 5.19593531173647815713e-01) (25, 8.01382910498460332427e-01) (26, 8.36184443514757180793e-01) (27, 3.38537178240665814766e-01) (28, 5.23550063523092301665e-01) (29, 5.90484269384390136892e-01) (30, 8.28547265591337289692e-01) (31, 1.00119369053934037517e+00) (32, 9.75767328042156378842e-01) (33, 9.50395579776110999148e-01) (34, 7.94895784729135468361e-01) (35, 8.31223908236505271141e-01) (36, 9.79969466633380026366e-01) (37, 9.11352081598513996674e-01) (38, -1.23383102124562493707e-01) (39, 2.11762774869680692191e+00) (40, 5.53814210189130379236e-02) (41, 6.91922157206857568745e-01) (42, 1.94864995592801193425e+00) (43, 8.71649062540465813242e-01) (44, 2.11137399738342779187e-01) (45, 1.37168194145723099098e+00) (46, 1.76152921121913802471e-01) (47, 1.51379899712888121854e+00) (48, 8.90737380816607471345e-01) (49, 1.04987026554679196977e+00) (50, 4.32301840242354962207e-01) (51, 7.85455084987020990539e-01) (52, 5.21335775455560646030e-01) (53, 6.14642761230908996062e-01) (54, 1.17430712877770182523e+00) (55, 8.79312293290248736533e-01) (56, 1.29548299105170561241e+00) (57, 9.40702878126798536229e-01) (58, 1.34813797031399684734e+00) (59, 7.47099092800698527661e-01) (60, 4.86380977706219963519e-01) (61, 2.04013557569711734274e+00) (62, 2.41515745017548777440e+00) (63, 8.29946275206184691520e-01) (64, 2.43205884717851050780e+00) (65, 1.12588993005408019576e-01) (66, 2.26764079584016453595e+00) (67, 2.43385939083260627314e+00) (68, 1.34493843833623949457e+00) (69, 2.44490474163300008925e+00) (70, 6.48087020309873640400e-01) (71, 4.38915341599887542934e-01) (72, 4.22858254616948148197e-01) (73, 2.41853137933164008544e+00) (74, -1.73718960479650907924e-01) (0, 1.18034810153795302057e+01) (1, 3.16286187257642015247e-01) (2, 4.52268417563313707142e-01) (3, 3.18106148030633195667e-01) (4, 4.55689336743230088977e-01) (5, -1.12179562506581498305e+00) (6, -3.60010586915311714407e+00) (7, -8.89266451115912182068e-01) (8, -2.66063577628101866068e+00) (9, -2.93053197908256901627e+00) (10, -2.58198515377311510477e+00) (11, -1.16647300484808891241e+00) (12, 1.88046247048791526080e-01) (13, -7.60127525359618583245e-01) (14, -8.26152131370866960047e-01) (15, -1.94593314596183852849e+00) (16, -2.12472100442424283173e+00) (17, 3.83503469282804432261e-01) (18, -3.98180244383612125247e+00) (19, 2.07440392733997364116e-01) (20, -1.86815762561016174281e+00) (21, -1.36285729412209311029e+00) (22, -3.64172595528467035741e-01) (23, -7.13499569787773624263e-01) (24, -1.91302509583884422506e-01) (25, -8.96396300897644549011e-01) (26, -2.01928478453074466969e+00) (27, 7.08667912696954949148e-01) (28, -8.50973215182710074345e-01) (29, -7.79018417116169481496e-01) (30, -3.94182383432278937718e+00) (31, 2.78275725359630687894e-01) (32, 1.23684908706752016982e+00) (33, 9.97911230096780066390e-01) (34, 3.65936430052822014858e+00) (35, -4.79573702254292355551e-01) (36, -3.20261480285574950955e+00) (37, -1.31683989379883636950e+00) (38, 1.36738352637526627831e+00) (39, -4.69083254582604247673e+00) (40, -9.85461183862887724061e-01) (41, -1.83145991741976454925e+00) (42, -8.03008335408624263074e-01) (43, -3.49435671204977538196e+00) (44, 1.27586665504131957505e+00) (45, -3.23873141823673149631e+00) (46, -9.97938397434448010159e-01) (47, -9.14889079740345945169e-01) (48, -1.46006091454553965647e+00) (49, -7.28062347315965308070e+00) (50, 2.55240842675100187975e+00) (51, -5.53286347985386672832e-01) (52, -8.54012820485671841908e-01) (53, -8.23979502158445287208e-01) (54, -2.60050204025599418500e-01) (55, -1.46893607953313787284e+00) (56, -6.98622283123638432301e+00) (57, 1.53164357432318176677e+00) (58, 2.80402950424470986945e+00) (59, 2.68859307181488071947e+00) (60, 2.80468762047012709626e-01) (61, -3.91956583439245243028e+00) (62, -3.87678498503124746577e+00) (63, -1.39237905898129477045e+00) (64, -3.75990411746985087049e+00) (65, 2.40909040878909541661e+00) (66, 1.61339274675621080490e+00) (67, -1.37941778456013652843e+00) (68, -4.22495988747377648753e-01) (69, -3.96511291709324220633e+00) (70, -7.26133824808862238243e-01) (71, -5.59743005789611380862e+00) (72, -5.39467787442369495210e+00) (73, -4.07879843306094969080e+00) (74, 6.48012613397185965880e-01) (0, 1.49167898988122771264e+00) (1, 2.32779223790289757634e-01) (2, 8.53482748771924593090e-02) (3, 2.42849562635542748357e-01) (4, 8.03184996749181367992e-02) (5, -1.11896027744280779359e+00) (6, 7.49791218319462959840e+00) (7, 8.02546816499246640220e-02) (8, 1.55141980089511244412e-03) (9, 5.08786699048557977676e+00) (10, -1.06522840458966783217e+00) (11, -6.39329074933327135000e-01) (12, 1.51708557023077422743e-01) (13, 1.10624509704858780879e+02) (14, -8.13980572757667386607e-02) (15, -9.93935395072401806082e-01) (16, 1.89080675189239238998e-01) (17, 1.24207179588609037402e-01) (18, 3.64148503119126516481e+01) (19, 1.37198219665296355929e-01) (20, 8.49073337386745308208e+00) (21, -7.17469616541385468711e-02) (22, 2.48304533583288744580e+00) (23, 2.60973329985631874450e+00) (24, -1.21474902359069147906e+00) (25, -4.09599695452596002099e-01) (26, -1.54480082541475849389e+00) (27, 2.76623779319299656354e-01) (28, -6.56561566492968179398e-02) (29, 5.94273680132401604936e+00) (30, -1.18463004261488014102e+00) (31, -6.44589399937417262265e-01) (32, -5.68393755123215854708e-02) (33, -2.27063378201683763180e-01) (34, 5.03980786736126251668e+00) (35, 6.23012169724248199287e+00) (36, 2.72010925907829781423e+00) (37, -5.41066025013361429075e-01) (38, 4.96070307032372592726e-01) (39, 2.05853293329089410690e+01) (40, -8.38943597671083923784e-02) (41, 3.16952410234847761217e+01) (42, -3.07517268131517251817e+00) (43, -6.70723248082179646090e-01) (44, 2.86439936703120068273e-02) (45, 1.29451580029793933413e+00) (46, 6.07071696739187860459e+00) (47, -9.00984871051980995560e-01) (48, 6.98478730245142909183e+00) (49, 3.37511200113202924911e+00) (50, 9.03370527279912099994e-02) (51, 6.02784845703851157594e-01) (52, 6.33872188005044812087e+00) (53, 4.91960875370970924791e+01) (54, 2.78298143431057232178e+00) (55, 2.57286676791873869519e+00) (56, -1.52622430629348015962e+00) (57, -1.79039899558440629423e-01) (58, -1.54879343181105588734e+00) (59, 2.28043243865557326844e-01) (60, -6.96482244857781623848e-02) (61, 5.39267859828726088267e+01) (62, 2.15630221796771657239e+01) (63, -9.40123184745448037258e-02) (64, 7.24654855616362709725e+01) (65, -2.54308468359631889566e-01) (66, 2.94159175418577900629e+00) (67, 1.57673069038910151907e-01) (68, 1.94607023647545567258e+01) (69, 3.63094979995862203737e+01) (70, 1.17431584020908736932e+01) (71, 2.41845664410512455333e+01) (72, 1.59961012287095787343e+01) (73, 7.23595918454201836312e+01) (74, 3.95178179409185648119e-01) (0, 1.50284988378877470971e+00) (1, 1.62615572485491688415e-01) (2, 2.43931089911028742279e-01) (3, 2.28785445365473627533e-01) (4, 9.93986105652302914804e-02) (5, -1.61846516820623742561e+00) (6, 7.66931292393731300905e+00) (7, -4.31463566987502628036e-02) (8, 9.20001941982678816956e-02) (9, 7.07367735867252722670e+00) (10, -4.64047162069086194247e-01) (11, -1.18901031860931705175e+00) (12, 2.79434962041349543860e-01) (13, 1.69426549864311870586e+00) (14, -1.92023571569607975906e-01) (15, -7.13189622687048885297e-01) (16, -1.63858391515448981179e-01) (17, 1.84469414565473832646e-01) (18, 8.07816762929868588117e+01) (19, 1.67131493457563201632e-01) (20, 1.62281141292537043341e+01) (21, -9.20000001848901433066e-02) (22, 1.86661468716178124971e+00) (23, 2.65742568815244606384e+00) (24, 9.72620682821552584585e+00) (25, -2.63408845917894984812e-01) (26, -1.51940607279310779809e+00) (27, 1.96757936261667432110e-01) (28, -2.46894253080302084058e+00) (29, 5.78465016615164895342e+00) (30, -1.11842815811071250032e+00) (31, -2.44037639569192166267e-01) (32, 1.68679991532044465385e-01) (33, -2.57001380803529855257e-01) (34, 4.53809291113793822348e+00) (35, 1.68123878679695248906e+00) (36, 1.27414922953858256172e+00) (37, -1.51036022525421809171e+00) (38, 5.62820393876340197004e-01) (39, 2.06306744940191038040e+01) (40, -9.99228692914179567053e-02) (41, 3.17175040735641218248e+01) (42, 3.94921846595107650657e-01) (43, -6.24006699579734425143e-01) (44, -5.67995551878537618951e-02) (45, 1.32100227159329608462e+00) (46, 3.35895701349671171876e-01) (47, -1.05188501518197208284e+00) (48, 7.01561810298472376957e+00) (49, -2.41001187594921084667e+00) (50, 1.69370203996950186021e-01) (51, 3.73991941032086383512e-01) (52, 6.42362947139337414626e+00) (53, 4.93093900957575996813e+01) (54, 2.48034008308854936331e+00) (55, 2.11998657252983768728e+00) (56, -1.46579443521117425142e+00) (57, -3.30687223556517917444e-01) (58, -1.04721911369523423829e+00) (59, 2.99364848519120263504e-01) (60, 1.08425220576781899950e+00) (61, 1.22729979670137495873e+02) (62, 4.51949151289853929825e+01) (63, -8.28746549536171425721e-03) (64, 1.67430802326905848076e+02) (65, -2.78549717904398141943e-01) (66, -6.69595361116305798355e-01) (67, -9.60968263514252241109e-01) (68, 1.07007764346747364925e+01) (69, 8.08995604744267353681e+01) (70, 1.17694915478881263482e+01) (71, 2.42671764745037599198e+01) (72, 1.61609903184727450309e+01) (73, 1.67329149585473658135e+02) (74, 3.25960904491661096483e-01) (0, -3.70015719823621136442e+00) (1, -1.12007242646793250818e-01) (2, -1.43611063268760497103e-01) (3, -1.74111013320068147570e-01) (4, -1.44393411484340483675e-01) (5, 8.96975195243670198053e-01) (6, 9.64453493548219964460e-01) (7, 4.75657457400302449702e-02) (8, 1.41259424111299125570e+00) (9, 1.05273361165017931285e+00) (10, 1.53384666785585777049e+00) (11, 6.26281118658363333829e-01) (12, -1.68169646056632454689e-01) (13, 7.85184630593992460845e-01) (14, 6.90332246106701075128e-01) (15, 7.11546583586009306899e-01) (16, 5.74681240768419754339e-01) (17, -1.00403656625730770130e-02) (18, 2.34486606755944215763e+00) (19, -2.43472232217740482130e-02) (20, 9.49303102539445498032e-01) (21, 8.18582647470666113776e-01) (22, 8.47673772228275446139e-01) (23, 6.47290455788419594185e-01) (24, 6.32305729412971362358e-01) (25, 7.96244453677018682036e-01) (26, 6.92844955967995668189e-01) (27, 2.81550056539425275215e-01) (28, 6.25560870977197258647e-01) (29, 6.60708219233995697195e-01) (30, 8.44782295263435401012e-01) (31, 9.79297839776682832458e-01) (32, 9.22339832281841243145e-01) (33, 9.06267690798583380740e-01) (34, 7.25080855207797303486e-01) (35, 9.28590218256325927726e-01) (36, 9.24598508394855245207e-01) (37, 8.62272933735613200668e-01) (38, -1.89659473603596973046e-01) (39, 2.03040498762557763968e+00) (40, 1.48084450532272093870e-01) (41, 7.57125499604943241749e-01) (42, 1.32244185119490342828e+00) (43, 8.14485706685363020085e-01) (44, -1.38400677593290749590e-01) (45, 1.48557820004110263667e+00) (46, 5.77593382323291285041e-02) (47, 1.60908657121367371090e+00) (48, 9.57137411363664702968e-01) (49, 1.09163996380900663041e+00) (50, 5.08811590951716796738e-01) (51, 8.22336478501583867384e-01) (52, 5.46047637662019691440e-01) (53, 6.20368469089709884123e-01) (54, 1.22501000553946259863e+00) (55, 8.10521678685298785361e-01) (56, 1.38713292875247296010e+00) (57, 1.09369243701720031403e+00) (58, 1.35370818904503753544e+00) (59, 5.67794523178410615039e-01) (60, 5.11410368756558653125e-01) (61, 2.59601239278401774158e+00) (62, 2.37960766795893885472e+00) (63, 8.96083201618767088981e-01) (64, 2.32964333020596914281e+00) (65, 2.60637934838362561596e-01) (66, 2.22360395068531158103e+00) (67, 1.20198503718450666611e+00) (68, 1.32002237293231439175e+00) (69, 2.36473337261683003163e+00) (70, 7.69510495754190393392e-01) (71, 4.90395926954506122808e-01) (72, 4.45578052203169261425e-01) (73, 2.26509331785588674535e+00) (74, -2.32145849868712284003e-01) (0, 5.76558158737740011901e+00) (1, 4.30244520099052674134e-01) (2, 3.91382343859562165100e-01) (3, 4.13243718237766510804e-01) (4, 4.79839682371505982239e-01) (5, -9.09388805633504437864e-01) (6, -1.54471052734483160762e+00) (7, 6.17699026367649395297e-01) (8, 4.41224930771211720781e+00) (9, 3.47885195832701565877e+00) (10, 2.31200967191788553379e+00) (11, -3.48772206359368730499e-01) (12, 2.03923865891909750214e-01) (13, -9.57630245765454968243e-01) (14, -1.36247445895238694646e+00) (15, 3.07591306487079707566e+00) (16, -4.61296071728832413061e-01) (17, 6.00103546127916387398e-01) (18, 3.64508996928111344005e+01) (19, 4.83133252980811500610e-01) (20, 4.78152491516105460079e+00) (21, 9.40953622795357880193e-01) (22, -4.64915384983490900805e-02) (23, 2.91636838541087550780e+00) (24, -2.39578885196380975131e+00) (25, -9.81551777518877788253e-01) (26, 2.28015778578584571434e+00) (27, 1.77623429678453598202e-01) (28, 2.25747814022448878291e+00) (29, 5.73732070396000626289e+00) (30, 1.60194792387246542908e+00) (31, -2.92603084588394346532e-01) (32, -1.17169710563142862036e-01) (33, -1.35884657688831983480e-01) (34, 1.28318392107340817354e+00) (35, 1.79530257142760119038e+00) (36, 3.99039111148098557535e+00) (37, -1.53723410556739081834e+00) (38, 1.86302098587486075765e+00) (39, 2.06936664297788865952e+01) (40, 2.97505913805607757894e-01) (41, 1.47213999301943943010e+01) (42, -1.50536143846958481163e+00) (43, 8.82202158311593365170e+00) (44, 1.50848734781188231757e+00) (45, 2.46148307689280670951e-01) (46, 9.70470586199817797368e-02) (47, -1.25902645602570983918e+00) (48, 6.85019109620362254276e+00) (49, 2.44403755114579634977e+00) (50, 1.92951909984403646714e-01) (51, 7.40847922731977803767e-02) (52, 6.03685167047470017110e+00) (53, 2.19554976008751872030e+01) (54, 1.37437945541976547226e+00) (55, -3.62288716182104786334e-01) (56, 1.53836570252967730354e+00) (57, -1.28943440295349209812e+00) (58, -1.45429830955226796485e-01) (59, -7.72783786388613058715e-02) (60, -1.16417657209300307031e-01) (61, 5.38829303008571898204e+01) (62, 2.15658652765294682752e+01) (63, 7.40343163370026813297e-01) (64, 7.24282022230299133980e+01) (65, 2.11966707080927418971e+00) (66, 1.06594374197971539786e+01) (67, -1.73892402664863721107e+00) (68, 1.93549115336059323056e+01) (69, 3.64376286292449265147e+01) (70, 2.11149997393311394944e+01) (71, 2.41839898033659466137e+01) (72, 1.61412157176092883049e+01) (73, 7.24216289631994385445e+01) (74, -4.99535410369416121856e-01) (75, 5.26417841308173484194e-01) (76, 3.72712277345356224334e-01) (77, -3.49603719411517688265e-01) (78, 4.75222912368300831609e-01) (79, 3.76303110846660182620e-01) (80, -1.28459495085569863626e-01) (81, 4.07062694499598920483e-01) (82, 4.66613523731337964673e-01) (83, 3.92972910785361173591e-01) (84, 4.20755200157271802563e-01) (85, 3.32410631323803107406e-01) 
