FANN_FLO_2.1
num_layers=3
learning_rate=0.700000
connection_rate=1.000000
network_type=0
learning_momentum=0.000000
training_algorithm=2
train_error_function=1
train_stop_function=1
cascade_output_change_fraction=0.010000
quickprop_decay=-0.000100
quickprop_mu=1.750000
rprop_increase_factor=1.200000
rprop_decrease_factor=0.500000
rprop_delta_min=0.000000
rprop_delta_max=50.000000
rprop_delta_zero=0.100000
cascade_output_stagnation_epochs=12
cascade_candidate_change_fraction=0.010000
cascade_candidate_stagnation_epochs=12
cascade_max_out_epochs=150
cascade_min_out_epochs=50
cascade_max_cand_epochs=150
cascade_min_cand_epochs=50
cascade_num_candidate_groups=2
bit_fail_limit=1.00000000000000005551e-01
cascade_candidate_limit=1.00000000000000000000e+03
cascade_weight_multiplier=4.00000000000000022204e-01
cascade_activation_functions_count=10
cascade_activation_functions=3 5 7 8 10 11 14 15 16 17 
cascade_activation_steepnesses_count=4
cascade_activation_steepnesses=2.50000000000000000000e-01 5.00000000000000000000e-01 7.50000000000000000000e-01 1.00000000000000000000e+00 
layer_sizes=25 11 2 
scale_included=0
neurons (num_inputs, activation_function, activation_steepness)=(0, 0, 0.00000000000000000000e+00) (0, 0, 0.00000000000000000000e+00) (0, 0, 0.00000000000000000000e+00) (0, 0, 0.00000000000000000000e+00) (0, 0, 0.00000000000000000000e+00) (0, 0, 0.00000000000000000000e+00) (0, 0, 0.00000000000000000000e+00) (0, 0, 0.00000000000000000000e+00) (0, 0, 0.00000000000000000000e+00) (0, 0, 0.00000000000000000000e+00) (0, 0, 0.00000000000000000000e+00) (0, 0, 0.00000000000000000000e+00) (0, 0, 0.00000000000000000000e+00) (0, 0, 0.00000000000000000000e+00) (0, 0, 0.00000000000000000000e+00) (0, 0, 0.00000000000000000000e+00) (0, 0, 0.00000000000000000000e+00) (0, 0, 0.00000000000000000000e+00) (0, 0, 0.00000000000000000000e+00) (0, 0, 0.00000000000000000000e+00) (0, 0, 0.00000000000000000000e+00) (0, 0, 0.00000000000000000000e+00) (0, 0, 0.00000000000000000000e+00) (0, 0, 0.00000000000000000000e+00) (0, 0, 0.00000000000000000000e+00) (25, 6, 5.00000000000000000000e-01) (25, 6, 5.00000000000000000000e-01) (25, 6, 5.00000000000000000000e-01) (25, 6, 5.00000000000000000000e-01) (25, 6, 5.00000000000000000000e-01) (25, 6, 5.00000000000000000000e-01) (25, 6, 5.00000000000000000000e-01) (25, 6, 5.00000000000000000000e-01) (25, 6, 5.00000000000000000000e-01) (25, 6, 5.00000000000000000000e-01) (0, 6, 0.00000000000000000000e+00) (11, 6, 5.00000000000000000000e-01) (0, 6, 0.00000000000000000000e+00) 
connections (connected_to_neuron, weight)=(0, -6.72210813596604506159e-01) (1, -1.05056946103243096374e-02) (2, -3.35337852065233296694e-02) (3, -1.29702612472024358947e-01) (4, -4.38807343070177144351e-02) (5, -3.84777240519239616123e-01) (6, 3.69875072611280870660e+01) (7, 9.64013954446614640403e-01) (8, 5.34786598571583038364e+00) (9, 2.01707197545211824874e+00) (10, 4.92355168804007004013e+00) (11, 7.72785409188685434856e-02) (12, 1.05364887364853032636e+00) (13, 9.43394923822534181568e+00) (14, -9.20911607334615078813e-01) (15, -5.54177568792809036036e-02) (16, -3.75471014301693384319e-01) (17, -1.19100667454818343050e-01) (18, 8.59535951170712841929e+00) (19, -6.82174757544820042909e-02) (20, 1.01132508009391379744e+01) (21, -7.09483096897557397043e-02) (22, 5.84153789309921012141e-01) (23, 2.34320937867462143755e-02) (24, -8.33162808570085955395e-02) (0, 3.57772722263368336826e+00) (1, 2.05722415521027462981e-01) (2, 2.80601648315073948226e-01) (3, 2.28008163794161694549e-01) (4, 3.17787153347613315901e-01) (5, -2.19482518007130505966e-01) (6, -3.02704212896230284713e+00) (7, -1.72449276345058882809e-01) (8, -3.23178376146845147687e+00) (9, -5.84512534043068043843e+00) (10, -4.20283915178707712101e+00) (11, 2.10225544942395856096e-02) (12, 1.81994911503957523813e+00) (13, -4.46473950594015178694e+00) (14, 3.77987811216340174880e-01) (15, 2.00441580117774638403e-02) (16, -6.14898721810975198987e-02) (17, 2.76035525572518869453e-01) (18, -1.29432193318188062392e+01) (19, -1.20559243271692928534e-01) (20, -8.26622641795701884604e-01) (21, 3.41561639459969229593e-02) (22, -6.07101653415685615922e-02) (23, -8.59798536769703358740e-02) (24, -1.36283525430392175870e-02) (0, 1.81602899225960392471e+01) (1, 2.71282722815297749897e-01) (2, 2.49466443076156313419e-01) (3, 2.46178933992408449649e-01) (4, 2.44167470946334536075e-01) (5, -4.30918266379606773597e+00) (6, -9.43528019517720695220e-01) (7, -9.64158372617198999865e-02) (8, -1.14030635116218470593e+00) (9, -2.75433574409943071615e+00) (10, -1.11452419372771105444e+00) (11, -1.05909506419718923986e+00) (12, 2.17963612606301815333e-01) (13, -1.24580226167407879245e+01) (14, 1.24607243004313605894e+00) (15, 6.36533132771300969033e-01) (16, 3.80416905347896572298e-01) (17, 8.08068849139807587889e-01) (18, -6.17533501201506496159e+00) (19, 5.00475252489450017634e-01) (20, -4.98163014094555212097e+00) (21, 2.52886990077492768147e-01) (22, -6.81745486103298103941e-01) (23, -2.66442120287707551185e+00) (24, 9.13884447352799167419e-01) (0, 6.00172522450964152085e+00) (1, 2.05178829842600884970e-01) (2, 2.75861400180850091512e-01) (3, 2.33726757579836907919e-01) (4, 3.35805664771590295370e-01) (5, -6.59855328299737697861e-01) (6, -2.59726850815578158560e+00) (7, -6.16575236953197158840e-01) (8, -2.75636590135831616166e+00) (9, -3.91544656517994926759e+00) (10, -3.54256933338805568567e+00) (11, -3.45267530004933709264e-01) (12, 8.34929833977429702863e-02) (13, -4.53048354833669719710e+00) (14, 5.07435204335675571485e-01) (15, -4.87111249555818338897e-03) (16, 9.95336700388967619835e-03) (17, 1.79575265121678762092e-01) (18, -1.30097488665759435378e+01) (19, 5.45095244567970135807e-02) (20, -8.21123234146661662436e-01) (21, -1.28313000075376798526e-01) (22, -5.40264150907770024368e-01) (23, -5.85170890544585597937e-01) (24, 1.07821654231568531124e-01) (0, 3.19936658329970455839e+01) (1, 2.88919150323333095987e-01) (2, 1.95996101439656622567e-01) (3, 2.02701325953664190926e-01) (4, 1.51241123170317959268e-01) (5, -4.77183017441098211719e+00) (6, -2.27595905510979301667e+00) (7, -4.91079143504006554455e-02) (8, -1.22751637307523631115e+00) (9, -3.20814382408766407551e+00) (10, -1.17904346873618415259e+00) (11, -7.37945058476012438753e-01) (12, 8.90976489828534667925e-02) (13, -1.04538600351566444147e+01) (14, 1.37586785277544820794e+00) (15, 6.49386323586911951011e-01) (16, 3.21252293232986041449e-01) (17, 6.62878781624821167284e-01) (18, -7.30838002639749362288e+00) (19, 3.70487318928844511223e-01) (20, -5.01805559775628751140e+00) (21, 2.59563288309359763151e-01) (22, -8.17263592247573278371e-01) (23, -3.82276533768404425118e+00) (24, 1.24549254955352961538e+00) (0, 4.87922257276595050524e-01) (1, 5.57144435765619339129e-01) (2, 4.36948778750772537371e-01) (3, 5.75132983448381485125e-01) (4, 4.20028160037870468280e-01) (5, 5.24585109120959192097e+00) (6, -1.36018240203472173810e+00) (7, 5.68547662852657453847e-01) (8, -1.89009588442787879181e+00) (9, -3.49199183463875906241e+00) (10, -3.20286745681115458950e+00) (11, 3.09327200289982506831e-01) (12, 9.57319216791595017924e+00) (13, 2.28005930286384241867e+01) (14, 3.76959225580840273651e-01) (15, 1.58935226317120578687e-03) (16, -2.73645364673344604345e-01) (17, -1.25097224093417808133e-01) (18, 2.95132929311325646893e+01) (19, 1.17243905933591435753e-01) (20, 2.45430832460095800229e+01) (21, 2.27357883766873991593e-01) (22, 1.36615005847914550152e+00) (23, 4.37953195193271938024e+00) (24, 2.15594952559683084026e-01) (0, 2.77186023664150802404e+01) (1, 2.58250561604263462190e-01) (2, 2.01692407080890812043e-01) (3, 2.37025746205808740541e-01) (4, 2.08160315701725162629e-01) (5, -4.32658838057247230324e+00) (6, -2.17762860207157737946e+00) (7, 9.18309291462959476071e-01) (8, -1.25055029292488240067e+00) (9, -3.76954514636014392792e+00) (10, -1.01415166320774874364e+00) (11, -9.15853128901390478589e-01) (12, 1.81281723806428818335e-01) (13, -1.23418785258499035251e+01) (14, 1.39809765823137110985e+00) (15, 2.05186479246576181090e-01) (16, 4.38250752098551132896e-01) (17, 5.88349775203210523244e-01) (18, -7.64150805813803923883e+00) (19, 4.04628719009698378795e-01) (20, -3.91893661541006910198e+00) (21, 2.17723221794813653895e-01) (22, -5.16051398359538948668e-01) (23, -4.48397297405793437974e+00) (24, 9.81198631192348513785e-01) (0, 5.29541230293333886614e-01) (1, 5.20603258857006312432e-01) (2, 3.61919929036373433373e-01) (3, 5.08290325054401637139e-01) (4, 3.33781261691326436303e-01) (5, 5.38656464135998636067e+00) (6, -1.50821194921942747236e+00) (7, -7.17302883070137231591e-02) (8, -1.77867512635931657172e+00) (9, -3.20467955446842678313e+00) (10, -3.45355332312752416613e+00) (11, -1.44931441243491110349e-01) (12, 9.52282838139737641825e+00) (13, 2.28645995956397669602e+01) (14, 2.66801400528102083953e-01) (15, -6.79161790776661444813e-02) (16, -2.69277461798398010107e-01) (17, 1.71504155030444312147e-02) (18, 2.96268587486078835980e+01) (19, -4.95251217763695017471e-02) (20, 2.45418775185515798398e+01) (21, 8.28690915151124696258e-01) (22, 1.31283936439598902801e+00) (23, 3.99664911070240336244e+00) (24, 1.76517559458563538799e-01) (0, 1.87515637462109974187e+00) (1, 2.39487755113635125692e-01) (2, 1.55235285872016043340e-01) (3, 1.80960345083270135458e-01) (4, 3.36126427167449060018e-01) (5, -4.89129919799385970425e-01) (6, -2.59647251792712863150e+00) (7, -6.69368846218446278407e-01) (8, -2.96905209088305666043e+00) (9, -6.99721213949481413152e+00) (10, -3.49499432898923290125e+00) (11, -3.17042604894935157664e-03) (12, 8.03215347359778064629e-01) (13, -4.51517843901462612166e+00) (14, 4.66681935941829273418e-01) (15, 5.83080451787543821429e-02) (16, 7.34854047063193127620e-02) (17, 2.08286079963884762645e-01) (18, -1.30998707616507878981e+01) (19, 2.22757375284590788955e-02) (20, -8.26687551253862284995e-01) (21, 4.99073796370667205347e-02) (22, 3.58239727037525657050e-02) (23, -5.31116309122297500234e-02) (24, -3.75485458575915281854e-02) (0, 4.45989943157810042607e-01) (1, -2.67373022385180181271e-01) (2, -2.46538315661490120556e-01) (3, -2.51759120024979299313e-01) (4, -2.72153389401972478634e-01) (5, -2.33414399696964647291e-01) (6, -8.41411528505981554105e-01) (7, -1.30450076411370874396e+00) (8, -1.75165437230378362443e+00) (9, -5.26555792376736775395e-01) (10, -8.40414049106279592571e-01) (11, 1.23651957077760443759e+00) (12, -2.65277358552709452422e-01) (13, 5.93037088446155324917e-01) (14, -1.21128313598091814640e+01) (15, -2.07646835729077161581e-01) (16, -3.63421518328043702262e-02) (17, -1.71797647335702519111e-01) (18, -2.59747203319951769362e-01) (19, -1.30235645433564334317e-01) (20, 6.15769275322080936186e-02) (21, -2.08185705138720278384e+00) (22, 1.07458308558011239597e+00) (23, 1.05469110890066858355e-01) (24, -4.49553486972471272320e-02) (25, 4.22050495466437691761e-01) (26, -1.64165943687422932751e-01) (27, -3.74780034700965325456e-01) (28, -1.64907507424815358288e-01) (29, -1.53295474304759204998e-01) (30, 5.84347113117389405090e-01) (31, -3.27140418867206017595e-01) (32, 6.09295382246188954589e-01) (33, -1.77539907222254850216e-01) (34, -1.44316012694592987753e-01) (35, 3.78015047012374039159e-01) 
