FANN_FLO_2.1
num_layers=3
learning_rate=0.700000
connection_rate=1.000000
network_type=0
learning_momentum=0.000000
training_algorithm=2
train_error_function=1
train_stop_function=1
cascade_output_change_fraction=0.010000
quickprop_decay=-0.000100
quickprop_mu=1.750000
rprop_increase_factor=1.200000
rprop_decrease_factor=0.500000
rprop_delta_min=0.000000
rprop_delta_max=50.000000
rprop_delta_zero=0.100000
cascade_output_stagnation_epochs=12
cascade_candidate_change_fraction=0.010000
cascade_candidate_stagnation_epochs=12
cascade_max_out_epochs=150
cascade_min_out_epochs=50
cascade_max_cand_epochs=150
cascade_min_cand_epochs=50
cascade_num_candidate_groups=2
bit_fail_limit=1.00000000000000005551e-01
cascade_candidate_limit=1.00000000000000000000e+03
cascade_weight_multiplier=4.00000000000000022204e-01
cascade_activation_functions_count=10
cascade_activation_functions=3 5 7 8 10 11 14 15 16 17 
cascade_activation_steepnesses_count=4
cascade_activation_steepnesses=2.50000000000000000000e-01 5.00000000000000000000e-01 7.50000000000000000000e-01 1.00000000000000000000e+00 
layer_sizes=9 4 2 
scale_included=0
neurons (num_inputs, activation_function, activation_steepness)=(0, 0, 0.00000000000000000000e+00) (0, 0, 0.00000000000000000000e+00) (0, 0, 0.00000000000000000000e+00) (0, 0, 0.00000000000000000000e+00) (0, 0, 0.00000000000000000000e+00) (0, 0, 0.00000000000000000000e+00) (0, 0, 0.00000000000000000000e+00) (0, 0, 0.00000000000000000000e+00) (0, 0, 0.00000000000000000000e+00) (9, 6, 5.00000000000000000000e-01) (9, 6, 5.00000000000000000000e-01) (9, 6, 5.00000000000000000000e-01) (0, 6, 0.00000000000000000000e+00) (4, 4, 5.00000000000000000000e-01) (0, 4, 0.00000000000000000000e+00) 
connections (connected_to_neuron, weight)=(0, -1.64874088920992467600e+00) (1, 1.71264633431810797681e+00) (2, 1.82317394994022441423e+00) (3, -2.12122214920970858509e-01) (4, 3.41894148069469050455e-01) (5, -8.23873330877058940303e-01) (6, -3.30880807561801104644e-02) (7, -5.65728373952383178924e-01) (8, -1.72018551238220740451e+00) (0, -1.60752038814467046457e+00) (1, 1.56475060328621329298e+00) (2, 1.83746545620085788286e+00) (3, -2.03162325509044588978e-01) (4, 3.01334580558387354898e-01) (5, -4.96498824171044517151e-01) (6, 3.35272117513849166048e-01) (7, -6.79520517745990981773e-01) (8, -1.61948134187022207975e+00) (0, -6.14501563836348463354e-01) (1, -6.05717853964429675528e-01) (2, 1.60973194398207937184e+01) (3, -8.69760130847460066761e-02) (4, -3.92461699000695718453e-02) (5, 7.29203148331778322477e-02) (6, -7.77902636598212460228e-01) (7, 1.96393242201686357706e-01) (8, -6.04788502682459760962e-01) (9, 9.53536332576040024378e+00) (10, 9.27253621595621346785e+00) (11, 4.88382280726640527480e-01) (12, -1.56429804930773941329e+00) 
