FANN_FLO_2.1
num_layers=3
learning_rate=0.700000
connection_rate=1.000000
network_type=0
learning_momentum=0.000000
training_algorithm=2
train_error_function=1
train_stop_function=1
cascade_output_change_fraction=0.010000
quickprop_decay=-0.000100
quickprop_mu=1.750000
rprop_increase_factor=1.200000
rprop_decrease_factor=0.500000
rprop_delta_min=0.000000
rprop_delta_max=50.000000
rprop_delta_zero=0.100000
cascade_output_stagnation_epochs=12
cascade_candidate_change_fraction=0.010000
cascade_candidate_stagnation_epochs=12
cascade_max_out_epochs=150
cascade_min_out_epochs=50
cascade_max_cand_epochs=150
cascade_min_cand_epochs=50
cascade_num_candidate_groups=2
bit_fail_limit=1.00000000000000005551e-01
cascade_candidate_limit=1.00000000000000000000e+03
cascade_weight_multiplier=4.00000000000000022204e-01
cascade_activation_functions_count=10
cascade_activation_functions=3 5 7 8 10 11 14 15 16 17 
cascade_activation_steepnesses_count=4
cascade_activation_steepnesses=2.50000000000000000000e-01 5.00000000000000000000e-01 7.50000000000000000000e-01 1.00000000000000000000e+00 
layer_sizes=10 4 2 
scale_included=0
neurons (num_inputs, activation_function, activation_steepness)=(0, 0, 0.00000000000000000000e+00) (0, 0, 0.00000000000000000000e+00) (0, 0, 0.00000000000000000000e+00) (0, 0, 0.00000000000000000000e+00) (0, 0, 0.00000000000000000000e+00) (0, 0, 0.00000000000000000000e+00) (0, 0, 0.00000000000000000000e+00) (0, 0, 0.00000000000000000000e+00) (0, 0, 0.00000000000000000000e+00) (0, 0, 0.00000000000000000000e+00) (10, 6, 5.00000000000000000000e-01) (10, 6, 5.00000000000000000000e-01) (10, 6, 5.00000000000000000000e-01) (0, 6, 0.00000000000000000000e+00) (4, 4, 5.00000000000000000000e-01) (0, 4, 0.00000000000000000000e+00) 
connections (connected_to_neuron, weight)=(0, 2.16730216562607512498e-02) (1, 5.61628146474007050593e-01) (2, 3.84277870549005862166e-01) (3, -4.65650607523738907512e-02) (4, 2.67314412642004513299e-02) (5, 6.97070450457605850225e-02) (6, 2.45974183084496311746e-01) (7, -1.75099812128323428784e-01) (8, 2.33238409076813757448e-01) (9, -2.54637361861829265505e-03) (0, -2.44551082575143019504e-01) (1, 1.86528400391349280518e+00) (2, 9.87532189334770160727e-01) (3, -1.28432690057928372562e-01) (4, -1.33538849720556296319e-01) (5, 3.07735201802350373523e-02) (6, 2.37303376693714568324e-01) (7, -1.54809011785246641857e+00) (8, -3.53113252183829343100e-02) (9, -6.15520478765007150734e-01) (0, -1.51214416726529310431e+00) (1, 2.20804870410251563584e+00) (2, 2.08122798049891555294e+00) (3, -1.14467648810407474080e+00) (4, -2.67941006633115264002e-01) (5, 4.29935327704377770464e-02) (6, 1.39671029746992747533e+00) (7, -4.15428871157814150195e+00) (8, 1.25509838840136311866e+00) (9, -1.77586000477452876645e+00) (10, 2.51129657615671908477e-01) (11, 2.13568290626709345048e+00) (12, 1.61855587015584205801e+01) (13, -3.46383765569287316310e+00) 
