FANN_FLO_2.1
num_layers=3
learning_rate=0.700000
connection_rate=1.000000
network_type=0
learning_momentum=0.000000
training_algorithm=2
train_error_function=1
train_stop_function=1
cascade_output_change_fraction=0.010000
quickprop_decay=-0.000100
quickprop_mu=1.750000
rprop_increase_factor=1.200000
rprop_decrease_factor=0.500000
rprop_delta_min=0.000000
rprop_delta_max=50.000000
rprop_delta_zero=0.100000
cascade_output_stagnation_epochs=12
cascade_candidate_change_fraction=0.010000
cascade_candidate_stagnation_epochs=12
cascade_max_out_epochs=150
cascade_min_out_epochs=50
cascade_max_cand_epochs=150
cascade_min_cand_epochs=50
cascade_num_candidate_groups=2
bit_fail_limit=1.00000000000000005551e-01
cascade_candidate_limit=1.00000000000000000000e+03
cascade_weight_multiplier=4.00000000000000022204e-01
cascade_activation_functions_count=10
cascade_activation_functions=3 5 7 8 10 11 14 15 16 17 
cascade_activation_steepnesses_count=4
cascade_activation_steepnesses=2.50000000000000000000e-01 5.00000000000000000000e-01 7.50000000000000000000e-01 1.00000000000000000000e+00 
layer_sizes=15 11 2 
scale_included=0
neurons (num_inputs, activation_function, activation_steepness)=(0, 0, 0.00000000000000000000e+00) (0, 0, 0.00000000000000000000e+00) (0, 0, 0.00000000000000000000e+00) (0, 0, 0.00000000000000000000e+00) (0, 0, 0.00000000000000000000e+00) (0, 0, 0.00000000000000000000e+00) (0, 0, 0.00000000000000000000e+00) (0, 0, 0.00000000000000000000e+00) (0, 0, 0.00000000000000000000e+00) (0, 0, 0.00000000000000000000e+00) (0, 0, 0.00000000000000000000e+00) (0, 0, 0.00000000000000000000e+00) (0, 0, 0.00000000000000000000e+00) (0, 0, 0.00000000000000000000e+00) (0, 0, 0.00000000000000000000e+00) (15, 6, 5.00000000000000000000e-01) (15, 6, 5.00000000000000000000e-01) (15, 6, 5.00000000000000000000e-01) (15, 6, 5.00000000000000000000e-01) (15, 6, 5.00000000000000000000e-01) (15, 6, 5.00000000000000000000e-01) (15, 6, 5.00000000000000000000e-01) (15, 6, 5.00000000000000000000e-01) (15, 6, 5.00000000000000000000e-01) (15, 6, 5.00000000000000000000e-01) (0, 6, 0.00000000000000000000e+00) (11, 6, 5.00000000000000000000e-01) (0, 6, 0.00000000000000000000e+00) 
connections (connected_to_neuron, weight)=(0, 3.95706605911641151607e+00) (1, 2.84439028074726762974e-01) (2, 2.67713115384564104282e-01) (3, 2.71181435158238115513e-01) (4, 3.46381218006596214298e-01) (5, -1.05160796511281606769e+00) (6, 5.37012877577610669988e+00) (7, 3.77081309370534911718e-01) (8, 3.24930191556354097671e+00) (9, 5.38206248992748914617e+00) (10, 1.28805480797039439977e+00) (11, 2.68647864618048171081e+00) (12, 2.76069507640857159103e+00) (13, -1.93826204109293787070e+00) (14, -4.49400154658250061690e-01) (0, 1.28091619386988986307e+00) (1, 4.60312321454562009548e-02) (2, 4.59702267915285886501e-02) (3, 1.47826816108850345177e-01) (4, 1.41936252978471649788e-01) (5, -1.13637375430110854069e+00) (6, -7.63079074922974331940e-01) (7, 2.84396804752356444079e-02) (8, -1.51597194877189167528e+00) (9, -9.76888945874234027045e-01) (10, -8.11514160417321051000e-01) (11, -7.77760021377203236703e-01) (12, 1.06386957325602016233e+00) (13, -8.79282279809416533745e-01) (14, 9.07130520979002596960e-02) (0, -1.14350406314215042869e+01) (1, -6.23171933293524132891e-02) (2, 5.41721388399419440107e-02) (3, 7.51715406477269781904e-02) (4, 4.96844008266744269209e-02) (5, 8.38058931239607174390e-01) (6, 8.54268624177763502558e-01) (7, 1.23758013476844945522e-02) (8, 6.74206012056185466363e-01) (9, 8.91049027539124072206e-01) (10, 7.73866719340962072593e-01) (11, 7.94117001334731620332e-01) (12, -9.28054789075980629542e-03) (13, 1.46210055568538410675e+00) (14, -2.27948071549071540343e-01) (0, 1.05945760779702062848e+01) (1, 1.70344117544242307227e-01) (2, 2.27940096966573219062e-01) (3, 2.37165927402326059958e-01) (4, 1.42646274976083203834e-01) (5, -1.21710323794837860234e+00) (6, -3.13601494843186756611e+00) (7, 1.57659738771268292945e-01) (8, -1.66162425487645437627e+00) (9, -3.09713510686578175068e+00) (10, -1.67724669344277765859e+00) (11, -3.05737160146675179817e+00) (12, 2.20467188532512653465e-01) (13, 7.27322328144015428641e-01) (14, 2.83833717647395233907e-01) (0, 8.70541299559965686683e+00) (1, 1.76508697704375813742e-02) (2, 1.05615456684023265033e-01) (3, 1.99934710843950591563e-01) (4, 1.69789019064010213156e-02) (5, -1.98559925104676215923e+00) (6, -4.66140129998574903603e-01) (7, 1.06182056624439219439e-01) (8, -1.71578857204007471926e-02) (9, -5.02837395507369722125e-01) (10, -1.11897381280169172513e+00) (11, -2.62314180385441519938e-01) (12, 2.83118546500398637900e-01) (13, -9.24726498099554206078e-01) (14, 1.12096037678409726768e-01) (0, 4.02480360828011107799e+00) (1, 3.08779280694391922157e-01) (2, 3.31203352721598287545e-01) (3, 1.66717696996596220771e-01) (4, 2.19916980775263670722e-01) (5, -1.11583611238111135577e+00) (6, 5.26962783449955640691e+00) (7, 1.33251584966465774773e-01) (8, 3.56548025948558633402e+00) (9, 5.38099826389618574041e+00) (10, 1.28182328243772358789e+00) (11, 3.13131896972312828709e+00) (12, 2.61450032037753521408e+00) (13, -1.87876329141957132407e+00) (14, -4.88826377101830689131e-01) (0, 6.14943672320765077899e+00) (1, 5.61612019691509978259e-01) (2, 5.19976744804425128343e-01) (3, 5.44660071287197844470e-01) (4, 5.52355969700855986559e-01) (5, -2.24834525383817762645e+00) (6, 4.46234433685048781371e+00) (7, 6.31828121593989155969e-01) (8, 8.78466572174128490502e-01) (9, 4.28145915310637903417e+00) (10, 9.63532550290895350997e-01) (11, 5.84830092734776396668e+00) (12, 3.09773372449858852562e+00) (13, -3.95618385925445092965e+00) (14, -3.94581453799940307103e-01) (0, 1.18616377040463794046e+00) (1, 7.90963798433817616429e-02) (2, 1.35163928535608185433e-01) (3, 1.63297782805589541955e-01) (4, 9.82761785060442538686e-02) (5, -1.14442764566186827579e+00) (6, -9.42965036806126644109e-01) (7, -4.35245559787684338504e-03) (8, -1.73286435625325330179e+00) (9, -1.11105001586343865583e+00) (10, -9.29619482539894681494e-01) (11, -8.77729840565321217660e-01) (12, 1.03321594438137442928e+00) (13, -1.02865689521044623156e+00) (14, 7.99545441011027119282e-02) (0, 1.35505165382939685159e+00) (1, 9.70532609844548393996e-02) (2, 6.13434005025455426907e-03) (3, 9.51836793446881462843e-02) (4, 6.55413507247311760695e-02) (5, -1.17251106695178908268e+00) (6, -8.67586922770981816555e-01) (7, 1.11304367321968716853e-01) (8, -1.65207886940609105508e+00) (9, -9.99888732313906070104e-01) (10, -7.92889158398314641829e-01) (11, -8.93334422736184463609e-01) (12, 1.16502757808746704171e+00) (13, -1.01372925465315710802e+00) (14, 6.07814882138804218892e-02) (0, 2.81864752681504660003e+00) (1, 4.40252138996465036680e-02) (2, 1.05092996242080419234e-01) (3, 1.05883115413222997359e-01) (4, 3.17983492040974854986e-02) (5, -1.12698484928254050175e+00) (6, -9.71503576811810320990e-01) (7, 2.68643483402735624987e-02) (8, -1.49513583761375912218e+00) (9, -7.62967047993118985261e-01) (10, -9.28221888065739797469e-01) (11, -8.88779335757962196674e-01) (12, 1.07997672698082380904e+00) (13, -9.76169175406397582329e-01) (14, 1.57514491707677950494e-01) (15, 4.19678406524887637197e-01) (16, -1.46933189215920245729e-01) (17, 8.82471057358386712366e-01) (18, -1.15242881928777046729e-01) (19, -1.39995293944947002407e-01) (20, 4.14234602558842257558e-01) (21, 4.72197648963020022439e-01) (22, -4.01812854422814724753e-01) (23, -2.55454146804702741935e-01) (24, -2.64201286178001981675e-01) (25, 3.49738531284981168934e-01) 
