FANN_FLO_2.1
num_layers=3
learning_rate=0.700000
connection_rate=1.000000
network_type=0
learning_momentum=0.000000
training_algorithm=2
train_error_function=1
train_stop_function=1
cascade_output_change_fraction=0.010000
quickprop_decay=-0.000100
quickprop_mu=1.750000
rprop_increase_factor=1.200000
rprop_decrease_factor=0.500000
rprop_delta_min=0.000000
rprop_delta_max=50.000000
rprop_delta_zero=0.100000
cascade_output_stagnation_epochs=12
cascade_candidate_change_fraction=0.010000
cascade_candidate_stagnation_epochs=12
cascade_max_out_epochs=150
cascade_min_out_epochs=50
cascade_max_cand_epochs=150
cascade_min_cand_epochs=50
cascade_num_candidate_groups=2
bit_fail_limit=1.00000000000000005551e-01
cascade_candidate_limit=1.00000000000000000000e+03
cascade_weight_multiplier=4.00000000000000022204e-01
cascade_activation_functions_count=10
cascade_activation_functions=3 5 7 8 10 11 14 15 16 17 
cascade_activation_steepnesses_count=4
cascade_activation_steepnesses=2.50000000000000000000e-01 5.00000000000000000000e-01 7.50000000000000000000e-01 1.00000000000000000000e+00 
layer_sizes=28 11 2 
scale_included=0
neurons (num_inputs, activation_function, activation_steepness)=(0, 0, 0.00000000000000000000e+00) (0, 0, 0.00000000000000000000e+00) (0, 0, 0.00000000000000000000e+00) (0, 0, 0.00000000000000000000e+00) (0, 0, 0.00000000000000000000e+00) (0, 0, 0.00000000000000000000e+00) (0, 0, 0.00000000000000000000e+00) (0, 0, 0.00000000000000000000e+00) (0, 0, 0.00000000000000000000e+00) (0, 0, 0.00000000000000000000e+00) (0, 0, 0.00000000000000000000e+00) (0, 0, 0.00000000000000000000e+00) (0, 0, 0.00000000000000000000e+00) (0, 0, 0.00000000000000000000e+00) (0, 0, 0.00000000000000000000e+00) (0, 0, 0.00000000000000000000e+00) (0, 0, 0.00000000000000000000e+00) (0, 0, 0.00000000000000000000e+00) (0, 0, 0.00000000000000000000e+00) (0, 0, 0.00000000000000000000e+00) (0, 0, 0.00000000000000000000e+00) (0, 0, 0.00000000000000000000e+00) (0, 0, 0.00000000000000000000e+00) (0, 0, 0.00000000000000000000e+00) (0, 0, 0.00000000000000000000e+00) (0, 0, 0.00000000000000000000e+00) (0, 0, 0.00000000000000000000e+00) (0, 0, 0.00000000000000000000e+00) (28, 6, 5.00000000000000000000e-01) (28, 6, 5.00000000000000000000e-01) (28, 6, 5.00000000000000000000e-01) (28, 6, 5.00000000000000000000e-01) (28, 6, 5.00000000000000000000e-01) (28, 6, 5.00000000000000000000e-01) (28, 6, 5.00000000000000000000e-01) (28, 6, 5.00000000000000000000e-01) (28, 6, 5.00000000000000000000e-01) (28, 6, 5.00000000000000000000e-01) (0, 6, 0.00000000000000000000e+00) (11, 6, 5.00000000000000000000e-01) (0, 6, 0.00000000000000000000e+00) 
connections (connected_to_neuron, weight)=(0, 1.58623897716724115980e+01) (1, 1.64144583076147376755e-01) (2, 2.96164333850054750652e-01) (3, 2.00149461656717597702e-01) (4, 2.29493267863897731917e-01) (5, -1.69709375152012509336e-01) (6, -5.43706551880022148637e-01) (7, -4.87997622265405814335e-02) (8, -1.04703921622027396054e+00) (9, 4.09396301275567786604e+00) (10, -9.85290229153864061118e+00) (11, -8.10787211572959076733e-01) (12, -1.16983165271984246303e+00) (13, -3.54142044784849119310e+00) (14, 8.96962674715754526567e-01) (15, -8.47456305385569819144e-01) (16, 1.29221021973338578981e+00) (17, -6.79620435161765290566e-01) (18, 8.14058921514224032023e+00) (19, -8.24498626816135882223e+00) (20, 1.42373537913419490053e+00) (21, 6.84747300795631552717e+00) (22, -1.18569007095733458534e+00) (23, -5.24528303855018496193e+00) (24, 1.44817284973665014181e-02) (25, 2.64538235220802908643e+00) (26, 1.60591477029116780351e+00) (27, 8.82970220065428246237e-01) (0, 1.44700096680572710284e+03) (1, 2.58930389817711503753e+00) (2, 2.53692648049351365813e+00) (3, 2.53170924868342073211e+00) (4, 2.41344979640003876042e+00) (5, 8.96534482813232003195e-01) (6, 5.14530677191003515958e+00) (7, 8.76385842074735478491e+02) (8, -2.70344279536011811160e+00) (9, -3.12043200316642810321e+00) (10, 1.50000000000000000000e+03) (11, 2.49468305496495389662e+02) (12, -4.18657125470111335375e+00) (13, -3.34952024721953423025e+00) (14, -3.43222552993737961557e+00) (15, -2.52517475952459458099e+00) (16, -5.61623260143410529821e+00) (17, -3.20394816966010109738e+00) (18, 2.02794817573266700217e-01) (19, -4.26317956374780404616e+00) (20, 1.36705277259851754934e+03) (21, -1.09419176602913159613e+00) (22, -5.43031419916158419881e+00) (23, 2.27007525113871011513e+00) (24, 1.50000000000000000000e+03) (25, -6.95218894834326528454e-01) (26, -1.20881192362384193295e+00) (27, 1.66244278291943836656e+00) (0, -1.41742911811712648529e+01) (1, -1.91529668717841022874e-01) (2, -3.49279314129808893252e-01) (3, -3.25050186216095438052e-01) (4, -2.09685601144293659592e-01) (5, 6.39493247901818606671e-01) (6, 1.97744178503779366451e+00) (7, 5.07368369019953857624e-01) (8, 1.19165936732663468867e+00) (9, 3.74881721188784655663e-01) (10, 1.72437044119753191129e-01) (11, 1.88944845791877447105e+00) (12, 4.23337361841805370766e-01) (13, 1.41878451613227118955e+00) (14, 9.48668053743660477650e-01) (15, 1.25244487130017168042e+00) (16, 8.59541783020705718599e-01) (17, 1.15450483032834028130e+00) (18, -1.32781507310867752381e+00) (19, 6.88539110502510531830e+00) (20, -4.16811687686431175948e-01) (21, -2.03136829061283918918e+00) (22, 2.73376827676291167535e+00) (23, 3.60223801845857893866e+00) (24, 1.53539696468259850848e-01) (25, -2.23101100831407617164e+00) (26, -2.81909341731395202135e-01) (27, -6.70837098745252213838e-01) (0, -4.29007939082960660926e+01) (1, -2.55550534267425633050e-01) (2, -1.52398922283650123388e-01) (3, -2.53929466743469334222e-01) (4, -2.75178619463443852045e-01) (5, 1.51901719390612144345e+00) (6, 1.49503335254116054287e+00) (7, 5.40422336357409327512e-01) (8, 3.87655718118436487529e+00) (9, 5.91915513719230346190e-01) (10, -1.07898373477204456705e+00) (11, 1.29896647166710721422e+00) (12, 1.79546617325693269596e-01) (13, 2.96790772495114696383e+00) (14, 3.76225917589731029267e+00) (15, 3.61869608676629361810e+00) (16, 3.85319457361945616469e+00) (17, 4.14206463384089307311e+00) (18, -3.89147176684910001132e-02) (19, 6.41307422327997134204e+00) (20, 1.06374334958376004501e+00) (21, 1.09270243738985461945e+00) (22, 2.56940866126256173274e+00) (23, 3.88474624613017427421e+00) (24, -1.41202862122017241964e-01) (25, -6.70162758341122044570e-01) (26, -2.46129984734409307245e-01) (27, -8.78454133387503111052e-01) (0, 1.44700096680572710284e+03) (1, 2.25197594146796431502e+00) (2, 2.07665100227662291488e+00) (3, 2.18514076154299941024e+00) (4, 2.14752575289078917464e+00) (5, 8.02548436713308355195e+00) (6, -4.30653191609692864716e+00) (7, 4.85568430646138324391e+02) (8, -2.55915544716754705945e+00) (9, -2.11007502459996620914e+00) (10, 1.50000000000000000000e+03) (11, -5.26440522554710899072e+00) (12, 8.63516787376661554276e+00) (13, -3.11994940307673118696e+00) (14, -4.92913588462908003329e-01) (15, -2.42705004872716889608e+00) (16, -5.06186140198398870638e+00) (17, -2.72932711868607569272e+00) (18, 2.82781248937546259015e+00) (19, -4.23046326568925490363e+00) (20, 1.36705277259851754934e+03) (21, -7.59767202495649773830e-01) (22, -4.25064143555215245840e+00) (23, -7.09959524686056475673e+00) (24, 1.50000000000000000000e+03) (25, -1.88138400263105909360e-01) (26, -1.55263179497409664620e+00) (27, 1.86594968014605822049e+00) (0, -7.20652629096227226313e+00) (1, 8.57215881643916682853e-02) (2, 7.42179364262248592032e-02) (3, -5.59430658521028120744e-02) (4, 7.23985195456172542228e-02) (5, 2.77355970581501587446e+00) (6, 1.44609059235539794130e+00) (7, 1.76659566621706298761e+00) (8, -2.48002653125184574501e-02) (9, -2.58375773151423571150e-01) (10, 5.77009730068181614371e+00) (11, 1.45951633540269054556e+00) (12, 1.77942458441559603344e+00) (13, -1.24383022356328060143e-01) (14, 7.39837190039689812648e-02) (15, -2.83461495951195692478e-02) (16, 8.91683927765623829398e-02) (17, -3.23257883119484612511e-02) (18, 1.02169212681131305054e+00) (19, 6.13603703406620493155e+00) (20, -7.10335685927347415536e-01) (21, -1.13689723060989317238e-01) (22, 2.49406090052636830734e+00) (23, 3.46435323956939811296e+00) (24, 2.83775583094433014875e-01) (25, -1.48707417519870155331e+00) (26, -8.40561466482718677717e-01) (27, -9.66314074412627554977e+00) (0, 1.22313807144045538777e+00) (1, 1.66097578704276577222e-01) (2, 1.77860562801280291945e-01) (3, 2.15813015699305638107e-01) (4, 1.18821379840293353536e-01) (5, 7.24151234092387130481e-01) (6, -6.77382367971535725992e-02) (7, 6.95150003206523203758e-01) (8, 1.50000000000000000000e+03) (9, 9.71751894710647121656e+01) (10, 3.96371105625963782160e+00) (11, 5.46298823092779328725e-01) (12, 7.98920355635406975736e-01) (13, -4.33305342710396068640e+00) (14, 7.96087515661769806741e+00) (15, 1.50000000000000000000e+03) (16, 3.22610742565638162205e+01) (17, 1.50000000000000000000e+03) (18, 2.63118993592298799911e+00) (19, 1.23766631753810747796e+03) (20, 1.20629844962886578763e+00) (21, -3.75317704687170916600e+00) (22, 1.56919002586464610971e+01) (23, 1.15543904360363391959e+01) (24, 4.25783611837815811896e+00) (25, 8.17268033240450222365e+01) (26, 1.22664027421650811966e+00) (27, 7.64439035574140834939e-01) (0, 1.44700096680572710284e+03) (1, 6.55430100937556825436e-01) (2, 5.71723722000788914244e-01) (3, 6.67433239598941407955e-01) (4, 5.31195432027052771851e-01) (5, -1.97826490111297270680e+00) (6, -4.69267795449878022396e+00) (7, -1.82259837813791159000e+00) (8, 2.07686444169805417559e+00) (9, -1.43180979752185399967e+00) (10, 1.50000000000000000000e+03) (11, -3.67776278107375809157e+00) (12, -1.86064945637166956338e+00) (13, 1.84263433623558525731e+00) (14, 1.29164043992819599360e+00) (15, 2.05283186478972856648e+00) (16, 2.55782382544784081535e-01) (17, 9.25090477081630169209e-01) (18, 1.16227847383670357395e+00) (19, -3.63817119049242343465e+00) (20, 1.36705277259851754934e+03) (21, 3.14695459800132404382e+00) (22, -2.96391049691580699132e+00) (23, -6.82286874723997005532e+00) (24, -9.64732579478686291807e-01) (25, 3.81339721102481332693e+00) (26, -4.99823095499843494949e-01) (27, 7.93066868827400406339e-01) (0, 1.44700096680572710284e+03) (1, 2.12622364947837372284e+00) (2, 2.02144718880098794855e+00) (3, 2.10560956189673875727e+00) (4, 2.08136920223277588349e+00) (5, -8.04862404092508865183e-01) (6, -4.84082441213451186712e+00) (7, 1.49869366126647310011e+03) (8, -2.74544182647030243771e+00) (9, -3.63054026767793924790e+00) (10, 1.50000000000000000000e+03) (11, -8.73252105724935945297e-01) (12, 8.65087106084805768091e+00) (13, -2.33061350050897431174e+00) (14, -1.72312810866707533108e+00) (15, -2.61519132314199698186e+00) (16, -1.52970816615147353623e+00) (17, -2.99252824585367083188e+00) (18, 1.41126903606036302463e+00) (19, -4.32408199018442740424e+00) (20, 1.36705277259851754934e+03) (21, -7.89690752320271305287e-01) (22, -5.67410377152562617198e+00) (23, -5.78331221853050914117e-02) (24, 1.50000000000000000000e+03) (25, -4.88083067162424222296e-01) (26, -1.31114844275323538803e+00) (27, 2.36585195614818433185e+00) (0, -4.35500588108289399258e+00) (1, -8.90229028150361367810e-02) (2, -6.95812683984558810746e-02) (3, -5.33879604622642806033e-02) (4, 7.69502911284639656841e-02) (5, -6.13433546107282179349e-01) (6, -1.73822426707275323743e-01) (7, -8.74084633619982287467e-02) (8, 1.50000000000000000000e+03) (9, -3.05013105340352086436e-02) (10, 4.13420518367796363535e-01) (11, -1.40523549221298338363e-02) (12, -3.77677824268079609382e-01) (13, 1.50000000000000000000e+03) (14, 5.39554384788060232836e+01) (15, 1.50000000000000000000e+03) (16, 1.29492821862557570967e+03) (17, 1.50000000000000000000e+03) (18, -4.95823608838777754593e-02) (19, 1.23766631753810747796e+03) (20, -3.82393812944767264028e-01) (21, -1.34381272531796103209e+00) (22, -2.89654048196539393167e-01) (23, 5.88310362407857780909e+01) (24, 3.75668490093749724013e-02) (25, -7.49155880171004318058e-01) (26, -5.29168472555637481314e-01) (27, 8.96010997889510663050e-01) (28, -5.97899839153070503106e-02) (29, 5.20171706581639137212e-01) (30, 5.67828992781975294690e-01) (31, 5.98328129833451738406e-01) (32, 5.32699559168447689395e-01) (33, 1.23434215935540114728e+00) (34, -2.26172719434098751234e-01) (35, 5.26778269867213877475e-01) (36, 5.26779126147927989621e-01) (37, -1.55164099255683807232e-01) (38, 4.29745239402347434243e-01) 
