FANN_FLO_2.1
num_layers=3
learning_rate=0.700000
connection_rate=1.000000
network_type=0
learning_momentum=0.000000
training_algorithm=2
train_error_function=1
train_stop_function=1
cascade_output_change_fraction=0.010000
quickprop_decay=-0.000100
quickprop_mu=1.750000
rprop_increase_factor=1.200000
rprop_decrease_factor=0.500000
rprop_delta_min=0.000000
rprop_delta_max=50.000000
rprop_delta_zero=0.100000
cascade_output_stagnation_epochs=12
cascade_candidate_change_fraction=0.010000
cascade_candidate_stagnation_epochs=12
cascade_max_out_epochs=150
cascade_min_out_epochs=50
cascade_max_cand_epochs=150
cascade_min_cand_epochs=50
cascade_num_candidate_groups=2
bit_fail_limit=1.00000000000000005551e-01
cascade_candidate_limit=1.00000000000000000000e+03
cascade_weight_multiplier=4.00000000000000022204e-01
cascade_activation_functions_count=10
cascade_activation_functions=3 5 7 8 10 11 14 15 16 17 
cascade_activation_steepnesses_count=4
cascade_activation_steepnesses=2.50000000000000000000e-01 5.00000000000000000000e-01 7.50000000000000000000e-01 1.00000000000000000000e+00 
layer_sizes=12 11 2 
scale_included=0
neurons (num_inputs, activation_function, activation_steepness)=(0, 0, 0.00000000000000000000e+00) (0, 0, 0.00000000000000000000e+00) (0, 0, 0.00000000000000000000e+00) (0, 0, 0.00000000000000000000e+00) (0, 0, 0.00000000000000000000e+00) (0, 0, 0.00000000000000000000e+00) (0, 0, 0.00000000000000000000e+00) (0, 0, 0.00000000000000000000e+00) (0, 0, 0.00000000000000000000e+00) (0, 0, 0.00000000000000000000e+00) (0, 0, 0.00000000000000000000e+00) (0, 0, 0.00000000000000000000e+00) (12, 6, 5.00000000000000000000e-01) (12, 6, 5.00000000000000000000e-01) (12, 6, 5.00000000000000000000e-01) (12, 6, 5.00000000000000000000e-01) (12, 6, 5.00000000000000000000e-01) (12, 6, 5.00000000000000000000e-01) (12, 6, 5.00000000000000000000e-01) (12, 6, 5.00000000000000000000e-01) (12, 6, 5.00000000000000000000e-01) (12, 6, 5.00000000000000000000e-01) (0, 6, 0.00000000000000000000e+00) (11, 6, 5.00000000000000000000e-01) (0, 6, 0.00000000000000000000e+00) 
connections (connected_to_neuron, weight)=(0, 8.80478238334932861164e+00) (1, 8.15753911359091476996e-01) (2, 7.26085339410086016976e-01) (3, 8.95288345141192265508e-01) (4, 8.41064286155482121465e-01) (5, -6.85707490776930850274e+00) (6, 7.99621856855682544563e-01) (7, 8.04273241499671343036e+00) (8, 8.29916564764960540401e+00) (9, -2.10228932337225593585e+00) (10, 7.95338250516828271230e-01) (11, 7.34267722785054699486e-01) (0, 3.94270199377722274647e+00) (1, 6.14970385352003545698e-01) (2, 4.75542309949029462501e-01) (3, 5.48175431111681432661e-01) (4, 5.79133793035376043257e-01) (5, 4.78297464889616286143e+00) (6, 1.78384219048784709027e-01) (7, 1.61524689532015330862e+00) (8, -6.50705861727576362341e+00) (9, 2.34696753509420332762e+01) (10, 3.11475542824057538560e-01) (11, 4.17600007716629362253e-01) (0, -2.51613734534737121251e-01) (1, -8.08291818871414990966e-03) (2, -6.33439415313235415494e-02) (3, -7.76311823345652435302e-02) (4, -9.86263745643130157470e-02) (5, -4.24759473876173444806e-03) (6, -3.10325692829722908639e-02) (7, -5.61324522550171289836e-01) (8, 2.70989736090122335099e+00) (9, 4.57324309321330887274e-03) (10, -1.49901973207621552753e-01) (11, -1.32133040452496020034e-01) (0, -3.44357820968099470615e-01) (1, -4.75634020670920570212e-03) (2, 2.03817697156998510477e-02) (3, -1.08746328772154121634e-01) (4, -1.47622929335680330709e-01) (5, 9.58749264783765320352e-02) (6, -1.74770571893390208595e-01) (7, -5.72610100520504428090e-01) (8, 2.91103879335061721534e+00) (9, -9.24318000855834376317e-02) (10, -7.09273686009932735619e-02) (11, -1.85845319057003521834e-01) (0, -2.53222761142739838380e-01) (1, -1.41227350033714983690e-02) (2, -1.65238182286162632595e-01) (3, -1.38226150760789118221e-01) (4, -2.75291160143807077387e-02) (5, -4.80544109245080341974e-01) (6, -5.28656053042406287590e-02) (7, -1.01241018479588176793e-01) (8, 1.75046275228126591017e+00) (9, -5.32242397882550510868e-02) (10, 1.40848214429329932074e-02) (11, -2.13727302760093579304e-01) (0, -3.75262389855992417598e-01) (1, -6.27260599104526306302e-02) (2, -5.07392231194141174466e-02) (3, -1.24553838726675705773e-01) (4, -1.04302333649790510139e-01) (5, 6.19668802822440495381e-02) (6, -1.31622457045588309166e-01) (7, -1.09790538480528310217e+00) (8, 2.48041625521209541105e+00) (9, -4.46134631928571320780e-02) (10, 1.59497680390655524607e-02) (11, -1.54669207507643402533e-01) (0, -3.54865217576551594814e-01) (1, 2.28478193284905369692e-03) (2, -6.01471346616562554943e-02) (3, -1.83940081000309813009e-01) (4, -1.36296516358834080007e-01) (5, -1.14920113035685500513e-01) (6, -4.73973835783438185443e-02) (7, -4.42068709331355114145e-01) (8, 1.95505969683235480971e+00) (9, 6.42509980173992020086e-03) (10, -1.26596344758896889315e-01) (11, -1.53453919911877179061e-01) (0, 3.55372076081256066393e-02) (1, -5.31006927956482396858e-02) (2, -1.80487825291289982754e-01) (3, -1.80917481647863087613e-01) (4, -2.08702522086038289029e-01) (5, -5.14678619221302735554e+00) (6, -1.51808015595412071352e-01) (7, -8.57601169900983428818e+00) (8, 4.50933056828157852181e+00) (9, 4.57901367931828895408e-02) (10, -2.09244049264942152955e-02) (11, 4.69670608184697191412e-01) (0, -2.34356519719159411830e-01) (1, 1.31847138957662916858e-02) (2, 2.48409088210745053471e-02) (3, 4.62825770930929414337e-02) (4, 6.27025242404622984438e-02) (5, -3.42481367548444354254e-02) (6, -2.35083736138178671371e-02) (7, -6.26720340209320103675e-01) (8, 1.01746456589728762054e+01) (9, -9.29546185019404780370e-02) (10, -1.33887174361634553321e-01) (11, -1.05703582268763612850e-01) (0, -1.93917871556502668939e-01) (1, 2.97777191250236175635e-02) (2, 3.30947921125800750830e-02) (3, -4.69003185184089996240e-02) (4, -9.94668300462649146443e-03) (5, -8.64059493340735423894e-02) (6, -1.29693912269799371817e-01) (7, -3.85396552477917375690e-01) (8, 3.13150603275578820472e+00) (9, -6.49667464960396456863e-02) (10, 1.81318718853708434058e-02) (11, -1.06138955669771412049e-01) (12, -7.10204916215977921645e-01) (13, 9.48092179323883899045e-01) (14, 2.56083227355880793663e-01) (15, 3.93331666782918032421e-01) (16, 2.62447266863957695548e-01) (17, 4.30591627125396836373e-01) (18, 4.34790589289349715951e-01) (19, -6.67183536630270079826e-01) (20, 3.12232710305369587367e-01) (21, 3.45717863032426409031e-01) (22, 4.08411551562813168736e-01) 
