FANN_FLO_2.1
num_layers=3
learning_rate=0.700000
connection_rate=1.000000
network_type=0
learning_momentum=0.000000
training_algorithm=2
train_error_function=1
train_stop_function=1
cascade_output_change_fraction=0.010000
quickprop_decay=-0.000100
quickprop_mu=1.750000
rprop_increase_factor=1.200000
rprop_decrease_factor=0.500000
rprop_delta_min=0.000000
rprop_delta_max=50.000000
rprop_delta_zero=0.100000
cascade_output_stagnation_epochs=12
cascade_candidate_change_fraction=0.010000
cascade_candidate_stagnation_epochs=12
cascade_max_out_epochs=150
cascade_min_out_epochs=50
cascade_max_cand_epochs=150
cascade_min_cand_epochs=50
cascade_num_candidate_groups=2
bit_fail_limit=1.00000000000000005551e-01
cascade_candidate_limit=1.00000000000000000000e+03
cascade_weight_multiplier=4.00000000000000022204e-01
cascade_activation_functions_count=10
cascade_activation_functions=3 5 7 8 10 11 14 15 16 17 
cascade_activation_steepnesses_count=4
cascade_activation_steepnesses=2.50000000000000000000e-01 5.00000000000000000000e-01 7.50000000000000000000e-01 1.00000000000000000000e+00 
layer_sizes=20 11 2 
scale_included=0
neurons (num_inputs, activation_function, activation_steepness)=(0, 0, 0.00000000000000000000e+00) (0, 0, 0.00000000000000000000e+00) (0, 0, 0.00000000000000000000e+00) (0, 0, 0.00000000000000000000e+00) (0, 0, 0.00000000000000000000e+00) (0, 0, 0.00000000000000000000e+00) (0, 0, 0.00000000000000000000e+00) (0, 0, 0.00000000000000000000e+00) (0, 0, 0.00000000000000000000e+00) (0, 0, 0.00000000000000000000e+00) (0, 0, 0.00000000000000000000e+00) (0, 0, 0.00000000000000000000e+00) (0, 0, 0.00000000000000000000e+00) (0, 0, 0.00000000000000000000e+00) (0, 0, 0.00000000000000000000e+00) (0, 0, 0.00000000000000000000e+00) (0, 0, 0.00000000000000000000e+00) (0, 0, 0.00000000000000000000e+00) (0, 0, 0.00000000000000000000e+00) (0, 0, 0.00000000000000000000e+00) (20, 6, 5.00000000000000000000e-01) (20, 6, 5.00000000000000000000e-01) (20, 6, 5.00000000000000000000e-01) (20, 6, 5.00000000000000000000e-01) (20, 6, 5.00000000000000000000e-01) (20, 6, 5.00000000000000000000e-01) (20, 6, 5.00000000000000000000e-01) (20, 6, 5.00000000000000000000e-01) (20, 6, 5.00000000000000000000e-01) (20, 6, 5.00000000000000000000e-01) (0, 6, 0.00000000000000000000e+00) (11, 6, 5.00000000000000000000e-01) (0, 6, 0.00000000000000000000e+00) 
connections (connected_to_neuron, weight)=(0, -1.12830474616804798949e+00) (1, -1.98910270990170723326e-01) (2, -2.81077576042451204863e-01) (3, -3.49223223687447903441e-01) (4, -2.86086944104470553008e-01) (5, 1.36989129665920750245e-01) (6, 7.59221207168504497176e-01) (7, 1.26377856281884093370e+00) (8, -6.40936117632446566983e-02) (9, 1.92552598598092955529e-01) (10, 1.37844782780011443357e+00) (11, -1.48027768593934017094e-01) (12, -8.71047806908924193703e-02) (13, 1.78421028126595371255e+00) (14, 7.49215480245811971116e-01) (15, 7.26489355305459438839e-01) (16, 3.23499257548341634383e-01) (17, -9.55894527639038482647e-02) (18, 1.63310113181258853565e+00) (19, -1.07007274906778887535e-01) (0, -6.47457674472931565823e-01) (1, 3.88707411504938811324e-04) (2, -1.07632604050420563335e-01) (3, -9.42483972289445866288e-03) (4, -1.09249499249242584820e-01) (5, 3.83699919049556248396e-01) (6, 5.05857207781516549083e-01) (7, 1.26958372332155122741e+00) (8, -2.73941847362404837518e-02) (9, 4.40436685790225879167e-01) (10, 9.89304608215545000505e-01) (11, -4.59220433607786665542e-02) (12, -5.07981356259740723935e-02) (13, 1.28165349003112871706e+00) (14, 7.72279281805636430569e-01) (15, 1.78416207475363186585e-01) (16, 2.35414553239596924250e-01) (17, 5.06158780512591377487e+00) (18, 1.39514307464481301935e+00) (19, -1.53112994977894184556e-01) (0, -1.50449219145085161253e-01) (1, 2.75717970559869685054e-01) (2, 3.47619388828550257564e-01) (3, 1.66146170923982455792e-01) (4, 2.36707050929342216472e-01) (5, 4.73451454273582039711e-01) (6, -4.48777964653461092226e-01) (7, 1.36127806048322117505e+01) (8, 2.07134821778863553732e-01) (9, -4.77767107348299080449e-01) (10, -2.96095333362193513516e-01) (11, -3.68812277555576328858e-01) (12, -6.43552068195848148147e-02) (13, 4.90999210308529487889e+00) (14, 1.85375810898493094403e-02) (15, 8.57334930231811037649e-02) (16, -2.08411638551212086146e-01) (17, 3.90263481001670031745e+00) (18, 7.91770098473490957502e+00) (19, -1.29071743708493336111e-01) (0, 2.46619635389326408159e+00) (1, 3.86575665782786792590e-01) (2, 2.72148024748660455341e-01) (3, 3.77137449096538013293e-01) (4, 3.82722374509669727161e-01) (5, 3.99595901451230584023e-01) (6, -1.84023432639769946029e-01) (7, 1.36802765096950924573e+01) (8, 3.64976056346913824147e-01) (9, -4.38565028171396198431e-01) (10, -2.51904397571654725674e-01) (11, -4.03496083070253086511e-01) (12, -4.11048199435831013160e-03) (13, 4.85331407617069832128e+00) (14, 1.78123429540509942148e-01) (15, 3.39794803192855279783e-02) (16, 3.27888672522255175679e-01) (17, 4.04557205300147249005e+00) (18, 7.88496537621678594832e+00) (19, -1.76962748860905266790e-01) (0, 2.29777006320484522561e+00) (1, 4.78803953007967797451e-01) (2, 4.72030946836979714565e-01) (3, 5.53044391648085276181e-01) (4, 6.07825023905546713010e-01) (5, 1.32582461325152745069e+00) (6, 3.66916288535684143035e-01) (7, -6.00132267168108413102e+00) (8, -8.02380249852960858448e-01) (9, -1.03493789769410912682e-01) (10, -1.50800010502290215975e+00) (11, 5.53256596415832468949e-01) (12, 6.63775336935916948633e-01) (13, -2.47387657684485118281e+00) (14, -1.47235127214893002368e+00) (15, 7.49373441866763689845e-01) (16, 2.50800543198460679228e-01) (17, 7.44886900575022770088e-02) (18, -1.21724784161020971318e+00) (19, 6.25938566458291267836e-01) (0, 7.59340911397931250804e-01) (1, 2.04737860582706182599e-01) (2, 2.18122135721084353666e-01) (3, 2.81555097423431099912e-01) (4, 2.77080904565688790342e-01) (5, 1.61669548724535344641e-01) (6, -6.12408271495149189589e-02) (7, -2.25276492329214272914e+00) (8, 2.24859523190297089235e-01) (9, -7.29663654225311431034e-01) (10, 6.74234683387283095790e-02) (11, 2.57014341203008589432e-01) (12, 1.86069403579296244189e-01) (13, -1.04456285360624190339e+00) (14, -2.28640836679061043579e-01) (15, -4.71082300241973839228e-01) (16, -5.33527751259458948851e-01) (17, 9.69630906906298051240e-01) (18, -3.64828301282258904426e-01) (19, 2.54688502437034169912e-01) (0, 2.31354653723367098550e+00) (1, 4.92173500142570885529e-01) (2, 4.85216934017416390290e-01) (3, 4.73919242403980645051e-01) (4, 5.85359461389061142000e-01) (5, 1.94179903739258730155e+00) (6, 2.07958768717357384004e-01) (7, -6.42410227530565958176e+00) (8, -8.67376216704672131641e-01) (9, -8.62656397056669965728e-01) (10, 2.05847293633319994299e-02) (11, 4.29586183277456679086e-01) (12, 7.01053891441466570100e-01) (13, -1.79077574428790975425e+00) (14, -5.79931717034808169586e-01) (15, 3.65337572473820093588e-01) (16, 1.78790025832791577010e-01) (17, 1.02414853698305963192e+00) (18, -4.94571652814782880547e-01) (19, 7.02864282152810271320e-01) (0, -6.53348677187565507474e-01) (1, -1.98879671351960586601e-02) (2, -8.96874723093560866083e-02) (3, -8.85816571371606520380e-02) (4, -5.67383897559693706203e-02) (5, 2.44077368591840232481e-01) (6, 3.93911989359117142850e-01) (7, 1.19279783107339754089e+00) (8, -7.25314761156908294204e-02) (9, 5.00347981561824473040e-01) (10, 1.00958302478954631276e+00) (11, -3.04078334942549238784e-02) (12, -8.79739996072210067579e-02) (13, 1.28005547460353930056e+00) (14, 6.50152472685083804294e-01) (15, 2.24515788299738339173e-01) (16, 1.84965748145831665461e-01) (17, 2.77534948048860519165e+00) (18, 1.44110837365508981378e+00) (19, -1.12097325274410589135e-01) (0, 2.51952578474390065377e-01) (1, 5.78953974376831409510e-03) (2, -9.28919846521743253209e-02) (3, -2.17513302670844892173e-02) (4, -3.49412570105918848795e-02) (5, 3.13011772831391532623e-01) (6, 1.31362167443550847956e+00) (7, -9.10783519030321109256e+00) (8, 1.38886925420174001111e-01) (9, 5.28747195624422294813e-01) (10, 4.20967060012486959941e-01) (11, 8.44009619997329249563e-03) (12, 6.60496990926916355269e-02) (13, -1.11254865145428871731e-01) (14, 7.47873714897972385884e-01) (15, 6.67372217623284025301e-01) (16, 1.32433602637879688224e+00) (17, -3.68449839441845261589e+00) (18, -9.42815607235175967560e+00) (19, 4.72622754023599711548e-02) (0, 2.92250156240341008029e-01) (1, -4.69063790844806566271e-02) (2, -5.60368160115608110461e-02) (3, -5.26176141904720201525e-02) (4, -5.23576932357677354846e-02) (5, 2.42055468162011344635e-01) (6, 1.35118671204365470295e+00) (7, -8.95836215645778644046e+00) (8, 1.43596690735229848279e-01) (9, 4.54935061060499190688e-01) (10, 4.11778542084363485820e-01) (11, -3.40227668280761730291e-02) (12, -8.10519267074410881824e-02) (13, -2.26148980018932577174e-02) (14, 8.73274191055637638570e-01) (15, 6.43100744334747953523e-01) (16, 1.30774597502581912956e+00) (17, -3.69500200687715851799e+00) (18, -9.41585996941072345123e+00) (19, 1.10811682389307178398e-02) (20, 5.01923966936662968585e-01) (21, 5.32283629053541873510e-01) (22, 4.21291579871007015878e-01) (23, 4.83867736735482834032e-01) (24, -8.53591977718803768260e-02) (25, -4.15651386143316148303e-02) (26, -1.25109505570265983065e-01) (27, 5.35363117927023623999e-01) (28, -2.36053763830104734733e-01) (29, -2.29306236148978992428e-01) (30, 4.19897770019371119332e-01) 
