FANN_FLO_2.1
num_layers=3
learning_rate=0.700000
connection_rate=1.000000
network_type=0
learning_momentum=0.000000
training_algorithm=2
train_error_function=1
train_stop_function=1
cascade_output_change_fraction=0.010000
quickprop_decay=-0.000100
quickprop_mu=1.750000
rprop_increase_factor=1.200000
rprop_decrease_factor=0.500000
rprop_delta_min=0.000000
rprop_delta_max=50.000000
rprop_delta_zero=0.100000
cascade_output_stagnation_epochs=12
cascade_candidate_change_fraction=0.010000
cascade_candidate_stagnation_epochs=12
cascade_max_out_epochs=150
cascade_min_out_epochs=50
cascade_max_cand_epochs=150
cascade_min_cand_epochs=50
cascade_num_candidate_groups=2
bit_fail_limit=1.00000000000000005551e-01
cascade_candidate_limit=1.00000000000000000000e+03
cascade_weight_multiplier=4.00000000000000022204e-01
cascade_activation_functions_count=10
cascade_activation_functions=3 5 7 8 10 11 14 15 16 17 
cascade_activation_steepnesses_count=4
cascade_activation_steepnesses=2.50000000000000000000e-01 5.00000000000000000000e-01 7.50000000000000000000e-01 1.00000000000000000000e+00 
layer_sizes=9 4 2 
scale_included=0
neurons (num_inputs, activation_function, activation_steepness)=(0, 0, 0.00000000000000000000e+00) (0, 0, 0.00000000000000000000e+00) (0, 0, 0.00000000000000000000e+00) (0, 0, 0.00000000000000000000e+00) (0, 0, 0.00000000000000000000e+00) (0, 0, 0.00000000000000000000e+00) (0, 0, 0.00000000000000000000e+00) (0, 0, 0.00000000000000000000e+00) (0, 0, 0.00000000000000000000e+00) (9, 6, 5.00000000000000000000e-01) (9, 6, 5.00000000000000000000e-01) (9, 6, 5.00000000000000000000e-01) (0, 6, 0.00000000000000000000e+00) (4, 4, 5.00000000000000000000e-01) (0, 4, 0.00000000000000000000e+00) 
connections (connected_to_neuron, weight)=(0, 1.50803924000812039630e+00) (1, -3.56403828290288027247e+00) (2, -3.92661657651225892707e+00) (3, -4.59316005572497321197e+00) (4, -3.30918938256081007765e+00) (5, -3.07528680332352255533e+00) (6, -5.88485527346755077360e+00) (7, 4.12685952168518266348e+00) (8, 6.35399857267653533910e+00) (0, 1.72832833729326174055e-01) (1, -7.51499911589231017750e-01) (2, 1.92221220173178254653e-02) (3, -6.84200384419506452138e-02) (4, -4.85627041581499829803e-01) (5, -2.98402519162959053989e-02) (6, -3.10068242627891343943e+00) (7, -1.48555325749337385766e-01) (8, 3.87061105860880882990e-01) (0, -1.83546865482373822154e+00) (1, 3.40065318138975936080e+00) (2, 1.22814000060339645337e+00) (3, 2.77525388523179605826e+00) (4, 3.05748118923469691666e+00) (5, 2.64310794194753828634e+00) (6, 4.90709919346777745375e+00) (7, -3.77590146217342859103e+00) (8, -3.51378721534575788610e+00) (9, -2.82553547522657524382e+01) (10, -2.71910264837224302514e-01) (11, 1.30627905077053263483e+01) (12, -8.83814402145659649968e-01) 
