FANN_FLO_2.1
num_layers=3
learning_rate=0.700000
connection_rate=1.000000
network_type=0
learning_momentum=0.000000
training_algorithm=2
train_error_function=1
train_stop_function=1
cascade_output_change_fraction=0.010000
quickprop_decay=-0.000100
quickprop_mu=1.750000
rprop_increase_factor=1.200000
rprop_decrease_factor=0.500000
rprop_delta_min=0.000000
rprop_delta_max=50.000000
rprop_delta_zero=0.100000
cascade_output_stagnation_epochs=12
cascade_candidate_change_fraction=0.010000
cascade_candidate_stagnation_epochs=12
cascade_max_out_epochs=150
cascade_min_out_epochs=50
cascade_max_cand_epochs=150
cascade_min_cand_epochs=50
cascade_num_candidate_groups=2
bit_fail_limit=1.00000000000000005551e-01
cascade_candidate_limit=1.00000000000000000000e+03
cascade_weight_multiplier=4.00000000000000022204e-01
cascade_activation_functions_count=10
cascade_activation_functions=3 5 7 8 10 11 14 15 16 17 
cascade_activation_steepnesses_count=4
cascade_activation_steepnesses=2.50000000000000000000e-01 5.00000000000000000000e-01 7.50000000000000000000e-01 1.00000000000000000000e+00 
layer_sizes=23 11 2 
scale_included=0
neurons (num_inputs, activation_function, activation_steepness)=(0, 0, 0.00000000000000000000e+00) (0, 0, 0.00000000000000000000e+00) (0, 0, 0.00000000000000000000e+00) (0, 0, 0.00000000000000000000e+00) (0, 0, 0.00000000000000000000e+00) (0, 0, 0.00000000000000000000e+00) (0, 0, 0.00000000000000000000e+00) (0, 0, 0.00000000000000000000e+00) (0, 0, 0.00000000000000000000e+00) (0, 0, 0.00000000000000000000e+00) (0, 0, 0.00000000000000000000e+00) (0, 0, 0.00000000000000000000e+00) (0, 0, 0.00000000000000000000e+00) (0, 0, 0.00000000000000000000e+00) (0, 0, 0.00000000000000000000e+00) (0, 0, 0.00000000000000000000e+00) (0, 0, 0.00000000000000000000e+00) (0, 0, 0.00000000000000000000e+00) (0, 0, 0.00000000000000000000e+00) (0, 0, 0.00000000000000000000e+00) (0, 0, 0.00000000000000000000e+00) (0, 0, 0.00000000000000000000e+00) (0, 0, 0.00000000000000000000e+00) (23, 6, 5.00000000000000000000e-01) (23, 6, 5.00000000000000000000e-01) (23, 6, 5.00000000000000000000e-01) (23, 6, 5.00000000000000000000e-01) (23, 6, 5.00000000000000000000e-01) (23, 6, 5.00000000000000000000e-01) (23, 6, 5.00000000000000000000e-01) (23, 6, 5.00000000000000000000e-01) (23, 6, 5.00000000000000000000e-01) (23, 6, 5.00000000000000000000e-01) (0, 6, 0.00000000000000000000e+00) (11, 6, 5.00000000000000000000e-01) (0, 6, 0.00000000000000000000e+00) 
connections (connected_to_neuron, weight)=(0, 1.07820016799083706616e+00) (1, -2.36312609371593686236e-02) (2, 9.84149638357709050096e-02) (3, -6.13332104143548967334e-02) (4, 3.30818135085652817451e-02) (5, 1.93328780095840674358e-02) (6, 2.49607278886955796793e+00) (7, -4.53057599430810309382e-01) (8, 2.22515238496557117287e+01) (9, -1.13998100214747988268e+00) (10, 3.28489559357464933065e-01) (11, 3.98389732950560404579e-01) (12, -3.75453334650333647726e-01) (13, -2.89182833330380584247e-02) (14, 1.29050255292168492005e+00) (15, 2.66215141323254567141e+00) (16, -4.53987552457352561142e-01) (17, 2.26888454192857835778e+00) (18, -2.87558956704336114718e-02) (19, 3.38895997964514417156e-01) (20, 4.06438599639813435971e-01) (21, -5.46615542061480788605e-02) (22, 2.49186397833728001672e+00) (0, 1.55299511067040563184e+00) (1, 4.08900928373953087558e-01) (2, 5.56069870169778046609e-01) (3, 4.29683842386623604526e-01) (4, 5.18253286059517925821e-01) (5, 2.80825027295338513697e-03) (6, 2.43752632128751445251e+00) (7, -1.92851175815150566173e+00) (8, -1.49221312843817131011e+01) (9, 1.49141396812095103996e+03) (10, -4.29892742458381493798e-02) (11, -4.46468721106933752463e-01) (12, -1.06005528583574570867e+00) (13, -6.01712012560828735097e-01) (14, -4.43419531005555977998e-01) (15, 7.28557750949943683239e-01) (16, -3.00090595901052470396e-01) (17, 2.55821698523870599828e-01) (18, -1.14381840637408616068e+00) (19, 1.48554370884331299330e+00) (20, -1.75241441683815146746e+00) (21, -1.73481493008640574871e-01) (22, 5.29361459533791989251e-02) (0, 1.31218033546178457982e+03) (1, 1.21908896318291737337e+00) (2, 1.23977362266396595736e+00) (3, 1.11158087006424977083e+00) (4, 1.17677612504576756258e+00) (5, -3.44979262246283835402e-02) (6, 2.52762470691568008618e+00) (7, -1.87880500853345222545e+00) (8, -1.49221312843817131011e+01) (9, 1.49141396812095103996e+03) (10, 2.46494958333736170764e-02) (11, -3.83971122953497723262e-01) (12, -1.25330919919888739145e+00) (13, 2.81722481605914953917e-02) (14, -1.24956455466191343473e-01) (15, 5.86694323713438548040e-01) (16, 2.08723267366253850685e-01) (17, 2.96316984710541075909e-01) (18, -9.87853187178860170370e-01) (19, 4.45893641165480119071e+02) (20, -1.57696069444537290138e+00) (21, -1.61725246124572896722e-01) (22, 2.41082227646269159349e-01) (0, 2.03203316651252094971e+01) (1, 3.80740628646217771358e-01) (2, 2.46633456157050984237e-01) (3, 3.45798478530251085505e-01) (4, 2.95467239873014875240e-01) (5, 6.87953443320392321603e-01) (6, 1.11287223051521699801e+00) (7, -1.15452490739943391951e+00) (8, -7.08580894662535953898e+00) (9, -1.12757873881177306252e+00) (10, -3.22295984658941381262e-01) (11, 1.47972960758718552476e+00) (12, -5.46596550504722000774e-01) (13, 1.02038877176104478273e-01) (14, -2.43536529177750676878e-01) (15, 2.70445621338378905385e-01) (16, 7.77718348227741773648e-01) (17, 1.69130742788067806037e-01) (18, -7.63623897181078592489e-01) (19, -1.35165547026209614812e-01) (20, -5.56495276354557866227e-01) (21, 5.17471410705397816265e-01) (22, 6.72810379915019574071e-01) (0, 1.47148384598342227036e+03) (1, 1.47148384598342227036e+03) (2, 1.47148384598342227036e+03) (3, 1.47148384598342227036e+03) (4, 1.47148384598342227036e+03) (5, 1.29160193389856999602e+03) (6, 1.47337552152159469188e+03) (7, 1.50000000000000000000e+03) (8, -1.49221312843817131011e+01) (9, 1.49141396812095103996e+03) (10, 6.25687283308435326035e+02) (11, 1.24448350615770050354e+03) (12, 1.49383103908744783439e+03) (13, 1.50000000000000000000e+03) (14, 1.20433805086160009523e+03) (15, 1.16178339922025452324e+03) (16, 1.46024985715039724710e+03) (17, 9.23420756630276287069e+02) (18, 1.50000000000000000000e+03) (19, 1.48716026512029384321e+03) (20, 1.50000000000000000000e+03) (21, 1.47148384598342227036e+03) (22, 4.67872929768417122887e+00) (0, 6.34178489803051026463e-01) (1, 1.94545758995884304765e-01) (2, 4.63145134185486556655e-02) (3, 1.92835075888508206132e-01) (4, 6.50402364467316806973e-02) (5, -2.56339451561470754726e-01) (6, 2.06526930367634342645e+00) (7, -5.30725497785816568985e-01) (8, 2.20244745031586255379e+01) (9, -1.18977590506160924022e+00) (10, 8.79891177899161380793e-01) (11, 3.53148680502956713312e+00) (12, -8.72330724551453329241e-01) (13, -9.63364405833268683255e-02) (14, 2.31367733141090647919e+00) (15, 5.75231985790150779358e-01) (16, 2.08706479793517973853e-01) (17, 7.53715497169738180006e-01) (18, -5.81696338391217218633e-02) (19, 6.06987374299401527544e-01) (20, 1.65471363904245410970e-01) (21, -1.25679412143558183468e-01) (22, 2.96831403162649332117e+00) (0, 4.10004350233467484976e-01) (1, -1.37986627524982224946e-01) (2, -7.48808655201298745130e-02) (3, -2.30298611580234714735e-02) (4, -5.00271889625889740194e-02) (5, -9.60861302169647157889e-01) (6, 6.16151705658078086003e-01) (7, -4.68873556075449204883e+00) (8, -1.32737170728166886668e+00) (9, -1.29378992552346483436e+00) (10, -3.03239882461619814080e-01) (11, 1.07044783919611918854e-01) (12, -2.18259169758049775822e+00) (13, 3.22962858210500081135e-01) (14, -4.98926588640852930467e-01) (15, 3.18510641033553365542e-02) (16, -9.81094174802281004943e-01) (17, 1.32145404894241780269e+00) (18, 3.41885195067355485143e-01) (19, 2.35927775977235604232e-01) (20, -3.91776039060818392912e+00) (21, -2.02895450526001663860e-01) (22, 4.56270618264173233314e+00) (0, 1.36937355431996010680e+00) (1, 1.99762434168072426643e-02) (2, 1.71533219556352811708e-01) (3, 4.98119369549960971932e-02) (4, 1.22243680099985305154e-01) (5, 9.49691007572556755711e-02) (6, 2.23028748602246285060e+00) (7, -3.20805296417771890205e-01) (8, 2.21803496664761965462e+01) (9, -1.04837386989775516177e+00) (10, 2.31480001682937669427e-01) (11, 7.93890636352288514566e-01) (12, -4.41423137431437684342e-01) (13, 7.46411842030577227236e-02) (14, 8.14501779864392871922e-01) (15, 1.22267166966085483182e+00) (16, -1.89376611754407619959e-01) (17, 1.64995295607552949768e+00) (18, 1.47830791993365986275e-02) (19, 4.58796456545311759356e-01) (20, 4.78420136298920606333e-01) (21, 5.05502999219799437070e-02) (22, 2.77344040066959962587e+00) (0, -9.20740436199696365982e-01) (1, -3.08838037823347122401e-01) (2, -3.88764722322134048671e-01) (3, -2.41442551885752143548e-01) (4, -3.85301744614748031825e-01) (5, 6.27838084989996936258e-01) (6, -3.10977714624938705867e+00) (7, -2.51776716301332706416e-02) (8, 1.55797059009373306537e+01) (9, 2.08304633445549747250e+00) (10, -4.34626078740961208080e-01) (11, 7.02500734861992603975e-01) (12, -5.91816919930351126311e-01) (13, -4.53436091548265918227e-01) (14, -8.32352653664645059095e-01) (15, -9.53172360572394294920e-01) (16, -6.22868964986742046364e-01) (17, -5.53669261801240542020e-01) (18, -4.73230235391610021267e-01) (19, -9.22185020838979130353e-01) (20, 1.21959415035598683907e+00) (21, -6.89703481475332780271e-01) (22, -8.63913432019264737605e-01) (0, 3.55008946541247860651e+00) (1, 2.55698258015947699207e-01) (2, 2.85851659211951047990e-01) (3, 3.35792357060747059805e-01) (4, 3.97873135242299946768e-01) (5, -2.11866706505640101099e-01) (6, 2.95043243320653614248e+00) (7, -6.05735213764660662683e-01) (8, 3.26365917328790144936e+00) (9, -3.35715768268249581396e+00) (10, -3.65137311764893679467e+00) (11, -1.52416123352761601062e+00) (12, -1.08650736485123067254e+00) (13, -5.96781138955332288165e-02) (14, 8.97533429799190263232e-01) (15, 9.53651086656506108419e-01) (16, -4.92450324547814455300e-01) (17, 2.80863224973834446629e+00) (18, -1.74334773860055046446e-02) (19, 8.24703658008088813514e-02) (20, 1.91203958826668990456e-01) (21, -3.36921124360125556763e-01) (22, 2.52227632185079908567e+00) (23, -1.22401897491468431012e-01) (24, 5.24112033844761682211e-01) (25, 5.21775919089674466989e-01) (26, -7.81264909839767152100e-01) (27, 5.47934857664772012598e-01) (28, -1.51475869979844662838e-01) (29, -1.70138509972590418196e-01) (30, -1.73665531840310666256e-01) (31, 6.51226137621668810240e-01) (32, -1.57430264097165123482e-01) (33, 5.63722019827859299745e-01) 
