FANN_FLO_2.1
num_layers=3
learning_rate=0.700000
connection_rate=1.000000
network_type=0
learning_momentum=0.000000
training_algorithm=2
train_error_function=1
train_stop_function=1
cascade_output_change_fraction=0.010000
quickprop_decay=-0.000100
quickprop_mu=1.750000
rprop_increase_factor=1.200000
rprop_decrease_factor=0.500000
rprop_delta_min=0.000000
rprop_delta_max=50.000000
rprop_delta_zero=0.100000
cascade_output_stagnation_epochs=12
cascade_candidate_change_fraction=0.010000
cascade_candidate_stagnation_epochs=12
cascade_max_out_epochs=150
cascade_min_out_epochs=50
cascade_max_cand_epochs=150
cascade_min_cand_epochs=50
cascade_num_candidate_groups=2
bit_fail_limit=1.00000000000000005551e-01
cascade_candidate_limit=1.00000000000000000000e+03
cascade_weight_multiplier=4.00000000000000022204e-01
cascade_activation_functions_count=10
cascade_activation_functions=3 5 7 8 10 11 14 15 16 17 
cascade_activation_steepnesses_count=4
cascade_activation_steepnesses=2.50000000000000000000e-01 5.00000000000000000000e-01 7.50000000000000000000e-01 1.00000000000000000000e+00 
layer_sizes=9 11 2 
scale_included=0
neurons (num_inputs, activation_function, activation_steepness)=(0, 0, 0.00000000000000000000e+00) (0, 0, 0.00000000000000000000e+00) (0, 0, 0.00000000000000000000e+00) (0, 0, 0.00000000000000000000e+00) (0, 0, 0.00000000000000000000e+00) (0, 0, 0.00000000000000000000e+00) (0, 0, 0.00000000000000000000e+00) (0, 0, 0.00000000000000000000e+00) (0, 0, 0.00000000000000000000e+00) (9, 6, 5.00000000000000000000e-01) (9, 6, 5.00000000000000000000e-01) (9, 6, 5.00000000000000000000e-01) (9, 6, 5.00000000000000000000e-01) (9, 6, 5.00000000000000000000e-01) (9, 6, 5.00000000000000000000e-01) (9, 6, 5.00000000000000000000e-01) (9, 6, 5.00000000000000000000e-01) (9, 6, 5.00000000000000000000e-01) (9, 6, 5.00000000000000000000e-01) (0, 6, 0.00000000000000000000e+00) (11, 6, 5.00000000000000000000e-01) (0, 6, 0.00000000000000000000e+00) 
connections (connected_to_neuron, weight)=(0, 2.74137123739074117790e-01) (1, 3.94827462574127097117e-01) (2, 3.71678463956001181590e-01) (3, 4.90562386652114879038e-01) (4, 4.92873914381149302866e-01) (5, 1.46210143333351777484e-01) (6, -2.58806175323244513908e-01) (7, 8.44678947586352023791e+02) (8, -2.30260559375807888349e-01) (0, 6.86942016241885888839e-01) (1, 6.86551282394230799611e-01) (2, 6.52845809448063474356e-01) (3, 6.09107392120659452139e-01) (4, 5.17720731187164884268e-01) (5, -7.40512913805297517955e-03) (6, -3.56164487841391153022e-01) (7, 8.44825490336651000689e+02) (8, -1.79723947614148782392e-01) (0, 1.47185602921909519658e-01) (1, 9.36249012905068234147e-02) (2, 1.64263371642202782308e-01) (3, 1.31067049022287773763e-01) (4, 5.93497271495765921223e-02) (5, 3.03134338945889925121e-01) (6, 3.76639628497456802059e-01) (7, -8.44653251554602775286e+02) (8, 1.97073233621320981213e-01) (0, 8.82386013579260830575e-01) (1, 5.16522124591425435547e-01) (2, 3.85528575810745899322e-01) (3, 3.52881327453211490752e-01) (4, 4.11499343994215671660e-01) (5, 4.92762864645426457155e-01) (6, -2.27564619161441217265e-01) (7, -4.86564097781632565187e+00) (8, 5.22179350071885317597e-01) (0, 9.16179422002923016244e-01) (1, 3.38244400534786937573e-01) (2, 4.73752043757595664442e-01) (3, 3.56490850064911601880e-01) (4, 4.87322337541737204969e-01) (5, 7.00291531264589650618e-01) (6, -1.01046149913423644051e-01) (7, -4.92209751213869406428e+00) (8, 6.09316594110093090464e-01) (0, 1.80426589464495856774e-01) (1, 4.27389062782409567820e-01) (2, 4.74314145585182089793e-01) (3, 4.91608448167922984506e-01) (4, 4.35117103000762839304e-01) (5, -2.54417770537112945817e-03) (6, -3.41227639942043081689e-01) (7, 8.44656664464408549975e+02) (8, -3.61615964229628661375e-01) (0, 1.06162084610451379341e+00) (1, 4.20781444667648552027e-01) (2, 4.06557910053800819483e-01) (3, 4.55188326447080848780e-01) (4, 4.29799221365522621241e-01) (5, 4.34817633374124601353e-01) (6, -1.58784126226061028664e-01) (7, -4.68056247647228396147e+00) (8, 5.30661276684365357248e-01) (0, 5.96488674638606664047e-01) (1, 6.36914024341404538809e-01) (2, 6.28100345123112413503e-01) (3, 6.53265247333348009207e-01) (4, 6.79725209462941015737e-01) (5, 8.62217013205432425416e-01) (6, -2.51006162139830735214e-01) (7, 8.44651808205777797411e+02) (8, -2.45762697726205514570e-01) (0, 9.22954335522543911630e-01) (1, 3.21414842212104368002e-01) (2, 4.99213672184848245017e-01) (3, 3.30217539274596738608e-01) (4, 3.22681530320548581869e-01) (5, 6.55613103985594136702e-01) (6, -1.16828953210466546242e-01) (7, -4.72788762184513089437e+00) (8, 4.57908108041844508218e-01) (0, 3.99787025803112650024e-01) (1, 3.68209549119865142686e-01) (2, 3.09703302463685770096e-01) (3, 3.26097489228641290726e-01) (4, 3.56462159088050567490e-01) (5, -2.06500529386183573344e-01) (6, -5.43425631786720986227e-01) (7, -6.05017395857015912952e+02) (8, 2.40649457065910038489e-01) (9, 2.35925489227644918921e-01) (10, 2.32557439367644308570e-01) (11, -2.65819524116580441220e-01) (12, -1.63456451411507830418e-01) (13, -1.96579378361962542332e-01) (14, 2.98175529699198638145e-01) (15, -3.38630835065415802809e-01) (16, 2.52325260202757806205e-01) (17, -3.13135410198739472243e-01) (18, -2.43313370902113940142e-01) (19, 4.29364793784886955574e-01) 
