FANN_FLO_2.1
num_layers=3
learning_rate=0.700000
connection_rate=1.000000
network_type=0
learning_momentum=0.000000
training_algorithm=2
train_error_function=1
train_stop_function=1
cascade_output_change_fraction=0.010000
quickprop_decay=-0.000100
quickprop_mu=1.750000
rprop_increase_factor=1.200000
rprop_decrease_factor=0.500000
rprop_delta_min=0.000000
rprop_delta_max=50.000000
rprop_delta_zero=0.100000
cascade_output_stagnation_epochs=12
cascade_candidate_change_fraction=0.010000
cascade_candidate_stagnation_epochs=12
cascade_max_out_epochs=150
cascade_min_out_epochs=50
cascade_max_cand_epochs=150
cascade_min_cand_epochs=50
cascade_num_candidate_groups=2
bit_fail_limit=1.00000000000000005551e-01
cascade_candidate_limit=1.00000000000000000000e+03
cascade_weight_multiplier=4.00000000000000022204e-01
cascade_activation_functions_count=10
cascade_activation_functions=3 5 7 8 10 11 14 15 16 17 
cascade_activation_steepnesses_count=4
cascade_activation_steepnesses=2.50000000000000000000e-01 5.00000000000000000000e-01 7.50000000000000000000e-01 1.00000000000000000000e+00 
layer_sizes=10 4 2 
scale_included=0
neurons (num_inputs, activation_function, activation_steepness)=(0, 0, 0.00000000000000000000e+00) (0, 0, 0.00000000000000000000e+00) (0, 0, 0.00000000000000000000e+00) (0, 0, 0.00000000000000000000e+00) (0, 0, 0.00000000000000000000e+00) (0, 0, 0.00000000000000000000e+00) (0, 0, 0.00000000000000000000e+00) (0, 0, 0.00000000000000000000e+00) (0, 0, 0.00000000000000000000e+00) (0, 0, 0.00000000000000000000e+00) (10, 6, 5.00000000000000000000e-01) (10, 6, 5.00000000000000000000e-01) (10, 6, 5.00000000000000000000e-01) (0, 6, 0.00000000000000000000e+00) (4, 4, 5.00000000000000000000e-01) (0, 4, 0.00000000000000000000e+00) 
connections (connected_to_neuron, weight)=(0, -4.09963358010072820292e+00) (1, 2.50774578557695759784e+00) (2, 8.23670410246377660002e-01) (3, 1.35334211337689053201e-01) (4, -5.98388689144109142681e-01) (5, 1.85290272283676754617e-01) (6, -2.94526928977036361879e-01) (7, -7.63505500855575225394e-01) (8, -2.31650495793430111213e-01) (9, -1.04573108789356616910e+00) (0, 3.14041000827668748130e+00) (1, -2.56347931037482634764e+00) (2, -1.37285190202131723858e+00) (3, -6.32956538726788697780e-01) (4, 9.55875736047126500772e-01) (5, 8.22535226647873179973e-02) (6, 7.53565264672233170451e-01) (7, 1.17007269919029832650e+00) (8, -8.80404531598655282210e-04) (9, 3.03482663952463793677e+00) (0, -2.80840781589567045629e+00) (1, 3.12191913275207921785e+00) (2, 2.98443840960598727463e-01) (3, -9.84044330491691043861e-01) (4, -1.00478171028104346085e+00) (5, -1.00052843458858053971e+00) (6, -9.37602477445273807533e-01) (7, -8.98378113581805637367e-01) (8, -2.46315891608751780240e-01) (9, -1.10893550464835977110e+00) (10, 1.22649167821671820633e+01) (11, -1.44530807987672371695e+00) (12, 1.38374154702786889004e+00) (13, -1.37390061317700817867e+00) 
