FANN_FLO_2.1
num_layers=3
learning_rate=0.700000
connection_rate=1.000000
network_type=0
learning_momentum=0.000000
training_algorithm=2
train_error_function=1
train_stop_function=1
cascade_output_change_fraction=0.010000
quickprop_decay=-0.000100
quickprop_mu=1.750000
rprop_increase_factor=1.200000
rprop_decrease_factor=0.500000
rprop_delta_min=0.000000
rprop_delta_max=50.000000
rprop_delta_zero=0.100000
cascade_output_stagnation_epochs=12
cascade_candidate_change_fraction=0.010000
cascade_candidate_stagnation_epochs=12
cascade_max_out_epochs=150
cascade_min_out_epochs=50
cascade_max_cand_epochs=150
cascade_min_cand_epochs=50
cascade_num_candidate_groups=2
bit_fail_limit=1.00000000000000005551e-01
cascade_candidate_limit=1.00000000000000000000e+03
cascade_weight_multiplier=4.00000000000000022204e-01
cascade_activation_functions_count=10
cascade_activation_functions=3 5 7 8 10 11 14 15 16 17 
cascade_activation_steepnesses_count=4
cascade_activation_steepnesses=2.50000000000000000000e-01 5.00000000000000000000e-01 7.50000000000000000000e-01 1.00000000000000000000e+00 
layer_sizes=17 11 2 
scale_included=0
neurons (num_inputs, activation_function, activation_steepness)=(0, 0, 0.00000000000000000000e+00) (0, 0, 0.00000000000000000000e+00) (0, 0, 0.00000000000000000000e+00) (0, 0, 0.00000000000000000000e+00) (0, 0, 0.00000000000000000000e+00) (0, 0, 0.00000000000000000000e+00) (0, 0, 0.00000000000000000000e+00) (0, 0, 0.00000000000000000000e+00) (0, 0, 0.00000000000000000000e+00) (0, 0, 0.00000000000000000000e+00) (0, 0, 0.00000000000000000000e+00) (0, 0, 0.00000000000000000000e+00) (0, 0, 0.00000000000000000000e+00) (0, 0, 0.00000000000000000000e+00) (0, 0, 0.00000000000000000000e+00) (0, 0, 0.00000000000000000000e+00) (0, 0, 0.00000000000000000000e+00) (17, 6, 5.00000000000000000000e-01) (17, 6, 5.00000000000000000000e-01) (17, 6, 5.00000000000000000000e-01) (17, 6, 5.00000000000000000000e-01) (17, 6, 5.00000000000000000000e-01) (17, 6, 5.00000000000000000000e-01) (17, 6, 5.00000000000000000000e-01) (17, 6, 5.00000000000000000000e-01) (17, 6, 5.00000000000000000000e-01) (17, 6, 5.00000000000000000000e-01) (0, 6, 0.00000000000000000000e+00) (11, 6, 5.00000000000000000000e-01) (0, 6, 0.00000000000000000000e+00) 
connections (connected_to_neuron, weight)=(0, 4.48510964207840956419e+00) (1, -2.25258125056592151125e-02) (2, 3.95058365474375422499e-02) (3, -5.10701490630474652654e-02) (4, -6.96374503959980711842e-02) (5, 4.40516568858669022024e-01) (6, -4.17107223468902374441e-02) (7, 2.87395636470694160192e-01) (8, 2.14369638905523879346e-01) (9, 2.78029063333474679709e+00) (10, 6.80007222994718080189e-02) (11, -4.58780259896683032667e-03) (12, 2.85711139590137219724e-01) (13, 2.70448525942631523566e-01) (14, 2.36572260834621711512e-01) (15, 2.98292760872052975518e-01) (16, -4.57795316682975350631e-01) (0, -1.65320853834835368446e+00) (1, -9.03815439004510973175e-02) (2, -7.86182915825456712922e-02) (3, -5.62043895978540375413e-02) (4, -1.41979416865915340079e-02) (5, -2.08434441086242067120e-01) (6, 5.00365972222511112832e-01) (7, 4.58030097665646118710e-01) (8, 2.66222513290786555462e-01) (9, 1.37693140848737471948e+00) (10, 9.03157509097129718167e-02) (11, 8.63028237940573705878e-01) (12, -7.94395737504289822795e-02) (13, -1.10184086226345304138e-01) (14, -6.32361049966845140125e-02) (15, -3.81419084619234460831e-02) (16, -1.57331885533862791959e-01) (0, -1.27828976076075786494e+01) (1, 1.76692468208177716482e-01) (2, 2.73121190351351184056e-01) (3, 2.28864838463171210714e-01) (4, 2.13665415626867444265e-01) (5, -8.95500206164609791060e-01) (6, 3.20200266967941082896e+00) (7, 1.37738633330580384495e+00) (8, 4.16212971979531776157e+00) (9, 3.33694085868511525206e+00) (10, -5.35945823603054316564e-01) (11, 5.37989320406760285209e+00) (12, 8.16973316625858925200e-01) (13, 1.31573738214826141402e+00) (14, 2.15577729322115829724e-01) (15, 9.87853690356852442989e-01) (16, -1.61857514287335035874e+00) (0, -1.55111965510252236555e+00) (1, -7.45006962436219472012e-02) (2, -1.61667330878754941792e-02) (3, -1.04348839701988341244e-01) (4, -2.44591994899293202481e-02) (5, -7.48232164945099448294e-02) (6, 5.13961295521703886990e-01) (7, 4.45524391265966934750e-01) (8, 2.64755657884025386029e-01) (9, 1.15414412348083783577e+00) (10, 1.27856945044897779562e-01) (11, 8.91470594294162865801e-01) (12, -1.11780922326834120106e-01) (13, -4.90301553254479591248e-02) (14, -1.65074813736868580838e-01) (15, -1.26868088797537859058e-01) (16, -1.04796829842834685054e-01) (0, -1.58435033899130672808e+00) (1, -7.50989341766188089888e-02) (2, -1.65490531951734652638e-02) (3, -9.65076634318182552397e-02) (4, -1.78903790715391225463e-01) (5, -2.50461586939854596867e-01) (6, 4.60858135231255294784e-01) (7, 3.94718609238553008733e-01) (8, 3.77532634642609055131e-01) (9, 1.27439195940197147472e+00) (10, 1.04995655662691075860e-01) (11, 6.73743782965496973425e-01) (12, -2.15522614410302466859e-02) (13, -2.03185810659190529970e-01) (14, -1.33337172569091222396e-01) (15, -2.79723040190492711066e-01) (16, -6.91405943540523426627e-02) (0, 2.97524241970970182436e+00) (1, -1.77002692566609637348e-01) (2, -1.37267950637107935541e-02) (3, -1.64730789111352221576e-01) (4, -1.39466898487305951404e-01) (5, 8.14817410300327282791e-01) (6, -3.74684538551732559952e-01) (7, -8.62231898903076943164e-01) (8, -2.14733783117041332478e-01) (9, -1.01447030324343145935e+00) (10, 5.39731678787343960302e-01) (11, -1.85266961654513551139e+00) (12, -1.59040221349216678859e-02) (13, 1.24398625127249574246e-03) (14, 6.23162414338434444971e-01) (15, 2.17627373692877053302e-02) (16, 1.41727103845996560416e+00) (0, 3.68455058933092161055e+01) (1, -7.84097825743398507692e-02) (2, -1.06566420719786628113e-01) (3, -1.33656858430071745492e-01) (4, -1.84554307685061314004e-01) (5, -4.29510134762689621546e-01) (6, -5.22081458823552349569e-02) (7, 2.68871904627291025136e+00) (8, -6.70511526198600371629e+00) (9, 2.26827493423086723467e+00) (10, -4.67904277163958992602e-01) (11, 1.63864203724018064889e+00) (12, -6.69341765893235418616e+00) (13, -6.73114252859810768825e+00) (14, 7.24026094747070581015e-02) (15, -6.49849650696768588176e+00) (16, 2.86498998528955051146e-01) (0, -3.32860506855477789045e+00) (1, 2.81109676457028889729e-01) (2, 2.46548943913560081320e-01) (3, 3.39233309722524412066e-01) (4, 2.33557880616765189963e-01) (5, 1.77576710919299873837e+00) (6, 1.90080078965304632987e+00) (7, 4.92232178759666877399e-02) (8, 5.14321587545744218772e+00) (9, 8.41413075600735105297e+00) (10, 1.67867372590239449792e+00) (11, 3.18454525637135299476e+00) (12, 5.98276632495589488769e+00) (13, 4.93583930070081677854e+00) (14, 1.57092910285125131331e+00) (15, 4.45051075005436302945e+00) (16, -4.58603202014235478146e+00) (0, -1.93623493986770722763e+00) (1, -6.98633853834474977812e-03) (2, -1.35647803438123243369e-01) (3, -1.21139537436183428176e-01) (4, -1.06198038798983984687e-01) (5, -1.53444081559867689935e-01) (6, 3.79675696528402051300e-01) (7, 5.97364955129482955165e-01) (8, 3.86534513093714948706e-01) (9, 1.19002644892816067390e+00) (10, 8.74093933419615581881e-02) (11, 9.59178937081346050242e-01) (12, -2.92277185407015978325e-02) (13, -6.47982042162197763302e-02) (14, -1.89312875475612374387e-01) (15, -5.35816978256788284396e-02) (16, -1.13499526076535808827e-01) (0, 2.67272239991328586228e+00) (1, -1.84479563405850449653e-01) (2, -6.31791250977809925454e-03) (3, 6.69318539824192548088e-03) (4, -5.35687495974093291773e-02) (5, -2.42301111570079968915e-01) (6, -1.21178269850636781413e-02) (7, -1.05094669640242874276e-01) (8, 1.53153079081603721301e-01) (9, -3.82851298277413654159e-01) (10, -9.22848439075465466763e-03) (11, -2.08436398719426679849e-01) (12, -2.39125177313294218218e-01) (13, -2.01061236420071259845e-01) (14, -1.86354302032043422921e-01) (15, -1.52702495672996763076e-01) (16, 1.88404904557134822429e-01) (17, 1.25584923144032623021e+00) (18, 4.15728759680798198861e-01) (19, -2.34292702569715377559e-01) (20, 1.26764081908757514361e-01) (21, -6.07395952405381800432e-01) (22, -1.68381154011447620178e+00) (23, -7.77860979480932246410e-01) (24, -7.79407984694555744376e-01) (25, 3.26931497633580703255e-01) (26, -6.51205171420067174815e-01) (27, 8.24642239463949211498e-01) 
