FANN_FLO_2.1
num_layers=3
learning_rate=0.700000
connection_rate=1.000000
network_type=0
learning_momentum=0.000000
training_algorithm=2
train_error_function=1
train_stop_function=1
cascade_output_change_fraction=0.010000
quickprop_decay=-0.000100
quickprop_mu=1.750000
rprop_increase_factor=1.200000
rprop_decrease_factor=0.500000
rprop_delta_min=0.000000
rprop_delta_max=50.000000
rprop_delta_zero=0.100000
cascade_output_stagnation_epochs=12
cascade_candidate_change_fraction=0.010000
cascade_candidate_stagnation_epochs=12
cascade_max_out_epochs=150
cascade_min_out_epochs=50
cascade_max_cand_epochs=150
cascade_min_cand_epochs=50
cascade_num_candidate_groups=2
bit_fail_limit=1.00000000000000005551e-01
cascade_candidate_limit=1.00000000000000000000e+03
cascade_weight_multiplier=4.00000000000000022204e-01
cascade_activation_functions_count=10
cascade_activation_functions=3 5 7 8 10 11 14 15 16 17 
cascade_activation_steepnesses_count=4
cascade_activation_steepnesses=2.50000000000000000000e-01 5.00000000000000000000e-01 7.50000000000000000000e-01 1.00000000000000000000e+00 
layer_sizes=9 4 2 
scale_included=0
neurons (num_inputs, activation_function, activation_steepness)=(0, 0, 0.00000000000000000000e+00) (0, 0, 0.00000000000000000000e+00) (0, 0, 0.00000000000000000000e+00) (0, 0, 0.00000000000000000000e+00) (0, 0, 0.00000000000000000000e+00) (0, 0, 0.00000000000000000000e+00) (0, 0, 0.00000000000000000000e+00) (0, 0, 0.00000000000000000000e+00) (0, 0, 0.00000000000000000000e+00) (9, 6, 5.00000000000000000000e-01) (9, 6, 5.00000000000000000000e-01) (9, 6, 5.00000000000000000000e-01) (0, 6, 0.00000000000000000000e+00) (4, 4, 5.00000000000000000000e-01) (0, 4, 0.00000000000000000000e+00) 
connections (connected_to_neuron, weight)=(0, 1.09753763262143810842e-01) (1, -1.31806080507860445827e+00) (2, 5.79868178039849357930e-01) (3, 2.37918093459848420390e-02) (4, 3.49520001193293905484e-02) (5, 3.75252291199945742228e-01) (6, 2.55936561326347844503e-02) (7, -3.06775523510956438233e-01) (8, 4.85402160301493301731e-01) (0, -2.58981168584402343669e+00) (1, 2.34724825550765459070e+00) (2, 6.77105757343717939989e+00) (3, 1.69245980604276713422e+00) (4, 1.37093511094573239362e+00) (5, -2.54822253627562445022e-01) (6, -1.13191311741648492628e+00) (7, 1.02559178327033140299e+00) (8, -3.97003936446742233812e+00) (0, -8.30079786114679696318e-02) (1, 1.75145934503819256101e+00) (2, 3.17856687798425546765e-02) (3, 1.39013311220130053592e-01) (4, 3.14316027079384385789e-01) (5, -5.49897972032912907281e-01) (6, -8.63378434531892613446e-02) (7, 5.30290954330240316139e-01) (8, -1.18235849862438424651e+00) (9, -4.74862680259709346586e+00) (10, 6.26517754461402098798e+00) (11, 6.16513292120405953511e+00) (12, -3.37559649065520650524e+00) 
