FANN_FLO_2.1
num_layers=3
learning_rate=0.700000
connection_rate=1.000000
network_type=0
learning_momentum=0.000000
training_algorithm=2
train_error_function=1
train_stop_function=1
cascade_output_change_fraction=0.010000
quickprop_decay=-0.000100
quickprop_mu=1.750000
rprop_increase_factor=1.200000
rprop_decrease_factor=0.500000
rprop_delta_min=0.000000
rprop_delta_max=50.000000
rprop_delta_zero=0.100000
cascade_output_stagnation_epochs=12
cascade_candidate_change_fraction=0.010000
cascade_candidate_stagnation_epochs=12
cascade_max_out_epochs=150
cascade_min_out_epochs=50
cascade_max_cand_epochs=150
cascade_min_cand_epochs=50
cascade_num_candidate_groups=2
bit_fail_limit=1.00000000000000005551e-01
cascade_candidate_limit=1.00000000000000000000e+03
cascade_weight_multiplier=4.00000000000000022204e-01
cascade_activation_functions_count=10
cascade_activation_functions=3 5 7 8 10 11 14 15 16 17 
cascade_activation_steepnesses_count=4
cascade_activation_steepnesses=2.50000000000000000000e-01 5.00000000000000000000e-01 7.50000000000000000000e-01 1.00000000000000000000e+00 
layer_sizes=18 11 2 
scale_included=0
neurons (num_inputs, activation_function, activation_steepness)=(0, 0, 0.00000000000000000000e+00) (0, 0, 0.00000000000000000000e+00) (0, 0, 0.00000000000000000000e+00) (0, 0, 0.00000000000000000000e+00) (0, 0, 0.00000000000000000000e+00) (0, 0, 0.00000000000000000000e+00) (0, 0, 0.00000000000000000000e+00) (0, 0, 0.00000000000000000000e+00) (0, 0, 0.00000000000000000000e+00) (0, 0, 0.00000000000000000000e+00) (0, 0, 0.00000000000000000000e+00) (0, 0, 0.00000000000000000000e+00) (0, 0, 0.00000000000000000000e+00) (0, 0, 0.00000000000000000000e+00) (0, 0, 0.00000000000000000000e+00) (0, 0, 0.00000000000000000000e+00) (0, 0, 0.00000000000000000000e+00) (0, 0, 0.00000000000000000000e+00) (18, 6, 5.00000000000000000000e-01) (18, 6, 5.00000000000000000000e-01) (18, 6, 5.00000000000000000000e-01) (18, 6, 5.00000000000000000000e-01) (18, 6, 5.00000000000000000000e-01) (18, 6, 5.00000000000000000000e-01) (18, 6, 5.00000000000000000000e-01) (18, 6, 5.00000000000000000000e-01) (18, 6, 5.00000000000000000000e-01) (18, 6, 5.00000000000000000000e-01) (0, 6, 0.00000000000000000000e+00) (11, 6, 5.00000000000000000000e-01) (0, 6, 0.00000000000000000000e+00) 
connections (connected_to_neuron, weight)=(0, -8.73399927187159197395e-01) (1, 1.02942371921261641154e-01) (2, 1.07007870630940291057e-01) (3, 1.13755854026993605266e-01) (4, 6.82941174075211016037e-02) (5, 1.93425746433811586444e-02) (6, 2.74667212944338601233e-01) (7, 2.36767187487351593589e-01) (8, 1.92701601772795405587e+00) (9, 3.65723053905832873323e-01) (10, -2.56088911576340172438e-01) (11, 1.63854423566356155462e-01) (12, 2.83187710507862788756e-01) (13, -8.60025600148572655357e-01) (14, -3.79702691308611839371e-01) (15, -2.79422571611948777903e-01) (16, 3.70977012614453691142e-02) (17, 1.83557629861266002891e-01) (0, 1.20235615817150054419e+00) (1, -2.90078865682585396168e-01) (2, -2.47078294252856017765e-01) (3, -2.54748473262293495534e-01) (4, -3.26508941447241574085e-01) (5, -7.98534616678999054074e-01) (6, 5.34671388827900884166e-02) (7, 1.30955711189154555552e-01) (8, -5.07413002004711088944e+00) (9, 1.47168964445912164862e+00) (10, -5.20269050766752338966e-01) (11, -1.33117120153675681793e-02) (12, 2.20361908999147448895e+00) (13, 2.16669874061216383154e+00) (14, 2.57310776311187316967e-01) (15, 2.56981093597731735656e+00) (16, 3.25079414174168426777e-02) (17, 5.84793068523764447697e-01) (0, 2.05406288100220946191e+00) (1, -4.51362137920572337180e-01) (2, -4.54700951702310618430e-01) (3, -4.43590653366758458365e-01) (4, -3.45506158895208415061e-01) (5, -1.64912225145594493192e+00) (6, 2.06489498713909785943e-01) (7, 5.69095241138829366356e-01) (8, -7.08130748455624203785e+00) (9, -1.41411042161291611308e+00) (10, -8.61418531452320945796e-01) (11, 8.37284725612210567469e-01) (12, 4.08563514215444634203e+00) (13, 2.65280276428561556656e+00) (14, 4.45478418199623249496e-01) (15, 4.22286015213122833956e+00) (16, 7.58535637098407100609e-01) (17, 3.21037144974498589445e-01) (0, 6.55424146744119306973e-01) (1, 1.77212891672417355293e-01) (2, 1.17509601209923555953e-01) (3, 6.68449155433624847555e-02) (4, 1.21023110492676621436e-02) (5, 8.91199803837247728211e-01) (6, 4.80416440812329759158e-01) (7, 7.33761198593273600288e-01) (8, 2.10585241540801204607e+00) (9, 6.08513865777835771809e+00) (10, 3.38947673314458297611e-01) (11, 4.42727368492364270480e-01) (12, 2.71604834842597231415e-01) (13, -9.50987331648246447813e-02) (14, 2.77486011400968568541e-01) (15, -7.55572899847448575805e-01) (16, 4.10716240189970049901e-01) (17, 1.14089702211256791009e-01) (0, -8.60505316245956386467e-01) (1, -2.70589019956655740806e-01) (2, -2.28819828333921837515e-01) (3, -3.56041312071151749841e-01) (4, -3.36708556714124696008e-01) (5, 2.22365180253847299907e-01) (6, 5.21279048442391368390e-01) (7, 6.01700585569866386315e-01) (8, 2.06654259432402742647e+00) (9, 3.22888517362057037019e-01) (10, 2.40500478581801485634e-01) (11, 2.39450899917193316124e-01) (12, 5.77694372355371466021e-01) (13, 5.53229216545632174196e-01) (14, 7.09229079388155270181e-01) (15, 8.78825663003317436583e-01) (16, 5.46855151067688893818e-01) (17, -5.67554349793366608168e-01) (0, -7.72747588896675274839e-01) (1, -2.92197546135133046086e-01) (2, -2.26272536586469258379e-01) (3, -3.64802440773194458501e-01) (4, -2.92078925441449421818e-01) (5, 2.49216598415631096497e-01) (6, 6.16534400999096732221e-01) (7, 5.87956038917519796527e-01) (8, 2.13144272951947488792e+00) (9, 1.45112909367727915821e-01) (10, 2.93183133083945557384e-01) (11, 4.18009237207042014250e-02) (12, 5.40666327800932600134e-01) (13, 7.00021557263390881154e-01) (14, 7.01454250896001774152e-01) (15, 9.56430675995696755187e-01) (16, 4.59242820154145248157e-01) (17, -5.21059336854390320326e-01) (0, 1.41451419678750891507e+01) (1, 1.72744776149237222462e-01) (2, 1.12752112586939221006e-01) (3, 5.32986624436019920670e-02) (4, 2.03062693615400857716e-01) (5, 1.35609714188231178511e+00) (6, 2.04606200544283051146e-01) (7, 3.37890803941095607676e-01) (8, 7.01539746840022537810e+00) (9, 6.08813693347365791908e+00) (10, 1.53103846210950855777e+00) (11, 1.35851715369497161312e+00) (12, -1.54429662113296256587e-01) (13, -3.11506917470001898351e+00) (14, -3.91300086383920053823e-01) (15, -3.70976712755020043844e+00) (16, -2.88333671597766794115e-01) (17, 5.66355776069404209805e-02) (0, 4.36315367880933902001e+00) (1, -1.49877902266202178705e-01) (2, -1.92115988728223052728e-01) (3, -1.70809172239718642938e-01) (4, -1.45536508557019439447e-01) (5, 5.18298661990076250938e-02) (6, -7.85657761112894814648e-02) (7, -2.35589101948828122390e-01) (8, 8.94820432860915060402e-01) (9, 3.98189791493993916482e-01) (10, 2.40282297202110868561e-02) (11, 4.76117162145298200571e-01) (12, 5.93417874301490511080e-01) (13, 1.20721128580772441019e+00) (14, 3.52111077545074813155e-01) (15, 1.16607493334086909087e+00) (16, 5.01056167852074740843e-01) (17, 6.47002985227258964329e-01) (0, 1.41450714406791586697e+01) (1, 7.87798925197734228876e-02) (2, 2.43957438961328348936e-01) (3, 1.98639535800279515287e-01) (4, 1.31811478630365325193e-01) (5, 1.31477168076289863130e+00) (6, 3.42093999473497112351e-01) (7, 3.48068609960878627696e-01) (8, 6.95669133788278415409e+00) (9, 6.15532003688604767433e+00) (10, 9.74822401044233566303e-01) (11, 1.41741272422156061594e+00) (12, 8.30020134835555700725e-02) (13, -2.42801409781913779540e+00) (14, -4.66164091188157547752e-01) (15, -4.14382729075948930131e+00) (16, -3.12252449302005630205e-01) (17, -1.53943153652236042195e-01) (0, -6.32056783369774888293e-01) (1, 2.52322373633780017155e-01) (2, 2.07745311503805513142e-01) (3, 9.55217235736031816673e-02) (4, 2.14319048171438569783e-01) (5, 1.15009150563936923817e+00) (6, 4.62665402737836350955e-01) (7, 6.05352006627217331669e-01) (8, 2.42768119842447616108e+00) (9, 2.10859219480846915573e+00) (10, 4.13988990168115744694e-01) (11, 7.45463761201684449453e-01) (12, 6.23214792677153420208e-02) (13, -1.29872246839560695486e-01) (14, 3.31399507835657081145e-01) (15, -1.80340056155600136911e+00) (16, 4.66244217835367236180e-01) (17, 6.76685122189873838883e-02) (18, 6.70216553152450378317e-02) (19, -4.86257218176098016116e-01) (20, -3.76125676961725885494e-01) (21, 2.96698382691823858703e-01) (22, 2.35306990013189087918e+00) (23, 2.30125411466426577078e+00) (24, 2.99837866306503775249e-01) (25, 2.60203591193705818796e+00) (26, 2.54154795289238399914e-01) (27, 3.30916565761537551094e-01) (28, 6.11515826283903662919e-01) 
