FANN_FLO_2.1
num_layers=3
learning_rate=0.700000
connection_rate=1.000000
network_type=0
learning_momentum=0.000000
training_algorithm=2
train_error_function=1
train_stop_function=1
cascade_output_change_fraction=0.010000
quickprop_decay=-0.000100
quickprop_mu=1.750000
rprop_increase_factor=1.200000
rprop_decrease_factor=0.500000
rprop_delta_min=0.000000
rprop_delta_max=50.000000
rprop_delta_zero=0.100000
cascade_output_stagnation_epochs=12
cascade_candidate_change_fraction=0.010000
cascade_candidate_stagnation_epochs=12
cascade_max_out_epochs=150
cascade_min_out_epochs=50
cascade_max_cand_epochs=150
cascade_min_cand_epochs=50
cascade_num_candidate_groups=2
bit_fail_limit=1.00000000000000005551e-01
cascade_candidate_limit=1.00000000000000000000e+03
cascade_weight_multiplier=4.00000000000000022204e-01
cascade_activation_functions_count=10
cascade_activation_functions=3 5 7 8 10 11 14 15 16 17 
cascade_activation_steepnesses_count=4
cascade_activation_steepnesses=2.50000000000000000000e-01 5.00000000000000000000e-01 7.50000000000000000000e-01 1.00000000000000000000e+00 
layer_sizes=18 11 2 
scale_included=0
neurons (num_inputs, activation_function, activation_steepness)=(0, 0, 0.00000000000000000000e+00) (0, 0, 0.00000000000000000000e+00) (0, 0, 0.00000000000000000000e+00) (0, 0, 0.00000000000000000000e+00) (0, 0, 0.00000000000000000000e+00) (0, 0, 0.00000000000000000000e+00) (0, 0, 0.00000000000000000000e+00) (0, 0, 0.00000000000000000000e+00) (0, 0, 0.00000000000000000000e+00) (0, 0, 0.00000000000000000000e+00) (0, 0, 0.00000000000000000000e+00) (0, 0, 0.00000000000000000000e+00) (0, 0, 0.00000000000000000000e+00) (0, 0, 0.00000000000000000000e+00) (0, 0, 0.00000000000000000000e+00) (0, 0, 0.00000000000000000000e+00) (0, 0, 0.00000000000000000000e+00) (0, 0, 0.00000000000000000000e+00) (18, 6, 5.00000000000000000000e-01) (18, 6, 5.00000000000000000000e-01) (18, 6, 5.00000000000000000000e-01) (18, 6, 5.00000000000000000000e-01) (18, 6, 5.00000000000000000000e-01) (18, 6, 5.00000000000000000000e-01) (18, 6, 5.00000000000000000000e-01) (18, 6, 5.00000000000000000000e-01) (18, 6, 5.00000000000000000000e-01) (18, 6, 5.00000000000000000000e-01) (0, 6, 0.00000000000000000000e+00) (11, 6, 5.00000000000000000000e-01) (0, 6, 0.00000000000000000000e+00) 
connections (connected_to_neuron, weight)=(0, -2.28034278974522552907e-01) (1, -2.08933468392285617843e-02) (2, -5.29999251892958531118e-02) (3, 6.29997809002009190316e-02) (4, 3.36896968575391446074e-03) (5, -1.34355628422689072493e-02) (6, -1.35452800770881598424e+00) (7, 1.49179012220330919902e-01) (8, 2.75089091443952282745e+00) (9, -1.91946879542054005263e+00) (10, -5.49556289342575698953e+00) (11, 4.25881281745947681827e+00) (12, 1.33092111745503238751e+00) (13, -5.59420805864520875872e+00) (14, 1.52176109926320601851e+00) (15, 1.46486731016860549648e-01) (16, 4.07249660227703369486e+00) (17, -3.29982492163600205082e-01) (0, -2.65186721722441953730e-01) (1, -2.14849559034650874900e-02) (2, 1.03972412887638143708e-01) (3, -7.26108027066534600369e-02) (4, -2.68826519514864040183e-02) (5, -7.17976370457439321687e-03) (6, 8.52444311234425100565e-01) (7, 3.18850668672883363897e+00) (8, 7.10661048827513130988e-01) (9, -2.86926985241881915556e+00) (10, 2.88778212296952618843e+00) (11, -6.73490213643442281466e+00) (12, 7.77057996859118116362e+00) (13, 2.17915364243495091046e+00) (14, 7.35647342988455665846e+00) (15, 3.20352192034952931721e+00) (16, 1.82664327016740890564e+00) (17, 6.73849826862866901900e-02) (0, 1.46711215212577197886e-02) (1, -1.91928102857578559981e-02) (2, -1.63649796730983530801e-02) (3, -1.66735678202617511323e-02) (4, 9.51426819675452589697e-02) (5, -4.77431526373057191215e-02) (6, -1.62825838922353027804e-01) (7, 1.46856354141542300162e-01) (8, 4.99847363999743379281e+02) (9, 2.84876194631848767003e+00) (10, -9.00654803774996848276e-01) (11, 7.88588542744381587601e-02) (12, 2.43067005402651303836e-01) (13, 1.03678998396308286178e-01) (14, 3.69800005920917052027e-01) (15, 1.37642305837760464682e-01) (16, 3.11731981341617003789e-01) (17, 2.52963051524932758252e-01) (0, -1.50618894281991655415e-01) (1, 3.61973196986982298506e-02) (2, 2.77175457004377283343e-02) (3, 1.07792467597791694067e-02) (4, -1.29747383558064107931e-03) (5, -5.15104571633645605400e-02) (6, -2.54212760169960505507e+00) (7, -2.01233753015858729540e+00) (8, 8.58143741250685593513e+02) (9, -5.63817305899301590699e+00) (10, -3.38582881720709982787e+00) (11, 9.46152061134874777792e+00) (12, 4.09832885702501314995e+00) (13, 1.80033376687535384697e+00) (14, 3.98358772888092449449e+00) (15, -2.01940220956559324250e+00) (16, -3.78193424937378827599e-02) (17, -1.23268105139387795788e-01) (0, 2.45453203014830059203e+01) (1, 4.49929483419796494292e-01) (2, 4.01915259844204453277e-01) (3, 4.10487614756962326812e-01) (4, 4.35543403214355973052e-01) (5, -2.47379449381533583763e-01) (6, 1.16625002406427133450e-01) (7, -2.23392006107645507695e-01) (8, 5.87201372866946735840e-02) (9, -2.38856834219521685370e+00) (10, -7.73337001031231086046e+00) (11, 2.04328305485322747614e+00) (12, -1.34420223544269723526e+00) (13, -1.75406872460603913133e+00) (14, -1.28900074142501108732e+00) (15, -2.39571666497268159768e-01) (16, -1.09332802795479189228e+00) (17, 3.22228160279818542922e-01) (0, 6.28864622629247715935e+00) (1, 5.12919551019041963791e-01) (2, 4.69086541120384670212e-01) (3, 5.10465076450676735753e-01) (4, 5.03589755181643949911e-01) (5, 2.65309396517824813699e+00) (6, 2.59203071182271260753e+00) (7, 1.25472184045919665785e+00) (8, -4.30424711695100192799e+00) (9, -2.55283459591107675379e+00) (10, 7.49151743334354058845e+00) (11, 6.58166229831803217820e+00) (12, 5.78204350647545495256e-01) (13, 1.32691873129821624744e+00) (14, 5.72001405225538106514e-01) (15, 1.27451607309753334185e+00) (16, 4.99920554422609608736e+00) (17, -1.40363841154855895077e+00) (0, 1.82468038005543427005e+01) (1, 5.14738254642532866434e-01) (2, 6.02906443572090555705e-01) (3, 6.33248776590870310343e-01) (4, 5.61198451018379618205e-01) (5, 1.60358843770659925676e-01) (6, 1.50579230388582147038e-01) (7, 2.33569034146535015051e-01) (8, -5.74829152707303364656e-03) (9, -1.26889544482956917459e-01) (10, -1.25655750885019017460e+01) (11, 1.56741231528331281808e+00) (12, -9.07284745425432692656e-01) (13, -1.75340589075409669650e-01) (14, -9.82889639402947601354e-01) (15, 2.37190095973667358642e-01) (16, -3.15039040268503156561e-01) (17, 5.85664739383657817484e-01) (0, 3.07165998182706800890e+01) (1, 9.72761711841473170059e-02) (2, 1.62570176160896945339e-01) (3, 5.87710640197646391747e-02) (4, 1.60593641436661410671e-01) (5, -7.52549376432999628239e-02) (6, -6.01763313654803400077e-01) (7, -1.23697585539974716506e-01) (8, 8.92637219103905181328e+02) (9, -6.36397334160853134222e+00) (10, -6.35427051928384845070e+00) (11, 2.44918869059243515807e+00) (12, -4.70264225940445756979e-01) (13, -5.23084521339475916335e-01) (14, -4.57419819567190077958e-01) (15, -1.34252400527118370688e-01) (16, -3.61124029048600289626e-02) (17, 9.09956212320625512646e-01) (0, -4.08314484774065566963e-01) (1, -7.00006267616772818313e-03) (2, 7.62878916542761437158e-02) (3, -9.67761539537674991829e-02) (4, 6.51743076126806986093e-02) (5, 1.11107060492137907359e-02) (6, -2.57802621189501424137e-01) (7, 8.53361725607189036680e-02) (8, 8.81198908941406784834e+02) (9, 3.54784036638092603599e-01) (10, 3.46542374281993026397e-01) (11, 5.26440203971269005123e-01) (12, 1.20266994591944942350e+00) (13, -4.37645083957921357531e-02) (14, 7.27359311513878892264e-01) (15, 1.59353153988348428260e-01) (16, 1.43768049060104596837e-01) (17, -7.12298925873018629051e-03) (0, -4.97344484166683642457e-01) (1, 5.75003530112233526839e-02) (2, -4.31021732064757259750e-02) (3, 3.50175406065907704467e-02) (4, -5.89417536529574168092e-02) (5, 1.90246616292350685662e-02) (6, -2.81075439744343624771e-01) (7, 1.41529098550787324484e-01) (8, 9.27634413466965384032e+01) (9, 7.90170358481779300241e-01) (10, 3.34085931311086437034e-01) (11, 4.75707952544743156720e-02) (12, 4.39249932865401759852e-01) (13, -1.02537661837822216548e-01) (14, 3.66149802740802665646e-01) (15, 9.92685704755835451873e-02) (16, 2.39574959710136314861e-01) (17, -1.13129013967465066881e-01) (18, -1.18274121772955723153e-01) (19, -2.99663658869397053763e-01) (20, 9.84704174665835374469e-01) (21, -2.74378142846085970596e-01) (22, -9.82791703220168066935e-01) (23, 8.51644831100542010205e-01) (24, -1.34370804790919295968e+00) (25, 9.25933132511262191322e-01) (26, 3.09985608012606439488e-01) (27, 3.09949764986573061964e-01) (28, 4.99853062664548208893e-01) 
