FANN_FLO_2.1
num_layers=3
learning_rate=0.700000
connection_rate=1.000000
network_type=0
learning_momentum=0.000000
training_algorithm=2
train_error_function=1
train_stop_function=1
cascade_output_change_fraction=0.010000
quickprop_decay=-0.000100
quickprop_mu=1.750000
rprop_increase_factor=1.200000
rprop_decrease_factor=0.500000
rprop_delta_min=0.000000
rprop_delta_max=50.000000
rprop_delta_zero=0.100000
cascade_output_stagnation_epochs=12
cascade_candidate_change_fraction=0.010000
cascade_candidate_stagnation_epochs=12
cascade_max_out_epochs=150
cascade_min_out_epochs=50
cascade_max_cand_epochs=150
cascade_min_cand_epochs=50
cascade_num_candidate_groups=2
bit_fail_limit=1.00000000000000005551e-01
cascade_candidate_limit=1.00000000000000000000e+03
cascade_weight_multiplier=4.00000000000000022204e-01
cascade_activation_functions_count=10
cascade_activation_functions=3 5 7 8 10 11 14 15 16 17 
cascade_activation_steepnesses_count=4
cascade_activation_steepnesses=2.50000000000000000000e-01 5.00000000000000000000e-01 7.50000000000000000000e-01 1.00000000000000000000e+00 
layer_sizes=9 11 2 
scale_included=0
neurons (num_inputs, activation_function, activation_steepness)=(0, 0, 0.00000000000000000000e+00) (0, 0, 0.00000000000000000000e+00) (0, 0, 0.00000000000000000000e+00) (0, 0, 0.00000000000000000000e+00) (0, 0, 0.00000000000000000000e+00) (0, 0, 0.00000000000000000000e+00) (0, 0, 0.00000000000000000000e+00) (0, 0, 0.00000000000000000000e+00) (0, 0, 0.00000000000000000000e+00) (9, 6, 5.00000000000000000000e-01) (9, 6, 5.00000000000000000000e-01) (9, 6, 5.00000000000000000000e-01) (9, 6, 5.00000000000000000000e-01) (9, 6, 5.00000000000000000000e-01) (9, 6, 5.00000000000000000000e-01) (9, 6, 5.00000000000000000000e-01) (9, 6, 5.00000000000000000000e-01) (9, 6, 5.00000000000000000000e-01) (9, 6, 5.00000000000000000000e-01) (0, 6, 0.00000000000000000000e+00) (11, 6, 5.00000000000000000000e-01) (0, 6, 0.00000000000000000000e+00) 
connections (connected_to_neuron, weight)=(0, 1.92693097447324923621e+00) (1, 1.85975023429741509462e-01) (2, 2.20517662238230410798e-01) (3, 2.36979295384039528871e-01) (4, 3.28193587135424236223e-01) (5, -2.18819947471399744998e+00) (6, -1.39803925152829189305e-01) (7, 4.98117141528885531976e-01) (8, 2.10500417976480863613e-01) (0, -6.53385136248817000038e-01) (1, 3.50224299888158785432e-01) (2, 2.33893147270227502732e-01) (3, 2.89753830592180239289e-01) (4, 3.39811875085378634065e-01) (5, 5.29527386310397307767e+00) (6, 1.33906694485775162873e-01) (7, -1.20548121016569864672e-02) (8, 3.29133450559995710538e-01) (0, -3.52128028831952821776e-01) (1, 3.12359555224920260041e-01) (2, 3.47789003114248262971e-01) (3, 3.74562932710195528596e-01) (4, 2.01146042506242767045e-01) (5, 5.33919356423317115201e+00) (6, 1.41816556978059143956e-01) (7, 4.03787717837743448390e-02) (8, 3.53967869083760711124e-01) (0, -1.12729887498927400236e-01) (1, -1.06729351404525607538e-01) (2, -2.27684677067615415247e-01) (3, -1.49236239913322354944e-01) (4, -1.83697946790077115686e-01) (5, 1.83234215242664033596e+00) (6, -1.72084022216250021042e-01) (7, 4.08334686005928981789e-01) (8, -1.55818083007456864575e-01) (0, 5.62665676938547187902e-01) (1, 4.32631811961584844539e-01) (2, 6.11061586901598619015e-01) (3, 4.43738601073675908992e-01) (4, 4.38156007692271032283e-01) (5, -4.46465865927781990763e+00) (6, 1.50944903010465453219e-01) (7, 3.20186503201748184910e-01) (8, 1.61257738923579774237e+00) (0, 1.90578475152422122108e+00) (1, 3.14264217097526166178e-01) (2, 2.70749592859511944987e-01) (3, 1.98113055605655369318e-01) (4, 2.90386059958701703287e-01) (5, -2.68000110177080363982e+00) (6, -1.37384729083588619236e-01) (7, 5.27070649071495700433e-01) (8, 2.30860708980661771816e-01) (0, 1.40344638286810097227e-01) (1, 3.78785818019858833150e-01) (2, 3.51371779242507453755e-01) (3, 2.50253173658601224538e-01) (4, 3.00612627664557929830e-01) (5, 5.38674467462001960172e+00) (6, 3.10819163003911769216e-01) (7, -1.47328487914152872484e-02) (8, 2.20904279075286980039e-01) (0, 1.82406456326414279090e+00) (1, 2.11355379140498816914e-01) (2, 1.95908645457151114888e-01) (3, 2.54454681939008497960e-01) (4, 1.96978306686999976582e-01) (5, -2.21940763134122365230e+00) (6, -5.73297306857614361042e-02) (7, 4.63279344244759250238e-01) (8, 2.43112324504953764004e-01) (0, -2.06247958375525786145e-01) (1, -1.91096582165338535475e-01) (2, -1.41416386416532535719e-01) (3, -2.00016894093133945631e-01) (4, -2.89211400499918058760e-01) (5, 1.87168901873628312771e+00) (6, -1.40295664670829905996e-01) (7, 2.78136638395532986845e-01) (8, -1.47455908973338184476e-01) (0, 3.25273860737565312373e-01) (1, 3.30323111224998910984e-01) (2, 2.63239677954544559757e-01) (3, 3.81259735632767160496e-01) (4, 4.30513139773239572605e-01) (5, -2.76766145294695276036e+00) (6, -2.16526715658588025937e-02) (7, -2.71083883721969509661e-02) (8, 4.53795725313863307360e-01) (9, -1.95425630526685906174e-01) (10, 4.37581263764851124964e-01) (11, 4.28882025464527638636e-01) (12, 5.45498737119993526434e-01) (13, -1.12085716488813505465e-01) (14, -2.16100038008833122971e-01) (15, 4.07415332952234032771e-01) (16, -1.44136504249715996506e-01) (17, 5.24875153773388225531e-01) (18, -1.08800748305464031751e-01) (19, 4.51810925693369780376e-01) 
