FANN_FLO_2.1
num_layers=3
learning_rate=0.700000
connection_rate=1.000000
network_type=0
learning_momentum=0.000000
training_algorithm=2
train_error_function=1
train_stop_function=1
cascade_output_change_fraction=0.010000
quickprop_decay=-0.000100
quickprop_mu=1.750000
rprop_increase_factor=1.200000
rprop_decrease_factor=0.500000
rprop_delta_min=0.000000
rprop_delta_max=50.000000
rprop_delta_zero=0.100000
cascade_output_stagnation_epochs=12
cascade_candidate_change_fraction=0.010000
cascade_candidate_stagnation_epochs=12
cascade_max_out_epochs=150
cascade_min_out_epochs=50
cascade_max_cand_epochs=150
cascade_min_cand_epochs=50
cascade_num_candidate_groups=2
bit_fail_limit=1.00000000000000005551e-01
cascade_candidate_limit=1.00000000000000000000e+03
cascade_weight_multiplier=4.00000000000000022204e-01
cascade_activation_functions_count=10
cascade_activation_functions=3 5 7 8 10 11 14 15 16 17 
cascade_activation_steepnesses_count=4
cascade_activation_steepnesses=2.50000000000000000000e-01 5.00000000000000000000e-01 7.50000000000000000000e-01 1.00000000000000000000e+00 
layer_sizes=22 11 2 
scale_included=0
neurons (num_inputs, activation_function, activation_steepness)=(0, 0, 0.00000000000000000000e+00) (0, 0, 0.00000000000000000000e+00) (0, 0, 0.00000000000000000000e+00) (0, 0, 0.00000000000000000000e+00) (0, 0, 0.00000000000000000000e+00) (0, 0, 0.00000000000000000000e+00) (0, 0, 0.00000000000000000000e+00) (0, 0, 0.00000000000000000000e+00) (0, 0, 0.00000000000000000000e+00) (0, 0, 0.00000000000000000000e+00) (0, 0, 0.00000000000000000000e+00) (0, 0, 0.00000000000000000000e+00) (0, 0, 0.00000000000000000000e+00) (0, 0, 0.00000000000000000000e+00) (0, 0, 0.00000000000000000000e+00) (0, 0, 0.00000000000000000000e+00) (0, 0, 0.00000000000000000000e+00) (0, 0, 0.00000000000000000000e+00) (0, 0, 0.00000000000000000000e+00) (0, 0, 0.00000000000000000000e+00) (0, 0, 0.00000000000000000000e+00) (0, 0, 0.00000000000000000000e+00) (22, 6, 5.00000000000000000000e-01) (22, 6, 5.00000000000000000000e-01) (22, 6, 5.00000000000000000000e-01) (22, 6, 5.00000000000000000000e-01) (22, 6, 5.00000000000000000000e-01) (22, 6, 5.00000000000000000000e-01) (22, 6, 5.00000000000000000000e-01) (22, 6, 5.00000000000000000000e-01) (22, 6, 5.00000000000000000000e-01) (22, 6, 5.00000000000000000000e-01) (0, 6, 0.00000000000000000000e+00) (11, 6, 5.00000000000000000000e-01) (0, 6, 0.00000000000000000000e+00) 
connections (connected_to_neuron, weight)=(0, 5.83436369561625284286e-02) (1, -3.80971072711770511465e-02) (2, -2.96664176978890942182e-02) (3, -1.68526308099252508654e-01) (4, -1.26613756129962756747e-01) (5, -2.41410981117854683831e+00) (6, -8.27307895242902942290e-03) (7, -7.00469026396801197620e-01) (8, -4.69426248221637809621e-01) (9, 5.90287519145692307632e+00) (10, -5.40800106924606074910e-02) (11, 2.15273049851702424906e-01) (12, -1.28438387137167331353e+00) (13, -1.73979823558893409441e+00) (14, -7.22328523599143068612e-02) (15, -1.44439419202115759688e+00) (16, -1.14867944177921166293e+00) (17, -7.19147392336509094779e-02) (18, -8.27392178189067961647e-01) (19, -6.17483741352250037338e-01) (20, 6.17090388227561140178e-02) (21, -6.19647104059822539934e-02) (0, 3.63937312248597155673e-01) (1, 3.86168173842121667527e-02) (2, 3.61971072249104089402e-02) (3, -1.00296665043384983229e-01) (4, -2.66286321587871424588e-02) (5, 2.01390198880329274189e+00) (6, 2.70213370631073833417e-02) (7, 4.72026713949738393694e+02) (8, 7.82263692078763339666e-01) (9, -6.98531554951597488667e+00) (10, -1.01535458787263430103e-01) (11, 3.05011441535939620273e-01) (12, 1.60971136634994316239e+00) (13, 2.04480688634368146239e+00) (14, 1.39582751934199777999e-01) (15, 1.36467022067318257683e+01) (16, 1.79733028316230591948e+00) (17, 4.86648556115135744182e-01) (18, 1.03428940913140832158e+00) (19, 3.07305200762500930978e+02) (20, 1.13022131847465434618e+00) (21, 6.00375663018413274763e-01) (0, 5.03240521190433298671e+00) (1, 3.26123638565814832901e-01) (2, 3.23607398684299329972e-01) (3, 2.98909562195814104690e-01) (4, 2.60524159784591646805e-01) (5, 1.70570117977107784668e+01) (6, -1.88686292605829120106e+00) (7, -2.90661652606457554526e+00) (8, 5.00338977266615714257e+00) (9, -7.47487076494348645639e-01) (10, -1.57564244966530475622e+00) (11, -2.58422493434987965433e-01) (12, -3.50825943603949941263e+00) (13, -2.24083461105376358091e+00) (14, 4.83268963786284533324e-01) (15, 2.60803882366865806830e+01) (16, 9.95466309865730991646e+00) (17, 7.05249946137206817909e-01) (18, 3.85267312322020671900e+00) (19, 6.75214428781322872908e-01) (20, -3.13125262026299699958e-01) (21, -2.26749018037479732612e+00) (0, 1.08215853907197345762e+00) (1, 2.95151450908880674806e-01) (2, 3.06445495463114225831e-01) (3, 3.52125690556269077547e-01) (4, 3.48832302964430240877e-01) (5, 3.22582564088150292037e+00) (6, -1.67092449032805318021e-02) (7, -8.52673908253439272187e+00) (8, 4.92608160174734410752e-01) (9, 4.39586121069857469479e+01) (10, 1.19886084663853287324e+00) (11, -1.73824249681405929024e+00) (12, -1.64248592547731386837e+00) (13, -4.02679212618100912380e+00) (14, -3.87070905474058202245e-01) (15, -1.73490952412587029485e+00) (16, 1.11593526882970195402e+01) (17, 4.61401749949740702661e-01) (18, 3.97729517132381582556e+00) (19, -2.33143701740414854839e+01) (20, -2.51708177448356718031e-01) (21, 3.11115188350150950747e-01) (0, -7.84685967922708460520e+00) (1, -5.68232236919467489922e-02) (2, -8.41852127132480393401e-02) (3, -1.51383332770830908443e-01) (4, -1.28191340577370443965e-01) (5, -3.69882699724840391386e-01) (6, 3.52242090635878080107e-02) (7, 1.40229350041296019214e+00) (8, -2.80892044069285251595e-01) (9, 1.62914748450473667596e+00) (10, 7.31766967279503383059e-02) (11, -2.57497916877701016336e-01) (12, 1.32828885243982730557e-01) (13, 1.66091286883276068043e-01) (14, -3.97180369550233780540e-01) (15, 5.54804853452930069047e-01) (16, 2.36890195806715242455e+00) (17, -1.24187924274223893129e+00) (18, -5.94497121391126093215e-01) (19, 2.96886741879296145452e-01) (20, 2.58977347278198655189e-01) (21, -5.71918314047280884616e-01) (0, 5.57448957783057585935e-01) (1, -4.93107008743850841470e-02) (2, 1.15771865565720305513e-01) (3, 4.12110221576125826393e-02) (4, -7.42710101414292001021e-02) (5, 5.74605895633585883608e-01) (6, 1.59497886300887931066e-02) (7, 1.93487736841347546246e+00) (8, 2.77042439058418699105e+00) (9, -4.42078177427396301624e+00) (10, 5.44484846269303601751e-02) (11, 4.40062299200863427107e-01) (12, -2.78435347185933657066e-01) (13, 1.35171987563764317564e+00) (14, 3.59732875862592060834e-01) (15, -2.05753222387571721441e+00) (16, -3.90381121615050874496e+00) (17, 8.31974384828219903909e+00) (18, 2.40512895576117058383e+00) (19, -1.45150824808899514551e+00) (20, -4.47767746827625379158e-01) (21, 5.52577423558314406726e-01) (0, -1.05654545473831973368e+00) (1, 6.19815584256136198338e-02) (2, 3.33726402356111992442e-02) (3, -9.99156423073174759786e-03) (4, 2.72496636940919856329e-02) (5, -3.85529730008959015120e-01) (6, -8.46771142056183395708e-02) (7, 1.48729279361838528928e+00) (8, -1.59271965535840470674e-01) (9, 2.87672992634722901606e-01) (10, -2.24440899246045946769e-02) (11, -3.38894339497575358688e-01) (12, 3.78304936197103244822e-02) (13, 3.78788709355920349964e-01) (14, -2.35087848115034664387e-01) (15, 7.65760466566997921589e-01) (16, -1.90537458748134519437e-01) (17, -1.60291338811808403708e-01) (18, -5.12911452888651808735e-01) (19, 5.05783779125601129500e-01) (20, 1.38110562706760309215e-01) (21, -2.61888852824806728226e-01) (0, 3.11717788315806043631e-01) (1, 5.39912984132051132491e-01) (2, 5.15623469262599720686e-01) (3, 6.37399096398829856369e-01) (4, 5.48650566845416687300e-01) (5, -4.90801869344165897502e+00) (6, 3.98467120714602396347e+00) (7, 1.56806136596337264422e+00) (8, 8.66090536830730672868e-01) (9, 2.98153240704455324561e+00) (10, 1.95031228941988099557e+00) (11, 8.76687407065990659261e-02) (12, -1.34525182605277765502e-01) (13, -1.48729961990602141952e+01) (14, 8.67143307835269361306e+00) (15, 5.92749783424882714655e-01) (16, -1.15119253047248939481e+01) (17, 1.97675102214972864267e+00) (18, 6.89879867647964850619e+00) (19, -1.44890271133614234600e+00) (20, 4.95836312486960295587e+00) (21, 2.08744224903604624899e+00) (0, 1.84305883174310136674e+00) (1, 4.14207782115383116306e-01) (2, 3.09966396059436877231e-01) (3, 3.48458665873451256534e-01) (4, 2.81545798744602226993e-01) (5, 1.71662974898834264081e+01) (6, 4.97408277796161757411e-01) (7, -4.52752335904014557855e+00) (8, 2.32367068628917694539e+00) (9, -2.71457267050825334920e+00) (10, -1.07721612186475002026e+00) (11, 2.98891547165090498694e+00) (12, 2.63913526041790946763e+00) (13, 5.24876765844252872739e+01) (14, 8.49800949609790690076e-01) (15, 2.64408204940046820397e+00) (16, 6.83905024316472953672e+00) (17, 9.58650586278449123867e-01) (18, 1.45360479348972724267e+01) (19, -1.78982063942011193625e+00) (20, -2.01710085638762887106e-01) (21, -8.31743097838674588784e-02) (0, 1.41437774064455656919e+00) (1, 5.86884085979453573589e-02) (2, 8.20875939872255655505e-02) (3, 1.99825218781470470564e-01) (4, 3.58040098991385599692e-02) (5, -7.02169457947322217528e-01) (6, -8.21090872089945550405e-02) (7, -3.14449661475912112252e+00) (8, -8.85081885171628973685e-02) (9, 7.66405471100975006493e+01) (10, 1.65622027899253465577e+00) (11, -3.23549065941290792114e-01) (12, -3.54537931536991313131e-01) (13, -2.32027406488731324785e+00) (14, 1.17908577947875059522e+00) (15, -1.42418591746889457994e+01) (16, 7.06643261764053409735e+00) (17, 7.40737422268536338521e-01) (18, 2.77055710799900589691e+00) (19, -1.07080042532461998661e+01) (20, -9.07478989461273477524e-01) (21, 2.16952905646510318949e-01) (22, 7.24620236122837435566e-01) (23, 9.68471960292541789173e-01) (24, 1.19960690799638378112e-01) (25, 1.53001670086129470949e-01) (26, 6.32951568740757974929e-01) (27, -2.27054395391323521336e-01) (28, 7.52892187917101773920e-01) (29, -4.11119120346310484848e-01) (30, 3.55452701599874354432e-01) (31, 2.58229071650407815408e-01) (32, 4.37694725576428855796e-01) 
