FANN_FLO_2.1
num_layers=3
learning_rate=0.700000
connection_rate=1.000000
network_type=0
learning_momentum=0.000000
training_algorithm=2
train_error_function=1
train_stop_function=1
cascade_output_change_fraction=0.010000
quickprop_decay=-0.000100
quickprop_mu=1.750000
rprop_increase_factor=1.200000
rprop_decrease_factor=0.500000
rprop_delta_min=0.000000
rprop_delta_max=50.000000
rprop_delta_zero=0.100000
cascade_output_stagnation_epochs=12
cascade_candidate_change_fraction=0.010000
cascade_candidate_stagnation_epochs=12
cascade_max_out_epochs=150
cascade_min_out_epochs=50
cascade_max_cand_epochs=150
cascade_min_cand_epochs=50
cascade_num_candidate_groups=2
bit_fail_limit=1.00000000000000005551e-01
cascade_candidate_limit=1.00000000000000000000e+03
cascade_weight_multiplier=4.00000000000000022204e-01
cascade_activation_functions_count=10
cascade_activation_functions=3 5 7 8 10 11 14 15 16 17 
cascade_activation_steepnesses_count=4
cascade_activation_steepnesses=2.50000000000000000000e-01 5.00000000000000000000e-01 7.50000000000000000000e-01 1.00000000000000000000e+00 
layer_sizes=34 4 2 
scale_included=0
neurons (num_inputs, activation_function, activation_steepness)=(0, 0, 0.00000000000000000000e+00) (0, 0, 0.00000000000000000000e+00) (0, 0, 0.00000000000000000000e+00) (0, 0, 0.00000000000000000000e+00) (0, 0, 0.00000000000000000000e+00) (0, 0, 0.00000000000000000000e+00) (0, 0, 0.00000000000000000000e+00) (0, 0, 0.00000000000000000000e+00) (0, 0, 0.00000000000000000000e+00) (0, 0, 0.00000000000000000000e+00) (0, 0, 0.00000000000000000000e+00) (0, 0, 0.00000000000000000000e+00) (0, 0, 0.00000000000000000000e+00) (0, 0, 0.00000000000000000000e+00) (0, 0, 0.00000000000000000000e+00) (0, 0, 0.00000000000000000000e+00) (0, 0, 0.00000000000000000000e+00) (0, 0, 0.00000000000000000000e+00) (0, 0, 0.00000000000000000000e+00) (0, 0, 0.00000000000000000000e+00) (0, 0, 0.00000000000000000000e+00) (0, 0, 0.00000000000000000000e+00) (0, 0, 0.00000000000000000000e+00) (0, 0, 0.00000000000000000000e+00) (0, 0, 0.00000000000000000000e+00) (0, 0, 0.00000000000000000000e+00) (0, 0, 0.00000000000000000000e+00) (0, 0, 0.00000000000000000000e+00) (0, 0, 0.00000000000000000000e+00) (0, 0, 0.00000000000000000000e+00) (0, 0, 0.00000000000000000000e+00) (0, 0, 0.00000000000000000000e+00) (0, 0, 0.00000000000000000000e+00) (0, 0, 0.00000000000000000000e+00) (34, 6, 5.00000000000000000000e-01) (34, 6, 5.00000000000000000000e-01) (34, 6, 5.00000000000000000000e-01) (0, 6, 0.00000000000000000000e+00) (4, 4, 5.00000000000000000000e-01) (0, 4, 0.00000000000000000000e+00) 
connections (connected_to_neuron, weight)=(0, 2.23425372829447477230e+00) (1, 2.70715304260329148178e+00) (2, 6.77573791489998883408e-02) (3, -6.61971979672271060302e-01) (4, 2.52138527924222477505e-01) (5, -4.98843614775001942263e-01) (6, 1.40214487285401512295e+00) (7, 1.35610262983861709074e+01) (8, 1.33066932076501154292e+00) (9, 4.36222416215462427402e-01) (10, -9.94572195241058332194e-01) (11, 1.50000000000000000000e+03) (12, 1.80882476178244022691e+00) (13, 1.95182956653688766124e+00) (14, 9.72097777675105589879e+00) (15, 1.20302314332085824589e+01) (16, 1.38104137606154839801e+01) (17, 1.84061780529039809018e+00) (18, 2.84523516796018753894e+01) (19, 3.56479600554818398805e+00) (20, 1.47463376902764302656e+01) (21, 1.83964309331062092490e+00) (22, 1.45265977423080023812e+01) (23, -2.29914415749060685457e+00) (24, 2.46316201721528527102e+00) (25, -3.23115409619510796091e+00) (26, -7.91313774914383816217e-01) (27, 1.43935224842572552006e+02) (28, 2.69935737397500133739e+02) (29, 7.70282001571240897420e+01) (30, 6.02660031602507118009e+00) (31, -8.06821771055767023029e+00) (32, 2.06728010055535129652e+01) (33, -3.14685238855753768306e+00) (0, 1.87806279524229924327e+00) (1, 4.62232826942680141702e-01) (2, 1.78270588390566619985e+00) (3, 2.83905429842939804885e+00) (4, 1.84717251450779307298e+00) (5, -9.50362295375805354869e-02) (6, 9.78982384421197893154e-01) (7, 8.15985009197617117138e+00) (8, 3.71562214656308071881e+01) (9, 3.10655061045407254738e+00) (10, -3.14196764457674582172e-01) (11, 7.66176612066529173717e+02) (12, 1.78531543859446912847e+01) (13, -6.76110123414715324941e+00) (14, -1.29235149567736389287e+01) (15, 1.50000000000000000000e+03) (16, 1.50000000000000000000e+03) (17, 4.52371262739113930706e+01) (18, 1.28972540346358943708e+01) (19, 2.53423273503376922378e+00) (20, 4.50995903339224213369e+01) (21, 1.99898876998853869402e+00) (22, 2.87816617190101720070e+00) (23, 4.14043138719997401154e+01) (24, 3.38753357255422260508e+00) (25, 3.02047669418649933348e+00) (26, 2.45772086526627742131e+00) (27, 2.21914503447420976556e+01) (28, 4.50744936819064818678e+01) (29, 2.12323262749383800951e+01) (30, 4.96572398760578792576e+00) (31, -8.83638601978818805094e+00) (32, 8.47727378061864982328e+01) (33, -4.01206709435761599281e+00) (0, -5.30475788960151906082e+00) (1, -3.70034704455840790516e+00) (2, -1.89800204598698396552e-01) (3, 5.35091969033541836609e-01) (4, -9.60274660323122142280e-01) (5, -3.13422086078308126389e+00) (6, -3.49566082693832003159e+00) (7, 5.29843688786146493896e+00) (8, 6.88119655409563879545e+00) (9, -5.80926069759411634053e-01) (10, -2.99805566030703563030e+00) (11, 1.87939233334413309251e+01) (12, -1.05599832892986578159e+00) (13, -2.37435845078963936317e+00) (14, 2.53679414659289825806e+00) (15, 3.41171224812782236668e+00) (16, 6.71867730362849346903e+00) (17, -1.05777562595022378567e+00) (18, 8.50327216618161507711e+00) (19, -1.57474326818134158223e+00) (20, 2.52522191672284845865e+00) (21, -6.41728420094370838322e-02) (22, -1.36653211031680199561e+00) (23, 1.79953209519953016837e+00) (24, 1.70873674127473473838e+00) (25, -8.09403010200945627339e-01) (26, 1.82573293170717632083e-01) (27, 6.38497042870973974260e+00) (28, 1.04330572258537532804e+01) (29, 6.38384872170853245876e+00) (30, -5.07355508904475094312e+00) (31, 8.01228861105070144788e+00) (32, 7.59870418046562789982e+00) (33, 4.42345261526105382188e+00) (34, 3.60180445904405033275e+01) (35, 2.05688772420257954820e+01) (36, -6.48275109812183245594e+01) (37, -1.24502759855626687902e+00) 
