FANN_FLO_2.1
num_layers=3
learning_rate=0.700000
connection_rate=1.000000
network_type=0
learning_momentum=0.000000
training_algorithm=2
train_error_function=1
train_stop_function=1
cascade_output_change_fraction=0.010000
quickprop_decay=-0.000100
quickprop_mu=1.750000
rprop_increase_factor=1.200000
rprop_decrease_factor=0.500000
rprop_delta_min=0.000000
rprop_delta_max=50.000000
rprop_delta_zero=0.100000
cascade_output_stagnation_epochs=12
cascade_candidate_change_fraction=0.010000
cascade_candidate_stagnation_epochs=12
cascade_max_out_epochs=150
cascade_min_out_epochs=50
cascade_max_cand_epochs=150
cascade_min_cand_epochs=50
cascade_num_candidate_groups=2
bit_fail_limit=1.00000000000000005551e-01
cascade_candidate_limit=1.00000000000000000000e+03
cascade_weight_multiplier=4.00000000000000022204e-01
cascade_activation_functions_count=10
cascade_activation_functions=3 5 7 8 10 11 14 15 16 17 
cascade_activation_steepnesses_count=4
cascade_activation_steepnesses=2.50000000000000000000e-01 5.00000000000000000000e-01 7.50000000000000000000e-01 1.00000000000000000000e+00 
layer_sizes=69 11 2 
scale_included=0
neurons (num_inputs, activation_function, activation_steepness)=(0, 0, 0.00000000000000000000e+00) (0, 0, 0.00000000000000000000e+00) (0, 0, 0.00000000000000000000e+00) (0, 0, 0.00000000000000000000e+00) (0, 0, 0.00000000000000000000e+00) (0, 0, 0.00000000000000000000e+00) (0, 0, 0.00000000000000000000e+00) (0, 0, 0.00000000000000000000e+00) (0, 0, 0.00000000000000000000e+00) (0, 0, 0.00000000000000000000e+00) (0, 0, 0.00000000000000000000e+00) (0, 0, 0.00000000000000000000e+00) (0, 0, 0.00000000000000000000e+00) (0, 0, 0.00000000000000000000e+00) (0, 0, 0.00000000000000000000e+00) (0, 0, 0.00000000000000000000e+00) (0, 0, 0.00000000000000000000e+00) (0, 0, 0.00000000000000000000e+00) (0, 0, 0.00000000000000000000e+00) (0, 0, 0.00000000000000000000e+00) (0, 0, 0.00000000000000000000e+00) (0, 0, 0.00000000000000000000e+00) (0, 0, 0.00000000000000000000e+00) (0, 0, 0.00000000000000000000e+00) (0, 0, 0.00000000000000000000e+00) (0, 0, 0.00000000000000000000e+00) (0, 0, 0.00000000000000000000e+00) (0, 0, 0.00000000000000000000e+00) (0, 0, 0.00000000000000000000e+00) (0, 0, 0.00000000000000000000e+00) (0, 0, 0.00000000000000000000e+00) (0, 0, 0.00000000000000000000e+00) (0, 0, 0.00000000000000000000e+00) (0, 0, 0.00000000000000000000e+00) (0, 0, 0.00000000000000000000e+00) (0, 0, 0.00000000000000000000e+00) (0, 0, 0.00000000000000000000e+00) (0, 0, 0.00000000000000000000e+00) (0, 0, 0.00000000000000000000e+00) (0, 0, 0.00000000000000000000e+00) (0, 0, 0.00000000000000000000e+00) (0, 0, 0.00000000000000000000e+00) (0, 0, 0.00000000000000000000e+00) (0, 0, 0.00000000000000000000e+00) (0, 0, 0.00000000000000000000e+00) (0, 0, 0.00000000000000000000e+00) (0, 0, 0.00000000000000000000e+00) (0, 0, 0.00000000000000000000e+00) (0, 0, 0.00000000000000000000e+00) (0, 0, 0.00000000000000000000e+00) (0, 0, 0.00000000000000000000e+00) (0, 0, 0.00000000000000000000e+00) (0, 0, 0.00000000000000000000e+00) (0, 0, 0.00000000000000000000e+00) (0, 0, 0.00000000000000000000e+00) (0, 0, 0.00000000000000000000e+00) (0, 0, 0.00000000000000000000e+00) (0, 0, 0.00000000000000000000e+00) (0, 0, 0.00000000000000000000e+00) (0, 0, 0.00000000000000000000e+00) (0, 0, 0.00000000000000000000e+00) (0, 0, 0.00000000000000000000e+00) (0, 0, 0.00000000000000000000e+00) (0, 0, 0.00000000000000000000e+00) (0, 0, 0.00000000000000000000e+00) (0, 0, 0.00000000000000000000e+00) (0, 0, 0.00000000000000000000e+00) (0, 0, 0.00000000000000000000e+00) (0, 0, 0.00000000000000000000e+00) (69, 6, 5.00000000000000000000e-01) (69, 6, 5.00000000000000000000e-01) (69, 6, 5.00000000000000000000e-01) (69, 6, 5.00000000000000000000e-01) (69, 6, 5.00000000000000000000e-01) (69, 6, 5.00000000000000000000e-01) (69, 6, 5.00000000000000000000e-01) (69, 6, 5.00000000000000000000e-01) (69, 6, 5.00000000000000000000e-01) (69, 6, 5.00000000000000000000e-01) (0, 6, 0.00000000000000000000e+00) (11, 6, 5.00000000000000000000e-01) (0, 6, 0.00000000000000000000e+00) 
connections (connected_to_neuron, weight)=(0, 1.48916049188722232621e+00) (1, 1.10296450578398597120e-01) (2, 1.84741877042479435422e-01) (3, 1.08771182619757544874e-01) (4, 6.21947944395016827368e-02) (5, 1.06199692600756012695e+00) (6, 5.31697303692667322395e-01) (7, 6.03014386949436570484e-02) (8, -3.02180447197154311567e+00) (9, 5.17778608853959210201e-01) (10, -1.91546569102286334818e+00) (11, 1.42876872975958901790e+00) (12, 3.24708326683287085146e+00) (13, 9.03196345586453896992e-01) (14, -7.89408210774290575173e-01) (15, 1.45803800453811527316e-01) (16, 1.89613560321347768278e-01) (17, 1.74650994532641079537e+00) (18, -1.35335279329620106203e+00) (19, 3.40822186281504901917e-01) (20, -6.52861728980778766029e-01) (21, 2.93775587963702899952e-01) (22, 2.19221367172376568888e+00) (23, 9.21739551937765910772e-01) (24, -3.02717151060725664369e-01) (25, 1.33655564536427993311e-02) (26, -2.50194512472992780516e+00) (27, -1.62906253296526470908e-01) (28, 2.62095731482086202746e-01) (29, -1.10049140017711000183e+00) (30, 1.31817647255356273917e-01) (31, 3.43546106431317777030e-01) (32, 1.25832465360422363077e+00) (33, -9.76700097682041956659e+00) (34, 4.00736018926887149760e-01) (35, 2.60192490107282015099e-01) (36, -9.78535387200754787351e-03) (37, 1.07540427459847864888e+00) (38, 2.40750079292390672947e+00) (39, 1.14197950163537120805e-01) (40, 3.60822489593499273752e-01) (41, 2.36874569465196499474e-01) (42, 5.46817882231885321609e-01) (43, 3.82525980204248619576e-02) (44, -1.51046667368942261200e-01) (45, 2.70762643020547102979e-02) (46, 2.59560441268270825077e-01) (47, -2.79725275334146469396e-04) (48, 1.83448357155558683385e-02) (49, 9.89921151672019383749e-02) (50, 2.63558570844019568469e-01) (51, 1.58639194741412192791e-01) (52, 2.18697845656176032003e-01) (53, 1.83379688312441224696e-01) (54, 9.90516851506403228633e-01) (55, 2.53314556732722051535e+00) (56, 1.34942547973976156861e+00) (57, 1.39121980097257541553e-01) (58, 3.92349049710047304007e-01) (59, 8.12639641653070343708e-01) (60, 1.57855779529193052113e-01) (61, 9.44448259362729442001e-02) (62, -2.57625746661747090371e-02) (63, 4.18270018312382474424e-01) (64, 3.03628645614758496674e-01) (65, 1.91349005653795950499e-01) (66, -2.19733325698700965312e-01) (67, 8.68098688064880996684e-01) (68, 4.55575093016226603804e-02) (0, 2.77413547986304687143e+00) (1, -5.13042772995416576642e-02) (2, -1.76138396250193028647e-02) (3, -9.55729561733190818851e-02) (4, -5.74862177359048709402e-02) (5, 9.48992458615739220562e-01) (6, 1.15160533347777160884e+00) (7, 1.16533329541187624656e+00) (8, 9.95534007179517899111e-01) (9, -2.79029027777592553150e+00) (10, 5.60491356360397263714e-01) (11, 3.05504655446827588783e-01) (12, 2.76726279168250210994e-01) (13, 3.75304783900246075046e-01) (14, 5.82387202555155170103e+00) (15, 2.98174054647841503540e-02) (16, 4.63926279311365763469e-01) (17, 4.87252912867187637502e-01) (18, 6.60690358296653013070e-01) (19, 2.94160247421801424039e+00) (20, 1.97997318215145434728e+00) (21, 1.11221550250171115348e-02) (22, -3.50841193114737437408e-01) (23, 3.26984137219928916451e-02) (24, 4.36667271964064740430e-01) (25, 3.37226167707850688071e-01) (26, 1.30031572063524181182e+00) (27, 4.88285596811569744258e-01) (28, -2.35229468496679014478e-02) (29, 9.34313653622820039502e-01) (30, 1.41642661299595074009e-01) (31, -9.51237273588846771188e-02) (32, -2.94671646869694248139e+00) (33, 3.41026936039285244462e-01) (34, 6.70351648516092857299e-01) (35, -2.74869141645970371801e-01) (36, 1.94282154266414863741e+00) (37, 2.01055032316818010907e-01) (38, 8.13260050607912510223e-01) (39, 1.16027754673698058063e+00) (40, -2.11599126209131960241e-01) (41, 2.26679736069116150032e-01) (42, -3.18967347127146139130e-01) (43, 9.91142994895349571660e-02) (44, -7.99458988376387957864e-01) (45, 8.19757241010940607140e-01) (46, -1.44962231122859136478e-01) (47, -5.13252508477371804929e-01) (48, 1.51381386528117034551e+00) (49, 3.85949914129291471454e+00) (50, 4.07210150666970863848e-03) (51, 1.39346258846338355575e+00) (52, -3.29235507850706821120e-01) (53, -7.44147192360431197766e-02) (54, 5.79209615187908144485e-01) (55, 3.62030423515630861431e-01) (56, 3.46889861805907140369e-01) (57, 5.26624310276710243250e-03) (58, -4.14815626363534306620e+00) (59, 4.02401260014208617122e+01) (60, 8.20421829553208747932e-01) (61, -4.88322007325819928969e-01) (62, -8.50923293059665852844e-01) (63, 2.40642879070724236001e-01) (64, 2.92190191094756461510e-02) (65, 8.74680132218243255871e-01) (66, 9.12416006614570207489e+00) (67, 2.21225199347229867231e-01) (68, 3.83993267955040740169e-01) (0, 1.87979826189350140986e+00) (1, 6.72594975167189190746e-02) (2, 1.37290916913119315224e-01) (3, 1.36803701096144675331e-01) (4, 1.74833297305670737343e-01) (5, -2.68632561734301189560e+00) (6, 4.88876546994449434624e-01) (7, 4.19260680162840349006e-01) (8, -4.28965804577132292508e+00) (9, 3.14561491433162787601e+00) (10, -4.28038169963942838336e+00) (11, 3.58654983963230256094e-01) (12, -4.86965018149031342309e-02) (13, -2.14276264925485709911e-01) (14, 9.48211922298887621707e-01) (15, -2.94973629772950052264e-01) (16, -1.21184828500690969233e-01) (17, -1.75429645544085521802e-01) (18, -2.12319365160533540804e-01) (19, -2.54680914581745421188e+00) (20, -2.07539976855422381163e+00) (21, -1.13935869593863717264e-01) (22, -7.30520044241002364238e-01) (23, -8.84783436751705870682e-02) (24, -3.22221113586311946886e-01) (25, -3.23695588600529382539e-01) (26, -2.94973617258392151186e+00) (27, -8.63459145119878784813e-02) (28, -8.60395944416153801715e-02) (29, 1.84338583615731271825e-01) (30, -1.75280158505349215048e+00) (31, -5.09907428299113063552e-01) (32, 3.46251069202750239029e+00) (33, -9.85305222631749910711e-01) (34, 2.01910611640241710596e-01) (35, -1.48738997867696759458e-01) (36, -3.59808138590436352167e-02) (37, 3.03997919759041237975e-02) (38, -2.63111392645173802762e-01) (39, -1.49334309826264194365e-01) (40, -6.58523290697112934078e-02) (41, 9.08975282243390636516e-01) (42, 4.08423020468886832646e+00) (43, 1.84165843061071012043e-02) (44, 7.27135712262055866617e-01) (45, -5.78566883447741708846e-02) (46, 1.68461498093884776139e-01) (47, -1.03330586034863947109e-01) (48, -7.02204770146621970461e-01) (49, -5.76608260752894286050e-01) (50, -6.30070803167336324080e-02) (51, -6.13589531556308132032e-01) (52, -1.02595468180500093425e+00) (53, -4.50007730145935369581e-01) (54, 3.64715191061263765970e-01) (55, -9.76839074679903274223e-02) (56, -1.74513072591313267434e-01) (57, 4.44902598028703188948e-01) (58, 1.06336564365950003719e+00) (59, -1.67356082914860548883e+00) (60, 2.16024448010087466443e-01) (61, -7.99541690945755112452e-01) (62, -5.15300325887601218255e-01) (63, -1.26626730487924804569e-01) (64, 2.27677320792631088242e-01) (65, -8.52469631016090079179e-01) (66, 2.13480385871383987473e-01) (67, 2.05067891055446621662e-01) (68, 1.46247652094515318000e-01) (0, -3.95268693342668626656e+01) (1, -8.81370455518366985315e-02) (2, 1.18283330902455054157e-02) (3, -3.57625633969905348808e-02) (4, -1.98898464933039975655e-02) (5, -6.11288725126533760701e-01) (6, -8.29546863132272660479e-01) (7, 5.82472498120473414218e+00) (8, 9.82317563806871962839e-01) (9, 2.04088020072377085423e-01) (10, -7.21629064874542591745e-01) (11, 1.04870325600703839797e+00) (12, 2.24723173445337320864e-01) (13, 7.06808427189685062331e-01) (14, 7.73149126535327901877e+00) (15, 2.45651782436887344829e+00) (16, 4.28068352801028151333e+00) (17, 3.29247569570958953378e+00) (18, 5.14893204673089410761e+00) (19, 2.24179900611484100859e-01) (20, -8.30356537969059615989e-01) (21, 1.84421376928489677560e+00) (22, 7.76745805173702952295e-01) (23, 9.29627837649583343982e-01) (24, -1.03203744483512785401e-01) (25, 1.92360732151840507775e+00) (26, 2.88547152342778834289e-01) (27, 3.63903640932490946014e+00) (28, 2.66586204921146208147e-01) (29, 6.96069515242812797418e-01) (30, 4.00679718658070005421e-01) (31, -1.94665170069494547489e-01) (32, 7.20760201979762649138e-01) (33, 5.15911623216042691809e+00) (34, 1.73201718329646814354e-01) (35, -1.38776206844320015854e-01) (36, 8.24162730043047631057e+00) (37, 3.05551107894326490211e-01) (38, 2.18977739279371164116e+00) (39, 1.01450228889686244749e+00) (40, 8.40167671581437680572e-01) (41, -4.12857741198405236993e-02) (42, 1.81291663486718479525e+00) (43, 2.58582629854866574703e+00) (44, 8.45635796305414721985e+00) (45, 4.99219261200193642480e+00) (46, 1.18537242722611546597e+00) (47, 1.77763257085422266002e+00) (48, 3.65262051387725161788e-01) (49, 8.16655967120489734157e+00) (50, 4.20349959472365655722e-02) (51, 8.07417703328510372174e-01) (52, 2.23184242658066445131e+00) (53, 6.28432911636584545789e-01) (54, 6.57031284600241627381e-01) (55, 2.12342369320077883899e-01) (56, 3.44694701480748155742e-01) (57, 4.31643743478680619319e-01) (58, -2.21984648736965675675e-02) (59, 8.90294335983100926235e-01) (60, 7.03104694295535459503e+00) (61, 5.83543343108641110462e+00) (62, 3.82299264488943180140e+00) (63, 4.13282041972832081544e-01) (64, 2.18005193846247974365e-01) (65, 2.19477143775865846109e+00) (66, 4.36311839919670596544e+00) (67, 1.11938655605407708094e-01) (68, -7.36736185409253785394e-01) (0, 3.63594730314992560238e+01) (1, 4.72959658678128058718e-01) (2, 4.71477663691593940065e-01) (3, 3.96292320068432679658e-01) (4, 3.92683467443539491182e-01) (5, -2.72232914482542387447e+00) (6, 1.18547283664917624257e+00) (7, 3.79718744755332782148e+00) (8, -8.46814570577213743263e+00) (9, 9.50507528334211038157e+00) (10, -2.86891698969763586646e+00) (11, -6.05099110715769716862e-01) (12, 6.83912948168734713406e-01) (13, 3.21922791032945576628e-01) (14, 2.37086842737439766893e+01) (15, 3.62963123545936472425e+00) (16, 5.18384648340907006059e+00) (17, -1.48478978579028053630e+00) (18, -4.00806328273436207610e-01) (19, -1.32990838139271438934e+00) (20, 7.04346469305180966636e-01) (21, -9.71949013282279117298e-01) (22, -1.03425275585259823785e+00) (23, 2.64692478772777517460e-01) (24, 6.36820652106495810330e+00) (25, 2.57515333679150248969e-01) (26, -3.87738042132915428084e+00) (27, 6.33072778867524821322e+00) (28, 5.47359628629813022016e-01) (29, 6.91219566351818937022e+00) (30, -2.77865280634145728200e-01) (31, -1.36435249544127501498e-01) (32, 6.39958232069592103386e+00) (33, 3.91479887509995361228e+00) (34, 1.36084739943806365403e+00) (35, 3.40416794894699092922e+00) (36, -5.70204259124560630667e-01) (37, 1.06046466685705609301e+00) (38, -1.41630546854738481599e+00) (39, 9.29554790948639038106e+01) (40, 1.81064929053494250155e-01) (41, 2.29522863321172554407e+00) (42, 6.99377002390280555488e+00) (43, 3.80911815894485394907e+00) (44, 5.18170111556591450608e+00) (45, 2.33110791029670716412e+00) (46, -7.17001760601225501812e-02) (47, -5.20715496585684278763e-01) (48, 5.33571168075045121348e-01) (49, -3.14826020546005447276e-01) (50, 1.82135783655387906155e-01) (51, -6.47182213598925692999e-01) (52, 6.31302545467167242066e+00) (53, 4.22782683125378255795e+00) (54, 2.24289770736336546708e-01) (55, 5.91870516015945868915e-01) (56, 4.27446715867353943530e-01) (57, 4.45361972972665665083e+00) (58, 4.04374690545119808149e+00) (59, -3.66360013982484478134e+00) (60, 8.50516475763954171718e-01) (61, 3.81109768701009032910e+00) (62, -7.73048686967054865526e-01) (63, -1.58512198582993590890e-01) (64, -1.67258583945596700504e-01) (65, -8.27766387185464469489e-01) (66, 6.57433230157063519528e+00) (67, 1.10504851453937472106e-01) (68, -1.20534977416121610871e-01) (0, 1.82891057247547861309e+00) (1, 7.50703342488871355753e-02) (2, 1.08467990182982490510e-01) (3, 7.14723445705042620402e-02) (4, 1.56627626740084652246e-01) (5, -2.10856514346499945844e+00) (6, 3.99923947278514879677e-01) (7, -6.52761271659145991819e-01) (8, -5.18456680566823546741e+00) (9, 2.14462614658433992076e+00) (10, -1.68517606953608423126e+00) (11, -6.06019444523365619082e-02) (12, -4.52036890181678419065e-01) (13, -9.44683556285434884725e-03) (14, -2.93297822642805017246e-01) (15, 1.10992978259417451881e-01) (16, -1.23462135129288982927e-01) (17, -1.77727098230859616168e-02) (18, -5.83300547389398627018e-01) (19, -2.29999833243172124853e+00) (20, -1.89656796144329020670e+00) (21, -4.77441538857969804965e-01) (22, -4.58530330774276018158e-01) (23, -2.42197451642262778782e-01) (24, -6.12702359256515838304e-01) (25, 7.93134298632100082083e-02) (26, -2.80320730023346520454e+00) (27, -6.09241185299797982644e-01) (28, -3.87323681703487243677e-02) (29, -3.52927749807642132662e-01) (30, -3.91139929419531851007e-01) (31, -3.62642138529882585019e-01) (32, 2.04504408476748666956e+00) (33, -6.50143946267321970467e-01) (34, -1.11046559507373007736e-01) (35, -1.16137092211567719002e-01) (36, 1.15771257849566877596e-01) (37, -3.27405398483109899566e-01) (38, -4.20552892671895717225e-01) (39, -4.81032028484245199884e-01) (40, -4.11259083892282661932e-01) (41, 7.27757239244692044622e-01) (42, 4.08171352446528867830e+00) (43, -2.65380070488152652874e-01) (44, -1.83287078894464605661e-01) (45, -5.81170081191069609616e-01) (46, 2.37552437931092652601e-01) (47, -1.21547140000691875072e-01) (48, -1.23237335584088247842e+00) (49, -6.76282126076706124884e-01) (50, -1.06562760404429635042e-01) (51, -6.12213200703799698132e-01) (52, -8.27784132931477900641e-01) (53, 3.01859638266047947130e-02) (54, 6.21835577826436863846e-02) (55, -2.78010797237684070815e-01) (56, 5.04631234431409392283e-02) (57, 6.63249417095522986187e-01) (58, 4.07563448494554592116e+00) (59, -4.99441556225007676773e+00) (60, -3.64729408627366191720e-01) (61, -8.03453296253444748665e-01) (62, -8.09521287577017689685e-01) (63, -1.00364894780992100487e-01) (64, -3.79702254838894803779e-02) (65, -1.19344973612136939778e+00) (66, 2.71299655468914657774e-01) (67, 1.50840538913112720554e-01) (68, 2.48078831564204932425e-01) (0, 2.12670605950577957799e+01) (1, 2.43063677390224053276e-01) (2, 1.32575366933948279868e-01) (3, 1.72384020228988299461e-01) (4, 1.53589446385509198478e-01) (5, -2.72114058329092944888e+00) (6, 5.12703066220282610566e-01) (7, -2.38043747557236473611e+00) (8, -6.66819858173138046986e-01) (9, 3.30465249663104976285e-01) (10, -1.26675508687787230500e+00) (11, -2.01143778636689418704e-01) (12, 6.62715155909098352360e-01) (13, -8.33580406142275243120e-01) (14, 8.29091204066615961032e-01) (15, -3.23377589675981802486e+00) (16, -4.55042572220193797250e+00) (17, 1.25097887324644485574e+00) (18, -5.97092808878684766505e-01) (19, -7.39404203588893471633e-01) (20, -6.30623289209838056024e+00) (21, 8.81996477776899046042e-01) (22, 8.72307907440970975443e-01) (23, 4.68229563864529463313e-01) (24, -1.75777544390517692641e+00) (25, -8.70349616646460266800e-01) (26, -3.05980004962192353446e-01) (27, -2.64732482512410438602e+00) (28, 2.65351104402224147183e-01) (29, -1.36069569941132373359e+00) (30, -1.93467251695308262160e-01) (31, -1.47368523685031083126e+00) (32, 4.69484245069164279895e-02) (33, -2.85975770433290321648e+00) (34, -2.01132299867223168777e-01) (35, 1.35101580405458943090e-01) (36, -9.12586502576687053079e-01) (37, -4.20224821366121881194e-01) (38, 2.29298195289488526694e-01) (39, -2.41780097282132289127e-01) (40, -2.73785092822098230503e-01) (41, 8.69721001239301627628e-01) (42, 7.02566737201055890871e-01) (43, -3.97478978967734875027e+00) (44, 1.14249669455907976179e-01) (45, -3.43149960194025382965e-01) (46, -5.05601235978530919035e-02) (47, -2.93206688405770188321e-01) (48, -1.43325563959884472176e+00) (49, -6.66288255827091613348e-01) (50, -3.65826035690580253501e-01) (51, -1.05786288754497626030e+00) (52, -4.67251679582455192730e+00) (53, -4.77683808303798684847e+00) (54, -5.03627567512737184252e-01) (55, 9.13871220370034542668e-01) (56, 3.44239077151109795771e-01) (57, 4.02503231282148321579e-01) (58, 1.55094995218120379477e+00) (59, 2.36945101651286460509e+00) (60, -2.53827172336237194550e-01) (61, -3.15082217142108467201e+00) (62, -1.55965980798065090296e-01) (63, 4.35471398339034976299e-01) (64, -1.40623569859167463214e+00) (65, -9.67518531061217434974e-01) (66, -6.46971635955467760937e+00) (67, 8.29922475961352268392e-01) (68, 1.14847464868665727344e+00) (0, 3.63149793711684765185e+01) (1, 4.62810135062290961550e-01) (2, 5.12223026331021125124e-01) (3, 3.38291271205498567110e-01) (4, 3.90653743024422517305e-01) (5, -2.62212950035765457457e+00) (6, 1.15970407978272138649e+00) (7, 3.68772325829524527663e+00) (8, -8.17557252312440319031e+00) (9, 9.33615583789441139118e+00) (10, -2.87614324645052343854e+00) (11, -4.75846634494870524001e-01) (12, -2.93086585461160113730e-02) (13, 4.14035810373778317972e-02) (14, 6.83542430254614341578e+00) (15, 3.53520781157089292179e+00) (16, 5.77625335605092882219e+00) (17, -1.38346907948239250530e+00) (18, 2.75215056674353475419e-01) (19, -2.56097063865039720199e+00) (20, 1.87669393886674318317e+00) (21, -1.05777608822725199822e+00) (22, -9.22058791430847679571e-01) (23, 2.89007835981029470585e-01) (24, 5.29819989811612490627e+00) (25, 2.53098614600132609809e-01) (26, -3.76547846299731503450e+00) (27, 6.79273138616094396269e+00) (28, 2.89421436209219180846e-02) (29, 9.56961463557617797449e+00) (30, -4.23002599743518836739e-01) (31, 2.80314221015136970372e-02) (32, 6.33097959504382057361e+00) (33, 3.75153255811321928448e+00) (34, 1.26731302669111967063e+00) (35, 1.77748985928847913485e-01) (36, 2.72656023119712820346e+00) (37, 1.14116152532272741027e+00) (38, -1.25343278901581101081e+00) (39, 9.37671166107728595307e+01) (40, 1.75300321713396822787e-01) (41, 1.97214501785712426063e+00) (42, 6.33363550266432540070e+00) (43, 5.04227047214808266062e+00) (44, 5.11534453858675419724e+00) (45, 2.41996889967760298035e+00) (46, -1.34203810617395280502e-01) (47, -5.52240759950552662083e-01) (48, 2.06089851093192777398e+00) (49, 6.12777810336480932563e-01) (50, -1.15314996220131586041e-02) (51, -6.74718188578326327765e-01) (52, 6.33896760144977911011e+00) (53, 5.82162568008859881985e+00) (54, 6.40213395840540100412e-02) (55, -3.81752276143182151663e-03) (56, 2.21918115966109191772e-01) (57, 4.33595678582702692694e+00) (58, 3.68087508162856691385e+00) (59, -3.38051498829662300238e+00) (60, 1.88791522026455194094e+00) (61, 3.58915370911839382018e+00) (62, 1.85781317479448504493e+00) (63, -1.04298391596184827912e-01) (64, -5.87330767935162548210e-02) (65, -8.13242463788400371527e-01) (66, 6.97409886721136107468e+00) (67, 9.59414101773871791368e-02) (68, -3.36378001405584270422e-01) (0, -3.29555186939553337311e+01) (1, 2.53554401551216168631e-03) (2, 5.08970735226600776852e-03) (3, -1.16983879677906424388e-01) (4, 1.69568282142731410755e-02) (5, -1.89357326685378718478e-01) (6, -8.34732206794665532179e-01) (7, 4.14790171378877481345e+00) (8, 1.85518053655660630774e+00) (9, -9.00049588063933508897e-02) (10, -4.84049240618829645921e-01) (11, 5.96493680389235392258e-02) (12, 8.21757227131339806903e-01) (13, 7.57951644197566887229e-01) (14, 6.59424732689435888489e+00) (15, 1.20905659694409073346e+00) (16, 2.95905105220676922784e+00) (17, 1.07605523562296556683e+00) (18, 9.46498709903788371101e-01) (19, 7.45123723286040401392e-02) (20, -1.54002315349629798069e-01) (21, 5.89070651174494197555e-01) (22, 2.35182891632755741718e-01) (23, 5.69018575139846660704e-01) (24, 1.33633202416485297181e-01) (25, 3.85437508159816033526e-01) (26, 7.69059393084020159748e-01) (27, 2.81053823720245432582e+00) (28, -7.71178107230567535385e-03) (29, 2.61005864884676075377e+00) (30, 7.02219889364980920377e-01) (31, -1.86118801367467556762e-01) (32, 2.09766186294287282355e-01) (33, 4.07654137964339735589e+00) (34, 4.87121598500544900068e-02) (35, -5.10432674559917476387e-02) (36, 5.76967048086016198738e+00) (37, 1.68324964854168340755e-01) (38, 2.41341940475117766596e+00) (39, 1.41935108369480333934e+00) (40, 2.46014600057203491890e-01) (41, -2.19752290207627348773e-01) (42, 3.81104205611739632609e-01) (43, 2.81127956541882451091e+00) (44, 2.62861606509513245911e+00) (45, 1.00916322977671635286e+00) (46, 7.44710207059028350685e-01) (47, 6.58395913091600504252e-01) (48, 3.12747225988363075633e-01) (49, 4.97765280174395208235e+00) (50, 1.49706618485367037863e-01) (51, 6.52018936025497319875e-01) (52, 7.75922344300498778580e-01) (53, 5.85554832728539045861e-02) (54, 6.76013702178239306306e-01) (55, 9.50455432028299074254e-01) (56, 7.62367594260572989384e-01) (57, 5.67738088896396417282e-02) (58, -3.54560030661963232479e-01) (59, 1.28459863236161431210e+00) (60, 3.73469084865260514405e+00) (61, 4.82449169878629469110e+00) (62, 2.84420281639001704121e+00) (63, 3.33261910049813037116e-01) (64, 1.22770169948345525546e-01) (65, 1.98458009322127204577e+00) (66, 1.27945801699505579130e+00) (67, 2.58443549493638680126e-01) (68, -4.23135781370126307088e-01) (0, 2.54154850618181527011e+00) (1, 1.02816817729883880350e-01) (2, 1.67440605729037017557e-01) (3, 1.16960456661518493598e-02) (4, 1.19522926776819915506e-01) (5, 2.35282800637160782742e+00) (6, 1.35636560660062743811e-01) (7, 4.19604780923926856673e+00) (8, -2.04345618132815642909e+00) (9, 1.51800103333660252325e+00) (10, 4.51422683188881279648e+00) (11, -4.66691195812801162823e-02) (12, 3.62233419438192150164e-01) (13, 2.57649629483273634456e-01) (14, -2.28256344553673251596e+00) (15, -8.11053440441702577779e-01) (16, -3.37308996085119661146e-01) (17, 1.26253087238965888695e-01) (18, -5.25452448440479669145e-01) (19, 5.66905329729717522014e+00) (20, 3.52705280548807897922e-01) (21, 1.01373368268543107007e+00) (22, 4.00556425170701058125e-01) (23, 3.35846109070287224263e-01) (24, -3.50061513203015817197e-01) (25, -7.88072038114042583423e-01) (26, 2.66681676504262865635e+00) (27, -7.13010812279924910406e-01) (28, -1.00415163138919488750e-01) (29, 1.17581977864498821162e+01) (30, -2.07235996425804092080e-01) (31, -9.65038667556108592516e-02) (32, 5.90260195842496404595e+00) (33, 4.31133335107571546985e+00) (34, 3.01327172031740031510e-01) (35, -1.41341198554786107167e-01) (36, -8.23034183345994097003e-01) (37, 1.16435395698463950431e-01) (38, 3.87382664663699138874e-01) (39, -1.19650264748206214271e+00) (40, 3.57392110017598130245e-01) (41, 7.49110985184862965269e-01) (42, 2.94546314439667344942e+00) (43, -1.56850094618948221470e-01) (44, 7.42170536945495662451e+00) (45, -9.85953139929518829199e-01) (46, -1.55603279222572082885e-01) (47, -8.46329145993569231798e-01) (48, 5.08145258704405633488e-01) (49, -1.08046242944779213868e-01) (50, -5.27658744721816591605e-02) (51, -1.17546460769984137396e-01) (52, -1.55977675951986594072e+00) (53, 1.44623732426461781841e+00) (54, 3.44035240222837712665e-01) (55, 4.01611149725308591574e-01) (56, 4.44123446982073566414e-01) (57, 6.96956265260655460914e-01) (58, 1.42332779964767253134e+00) (59, -7.98474409342639468434e-01) (60, -1.07523435743933726272e+00) (61, 3.78971313898067263537e+00) (62, -9.30510502390595961586e-01) (63, 1.72938754024392893349e+00) (64, -3.16156661325798449269e-01) (65, -2.59573354008311607544e-01) (66, -1.79877109797304335359e+00) (67, 4.18329981522962635054e-01) (68, -2.70345894868492982177e-02) (69, 1.37780007306836007469e-02) (70, 3.77496134154527540616e-01) (71, -6.65286855920262598652e-01) (72, 6.67754642342463400340e-01) (73, 8.15560517783137317593e-01) (74, -4.89602802375859402773e-01) (75, -4.18331625761461323165e-01) (76, 6.66301727775314600599e-01) (77, 6.30825984293875929865e-01) (78, 5.07193618681635705059e-01) (79, 3.48711546968662189361e-01) 
