FANN_FLO_2.1
num_layers=3
learning_rate=0.700000
connection_rate=1.000000
network_type=0
learning_momentum=0.000000
training_algorithm=2
train_error_function=1
train_stop_function=1
cascade_output_change_fraction=0.010000
quickprop_decay=-0.000100
quickprop_mu=1.750000
rprop_increase_factor=1.200000
rprop_decrease_factor=0.500000
rprop_delta_min=0.000000
rprop_delta_max=50.000000
rprop_delta_zero=0.100000
cascade_output_stagnation_epochs=12
cascade_candidate_change_fraction=0.010000
cascade_candidate_stagnation_epochs=12
cascade_max_out_epochs=150
cascade_min_out_epochs=50
cascade_max_cand_epochs=150
cascade_min_cand_epochs=50
cascade_num_candidate_groups=2
bit_fail_limit=1.00000000000000005551e-01
cascade_candidate_limit=1.00000000000000000000e+03
cascade_weight_multiplier=4.00000000000000022204e-01
cascade_activation_functions_count=10
cascade_activation_functions=3 5 7 8 10 11 14 15 16 17 
cascade_activation_steepnesses_count=4
cascade_activation_steepnesses=2.50000000000000000000e-01 5.00000000000000000000e-01 7.50000000000000000000e-01 1.00000000000000000000e+00 
layer_sizes=16 11 2 
scale_included=0
neurons (num_inputs, activation_function, activation_steepness)=(0, 0, 0.00000000000000000000e+00) (0, 0, 0.00000000000000000000e+00) (0, 0, 0.00000000000000000000e+00) (0, 0, 0.00000000000000000000e+00) (0, 0, 0.00000000000000000000e+00) (0, 0, 0.00000000000000000000e+00) (0, 0, 0.00000000000000000000e+00) (0, 0, 0.00000000000000000000e+00) (0, 0, 0.00000000000000000000e+00) (0, 0, 0.00000000000000000000e+00) (0, 0, 0.00000000000000000000e+00) (0, 0, 0.00000000000000000000e+00) (0, 0, 0.00000000000000000000e+00) (0, 0, 0.00000000000000000000e+00) (0, 0, 0.00000000000000000000e+00) (0, 0, 0.00000000000000000000e+00) (16, 6, 5.00000000000000000000e-01) (16, 6, 5.00000000000000000000e-01) (16, 6, 5.00000000000000000000e-01) (16, 6, 5.00000000000000000000e-01) (16, 6, 5.00000000000000000000e-01) (16, 6, 5.00000000000000000000e-01) (16, 6, 5.00000000000000000000e-01) (16, 6, 5.00000000000000000000e-01) (16, 6, 5.00000000000000000000e-01) (16, 6, 5.00000000000000000000e-01) (0, 6, 0.00000000000000000000e+00) (11, 6, 5.00000000000000000000e-01) (0, 6, 0.00000000000000000000e+00) 
connections (connected_to_neuron, weight)=(0, 2.82872756119479191739e+01) (1, 1.90085710347199121628e-01) (2, 2.28402757406735101853e-01) (3, 2.96619170666241271928e-01) (4, 1.91067577660584131394e-01) (5, -2.35848628760136191929e+00) (6, -3.69973085396562328953e+00) (7, -4.42651538897057897359e-02) (8, -5.35361082668147969521e-01) (9, -2.94027672895602609771e+00) (10, -2.88256780618242647307e+00) (11, -6.07124575830705448531e-01) (12, 6.57475231057255138367e-01) (13, -1.13457413643571425332e+00) (14, -5.71058994177142342785e-01) (15, 2.88256071032312988223e-01) (0, 2.13022983276089750149e+00) (1, 4.28888034207003554510e-01) (2, 3.13703123611586587316e-01) (3, 3.27585827690737685369e-01) (4, 3.64308487755434950994e-01) (5, 6.01624519411756253362e+00) (6, 5.04085935047279143362e+00) (7, -5.23184573772140004699e-01) (8, 4.64336861846991078018e-01) (9, 4.95701632685209325757e+00) (10, 6.93521753845388744253e+00) (11, -2.12390848056080994155e+00) (12, -7.57635778098975087858e-03) (13, -1.29784741825171257013e+00) (14, -1.13516785535256237161e+00) (15, 3.50328431431308762178e-01) (0, 4.60471638994571663694e-01) (1, 3.95300609921591328266e-01) (2, 4.54058458959238520070e-01) (3, 5.25755425845758961323e-01) (4, 4.11456724559443043354e-01) (5, 6.12880098853542065740e+00) (6, 4.66227113855427077738e+00) (7, -2.15640157456401859726e-01) (8, 5.32812570212431446670e-01) (9, 4.96884829960013441053e+00) (10, 6.97364687321359966177e+00) (11, -1.10431546970495775284e+00) (12, -1.17146933665838726135e-02) (13, -1.20926240659065986627e+00) (14, -1.23009547922055095803e+00) (15, 3.64954434654460480036e-01) (0, -1.37199308138070352747e+00) (1, 8.01707719433628757111e-02) (2, -4.22744165193713605788e-02) (3, 1.16667886245571429671e-02) (4, 1.09011254178317640307e-01) (5, 6.03188822435251514875e-01) (6, 9.60009479413200583764e-01) (7, 2.48411382256482127229e-01) (8, 1.48986767144224208081e-01) (9, 9.83715588529325168921e-01) (10, 2.05425034038570680783e-01) (11, 1.66258557408069454486e-02) (12, -9.74658511517490465381e-03) (13, 9.60791323392207408105e-01) (14, 8.65280768832081825792e-01) (15, -1.12184124297334902876e-01) (0, 2.37234805183601622502e+01) (1, 1.89079598728374709271e-01) (2, 1.69491195324615706586e-01) (3, 3.05068046990589314404e-01) (4, 1.30475872400955400510e-01) (5, -1.98818255762186324453e+00) (6, -2.84388459511373259403e+00) (7, -1.03241927085048035284e-01) (8, -6.59063809926353383339e-01) (9, -2.50477282757220542919e+00) (10, -1.80884922672545234157e+00) (11, -5.79316423691518589401e-01) (12, 1.00762358314913136326e+00) (13, -9.92976007344427480383e-01) (14, -5.48659762385646065930e-01) (15, 2.51098545979369591752e-01) (0, 9.16046962497601535702e-01) (1, 2.66076649836753720280e-01) (2, 3.23392886034702120579e-01) (3, 3.23711517564510165013e-01) (4, 3.35781175009464083470e-01) (5, -1.38452102484139349947e+00) (6, -3.18081824298928506067e+00) (7, 8.52852436912847622352e-02) (8, 8.00095827029999318025e-02) (9, -2.07824481106619440851e+00) (10, -2.26144610705505133552e+00) (11, -1.90014533479479330591e-01) (12, -1.01485152530049443920e-01) (13, -2.39439397337629911178e+00) (14, -1.29125024989959080735e+00) (15, 3.83048241197852912254e-01) (0, 3.79899682062026955442e-01) (1, 5.12024572049753712299e-01) (2, 3.55523949419634388569e-01) (3, 3.87348333304302738789e-01) (4, 4.98554026638643732472e-01) (5, 6.03597570989562726140e+00) (6, 5.05449262028942847280e+00) (7, -2.52245604987148319687e-01) (8, -1.25507434099823211859e+00) (9, 5.12030990458274892774e+00) (10, 6.96484957037145946401e+00) (11, -1.14045244707951143326e+00) (12, -8.88561049690809456880e-02) (13, -1.19566044783898139947e+00) (14, -1.14490886363427013528e+00) (15, 1.51131519317118490076e-01) (0, 2.93493385689382968451e+01) (1, 2.50199721073151526429e-01) (2, 2.56722458516598639466e-01) (3, 3.46733362292290681062e-01) (4, 3.48605499481202119050e-01) (5, -3.17230132901909556153e+00) (6, -3.35777671931492571744e+00) (7, -1.83194607929714481376e-01) (8, -7.56351769077680646802e-01) (9, -3.32052665127622370633e+00) (10, -3.12355765238787208560e+00) (11, -9.70096602501523963547e-01) (12, 5.51348225986807216614e-01) (13, -9.40538182228088270875e-01) (14, -3.96627983096400460461e-01) (15, 2.88957535069096937974e-01) (0, 1.20132079165924804398e-01) (1, 3.56934096076427717636e-02) (2, 1.56720052228206313538e-01) (3, 1.14518436358207437165e-01) (4, 8.42644076206623404701e-02) (5, -9.10093083198551155988e+00) (6, -8.40021413719065890291e+00) (7, 1.35201238040270621532e-01) (8, 3.14434202159495357343e-01) (9, -7.99203310744966533008e+00) (10, -9.17129558046886472766e+00) (11, 1.89402520742059765624e-01) (12, 4.60672391786117907397e-01) (13, 3.61265968096963152600e-01) (14, 1.27460911259797149420e+00) (15, 3.09415219220458503901e-01) (0, -9.78113170291075584295e-03) (1, 6.32855321624218314369e-02) (2, 1.27284403302609303021e-02) (3, 1.93443144426578200745e-01) (4, 1.76509360537761367249e-01) (5, -2.38135680026396334696e+00) (6, -8.38796641832001910188e+00) (7, 2.62549358913448216413e-01) (8, 3.06001589248016458988e-01) (9, -7.31747822353759413971e+00) (10, -4.13072090822148929590e+00) (11, -1.52514591594007986597e-01) (12, 2.52515259787204182640e-01) (13, -1.78398043476892742554e+00) (14, -2.92615125157217492724e-01) (15, 1.45211419375944811305e-01) (16, -3.41933979007836397201e-01) (17, 4.71024994794321139047e-01) (18, 4.43582271281671602914e-01) (19, 5.43421532809586382839e-01) (20, -2.40066984397578730981e-01) (21, -2.42491554927518504492e-01) (22, 4.23043471816968996713e-01) (23, -3.42429070088501985580e-01) (24, -2.82446862239199569800e-01) (25, -1.63823436848700987323e-01) (26, 4.68138725621854601133e-01) 
