FANN_FLO_2.1
num_layers=3
learning_rate=0.700000
connection_rate=1.000000
network_type=0
learning_momentum=0.000000
training_algorithm=2
train_error_function=1
train_stop_function=1
cascade_output_change_fraction=0.010000
quickprop_decay=-0.000100
quickprop_mu=1.750000
rprop_increase_factor=1.200000
rprop_decrease_factor=0.500000
rprop_delta_min=0.000000
rprop_delta_max=50.000000
rprop_delta_zero=0.100000
cascade_output_stagnation_epochs=12
cascade_candidate_change_fraction=0.010000
cascade_candidate_stagnation_epochs=12
cascade_max_out_epochs=150
cascade_min_out_epochs=50
cascade_max_cand_epochs=150
cascade_min_cand_epochs=50
cascade_num_candidate_groups=2
bit_fail_limit=1.00000000000000005551e-01
cascade_candidate_limit=1.00000000000000000000e+03
cascade_weight_multiplier=4.00000000000000022204e-01
cascade_activation_functions_count=10
cascade_activation_functions=3 5 7 8 10 11 14 15 16 17 
cascade_activation_steepnesses_count=4
cascade_activation_steepnesses=2.50000000000000000000e-01 5.00000000000000000000e-01 7.50000000000000000000e-01 1.00000000000000000000e+00 
layer_sizes=49 11 2 
scale_included=0
neurons (num_inputs, activation_function, activation_steepness)=(0, 0, 0.00000000000000000000e+00) (0, 0, 0.00000000000000000000e+00) (0, 0, 0.00000000000000000000e+00) (0, 0, 0.00000000000000000000e+00) (0, 0, 0.00000000000000000000e+00) (0, 0, 0.00000000000000000000e+00) (0, 0, 0.00000000000000000000e+00) (0, 0, 0.00000000000000000000e+00) (0, 0, 0.00000000000000000000e+00) (0, 0, 0.00000000000000000000e+00) (0, 0, 0.00000000000000000000e+00) (0, 0, 0.00000000000000000000e+00) (0, 0, 0.00000000000000000000e+00) (0, 0, 0.00000000000000000000e+00) (0, 0, 0.00000000000000000000e+00) (0, 0, 0.00000000000000000000e+00) (0, 0, 0.00000000000000000000e+00) (0, 0, 0.00000000000000000000e+00) (0, 0, 0.00000000000000000000e+00) (0, 0, 0.00000000000000000000e+00) (0, 0, 0.00000000000000000000e+00) (0, 0, 0.00000000000000000000e+00) (0, 0, 0.00000000000000000000e+00) (0, 0, 0.00000000000000000000e+00) (0, 0, 0.00000000000000000000e+00) (0, 0, 0.00000000000000000000e+00) (0, 0, 0.00000000000000000000e+00) (0, 0, 0.00000000000000000000e+00) (0, 0, 0.00000000000000000000e+00) (0, 0, 0.00000000000000000000e+00) (0, 0, 0.00000000000000000000e+00) (0, 0, 0.00000000000000000000e+00) (0, 0, 0.00000000000000000000e+00) (0, 0, 0.00000000000000000000e+00) (0, 0, 0.00000000000000000000e+00) (0, 0, 0.00000000000000000000e+00) (0, 0, 0.00000000000000000000e+00) (0, 0, 0.00000000000000000000e+00) (0, 0, 0.00000000000000000000e+00) (0, 0, 0.00000000000000000000e+00) (0, 0, 0.00000000000000000000e+00) (0, 0, 0.00000000000000000000e+00) (0, 0, 0.00000000000000000000e+00) (0, 0, 0.00000000000000000000e+00) (0, 0, 0.00000000000000000000e+00) (0, 0, 0.00000000000000000000e+00) (0, 0, 0.00000000000000000000e+00) (0, 0, 0.00000000000000000000e+00) (0, 0, 0.00000000000000000000e+00) (49, 6, 5.00000000000000000000e-01) (49, 6, 5.00000000000000000000e-01) (49, 6, 5.00000000000000000000e-01) (49, 6, 5.00000000000000000000e-01) (49, 6, 5.00000000000000000000e-01) (49, 6, 5.00000000000000000000e-01) (49, 6, 5.00000000000000000000e-01) (49, 6, 5.00000000000000000000e-01) (49, 6, 5.00000000000000000000e-01) (49, 6, 5.00000000000000000000e-01) (0, 6, 0.00000000000000000000e+00) (11, 6, 5.00000000000000000000e-01) (0, 6, 0.00000000000000000000e+00) 
connections (connected_to_neuron, weight)=(0, -7.88522974667263110149e+00) (1, -1.35196615400219904979e-01) (2, -2.12883938493634211619e-01) (3, -1.61518935503865229686e-01) (4, -9.64871388100634330698e-02) (5, 1.80251166640146176512e+00) (6, -5.76074157013153120843e-01) (7, 2.01568149321427858567e+00) (8, 1.69526596353050118537e-02) (9, 5.64262461914376678429e-01) (10, 1.99051850132984498032e+00) (11, 1.91135519113682694758e+00) (12, 1.83680043629350775447e+00) (13, -2.58819325996430538162e-01) (14, -2.89821821700405768407e-01) (15, 1.83113862288229145570e+00) (16, 5.54176008919724516488e-01) (17, 2.52923509393008139057e+00) (18, 6.08448487527483261594e-01) (19, 9.47722836140792890269e-01) (20, 1.02013576952134044085e+00) (21, 2.12596601897289527727e+00) (22, 1.25998703357277519466e+00) (23, 5.61911354474667890102e-01) (24, 5.09997372775458934768e+00) (25, 1.64293978475073609857e+00) (26, 2.04598928917306110975e+00) (27, 5.33582460413547177147e-01) (28, 6.74359775931052785047e-01) (29, 4.61762551687849853721e-01) (30, 3.64499069991162594206e+00) (31, 4.11309443943439823066e-01) (32, 5.84649841487153820729e-01) (33, 6.34430388862835870079e-01) (34, 1.31711849136389025361e+00) (35, 6.59940407271271567424e-01) (36, 1.33593891248859952814e-01) (37, 1.36236352437825747330e+00) (38, 9.18063463895726461494e-01) (39, -2.21634875666357811230e-01) (40, 7.58719136476083244602e-01) (41, 1.18760248551503377890e+00) (42, 2.22222858775325038394e+00) (43, 1.07471321301441569140e+00) (44, 1.48181946384780854897e-01) (45, 5.83360352112664348745e-01) (46, 2.37444678521883423272e+00) (47, 1.24577651418188728449e+00) (48, -1.47314270987535328450e-01) (0, 9.86433583740922159677e+00) (1, 5.08992992289549306406e-01) (2, 4.37684901006714310867e-01) (3, 4.00566749222771134598e-01) (4, 4.17690038629070725662e-01) (5, 1.19885108378605256263e+01) (6, -1.43146444743791706466e-01) (7, 1.49711665559791458691e+03) (8, -5.09984521470181382218e-05) (9, 3.16696816756919304225e+02) (10, -5.50245941759915080382e+00) (11, -1.65212588311942809582e+00) (12, 1.48889319909003688736e+03) (13, -1.54949074326068636509e+00) (14, -7.16030320367085248989e-01) (15, -2.60737405826067458747e+00) (16, 1.50000000000000000000e+03) (17, 3.11837726777041780224e+02) (18, -1.23744333283669250001e+00) (19, -2.99251124177759608713e+00) (20, -5.65961244073663993781e-01) (21, 6.56956270358213578753e-01) (22, 1.48835367512903440002e+03) (23, -1.32382896528177895767e+00) (24, 1.49856700604681918776e+03) (25, 2.76155099280965714570e+01) (26, -3.97749773059406619424e+00) (27, -1.24137954116134952010e+00) (28, 1.50000000000000000000e+03) (29, 1.49870003162483476444e+03) (30, -5.01252267587713884467e+00) (31, 7.19500020204810630808e-01) (32, 1.65110567608581426668e+00) (33, 2.43956651388010037351e+00) (34, -1.82114297680011238967e+00) (35, -1.70274432141779952232e+00) (36, 8.89635555730060367807e-01) (37, 3.37107508618818698665e+01) (38, -1.90835124094352104329e+00) (39, -3.21179945196974903077e-01) (40, 1.50000000000000000000e+03) (41, -1.51320212965748890355e+00) (42, -1.67616567013699335753e+00) (43, -2.30500458365169658137e+00) (44, 1.95679080604679267452e+00) (45, -7.60889652643099823059e-01) (46, -5.88742949412442539980e-01) (47, -1.62274435600483446507e+00) (48, -1.16320201834466535606e-01) (0, -1.13406015858661604057e+01) (1, -1.40705112112879171526e-01) (2, -1.15931626154302955256e-01) (3, -1.23492683960317997660e-01) (4, -1.78857009602903765932e-01) (5, -8.40212428449950436971e+01) (6, 8.18477100057178053039e-02) (7, 6.00444805866820008333e+00) (8, 1.26290493269506787222e+00) (9, 8.49158143524927577772e-01) (10, -2.47350323765451669544e+01) (11, 5.32458691263903549640e+00) (12, 5.41605214954181501952e+00) (13, -1.51759676051568259680e-01) (14, 3.74201041843890636063e-01) (15, -1.07354340024475959581e+03) (16, 6.08811505806981290156e-01) (17, -8.66439224683147983797e+01) (18, 9.13244323027472049148e-01) (19, 3.69549650395282869297e+00) (20, 1.99192672616345545222e+00) (21, -1.31708620284048407711e+01) (22, 4.61148190009418978974e+00) (23, 1.88361814420124851210e+00) (24, -1.47286400740234080331e+03) (25, 6.27895557917389091074e+00) (26, -1.27808424721837212701e+01) (27, 4.76222577285175052708e+00) (28, 5.92424009395859818561e-01) (29, 2.39147150575503131265e+00) (30, 5.51173587028111633401e+00) (31, 2.87228376066345481021e+00) (32, 2.30326957896527817482e+00) (33, 3.77386691153029751877e-01) (34, 7.28453551678177713136e-01) (35, 1.32682884899074382545e+00) (36, 2.20857587964487755983e+00) (37, 3.57614377672271199771e+00) (38, 1.45488305704924103523e+00) (39, 5.03416570760648607319e-01) (40, 2.24301765565810784508e+00) (41, 2.46270827570532313544e+00) (42, 4.33670891336402419824e+00) (43, 1.49726274397770775515e+00) (44, 2.78479425597151131200e+00) (45, 2.25237665928843622254e+00) (46, 3.95423471297129447422e+00) (47, 1.07003573787393024830e+00) (48, -8.76703430918945425532e-01) (0, -8.75851824504661991000e+00) (1, -1.41691789633675180315e-01) (2, -2.85708845264355471016e-01) (3, -1.21369228369637108256e-01) (4, -9.12860488957600163529e-02) (5, 1.43124696122073502558e+00) (6, -4.15955226487215001807e-01) (7, 1.87806082225890591531e+00) (8, 5.38703033174648404646e-02) (9, 1.11198209887437005072e+00) (10, 1.64050967627766763890e+00) (11, 1.89794963569915409174e+00) (12, 8.97264636612816190997e-01) (13, -2.75574952291093966394e-01) (14, 2.40068234790688062041e-01) (15, 1.73393716237783168665e+00) (16, 1.59234253830199889990e+00) (17, 1.55944239165809039882e+00) (18, 9.55203471158076133918e-01) (19, 2.14207419246508701249e+00) (20, 1.01614351022343263331e+00) (21, 1.40908424597042047921e+00) (22, 1.08742977535067608663e+00) (23, 1.26731842999747490452e+00) (24, -1.91676063640549787515e-01) (25, 1.77391586491234853895e+00) (26, 1.64437160816252192497e+00) (27, 9.03719376932693996274e-01) (28, 5.77904536651148603710e-01) (29, 1.75052825777680065578e+00) (30, 2.78950116343279308495e+00) (31, 5.05115044875016572234e-01) (32, 6.78022886237575339585e-01) (33, 1.28140034254736701058e+00) (34, 1.38723415822190054847e+00) (35, 1.20645865870209889614e+00) (36, 5.98391099349436031418e-02) (37, 1.45333802501482489689e+00) (38, 1.65965267536504978985e+00) (39, -4.74596847953756784122e-01) (40, 1.53648351770252800108e+00) (41, 1.06897243307530809275e+00) (42, 1.91637208280853932330e+00) (43, 9.45602914825754981010e-01) (44, 1.08605593883708095859e+00) (45, 1.29206854207040300331e+00) (46, 1.35682249893077155889e+00) (47, 1.01861461865127034265e+00) (48, -2.16418334852955557279e-01) (0, 7.36577006563601166533e+00) (1, 3.92172429976852421341e-01) (2, 5.17913218853855217283e-01) (3, 4.71330177305133823928e-01) (4, 3.88612240819128040847e-01) (5, -2.96929496817203242287e+00) (6, 1.50000000000000000000e+03) (7, 1.49711665559791458691e+03) (8, -4.44874240220589689532e-01) (9, 5.79886964187656204217e+01) (10, -6.10703785357887873886e+00) (11, -1.98144232385345042680e+00) (12, 1.48889319909003688736e+03) (13, -1.13871492164603682617e+00) (14, 2.66443570163703657983e+00) (15, -5.07830044202535990649e+00) (16, 1.50000000000000000000e+03) (17, -6.97491272876305057338e+00) (18, -2.56462634614720408344e-01) (19, -2.43142033041916283409e+00) (20, -3.56571195511229122044e-01) (21, -7.20658463118821046578e+00) (22, 1.48835367512903440002e+03) (23, -6.90286563823394178074e-02) (24, 1.49856700604681918776e+03) (25, 2.76155099280965714570e+01) (26, -4.57487896823724682349e+00) (27, -1.95487507497920520727e+00) (28, 1.50000000000000000000e+03) (29, 1.49870003162483476444e+03) (30, -5.81660012479927868156e+00) (31, -3.89100064696582592649e-01) (32, -2.36339211776433710810e+00) (33, 1.58245488330705175173e+00) (34, -2.07544747285332542575e+00) (35, -1.26050385207233817120e+00) (36, -5.23532729179396971730e-01) (37, 3.37728635620759902736e+01) (38, -1.92730897463868400266e+00) (39, 7.12745825356082690627e-02) (40, 1.50000000000000000000e+03) (41, -1.47474739128737875049e+00) (42, -1.70279627121410426227e+00) (43, -1.69754184285978926283e+00) (44, 1.11175060996269259306e+00) (45, -2.08588485341486418179e+00) (46, -5.93869268800449545687e-01) (47, -1.75392143866264782481e+00) (48, 7.99760250755992552207e-01) (0, -1.25757783013925212856e+01) (1, -1.28659604828140650135e-01) (2, -1.30898534099838648181e-01) (3, -2.22971989552757932085e-01) (4, -1.86626425723812494617e-01) (5, 2.12860909783875973389e+00) (6, -3.48611450863434813030e-01) (7, 1.89865684519436528355e+00) (8, -9.35496072478331566757e-03) (9, 1.21801591400687447830e+00) (10, 2.76933215379458275152e+00) (11, 1.99862014484044880902e+00) (12, -1.19319712980338991926e-02) (13, 2.41933830734794463879e-01) (14, -4.30024294784929150826e-01) (15, 1.66240073100997221012e+00) (16, 9.73017100429996451005e-01) (17, 2.86889812326349646909e+00) (18, 7.85887959492050924837e-01) (19, 1.60858016099099265794e+00) (20, 1.00413700611648959438e+00) (21, 2.70954393450284891642e+00) (22, 1.29255153671509104285e+00) (23, 8.58621005261904657324e-01) (24, -2.29043338510252575402e-01) (25, 1.19224109320718851812e+00) (26, 1.99287569462060165648e+00) (27, 1.08386186382882088175e+00) (28, 4.34853851567276461498e-01) (29, 2.11178343191116502098e-01) (30, 3.81378676548935979795e+00) (31, 6.41584906717888037164e-01) (32, 1.20606915243809575955e+00) (33, 1.42027787773096170199e+00) (34, 7.85105422957053877830e-01) (35, 8.51719825038038447218e-01) (36, -1.18494449991224763685e-02) (37, 1.48708415820373440752e+00) (38, 7.45744277471643179922e-01) (39, 2.28713891224742227326e-01) (40, 1.00271876984564145552e+00) (41, 1.15607392881469528412e+00) (42, 2.38756362090130114240e+00) (43, 1.12151880513513146909e+00) (44, 3.00694529922547526546e-01) (45, 1.27897447636651162561e+00) (46, 2.51385093199784215301e+00) (47, 3.98395524106681109267e-01) (48, -1.52244714252992990877e-01) (0, 4.61860123226726759782e+00) (1, 1.50029125042204974916e-01) (2, 6.50047980024856114634e-02) (3, 1.80930341012721207505e-01) (4, 8.26243370547337513399e-02) (5, -3.57625321786845828953e+00) (6, -2.53058280621697273549e-01) (7, -1.81780662807060644504e+00) (8, 5.01561380312468621523e-02) (9, 7.58104742771265932788e+02) (10, -5.64459099731740110428e+00) (11, 1.46999999880790710449e+03) (12, 1.48889319909003688736e+03) (13, 1.19104760347043225899e+00) (14, -4.18041612104461057786e-01) (15, 2.91422502621784332288e-03) (16, 1.50000000000000000000e+03) (17, -5.98900019855905618726e+00) (18, -7.66181275085788482393e-01) (19, 9.02008750127114694806e+02) (20, 1.46999999880790710449e+03) (21, -2.65983858568694042646e+00) (22, 1.48835367512903440002e+03) (23, 1.48202923503943407013e+03) (24, 1.49856700604681918776e+03) (25, -4.58114961938382414530e+00) (26, -4.34472448372298014618e+00) (27, 1.49876839342471748751e+03) (28, -1.03906926012429545736e+00) (29, 1.49870003162483476444e+03) (30, -5.22677241193460240254e+00) (31, 3.26381818163877679417e-01) (32, 1.18264512656837378346e-01) (33, -8.11511955920822258825e-01) (34, 3.49118715988218664137e+00) (35, 1.48202923503943407013e+03) (36, 4.09263530853615709049e+00) (37, 7.81543758454308790107e-01) (38, 1.48611761013171462764e+03) (39, 3.14745582023064074395e-01) (40, -1.38247796920370646934e-01) (41, 1.02177938789691613586e+00) (42, 2.76251935795745140467e-01) (43, 1.49997419962813160055e+03) (44, -1.94666354452320899959e+00) (45, 1.45686279705334891332e+03) (46, 1.70237875333430777047e+00) (47, 1.49996658405546872928e+03) (48, 9.89362163937066330099e-01) (0, -7.53833392997497325760e-02) (1, 4.48977656118971987786e-02) (2, -5.65567233211891895461e-02) (3, -6.54549219257733877475e-02) (4, 6.03034354202847608373e-02) (5, -7.41764155703013727816e+00) (6, -2.41635371400565554523e-02) (7, 9.03885208110103532952e-01) (8, -5.59387036039022678136e-02) (9, 4.02736708033061763246e+00) (10, -8.09658568879381590477e+00) (11, 3.09769421831405267209e-01) (12, 1.90542762520503772272e+00) (13, 6.06334946405086630539e-03) (14, -5.11623110717407611481e-02) (15, -1.07354340024475959581e+03) (16, -9.35791752731921222530e-02) (17, -8.58673396768048178274e+01) (18, 8.65665424576573361293e-01) (19, -2.06070974084717958852e-02) (20, 3.47508849360370422610e-03) (21, -1.14070861340896967384e+00) (22, -5.59196321220622238890e-01) (23, -3.18032929329084979985e-04) (24, -1.47286400740234080331e+03) (25, 3.26498812148559247603e+00) (26, -1.46714848921971370288e+01) (27, -1.40339391914820227347e-01) (28, 1.32315501257022205550e+00) (29, -4.97783694550660432698e-02) (30, -1.47500000000000000000e+03) (31, -9.19011553871947106664e-01) (32, -2.86654786238622560912e-01) (33, 9.08629946254034481790e-01) (34, -1.06303200987985461273e-02) (35, 2.27364926099885539257e-01) (36, 1.63083058424668830844e-02) (37, 6.81657403548176721308e-01) (38, 1.11500006963530751136e+00) (39, -2.58380164502893527878e-02) (40, -1.22619204616269225627e-01) (41, 2.74389476272955734615e-01) (42, 2.44878158605869344910e+00) (43, -1.72473784567739041318e-02) (44, -1.29791521134069998133e+00) (45, -1.24428189389497977080e-02) (46, 2.25620725973919844520e+00) (47, 4.59168525426600582229e-01) (48, -1.25378337768574203703e-02) (0, 1.14842653752514056720e+01) (1, 3.66099633289824033522e-01) (2, 3.57991851879606748366e-01) (3, 4.79367785169134641432e-01) (4, 5.26543088270665760042e-01) (5, -4.17651874126616995397e+00) (6, -5.43860674313432879146e-01) (7, -3.42179306785990622330e+00) (8, -6.41921558907186384779e-02) (9, -2.65109418083379910769e+00) (10, -3.07949171413214406456e+00) (11, -3.57876264419113176984e+00) (12, -1.92518686700291663527e+00) (13, -1.64175720951235848410e+00) (14, -8.15428676146580100337e-01) (15, -1.67842089568720442827e+00) (16, -2.35951420028726976952e+00) (17, -7.13439542870634380023e+00) (18, 9.10970849072395782997e-01) (19, -4.32875956256364613495e+00) (20, -2.30199807351738527927e+00) (21, -3.97963137464727223502e+00) (22, -4.01635840086003348404e+00) (23, -2.58808000750457090078e+00) (24, -2.04392188821461306958e+00) (25, -9.39491309021203702123e-01) (26, -3.44323563876929350513e+00) (27, -2.15037876534960448183e+00) (28, -2.13973116048607003847e+00) (29, -2.56395788239037436540e+00) (30, -2.90539882726408071889e+00) (31, -3.13734626932486859729e+00) (32, -2.76117170421222102306e+00) (33, -2.58287601941265565486e+00) (34, -2.08796140709860944540e+00) (35, -2.56486274125219315678e+00) (36, -3.00668460582237284662e-01) (37, -3.50490012776041481857e+00) (38, -1.84719808003810448405e+00) (39, -5.56884782092286534372e-01) (40, -2.07239369180796018099e+00) (41, -1.89487219386813121602e+00) (42, -2.58703618070005880725e+00) (43, -1.83097037046030752805e+00) (44, -4.66285308701965206524e+00) (45, -2.39058521228839460093e+00) (46, -3.14152509865872842099e+00) (47, -2.44179709490945739958e+00) (48, 3.32906220740718650219e+00) (0, 6.12714516590856650424e+00) (1, 1.39912749702743227642e-01) (2, 2.03529338414481786312e-01) (3, 1.20623673374465181785e-01) (4, 2.04244430239013369244e-01) (5, 2.96327222831924892432e+01) (6, 4.06279908243603771201e-01) (7, -1.71554111459461366973e-01) (8, 3.96944768187999841302e-01) (9, 1.32962856449502305622e+03) (10, -1.79013426669586750428e-01) (11, -7.79997338275826179732e-01) (12, 1.48889319909003688736e+03) (13, 1.80166533547985818764e+00) (14, 5.02259889317258206853e-02) (15, 2.38520198848669906511e+00) (16, -1.56271824140057402630e+00) (17, -4.75870694556462914271e-01) (18, 3.97810262702467998253e-01) (19, 1.81428933786363211222e-01) (20, 2.96172660427035938646e-02) (21, 6.58120029976268572369e+00) (22, -7.23015434745325591415e-01) (23, -3.18041269101765666782e-01) (24, 1.49856700604681918776e+03) (25, 1.65488425425545626624e+00) (26, 2.73458087508223215423e+01) (27, 4.01189990384423655900e-01) (28, -1.21329001992407523036e-01) (29, -8.12343230032452345846e-01) (30, 2.58104787342401698069e+00) (31, 1.46716440282001681084e+00) (32, 6.87126918508710327060e-01) (33, -3.19802423585976852705e-02) (34, -1.30362537058051120020e+00) (35, -1.84265557719228534328e-01) (36, -2.15155685020864878565e-01) (37, -6.65180477598759367641e-02) (38, -4.23890068205703129944e-01) (39, 2.58497072242270309328e-01) (40, -6.28039217074519484640e-01) (41, -1.75098366548847500512e-01) (42, -4.84150564036573027860e-01) (43, 2.30094814126663799181e-01) (44, -1.71855111723166165127e+00) (45, 1.18795062604652792992e-01) (46, 2.98560016445982290278e-01) (47, -7.00475449741748690258e-02) (48, -7.00306523933487690137e-02) (49, 6.30381421506403638588e-01) (50, 5.21524497494325278701e-01) (51, -4.17462458639564992779e-01) (52, 6.26560042168468167567e-01) (53, 6.35730062252982675020e-01) (54, 7.08247717100585871819e-01) (55, 3.43706271504307214748e-01) (56, -1.80194450411213180629e-01) (57, -8.72565639153786265503e-01) (58, 5.01864204200601626837e-01) (59, 4.13901971586657979607e-01) 
