FANN_FLO_2.1
num_layers=3
learning_rate=0.700000
connection_rate=1.000000
network_type=0
learning_momentum=0.000000
training_algorithm=2
train_error_function=1
train_stop_function=1
cascade_output_change_fraction=0.010000
quickprop_decay=-0.000100
quickprop_mu=1.750000
rprop_increase_factor=1.200000
rprop_decrease_factor=0.500000
rprop_delta_min=0.000000
rprop_delta_max=50.000000
rprop_delta_zero=0.100000
cascade_output_stagnation_epochs=12
cascade_candidate_change_fraction=0.010000
cascade_candidate_stagnation_epochs=12
cascade_max_out_epochs=150
cascade_min_out_epochs=50
cascade_max_cand_epochs=150
cascade_min_cand_epochs=50
cascade_num_candidate_groups=2
bit_fail_limit=1.00000000000000005551e-01
cascade_candidate_limit=1.00000000000000000000e+03
cascade_weight_multiplier=4.00000000000000022204e-01
cascade_activation_functions_count=10
cascade_activation_functions=3 5 7 8 10 11 14 15 16 17 
cascade_activation_steepnesses_count=4
cascade_activation_steepnesses=2.50000000000000000000e-01 5.00000000000000000000e-01 7.50000000000000000000e-01 1.00000000000000000000e+00 
layer_sizes=10 11 2 
scale_included=0
neurons (num_inputs, activation_function, activation_steepness)=(0, 0, 0.00000000000000000000e+00) (0, 0, 0.00000000000000000000e+00) (0, 0, 0.00000000000000000000e+00) (0, 0, 0.00000000000000000000e+00) (0, 0, 0.00000000000000000000e+00) (0, 0, 0.00000000000000000000e+00) (0, 0, 0.00000000000000000000e+00) (0, 0, 0.00000000000000000000e+00) (0, 0, 0.00000000000000000000e+00) (0, 0, 0.00000000000000000000e+00) (10, 6, 5.00000000000000000000e-01) (10, 6, 5.00000000000000000000e-01) (10, 6, 5.00000000000000000000e-01) (10, 6, 5.00000000000000000000e-01) (10, 6, 5.00000000000000000000e-01) (10, 6, 5.00000000000000000000e-01) (10, 6, 5.00000000000000000000e-01) (10, 6, 5.00000000000000000000e-01) (10, 6, 5.00000000000000000000e-01) (10, 6, 5.00000000000000000000e-01) (0, 6, 0.00000000000000000000e+00) (11, 6, 5.00000000000000000000e-01) (0, 6, 0.00000000000000000000e+00) 
connections (connected_to_neuron, weight)=(0, -4.88637617774912602631e-01) (1, -1.06401518980472287179e-01) (2, -1.63494543234317502023e-01) (3, -2.78601230184047532479e-01) (4, -2.42691868046729791741e-01) (5, 2.18564117237158767049e-01) (6, 1.98135038066752611208e+00) (7, 1.73630889574484381654e+00) (8, 1.44044277435512901864e-01) (9, -7.54490897048953612636e-02) (0, -2.06765675649250946222e+00) (1, -3.55992632735311675951e-01) (2, -3.87761927027046371386e-01) (3, -2.87063537914096889025e-01) (4, -4.09626683968841609484e-01) (5, -8.89818812564530547959e-01) (6, 1.17921377655401515838e+00) (7, -2.03804241853882892599e+01) (8, -4.32540391717087491230e+00) (9, 4.12263549864023082225e-01) (0, -8.89875404094194188964e-02) (1, -1.31297706697536903375e-01) (2, -2.45580001805378284052e-01) (3, -8.39490509372486093387e-02) (4, -2.26613081131531141077e-01) (5, -2.07898811208159700614e-01) (6, 1.68249970015703409487e-01) (7, -4.06901268617009250761e+01) (8, -1.18923021124803157678e-01) (9, -3.26320325569820907097e-02) (0, -4.86473601539237687774e+00) (1, -2.34686402543076627625e-01) (2, -3.36665691746958872788e-01) (3, -3.16967433257588415696e-01) (4, -2.17399565442093906098e-01) (5, 1.32970391924716202503e+00) (6, 1.91026881683715021865e+00) (7, 1.79667284409002814272e+00) (8, 7.62792320580559346510e-01) (9, 3.75308198513176066724e-02) (0, -6.79078867304130362470e+00) (1, -3.66536093814858576767e-01) (2, -1.86505852206238748048e-01) (3, -1.95205656750687600587e-01) (4, -2.39144621356019132508e-01) (5, 1.41741075174803521364e+00) (6, 1.83522821191795526552e+00) (7, 1.71727979997591528871e+00) (8, 1.30289863628934243778e+00) (9, 8.16486272684324443372e-02) (0, 9.77469739848877638977e-01) (1, 2.13954734767234810988e+00) (2, 2.05516127461946540578e+00) (3, 2.09266125375783929030e+00) (4, 2.10776621068275460402e+00) (5, 6.91661476534818131512e+00) (6, -6.68384260884098413413e+00) (7, 1.06506108676888366915e+01) (8, 5.65129064751947041145e+00) (9, -2.26247359928800673146e+00) (0, -1.13432090685222045079e-01) (1, -1.62226031525619790452e-01) (2, -2.35877091987617693025e-01) (3, -1.03091443880089089769e-01) (4, -1.01843277915008828538e-01) (5, 2.46623801667309572316e-01) (6, 5.73166449903494967799e-03) (7, -4.06882252276634304167e+01) (8, -1.08001006411515776406e-01) (9, -4.87296721316834782756e-02) (0, -2.09745280002093179017e-02) (1, -1.94634553842177454586e-01) (2, -2.39039418153395660793e-01) (3, -8.38087246342802405508e-02) (4, -2.12490015529027104213e-01) (5, -8.72045762409278391036e-02) (6, 2.20859264668642363283e-01) (7, -4.06505779356454937101e+01) (8, -1.86560010814590865325e-01) (9, -8.99567171119491915121e-02) (0, -3.21851849478868190513e-01) (1, -1.52867213884799652002e-01) (2, -1.32922173539607724191e-01) (3, -1.73153498271911343576e-01) (4, -2.45535344878642786126e-01) (5, 1.48617098904175043428e-02) (6, 1.81024718631156145143e+00) (7, 1.65698295901016745546e+00) (8, 1.58767522745291517206e-01) (9, 1.81275227576362912840e-01) (0, 1.65532236839214341728e+01) (1, 7.17635423204466604830e-01) (2, 7.36662537118956350923e-01) (3, 7.66049802562758341828e-01) (4, 8.64538036546275034944e-01) (5, -7.91985461690909708921e+00) (6, 1.33099332343480036833e-01) (7, -4.41934734513861293692e+00) (8, -8.42021508599089330005e+00) (9, 1.57856236774971780967e+00) (10, 2.77452831406708344542e-01) (11, -2.73253541010745892859e-01) (12, -2.36999659751336744229e-01) (13, 5.91253115237578508179e-01) (14, 5.67469960451945421021e-01) (15, 4.47868687864033887536e-01) (16, -2.43473230813424784680e-01) (17, -2.54558588330428769986e-01) (18, 3.39058066921811673833e-01) (19, -2.26060553432928107442e-01) (20, 5.90545734947627964928e-01) 
