FANN_FLO_2.1
num_layers=3
learning_rate=0.700000
connection_rate=1.000000
network_type=0
learning_momentum=0.000000
training_algorithm=2
train_error_function=1
train_stop_function=1
cascade_output_change_fraction=0.010000
quickprop_decay=-0.000100
quickprop_mu=1.750000
rprop_increase_factor=1.200000
rprop_decrease_factor=0.500000
rprop_delta_min=0.000000
rprop_delta_max=50.000000
rprop_delta_zero=0.100000
cascade_output_stagnation_epochs=12
cascade_candidate_change_fraction=0.010000
cascade_candidate_stagnation_epochs=12
cascade_max_out_epochs=150
cascade_min_out_epochs=50
cascade_max_cand_epochs=150
cascade_min_cand_epochs=50
cascade_num_candidate_groups=2
bit_fail_limit=1.00000000000000005551e-01
cascade_candidate_limit=1.00000000000000000000e+03
cascade_weight_multiplier=4.00000000000000022204e-01
cascade_activation_functions_count=10
cascade_activation_functions=3 5 7 8 10 11 14 15 16 17 
cascade_activation_steepnesses_count=4
cascade_activation_steepnesses=2.50000000000000000000e-01 5.00000000000000000000e-01 7.50000000000000000000e-01 1.00000000000000000000e+00 
layer_sizes=99 11 2 
scale_included=0
neurons (num_inputs, activation_function, activation_steepness)=(0, 0, 0.00000000000000000000e+00) (0, 0, 0.00000000000000000000e+00) (0, 0, 0.00000000000000000000e+00) (0, 0, 0.00000000000000000000e+00) (0, 0, 0.00000000000000000000e+00) (0, 0, 0.00000000000000000000e+00) (0, 0, 0.00000000000000000000e+00) (0, 0, 0.00000000000000000000e+00) (0, 0, 0.00000000000000000000e+00) (0, 0, 0.00000000000000000000e+00) (0, 0, 0.00000000000000000000e+00) (0, 0, 0.00000000000000000000e+00) (0, 0, 0.00000000000000000000e+00) (0, 0, 0.00000000000000000000e+00) (0, 0, 0.00000000000000000000e+00) (0, 0, 0.00000000000000000000e+00) (0, 0, 0.00000000000000000000e+00) (0, 0, 0.00000000000000000000e+00) (0, 0, 0.00000000000000000000e+00) (0, 0, 0.00000000000000000000e+00) (0, 0, 0.00000000000000000000e+00) (0, 0, 0.00000000000000000000e+00) (0, 0, 0.00000000000000000000e+00) (0, 0, 0.00000000000000000000e+00) (0, 0, 0.00000000000000000000e+00) (0, 0, 0.00000000000000000000e+00) (0, 0, 0.00000000000000000000e+00) (0, 0, 0.00000000000000000000e+00) (0, 0, 0.00000000000000000000e+00) (0, 0, 0.00000000000000000000e+00) (0, 0, 0.00000000000000000000e+00) (0, 0, 0.00000000000000000000e+00) (0, 0, 0.00000000000000000000e+00) (0, 0, 0.00000000000000000000e+00) (0, 0, 0.00000000000000000000e+00) (0, 0, 0.00000000000000000000e+00) (0, 0, 0.00000000000000000000e+00) (0, 0, 0.00000000000000000000e+00) (0, 0, 0.00000000000000000000e+00) (0, 0, 0.00000000000000000000e+00) (0, 0, 0.00000000000000000000e+00) (0, 0, 0.00000000000000000000e+00) (0, 0, 0.00000000000000000000e+00) (0, 0, 0.00000000000000000000e+00) (0, 0, 0.00000000000000000000e+00) (0, 0, 0.00000000000000000000e+00) (0, 0, 0.00000000000000000000e+00) (0, 0, 0.00000000000000000000e+00) (0, 0, 0.00000000000000000000e+00) (0, 0, 0.00000000000000000000e+00) (0, 0, 0.00000000000000000000e+00) (0, 0, 0.00000000000000000000e+00) (0, 0, 0.00000000000000000000e+00) (0, 0, 0.00000000000000000000e+00) (0, 0, 0.00000000000000000000e+00) (0, 0, 0.00000000000000000000e+00) (0, 0, 0.00000000000000000000e+00) (0, 0, 0.00000000000000000000e+00) (0, 0, 0.00000000000000000000e+00) (0, 0, 0.00000000000000000000e+00) (0, 0, 0.00000000000000000000e+00) (0, 0, 0.00000000000000000000e+00) (0, 0, 0.00000000000000000000e+00) (0, 0, 0.00000000000000000000e+00) (0, 0, 0.00000000000000000000e+00) (0, 0, 0.00000000000000000000e+00) (0, 0, 0.00000000000000000000e+00) (0, 0, 0.00000000000000000000e+00) (0, 0, 0.00000000000000000000e+00) (0, 0, 0.00000000000000000000e+00) (0, 0, 0.00000000000000000000e+00) (0, 0, 0.00000000000000000000e+00) (0, 0, 0.00000000000000000000e+00) (0, 0, 0.00000000000000000000e+00) (0, 0, 0.00000000000000000000e+00) (0, 0, 0.00000000000000000000e+00) (0, 0, 0.00000000000000000000e+00) (0, 0, 0.00000000000000000000e+00) (0, 0, 0.00000000000000000000e+00) (0, 0, 0.00000000000000000000e+00) (0, 0, 0.00000000000000000000e+00) (0, 0, 0.00000000000000000000e+00) (0, 0, 0.00000000000000000000e+00) (0, 0, 0.00000000000000000000e+00) (0, 0, 0.00000000000000000000e+00) (0, 0, 0.00000000000000000000e+00) (0, 0, 0.00000000000000000000e+00) (0, 0, 0.00000000000000000000e+00) (0, 0, 0.00000000000000000000e+00) (0, 0, 0.00000000000000000000e+00) (0, 0, 0.00000000000000000000e+00) (0, 0, 0.00000000000000000000e+00) (0, 0, 0.00000000000000000000e+00) (0, 0, 0.00000000000000000000e+00) (0, 0, 0.00000000000000000000e+00) (0, 0, 0.00000000000000000000e+00) (0, 0, 0.00000000000000000000e+00) (0, 0, 0.00000000000000000000e+00) (0, 0, 0.00000000000000000000e+00) (99, 6, 5.00000000000000000000e-01) (99, 6, 5.00000000000000000000e-01) (99, 6, 5.00000000000000000000e-01) (99, 6, 5.00000000000000000000e-01) (99, 6, 5.00000000000000000000e-01) (99, 6, 5.00000000000000000000e-01) (99, 6, 5.00000000000000000000e-01) (99, 6, 5.00000000000000000000e-01) (99, 6, 5.00000000000000000000e-01) (99, 6, 5.00000000000000000000e-01) (0, 6, 0.00000000000000000000e+00) (11, 6, 5.00000000000000000000e-01) (0, 6, 0.00000000000000000000e+00) 
connections (connected_to_neuron, weight)=(0, 7.37211870072326663772e-02) (1, 3.91518119243745091329e-02) (2, 1.05337889817154820027e-01) (3, -4.63465732069846328423e-02) (4, 5.28697538642052336511e-02) (5, -2.22942425544871952736e-01) (6, -9.36544878432853111772e-02) (7, -6.99816216914996291898e-01) (8, 2.42541799077643532856e-01) (9, -9.79803560619777330620e-02) (10, -9.96443074199390710355e-02) (11, 5.52371897265423772438e+00) (12, -8.14266559407728629516e-01) (13, 1.15062086874760133304e-01) (14, -2.82244553603223147231e-01) (15, -2.90444607917409003406e-01) (16, -4.39185501882982387567e-01) (17, 8.79862986884752906747e+00) (18, -1.33798465134334687576e+00) (19, -1.82585738557895005396e-01) (20, 4.25605238756981280046e-02) (21, -2.37572755041116145946e+00) (22, 9.86850715772764885969e+00) (23, -5.87615409875409250295e-02) (24, -3.05607035898683709885e-01) (25, -2.13865675611351990781e+00) (26, 8.33515828522230428632e+00) (27, -2.71315241390724770643e-01) (28, -1.98778764451504677546e-03) (29, -2.53404181671944961352e+00) (30, -1.03840784011350703575e-01) (31, 9.41853417235545009589e+00) (32, -2.10299545231514795063e+00) (33, -1.62075206316278558338e-01) (34, -4.99456175756273601518e-01) (35, -5.85848731532391919785e-01) (36, -4.57653543057731315713e-01) (37, -9.72400260393163851091e-01) (38, -2.51587428324843431771e-01) (39, -7.38164131954820335046e-01) (40, -1.38159793655679097313e+00) (41, -1.11757146234264848061e+00) (42, -4.19539274332612233120e-01) (43, -8.68601119051555903283e-01) (44, -1.09442888378214961409e-01) (45, -4.71556441846684992747e-01) (46, -2.30124480050683838384e-01) (47, -3.99998449999345084827e-01) (48, -3.43346764000716342391e-01) (49, -5.35444400047237700768e-01) (50, 1.07382798445611563065e-01) (51, 2.03135712521851155565e-02) (52, -3.38284813032427578161e-01) (53, -2.25060107882856935690e-01) (54, 1.15471605137359212279e-01) (55, -2.96932891256126152424e-01) (56, -2.90413378453781956257e-01) (57, 1.76109211786992569948e-01) (58, -2.38057073641624344917e-01) (59, -2.56977749080540773807e-01) (60, -6.79927932895007525183e-01) (61, 2.35495354856081695605e-01) (62, -4.20186756531315208640e-01) (63, -1.94118777770887866729e-02) (64, -3.09928070058949726995e-02) (65, 1.33965496354619351127e-01) (66, 1.54256212807550058264e-01) (67, -4.96352196115110388952e-01) (68, -2.67660611429755168622e-01) (69, -1.80315148133895014615e-01) (70, -1.32683209079352548709e-01) (71, -5.57755854558484420735e-01) (72, 3.07551556771887057984e-01) (73, 5.40545553291668576246e-02) (74, -7.76090465043728694461e-01) (75, -4.80727062673608374066e-01) (76, 6.64862025410543178161e-01) (77, -4.42512635113925023589e-01) (78, -7.80678277917024487920e-01) (79, 5.09353778122335953960e-01) (80, -8.91212826650583239685e-02) (81, 1.67127304107821700319e-01) (82, -1.78255842807383241277e-01) (83, -3.19604550784350627257e-01) (84, -5.23999030915138219733e-01) (85, -3.23153906073947727595e-01) (86, -2.37223977865382573693e-01) (87, 1.10607629055618730818e-01) (88, -1.14177877403368842335e-02) (89, -1.53032773329956212072e-01) (90, 5.51652046011051611085e-02) (91, 9.82487663724695287071e-02) (92, 6.97337949151445452012e-02) (93, 3.06885814129436440556e-02) (94, -3.50354483915492759261e-02) (95, -1.73915848462878851188e-02) (96, -2.44569284032151168518e-01) (97, -1.46487826039482273155e-02) (98, -5.26677392101297270344e-01) (0, -4.32338703592189972369e+01) (1, -1.78757148647147756648e-01) (2, -1.99592760616380343608e-01) (3, -1.28283477240640236827e-01) (4, -2.11126490348416934184e-01) (5, 2.29773671892812753059e-01) (6, -1.13657679494459706859e-01) (7, 7.56724485482551556537e-01) (8, 3.55675272036817091692e-01) (9, 3.40715824773828279692e-01) (10, 1.14193023315644825999e+00) (11, 5.75816412358553453288e+00) (12, -1.29728351240709222081e-01) (13, 3.58001851999884712630e-01) (14, 6.12359429857906811812e-01) (15, 6.34709783090878110201e-01) (16, 1.86253496390018785656e-02) (17, -1.55540415449736979525e+00) (18, 3.65525743254202994947e+00) (19, 8.16234685188220399077e-01) (20, 9.60675842922396494572e-01) (21, 3.14279317571150507149e+00) (22, -3.72425296470014877137e-01) (23, -2.20263229409100036449e-01) (24, 2.31168715514178196857e-01) (25, 1.88239001064849631462e+00) (26, 1.91567617874027007474e+00) (27, 8.32052888285509606447e-01) (28, 1.25729979810335557033e+00) (29, 8.13044781033549601723e-01) (30, 6.86186707719301902664e-01) (31, 1.10494975666184225283e+00) (32, 1.02079431397758124689e+00) (33, 1.08675598192300348899e+00) (34, 1.05336771929222217103e+00) (35, 9.23568164359739096625e-01) (36, 8.75550826324771769293e-01) (37, 8.78086567203379297908e-01) (38, 8.73107042470273819745e-01) (39, 1.06417842270679385841e+00) (40, 8.11770143191124060600e-01) (41, 4.73507498219132128003e-01) (42, 2.58172666525445393404e+00) (43, 1.37718733068673304665e+00) (44, 1.86154110556554730493e-01) (45, 1.15810262993087365047e+00) (46, 1.13304881618382036201e+00) (47, -8.41306386218741361627e-03) (48, 1.86451977753584330344e+00) (49, -3.45980146341128780296e-01) (50, 3.26760918654004361983e-01) (51, -8.36535764954603688892e-01) (52, -1.26990292105580993010e-02) (53, 1.38006216383315505336e-01) (54, 5.36874450949074821793e-01) (55, 2.67551259642913763503e-01) (56, -1.87530892496678619485e-01) (57, 1.29961483577324199423e+00) (58, 6.47107135989599679959e-01) (59, 9.80764015101788788620e-02) (60, -9.80862110892454674982e-01) (61, 1.47205763276733869738e+00) (62, -8.11884116056945881468e-01) (63, 1.29431339695273917023e+00) (64, 8.52071066301275270582e-01) (65, 1.79925746133260888726e+00) (66, 1.39612941353219377483e+00) (67, 6.30889454293186768830e-01) (68, 5.36091780509200366289e-01) (69, -2.22192076711679442624e+00) (70, -3.34399417420027211811e-01) (71, 2.32442794242104705527e-01) (72, 8.41758323804006169944e-01) (73, -1.50967487351996720868e-02) (74, 2.22109350820561546325e-01) (75, 2.93944680557823134759e-01) (76, 1.37563822514221967275e+00) (77, 1.47361636262742790038e-01) (78, 2.21312634916100259286e-01) (79, 7.13866642567064890734e-01) (80, 3.73415498713254856433e-01) (81, 5.93982014713849482135e-01) (82, 5.37748600901904239002e-01) (83, 5.85112675716285113303e-01) (84, 9.52018755415019346522e-01) (85, 2.12549041318571468873e-01) (86, -1.67135579882102258686e-01) (87, 4.50747751094028814567e-01) (88, 1.06055033207148957652e-01) (89, 4.41913797630475502221e-01) (90, 1.85344749947452813732e-01) (91, 1.88494329314946834630e-01) (92, -6.39284448625840068942e-03) (93, -1.05678912144174130816e-01) (94, 3.40636052420225265980e-01) (95, -1.69403130713034921762e-01) (96, -1.74443498934300222913e-01) (97, -5.61552605671994720105e-01) (98, 1.71465435301905194665e-01) (0, 1.75616659162822597029e-01) (1, -1.02689032677279010186e-01) (2, -8.27975173030953415232e-02) (3, -1.23438005570040254533e-01) (4, -1.18536607596741214166e-01) (5, 2.19290230648709366656e-01) (6, 2.24291712955751981751e-01) (7, 7.37856947178286759481e-01) (8, -5.21414615921087024053e-02) (9, 1.17718071365971385656e-01) (10, -2.12827670518431988356e-01) (11, 3.34259634678770911620e+00) (12, 4.35352462673511464430e-01) (13, 1.44129705264152863098e-01) (14, 3.73981682660169678645e-01) (15, 4.96955596091135820558e-01) (16, 6.35375824128729282947e-01) (17, -7.92148134009322157922e-01) (18, 8.95871244146175471634e-01) (19, -5.10964607334009821016e-02) (20, 3.17700647219670728738e-01) (21, 5.82504050152236274585e-01) (22, 1.23307535362742015650e+00) (23, 3.07149712837961830214e-01) (24, 2.65613025399538738025e-01) (25, 7.96737150129727789150e-01) (26, 1.47754111456448877782e+00) (27, 2.11289748041484981567e-01) (28, 3.26765871153043951924e-01) (29, 8.08149205536713544085e-01) (30, 3.48671525443717711390e-01) (31, 4.88357935181640390176e-01) (32, 7.61508686450139804514e-01) (33, 3.28071607036479584441e-01) (34, -7.62191973958548374402e-02) (35, 4.86272459448127858384e-01) (36, 5.67912084499001879045e-01) (37, 7.42577321494778841426e-01) (38, 4.31884351278443823219e-01) (39, 3.24143375902924857357e-01) (40, 7.60012317446257301690e-01) (41, 3.06770436848923910844e-01) (42, 2.90204182822879797055e-01) (43, 2.87396381557816327224e-01) (44, 4.35830428939448843995e-01) (45, 2.29690986323053319973e-01) (46, 1.46429725168667174140e-01) (47, 3.55861617418855413764e-01) (48, 7.86637843449197737833e-01) (49, 6.60401938587014791793e-01) (50, -2.18711845567459567397e-02) (51, 1.28344626993421195849e-01) (52, 7.40424539559935812605e-01) (53, 5.16046599177042764062e-01) (54, -2.10966038896284013848e-01) (55, 3.27683798207619114695e-01) (56, -5.80955278624032678270e-02) (57, -1.15672553098605954136e-01) (58, 2.23551432863997312506e-01) (59, 3.21919655331345866411e-01) (60, 3.62327069892229736148e-01) (61, -1.03953566534037242231e-01) (62, 8.04933183923545958471e-01) (63, -2.46761227775946667684e-01) (64, -1.90440479305645782304e-01) (65, 2.03922369022586022491e-02) (66, 1.74947835176406607527e-01) (67, 6.33125812522804753968e-01) (68, 2.66900167214782046976e-01) (69, -1.30186310629622215007e-01) (70, -1.37711569663216210069e-01) (71, 1.62283431578721076827e-01) (72, -1.16632821638068040482e-01) (73, 2.26405201244809922700e-01) (74, 3.38418497843522070312e-01) (75, 4.93986491774059677251e-01) (76, 1.01062240487535925926e-01) (77, 5.78203451288485048565e-01) (78, 3.24814529634928683688e-01) (79, 2.97829815766615602080e-01) (80, 3.04419618721868123767e-01) (81, 6.12827991789254844512e-01) (82, 4.60802630914403321682e-01) (83, 5.58219886382775865030e-01) (84, 3.49856525236545645718e-01) (85, 8.86463557325618545235e-01) (86, 4.42044807552668894690e-01) (87, 1.52020318611225724315e-01) (88, 1.81339635106259222663e-01) (89, 2.32063139975660998049e-01) (90, 1.54515667314570476210e-02) (91, -1.67446973954148758956e-01) (92, -7.89498076964440659298e-02) (93, -2.48926798890956119115e-01) (94, 1.81943817922346484650e-01) (95, -1.48280721209972914804e-02) (96, 3.55608701487739209401e-01) (97, 3.24871119778076741791e-02) (98, 3.45924331461449574565e-01) (0, 1.55744902067264074930e+01) (1, 3.77905215281257755855e-01) (2, 3.20678475457439438046e-01) (3, 2.75076436954746372798e-01) (4, 4.57849840778122074703e-01) (5, 3.01892442389015802640e-01) (6, 2.42851715122996481000e+00) (7, 4.17619490062064779856e-01) (8, 1.23048013353122109947e+03) (9, 9.25999730418649247277e-01) (10, 5.65558892561570658586e-01) (11, -3.84536860301039951082e-01) (12, 1.61799600163541312803e+00) (13, 2.90433702704422458396e+00) (14, 8.42472715105574421202e-02) (15, 3.46564048992366244284e-02) (16, 1.22244943792427074314e+00) (17, -1.39115391346832684150e+00) (18, -3.03428782960929788182e-01) (19, 1.06283167812868750701e+00) (20, 1.25812854309586463764e+00) (21, 3.82051344772874279521e-01) (22, -3.47192023652240111531e-01) (23, 9.53111851146269506430e-01) (24, 2.54345226691550740927e-01) (25, 8.00536545895858986377e-01) (26, 2.03243390510645050018e-01) (27, -3.20896896550118937430e-01) (28, 1.67037230714211082372e+00) (29, 9.68049163752712105158e-01) (30, 1.52002662430372637026e+00) (31, 1.24952410445864048327e+00) (32, 9.17084634470199167033e-01) (33, 7.39416533859910241056e-01) (34, 2.32357524756002159494e-01) (35, 8.88001071755303295063e-01) (36, 8.48911417054296513207e-01) (37, 1.51497801102493956371e+00) (38, 1.78918493072069284544e+00) (39, 1.06039031492723823114e+00) (40, 2.16731867864858118722e+00) (41, 4.47633428212975192917e-01) (42, 1.47813035919095470128e+00) (43, 5.47925381124958699175e-01) (44, 1.03102184626769766140e+00) (45, 5.20950810200148550777e-01) (46, 5.66417211282292054619e-01) (47, 1.11402581718236182162e+00) (48, 5.43437523021614632412e-01) (49, 2.96900331750368584594e+00) (50, 6.15240903348657308669e+00) (51, 2.32246479269692690517e-01) (52, 1.02413880162079484748e+00) (53, -2.60385113005500400118e-02) (54, 6.30879209791055606260e-01) (55, 4.60142137053655475576e-01) (56, 1.33132098925453101756e+00) (57, 1.50000000000000000000e+03) (58, 9.96659859295150551972e-01) (59, 5.90813643300941881975e-01) (60, 9.90784360691539767174e+00) (61, 4.38886742839026577911e+00) (62, 5.67385446854578479048e+00) (63, 1.50000000000000000000e+03) (64, 6.03764661752630704683e+00) (65, 7.03693807256698988795e+00) (66, 1.57804316299405789081e+00) (67, 2.29222981071583509216e-01) (68, 1.48495647195982471978e+00) (69, 3.38358720478552115196e+01) (70, 5.71286316013985924656e+02) (71, 1.66973106691599171292e+00) (72, -1.43572703956241470857e-01) (73, 1.02916102042641144365e+00) (74, 8.90184488863670630998e-01) (75, 1.79779133202740359909e-01) (76, 2.88764250999075411386e+00) (77, 6.41804872868520281948e-01) (78, 5.85718948917648973840e-01) (79, 9.21405850762295530743e-01) (80, 3.00945628957344935017e+00) (81, -1.17312822377191827705e+00) (82, 2.61733758249240833216e-01) (83, 2.05253178546938030991e-01) (84, -3.23389237888021208178e-01) (85, 4.22951130810234221524e-01) (86, 1.54126530309348019898e+00) (87, 8.15746937498738389216e-01) (88, 3.40564027435363236851e-01) (89, 4.16282468670123306786e-01) (90, 2.51947699389841162088e+00) (91, 1.95278502394463515657e+00) (92, 8.37395413444744773912e-01) (93, -1.78564342569459100218e+00) (94, 2.35108262627813990875e+00) (95, -7.87295175779745282085e-02) (96, 3.04439522174645704755e-01) (97, 1.85722797309970322210e+00) (98, -4.15106613075934305357e+00) (0, -9.73989061640984227219e-02) (1, 5.69217668099936298376e-03) (2, 3.61473040394360081717e-02) (3, 4.02593092732006566092e-02) (4, -3.90710233040278895333e-02) (5, 1.36763824445905735061e-01) (6, 1.93316198795393037746e-02) (7, 5.71816809854793439705e-01) (8, -1.88627938436574743575e-01) (9, 2.06491129277915734519e-02) (10, 4.21525507546897451605e-02) (11, 2.29471154541967292673e+00) (12, 1.23233265966816407655e+00) (13, 4.13137196744215069721e-03) (14, 1.56659511286911495853e-01) (15, 8.27911615999488564865e-02) (16, 2.73208845422531210190e-01) (17, -8.95270930675195142356e-01) (18, 1.39958023503448908409e-01) (19, 3.92989876745243466027e-02) (20, -1.30895165202313326636e-02) (21, 4.50962446529322658062e-01) (22, -3.39401755742869737364e-01) (23, 6.72189657728875129827e-03) (24, 2.16273802771424744629e-01) (25, 1.65595322304671177527e+00) (26, -2.62114879137787193386e-01) (27, 2.92451587024527281944e-01) (28, 4.42928347312254722112e-02) (29, 1.82640892743300820023e+00) (30, 2.78955341582120715238e-02) (31, 4.94433577030733140134e+00) (32, 1.78075818008282604765e+00) (33, 2.94595256325404175612e-01) (34, 1.01116388290474090716e+00) (35, 1.15506511959650115529e+00) (36, 1.55011051390046339371e-01) (37, 1.50681777822985613069e-01) (38, 1.27387722514044759992e-01) (39, 6.56253533491224616547e-01) (40, 3.34873414934896529438e-01) (41, 2.81760672975595385936e-02) (42, 2.24493421800692344314e-01) (43, 1.94323006606935327900e-01) (44, -1.18420298670459639423e-01) (45, 1.47636612112202747493e-01) (46, 5.36601735985563765841e-02) (47, 3.73372829825049157293e-01) (48, 2.62445852867998208335e-02) (49, 4.89607776543628470112e-01) (50, -4.10355667417324140867e-02) (51, -2.01587972792917347054e-01) (52, 1.71835980986486613897e-01) (53, 1.45855904282096077162e-01) (54, -3.95001275179847552432e-02) (55, 5.70627436175262098272e-02) (56, 1.45201656891920077852e-01) (57, 1.18965152750703760665e-02) (58, 6.51543053156160845152e-02) (59, -4.30634824468783608542e-02) (60, 1.14232574109411300078e+00) (61, -4.40531783102362933802e-02) (62, -1.35963754483750282054e-01) (63, -1.40951174042391408348e-01) (64, -1.48982132715261922362e-01) (65, 2.45823230588425416243e-02) (66, -2.26034422670467333161e-01) (67, 1.21730892250029504309e-01) (68, 7.62840952061428767550e-02) (69, 7.47410072486544840853e-02) (70, -1.37111737205463483924e-02) (71, 1.07544203057813939073e-01) (72, 7.46653445555962858027e-02) (73, -2.45434735557917255155e-01) (74, -5.95175175826070865237e-02) (75, 3.71035715744529814852e-01) (76, -2.66199885576506763141e-02) (77, 1.93325179136555697079e-01) (78, 2.23772564586180687518e-02) (79, 8.42746766367019478627e-02) (80, -1.15243844006839846195e-01) (81, -1.16658938853680338443e-01) (82, 8.37830411136408631512e-02) (83, 6.42194768006668637028e-02) (84, 2.07502152549255497460e-01) (85, -6.64191661602268473841e-02) (86, -2.25720984030379524798e-02) (87, -1.93711631934974148894e-01) (88, 2.24594680915100076979e-02) (89, 1.30150952825700355620e-01) (90, -1.38919809861524412575e-01) (91, -1.32012042154094039192e-01) (92, -7.96027072423560327907e-02) (93, 1.15282906330068088407e-01) (94, 6.94745849079152488770e-02) (95, -2.52550862593898840791e-02) (96, 1.35249862205671422810e-01) (97, -2.40505797696744481884e-02) (98, -3.22655154553410945112e-03) (0, 2.67585135198650654331e+01) (1, 5.39034575622302433717e-02) (2, -4.58018809158581355345e-02) (3, -2.21932410795469443887e-02) (4, 1.51778355639200224214e-02) (5, -3.02912522673223882919e-01) (6, -2.17090690092940741263e-01) (7, -5.17235711945242981891e-01) (8, -3.65074559481282368001e-01) (9, -5.04200299372739579873e-01) (10, -6.35802199099113285463e-01) (11, -6.81621955863525363917e-01) (12, 6.95925984051756318927e-01) (13, -2.34017147957463644836e-01) (14, -2.14245258444335895387e-01) (15, -4.99688813164963496760e-01) (16, 2.75218585338591836820e-01) (17, -7.90465403476091132973e+00) (18, -1.12307431632029541824e+00) (19, -8.09725799503642651445e-01) (20, -6.63842785845057514749e-01) (21, -9.95446380890806725716e-01) (22, 3.49268418510114531106e-01) (23, -9.85575255376891057324e-01) (24, -1.34767292998420384897e-01) (25, -1.19156945724783058793e+00) (26, -6.92165185672607319312e-01) (27, -2.50204299635944593660e-01) (28, -6.32657418474854571500e-01) (29, -1.34346509505388000960e+00) (30, -1.16483956200020610794e+00) (31, -1.77549048802873893349e-01) (32, -1.13541240249621155911e+00) (33, -6.85131672220850029831e-01) (34, 1.27639107517076327847e-01) (35, -1.40918615400979518881e+00) (36, -5.35911776333181655296e-01) (37, -8.09048463713393561925e-01) (38, -9.08302406666981143601e-01) (39, -1.81497581921974115993e+00) (40, -2.66028860271778855306e+00) (41, 2.63221258861118967420e-01) (42, -2.46454331204033733060e-01) (43, -4.36245903500488030335e-01) (44, -3.86246216532875885630e-01) (45, -4.82228814673599182061e-01) (46, -4.96339813862248013798e-01) (47, 4.76659630919647192560e-01) (48, 5.38685923575935921015e-01) (49, -1.49577965691011643967e-01) (50, -1.43642765028262542337e+00) (51, -9.41415813889484698329e-01) (52, -1.50635412804062496228e+00) (53, -2.00699116289198187246e+00) (54, -2.17071861796332044037e+00) (55, -3.81005724809830470523e-01) (56, -1.63954750210101929397e+00) (57, -5.33685153719922977800e-01) (58, -2.50070091290781892912e-01) (59, -7.95937772107808805266e-01) (60, 1.29920300457807602612e+00) (61, -2.08352010971777090731e+00) (62, 5.06234217341143377666e-01) (63, -8.27897215539352138158e-01) (64, -7.90034306853138135196e-01) (65, -4.96817394251746313749e-01) (66, -2.17538129078583652998e+00) (67, -1.14819261190779245418e-01) (68, -1.76609432405797017740e-01) (69, -4.72302880545732994833e-01) (70, -6.41787489374089137328e-01) (71, -6.62479965200330922492e-01) (72, -1.24545950658165080482e-01) (73, -2.82691322707152650762e-02) (74, -2.62415062618119976356e-01) (75, -3.08163896108578028166e-01) (76, -9.98139098833463744853e-01) (77, 1.36635326175690102746e-01) (78, -1.84287767578801692236e-01) (79, -1.06014011807261820941e+00) (80, -5.27721898434391767374e-01) (81, -1.83555840661154068272e+00) (82, -5.64030629150148676842e-01) (83, 5.08425099420873660705e-01) (84, -1.52866670640286472782e+00) (85, -2.53284017838096078834e-03) (86, -1.18040732579308538241e+00) (87, -4.40014297250420280405e-02) (88, -5.88961065396384930715e-01) (89, -9.56627431980556997004e-01) (90, -1.58600296384581995746e+00) (91, -1.05619704489229437883e+00) (92, -1.58217336266272612377e+00) (93, -1.64178785414919148344e+00) (94, -1.14388710370345925149e+00) (95, -1.54643810780936874494e+00) (96, -5.11147632584591948834e-01) (97, -1.01791608854366555370e+00) (98, 1.65215787797529611858e+00) (0, 1.05942638848960335451e+01) (1, 2.21679819913108311358e-01) (2, 3.65534631700714540692e-01) (3, 3.69349194855888796063e-01) (4, 2.79363705010612806134e-01) (5, 6.39496198357493028652e+00) (6, -3.58523069703041041834e-01) (7, -3.14019465826398969099e+00) (8, 1.23048013353122109947e+03) (9, -2.26732085992087961657e+00) (10, 3.41134963861528905937e+00) (11, -4.32970151887298282389e+00) (12, 1.65794510617037449407e+00) (13, 3.63927288549523897387e+00) (14, 1.61238508088296012000e-01) (15, -1.25413324446287499647e-01) (16, 1.62273689070928650580e+00) (17, -5.63289144827976251406e+00) (18, -3.52792151864979519615e+00) (19, 2.53210503683182164281e+00) (20, -7.21951785091336395439e-01) (21, -2.90839264089962057369e+00) (22, 1.77066577567906580093e+00) (23, 1.36294881979853492737e+01) (24, -3.95025783214403236610e-01) (25, -5.84022406418006137518e-02) (26, -3.79847820578564476790e+00) (27, -1.61174422240838804976e-01) (28, -2.44894510739031368018e+00) (29, -1.28798336661576229289e+00) (30, 9.93293374338399637224e+00) (31, -3.47944841289800210760e+00) (32, -1.48806350668114517610e+00) (33, -3.39538275207371120779e-03) (34, 1.82275008831701001988e-01) (35, -2.26233325115848649123e-01) (36, -3.56947639706285124728e-01) (37, -3.64966290482614363899e-01) (38, -4.60530483510998567276e-01) (39, -3.84274470317905014749e-01) (40, 7.67129024540095105777e+00) (41, 1.98375060625827592808e+00) (42, 1.19480540925132117103e+00) (43, 2.65652653994424792216e+00) (44, -2.15957432480789468521e-01) (45, 3.71334456892313324872e+00) (46, -1.53930574151004528893e+00) (47, 2.07775603774696859816e+00) (48, 1.04980831548109676987e+03) (49, 1.84667065475968050769e+00) (50, 2.90514668861747615836e+00) (51, -2.14423420610046711055e-01) (52, 1.28772966956880208222e+00) (53, -6.75077501699998805407e-01) (54, 1.16026614255182280999e+00) (55, 8.22973304833288454851e-01) (56, -2.09580479477613446093e+00) (57, 1.50000000000000000000e+03) (58, -3.73969600841284888215e-01) (59, 1.65612207581452286487e-02) (60, -4.62304674651853009237e+00) (61, 1.62826735251724485920e+00) (62, 3.49323088659890812480e+00) (63, 1.50000000000000000000e+03) (64, 1.50000000000000000000e+03) (65, 1.16485857886139374529e+01) (66, 3.40957208880314333044e+00) (67, 4.26159733196492918061e-01) (68, 2.06548365092533670051e+00) (69, 4.04253653321957415301e+02) (70, 3.10043911485223532054e+02) (71, 2.84260628736232090485e-01) (72, -1.61250450368508851939e-01) (73, 1.85189101217358853546e+00) (74, 3.16142079004081977267e-01) (75, 1.31607593530772359891e+00) (76, 3.32958818132248257626e+00) (77, 1.66185647980816170177e-01) (78, 1.23449699967724102478e+00) (79, 2.27963000110871139015e+00) (80, 8.52849801438421484256e-01) (81, 5.37224603444902935878e-03) (82, 4.39712198307289858779e-01) (83, 6.45611619418781867985e-01) (84, -3.46975019965635789188e-01) (85, 2.43678445770257390279e+00) (86, -7.83333410106383937199e-02) (87, 9.90778590621424037899e-01) (88, 3.98912159875000560394e-01) (89, 6.88043568484103196248e-01) (90, 1.80864974183462878798e+00) (91, 2.48786127488564989818e+00) (92, 2.37172503319427807611e+00) (93, 4.31352240171349965436e+00) (94, 1.56911249824434739786e+00) (95, 1.19514709295257182120e+00) (96, 9.22766692431985363632e-02) (97, 1.03933878739356375109e-01) (98, -1.99610446296490190443e-01) (0, 7.87028287057513331604e+00) (1, 3.03833811758603633546e-01) (2, 2.83030028669681243958e-01) (3, 3.30713025508966140809e-01) (4, 2.90948431222285919251e-01) (5, 1.06521108104026790420e-01) (6, 1.65880518275084987145e-01) (7, -1.94800269914318868736e+00) (8, 1.23048013353122109947e+03) (9, 1.20042090030531989342e+00) (10, 1.01262588567799971528e+00) (11, -3.63703875422701017328e+00) (12, -2.00446137372320642989e-01) (13, 2.24114987731168513463e+00) (14, 2.54730793513802733496e-01) (15, 5.08861271295118933189e-01) (16, 7.38958705817418182171e-01) (17, -5.44764166128396798428e+00) (18, 4.32861401590621183710e-02) (19, 9.26752351905983595692e-01) (20, 3.96969816839023825761e-01) (21, -3.25116261673490258843e+00) (22, 5.67005435623766995690e+00) (23, 8.23176278525973303957e-02) (24, 1.99491618063478526324e+00) (25, -6.99655264614286176439e-01) (26, 1.17245453301080115871e+00) (27, 4.54178054228242145118e-01) (28, 1.60619338751736895343e-01) (29, -5.77731211808452327361e-01) (30, 5.82452370237900196592e-01) (31, 6.22080023479221377869e+00) (32, -1.53244508852104988073e+00) (33, 4.03967114855302733556e-01) (34, -6.10007271111548954323e-02) (35, -1.82944309781595315645e-01) (36, 3.90244573891554813461e-01) (37, -8.65095565736751122288e-03) (38, 1.01389563420864625698e+00) (39, -4.78578023572101773908e-01) (40, -3.11240771327362963916e+00) (41, 3.40469841653157079264e-01) (42, 2.52122299991156262333e-01) (43, 2.66175625062967879941e+00) (44, 6.31779187351187654365e-01) (45, 1.37631353458093186326e+00) (46, 1.23699679997472666848e-01) (47, 8.96568265427221344765e-01) (48, 5.01681220247508179000e+02) (49, 1.69350990373041176973e+00) (50, 3.73186728409903301085e+00) (51, 3.63798936716236698263e-01) (52, 1.69557336932221347503e+00) (53, -2.43679456349883888366e-01) (54, 1.16764042034883708254e+00) (55, 2.86452286967383251692e+00) (56, 1.95146169959228565904e-02) (57, 1.50000000000000000000e+03) (58, 6.39963081226079921748e+00) (59, -1.72524433861982323668e-01) (60, 4.51490782565343096167e+00) (61, -7.39016016236169970277e-01) (62, 3.32949533534210040386e+00) (63, 1.50000000000000000000e+03) (64, 1.50000000000000000000e+03) (65, 2.77198438745806674532e+00) (66, 3.44113209866178237917e+00) (67, 6.13987161747522436350e-01) (68, 2.03314462389310968149e+00) (69, 4.04215287056362456042e+02) (70, 3.09308419544575542659e+02) (71, 1.49048366446346891578e-01) (72, 5.26768450588030012760e-01) (73, 1.62640176215542248128e-01) (74, 4.82046246704934011618e-01) (75, 8.95589634349693519688e-01) (76, 2.83281293032511349850e+00) (77, 1.76900913828846872988e-01) (78, 3.82354532971551419607e-01) (79, 2.15949012256856676117e+00) (80, 1.32886052837934909299e+00) (81, 7.18934325023508402630e-01) (82, 3.11892526623577581724e-01) (83, 5.77381321392138047166e-01) (84, -2.36290000125314370027e-01) (85, 6.06435673472919156701e-01) (86, 8.95802510639165716633e-01) (87, 9.92540421216571044916e-01) (88, 4.07875702013912322386e-01) (89, 6.00310529113288082748e-01) (90, -1.40189705000213021835e-01) (91, 2.97974166899154413457e+00) (92, 1.78220156858445832881e+00) (93, -4.32602568848511837007e-01) (94, 5.60775013633873165020e+00) (95, -5.03261867701021325949e-01) (96, 2.49076644185412421351e-01) (97, 1.37836609198836601564e+00) (98, -1.04051797436735468660e-01) (0, -6.26362381816582640681e+01) (1, -1.23443181482251432279e-01) (2, -8.91436774703818074483e-02) (3, 1.85555006888550866329e-02) (4, -5.55258136719043865481e-03) (5, 9.37790777751601356549e-01) (6, 1.21907661421189666973e-01) (7, 1.38034461207842640285e+00) (8, 3.32816393777988606129e-01) (9, 9.00549238008781838261e-01) (10, 1.58916543683917499408e+00) (11, -2.47798526012903252980e-01) (12, 4.98702035260973550179e-02) (13, 1.03279101897037173252e+00) (14, 1.37944633666990790211e+00) (15, 2.63941532001358336590e-01) (16, 2.05471233116983509337e-01) (17, -1.85325827297117839976e+00) (18, 3.09772645819677316936e+00) (19, 6.05129306636637664951e-01) (20, 1.07217637137803323277e+00) (21, 1.46794158906805050080e+00) (22, -3.09117450105514668390e-01) (23, 1.39647763769124888533e+00) (24, 3.98682066382391286918e-01) (25, 2.20795273030157535032e+00) (26, -2.19075598782795033515e-01) (27, 8.11699474150508248904e-01) (28, 2.03208038298184501258e+00) (29, 1.76095520647723091656e+00) (30, 8.09717930229149729371e-01) (31, 4.50927736086863151233e-01) (32, 1.83312844208150371728e+00) (33, 1.24760842061730126140e+00) (34, 1.12473744451894774876e+00) (35, 1.48365232289076121042e+00) (36, 1.42889961098680329243e+00) (37, 1.41655137396531061178e+00) (38, 1.63637025684623971244e+00) (39, 1.02384350122990941401e+00) (40, 1.02078215857330079075e+00) (41, 1.25691338242515637802e+00) (42, 8.05663327285196628758e-01) (43, 2.05310017276941980668e+00) (44, 7.78830926440833737345e-01) (45, 2.08637567364120135593e+00) (46, 1.27275031562549467701e+00) (47, 7.87767430428039316936e-01) (48, 4.66513287794308340040e-01) (49, -5.72351228082523880158e-02) (50, 1.44470566870387884251e+00) (51, 1.07570403886436682939e+00) (52, 1.00441474221512713760e-01) (53, 5.83340254087279852513e-01) (54, 9.11338041087575545518e-01) (55, 2.46851191780649542595e-01) (56, 1.28625791171776471256e-01) (57, 1.18985551630670483014e+00) (58, 3.99178174142400810087e-01) (59, 6.59317231620753729793e-01) (60, -1.69479582570681674980e+00) (61, 3.63447550276093300781e+00) (62, -9.95135372872034407177e-02) (63, 4.47650068455317726168e-02) (64, 6.17496691589601520711e-01) (65, 2.11817284235384040159e+00) (66, 3.44670621457858583625e+00) (67, 7.85360359019266263125e-01) (68, 6.00060732752838554838e-01) (69, -1.72332896905422694456e-01) (70, 1.52600361424463848437e+00) (71, 3.21170942120733660108e-01) (72, 1.34355354479046162908e+00) (73, 2.14672478340388300788e-01) (74, 9.70480514983789177563e-01) (75, 2.35969223132410116373e-01) (76, 1.46838946826676619573e+00) (77, 1.05164582753587465547e+00) (78, 8.86411370827820066509e-01) (79, 7.43253803792916278859e-01) (80, 1.61970002957486008954e-01) (81, 7.46677189124521301089e-01) (82, 6.24197806585577663618e-01) (83, 1.13402558994564639505e+00) (84, 6.38097484240878309869e-01) (85, 7.19477643217750345572e-02) (86, 1.06537040960558648806e+00) (87, 4.44476274239118840370e-01) (88, 5.25890918305637611319e-01) (89, 7.04196681946393621132e-01) (90, 1.54859087022893748831e+00) (91, 7.71081583992785812853e-01) (92, 1.84732811906219729359e+00) (93, 7.13813816400181266886e-01) (94, 5.21592676118375231376e-01) (95, 4.86668615018667649608e-01) (96, 8.55682477135541685875e-01) (97, 7.14948914168265337032e-01) (98, -5.79861021075802840485e-01) (0, 1.88600499452657111021e+00) (1, 7.07881754893460279909e-01) (2, 6.36950238305726057497e-01) (3, 5.24316987651982313601e-01) (4, 6.82832947630085951296e-01) (5, 5.15890644980330770331e-01) (6, -3.94359917316918995311e-01) (7, 8.14531737434553093635e+00) (8, -4.52068872741881744304e+00) (9, 3.14869967574993803172e-01) (10, 8.48346827882083931449e-01) (11, -8.49488397066370559685e+00) (12, 3.31839371946230698995e+00) (13, 3.01962378838482514709e+00) (14, 1.25186823955487569471e+00) (15, 7.97976110490677736919e-01) (16, 4.56226841672820904172e-01) (17, 8.80323024473826087899e+00) (18, 1.28065451845153854826e+00) (19, 1.93026818925222687362e+00) (20, 1.06931384439757537486e+00) (21, 2.78012798407331551687e+00) (22, 4.00060277500388224325e+02) (23, 1.15251375737141414923e+00) (24, 7.82696567394618236690e-01) (25, 7.02012744855332826432e+00) (26, 8.34017379256273549970e+00) (27, 3.67473770192801807433e-01) (28, 1.71035881752867546801e+00) (29, 6.77708072703602137921e+00) (30, 3.42549113311115815961e+00) (31, 4.27380443243184426905e+00) (32, 1.02422968398645480192e+02) (33, 1.17849139850130124607e+00) (34, -1.99148837685979906986e+00) (35, -6.93588351384527124210e-01) (36, 7.49862989759365272668e-01) (37, 5.32564559631512390858e-01) (38, 1.48803019919792745895e+02) (39, 2.21738543410314986604e-01) (40, -3.71995540971353166881e+00) (41, 1.60366378461250735921e-01) (42, -4.00471823896857781477e+00) (43, 1.40153015780243817012e+00) (44, 1.20410860215402393258e+00) (45, -3.41278923863883010270e+00) (46, 4.91655687523265938488e-01) (47, 2.63434021382855876325e+00) (48, 1.58271614915807457002e+00) (49, 3.78362636611694780342e+00) (50, 3.10591980373693044015e+00) (51, 2.94523156135777064435e+00) (52, -1.60503196421784788406e+00) (53, -1.15402866905326217939e+00) (54, 2.05601379062776601359e+00) (55, 3.82713093885587218868e-01) (56, 1.95556901770478503977e+02) (57, 5.41064195932486882157e+02) (58, 8.67900025202378166966e+00) (59, 4.44747613494595555039e+01) (60, 1.02540946887859316661e+01) (61, -1.45851660721360287809e+00) (62, 1.26206341069790317633e+00) (63, 1.50000000000000000000e+03) (64, 1.50000000000000000000e+03) (65, 2.41895299474293334896e+00) (66, -3.86907589966087739342e+00) (67, 9.69282510241113448579e-01) (68, 3.66806840255293220565e+00) (69, 3.70303612985319619000e+00) (70, 5.59460119061653102790e+01) (71, -1.74188494906363205983e-01) (72, 3.49365827439500065132e-01) (73, 5.05929190580754006845e+00) (74, 1.16172165318505535292e-01) (75, 4.20356688573683854315e+01) (76, 2.81925313370859953466e+00) (77, 1.03446062653479375903e+00) (78, 6.83049394624265171494e-01) (79, 2.24315030416947820413e+01) (80, 1.12606914410712866115e+00) (81, 1.51541572205372876425e+00) (82, -2.02672169626846865320e-01) (83, -9.98824523983972700769e-01) (84, -2.70303191779306173359e+00) (85, 9.45856181361203862679e-01) (86, -2.18766790981230130342e+00) (87, 6.10504411055877049819e-01) (88, -2.47042530482307870487e-01) (89, -4.04525523005705434088e-03) (90, 1.27988076288707519623e+00) (91, 5.50400402037673819322e-01) (92, 1.61902169962176745166e+00) (93, 1.56595709195110854850e+00) (94, 1.74043760607509656602e+00) (95, 3.93368031730879508245e+00) (96, -2.28755545161265838594e-01) (97, -5.18772379369206726452e-02) (98, 2.30765822115421403993e+00) (99, 8.18865527921017521962e-01) (100, 6.08675234034378287440e-01) (101, 2.80606723388954593101e-01) (102, 5.76541090313670179235e-01) (103, 4.73930055003344563591e-01) (104, -6.70994801343024027673e-01) (105, 2.36286108520519816389e-01) (106, 2.50485717410125652282e-01) (107, 6.91895468330297691573e-01) (108, 5.43718402137789991180e-01) (109, 4.73854804042583344081e-01) 
