FANN_FLO_2.1
num_layers=3
learning_rate=0.700000
connection_rate=1.000000
network_type=0
learning_momentum=0.000000
training_algorithm=2
train_error_function=1
train_stop_function=1
cascade_output_change_fraction=0.010000
quickprop_decay=-0.000100
quickprop_mu=1.750000
rprop_increase_factor=1.200000
rprop_decrease_factor=0.500000
rprop_delta_min=0.000000
rprop_delta_max=50.000000
rprop_delta_zero=0.100000
cascade_output_stagnation_epochs=12
cascade_candidate_change_fraction=0.010000
cascade_candidate_stagnation_epochs=12
cascade_max_out_epochs=150
cascade_min_out_epochs=50
cascade_max_cand_epochs=150
cascade_min_cand_epochs=50
cascade_num_candidate_groups=2
bit_fail_limit=1.00000000000000005551e-01
cascade_candidate_limit=1.00000000000000000000e+03
cascade_weight_multiplier=4.00000000000000022204e-01
cascade_activation_functions_count=10
cascade_activation_functions=3 5 7 8 10 11 14 15 16 17 
cascade_activation_steepnesses_count=4
cascade_activation_steepnesses=2.50000000000000000000e-01 5.00000000000000000000e-01 7.50000000000000000000e-01 1.00000000000000000000e+00 
layer_sizes=42 11 2 
scale_included=0
neurons (num_inputs, activation_function, activation_steepness)=(0, 0, 0.00000000000000000000e+00) (0, 0, 0.00000000000000000000e+00) (0, 0, 0.00000000000000000000e+00) (0, 0, 0.00000000000000000000e+00) (0, 0, 0.00000000000000000000e+00) (0, 0, 0.00000000000000000000e+00) (0, 0, 0.00000000000000000000e+00) (0, 0, 0.00000000000000000000e+00) (0, 0, 0.00000000000000000000e+00) (0, 0, 0.00000000000000000000e+00) (0, 0, 0.00000000000000000000e+00) (0, 0, 0.00000000000000000000e+00) (0, 0, 0.00000000000000000000e+00) (0, 0, 0.00000000000000000000e+00) (0, 0, 0.00000000000000000000e+00) (0, 0, 0.00000000000000000000e+00) (0, 0, 0.00000000000000000000e+00) (0, 0, 0.00000000000000000000e+00) (0, 0, 0.00000000000000000000e+00) (0, 0, 0.00000000000000000000e+00) (0, 0, 0.00000000000000000000e+00) (0, 0, 0.00000000000000000000e+00) (0, 0, 0.00000000000000000000e+00) (0, 0, 0.00000000000000000000e+00) (0, 0, 0.00000000000000000000e+00) (0, 0, 0.00000000000000000000e+00) (0, 0, 0.00000000000000000000e+00) (0, 0, 0.00000000000000000000e+00) (0, 0, 0.00000000000000000000e+00) (0, 0, 0.00000000000000000000e+00) (0, 0, 0.00000000000000000000e+00) (0, 0, 0.00000000000000000000e+00) (0, 0, 0.00000000000000000000e+00) (0, 0, 0.00000000000000000000e+00) (0, 0, 0.00000000000000000000e+00) (0, 0, 0.00000000000000000000e+00) (0, 0, 0.00000000000000000000e+00) (0, 0, 0.00000000000000000000e+00) (0, 0, 0.00000000000000000000e+00) (0, 0, 0.00000000000000000000e+00) (0, 0, 0.00000000000000000000e+00) (0, 0, 0.00000000000000000000e+00) (42, 6, 5.00000000000000000000e-01) (42, 6, 5.00000000000000000000e-01) (42, 6, 5.00000000000000000000e-01) (42, 6, 5.00000000000000000000e-01) (42, 6, 5.00000000000000000000e-01) (42, 6, 5.00000000000000000000e-01) (42, 6, 5.00000000000000000000e-01) (42, 6, 5.00000000000000000000e-01) (42, 6, 5.00000000000000000000e-01) (42, 6, 5.00000000000000000000e-01) (0, 6, 0.00000000000000000000e+00) (11, 6, 5.00000000000000000000e-01) (0, 6, 0.00000000000000000000e+00) 
connections (connected_to_neuron, weight)=(0, -9.25473245183142623205e+00) (1, -1.77029358898299848946e-01) (2, -1.62674176250594770821e-01) (3, -1.72515081916946089180e-01) (4, -2.30998593126433948708e-01) (5, 6.95396526152521760045e-02) (6, -2.73452228705710120860e-01) (7, 6.23846320986179203594e-01) (8, 3.32609292543958501298e+00) (9, 3.08016473807392610063e-01) (10, 5.36823982592512738421e-01) (11, 4.91650906591679814905e-01) (12, 3.44219330975523818417e-01) (13, 3.07129756697338507365e+00) (14, 3.34319876352385636498e-01) (15, 4.57024376357898221013e-01) (16, -2.19812250535315334421e-01) (17, -6.18250721999770297410e-02) (18, 2.31926300878082081169e-01) (19, 1.13494875912983017585e-01) (20, -4.52187201566845775602e-01) (21, 5.42675830371786224737e-02) (22, 3.22877061271875298587e+00) (23, -7.43220952849286409236e-02) (24, 1.76003224126124152571e-01) (25, 1.03940247467779939283e-01) (26, -5.30746907167216758205e-02) (27, 2.35101038854717364623e-01) (28, -8.46076399270562495847e-02) (29, 5.01332206894050003143e-01) (30, 1.10770344702487499866e+00) (31, -2.10259454999500744465e-01) (32, 2.38975852174412556339e-01) (33, 2.99959681374680375843e-01) (34, 3.48314086299026381965e-01) (35, 1.10350736270785065862e+00) (36, 6.28652367907891029830e-01) (37, 5.23172792724278801213e-03) (38, 5.41863316453189636235e-01) (39, 3.87529808631132288710e+00) (40, -1.27353696438517322020e-01) (41, 5.67637577797606845964e-02) (0, 3.95471117861572185603e+00) (1, 7.13674738494203042549e-01) (2, 6.00164412943170022530e-01) (3, 5.71509997782752465767e-01) (4, 6.88729926434800576729e-01) (5, 3.93202220268848046114e-01) (6, 2.65322006580777480789e-01) (7, 3.92680204000586730029e-01) (8, 2.43009200166137295795e+00) (9, -1.26101316801555918268e+00) (10, -2.41356112740314932008e-01) (11, -1.19047322554415802021e-01) (12, -2.37413384727288845344e-01) (13, -3.45882638293435995536e+00) (14, -2.14323011356283621431e-01) (15, 2.21441938758453527036e-01) (16, 1.01779173755725715900e+00) (17, -1.09581834950491341374e-01) (18, -1.10252080447691039322e-01) (19, -2.33546773377440952668e-01) (20, 1.29808283365366561313e+00) (21, 9.40082416172329571324e-01) (22, -3.41022991832876476437e+00) (23, -7.28538136524129742444e-02) (24, -1.73041415605767689989e-01) (25, 1.32258199346596966306e-01) (26, 4.39467863477542963757e-01) (27, -2.50288640573941290057e-01) (28, -4.00458440996740550055e-01) (29, -1.76383056581193353729e-01) (30, 1.35610480104119290878e+00) (31, -3.29788971732041913398e-01) (32, 1.57211828436947032017e-01) (33, 8.28658489319911983895e-02) (34, 9.62851666963627894624e-01) (35, 1.14701926113786756289e+00) (36, -2.25148673888442840685e-01) (37, 1.01172696774299020195e-01) (38, 7.78142532964461036693e-02) (39, -1.19864177441201547047e+00) (40, 2.27971390934364359637e-01) (41, -8.54516729743797553986e-01) (0, 8.38371813373815277792e-01) (1, 1.26563223546197889391e+00) (2, 1.17647458335211752001e+00) (3, 1.14898778592994688097e+00) (4, 1.15949227010658262316e+00) (5, 1.15194448423038187101e+00) (6, 3.71294764237642294091e+00) (7, -5.17586885529311646614e-01) (8, -5.94608384264174905098e+00) (9, 2.60307781142086280823e+00) (10, 2.70013349089920307033e-01) (11, 8.85743412772169724789e-01) (12, 1.15066117678371870880e+00) (13, -4.36845121098145217076e-01) (14, 3.41773665559515271717e-01) (15, 1.32747166068522437499e+00) (16, 2.34923344347640306040e+00) (17, 1.07031808934490646479e+00) (18, 1.01313986567658198545e+00) (19, 6.91194701196937377752e-01) (20, 2.05638242360763845440e+00) (21, -3.02921782103194647817e-01) (22, -1.11141103296106602549e+00) (23, 1.34251806956915831215e+00) (24, 1.22107952655760509941e+00) (25, 9.21520051388060590369e-01) (26, 2.29161922443921595161e+00) (27, 7.72010281893177663370e-01) (28, 9.77946648798511453116e-01) (29, 9.17845953369339162542e-01) (30, 1.87591046813881390243e-01) (31, 3.19109560928593172235e+00) (32, 9.77199120454594893914e-01) (33, 9.91915097245581245389e-01) (34, 3.34196525828615809139e-01) (35, -5.89277388407974500595e-01) (36, 2.02864295586192705523e-01) (37, 5.94004119162166444035e-01) (38, 2.17080212386601134611e-01) (39, -3.51649852871771617657e+00) (40, 1.10362823109450802761e+00) (41, 4.76070614732638730526e-01) (0, -8.63328584251185970899e-01) (1, -3.33777532477589206072e-02) (2, -5.37111849088879045322e-02) (3, -6.91374853749485290821e-02) (4, 9.58508610229282104198e-02) (5, 1.28841793451423200501e-02) (6, 2.28222813677382702080e-02) (7, 4.39906073406406583626e-01) (8, 4.51055143982277806369e-01) (9, 1.73669246791110981620e-01) (10, 3.06814255146259928786e-01) (11, 2.33370316835122049159e-01) (12, 2.24296951500637636867e-01) (13, 3.41094886295943200416e-01) (14, 2.25009551893576326131e-01) (15, 3.03652758275816947453e-01) (16, 1.29108783611640687283e-01) (17, 1.96686281993268069490e-01) (18, 7.01738625413307337553e-02) (19, 2.34944042856281204434e-01) (20, -1.44523088367647239982e-01) (21, -3.84253223745439700942e-02) (22, 4.59868669121446083103e-01) (23, 1.16062632806459564705e-01) (24, 8.09067294165997930033e-02) (25, 6.20621210409795301399e-02) (26, 2.05114304035298122830e-01) (27, 3.16769330108758184750e-01) (28, 1.84126658533999898459e-01) (29, 1.46843304565129229022e-01) (30, 1.36581657475984136196e-01) (31, 1.31191309190586635758e-01) (32, 2.40335464617134675347e-01) (33, 1.67628330294120497790e-01) (34, -2.46492455774268868704e-03) (35, 2.15424147874740179454e-01) (36, 3.03308552716379742353e-01) (37, 2.24155548772720675244e-01) (38, 1.21279423390311211217e-01) (39, 5.97608678901750733914e-01) (40, 1.06199552527152241144e-01) (41, 1.06518995086801286643e-02) (0, -1.76761513621925114847e+00) (1, -1.84687963597836235508e-01) (2, -1.89722000532211998447e-01) (3, -3.52552075911185605617e-02) (4, -1.19631661944451045398e-01) (5, 2.80910706225429851468e-01) (6, 1.88715557470049838384e-02) (7, -2.61586283606585090489e-01) (8, -5.19117153557831212396e+00) (9, 3.39356929389128883501e-02) (10, 7.70680395659457451174e-01) (11, 4.33615847859337488757e-01) (12, 1.35766898998132407028e-01) (13, -1.98999359081808813166e+00) (14, 1.42879384805973813632e-01) (15, 3.03295548123108216210e-01) (16, 7.15249423840404879860e-02) (17, 2.05311294775296054871e-01) (18, 5.38703401454685981697e-01) (19, 3.84497220961002417194e-01) (20, -1.48516979526144538015e-01) (21, -8.51871680055131919040e-01) (22, -3.35792412510984350504e+00) (23, 7.23355780625718147725e-01) (24, 2.09518753154941922423e-01) (25, 2.30070743872591382262e-01) (26, 1.36837186285241108052e-01) (27, 3.85062414038295608432e-01) (28, 4.18808729973422111392e-01) (29, 4.31577848773763039780e-01) (30, -1.14688649476718840248e+00) (31, 1.50454581196852149594e-01) (32, 6.57714190008198085202e-01) (33, 3.33041548483760163624e-01) (34, -1.52227753598828396964e-01) (35, -1.63482115801893268525e+00) (36, 7.92018583322987357320e-01) (37, 1.31712162515174813215e-01) (38, 1.75458727155396801423e-02) (39, -2.22350597315326492520e+00) (40, -1.15808417029198154613e-01) (41, 5.46833956249416885953e-01) (0, -9.11999370852621993322e+00) (1, -1.90175722608753705600e-01) (2, -3.04063334385343830846e-01) (3, -2.33816216955372302433e-01) (4, -2.11708973417469525913e-01) (5, 1.87872740672657911887e-01) (6, -1.69600649576014339548e-01) (7, 6.72912279434744076134e-01) (8, 3.39281428816232999424e+00) (9, 1.90363070500043946032e-01) (10, 8.61975218353233207935e-01) (11, 1.66325186669234736936e-01) (12, 1.43453246224171521161e-01) (13, 4.30874097418475177079e+00) (14, 3.88146074334220048119e-01) (15, -1.81605225332970299235e-01) (16, -2.51726488421982474986e-01) (17, 1.02279780918869730999e-01) (18, 2.31351126884145996687e-01) (19, 2.28290862848519238160e-01) (20, -4.25956368825509135156e-01) (21, 1.51547168935101117526e-01) (22, 3.74082992569734207322e+00) (23, 1.13399763567742575820e-01) (24, 4.81691008766263542573e-02) (25, -1.35237819586733927502e-03) (26, -2.66844244734857904966e-01) (27, 2.27337926908155213424e-01) (28, 3.32294122574115724511e-01) (29, 1.07106512585575311403e-01) (30, -2.00831997623963746935e-02) (31, 1.34741485521631121358e-02) (32, 3.00099592194041531190e-01) (33, 2.48231802676232071736e-01) (34, 3.07895765808042010114e-01) (35, 3.21584687761376109005e-01) (36, 6.69536528082632975689e-01) (37, 1.02164376798631675869e-01) (38, 8.49704882956995199983e-01) (39, 3.90681758919610411240e+00) (40, 1.08995041207633827640e-01) (41, -3.74396056589045705953e-02) (0, -1.86736295045732259013e+00) (1, -1.49048935513500818706e-01) (2, -1.53468705605272898174e-01) (3, -9.60018410193964333299e-02) (4, -1.79820872734789499736e-01) (5, 1.20499842933567441472e-01) (6, 4.20019861475109529403e-02) (7, -3.05369534802731101841e-01) (8, -5.21778834733063145990e+00) (9, 1.62986558708299256182e-01) (10, 2.71268069626366403746e-01) (11, 4.30683269534065882311e-01) (12, 5.72967732037216667673e-02) (13, -1.97476989399019964289e+00) (14, 1.57800647666271970371e-01) (15, 1.42336423474351436713e-01) (16, 3.40730641939998787904e-02) (17, 3.83341226856995287431e-01) (18, 1.24233013723891519420e-01) (19, 2.15565873400910296143e-01) (20, -1.03734720955950251997e-01) (21, -7.31189827952852366977e-01) (22, -1.67587582163318349338e+00) (23, 3.37951824504702180718e-01) (24, 3.00461910086963324140e-01) (25, 1.74983988909706400516e-01) (26, -2.38241745393018927723e-01) (27, 4.36799953508491378695e-01) (28, 2.93102152676154137367e-01) (29, 4.16026527565286019517e-01) (30, -1.46493584714259683643e+00) (31, 2.98296515303329810853e-02) (32, 5.69535828715515335396e-01) (33, 2.84580963153499455487e-01) (34, -1.36839667160649380850e-01) (35, -1.68140336510263455061e+00) (36, 7.77209526206478873434e-01) (37, 1.28179089745532936995e-01) (38, 1.27180409965343244050e-01) (39, -2.26493184202209274503e+00) (40, 9.70936851996567415468e-03) (41, 6.23329696812094380398e-01) (0, -1.77140588731883763529e+00) (1, -1.75387798282009149675e-01) (2, -4.46036219919739226891e-02) (3, -9.55130964840469470767e-02) (4, -7.87310287679253012483e-02) (5, 1.20865673891456998357e-01) (6, 7.33211014584183445875e-02) (7, -2.12909569305475832035e-01) (8, -5.32536107796126767511e+00) (9, 1.04699992200260535991e-02) (10, 1.81260935844456488875e-01) (11, 2.59472727212860743151e-01) (12, 3.92795184339195663226e-02) (13, -1.95507722343627698969e+00) (14, 1.85987346373165385316e-02) (15, 1.46627116066204377098e-01) (16, 7.16490988591076266578e-02) (17, 2.90544953327465771409e-01) (18, 1.66672578786414393726e-01) (19, 3.64444735793022223103e-01) (20, -9.04408139096322255535e-02) (21, -6.94856445823183177524e-01) (22, -3.39812159151239301380e-01) (23, 2.25961251427917342305e-01) (24, 1.88186731953492669689e-01) (25, 1.63663709416607683345e-01) (26, -1.48927083472948140752e-01) (27, 3.35835221040363174350e-01) (28, 4.25684690440054913640e-01) (29, 2.73977475476516130204e-01) (30, -1.32110063038196146046e+00) (31, 8.23062960463242232478e-02) (32, 6.85706632258449855222e-01) (33, 3.34071988660949670269e-01) (34, -8.70835574461413519654e-02) (35, -1.77237770345531475691e+00) (36, 6.27066372241005587362e-01) (37, 2.09254325946819197402e-01) (38, 1.28666025934047467683e-01) (39, -2.32264772736325930680e+00) (40, -7.05717326472363043477e-02) (41, 5.34808178998888661404e-01) (0, 3.70707913412381806495e+00) (1, 6.58330881188640248958e-01) (2, 6.18584566901454580012e-01) (3, 6.68375582586059224788e-01) (4, 6.80129201303252828303e-01) (5, 2.92527322836520886629e-01) (6, 6.09476775640056200878e-01) (7, 2.65384277787322209186e-01) (8, 2.72242553563812039741e+00) (9, -1.16253603074853884003e+00) (10, 2.78443290991785996624e-01) (11, 9.37625555645202057864e-02) (12, -2.57920658622312684582e-02) (13, -4.74206226327520941055e+00) (14, 2.04712465299433710175e-01) (15, 4.91150651782662150957e-01) (16, 1.00352188640912864948e+00) (17, -1.57636883982464226506e-01) (18, -2.56651666251279053643e-01) (19, 1.70255016524131046196e-02) (20, 1.25542927301523787875e+00) (21, 1.01349688344747201896e+00) (22, -4.12909435515694056562e+00) (23, 1.19458053624257112824e-01) (24, -7.85841245391210863058e-02) (25, -2.60042248243739643199e-02) (26, -5.56532598667122194169e-02) (27, -1.20046456769429196743e-01) (28, -3.54436279155348032965e-01) (29, -1.03067573994571087814e-01) (30, 1.53138965607102539579e+00) (31, -1.36910778844913344487e-01) (32, 1.37155209598552263461e-01) (33, 5.90117422673335986771e-02) (34, 1.00608839779739533959e+00) (35, 1.11745642276229917300e+00) (36, -1.49677671279905138979e-01) (37, -1.04641851956287102593e-02) (38, -3.17810948226997097565e-02) (39, -2.67762484956894208921e+00) (40, 1.24863104076759434680e-01) (41, -2.45366341227462092522e-01) (0, -3.57379697890562564311e+00) (1, -4.97658922183558116714e-02) (2, -1.59408230226044306255e-01) (3, -1.33107341717486032939e-01) (4, -9.36161651122614374421e-02) (5, -5.38482552308842676858e-02) (6, -4.93212763202897155890e-02) (7, -2.07101230782564982302e-01) (8, -5.36391854408079549188e+00) (9, 3.53443667617926796098e-02) (10, -1.22904387967040396035e-01) (11, 1.17521521760507952070e-01) (12, 2.15456304856649100143e-01) (13, -1.93394609908882864069e+00) (14, 1.56162458708103940586e-01) (15, -6.97301902001735834924e-02) (16, -1.13214897600381836362e-01) (17, 2.72331167142678076676e-01) (18, 2.53727788816281829565e-01) (19, 2.71603120581849044601e-01) (20, -1.97401490520102113058e-01) (21, -8.43775990937223441257e-01) (22, -9.61849666135921044230e-02) (23, -9.39107445730619078139e-02) (24, -1.81280916803700870021e-01) (25, -8.42391139292713447828e-02) (26, -2.18310927933296095027e-01) (27, 3.24978026378269058139e-01) (28, 2.47647374832983935278e-01) (29, 3.20031481099379844224e-01) (30, -1.59148833257655475393e+00) (31, -8.22509147508332233434e-02) (32, 5.37091005042549141102e-01) (33, 2.77131015855926421398e-01) (34, -1.85731710691590390372e-01) (35, -1.60916837689004932344e+00) (36, 5.98341821040138888144e-01) (37, 5.47546489296202310015e-02) (38, 9.76836805914113315286e-02) (39, -2.38992974095836352433e+00) (40, -1.15124550587948307201e-01) (41, 5.32157299675406258999e-01) (42, 8.59457659808310348026e-01) (43, 2.94248640084010026907e-01) (44, 4.98911439878095986505e-03) (45, 9.49906817729733510269e-01) (46, -1.41304418558169442299e-01) (47, 7.86524567094954107915e-01) (48, -5.44259073862169540092e-01) (49, -1.87429435664702492836e-01) (50, 3.38367223286372087454e-01) (51, -5.10531383284662521049e-01) (52, 4.03674626598041985659e-01) 
