FANN_FLO_2.1
num_layers=3
learning_rate=0.700000
connection_rate=1.000000
network_type=0
learning_momentum=0.000000
training_algorithm=2
train_error_function=1
train_stop_function=1
cascade_output_change_fraction=0.010000
quickprop_decay=-0.000100
quickprop_mu=1.750000
rprop_increase_factor=1.200000
rprop_decrease_factor=0.500000
rprop_delta_min=0.000000
rprop_delta_max=50.000000
rprop_delta_zero=0.100000
cascade_output_stagnation_epochs=12
cascade_candidate_change_fraction=0.010000
cascade_candidate_stagnation_epochs=12
cascade_max_out_epochs=150
cascade_min_out_epochs=50
cascade_max_cand_epochs=150
cascade_min_cand_epochs=50
cascade_num_candidate_groups=2
bit_fail_limit=1.00000000000000005551e-01
cascade_candidate_limit=1.00000000000000000000e+03
cascade_weight_multiplier=4.00000000000000022204e-01
cascade_activation_functions_count=10
cascade_activation_functions=3 5 7 8 10 11 14 15 16 17 
cascade_activation_steepnesses_count=4
cascade_activation_steepnesses=2.50000000000000000000e-01 5.00000000000000000000e-01 7.50000000000000000000e-01 1.00000000000000000000e+00 
layer_sizes=11 4 2 
scale_included=0
neurons (num_inputs, activation_function, activation_steepness)=(0, 0, 0.00000000000000000000e+00) (0, 0, 0.00000000000000000000e+00) (0, 0, 0.00000000000000000000e+00) (0, 0, 0.00000000000000000000e+00) (0, 0, 0.00000000000000000000e+00) (0, 0, 0.00000000000000000000e+00) (0, 0, 0.00000000000000000000e+00) (0, 0, 0.00000000000000000000e+00) (0, 0, 0.00000000000000000000e+00) (0, 0, 0.00000000000000000000e+00) (0, 0, 0.00000000000000000000e+00) (11, 6, 5.00000000000000000000e-01) (11, 6, 5.00000000000000000000e-01) (11, 6, 5.00000000000000000000e-01) (0, 6, 0.00000000000000000000e+00) (4, 4, 5.00000000000000000000e-01) (0, 4, 0.00000000000000000000e+00) 
connections (connected_to_neuron, weight)=(0, -7.43458176589357977448e-01) (1, 1.38496223630393555659e+00) (2, 7.79322121561023317682e-01) (3, 4.10743060156771810920e-01) (4, 1.37292570507784161826e+00) (5, 1.11521662040098590296e+00) (6, 3.82932666430162216287e-01) (7, 9.81353352789463673211e-01) (8, 1.91719654843210807194e+00) (9, 1.07805025858122327520e+00) (10, -5.62580738065736496445e-01) (0, -6.84889412111389761506e-01) (1, 1.41636768521750977534e+00) (2, 7.79987905443164430963e-01) (3, 2.65922794684836538703e-01) (4, 1.31878347581882748862e+00) (5, 1.01849155141457070606e+00) (6, 4.94490679094480245492e-01) (7, 6.47140921953955894352e-01) (8, 2.05716473910732045027e+00) (9, 5.68994605842868095280e-01) (10, -5.70473026333348953720e-01) (0, 4.56979753370924868250e+00) (1, -4.12779157635734694765e+00) (2, -2.26816041731652173752e+00) (3, -2.00465712622086744688e+00) (4, -2.74122914742593515314e+00) (5, -4.39419979568472829357e+00) (6, -2.15300406864001336871e+00) (7, -2.76063295897011506952e+00) (8, -3.86879734361002824983e+00) (9, -2.75661952491764772333e+00) (10, 4.57523531760617174768e+00) (11, 1.56721728182474762114e+00) (12, 1.80386952170286973818e+00) (13, -9.39653601444546282551e+00) (14, -1.82982980036584952366e+00) 
