FANN_FLO_2.1
num_layers=3
learning_rate=0.700000
connection_rate=1.000000
network_type=0
learning_momentum=0.000000
training_algorithm=2
train_error_function=1
train_stop_function=1
cascade_output_change_fraction=0.010000
quickprop_decay=-0.000100
quickprop_mu=1.750000
rprop_increase_factor=1.200000
rprop_decrease_factor=0.500000
rprop_delta_min=0.000000
rprop_delta_max=50.000000
rprop_delta_zero=0.100000
cascade_output_stagnation_epochs=12
cascade_candidate_change_fraction=0.010000
cascade_candidate_stagnation_epochs=12
cascade_max_out_epochs=150
cascade_min_out_epochs=50
cascade_max_cand_epochs=150
cascade_min_cand_epochs=50
cascade_num_candidate_groups=2
bit_fail_limit=1.00000000000000005551e-01
cascade_candidate_limit=1.00000000000000000000e+03
cascade_weight_multiplier=4.00000000000000022204e-01
cascade_activation_functions_count=10
cascade_activation_functions=3 5 7 8 10 11 14 15 16 17 
cascade_activation_steepnesses_count=4
cascade_activation_steepnesses=2.50000000000000000000e-01 5.00000000000000000000e-01 7.50000000000000000000e-01 1.00000000000000000000e+00 
layer_sizes=7 4 2 
scale_included=0
neurons (num_inputs, activation_function, activation_steepness)=(0, 0, 0.00000000000000000000e+00) (0, 0, 0.00000000000000000000e+00) (0, 0, 0.00000000000000000000e+00) (0, 0, 0.00000000000000000000e+00) (0, 0, 0.00000000000000000000e+00) (0, 0, 0.00000000000000000000e+00) (0, 0, 0.00000000000000000000e+00) (7, 6, 5.00000000000000000000e-01) (7, 6, 5.00000000000000000000e-01) (7, 6, 5.00000000000000000000e-01) (0, 6, 0.00000000000000000000e+00) (4, 4, 5.00000000000000000000e-01) (0, 4, 0.00000000000000000000e+00) 
connections (connected_to_neuron, weight)=(0, 4.01289897931548900090e+00) (1, -3.57442460305351339400e+00) (2, -2.48831585320616532897e+00) (3, 1.24530946727007840735e+00) (4, -3.85845206699221110469e+00) (5, -3.00846337839547262050e+00) (6, 4.03131419745208585681e+00) (0, -1.99347614808583117885e+00) (1, 2.24357124513866956761e+00) (2, -2.70593052239264886261e-01) (3, -5.76881729530537845640e-01) (4, 1.10020527894509334565e+00) (5, 2.42696023041146347055e+00) (6, -1.08200958005472402945e+00) (0, -2.02923456891083597853e+00) (1, 2.42856050378563415038e+00) (2, -4.28074536354388524018e-01) (3, -5.20404281878366736791e-01) (4, 1.14736336375487346650e+00) (5, 2.23635884428160736093e+00) (6, -1.02988649539037924185e+00) (7, -1.88641689207244063198e+01) (8, 1.28091988637911358140e+00) (9, 1.30185314193235912583e+00) (10, -1.60942703131443498599e+00) 
