FANN_FLO_2.1
num_layers=3
learning_rate=0.700000
connection_rate=1.000000
network_type=0
learning_momentum=0.000000
training_algorithm=2
train_error_function=1
train_stop_function=1
cascade_output_change_fraction=0.010000
quickprop_decay=-0.000100
quickprop_mu=1.750000
rprop_increase_factor=1.200000
rprop_decrease_factor=0.500000
rprop_delta_min=0.000000
rprop_delta_max=50.000000
rprop_delta_zero=0.100000
cascade_output_stagnation_epochs=12
cascade_candidate_change_fraction=0.010000
cascade_candidate_stagnation_epochs=12
cascade_max_out_epochs=150
cascade_min_out_epochs=50
cascade_max_cand_epochs=150
cascade_min_cand_epochs=50
cascade_num_candidate_groups=2
bit_fail_limit=1.00000000000000005551e-01
cascade_candidate_limit=1.00000000000000000000e+03
cascade_weight_multiplier=4.00000000000000022204e-01
cascade_activation_functions_count=10
cascade_activation_functions=3 5 7 8 10 11 14 15 16 17 
cascade_activation_steepnesses_count=4
cascade_activation_steepnesses=2.50000000000000000000e-01 5.00000000000000000000e-01 7.50000000000000000000e-01 1.00000000000000000000e+00 
layer_sizes=10 4 2 
scale_included=0
neurons (num_inputs, activation_function, activation_steepness)=(0, 0, 0.00000000000000000000e+00) (0, 0, 0.00000000000000000000e+00) (0, 0, 0.00000000000000000000e+00) (0, 0, 0.00000000000000000000e+00) (0, 0, 0.00000000000000000000e+00) (0, 0, 0.00000000000000000000e+00) (0, 0, 0.00000000000000000000e+00) (0, 0, 0.00000000000000000000e+00) (0, 0, 0.00000000000000000000e+00) (0, 0, 0.00000000000000000000e+00) (10, 6, 5.00000000000000000000e-01) (10, 6, 5.00000000000000000000e-01) (10, 6, 5.00000000000000000000e-01) (0, 6, 0.00000000000000000000e+00) (4, 4, 5.00000000000000000000e-01) (0, 4, 0.00000000000000000000e+00) 
connections (connected_to_neuron, weight)=(0, -2.24480427085989076019e+00) (1, 9.49567831650392824017e-01) (2, 5.25301067771119289951e-01) (3, 6.43038029503433916645e-01) (4, -2.80060208995469850368e-01) (5, -3.63190225918420594997e-01) (6, -1.15112758065985310019e+00) (7, -2.17155136111618585204e+00) (8, -4.23630002480505973850e-01) (9, -2.59734175760873597927e-01) (0, -1.05457951634279156750e+00) (1, 2.88877980201122042114e-01) (2, 2.42151842829836505544e+00) (3, 4.27578488437312109749e-01) (4, 8.11785678397776155890e-02) (5, -7.44739626515744795876e-02) (6, -4.10759399761068288992e-01) (7, -1.38119359750808046172e+00) (8, -6.61550579689231810221e-02) (9, 2.13197413327797097304e-02) (0, -1.25310489640988231841e+00) (1, 1.81265249288530871929e+00) (2, 7.49192337261439300633e-01) (3, 1.01206992511282711789e+00) (4, -5.27325148822524125691e-01) (5, -5.36011374683835084554e-01) (6, -9.18395912576043915720e-01) (7, -3.98146329711616386859e+00) (8, -1.10378666420500026746e+00) (9, -9.98042589354837250681e-01) (10, 1.95296311313961332701e+01) (11, 3.92886732539517669061e-01) (12, 5.94595356326354274046e+00) (13, -8.70877621996725026499e-01) 
