FANN_FLO_2.1
num_layers=3
learning_rate=0.700000
connection_rate=1.000000
network_type=0
learning_momentum=0.000000
training_algorithm=2
train_error_function=1
train_stop_function=1
cascade_output_change_fraction=0.010000
quickprop_decay=-0.000100
quickprop_mu=1.750000
rprop_increase_factor=1.200000
rprop_decrease_factor=0.500000
rprop_delta_min=0.000000
rprop_delta_max=50.000000
rprop_delta_zero=0.100000
cascade_output_stagnation_epochs=12
cascade_candidate_change_fraction=0.010000
cascade_candidate_stagnation_epochs=12
cascade_max_out_epochs=150
cascade_min_out_epochs=50
cascade_max_cand_epochs=150
cascade_min_cand_epochs=50
cascade_num_candidate_groups=2
bit_fail_limit=1.00000000000000005551e-01
cascade_candidate_limit=1.00000000000000000000e+03
cascade_weight_multiplier=4.00000000000000022204e-01
cascade_activation_functions_count=10
cascade_activation_functions=3 5 7 8 10 11 14 15 16 17 
cascade_activation_steepnesses_count=4
cascade_activation_steepnesses=2.50000000000000000000e-01 5.00000000000000000000e-01 7.50000000000000000000e-01 1.00000000000000000000e+00 
layer_sizes=12 4 2 
scale_included=0
neurons (num_inputs, activation_function, activation_steepness)=(0, 0, 0.00000000000000000000e+00) (0, 0, 0.00000000000000000000e+00) (0, 0, 0.00000000000000000000e+00) (0, 0, 0.00000000000000000000e+00) (0, 0, 0.00000000000000000000e+00) (0, 0, 0.00000000000000000000e+00) (0, 0, 0.00000000000000000000e+00) (0, 0, 0.00000000000000000000e+00) (0, 0, 0.00000000000000000000e+00) (0, 0, 0.00000000000000000000e+00) (0, 0, 0.00000000000000000000e+00) (0, 0, 0.00000000000000000000e+00) (12, 6, 5.00000000000000000000e-01) (12, 6, 5.00000000000000000000e-01) (12, 6, 5.00000000000000000000e-01) (0, 6, 0.00000000000000000000e+00) (4, 4, 5.00000000000000000000e-01) (0, 4, 0.00000000000000000000e+00) 
connections (connected_to_neuron, weight)=(0, -5.94351225080012701696e-01) (1, 4.04922515982282293923e-01) (2, 2.91190965746417285143e-01) (3, 1.21907904337586781018e+00) (4, -1.17644302185161503393e-01) (5, 1.24338145015230105983e+00) (6, 1.02380643679007732327e-01) (7, 4.89962435404406759787e-01) (8, -2.46483440545088888785e-01) (9, 1.31789831362894727107e+00) (10, 8.31536974803275263923e-01) (11, -7.15217071574988261240e-01) (0, -6.71348751501734675173e-01) (1, 2.72990136884698220143e+00) (2, 1.51908144666168615222e-01) (3, 1.18214418791009800991e+00) (4, -1.42108861605447200915e+00) (5, 1.52865051062814361060e+00) (6, 8.59014994497924733174e-01) (7, -3.46493749579032950248e-02) (8, -6.32395352857177295292e-01) (9, 2.65611726483221310957e+00) (10, 1.10737672249416330139e+00) (11, -5.36341332809622706179e-01) (0, -4.05346470047001616877e+00) (1, 3.69011746230028103710e+00) (2, 1.20703751209892207186e+00) (3, 3.23393044092033132841e+00) (4, -4.05861992852380559782e-01) (5, 3.66487756160739319711e+00) (6, 3.87167620474815699083e+00) (7, 3.47010566762424421672e-01) (8, -4.32559115727066900714e-01) (9, 5.33321304502997683983e+00) (10, 3.24632004850426891807e+00) (11, -4.06567106861834304254e+00) (12, 1.81766552920878421418e+00) (13, 1.52298963677658338867e+00) (14, 1.40102018944401862655e+01) (15, -1.38236390846999235293e+00) 
