FANN_FLO_2.1
num_layers=3
learning_rate=0.700000
connection_rate=1.000000
network_type=0
learning_momentum=0.000000
training_algorithm=2
train_error_function=1
train_stop_function=1
cascade_output_change_fraction=0.010000
quickprop_decay=-0.000100
quickprop_mu=1.750000
rprop_increase_factor=1.200000
rprop_decrease_factor=0.500000
rprop_delta_min=0.000000
rprop_delta_max=50.000000
rprop_delta_zero=0.100000
cascade_output_stagnation_epochs=12
cascade_candidate_change_fraction=0.010000
cascade_candidate_stagnation_epochs=12
cascade_max_out_epochs=150
cascade_min_out_epochs=50
cascade_max_cand_epochs=150
cascade_min_cand_epochs=50
cascade_num_candidate_groups=2
bit_fail_limit=1.00000000000000005551e-01
cascade_candidate_limit=1.00000000000000000000e+03
cascade_weight_multiplier=4.00000000000000022204e-01
cascade_activation_functions_count=10
cascade_activation_functions=3 5 7 8 10 11 14 15 16 17 
cascade_activation_steepnesses_count=4
cascade_activation_steepnesses=2.50000000000000000000e-01 5.00000000000000000000e-01 7.50000000000000000000e-01 1.00000000000000000000e+00 
layer_sizes=12 4 2 
scale_included=0
neurons (num_inputs, activation_function, activation_steepness)=(0, 0, 0.00000000000000000000e+00) (0, 0, 0.00000000000000000000e+00) (0, 0, 0.00000000000000000000e+00) (0, 0, 0.00000000000000000000e+00) (0, 0, 0.00000000000000000000e+00) (0, 0, 0.00000000000000000000e+00) (0, 0, 0.00000000000000000000e+00) (0, 0, 0.00000000000000000000e+00) (0, 0, 0.00000000000000000000e+00) (0, 0, 0.00000000000000000000e+00) (0, 0, 0.00000000000000000000e+00) (0, 0, 0.00000000000000000000e+00) (12, 6, 5.00000000000000000000e-01) (12, 6, 5.00000000000000000000e-01) (12, 6, 5.00000000000000000000e-01) (0, 6, 0.00000000000000000000e+00) (4, 4, 5.00000000000000000000e-01) (0, 4, 0.00000000000000000000e+00) 
connections (connected_to_neuron, weight)=(0, -4.27223045308602611403e-01) (1, 8.37313454123647327165e-01) (2, 1.07977079280746779411e+00) (3, 1.95422777353728066574e-01) (4, 1.10994282992269233112e+00) (5, -3.45536018188865146072e+00) (6, 3.04963111027649688367e+02) (7, 3.98873808759812320535e-01) (8, -1.06962812597902634515e+00) (9, 3.52257231020818128986e-01) (10, 3.04999997540882873182e+02) (11, -1.41298083126969092893e-01) (0, 1.13197688804711038557e+00) (1, -1.09353248876108954946e+00) (2, -1.43291648018483375182e+00) (3, 8.44130845489785341940e-01) (4, -2.40329971325865754395e+00) (5, 8.84162342200155393357e+00) (6, -2.53740183734734792154e+01) (7, -1.19509712798796408073e+00) (8, 1.31125089425615848349e+00) (9, 1.73167306748978344633e-01) (10, 2.30453547384660133446e+01) (11, 5.92845020099103003908e-01) (0, 1.06150186477937547025e+00) (1, -1.04006330770029786770e+00) (2, -1.57082708466176246276e+00) (3, 7.77059333148286235371e-01) (4, -2.68348098664188228213e+00) (5, 1.17741601053834479274e+01) (6, -2.53331983709176320474e+01) (7, -1.13444982661209814445e+00) (8, 1.25690236587099612997e+00) (9, 1.00487824348561002874e-01) (10, 2.31049080636422523582e+01) (11, 5.50252151890217811037e-01) (12, 1.56839078513623686462e+01) (13, -1.07958787527386483873e+01) (14, -1.29351761197936920844e+00) (15, -2.57717133727806080312e-01) 
