FANN_FLO_2.1
num_layers=3
learning_rate=0.700000
connection_rate=1.000000
network_type=0
learning_momentum=0.000000
training_algorithm=2
train_error_function=1
train_stop_function=1
cascade_output_change_fraction=0.010000
quickprop_decay=-0.000100
quickprop_mu=1.750000
rprop_increase_factor=1.200000
rprop_decrease_factor=0.500000
rprop_delta_min=0.000000
rprop_delta_max=50.000000
rprop_delta_zero=0.100000
cascade_output_stagnation_epochs=12
cascade_candidate_change_fraction=0.010000
cascade_candidate_stagnation_epochs=12
cascade_max_out_epochs=150
cascade_min_out_epochs=50
cascade_max_cand_epochs=150
cascade_min_cand_epochs=50
cascade_num_candidate_groups=2
bit_fail_limit=1.00000000000000005551e-01
cascade_candidate_limit=1.00000000000000000000e+03
cascade_weight_multiplier=4.00000000000000022204e-01
cascade_activation_functions_count=10
cascade_activation_functions=3 5 7 8 10 11 14 15 16 17 
cascade_activation_steepnesses_count=4
cascade_activation_steepnesses=2.50000000000000000000e-01 5.00000000000000000000e-01 7.50000000000000000000e-01 1.00000000000000000000e+00 
layer_sizes=10 11 2 
scale_included=0
neurons (num_inputs, activation_function, activation_steepness)=(0, 0, 0.00000000000000000000e+00) (0, 0, 0.00000000000000000000e+00) (0, 0, 0.00000000000000000000e+00) (0, 0, 0.00000000000000000000e+00) (0, 0, 0.00000000000000000000e+00) (0, 0, 0.00000000000000000000e+00) (0, 0, 0.00000000000000000000e+00) (0, 0, 0.00000000000000000000e+00) (0, 0, 0.00000000000000000000e+00) (0, 0, 0.00000000000000000000e+00) (10, 6, 5.00000000000000000000e-01) (10, 6, 5.00000000000000000000e-01) (10, 6, 5.00000000000000000000e-01) (10, 6, 5.00000000000000000000e-01) (10, 6, 5.00000000000000000000e-01) (10, 6, 5.00000000000000000000e-01) (10, 6, 5.00000000000000000000e-01) (10, 6, 5.00000000000000000000e-01) (10, 6, 5.00000000000000000000e-01) (10, 6, 5.00000000000000000000e-01) (0, 6, 0.00000000000000000000e+00) (11, 6, 5.00000000000000000000e-01) (0, 6, 0.00000000000000000000e+00) 
connections (connected_to_neuron, weight)=(0, 2.83330474231918882921e+00) (1, 2.34904056612242895241e-01) (2, 2.75189833912838965890e-01) (3, 2.72647211525429755685e-01) (4, 2.28431737247695165749e-01) (5, -3.93891761958589459169e+00) (6, -5.78483800811388171326e-01) (7, -1.95764508838422474080e-01) (8, -3.75082462475666567059e+00) (9, 2.36237174900647595166e+00) (0, -9.11174852958808401127e-01) (1, -8.90700615453060562388e-02) (2, -9.74469840037163193003e-02) (3, 5.95811546338263775535e-02) (4, -3.05531754600342278505e-02) (5, 1.21400279259473564686e+00) (6, 4.58294529296926100859e-01) (7, 3.67974000602419637485e-01) (8, 1.10320995578501812595e+00) (9, 5.31127129391993468843e-01) (0, -1.21568940084114629485e+00) (1, 1.94040804622804458068e-01) (2, 1.64836693076526458190e-01) (3, 1.49453211097156341003e-01) (4, 3.22674888638889212356e-01) (5, -4.19588579115309723289e-01) (6, 3.06582393455825108486e-01) (7, 3.28122920312110155638e-01) (8, -1.64829792916973549843e+00) (9, 2.54780888213390732666e-01) (0, -8.96998150568991681197e-01) (1, 5.32110993569272425208e-02) (2, -5.41327829653841380297e-02) (3, 2.83387516444104752000e-02) (4, -6.39076839382272943180e-02) (5, 1.20411679590003406481e+00) (6, 4.92587853052190383085e-01) (7, 7.24023452931367605956e-01) (8, 2.02557639819362078626e+00) (9, 1.01934336187092355885e-01) (0, 6.26606279218621886606e-01) (1, -4.14103360760739030999e-03) (2, -2.76547716735654064424e-02) (3, 1.02580002528542935103e-01) (4, -1.30491936384492107637e-02) (5, -2.43216695684887707074e+00) (6, 6.64268714130011983521e-01) (7, 6.51329130805230582801e-01) (8, -2.35906664384514774824e+00) (9, -3.47408643011835049919e-02) (0, -5.66307510094998134420e-01) (1, -2.39107755097922286547e-01) (2, -1.37089748951968182222e-01) (3, -2.38759403202113112963e-01) (4, -2.32145023617323836840e-01) (5, -1.54474472469650034867e+01) (6, 4.24726542100195558760e-01) (7, 6.06024883067293185235e-01) (8, -1.53549164152704005204e+01) (9, 6.90352264373533031083e-01) (0, 6.56740673983522094126e-01) (1, -7.28428454983760798047e-03) (2, 8.84224241794294707475e-02) (3, -2.57769087134652324922e-02) (4, -4.92403665362649220483e-02) (5, -2.55124978024460613568e+00) (6, 6.55917656362143941529e-01) (7, 6.49431289113259757606e-01) (8, -2.43888355894000019575e+00) (9, -7.07394445398128179914e-04) (0, -9.68892416280299428877e-01) (1, 2.22667519753354664624e-02) (2, 3.22542999689954326681e-02) (3, -8.85156328971010430973e-02) (4, -7.03475728579582362809e-03) (5, 1.10690743917481815295e+00) (6, 4.91374034263661940702e-01) (7, 6.18625885778390394165e-01) (8, 2.00474578005335590802e+00) (9, -1.83239727599939852820e-02) (0, 6.74233765448130739628e-01) (1, -1.28843199582466566566e-01) (2, -5.07098474816174704660e-02) (3, -7.49069416240544516672e-02) (4, -1.15013983221420784675e-01) (5, 6.30893567543007405263e-01) (6, 3.87324415431856139413e-01) (7, 2.73434020669356236954e-01) (8, 7.94463945822554529208e-01) (9, 5.55497231439798566655e-01) (0, 5.31259072947395694086e+00) (1, 1.99333360493780920031e-01) (2, 1.96320219040514776232e-01) (3, 3.68870077729822720691e-01) (4, 2.41674942970873690706e-01) (5, -2.98198960239375088221e+00) (6, -5.71962121109386156803e-01) (7, -4.65186543580571987277e-01) (8, -3.06764046249175148517e+00) (9, 1.24204586661219273935e+00) (10, -1.69326485740955323678e-01) (11, 4.74669371001133377774e-01) (12, -4.64491834259615973823e-02) (13, 1.06559141742919680218e-01) (14, -3.63241601918619372302e-01) (15, -5.55181310554279994207e-01) (16, -3.47833138142507769519e-01) (17, 4.50708581469775271255e-01) (18, 2.11599485887941987650e-02) (19, -2.02041125829096557265e-01) (20, 6.76408731147946640228e-01) 
