FANN_FLO_2.1
num_layers=3
learning_rate=0.700000
connection_rate=1.000000
network_type=0
learning_momentum=0.000000
training_algorithm=2
train_error_function=1
train_stop_function=1
cascade_output_change_fraction=0.010000
quickprop_decay=-0.000100
quickprop_mu=1.750000
rprop_increase_factor=1.200000
rprop_decrease_factor=0.500000
rprop_delta_min=0.000000
rprop_delta_max=50.000000
rprop_delta_zero=0.100000
cascade_output_stagnation_epochs=12
cascade_candidate_change_fraction=0.010000
cascade_candidate_stagnation_epochs=12
cascade_max_out_epochs=150
cascade_min_out_epochs=50
cascade_max_cand_epochs=150
cascade_min_cand_epochs=50
cascade_num_candidate_groups=2
bit_fail_limit=1.00000000000000005551e-01
cascade_candidate_limit=1.00000000000000000000e+03
cascade_weight_multiplier=4.00000000000000022204e-01
cascade_activation_functions_count=10
cascade_activation_functions=3 5 7 8 10 11 14 15 16 17 
cascade_activation_steepnesses_count=4
cascade_activation_steepnesses=2.50000000000000000000e-01 5.00000000000000000000e-01 7.50000000000000000000e-01 1.00000000000000000000e+00 
layer_sizes=9 4 2 
scale_included=0
neurons (num_inputs, activation_function, activation_steepness)=(0, 0, 0.00000000000000000000e+00) (0, 0, 0.00000000000000000000e+00) (0, 0, 0.00000000000000000000e+00) (0, 0, 0.00000000000000000000e+00) (0, 0, 0.00000000000000000000e+00) (0, 0, 0.00000000000000000000e+00) (0, 0, 0.00000000000000000000e+00) (0, 0, 0.00000000000000000000e+00) (0, 0, 0.00000000000000000000e+00) (9, 6, 5.00000000000000000000e-01) (9, 6, 5.00000000000000000000e-01) (9, 6, 5.00000000000000000000e-01) (0, 6, 0.00000000000000000000e+00) (4, 4, 5.00000000000000000000e-01) (0, 4, 0.00000000000000000000e+00) 
connections (connected_to_neuron, weight)=(0, -2.65517065175684097156e+00) (1, 6.54987377383271229814e-02) (2, 1.06224624481149252375e+01) (3, 1.96872105391369012217e+00) (4, -3.47567765144804585731e-01) (5, 1.29467639526771938208e+00) (6, 1.28118089786219035986e+00) (7, -1.30878443816371192732e+00) (8, -2.52286952047882850891e+00) (0, -1.91309792826964197854e-01) (1, 2.93827330848457890511e+00) (2, -3.48059391410280216661e+00) (3, 1.55334128902904256009e+00) (4, -9.50896278115478249537e-03) (5, 6.21820176073872965539e-01) (6, 3.32914527304219609594e-01) (7, 3.10294508180721462232e-01) (8, 2.42478888310455227562e-02) (0, -1.91020617975848377990e-01) (1, 7.31760142216465947484e+00) (2, -1.25190447727718767723e+00) (3, -2.57209707437180723488e+00) (4, -2.31320497825852244844e+00) (5, -5.94709197799890842973e-01) (6, -2.80138358921459884598e-01) (7, -1.36211766732863753804e-01) (8, -5.66296616113639503243e-02) (9, 4.32014535819159117835e+00) (10, 5.04064710193377618630e-01) (11, 3.01969898957178628507e+00) (12, -4.31782009163531110829e+00) 
