FANN_FLO_2.1
num_layers=3
learning_rate=0.700000
connection_rate=1.000000
network_type=0
learning_momentum=0.000000
training_algorithm=2
train_error_function=1
train_stop_function=1
cascade_output_change_fraction=0.010000
quickprop_decay=-0.000100
quickprop_mu=1.750000
rprop_increase_factor=1.200000
rprop_decrease_factor=0.500000
rprop_delta_min=0.000000
rprop_delta_max=50.000000
rprop_delta_zero=0.100000
cascade_output_stagnation_epochs=12
cascade_candidate_change_fraction=0.010000
cascade_candidate_stagnation_epochs=12
cascade_max_out_epochs=150
cascade_min_out_epochs=50
cascade_max_cand_epochs=150
cascade_min_cand_epochs=50
cascade_num_candidate_groups=2
bit_fail_limit=1.00000000000000005551e-01
cascade_candidate_limit=1.00000000000000000000e+03
cascade_weight_multiplier=4.00000000000000022204e-01
cascade_activation_functions_count=10
cascade_activation_functions=3 5 7 8 10 11 14 15 16 17 
cascade_activation_steepnesses_count=4
cascade_activation_steepnesses=2.50000000000000000000e-01 5.00000000000000000000e-01 7.50000000000000000000e-01 1.00000000000000000000e+00 
layer_sizes=16 11 2 
scale_included=0
neurons (num_inputs, activation_function, activation_steepness)=(0, 0, 0.00000000000000000000e+00) (0, 0, 0.00000000000000000000e+00) (0, 0, 0.00000000000000000000e+00) (0, 0, 0.00000000000000000000e+00) (0, 0, 0.00000000000000000000e+00) (0, 0, 0.00000000000000000000e+00) (0, 0, 0.00000000000000000000e+00) (0, 0, 0.00000000000000000000e+00) (0, 0, 0.00000000000000000000e+00) (0, 0, 0.00000000000000000000e+00) (0, 0, 0.00000000000000000000e+00) (0, 0, 0.00000000000000000000e+00) (0, 0, 0.00000000000000000000e+00) (0, 0, 0.00000000000000000000e+00) (0, 0, 0.00000000000000000000e+00) (0, 0, 0.00000000000000000000e+00) (16, 6, 5.00000000000000000000e-01) (16, 6, 5.00000000000000000000e-01) (16, 6, 5.00000000000000000000e-01) (16, 6, 5.00000000000000000000e-01) (16, 6, 5.00000000000000000000e-01) (16, 6, 5.00000000000000000000e-01) (16, 6, 5.00000000000000000000e-01) (16, 6, 5.00000000000000000000e-01) (16, 6, 5.00000000000000000000e-01) (16, 6, 5.00000000000000000000e-01) (0, 6, 0.00000000000000000000e+00) (11, 6, 5.00000000000000000000e-01) (0, 6, 0.00000000000000000000e+00) 
connections (connected_to_neuron, weight)=(0, 1.23453397571162337698e+00) (1, 1.40295673685165739331e-01) (2, 1.16953053103777279698e-01) (3, 1.81022674368711805615e-01) (4, 2.30688065813871717724e-01) (5, -2.49888002148875770780e-01) (6, -2.48991138443899329147e+00) (7, 3.23652913385897078591e-01) (8, 1.10659091896427003165e-01) (9, 3.70165141613172654633e-01) (10, -1.71877771427845327246e+00) (11, -1.54118979917233023258e+00) (12, 2.33472442268879226690e-01) (13, -2.22471504582986562282e-01) (14, -2.04057814785420044146e+00) (15, 2.35556831295414548233e-01) (0, 3.24244638311193567048e+00) (1, 2.58793412381182252879e-01) (2, 2.09262675279150545116e-01) (3, 1.62191628151903688426e-01) (4, 2.87596209579477846141e-01) (5, -1.19472808810926434120e+00) (6, 1.63849633575279156616e+01) (7, -1.19597346414835076223e-01) (8, -2.36979898954750273221e-01) (9, -4.37905492499292559039e-02) (10, 1.77087184320733292964e+01) (11, 7.24785298703423741529e+00) (12, 3.88329558943220798373e-01) (13, 5.88509205249845845920e-03) (14, 3.54858412535194123194e+00) (15, 6.03653621817687863205e-02) (0, 3.36385109799430948030e+00) (1, 2.83267272050859164612e-01) (2, 2.11818066771508856094e-01) (3, 2.85314855511666964905e-01) (4, 2.69310702915670052704e-01) (5, -7.26403472521309878651e-01) (6, 1.62293354884583393982e+01) (7, -1.00120709170610527883e-01) (8, 6.78590298604744845967e-01) (9, 1.91024465248166887277e-02) (10, 1.75937417577550156977e+01) (11, 1.19514201969156133032e+01) (12, 2.83049479995676700472e-01) (13, 2.34544885877139758223e-01) (14, 3.39331097574652018611e-01) (15, -1.83634497153694509208e-01) (0, -2.92520585037327895961e+00) (1, -7.27560779657323436487e-02) (2, -6.74798748102147516459e-02) (3, -1.37962344905372374937e-01) (4, -9.90925169196088112544e-02) (5, 1.13681935006776826946e-01) (6, 9.57850782400047950915e-01) (7, 4.34484052852257662813e-01) (8, 4.32674267558559644264e-01) (9, 1.44657623115119871038e-01) (10, 1.17395021844554614532e+00) (11, 1.40484672172697666603e+00) (12, 1.98281236688251455424e-01) (13, 5.27924654831646744668e-01) (14, 6.88093541490310323105e-01) (15, -5.08608133010663210349e-01) (0, -1.29868782328269838366e+00) (1, 1.13272204833232276178e-01) (2, 3.03466229339727135844e-03) (3, 3.80407644679177717184e-02) (4, 1.19708737601865178313e-02) (5, 6.35279084090385054440e-02) (6, 7.83199413323150239741e-01) (7, 1.55376157264570075034e-01) (8, 2.26122502558926657956e-01) (9, -1.92470310887305678937e-01) (10, 1.34518026928961886846e+00) (11, 1.40502977559143937825e+00) (12, 3.35905501881754053883e-01) (13, 2.15217795309364939849e-01) (14, 5.49833371920484537121e-01) (15, -5.67668196237713987284e-02) (0, 5.61842111674027755441e-01) (1, 1.29808422555308458635e-02) (2, -1.97402152786869955481e-02) (3, 1.31614403091846049465e-01) (4, 1.08266161047397196926e-01) (5, 2.06611088992001673548e-01) (6, -5.12629106720121963114e-01) (7, 2.38643302378445693046e-01) (8, 2.47110980678850927772e-01) (9, 1.28095354342116690693e-01) (10, -5.53346136451822179225e-01) (11, -4.52964575567448624049e-01) (12, 3.39598918296146523588e-01) (13, -4.12743524891302948632e-01) (14, 3.14358217499771885883e-01) (15, 5.53844495130862632393e-02) (0, 2.18187377851310193577e+00) (1, 1.94566137426327417925e-01) (2, 2.13934495382736872271e-01) (3, 2.54682592385243156130e-01) (4, 2.39697433345745752886e-01) (5, 7.50947538807178904818e-01) (6, 1.62896641247767846039e+01) (7, -1.46269352068216423879e-01) (8, 3.25110975706677518549e-01) (9, -3.33495506922740991840e-01) (10, 1.77531384955689652827e+01) (11, 7.22374174593201878736e+00) (12, 3.60032782827326480746e-01) (13, -6.16172611282911064645e-02) (14, -1.66544029213210931228e-01) (15, -3.34276903044586681801e-01) (0, -1.91916807444414683204e+00) (1, -5.60565876718611411089e-02) (2, -1.92954826112837485308e-02) (3, -5.96615957971663168902e-02) (4, -1.80757133936509634120e-01) (5, 1.40306428307691605228e-01) (6, 8.09788812978107674923e-01) (7, 3.32439198539122515719e-01) (8, 3.84016331738343486002e-01) (9, 2.06846441296616168071e-01) (10, 1.06126293884029743175e+00) (11, 1.30703259694191631368e+00) (12, 1.77220197671004248141e-01) (13, 5.73386950244663906595e-01) (14, 5.34119605703252786633e-01) (15, -3.39243904099865101198e-01) (0, 1.37131136923150176443e+00) (1, 1.93067245076498972267e-01) (2, 3.38022407035431737832e-01) (3, 2.76485223214230413369e-01) (4, 1.85520958046517331352e-01) (5, -6.00563772047973398749e-01) (6, -3.05311805242041645059e+00) (7, 8.41370783886799533668e-02) (8, 1.31992767704898180184e-03) (9, 2.60993169934438828950e-01) (10, -2.15174719536022784894e+00) (11, -1.76234278551227419030e+00) (12, 2.22218146562130264288e-01) (13, -2.45653750518084385002e-01) (14, -2.60477712678479189634e+00) (15, 5.17273356005752416031e-01) (0, 1.60401430260256905314e+00) (1, 9.96325032378556213475e-02) (2, 7.18775966729046783543e-02) (3, 1.20135420706403442392e-01) (4, 2.21542330231797868212e-01) (5, 3.10219060935122636913e-01) (6, -2.89069909160999305442e+00) (7, 3.04850587295635522267e-01) (8, 3.90355893698719147444e-01) (9, 1.59090690368403758770e-01) (10, -1.86058708583342347076e+00) (11, -1.46548554275973685890e+00) (12, 2.91720926776445566020e-01) (13, -2.25900744780311718563e-02) (14, 2.74960979248910275530e-01) (15, 7.47984794460107571545e-02) (16, -2.85640017029238135748e-01) (17, 5.11309771669021029261e-01) (18, 4.44180651438346341120e-01) (19, 6.47316827050085752404e-01) (20, 4.92545497490391559481e-01) (21, 2.31379977140506185376e-04) (22, 4.60400312078109219538e-01) (23, 6.37123737985424654084e-01) (24, -2.73176497483427593860e-01) (25, -1.98099459630914354058e-02) (26, 4.26107342393689914051e-01) 
