FANN_FLO_2.1
num_layers=3
learning_rate=0.700000
connection_rate=1.000000
network_type=0
learning_momentum=0.000000
training_algorithm=2
train_error_function=1
train_stop_function=1
cascade_output_change_fraction=0.010000
quickprop_decay=-0.000100
quickprop_mu=1.750000
rprop_increase_factor=1.200000
rprop_decrease_factor=0.500000
rprop_delta_min=0.000000
rprop_delta_max=50.000000
rprop_delta_zero=0.100000
cascade_output_stagnation_epochs=12
cascade_candidate_change_fraction=0.010000
cascade_candidate_stagnation_epochs=12
cascade_max_out_epochs=150
cascade_min_out_epochs=50
cascade_max_cand_epochs=150
cascade_min_cand_epochs=50
cascade_num_candidate_groups=2
bit_fail_limit=1.00000000000000005551e-01
cascade_candidate_limit=1.00000000000000000000e+03
cascade_weight_multiplier=4.00000000000000022204e-01
cascade_activation_functions_count=10
cascade_activation_functions=3 5 7 8 10 11 14 15 16 17 
cascade_activation_steepnesses_count=4
cascade_activation_steepnesses=2.50000000000000000000e-01 5.00000000000000000000e-01 7.50000000000000000000e-01 1.00000000000000000000e+00 
layer_sizes=10 4 2 
scale_included=0
neurons (num_inputs, activation_function, activation_steepness)=(0, 0, 0.00000000000000000000e+00) (0, 0, 0.00000000000000000000e+00) (0, 0, 0.00000000000000000000e+00) (0, 0, 0.00000000000000000000e+00) (0, 0, 0.00000000000000000000e+00) (0, 0, 0.00000000000000000000e+00) (0, 0, 0.00000000000000000000e+00) (0, 0, 0.00000000000000000000e+00) (0, 0, 0.00000000000000000000e+00) (0, 0, 0.00000000000000000000e+00) (10, 6, 5.00000000000000000000e-01) (10, 6, 5.00000000000000000000e-01) (10, 6, 5.00000000000000000000e-01) (0, 6, 0.00000000000000000000e+00) (4, 4, 5.00000000000000000000e-01) (0, 4, 0.00000000000000000000e+00) 
connections (connected_to_neuron, weight)=(0, 8.67369162584690073237e-02) (1, 4.31064427572799446775e-01) (2, -4.67488501890813368256e-01) (3, 4.27848544826863519397e-01) (4, 1.68222044761172639937e-01) (5, 1.04267480254028654940e+00) (6, 3.74605796013185998738e-02) (7, 7.78970580351270175390e-02) (8, 3.91039906437829321018e-01) (9, 5.45383279307823931603e-02) (0, -6.93597099484887014142e-01) (1, 2.24426250320141873473e+00) (2, 3.94542889512445316136e-02) (3, 2.41138512539862714945e+00) (4, -1.28583386756446677035e-01) (5, 5.32291951976758603848e-01) (6, -5.60759547555578996558e-01) (7, -8.86996539607313450038e-02) (8, 1.71266195065746584802e+00) (9, -8.56155487309448792743e-01) (0, 1.47070249580097311970e+00) (1, -1.21534032374682010591e+00) (2, 5.68932707713545426920e-01) (3, -1.38188410979066800266e+00) (4, 7.51609207890951092068e-01) (5, 1.23671192325066209294e-01) (6, 1.37946250873153353211e+00) (7, 9.28981037639104778592e-01) (8, -2.51291994658444872712e+00) (9, 1.68883922911577344372e+00) (10, 2.04724456724193148993e-01) (11, 1.72432704161600334203e+01) (12, -7.40684640639900315762e+00) (13, -9.48537150929920747089e-01) 
