FANN_FLO_2.1
num_layers=3
learning_rate=0.700000
connection_rate=1.000000
network_type=0
learning_momentum=0.000000
training_algorithm=2
train_error_function=1
train_stop_function=1
cascade_output_change_fraction=0.010000
quickprop_decay=-0.000100
quickprop_mu=1.750000
rprop_increase_factor=1.200000
rprop_decrease_factor=0.500000
rprop_delta_min=0.000000
rprop_delta_max=50.000000
rprop_delta_zero=0.100000
cascade_output_stagnation_epochs=12
cascade_candidate_change_fraction=0.010000
cascade_candidate_stagnation_epochs=12
cascade_max_out_epochs=150
cascade_min_out_epochs=50
cascade_max_cand_epochs=150
cascade_min_cand_epochs=50
cascade_num_candidate_groups=2
bit_fail_limit=1.00000000000000005551e-01
cascade_candidate_limit=1.00000000000000000000e+03
cascade_weight_multiplier=4.00000000000000022204e-01
cascade_activation_functions_count=10
cascade_activation_functions=3 5 7 8 10 11 14 15 16 17 
cascade_activation_steepnesses_count=4
cascade_activation_steepnesses=2.50000000000000000000e-01 5.00000000000000000000e-01 7.50000000000000000000e-01 1.00000000000000000000e+00 
layer_sizes=18 11 2 
scale_included=0
neurons (num_inputs, activation_function, activation_steepness)=(0, 0, 0.00000000000000000000e+00) (0, 0, 0.00000000000000000000e+00) (0, 0, 0.00000000000000000000e+00) (0, 0, 0.00000000000000000000e+00) (0, 0, 0.00000000000000000000e+00) (0, 0, 0.00000000000000000000e+00) (0, 0, 0.00000000000000000000e+00) (0, 0, 0.00000000000000000000e+00) (0, 0, 0.00000000000000000000e+00) (0, 0, 0.00000000000000000000e+00) (0, 0, 0.00000000000000000000e+00) (0, 0, 0.00000000000000000000e+00) (0, 0, 0.00000000000000000000e+00) (0, 0, 0.00000000000000000000e+00) (0, 0, 0.00000000000000000000e+00) (0, 0, 0.00000000000000000000e+00) (0, 0, 0.00000000000000000000e+00) (0, 0, 0.00000000000000000000e+00) (18, 6, 5.00000000000000000000e-01) (18, 6, 5.00000000000000000000e-01) (18, 6, 5.00000000000000000000e-01) (18, 6, 5.00000000000000000000e-01) (18, 6, 5.00000000000000000000e-01) (18, 6, 5.00000000000000000000e-01) (18, 6, 5.00000000000000000000e-01) (18, 6, 5.00000000000000000000e-01) (18, 6, 5.00000000000000000000e-01) (18, 6, 5.00000000000000000000e-01) (0, 6, 0.00000000000000000000e+00) (11, 6, 5.00000000000000000000e-01) (0, 6, 0.00000000000000000000e+00) 
connections (connected_to_neuron, weight)=(0, 1.34645932480906393991e-01) (1, 4.64268078477256371413e-04) (2, 1.34482093205125302626e-01) (3, -4.53471014889968767475e-03) (4, 4.06298414370130159257e-02) (5, 3.07985870478594790656e-03) (6, 5.78560389845999070713e-02) (7, 1.11324108008593117281e-01) (8, -5.89201799556236638367e-01) (9, 7.68644536006482942403e-02) (10, -4.27592191657914011405e-01) (11, 1.22894780376381726472e-01) (12, -4.01264866826149743662e-02) (13, -8.03509041374356469678e-02) (14, -1.52725511946175229738e-01) (15, 1.54312283193599689840e-02) (16, -3.25340618249005453233e-01) (17, 2.77391379624032763385e-01) (0, -3.68563025703555424695e-01) (1, -5.19705177046292168819e-02) (2, -1.20469419727467844106e-01) (3, -3.84553582169049057438e-02) (4, -3.90958995319836410953e-02) (5, -2.24273955275686408262e-02) (6, -1.17231112539230228342e-01) (7, -1.98875246233630953441e-01) (8, 9.36453290127217563565e-01) (9, -3.19208138210230821241e-02) (10, 1.08262462964967776102e+00) (11, -1.72782293851642232418e-01) (12, -1.16600212705871952856e-01) (13, 1.81390746226245375139e-01) (14, -1.08672879316241019487e-01) (15, -1.60988619386073505968e-01) (16, 6.64286571592392127705e-01) (17, -2.10322922815667889829e-01) (0, -6.92099931240000056099e-03) (1, 2.14940212486283456494e-02) (2, 8.80947090504662772004e-02) (3, 8.33007074711816092316e-02) (4, 1.46820677053739329088e-01) (5, -2.60843112538097290920e-02) (6, 2.29421340196760970009e-02) (7, 8.77498722478725970420e-03) (8, -5.27221812931311095696e-01) (9, 2.77700973076927190575e-02) (10, -4.65281627884997217581e-01) (11, -5.47599835787352939853e-02) (12, -2.65227844950768065768e-02) (13, -1.38732622396817911747e-01) (14, -3.02491726059651647174e-02) (15, 1.47885708642827184978e-01) (16, -4.36687801834172273363e-01) (17, 2.37022569327973942066e-01) (0, 1.99323353281600041953e+01) (1, 1.49114374034153340798e-01) (2, 2.25733783058868736626e-01) (3, 8.66395569965709988480e-02) (4, 2.55684848837601008675e-01) (5, 8.82644868049256348108e-01) (6, 1.76656674590514062295e+00) (7, 3.40081208221768616085e+00) (8, -5.47240345881233913872e+00) (9, 5.99595061080523183961e+00) (10, -5.04807187157212577944e+00) (11, 2.49860500205506408378e+00) (12, 2.06031671053498754986e+00) (13, 2.17936289904489699509e+00) (14, 4.45976295089990948384e+00) (15, 7.94956537445407374065e+00) (16, -3.12717645782891073836e+00) (17, 1.30699298962097554266e+00) (0, -2.78484544750697782245e-01) (1, 1.19755548526397012643e-02) (2, -4.60366847823510047522e-02) (3, -1.49091387064302860477e-01) (4, -1.10882809282387209682e-01) (5, 1.19017444009575035224e-01) (6, -1.48557222083050416428e-01) (7, -1.11502019352603801150e-01) (8, 9.09430456289714528317e-01) (9, -1.33619323508157670372e-02) (10, 7.27596096883080911688e-01) (11, -7.84459915514145594839e-02) (12, -5.73258447177623364777e-02) (13, 7.48319672893376641731e-02) (14, -4.95875013567168149153e-02) (15, -9.85181639951897697438e-02) (16, 4.03847755742699987547e-01) (17, -2.63169548262940977690e-01) (0, 4.22406626614182130197e+01) (1, 1.96317198607196402582e-01) (2, 3.95952490298649428802e-02) (3, 1.82426142427196208429e-01) (4, 1.85175898405780497979e-01) (5, 1.62661337672021133471e+00) (6, 1.83950363841460129422e+00) (7, 5.35563912907349948256e+00) (8, -3.45936157046795811354e+00) (9, 2.89605331979238522777e+00) (10, -6.38482026822631532070e+00) (11, 2.94031942992164463391e+00) (12, 4.56351934669020486979e+00) (13, 3.17437620797066299971e+00) (14, 6.54353369211767343927e+00) (15, 7.86033269127230926898e+00) (16, -3.25640890914860436922e+00) (17, 9.31936087029227810952e-01) (0, -2.62574423885329616413e-02) (1, 4.35554511933891261299e-02) (2, 2.39467971115676914184e-02) (3, 3.87191601186363185128e-02) (4, 2.92640678673355136841e-02) (5, 3.63778780245586352837e-02) (6, 7.06814758747252025461e-02) (7, 1.12533873681276833101e-01) (8, -4.99171926602344995239e-01) (9, 3.42628733870079318913e-02) (10, -4.81102715990437357352e-01) (11, 2.72745058326195541354e-02) (12, 7.87665899872079799948e-02) (13, 6.57939553553430894750e-02) (14, 2.03344086441800853127e-01) (15, 2.09263260373715315188e-01) (16, -9.66852964224995559128e-01) (17, 2.11955940275811771656e-01) (0, 2.31483853597729438700e-01) (1, 3.85929272076200244324e-02) (2, 1.72147904840218258712e-03) (3, -2.75995656350542274693e-02) (4, 7.54619613787244347680e-02) (5, 5.85007975840373950494e-02) (6, 8.34245018928679027415e-02) (7, 2.16576344177104749764e-03) (8, -5.27758545204620843627e-01) (9, 9.29177129733595036365e-02) (10, -4.56720780393971292899e-01) (11, 1.34431527593560112832e-01) (12, -4.25670671528085853286e-02) (13, -1.24948150497546900395e-01) (14, 1.42388435478207980855e-01) (15, 5.42686643176408037292e-02) (16, -3.71640977319306398119e-01) (17, 2.56373455672883776568e-01) (0, -4.34210645852599774752e-01) (1, -3.52614425891577404348e-02) (2, -1.01898846852177371591e-01) (3, -1.49787733035677522730e-01) (4, -1.16339825862585670435e-02) (5, 1.60075785637561543440e-02) (6, -1.15090445249734760202e-01) (7, -4.97666022643790048607e-02) (8, 9.77152494396441473334e-01) (9, -1.08009942672913680783e-01) (10, 1.04745363024164062082e+00) (11, -1.06001699163562432271e-01) (12, -1.00458714864422281321e-02) (13, 4.70589133165678422110e-02) (14, -6.64290627711797143640e-02) (15, -1.58674538439747062069e-02) (16, 7.07562342080656603294e-01) (17, -3.56627596597466400841e-01) (0, 4.21958301412313119272e+01) (1, 1.92847584008935896138e-01) (2, 1.62614178478483084600e-01) (3, 2.57113848447564852240e-01) (4, 1.34227496206525687139e-01) (5, 2.06763953738691519391e+00) (6, 1.78955854472325204263e+00) (7, 4.13790082716433982313e+00) (8, -3.49874717111888733356e+00) (9, 5.92120617814889360631e+00) (10, -6.26707766271894151089e+00) (11, 3.69222984943266796520e+00) (12, 1.66824977104100213854e-01) (13, 3.39854310559627981192e+00) (14, 5.84591798074892476933e+00) (15, 7.95071423163037760418e+00) (16, -4.16384256606116398558e+00) (17, 9.26654318290004330727e-01) (18, -4.29909266597367001328e-01) (19, 1.19661090283784465882e+00) (20, -1.32931325784932008460e+00) (21, 4.61976444478097769686e-01) (22, 6.34653740754179573891e-01) (23, 4.52558493371072623201e-01) (24, -2.75186278054387933878e+00) (25, -8.90296427936747347687e-01) (26, 9.44250782718531134208e-01) (27, 4.61441209669175955721e-01) (28, 3.20930895440277585973e-01) 
