FANN_FLO_2.1
num_layers=3
learning_rate=0.700000
connection_rate=1.000000
network_type=0
learning_momentum=0.000000
training_algorithm=2
train_error_function=1
train_stop_function=1
cascade_output_change_fraction=0.010000
quickprop_decay=-0.000100
quickprop_mu=1.750000
rprop_increase_factor=1.200000
rprop_decrease_factor=0.500000
rprop_delta_min=0.000000
rprop_delta_max=50.000000
rprop_delta_zero=0.100000
cascade_output_stagnation_epochs=12
cascade_candidate_change_fraction=0.010000
cascade_candidate_stagnation_epochs=12
cascade_max_out_epochs=150
cascade_min_out_epochs=50
cascade_max_cand_epochs=150
cascade_min_cand_epochs=50
cascade_num_candidate_groups=2
bit_fail_limit=1.00000000000000005551e-01
cascade_candidate_limit=1.00000000000000000000e+03
cascade_weight_multiplier=4.00000000000000022204e-01
cascade_activation_functions_count=10
cascade_activation_functions=3 5 7 8 10 11 14 15 16 17 
cascade_activation_steepnesses_count=4
cascade_activation_steepnesses=2.50000000000000000000e-01 5.00000000000000000000e-01 7.50000000000000000000e-01 1.00000000000000000000e+00 
layer_sizes=14 4 2 
scale_included=0
neurons (num_inputs, activation_function, activation_steepness)=(0, 0, 0.00000000000000000000e+00) (0, 0, 0.00000000000000000000e+00) (0, 0, 0.00000000000000000000e+00) (0, 0, 0.00000000000000000000e+00) (0, 0, 0.00000000000000000000e+00) (0, 0, 0.00000000000000000000e+00) (0, 0, 0.00000000000000000000e+00) (0, 0, 0.00000000000000000000e+00) (0, 0, 0.00000000000000000000e+00) (0, 0, 0.00000000000000000000e+00) (0, 0, 0.00000000000000000000e+00) (0, 0, 0.00000000000000000000e+00) (0, 0, 0.00000000000000000000e+00) (0, 0, 0.00000000000000000000e+00) (14, 6, 5.00000000000000000000e-01) (14, 6, 5.00000000000000000000e-01) (14, 6, 5.00000000000000000000e-01) (0, 6, 0.00000000000000000000e+00) (4, 4, 5.00000000000000000000e-01) (0, 4, 0.00000000000000000000e+00) 
connections (connected_to_neuron, weight)=(0, -5.60903269317004404826e-01) (1, 1.33368912633376113241e+00) (2, 1.67996860851305651607e+00) (3, 9.70626748206467437896e-01) (4, 3.19985072994993160478e+01) (5, 8.36481176352778382777e-02) (6, 1.03980361147200960659e+03) (7, 2.16153037793632440966e+00) (8, 1.91466039479964744707e+00) (9, 5.82679150969923469461e+01) (10, 6.25455759906932584613e-01) (11, 5.80389103695715302678e+00) (12, 8.97614892023969268564e+00) (13, -4.42221206889595119804e+00) (0, -1.06740384407243604770e+00) (1, 3.06236719308580296328e+00) (2, 1.31419283279083431992e+00) (3, 8.26011350357533591371e-01) (4, 5.51034953159699369962e+01) (5, 1.18877904229838038397e+00) (6, 7.97325011928216326851e+02) (7, 1.30903629327133241844e+00) (8, 1.75214076703315724259e+00) (9, 2.44657596974454598637e+01) (10, 9.58077801278601870472e-01) (11, 1.34471179178719157932e+00) (12, 4.05771334404108596772e+00) (13, -4.01268503176145951983e+00) (0, -2.43322419748407137163e+00) (1, -2.24630477177068099692e+00) (2, -2.30977823121605396750e+00) (3, -2.29047897856144588857e+00) (4, 2.01958555988217547394e-01) (5, -2.26157249288359452066e+00) (6, -1.24435485025503100864e+00) (7, -2.30419406593258857541e+00) (8, -1.51958540805784014793e+00) (9, 1.79346609047270955095e-01) (10, -2.25645248785435681427e+00) (11, -2.22612605809719976691e+00) (12, -2.14807415360049303032e+00) (13, 2.41640430812480566658e+00) (14, 1.35624223367761143066e+00) (15, 1.42534050418469915300e+00) (16, -4.93020179505472597725e+01) (17, -6.95216206540553161020e-01) 
