FANN_FLO_2.1
num_layers=3
learning_rate=0.700000
connection_rate=1.000000
network_type=0
learning_momentum=0.000000
training_algorithm=2
train_error_function=1
train_stop_function=1
cascade_output_change_fraction=0.010000
quickprop_decay=-0.000100
quickprop_mu=1.750000
rprop_increase_factor=1.200000
rprop_decrease_factor=0.500000
rprop_delta_min=0.000000
rprop_delta_max=50.000000
rprop_delta_zero=0.100000
cascade_output_stagnation_epochs=12
cascade_candidate_change_fraction=0.010000
cascade_candidate_stagnation_epochs=12
cascade_max_out_epochs=150
cascade_min_out_epochs=50
cascade_max_cand_epochs=150
cascade_min_cand_epochs=50
cascade_num_candidate_groups=2
bit_fail_limit=1.00000000000000005551e-01
cascade_candidate_limit=1.00000000000000000000e+03
cascade_weight_multiplier=4.00000000000000022204e-01
cascade_activation_functions_count=10
cascade_activation_functions=3 5 7 8 10 11 14 15 16 17 
cascade_activation_steepnesses_count=4
cascade_activation_steepnesses=2.50000000000000000000e-01 5.00000000000000000000e-01 7.50000000000000000000e-01 1.00000000000000000000e+00 
layer_sizes=12 4 2 
scale_included=0
neurons (num_inputs, activation_function, activation_steepness)=(0, 0, 0.00000000000000000000e+00) (0, 0, 0.00000000000000000000e+00) (0, 0, 0.00000000000000000000e+00) (0, 0, 0.00000000000000000000e+00) (0, 0, 0.00000000000000000000e+00) (0, 0, 0.00000000000000000000e+00) (0, 0, 0.00000000000000000000e+00) (0, 0, 0.00000000000000000000e+00) (0, 0, 0.00000000000000000000e+00) (0, 0, 0.00000000000000000000e+00) (0, 0, 0.00000000000000000000e+00) (0, 0, 0.00000000000000000000e+00) (12, 6, 5.00000000000000000000e-01) (12, 6, 5.00000000000000000000e-01) (12, 6, 5.00000000000000000000e-01) (0, 6, 0.00000000000000000000e+00) (4, 4, 5.00000000000000000000e-01) (0, 4, 0.00000000000000000000e+00) 
connections (connected_to_neuron, weight)=(0, -1.55117495789618337065e-01) (1, 2.10827318903573646125e+00) (2, 1.48678450645686077713e+00) (3, 6.32358455463748053704e-02) (4, -9.75530961424136144888e-02) (5, 1.17923927510510107020e+00) (6, -5.35820935512493212727e-02) (7, -1.28997409505826998721e-01) (8, -1.10292195704581735827e-01) (9, 1.81245809525227632997e-02) (10, -1.60529685837553670602e-01) (11, -1.64437367453665578276e-01) (0, 4.22211127545521858195e+00) (1, -3.92280900070774585231e+00) (2, -2.13392158115377306160e+00) (3, -1.73960946348684597496e+00) (4, -1.16868761820534672324e+00) (5, -4.66360295656411150134e+00) (6, 1.32411967143707776096e+00) (7, 1.39604059859232187968e+00) (8, -1.10047734049896206443e+00) (9, -1.11145436284879650657e+00) (10, -3.93051764586747898189e-01) (11, 4.21270847882912757854e+00) (0, 4.10996202941821220378e+00) (1, -3.95217421988356054641e+00) (2, -2.21107770020236893416e+00) (3, -1.76784190383928585533e+00) (4, -1.10118556288818325584e+00) (5, -4.72317447233287790453e+00) (6, 1.49838203117542767551e+00) (7, 1.35004954292492151957e+00) (8, -1.06848459211925472800e+00) (9, -1.10214050380329098289e+00) (10, -4.75855289617360843746e-01) (11, 4.27023284699605110148e+00) (12, 2.00551413761125552071e+00) (13, -6.25261113040606808511e+00) (14, -6.29782268770496678201e+00) (15, -1.09292714966955717415e+00) 
