FANN_FLO_2.1
num_layers=3
learning_rate=0.700000
connection_rate=1.000000
network_type=0
learning_momentum=0.000000
training_algorithm=2
train_error_function=1
train_stop_function=1
cascade_output_change_fraction=0.010000
quickprop_decay=-0.000100
quickprop_mu=1.750000
rprop_increase_factor=1.200000
rprop_decrease_factor=0.500000
rprop_delta_min=0.000000
rprop_delta_max=50.000000
rprop_delta_zero=0.100000
cascade_output_stagnation_epochs=12
cascade_candidate_change_fraction=0.010000
cascade_candidate_stagnation_epochs=12
cascade_max_out_epochs=150
cascade_min_out_epochs=50
cascade_max_cand_epochs=150
cascade_min_cand_epochs=50
cascade_num_candidate_groups=2
bit_fail_limit=1.00000000000000005551e-01
cascade_candidate_limit=1.00000000000000000000e+03
cascade_weight_multiplier=4.00000000000000022204e-01
cascade_activation_functions_count=10
cascade_activation_functions=3 5 7 8 10 11 14 15 16 17 
cascade_activation_steepnesses_count=4
cascade_activation_steepnesses=2.50000000000000000000e-01 5.00000000000000000000e-01 7.50000000000000000000e-01 1.00000000000000000000e+00 
layer_sizes=12 4 2 
scale_included=0
neurons (num_inputs, activation_function, activation_steepness)=(0, 0, 0.00000000000000000000e+00) (0, 0, 0.00000000000000000000e+00) (0, 0, 0.00000000000000000000e+00) (0, 0, 0.00000000000000000000e+00) (0, 0, 0.00000000000000000000e+00) (0, 0, 0.00000000000000000000e+00) (0, 0, 0.00000000000000000000e+00) (0, 0, 0.00000000000000000000e+00) (0, 0, 0.00000000000000000000e+00) (0, 0, 0.00000000000000000000e+00) (0, 0, 0.00000000000000000000e+00) (0, 0, 0.00000000000000000000e+00) (12, 6, 5.00000000000000000000e-01) (12, 6, 5.00000000000000000000e-01) (12, 6, 5.00000000000000000000e-01) (0, 6, 0.00000000000000000000e+00) (4, 4, 5.00000000000000000000e-01) (0, 4, 0.00000000000000000000e+00) 
connections (connected_to_neuron, weight)=(0, 1.47938971202884195222e+00) (1, -1.26756121124253051669e+00) (2, 1.12047549938498480770e+00) (3, 1.25280395006476408248e+00) (4, 1.31594698470025583958e+00) (5, 1.19194565625865522840e+00) (6, 1.24427368404347959974e+00) (7, 1.21151919202883306959e+00) (8, 1.31940779002387609253e+00) (9, 1.18480863334615316163e+00) (10, 1.20838680775840345838e+00) (11, 1.59256121870193956269e+00) (0, -9.08050593454244547864e-01) (1, 2.53843956416788163466e+00) (2, -3.34260809701561800722e-01) (3, -7.78140811046248548344e-01) (4, -5.96418829699373875819e-01) (5, -8.11024725902679377576e-01) (6, -1.20248834797253512097e-01) (7, -5.57553102718707394025e-01) (8, -5.28483887659426887495e-01) (9, -8.52375329006317072889e-01) (10, -8.45597543287876063367e-01) (11, -9.36684787738922053357e-01) (0, 3.34656168152290767193e-01) (1, -2.87241401100605586727e-01) (2, 2.07398165586836213947e-01) (3, 1.20392116360169915135e-01) (4, 2.74399624851244472445e-01) (5, 4.24176346887546962261e-01) (6, 8.34213545998425676231e-02) (7, 1.86742728062519541821e-01) (8, 3.51608407129246181011e-01) (9, 2.85974488039213547985e-01) (10, 3.21624312926727717876e-01) (11, 4.69236471207550465135e-01) (12, -1.15917401395032859668e+00) (13, 2.24722781815536940542e+01) (14, -2.50295307140970013648e+00) (15, -1.21023612848709083423e+00) 
