FANN_FLO_2.1
num_layers=3
learning_rate=0.700000
connection_rate=1.000000
network_type=0
learning_momentum=0.000000
training_algorithm=2
train_error_function=1
train_stop_function=1
cascade_output_change_fraction=0.010000
quickprop_decay=-0.000100
quickprop_mu=1.750000
rprop_increase_factor=1.200000
rprop_decrease_factor=0.500000
rprop_delta_min=0.000000
rprop_delta_max=50.000000
rprop_delta_zero=0.100000
cascade_output_stagnation_epochs=12
cascade_candidate_change_fraction=0.010000
cascade_candidate_stagnation_epochs=12
cascade_max_out_epochs=150
cascade_min_out_epochs=50
cascade_max_cand_epochs=150
cascade_min_cand_epochs=50
cascade_num_candidate_groups=2
bit_fail_limit=1.00000000000000005551e-01
cascade_candidate_limit=1.00000000000000000000e+03
cascade_weight_multiplier=4.00000000000000022204e-01
cascade_activation_functions_count=10
cascade_activation_functions=3 5 7 8 10 11 14 15 16 17 
cascade_activation_steepnesses_count=4
cascade_activation_steepnesses=2.50000000000000000000e-01 5.00000000000000000000e-01 7.50000000000000000000e-01 1.00000000000000000000e+00 
layer_sizes=21 11 2 
scale_included=0
neurons (num_inputs, activation_function, activation_steepness)=(0, 0, 0.00000000000000000000e+00) (0, 0, 0.00000000000000000000e+00) (0, 0, 0.00000000000000000000e+00) (0, 0, 0.00000000000000000000e+00) (0, 0, 0.00000000000000000000e+00) (0, 0, 0.00000000000000000000e+00) (0, 0, 0.00000000000000000000e+00) (0, 0, 0.00000000000000000000e+00) (0, 0, 0.00000000000000000000e+00) (0, 0, 0.00000000000000000000e+00) (0, 0, 0.00000000000000000000e+00) (0, 0, 0.00000000000000000000e+00) (0, 0, 0.00000000000000000000e+00) (0, 0, 0.00000000000000000000e+00) (0, 0, 0.00000000000000000000e+00) (0, 0, 0.00000000000000000000e+00) (0, 0, 0.00000000000000000000e+00) (0, 0, 0.00000000000000000000e+00) (0, 0, 0.00000000000000000000e+00) (0, 0, 0.00000000000000000000e+00) (0, 0, 0.00000000000000000000e+00) (21, 6, 5.00000000000000000000e-01) (21, 6, 5.00000000000000000000e-01) (21, 6, 5.00000000000000000000e-01) (21, 6, 5.00000000000000000000e-01) (21, 6, 5.00000000000000000000e-01) (21, 6, 5.00000000000000000000e-01) (21, 6, 5.00000000000000000000e-01) (21, 6, 5.00000000000000000000e-01) (21, 6, 5.00000000000000000000e-01) (21, 6, 5.00000000000000000000e-01) (0, 6, 0.00000000000000000000e+00) (11, 6, 5.00000000000000000000e-01) (0, 6, 0.00000000000000000000e+00) 
connections (connected_to_neuron, weight)=(0, 1.09804639935229122472e+01) (1, 1.46686204770248129758e-01) (2, 1.73710712292831248593e-01) (3, 1.29504189887683751614e-01) (4, 2.43032918372791117978e-01) (5, -5.83542884628423941251e+00) (6, 2.04934320133531109320e+01) (7, 1.90157533329643442244e+01) (8, 5.13534674291698411963e-01) (9, -4.28593646054342414242e-02) (10, 9.97730775195236674335e-01) (11, 3.34139035199624734318e+00) (12, 1.62009304680039289970e+00) (13, 3.41921625943653273438e+00) (14, 2.87563544096228973501e-01) (15, 1.86621776189749621899e+00) (16, -2.03616566138989985024e-01) (17, -1.90420383899384471071e+00) (18, -1.90199385231175410738e-01) (19, 7.68474230946880054738e-02) (20, 6.68877985465843871715e-01) (0, -4.68287682989864173511e-01) (1, 3.74007604800173643067e-02) (2, -3.15764390148213641707e-02) (3, -3.07838015474370223223e-02) (4, 7.97481767617174569507e-02) (5, -4.01415400557360857459e-01) (6, 3.72001931786508699407e-01) (7, -7.61068511286073501321e-02) (8, 1.24145759862754154201e-01) (9, 1.48762013536426290772e-01) (10, -7.54627905636843232529e-02) (11, 1.06243786157917532997e-01) (12, 1.09930363968397548646e+00) (13, 2.05979124225458193331e-01) (14, 1.68387955308449355218e-01) (15, 8.02326765557248577920e-02) (16, 9.81967066894176010550e-02) (17, -9.36176757471598834648e-03) (18, 3.55074101700684374716e-01) (19, -7.39926200994534682964e-02) (20, 2.37194107824378400129e-02) (0, 1.80104288406762549357e+01) (1, 1.63852525933693732307e-01) (2, 3.51746907516431173146e-01) (3, 2.85685559793423915487e-01) (4, 3.31038584991406759084e-01) (5, -6.34168293531657933926e+00) (6, 1.08504158005128512055e-01) (7, 1.13025822557800595392e-01) (8, -3.31192729261894303061e-01) (9, -2.68013542350443334517e-01) (10, -4.56586885565051558977e-01) (11, -8.55704386445630516000e-01) (12, -2.24512809717677924715e-01) (13, -1.10169216844922512877e+00) (14, -1.24104813930737842287e-01) (15, -1.09938235499586189903e+00) (16, -2.54641560555696977453e-01) (17, -3.14056913497710421534e-01) (18, -1.53503309659330178238e-01) (19, 5.75683923588755086520e-02) (20, 2.37130828725752057506e-01) (0, 4.95683705465379931265e-01) (1, -4.62823273047703320771e-02) (2, -1.17376966904093757438e-01) (3, -1.07677354048182363777e-01) (4, -1.29173001776625828718e-01) (5, 3.47600983935351770526e-01) (6, 1.59992858642269086822e-01) (7, -6.06350649852168965825e-02) (8, 2.67521534850146236462e-01) (9, -1.04780973162154233957e-01) (10, 4.59602964851339113039e-01) (11, 3.75844865411780915121e-01) (12, 1.12102040883077846978e+00) (13, -4.27872603791733530088e-02) (14, 5.77159847579637341752e-01) (15, 9.76120132582398297716e-02) (16, 5.48130550810440486664e-01) (17, 6.06195576628969279298e-01) (18, 7.84035786682516118440e-03) (19, 9.17056442179679853766e-01) (20, -9.68606750203346994477e-02) (0, 1.72494714798234767272e+01) (1, 3.63114420471750964925e-01) (2, 3.07267856000029371266e-01) (3, 3.94222106931769067373e-01) (4, 3.23389910308682304585e-01) (5, -7.49240078322352509588e+00) (6, 3.03614921644459967442e-01) (7, 1.40833175909259700198e-01) (8, -1.06175617146953116254e+00) (9, -1.42787804844041898988e+00) (10, -1.76467082929254170942e-01) (11, 1.57692260645935222740e-01) (12, -3.10419626109613017162e-02) (13, -1.27040925700163720435e+00) (14, -1.14614330378733186855e+00) (15, -5.51947706691071848795e-01) (16, -5.13933099786817115806e-01) (17, -9.96832501833232353938e-01) (18, -2.12180275226423492585e-01) (19, 4.29077583626604253109e-01) (20, 1.43355593599708924790e-01) (0, 1.13373921079437622872e+00) (1, 2.46464966903968268896e-01) (2, 1.85131146680160035833e-01) (3, 2.14342213343425264105e-01) (4, 2.59544937979026835162e-01) (5, -5.31152376107540646899e+00) (6, 9.43314665366529414570e-01) (7, 2.51152272277176624726e-01) (8, -7.17981310843571529645e-01) (9, 2.69813381175551640634e-02) (10, -2.61821126956029055777e-02) (11, -6.27653881487532927519e-02) (12, 2.02556804262602724309e-01) (13, -9.86080403236771069198e-02) (14, -5.66932953160254382574e-01) (15, 6.12363309815611600584e-01) (16, -7.25249412352990674435e-01) (17, -6.54987781704571503383e-01) (18, 5.99106967547429647425e-01) (19, 1.30031247373041142223e-01) (20, 1.38275802792511504080e-01) (0, 5.49311639896592485144e-01) (1, 8.55125235953283630019e-02) (2, -4.51098856887863913778e-02) (3, -9.91360647044228632252e-02) (4, 4.31277948059989035823e-02) (5, -2.13932425642547829892e-01) (6, 4.55924511692713196886e-01) (7, 1.09851388427984641982e-01) (8, 8.04932113987866099114e-02) (9, -2.16323066356905249763e-02) (10, 1.74603961711218808039e-01) (11, 1.11238064780822223931e-01) (12, 5.55330500022454209841e-01) (13, 3.08760742328932580314e-01) (14, -1.02713705353815534793e-01) (15, 5.03917292462241572792e+00) (16, -9.52696138433735406625e-02) (17, -5.38420719143226783610e-02) (18, 3.60017374622107588777e-01) (19, -4.86556694754548893500e-02) (20, -3.99973620753077574452e-01) (0, 1.62211297092338604386e+01) (1, 2.98999750943339026588e-01) (2, 3.56275515587484936653e-01) (3, 4.68601012559092089393e-01) (4, 4.02100929947054430702e-01) (5, -8.15464096799215809597e+00) (6, 3.81194094284439330411e-02) (7, 1.87322704614297286252e-01) (8, -4.91364598996145651721e-01) (9, -8.89540232928934471168e-01) (10, -8.60263173852389567697e-02) (11, 1.05671082071581579065e+00) (12, 6.98451049010833768804e-01) (13, -4.46843781536921225150e-01) (14, -3.10206098282019671064e-01) (15, 7.63470714415722340185e-01) (16, -2.10830666698688506955e+00) (17, -1.14363750848939838001e+00) (18, -7.65938021324860524031e-02) (19, 3.02437727575472548036e-01) (20, 2.20469767402533073364e-01) (0, 1.08139582612141849083e+00) (1, 2.48088855651893258614e-01) (2, 3.46459817496815258853e-01) (3, 1.82398055104293521644e-01) (4, 2.20931861905135751289e-01) (5, -5.33861608555384314911e+00) (6, 5.14233436338391247666e-01) (7, 1.01455172937909635089e-01) (8, -1.82437510060589308525e-01) (9, -1.54460206356873158695e-01) (10, -8.53989535519519282758e-02) (11, -3.58845370151698525585e-02) (12, -1.56556209374949156787e-01) (13, -1.33712063312148604632e-01) (14, -2.85187990135813806969e-01) (15, 7.94189478118498604076e-01) (16, -3.63727162472731124776e-01) (17, -3.27291098311534800480e-01) (18, 6.20578166525867169767e-01) (19, -1.52097017465547181686e-02) (20, 1.23786624495417274527e-01) (0, 6.85770340246086185232e+00) (1, 4.55682700192102274617e-01) (2, 4.40916632925638041218e-01) (3, 4.63205134188302725118e-01) (4, 3.98604249273904642781e-01) (5, 9.82240554228943629766e+00) (6, 9.94788248654164708462e-01) (7, 4.25791433911408334634e-01) (8, -4.64706834235083243723e-01) (9, 5.20664753515842626541e-01) (10, -3.05726768766367507091e-01) (11, -7.91318656255279861966e-01) (12, -2.31798188003053073913e+00) (13, 7.66172762516223837537e+00) (14, -2.95909441390667771188e-01) (15, 4.64202886631129008066e+00) (16, 8.26518681230534069115e-01) (17, 9.22997893901778532211e+00) (18, 1.86297769854810368884e+01) (19, 8.49468829565853233987e-01) (20, -9.78409391806296713234e-01) (21, 8.20515714286890185392e-01) (22, 4.89403632629598406290e-01) (23, -4.47717924263047684086e-01) (24, 4.23852540938070398990e-01) (25, -8.69537167664456434046e-01) (26, -3.77260623569548425582e-01) (27, 7.69008978322048619702e-01) (28, -2.56685873634245553809e-01) (29, -4.68081024019424474236e-01) (30, 8.56569946446707031207e-01) (31, 4.28246209594220661465e-01) 
