FANN_FLO_2.1
num_layers=3
learning_rate=0.700000
connection_rate=1.000000
network_type=0
learning_momentum=0.000000
training_algorithm=2
train_error_function=1
train_stop_function=1
cascade_output_change_fraction=0.010000
quickprop_decay=-0.000100
quickprop_mu=1.750000
rprop_increase_factor=1.200000
rprop_decrease_factor=0.500000
rprop_delta_min=0.000000
rprop_delta_max=50.000000
rprop_delta_zero=0.100000
cascade_output_stagnation_epochs=12
cascade_candidate_change_fraction=0.010000
cascade_candidate_stagnation_epochs=12
cascade_max_out_epochs=150
cascade_min_out_epochs=50
cascade_max_cand_epochs=150
cascade_min_cand_epochs=50
cascade_num_candidate_groups=2
bit_fail_limit=1.00000000000000005551e-01
cascade_candidate_limit=1.00000000000000000000e+03
cascade_weight_multiplier=4.00000000000000022204e-01
cascade_activation_functions_count=10
cascade_activation_functions=3 5 7 8 10 11 14 15 16 17 
cascade_activation_steepnesses_count=4
cascade_activation_steepnesses=2.50000000000000000000e-01 5.00000000000000000000e-01 7.50000000000000000000e-01 1.00000000000000000000e+00 
layer_sizes=18 11 2 
scale_included=0
neurons (num_inputs, activation_function, activation_steepness)=(0, 0, 0.00000000000000000000e+00) (0, 0, 0.00000000000000000000e+00) (0, 0, 0.00000000000000000000e+00) (0, 0, 0.00000000000000000000e+00) (0, 0, 0.00000000000000000000e+00) (0, 0, 0.00000000000000000000e+00) (0, 0, 0.00000000000000000000e+00) (0, 0, 0.00000000000000000000e+00) (0, 0, 0.00000000000000000000e+00) (0, 0, 0.00000000000000000000e+00) (0, 0, 0.00000000000000000000e+00) (0, 0, 0.00000000000000000000e+00) (0, 0, 0.00000000000000000000e+00) (0, 0, 0.00000000000000000000e+00) (0, 0, 0.00000000000000000000e+00) (0, 0, 0.00000000000000000000e+00) (0, 0, 0.00000000000000000000e+00) (0, 0, 0.00000000000000000000e+00) (18, 6, 5.00000000000000000000e-01) (18, 6, 5.00000000000000000000e-01) (18, 6, 5.00000000000000000000e-01) (18, 6, 5.00000000000000000000e-01) (18, 6, 5.00000000000000000000e-01) (18, 6, 5.00000000000000000000e-01) (18, 6, 5.00000000000000000000e-01) (18, 6, 5.00000000000000000000e-01) (18, 6, 5.00000000000000000000e-01) (18, 6, 5.00000000000000000000e-01) (0, 6, 0.00000000000000000000e+00) (11, 6, 5.00000000000000000000e-01) (0, 6, 0.00000000000000000000e+00) 
connections (connected_to_neuron, weight)=(0, 6.82940150686430991200e-01) (1, 1.71748288098319323858e-01) (2, 3.23198364410240968070e-02) (3, 1.81665666523917468389e-01) (4, 7.37231524023850282035e-02) (5, -3.19207865892925934936e-01) (6, 2.80965479915785895648e-02) (7, 6.98214828827150441048e-02) (8, 1.35345600525281165721e-02) (9, -2.55619334992633236159e-02) (10, 1.94556020142944624540e-01) (11, -3.47948294907366936779e-02) (12, -3.96737901080846944168e-01) (13, 9.17140959080861573050e-03) (14, 6.09018277786508230309e-02) (15, -1.21778982704559377015e-01) (16, -1.58059162482332288269e-02) (17, 4.77491166343191275612e-01) (0, -5.97899592320163542070e+00) (1, 1.10792543114130254134e-01) (2, 3.98730033347056145310e-02) (3, 5.40735882610535959630e-03) (4, 1.35546046615545534575e-01) (5, 1.16198686973607645534e+00) (6, 5.77858834969948650939e-02) (7, 1.28016839897886453015e-01) (8, 1.65514145387926525643e-01) (9, 3.22631943986895874943e-01) (10, 4.89038233591854304416e-02) (11, 9.30243181162169641141e-01) (12, 6.85450750427776478446e-01) (13, 5.37207912828067790656e-01) (14, 3.38521392500879092502e-01) (15, 8.29117344342388817857e-01) (16, 7.04326403316745119909e-01) (17, -3.62335865079108088160e-01) (0, 3.57702786521693072430e+00) (1, 1.22863820515108426723e-01) (2, 5.67424180312184420899e-03) (3, 1.10821692965460141811e-01) (4, 1.66007584653330125812e-01) (5, 6.39149854736035527569e-02) (6, -2.06688514121852656702e-01) (7, 5.56868255130270384257e-01) (8, -3.47007734866206174473e-01) (9, 3.45766746005948921727e-01) (10, 6.79610731455882000063e+00) (11, -1.29890882646102989728e-01) (12, -1.26443752727076641484e-01) (13, 6.44024980749380859812e-01) (14, 3.95605329828698282224e-01) (15, 1.21555406858275871773e-01) (16, 4.25197921269863873817e-02) (17, -1.41816132587743415350e+00) (0, 1.38632400627380185654e+01) (1, -1.08998679424240959429e-02) (2, 1.16521965632347804243e-01) (3, 1.39618124732880377614e-01) (4, 1.01156897297355915892e-03) (5, 3.06572950328390381181e-02) (6, 1.15639250218952743809e-01) (7, -7.73164050467647689935e-01) (8, -3.40494727996018764493e-01) (9, -6.57455369251330967728e-01) (10, -1.37755770811807098930e+00) (11, -1.19956300459229070476e+00) (12, -9.30866186061737321822e-01) (13, -1.18186756470795795160e+00) (14, -6.83004736419381197621e-01) (15, 6.29144488437789028978e-01) (16, -6.02918217823911639641e-01) (17, 3.08504693545209873751e-01) (0, 2.26990485330779395712e-01) (1, 5.73601793500053483421e-02) (2, 8.26710235329734949294e-02) (3, 1.03980533406363664928e-01) (4, -5.09750697759521406716e-02) (5, 3.46096292132565153121e-01) (6, 3.43907945364098745558e-03) (7, 7.97819337432731229276e-02) (8, -8.81362558449066448019e-03) (9, 8.89189791398474205231e-02) (10, -1.36966578465048310909e-01) (11, 3.07850102956244764396e-01) (12, 3.73178750189527341785e-01) (13, 1.25714795715696742162e-01) (14, 9.50958220464938469574e-02) (15, 4.05108233364569247925e-01) (16, 3.30925066828715752631e-01) (17, -3.73914157951283354642e-02) (0, 1.09852296098069568409e+00) (1, 3.56749595050024487231e-02) (2, 1.60124592566888268586e-01) (3, 1.38805486345689260697e-01) (4, 7.85592050198720831533e-02) (5, 3.51292758292544193832e-01) (6, -2.51970033366177847967e-02) (7, -4.16170959547352448116e-01) (8, 1.93989100848253992471e-01) (9, 4.01031429219417479004e-01) (10, -3.31029751564302920919e-02) (11, 6.21774133204087697813e-01) (12, 5.72611875362388333954e-01) (13, 2.18030341159310497856e-01) (14, 3.25635700538969508067e-01) (15, 3.35002360912112273628e-01) (16, 6.10243338296624915351e-01) (17, -2.39879571757698084600e-01) (0, -4.26066405107082990522e-01) (1, 3.17219897619095830832e-02) (2, 1.29351387869438394507e-01) (3, 2.24454208722916735697e-02) (4, 1.56220699798187367957e-01) (5, -2.38567883005799030727e+00) (6, -2.91869829715022843786e-01) (7, -1.95472449905264772374e-01) (8, 4.14593114398274856236e-02) (9, -1.03224137741589061523e-01) (10, 4.38365726264421440295e-01) (11, -1.40072731289145502309e+00) (12, -1.49920811389530572733e+00) (13, 1.15646317205487667024e-01) (14, -3.50447436917453655769e-02) (15, -3.81959344324687721794e+00) (16, -1.55642377789952424116e+00) (17, 4.36410396357080135332e-02) (0, 1.00097613765792248230e+00) (1, 6.66601964275115223962e-03) (2, 1.55142523432176049347e-01) (3, 9.27387551311658758779e-02) (4, 8.71485919598745245596e-02) (5, 4.30261950052368946640e-01) (6, 8.99975036066079786545e-02) (7, -3.32886202570656208888e-01) (8, 9.71661014304721765145e-02) (9, 4.93937088388134937222e-01) (10, -1.19188417894526763052e-01) (11, 5.91127998809048760265e-01) (12, 5.20901743857601795540e-01) (13, 3.11995511664568958565e-01) (14, 4.47054169193125239268e-01) (15, 4.66110124639485257081e-01) (16, 5.93817046486545097039e-01) (17, -1.69106908998870958394e-01) (0, -6.47925308026752744262e-01) (1, 3.14743086241747044296e-02) (2, -5.15356421924565988313e-02) (3, 7.34295095434436915355e-03) (4, 6.32135435484910968018e-02) (5, -3.57654640998555428677e-01) (6, -2.53385009530706917236e-02) (7, -9.04185169414080669448e-02) (8, -9.57153316417367755475e-02) (9, -7.83233464067102924666e-01) (10, 2.53977373816471230228e-01) (11, -2.85817557047011172600e-01) (12, -3.69946940059309614668e-01) (13, -1.32963229607418420564e+00) (14, -9.28795452686529632302e-01) (15, -5.42828545984977983707e-01) (16, -3.10463442911789511136e-01) (17, 1.65883440923274949608e-01) (0, 3.71238441027719856535e+00) (1, 9.19652093488514815744e-02) (2, 1.46631370886021933364e-01) (3, 2.20332573755437216567e-01) (4, 2.67754476173574007536e-01) (5, -8.14949245618224737964e-02) (6, -3.10587232188601458649e-01) (7, 2.79763185256711455207e-01) (8, -9.48302328283135154141e-02) (9, 4.65175696007451955349e-01) (10, 6.68214634540071461544e+00) (11, 1.86772196836090059735e-01) (12, -1.15375918025970275460e-01) (13, 6.20430524127952631730e-01) (14, 3.90611274222704807357e-01) (15, 3.08328967431716859104e-02) (16, 2.83879828530218980553e-01) (17, -1.50265862688066920150e+00) (18, 3.42942929386209141573e-02) (19, 3.33588763137588895091e-01) (20, 9.46899392972374021049e-01) (21, -2.06682299178519190974e+00) (22, 4.05830350500059944263e-01) (23, 3.38797015376309962331e-01) (24, -1.18656315718239158130e+00) (25, 3.25840936884459420053e-01) (26, -2.79676759233173033437e-01) (27, 2.78169118707983442640e-01) (28, 7.83086811879537103565e-01) 
