FANN_FLO_2.1
num_layers=3
learning_rate=0.700000
connection_rate=1.000000
network_type=0
learning_momentum=0.000000
training_algorithm=2
train_error_function=1
train_stop_function=1
cascade_output_change_fraction=0.010000
quickprop_decay=-0.000100
quickprop_mu=1.750000
rprop_increase_factor=1.200000
rprop_decrease_factor=0.500000
rprop_delta_min=0.000000
rprop_delta_max=50.000000
rprop_delta_zero=0.100000
cascade_output_stagnation_epochs=12
cascade_candidate_change_fraction=0.010000
cascade_candidate_stagnation_epochs=12
cascade_max_out_epochs=150
cascade_min_out_epochs=50
cascade_max_cand_epochs=150
cascade_min_cand_epochs=50
cascade_num_candidate_groups=2
bit_fail_limit=1.00000000000000005551e-01
cascade_candidate_limit=1.00000000000000000000e+03
cascade_weight_multiplier=4.00000000000000022204e-01
cascade_activation_functions_count=10
cascade_activation_functions=3 5 7 8 10 11 14 15 16 17 
cascade_activation_steepnesses_count=4
cascade_activation_steepnesses=2.50000000000000000000e-01 5.00000000000000000000e-01 7.50000000000000000000e-01 1.00000000000000000000e+00 
layer_sizes=9 4 2 
scale_included=0
neurons (num_inputs, activation_function, activation_steepness)=(0, 0, 0.00000000000000000000e+00) (0, 0, 0.00000000000000000000e+00) (0, 0, 0.00000000000000000000e+00) (0, 0, 0.00000000000000000000e+00) (0, 0, 0.00000000000000000000e+00) (0, 0, 0.00000000000000000000e+00) (0, 0, 0.00000000000000000000e+00) (0, 0, 0.00000000000000000000e+00) (0, 0, 0.00000000000000000000e+00) (9, 6, 5.00000000000000000000e-01) (9, 6, 5.00000000000000000000e-01) (9, 6, 5.00000000000000000000e-01) (0, 6, 0.00000000000000000000e+00) (4, 4, 5.00000000000000000000e-01) (0, 4, 0.00000000000000000000e+00) 
connections (connected_to_neuron, weight)=(0, 3.47239278121235139807e+00) (1, 4.17302244221337104157e-01) (2, -4.46950472007613353043e+00) (3, -6.52651366926834164417e+00) (4, 3.73906592108888524706e+00) (5, 8.00067707090835966710e+00) (6, 6.12930669843624187365e+00) (7, -4.24577169209064564370e+00) (8, 3.56586429948046612637e+00) (0, 3.38739824678864787089e+00) (1, -2.31415864351192235304e+00) (2, -1.20147057468961615534e+00) (3, -3.74025197331797665257e+00) (4, -3.62657109474772365587e+00) (5, -1.12854834889834143574e+00) (6, -1.10029666162598549484e+00) (7, -1.98697940994420374494e+00) (8, 2.89132050720221744911e+00) (0, 1.98082336784282486697e+00) (1, -2.62270623324620943961e+00) (2, -6.41909652178996426031e-01) (3, -3.65760537241589567259e+00) (4, -4.36932446601021329258e+00) (5, 1.83355418637419398387e+00) (6, 1.80250412773085999518e+00) (7, -1.85667409702013053163e+00) (8, 3.26564675035625739952e+00) (9, -5.31877796646504741318e+00) (10, -2.09109117254962555421e+01) (11, -1.11271800575256456511e+01) (12, -9.11425477318876908761e-01) 
