FANN_FLO_2.1
num_layers=3
learning_rate=0.700000
connection_rate=1.000000
network_type=0
learning_momentum=0.000000
training_algorithm=2
train_error_function=1
train_stop_function=1
cascade_output_change_fraction=0.010000
quickprop_decay=-0.000100
quickprop_mu=1.750000
rprop_increase_factor=1.200000
rprop_decrease_factor=0.500000
rprop_delta_min=0.000000
rprop_delta_max=50.000000
rprop_delta_zero=0.100000
cascade_output_stagnation_epochs=12
cascade_candidate_change_fraction=0.010000
cascade_candidate_stagnation_epochs=12
cascade_max_out_epochs=150
cascade_min_out_epochs=50
cascade_max_cand_epochs=150
cascade_min_cand_epochs=50
cascade_num_candidate_groups=2
bit_fail_limit=1.00000000000000005551e-01
cascade_candidate_limit=1.00000000000000000000e+03
cascade_weight_multiplier=4.00000000000000022204e-01
cascade_activation_functions_count=10
cascade_activation_functions=3 5 7 8 10 11 14 15 16 17 
cascade_activation_steepnesses_count=4
cascade_activation_steepnesses=2.50000000000000000000e-01 5.00000000000000000000e-01 7.50000000000000000000e-01 1.00000000000000000000e+00 
layer_sizes=7 4 2 
scale_included=0
neurons (num_inputs, activation_function, activation_steepness)=(0, 0, 0.00000000000000000000e+00) (0, 0, 0.00000000000000000000e+00) (0, 0, 0.00000000000000000000e+00) (0, 0, 0.00000000000000000000e+00) (0, 0, 0.00000000000000000000e+00) (0, 0, 0.00000000000000000000e+00) (0, 0, 0.00000000000000000000e+00) (7, 6, 5.00000000000000000000e-01) (7, 6, 5.00000000000000000000e-01) (7, 6, 5.00000000000000000000e-01) (0, 6, 0.00000000000000000000e+00) (4, 4, 5.00000000000000000000e-01) (0, 4, 0.00000000000000000000e+00) 
connections (connected_to_neuron, weight)=(0, -1.67317391937732429241e-01) (1, 1.37273837650963081991e+00) (2, 3.10468084455584436565e-01) (3, 1.60856248058357698127e+00) (4, 1.84541889109048090623e-01) (5, 1.75657173799837118544e+00) (6, -2.75689201062679023480e-01) (0, 8.18867063944360040750e-01) (1, -9.37014593972809062272e-01) (2, 2.28455543198476329625e-01) (3, -9.30941814474500861643e-01) (4, 3.26894807689818989171e-01) (5, -9.40698088995851722238e-01) (6, 5.81244899677183290976e-01) (0, 7.90690277258282403494e+00) (1, -4.54432775692296520020e+00) (2, -2.95283528330151900931e+00) (3, -9.05508703018618810177e+00) (4, 3.03028078838968495390e+00) (5, -4.62887972116380463916e+00) (6, 5.62045449282642728406e+00) (7, 6.75604502875675638762e-01) (8, -1.09186204117493748100e+01) (9, -8.26175493845153674499e+00) (10, -1.45667069438896490396e+00) 
