FANN_FLO_2.1
num_layers=3
learning_rate=0.700000
connection_rate=1.000000
network_type=0
learning_momentum=0.000000
training_algorithm=2
train_error_function=1
train_stop_function=1
cascade_output_change_fraction=0.010000
quickprop_decay=-0.000100
quickprop_mu=1.750000
rprop_increase_factor=1.200000
rprop_decrease_factor=0.500000
rprop_delta_min=0.000000
rprop_delta_max=50.000000
rprop_delta_zero=0.100000
cascade_output_stagnation_epochs=12
cascade_candidate_change_fraction=0.010000
cascade_candidate_stagnation_epochs=12
cascade_max_out_epochs=150
cascade_min_out_epochs=50
cascade_max_cand_epochs=150
cascade_min_cand_epochs=50
cascade_num_candidate_groups=2
bit_fail_limit=1.00000000000000005551e-01
cascade_candidate_limit=1.00000000000000000000e+03
cascade_weight_multiplier=4.00000000000000022204e-01
cascade_activation_functions_count=10
cascade_activation_functions=3 5 7 8 10 11 14 15 16 17 
cascade_activation_steepnesses_count=4
cascade_activation_steepnesses=2.50000000000000000000e-01 5.00000000000000000000e-01 7.50000000000000000000e-01 1.00000000000000000000e+00 
layer_sizes=20 11 2 
scale_included=0
neurons (num_inputs, activation_function, activation_steepness)=(0, 0, 0.00000000000000000000e+00) (0, 0, 0.00000000000000000000e+00) (0, 0, 0.00000000000000000000e+00) (0, 0, 0.00000000000000000000e+00) (0, 0, 0.00000000000000000000e+00) (0, 0, 0.00000000000000000000e+00) (0, 0, 0.00000000000000000000e+00) (0, 0, 0.00000000000000000000e+00) (0, 0, 0.00000000000000000000e+00) (0, 0, 0.00000000000000000000e+00) (0, 0, 0.00000000000000000000e+00) (0, 0, 0.00000000000000000000e+00) (0, 0, 0.00000000000000000000e+00) (0, 0, 0.00000000000000000000e+00) (0, 0, 0.00000000000000000000e+00) (0, 0, 0.00000000000000000000e+00) (0, 0, 0.00000000000000000000e+00) (0, 0, 0.00000000000000000000e+00) (0, 0, 0.00000000000000000000e+00) (0, 0, 0.00000000000000000000e+00) (20, 6, 5.00000000000000000000e-01) (20, 6, 5.00000000000000000000e-01) (20, 6, 5.00000000000000000000e-01) (20, 6, 5.00000000000000000000e-01) (20, 6, 5.00000000000000000000e-01) (20, 6, 5.00000000000000000000e-01) (20, 6, 5.00000000000000000000e-01) (20, 6, 5.00000000000000000000e-01) (20, 6, 5.00000000000000000000e-01) (20, 6, 5.00000000000000000000e-01) (0, 6, 0.00000000000000000000e+00) (11, 6, 5.00000000000000000000e-01) (0, 6, 0.00000000000000000000e+00) 
connections (connected_to_neuron, weight)=(0, 2.88031503471757810431e+00) (1, 4.06531806242488469305e-01) (2, 4.18484705638907994452e-01) (3, 3.96164934289477910223e-01) (4, 4.66216433000587071600e-01) (5, 1.50285200163171595023e+00) (6, -3.52188738546022062081e+00) (7, 4.99116996427044601337e-01) (8, 1.14752816726032449424e+01) (9, 5.41376680832168446500e+01) (10, -6.40014789945700179885e+00) (11, 6.69899218809208818470e+00) (12, 3.34933202234765436955e+00) (13, 2.38815259660265777342e+00) (14, -2.83858608568031201003e+00) (15, 6.02806554124072135892e-01) (16, 1.23556182453353535777e+00) (17, 7.32763293417277417063e-01) (18, 1.50665483404961242364e+00) (19, 7.70018053662613777277e-01) (0, 4.39728562269852130129e+00) (1, 8.14147119322988999102e-01) (2, 8.11161686578962815020e-01) (3, 6.61398091266129362076e-01) (4, 6.25695210794184553116e-01) (5, 4.61574572609842892490e+00) (6, -4.49144844558490685671e+00) (7, 5.29390568830044649928e-01) (8, 5.20405904764188242950e+00) (9, 5.39531280200740681607e+01) (10, -6.64543160231471485844e+00) (11, 6.78892830293974824940e+00) (12, 3.21620756653119288515e+00) (13, 1.06941407126831862229e+01) (14, -3.65884977294895241684e+00) (15, 2.03558560522442200114e-01) (16, 9.81636377127848347435e-01) (17, 5.35479964701486510492e-01) (18, -1.10105093307213897091e+00) (19, 7.75131320177607330280e-01) (0, -8.60811275866140945823e+00) (1, -2.01167523137839240888e-02) (2, -1.02097174452951744428e-01) (3, 2.96012468416378179276e-03) (4, -1.74001043962648788144e-01) (5, 1.39906165457261616458e-01) (6, 2.87969556193028264346e+00) (7, 2.47971866023896231335e-02) (8, -1.08527089948514440798e-01) (9, -1.10146243360216868068e-02) (10, 2.61925366126168013281e+00) (11, -2.35389770039233087173e-02) (12, 2.08608170032115770864e-02) (13, 6.65376202474411426735e-02) (14, 2.94136832664773129054e+00) (15, 2.89062061955291882409e-01) (16, 3.85191713858209328070e-01) (17, 3.35659397424105457319e-02) (18, 5.84722814882386643376e-01) (19, -2.94927986790945961815e+00) (0, -2.94980715482679611839e+00) (1, 4.93016098532647259467e-02) (2, 6.45009473895732064752e-03) (3, 1.04558781245705514906e-01) (4, 1.97261278424233563178e-02) (5, 1.16320778535101601592e-01) (6, -1.26203001184307717075e+00) (7, -3.63342872108958492294e-01) (8, 1.30220875862631146891e-01) (9, 5.65326167051097061567e-01) (10, -1.45206104811463387882e+00) (11, 5.73163051676588319872e-01) (12, 5.41472916159602690733e-01) (13, 1.23920399129267104488e-02) (14, -1.34728609689055955911e+00) (15, 6.70245690448875719447e-02) (16, 2.20202904423077439056e-02) (17, 2.93765734333372663389e-01) (18, 9.13521370116051889543e-02) (19, 2.83168050714855679129e-01) (0, 1.09696310663969551769e+01) (1, 4.68357776619531707141e-01) (2, 6.10109613604881473314e-01) (3, 4.21061435110904713763e-01) (4, 5.53429679341652103197e-01) (5, 2.68653963276907437052e-01) (6, 3.99553276345723740182e-01) (7, 3.95440162152402907569e-01) (8, 6.52582672420312759343e-01) (9, 5.21369960717312119769e-01) (10, 5.32944252724840339397e+00) (11, -3.60499561390989420318e+00) (12, -4.25796289146789064262e+00) (13, 1.32004878412815052080e+00) (14, 1.39251164069562338721e-01) (15, 7.27786895831039282179e-01) (16, 2.90694562797197741943e-01) (17, 1.03794915937150311613e+00) (18, 2.45719116499606382575e+00) (19, -1.36983909151764149392e+00) (0, 1.05623856056963507655e+01) (1, 5.04096120850527573687e-01) (2, 3.74602951364004954637e-01) (3, 5.03915548579180527788e-01) (4, 5.00290483490908433062e-01) (5, 2.19145292669005931074e+00) (6, -4.02399767620404968937e+00) (7, -3.51038362897377886895e-01) (8, 1.04697641280897868477e+00) (9, 5.64684246791218100725e+01) (10, -6.84565960543148399609e+00) (11, 9.56472703361559695168e+00) (12, 6.66848360351339319863e+00) (13, 2.52117091842459721818e+01) (14, -4.04102481724746898095e+00) (15, 3.02923261329514081908e-01) (16, 9.91344357558213040704e-01) (17, 4.47857321676700725899e-01) (18, 7.80945705181827865005e+00) (19, 1.13247328620678588962e+00) (0, -6.52203045757509443092e+01) (1, -9.20231613197942666105e-02) (2, -4.79367199221272868859e-02) (3, 4.79358168540432953014e-04) (4, 1.20788243731836716227e-02) (5, 6.40643075814459783679e-01) (6, 1.54507648277634435097e+00) (7, 5.04111441637494599177e-03) (8, 1.31438073750990147559e-01) (9, 5.77721145194971946735e-02) (10, 2.35126221776821031639e+00) (11, 7.79695424908063539071e-01) (12, 7.29683717935958597867e-02) (13, -4.04653624588660276729e-01) (14, 1.79647912972592060932e+00) (15, 1.40999849577297858838e-01) (16, 2.81636276693109421920e-01) (17, 9.05491024386636533805e-02) (18, -1.11481510215348314508e-01) (19, -9.13322360994122339761e-01) (0, 1.24170106726179625412e+01) (1, 4.13205178513209425706e-01) (2, 5.97757713927905443008e-01) (3, 5.02916792466323370192e-01) (4, 5.48195915355365159805e-01) (5, 1.55502528467938050394e-01) (6, 2.79524474487963248137e-01) (7, 3.08218690750672152934e-01) (8, 2.88931230416361484181e-01) (9, 5.98576684838846961867e-01) (10, 6.99139580601515753244e+00) (11, -1.94302398763578754171e+00) (12, -1.58141650139836742461e+00) (13, 1.55542953711849940568e+00) (14, 1.76777245999693355394e-01) (15, 5.48200806891655290087e-01) (16, 4.70288565461287055847e-01) (17, 1.99422306032509433216e-01) (18, 4.94456039800450142252e+00) (19, -2.90251989233584728467e+00) (0, -8.74860782769849087970e+00) (1, 1.25852323436518188232e-03) (2, -1.34037862500908294683e-01) (3, -1.57853803566458145147e-01) (4, -1.51369473865988174444e-01) (5, -7.30580079505393775730e-02) (6, 2.76965477106023083564e+00) (7, -8.76106140376118558422e-01) (8, -5.62398769350315408388e-01) (9, -5.41529385796386472651e-02) (10, 2.68677853770461982919e+00) (11, -2.64881057331521098386e-03) (12, -1.29464421040386606920e-01) (13, -1.30842587337499538513e-01) (14, 2.57315160538574261295e+00) (15, -4.84942346312274563669e-02) (16, 2.99625166284350930024e-01) (17, -6.58437662664100031851e-02) (18, 2.27346727981149899361e-03) (19, -3.68643979356150064408e-01) (0, -1.07277653131206651693e+01) (1, -3.47917517337820794698e-02) (2, -7.43048628482841089227e-02) (3, -1.25266543558599868780e-01) (4, 9.80571008586663891982e-03) (5, -2.67045718817278468493e-02) (6, 1.25313705419281973263e+00) (7, 2.26022092502029980920e-01) (8, -1.42594679532785012510e-01) (9, 5.04225833188471153634e-02) (10, 3.13397514149264333483e+00) (11, -7.44318045454542276396e-02) (12, 5.91064560388986220962e-02) (13, -1.68172959071879413173e+00) (14, 1.33474140368276539270e+00) (15, 3.64933490140927685452e-01) (16, 2.68912930816472439677e-01) (17, 5.47671113071748760781e-02) (18, 2.16818560816098848676e-01) (19, -9.56051445554159551321e-01) (20, 4.12052734869767289805e-01) (21, 4.38399343866158586192e-01) (22, 4.76118792183183647815e-01) (23, -1.05983715113075160907e+00) (24, -7.02971699226127705318e-02) (25, 4.20578328793796474283e-01) (26, 4.10091409252422212095e-01) (27, -7.89489657744173456422e-02) (28, 6.84340789306820185267e-01) (29, 5.10481943814035554752e-01) (30, 2.95078684969990512332e-01) 
