FANN_FLO_2.1
num_layers=3
learning_rate=0.700000
connection_rate=1.000000
network_type=0
learning_momentum=0.000000
training_algorithm=2
train_error_function=1
train_stop_function=1
cascade_output_change_fraction=0.010000
quickprop_decay=-0.000100
quickprop_mu=1.750000
rprop_increase_factor=1.200000
rprop_decrease_factor=0.500000
rprop_delta_min=0.000000
rprop_delta_max=50.000000
rprop_delta_zero=0.100000
cascade_output_stagnation_epochs=12
cascade_candidate_change_fraction=0.010000
cascade_candidate_stagnation_epochs=12
cascade_max_out_epochs=150
cascade_min_out_epochs=50
cascade_max_cand_epochs=150
cascade_min_cand_epochs=50
cascade_num_candidate_groups=2
bit_fail_limit=1.00000000000000005551e-01
cascade_candidate_limit=1.00000000000000000000e+03
cascade_weight_multiplier=4.00000000000000022204e-01
cascade_activation_functions_count=10
cascade_activation_functions=3 5 7 8 10 11 14 15 16 17 
cascade_activation_steepnesses_count=4
cascade_activation_steepnesses=2.50000000000000000000e-01 5.00000000000000000000e-01 7.50000000000000000000e-01 1.00000000000000000000e+00 
layer_sizes=21 11 2 
scale_included=0
neurons (num_inputs, activation_function, activation_steepness)=(0, 0, 0.00000000000000000000e+00) (0, 0, 0.00000000000000000000e+00) (0, 0, 0.00000000000000000000e+00) (0, 0, 0.00000000000000000000e+00) (0, 0, 0.00000000000000000000e+00) (0, 0, 0.00000000000000000000e+00) (0, 0, 0.00000000000000000000e+00) (0, 0, 0.00000000000000000000e+00) (0, 0, 0.00000000000000000000e+00) (0, 0, 0.00000000000000000000e+00) (0, 0, 0.00000000000000000000e+00) (0, 0, 0.00000000000000000000e+00) (0, 0, 0.00000000000000000000e+00) (0, 0, 0.00000000000000000000e+00) (0, 0, 0.00000000000000000000e+00) (0, 0, 0.00000000000000000000e+00) (0, 0, 0.00000000000000000000e+00) (0, 0, 0.00000000000000000000e+00) (0, 0, 0.00000000000000000000e+00) (0, 0, 0.00000000000000000000e+00) (0, 0, 0.00000000000000000000e+00) (21, 6, 5.00000000000000000000e-01) (21, 6, 5.00000000000000000000e-01) (21, 6, 5.00000000000000000000e-01) (21, 6, 5.00000000000000000000e-01) (21, 6, 5.00000000000000000000e-01) (21, 6, 5.00000000000000000000e-01) (21, 6, 5.00000000000000000000e-01) (21, 6, 5.00000000000000000000e-01) (21, 6, 5.00000000000000000000e-01) (21, 6, 5.00000000000000000000e-01) (0, 6, 0.00000000000000000000e+00) (11, 6, 5.00000000000000000000e-01) (0, 6, 0.00000000000000000000e+00) 
connections (connected_to_neuron, weight)=(0, 2.53375710730224774636e+01) (1, 2.09763574946962849666e-01) (2, 1.48532040018879457621e-01) (3, 2.62377094079100092738e-01) (4, 1.46944328744255586772e-01) (5, -3.68720270392040139207e-01) (6, 4.51698955780205097660e-03) (7, -5.91129051967429597347e-01) (8, -2.61640791665756732021e-02) (9, -5.95218535525175451717e-01) (10, -8.76010755687072623088e-02) (11, -4.69386966843838671082e+00) (12, -6.33714035945174392062e-01) (13, -2.05679733204139791880e+00) (14, -6.69956641869292809921e-03) (15, -2.09919947304015996892e+00) (16, -3.56278330225099804096e-01) (17, -3.77055493903937610778e-01) (18, 4.17592418867630155166e-01) (19, -2.21051437729443550628e-01) (20, 4.73448774647574122110e-01) (0, 9.11051969824102969575e-01) (1, 2.25457763550095668936e-01) (2, 2.33938543376736751700e-01) (3, 1.84027729806714196448e-01) (4, 3.15968534228616537707e-01) (5, -2.95097709564925037018e-01) (6, 9.54046042041688940882e-02) (7, 1.78243527534326179351e-01) (8, 2.96817327276752918053e-01) (9, 1.09147875182688980367e-01) (10, -4.34607876446222764211e-03) (11, -8.32280028473620703267e+00) (12, 1.67734237045206568961e-01) (13, -1.76929858305954490483e+00) (14, -1.33820617561275362339e-01) (15, -1.29915575531863325409e+00) (16, -5.03223499332846394005e-02) (17, 8.70343745151067327281e-02) (18, 1.58555217617042809586e+00) (19, 2.42391538424157060305e-01) (20, 3.20863903792139470994e-01) (0, 1.51344569853283017480e+00) (1, 2.65558790804777289374e-01) (2, 3.18739168735180045111e-01) (3, 2.68392764421138962927e-01) (4, 3.28482531400356381202e-01) (5, -2.66745690125466006215e-01) (6, 2.39140704380887481051e+00) (7, 5.73314129380696591021e-01) (8, 6.90968071171078279669e-01) (9, 8.22211217012317363562e-01) (10, 3.42597010590341142233e+01) (11, -7.93708813378222011181e+00) (12, 7.37882312544802965171e-01) (13, -1.73719066175336472879e-01) (14, 8.08127398316656524457e+01) (15, 1.46722705831632438400e-01) (16, 2.06310646136137521012e+00) (17, 3.70331534022594333067e+00) (18, 1.50000000000000000000e+03) (19, 1.50000000000000000000e+03) (20, 1.03638870853531805949e+00) (0, 6.99418545278850056768e-01) (1, 1.08896229013246692574e-01) (2, 1.60823124989313281930e-01) (3, 2.60856996818823461126e-01) (4, 1.53951253339094318306e-01) (5, 1.93234279129055863677e+01) (6, 1.56726296984621438213e+00) (7, 3.30467518485508593429e-01) (8, 6.83231603477742623909e+02) (9, 3.25867832551604175162e-01) (10, 1.53884538894317635105e+00) (11, -8.05799194679301500344e+00) (12, 6.95236279909767107554e-01) (13, -1.11204672294354200979e+00) (14, 3.60823748214153141589e+01) (15, -1.69852347772466966136e-01) (16, 8.41211452815998628196e-01) (17, 8.44192501827693604355e+01) (18, 5.67990930748464295519e-01) (19, -5.50140522236841067460e-01) (20, 2.74173751992810743605e-01) (0, -1.59988875521665164570e+02) (1, -2.59013594752134701515e-01) (2, -2.52102249925913179940e-01) (3, -2.18095885282339418954e-01) (4, -3.45477247303309087378e-01) (5, 6.57078798648411455119e-01) (6, -4.38831023364391115127e-01) (7, 4.95530690108568871999e-01) (8, 6.43317142359752305869e-03) (9, 3.43347879149026730117e-02) (10, 3.99734897041939429840e-01) (11, 9.65114525708920467650e+00) (12, -9.75996336481514958905e-02) (13, 1.42598771029423132539e+00) (14, -8.86858602957041108894e-01) (15, 1.10757900021334654284e+00) (16, 3.47259723182543555975e-01) (17, 4.93431585117851539968e-02) (18, -1.93641176430794370589e-01) (19, -2.13566535571699023244e-01) (20, -1.10202190477114703171e+00) (0, -3.51277205233683616825e+02) (1, -1.46150978936611691816e-01) (2, -2.32453788353859464033e-01) (3, -2.92951727940498507508e-01) (4, -2.44693825675903670058e-01) (5, 8.65158045923640539598e-01) (6, 4.81997134352381700895e-02) (7, 6.61674595818709576633e-01) (8, 5.89846562637169835597e+00) (9, 5.08737041297741110490e-01) (10, 1.31085518619796381756e+00) (11, -9.90971588458043015635e+01) (12, 9.03813458624601295810e+00) (13, 9.23812644523419912446e+00) (14, 1.79992900224131391340e+00) (15, 7.08155489145014893637e+00) (16, 2.83756226311921044836e-01) (17, 1.38418996820155237870e+00) (18, 8.88885706771022476858e+00) (19, 1.34128654763301735642e+00) (20, -1.14743822456120430076e+01) (0, 1.93673217649075657398e+00) (1, 2.53390179129141357439e-01) (2, 8.67118324356251912732e-02) (3, 2.20782593937414561847e-01) (4, 1.41241190137165351093e-01) (5, -1.99289271485637631276e-01) (6, 1.02300347721485898611e-01) (7, 2.02126830526609568839e-01) (8, 1.26074432538275355009e-01) (9, -4.32321210175306558376e-02) (10, -4.97109473839268567463e-01) (11, 1.08776818980627272282e+01) (12, 7.21975503357794701209e-01) (13, -1.34725962010242894529e+00) (14, -5.11646376708181915838e-01) (15, -1.93611833339805161636e+00) (16, 2.77096152452439925540e+00) (17, 1.70110875948978823580e+00) (18, 5.44224207643467683404e-01) (19, 3.75163057781035425009e-01) (20, -6.40738554240028179709e-02) (0, 2.20907957516504360740e+00) (1, 1.51741226576854681962e-01) (2, 1.48419131897975897783e-01) (3, 2.49417701177885531294e-01) (4, 2.82396027260114979018e-01) (5, 1.02969053010636121814e-01) (6, 1.24289449944710445051e-01) (7, -6.03393979694397952773e-02) (8, 1.67387924921427427849e-01) (9, -5.59064106676230160309e-02) (10, -8.27142490262649410226e-01) (11, 1.08630922605447981510e+01) (12, 5.65931421985138238817e-01) (13, -1.55881673189322866868e+00) (14, 1.49142619740537440975e-01) (15, -1.93009127213524811495e+00) (16, 1.08931030263118788781e+00) (17, 1.46964392210475569556e+00) (18, 8.26384592294058584194e-01) (19, 4.07767313298647071651e-01) (20, 1.27581900911979767566e-01) (0, 9.67749763930248474431e-01) (1, 2.48124759131953059876e-01) (2, 1.94341305131003311280e-01) (3, 2.67900343472049051741e-01) (4, 3.36394484573886376477e-01) (5, -3.50249501546109509587e-01) (6, 2.19666541785331181913e+00) (7, 4.40579508420820342707e+00) (8, 4.25276197895097851642e-01) (9, 5.31997449107463826756e-01) (10, 1.77880133058288958381e+00) (11, -8.19835744542603350737e+00) (12, 1.50000000000000000000e+03) (13, 1.32120967478634732117e+01) (14, 3.47369892445592824970e+01) (15, 1.09247074881277883573e-01) (16, 7.65569011340071359228e+00) (17, 3.63334457400428689766e+01) (18, 1.50000000000000000000e+03) (19, 1.50000000000000000000e+03) (20, 2.94006790440177701029e+00) (0, 5.28871788063995373896e-01) (1, 1.68248626006546525558e-01) (2, 1.76623682094517259200e-01) (3, 2.59596715284291401638e-01) (4, 2.92885909391347010189e-01) (5, 3.10304613157975431315e-02) (6, 1.77094019209982633800e-01) (7, -1.66633461007769351214e-01) (8, 4.10580352966294526151e-01) (9, -4.64003155842434011902e-02) (10, 2.53467637423296643373e-02) (11, -9.64911917620053039002e+00) (12, 1.21550868963297864500e-01) (13, -1.98123082007015810513e-03) (14, 2.11164360397740197284e-01) (15, -2.05111110050691602957e-01) (16, -1.34655958119579005627e-01) (17, -4.63081808985382134547e-02) (18, 7.54125179822340507840e-01) (19, 8.73225996156107187041e-01) (20, 4.02512438669540728586e-01) (21, -2.99831473498085254725e-01) (22, -2.70326967479420032792e-01) (23, 7.53555950595562018535e-01) (24, 2.90250952797650729753e-01) (25, 8.39143746065054485506e-01) (26, 9.60868577900384046586e-01) (27, 3.92978674676947747901e-01) (28, 4.50470093756060119272e-01) (29, 7.36984697057429860578e-01) (30, -5.82763075631802296428e-01) (31, 3.33148241287751833983e-01) 
