FANN_FLO_2.1
num_layers=3
learning_rate=0.700000
connection_rate=1.000000
network_type=0
learning_momentum=0.000000
training_algorithm=2
train_error_function=1
train_stop_function=1
cascade_output_change_fraction=0.010000
quickprop_decay=-0.000100
quickprop_mu=1.750000
rprop_increase_factor=1.200000
rprop_decrease_factor=0.500000
rprop_delta_min=0.000000
rprop_delta_max=50.000000
rprop_delta_zero=0.100000
cascade_output_stagnation_epochs=12
cascade_candidate_change_fraction=0.010000
cascade_candidate_stagnation_epochs=12
cascade_max_out_epochs=150
cascade_min_out_epochs=50
cascade_max_cand_epochs=150
cascade_min_cand_epochs=50
cascade_num_candidate_groups=2
bit_fail_limit=1.00000000000000005551e-01
cascade_candidate_limit=1.00000000000000000000e+03
cascade_weight_multiplier=4.00000000000000022204e-01
cascade_activation_functions_count=10
cascade_activation_functions=3 5 7 8 10 11 14 15 16 17 
cascade_activation_steepnesses_count=4
cascade_activation_steepnesses=2.50000000000000000000e-01 5.00000000000000000000e-01 7.50000000000000000000e-01 1.00000000000000000000e+00 
layer_sizes=10 4 2 
scale_included=0
neurons (num_inputs, activation_function, activation_steepness)=(0, 0, 0.00000000000000000000e+00) (0, 0, 0.00000000000000000000e+00) (0, 0, 0.00000000000000000000e+00) (0, 0, 0.00000000000000000000e+00) (0, 0, 0.00000000000000000000e+00) (0, 0, 0.00000000000000000000e+00) (0, 0, 0.00000000000000000000e+00) (0, 0, 0.00000000000000000000e+00) (0, 0, 0.00000000000000000000e+00) (0, 0, 0.00000000000000000000e+00) (10, 6, 5.00000000000000000000e-01) (10, 6, 5.00000000000000000000e-01) (10, 6, 5.00000000000000000000e-01) (0, 6, 0.00000000000000000000e+00) (4, 4, 5.00000000000000000000e-01) (0, 4, 0.00000000000000000000e+00) 
connections (connected_to_neuron, weight)=(0, 1.99579569747321106110e-01) (1, 2.26306832424427117889e-01) (2, -7.08112904084613487693e-03) (3, 1.32862548538178304458e-01) (4, 2.14852455308310485993e-01) (5, 2.76603650658418409591e-01) (6, 2.16356758384992242661e-01) (7, 1.85599815457154870835e-01) (8, 1.46428275158278498047e-01) (9, 5.37104636930151174701e-02) (0, -3.31473166705469751703e-02) (1, 5.55220402391867873249e-01) (2, 1.18575038993231671181e-01) (3, 5.17026489860208590676e-02) (4, -5.98264897824625635492e-02) (5, 7.60367869471226670575e-02) (6, -8.89437363411273163027e-02) (7, -8.70469824339236419863e-02) (8, -1.32497709488997889027e-01) (9, -6.27432281733851099359e-02) (0, -9.53960396626379880658e-01) (1, 2.74640684751673713748e+00) (2, -6.10139777056495580254e-01) (3, -6.12451312236110601006e-01) (4, -5.47688339940826329766e-01) (5, -1.29134462160164553701e+00) (6, -4.88443953089038818138e-01) (7, -5.86869326524059209405e-01) (8, -9.15150903442290220013e-01) (9, -1.06573151079693095866e+00) (10, 1.36773076265145954178e-01) (11, 2.19389574750534721570e-01) (12, 1.46371194630337218001e+01) (13, -1.51443640308328730804e+00) 
