FANN_FLO_2.1
num_layers=3
learning_rate=0.700000
connection_rate=1.000000
network_type=0
learning_momentum=0.000000
training_algorithm=2
train_error_function=1
train_stop_function=1
cascade_output_change_fraction=0.010000
quickprop_decay=-0.000100
quickprop_mu=1.750000
rprop_increase_factor=1.200000
rprop_decrease_factor=0.500000
rprop_delta_min=0.000000
rprop_delta_max=50.000000
rprop_delta_zero=0.100000
cascade_output_stagnation_epochs=12
cascade_candidate_change_fraction=0.010000
cascade_candidate_stagnation_epochs=12
cascade_max_out_epochs=150
cascade_min_out_epochs=50
cascade_max_cand_epochs=150
cascade_min_cand_epochs=50
cascade_num_candidate_groups=2
bit_fail_limit=1.00000000000000005551e-01
cascade_candidate_limit=1.00000000000000000000e+03
cascade_weight_multiplier=4.00000000000000022204e-01
cascade_activation_functions_count=10
cascade_activation_functions=3 5 7 8 10 11 14 15 16 17 
cascade_activation_steepnesses_count=4
cascade_activation_steepnesses=2.50000000000000000000e-01 5.00000000000000000000e-01 7.50000000000000000000e-01 1.00000000000000000000e+00 
layer_sizes=44 11 2 
scale_included=0
neurons (num_inputs, activation_function, activation_steepness)=(0, 0, 0.00000000000000000000e+00) (0, 0, 0.00000000000000000000e+00) (0, 0, 0.00000000000000000000e+00) (0, 0, 0.00000000000000000000e+00) (0, 0, 0.00000000000000000000e+00) (0, 0, 0.00000000000000000000e+00) (0, 0, 0.00000000000000000000e+00) (0, 0, 0.00000000000000000000e+00) (0, 0, 0.00000000000000000000e+00) (0, 0, 0.00000000000000000000e+00) (0, 0, 0.00000000000000000000e+00) (0, 0, 0.00000000000000000000e+00) (0, 0, 0.00000000000000000000e+00) (0, 0, 0.00000000000000000000e+00) (0, 0, 0.00000000000000000000e+00) (0, 0, 0.00000000000000000000e+00) (0, 0, 0.00000000000000000000e+00) (0, 0, 0.00000000000000000000e+00) (0, 0, 0.00000000000000000000e+00) (0, 0, 0.00000000000000000000e+00) (0, 0, 0.00000000000000000000e+00) (0, 0, 0.00000000000000000000e+00) (0, 0, 0.00000000000000000000e+00) (0, 0, 0.00000000000000000000e+00) (0, 0, 0.00000000000000000000e+00) (0, 0, 0.00000000000000000000e+00) (0, 0, 0.00000000000000000000e+00) (0, 0, 0.00000000000000000000e+00) (0, 0, 0.00000000000000000000e+00) (0, 0, 0.00000000000000000000e+00) (0, 0, 0.00000000000000000000e+00) (0, 0, 0.00000000000000000000e+00) (0, 0, 0.00000000000000000000e+00) (0, 0, 0.00000000000000000000e+00) (0, 0, 0.00000000000000000000e+00) (0, 0, 0.00000000000000000000e+00) (0, 0, 0.00000000000000000000e+00) (0, 0, 0.00000000000000000000e+00) (0, 0, 0.00000000000000000000e+00) (0, 0, 0.00000000000000000000e+00) (0, 0, 0.00000000000000000000e+00) (0, 0, 0.00000000000000000000e+00) (0, 0, 0.00000000000000000000e+00) (0, 0, 0.00000000000000000000e+00) (44, 6, 5.00000000000000000000e-01) (44, 6, 5.00000000000000000000e-01) (44, 6, 5.00000000000000000000e-01) (44, 6, 5.00000000000000000000e-01) (44, 6, 5.00000000000000000000e-01) (44, 6, 5.00000000000000000000e-01) (44, 6, 5.00000000000000000000e-01) (44, 6, 5.00000000000000000000e-01) (44, 6, 5.00000000000000000000e-01) (44, 6, 5.00000000000000000000e-01) (0, 6, 0.00000000000000000000e+00) (11, 6, 5.00000000000000000000e-01) (0, 6, 0.00000000000000000000e+00) 
connections (connected_to_neuron, weight)=(0, 2.33625499540957193290e+01) (1, 1.00258876707567667896e-01) (2, 2.57644255783571696217e-01) (3, 1.58258711125864620639e-01) (4, 1.42584760811342831088e-01) (5, -1.42280160107645792245e+00) (6, -2.51816331478108335062e+00) (7, 3.64072473177742897410e-02) (8, -2.20501703748184274545e+00) (9, -9.58757088485749919826e-02) (10, -2.86799981751304083888e-02) (11, -2.49917729353237927370e+00) (12, -2.45893407778352823811e+00) (13, -5.02646286528602090349e-02) (14, -2.34546847771641342462e+00) (15, -1.76670756203262868667e+00) (16, -5.75848724297094349822e+00) (17, 6.40085289215002739560e-01) (18, 2.14606963764396418970e-01) (19, -1.21035560280409271172e+01) (20, -1.55078962758356042606e+00) (21, -1.56022189204384575945e+00) (22, -2.28930783100976009692e+00) (23, -4.86791296048935118179e-01) (24, -1.88572020932727291154e+00) (25, -5.13718192292263520216e+00) (26, -2.29074358973145342233e+00) (27, -2.36401740153311346049e+00) (28, 1.13815119560280275657e+00) (29, -2.65197498968509304262e-01) (30, -2.67901568287326377060e+01) (31, -4.15506337693439409264e+00) (32, 2.94886933427746411596e-01) (33, -4.13947205861854339304e+00) (34, -4.14960785925529229701e+00) (35, -4.03070492349708686675e+00) (36, 1.54644156028491863708e+00) (37, -2.53419517947814121328e+00) (38, -1.50000000000000000000e+03) (39, 2.16047657736728915268e+00) (40, -1.60797439306954892402e+01) (41, -2.37828450011526193464e+00) (42, -2.17233295890049049603e+00) (43, 9.26419165898165752893e-01) (0, 1.43237205898276820371e+00) (1, 1.13355711447393564528e-01) (2, 5.53571212760564992927e-02) (3, 2.11971603678857867248e-01) (4, 7.33039829603787940204e-02) (5, -1.37886201562574428614e+00) (6, -2.32176951420866778397e-01) (7, 1.43743442789431921658e-02) (8, -1.14731641771073888947e+00) (9, 4.73645831090429014765e-02) (10, 1.87947236936789635608e-01) (11, 6.31032025044194200269e-01) (12, 4.71034549560883308850e-01) (13, 3.31910111545984376491e-01) (14, -8.20592513185515071150e-01) (15, -1.70453086534253586137e+01) (16, -8.25363816701006003385e-01) (17, 7.91860391802733487587e-01) (18, 1.23455898126695329253e+00) (19, -1.38919269947969237222e+00) (20, -7.43138447280349390134e-01) (21, -1.50647322970237335094e-01) (22, -6.70923159097402077577e-01) (23, -6.06199102448293388079e+02) (24, 2.24481600771560568797e-01) (25, -2.62377837942811664718e+00) (26, -1.06204322600544665001e+00) (27, -7.48106226500520277156e-01) (28, -2.10990371167827983623e-01) (29, -2.00270285011483084592e-01) (30, -4.41004944573338442115e-01) (31, -2.22458878641554835820e-01) (32, 2.00999060320155997772e+00) (33, -1.32868192087068018736e+03) (34, -1.60531389366593174373e+02) (35, -6.80795516746868001334e-01) (36, -5.10886126505228577166e-01) (37, -2.72569847149720545509e-01) (38, -1.33948022926462408577e+03) (39, -3.39629867256867168379e-01) (40, -2.29904908118069073453e+00) (41, -1.10149800193904002299e+03) (42, -7.07519907182667822099e+01) (43, 3.80162291840856064740e-02) (0, 5.73670303839814987867e-01) (1, 3.54491712844504300306e-02) (2, 5.43532686627043529204e-02) (3, -1.84369070136414792138e-02) (4, 1.12507955948127638668e-01) (5, -1.35300715979218222351e+00) (6, -1.35881183022764862045e-01) (7, 4.46189123944740140271e-01) (8, -1.96030010257805642482e-01) (9, 1.06099121428611525841e-01) (10, 2.38079966352237326621e-01) (11, 2.16391756429803572281e-01) (12, 1.13155045517173105663e-01) (13, 2.10947692687945748125e-01) (14, -7.37901655054185034999e-01) (15, -7.89478271430221223426e+00) (16, 3.70401795001530254048e-01) (17, 2.70364791837410856079e-01) (18, 2.14263216726785832300e-01) (19, 2.58493242371368482646e-02) (20, -2.45388232956179841437e-01) (21, -1.25124097231206155012e-01) (22, -1.19867505577936531158e-01) (23, -6.13096783730025208570e+02) (24, 5.38740478002116551792e-01) (25, -9.06898040337859967508e+00) (26, -1.40185488947953196259e+00) (27, -2.68363805779917308225e-01) (28, -2.76231360442800111255e-01) (29, 5.71701770037330234131e-02) (30, -1.66967621552707112809e-01) (31, -1.86496272324158707256e+00) (32, 3.04173285825598682663e+00) (33, -1.50000000000000000000e+03) (34, -1.44547366031242319195e+01) (35, -2.66726180166875825872e-01) (36, -6.88813348889905752159e-01) (37, -1.12434227149078219687e-01) (38, -1.33946176975084063088e+03) (39, -7.02399673049627359944e-01) (40, -2.92717493284032181933e+00) (41, -1.36426361548231443521e+03) (42, -1.64578299941372478088e+02) (43, -2.50455319823928157508e-01) (0, 1.81908008233470681603e+01) (1, 3.70408852407167366039e-01) (2, 5.43059480199048705273e-01) (3, 3.89553949990699699413e-01) (4, 4.61665001520345619213e-01) (5, -8.35978079018435948910e+00) (6, -1.53909236527519488469e+00) (7, -4.30081418995130915217e-01) (8, -8.29012213540342557394e+00) (9, -6.92222257400791463056e-01) (10, 1.52728165348611444330e-01) (11, -5.04200881453079285954e-01) (12, -3.41384590382387109742e-01) (13, -2.10910685029011557567e-01) (14, -1.39460382367942892223e+00) (15, -2.32242836591507101351e-01) (16, -1.24971926019196892810e+01) (17, 4.95101263342292083336e-02) (18, 6.90267097656768330305e-02) (19, -1.07595915699978172952e+00) (20, -5.98095689710087352609e+00) (21, -5.20855054372612791269e+00) (22, -2.68427925800273925461e+00) (23, -1.32116356166692616725e+00) (24, -5.37498762829599296964e+00) (25, -1.48796796828243893529e+00) (26, -7.94879790241243089355e+00) (27, -5.59912183087833748019e-01) (28, -1.47527086989737543643e-01) (29, -9.82775815723879553332e+00) (30, -9.60525609508077526932e-01) (31, -7.69183131865853653153e+00) (32, 6.34856478006511126821e-01) (33, -3.29065651974846895556e+00) (34, -4.83008543749224195096e+00) (35, -2.92033882775693287570e+00) (36, -1.25305920100004843931e+01) (37, -1.68490649517143653568e-01) (38, -1.81338556628671976334e+00) (39, 6.56071395449719263482e-01) (40, 1.34992465286667773228e+00) (41, -4.91771275537409024992e+00) (42, -2.17426196716767972106e+00) (43, 2.82909742721210077931e+00) (0, 1.66882436785779688648e+01) (1, 3.89129540731062928405e-01) (2, 4.21054265309920350280e-01) (3, 4.38077418912997229583e-01) (4, 4.39692332257380413818e-01) (5, -3.81405749724533560396e+00) (6, -7.69558662480115396320e-01) (7, -4.96869150603225229190e-01) (8, -9.09517143336479882976e+00) (9, -1.61820447437334091756e-01) (10, 2.94171758018830532821e-03) (11, 3.00539182175712168976e-02) (12, 4.92597715226587712367e-02) (13, -3.09108612847707638072e-02) (14, -2.94563744284235484727e+00) (15, -2.07612376937126796861e+00) (16, -1.03948723477586586483e+01) (17, 6.61601061690341302191e-02) (18, 6.10249421054171736767e-02) (19, -2.41582020918004269916e+00) (20, -9.16928529273047487891e+00) (21, -4.17552457719471803443e+00) (22, -4.93757224099891001146e+00) (23, -3.50754181655123309369e+00) (24, -7.46255611361939230619e+00) (25, -2.54543642095107491841e+00) (26, -8.36647851279927579071e+00) (27, -7.42554317324202739492e-01) (28, 2.58656253414004977387e+00) (29, -8.40570488881169275430e+00) (30, -2.26613543531145245069e+00) (31, -7.74455213532601405291e+00) (32, -3.77496560360031721548e-02) (33, -6.01961372899914692880e-01) (34, -1.52143376779814554212e+00) (35, 2.11446976698772015624e+00) (36, -1.37800591585277789619e+01) (37, -8.87665832863130666031e-02) (38, -2.41102982427688505851e+00) (39, -2.14641364360403663625e+00) (40, -9.00352289181398091067e-01) (41, -4.49773022667423472143e+00) (42, -2.65134331361366593072e+00) (43, 4.20036946617239514978e+00) (0, 5.81344065107030294470e-01) (1, 3.07779281260216822091e-02) (2, 2.77350961090767865469e-02) (3, 4.23254935862267395175e-02) (4, -1.27271742699896737994e-02) (5, -1.11441554141839183067e+00) (6, 3.65852381149370020630e-01) (7, 2.05025668403271355000e-01) (8, 1.14464974882380110532e-01) (9, 3.35765345868934139695e-01) (10, 1.79765160257444767122e-01) (11, 1.73126587688057942405e-01) (12, 1.10486181509684186497e-01) (13, 1.35391194631209188515e-01) (14, -7.58984924837846186563e-01) (15, -1.63838061024602517080e+01) (16, 2.02116804042154707410e-01) (17, 5.13502668762942593439e-01) (18, 5.88672767537194996379e-01) (19, 3.23269798257963980603e+00) (20, 2.64876207906541338843e+00) (21, 5.44102614029237929838e-02) (22, -1.32396004835493047436e-01) (23, -6.13731305003647889862e+02) (24, 3.22695452022499496003e-01) (25, -9.40654223080491362907e+01) (26, -1.38443363252947393427e+00) (27, -1.25994113663394080582e+00) (28, -1.59040038461861432673e+00) (29, 2.89768725731619269936e-01) (30, -1.51682055103541768570e-01) (31, -1.23995071153072378145e+00) (32, 5.61247558099207832782e+00) (33, -1.50000000000000000000e+03) (34, -4.49746976947687304715e+00) (35, -1.82951221105259764776e+00) (36, -2.07611531862006565285e-02) (37, 3.86815553387065934332e-03) (38, -1.34177022040726410523e+03) (39, -3.20737019143219015405e+00) (40, -5.67197770301055381736e+00) (41, -1.36591544915462031895e+03) (42, -1.64631770746659839233e+02) (43, -1.71354964539603193963e-01) (0, 1.36615991629916422312e+00) (1, 8.27133169968706644104e-02) (2, 4.94528895814997301872e-02) (3, 1.70327421148596419576e-01) (4, 8.12437048752886609160e-02) (5, -3.40974167339449019121e-01) (6, 1.70582888562084561412e-01) (7, 4.56581169402428377335e-01) (8, -4.03090075507576972580e-01) (9, 3.88486600469585219297e-01) (10, 4.80535381151290019730e-01) (11, 4.06214824758587944586e-01) (12, 3.56732324840449255277e-01) (13, 3.66758914898975774133e-01) (14, -2.33496091210002643113e-01) (15, -6.37588181411055665571e-01) (16, 5.51372894282664449683e-01) (17, 6.38363527437797895203e-01) (18, 6.21007385119732746581e-01) (19, 1.24628932461267508125e-01) (20, 3.71916967655202129750e-02) (21, -2.01438204408620563646e-01) (22, -6.38518689173723369423e-02) (23, 1.05560304385738623623e+00) (24, 1.03525563600998338210e+00) (25, 8.62429223419781121329e-01) (26, -8.59283706238280431400e-01) (27, -2.23715163419786783328e-01) (28, 9.68205731646266887225e-01) (29, 4.37785219887542459416e-03) (30, 9.34580103184865174093e-01) (31, -7.25208882182883263212e-01) (32, 7.19256830975756411561e+00) (33, 8.45964150299151924628e+02) (34, 6.08973149190893082050e+02) (35, -1.43017473629167113369e-01) (36, 1.09862728778644669347e+00) (37, 2.31453853048448676688e-01) (38, -5.27109165939806320611e-02) (39, 5.79989487016210780723e-01) (40, -5.39694017813437121323e-02) (41, 1.34535160591222791027e+01) (42, 1.96551825553963177562e+00) (43, 2.10170235883562234180e-01) (0, 4.32136620956139749783e-01) (1, 4.85877560770643993071e-02) (2, -1.65550170147286575262e-02) (3, 3.88496907746924205473e-02) (4, 1.29089521089805536747e-01) (5, -1.19988116596177674111e+00) (6, 6.76812731061590504289e-03) (7, 3.54652747456727146513e-01) (8, -2.92408801041426857914e-01) (9, 4.42696619085737458343e-02) (10, 1.75050818667663199424e-01) (11, 1.12929789188123529814e-02) (12, 1.51360666636970009336e-01) (13, 2.44668223406955764876e-01) (14, -7.36072157462020815188e-01) (15, -1.59754405187634507257e+01) (16, 2.08072365856605934198e-01) (17, 1.90610089090542556001e-01) (18, 2.32181384815186714343e-03) (19, -5.95603345830766128799e-01) (20, -2.39410302329580576552e-01) (21, -8.94486134315487652069e-02) (22, -1.19839654142075521803e-01) (23, -6.13177797398353732206e+02) (24, 5.28162402405733644173e-01) (25, -8.94545209421216824808e+00) (26, -1.24378042452371673221e+00) (27, -2.57817513211535509488e-01) (28, -3.83021552307892199085e-01) (29, 3.78243868559516790984e-02) (30, -1.30601561176539954223e-01) (31, -2.06264630353288858089e+00) (32, 2.84285253688605266120e+00) (33, -1.50000000000000000000e+03) (34, -1.44801429861021944134e+01) (35, -5.70479422807881442203e-01) (36, 1.78433401976467009842e-01) (37, 6.93873866954134999041e-02) (38, -1.33955562361938473259e+03) (39, -9.65211223835790832482e-01) (40, -3.25618146623135062967e+00) (41, -1.36422049851046404001e+03) (42, -1.64332533220814042352e+02) (43, -2.34072416963286678016e-01) (0, 1.27597814151582227282e+01) (1, 4.53878597142206019477e-01) (2, 4.29881018372283818518e-01) (3, 4.07867793710933568274e-01) (4, 4.65380043508516194617e-01) (5, -2.20367359907020032850e+00) (6, -2.91153889536338628119e+00) (7, 1.29038791879695413645e-01) (8, -9.54102165004424307426e+00) (9, 5.48560344450653047943e-01) (10, 2.17903832914635636753e-01) (11, 4.09318520154476839235e-01) (12, 6.49899466178451179488e-01) (13, 2.08874550374423345600e-01) (14, -2.62103571732579565534e+00) (15, -2.07817938817725167411e+00) (16, -1.06675723612305652921e+01) (17, 1.47140125365701236737e-02) (18, 6.52755206207524113493e-02) (19, -1.86822855363611473045e+00) (20, -9.09979685892477618836e+00) (21, 3.70879010933545860684e-01) (22, 3.43988984803889119579e-01) (23, -4.14282553693694133301e+00) (24, -7.79882631672080339769e+00) (25, -2.05068315352509156213e+00) (26, -7.92025105821927510874e+00) (27, -9.78396493288568813718e-01) (28, 4.80489093280220558313e+00) (29, 1.43492753856495994569e+02) (30, 1.00517180916365287402e+01) (31, -7.74029514952238351100e+00) (32, 5.25930240220245703853e-01) (33, 5.36412729230087759191e-01) (34, -6.70388360860767917870e-01) (35, 1.15018095297103517538e+00) (36, -2.09774207426741821081e+00) (37, 1.75424285186802975112e-01) (38, -2.15163091746226342593e+00) (39, 3.14901277295028503289e+00) (40, -9.11667369855390208322e-01) (41, -6.10235864085079349195e+00) (42, -8.73025746037281180634e+00) (43, 4.06881530559384252399e+00) (0, 1.39788421815291101780e+01) (1, 3.83375013084606142133e-01) (2, 3.41383335949377031415e-01) (3, 4.00152394385532406140e-01) (4, 3.60886880965427370160e-01) (5, -3.19128064466654404185e+00) (6, -2.72637100239262109014e+00) (7, -1.38818550061489576208e+00) (8, -5.62970851387986304104e+00) (9, -8.37757896841824001299e-01) (10, -8.16953535591327800747e-02) (11, -2.44987635571167622350e-01) (12, -2.76073402585677474264e-01) (13, -1.41616742350668656236e+00) (14, -4.02031270721094813325e+00) (15, -2.54824651287676839928e+00) (16, -8.84778182206395591436e+00) (17, -1.23646683315758607047e-01) (18, -1.11529501049616772135e-01) (19, -4.63799466817502104021e+00) (20, -6.01783565716339285956e+00) (21, -3.12536355271294352676e+00) (22, -3.36259062624026450194e+00) (23, -1.58647317689878697422e+00) (24, -5.57078613855113147224e+00) (25, -2.71615622987664817600e+00) (26, -3.66814831178494316077e+00) (27, -1.59525791194459420907e+00) (28, -1.36800705583214310401e+00) (29, -5.38960055960057982105e+00) (30, -2.36041810261754925193e+00) (31, -5.44738910520040953145e+00) (32, -1.43906755616851911306e+00) (33, -4.21695479853362442668e+00) (34, -2.22990196213741853626e+00) (35, -3.71618333965995029100e-01) (36, -2.87287103400835031053e+00) (37, -2.80279851065499407969e-01) (38, -3.07284694664999857849e+00) (39, -6.00511045036908330808e-01) (40, -1.53167720547580632484e+00) (41, -3.69734893499396566341e+00) (42, -3.59842841702110627367e+00) (43, 4.38560028212738917119e+00) (44, -2.33577606915566893253e-01) (45, -2.01468700612956380658e-01) (46, -1.94511933506180262343e-01) (47, -2.43551326118309041657e-01) (48, -2.19686267699546911025e-01) (49, -1.10659919621579450055e-01) (50, 1.11233045366602834036e+00) (51, -1.26585659153264640242e-01) (52, -1.15039350577356175309e-01) (53, -8.22530843560789648450e-01) (54, 1.00537432576599683465e+00) 
