FANN_FLO_2.1
num_layers=3
learning_rate=0.700000
connection_rate=1.000000
network_type=0
learning_momentum=0.000000
training_algorithm=2
train_error_function=1
train_stop_function=1
cascade_output_change_fraction=0.010000
quickprop_decay=-0.000100
quickprop_mu=1.750000
rprop_increase_factor=1.200000
rprop_decrease_factor=0.500000
rprop_delta_min=0.000000
rprop_delta_max=50.000000
rprop_delta_zero=0.100000
cascade_output_stagnation_epochs=12
cascade_candidate_change_fraction=0.010000
cascade_candidate_stagnation_epochs=12
cascade_max_out_epochs=150
cascade_min_out_epochs=50
cascade_max_cand_epochs=150
cascade_min_cand_epochs=50
cascade_num_candidate_groups=2
bit_fail_limit=1.00000000000000005551e-01
cascade_candidate_limit=1.00000000000000000000e+03
cascade_weight_multiplier=4.00000000000000022204e-01
cascade_activation_functions_count=10
cascade_activation_functions=3 5 7 8 10 11 14 15 16 17 
cascade_activation_steepnesses_count=4
cascade_activation_steepnesses=2.50000000000000000000e-01 5.00000000000000000000e-01 7.50000000000000000000e-01 1.00000000000000000000e+00 
layer_sizes=42 11 2 
scale_included=0
neurons (num_inputs, activation_function, activation_steepness)=(0, 0, 0.00000000000000000000e+00) (0, 0, 0.00000000000000000000e+00) (0, 0, 0.00000000000000000000e+00) (0, 0, 0.00000000000000000000e+00) (0, 0, 0.00000000000000000000e+00) (0, 0, 0.00000000000000000000e+00) (0, 0, 0.00000000000000000000e+00) (0, 0, 0.00000000000000000000e+00) (0, 0, 0.00000000000000000000e+00) (0, 0, 0.00000000000000000000e+00) (0, 0, 0.00000000000000000000e+00) (0, 0, 0.00000000000000000000e+00) (0, 0, 0.00000000000000000000e+00) (0, 0, 0.00000000000000000000e+00) (0, 0, 0.00000000000000000000e+00) (0, 0, 0.00000000000000000000e+00) (0, 0, 0.00000000000000000000e+00) (0, 0, 0.00000000000000000000e+00) (0, 0, 0.00000000000000000000e+00) (0, 0, 0.00000000000000000000e+00) (0, 0, 0.00000000000000000000e+00) (0, 0, 0.00000000000000000000e+00) (0, 0, 0.00000000000000000000e+00) (0, 0, 0.00000000000000000000e+00) (0, 0, 0.00000000000000000000e+00) (0, 0, 0.00000000000000000000e+00) (0, 0, 0.00000000000000000000e+00) (0, 0, 0.00000000000000000000e+00) (0, 0, 0.00000000000000000000e+00) (0, 0, 0.00000000000000000000e+00) (0, 0, 0.00000000000000000000e+00) (0, 0, 0.00000000000000000000e+00) (0, 0, 0.00000000000000000000e+00) (0, 0, 0.00000000000000000000e+00) (0, 0, 0.00000000000000000000e+00) (0, 0, 0.00000000000000000000e+00) (0, 0, 0.00000000000000000000e+00) (0, 0, 0.00000000000000000000e+00) (0, 0, 0.00000000000000000000e+00) (0, 0, 0.00000000000000000000e+00) (0, 0, 0.00000000000000000000e+00) (0, 0, 0.00000000000000000000e+00) (42, 6, 5.00000000000000000000e-01) (42, 6, 5.00000000000000000000e-01) (42, 6, 5.00000000000000000000e-01) (42, 6, 5.00000000000000000000e-01) (42, 6, 5.00000000000000000000e-01) (42, 6, 5.00000000000000000000e-01) (42, 6, 5.00000000000000000000e-01) (42, 6, 5.00000000000000000000e-01) (42, 6, 5.00000000000000000000e-01) (42, 6, 5.00000000000000000000e-01) (0, 6, 0.00000000000000000000e+00) (11, 6, 5.00000000000000000000e-01) (0, 6, 0.00000000000000000000e+00) 
connections (connected_to_neuron, weight)=(0, 1.67075352707481741277e+01) (1, 2.69142171172066624329e-01) (2, 2.39780364362164322145e-01) (3, 2.29301197258396871614e-01) (4, 3.79446087209149296449e-01) (5, -6.37008784312166342900e-01) (6, -1.56182996657916262073e+00) (7, 6.00181619038715252756e-01) (8, 3.40992420439059418236e-01) (9, -8.50975775500242948013e-01) (10, 1.72272583883803931393e+00) (11, -2.25888490306085043535e-01) (12, -7.40108692252235744746e-01) (13, -7.19906411957897729437e-01) (14, 1.08459610271475259680e+00) (15, -1.20763843416172689249e-01) (16, 1.90127099366724072738e+00) (17, -4.08119109468606910962e-01) (18, -5.20918392637911509269e+00) (19, -7.35834868323462210071e+00) (20, 2.85519623084432055293e+02) (21, 6.39637339782644032127e-01) (22, -3.99718637864826709105e+00) (23, -2.41983458446500243610e+00) (24, 1.79662601966115853536e+00) (25, -1.04771957258215517306e-01) (26, 4.43278822212680556625e-01) (27, -8.57520258295708659446e-01) (28, -1.05749658970887794318e+00) (29, -4.56756792233548036819e-01) (30, -4.81134073599874323435e+00) (31, -2.94883840534724095406e+00) (32, -1.15272702762085094141e-01) (33, -5.32054160469122641719e-02) (34, 2.05483206258636386110e+00) (35, -1.70529001641385868915e+00) (36, 5.43863540992011840203e-01) (37, 1.65854600080195346834e+00) (38, 1.03029908962360639002e+00) (39, -3.56578428603511055073e+00) (40, -1.78794748941665276876e-01) (41, 1.68051372366749007803e+00) (0, 5.97200043735867147632e+00) (1, 2.24642257421754254487e-01) (2, 2.88729048549674571778e-01) (3, 3.27004819392703593994e-01) (4, 2.00786329090140713838e-01) (5, -4.08401052272857445491e-01) (6, -1.26402981183506124552e+00) (7, 6.57010025966157651389e-01) (8, 5.88514753292122994033e-01) (9, 1.35583532052039679172e+00) (10, -1.05033511757857994651e-01) (11, -4.41194093168019996209e-01) (12, -9.97399291816454365289e+01) (13, -3.08998059055805240902e-01) (14, -1.06085902164844014806e+00) (15, -1.95200546152519738285e+00) (16, -2.57959116973317259536e+00) (17, -5.01293134936302031690e+00) (18, -5.78387029707236965947e+00) (19, -2.09221431723652884216e+00) (20, -6.70986026661989809483e-01) (21, -8.56030972471113205113e-02) (22, -1.33298202708039980280e+03) (23, 6.56042538387732743210e-01) (24, -2.05038980330015796483e+00) (25, -2.13651949420314002381e+00) (26, 2.49446709589476833813e+00) (27, -7.10180822836299739720e+02) (28, 1.35565922971409191788e+00) (29, -1.78881674232392029467e+00) (30, -4.56827398643100490716e+00) (31, 2.03223016221518698599e-01) (32, -2.10855990602963245806e+01) (33, -2.57147846733376717054e+00) (34, -1.83944090143946831217e-01) (35, -4.77483929690517783229e+00) (36, -5.94800767773367433655e-01) (37, -9.94926863372983802947e+01) (38, 2.60171702646890656840e-01) (39, -2.16418506794848841679e+00) (40, -2.29094269513549075867e+00) (41, 2.05272316611627703153e+00) (0, 4.72668725809661705028e+00) (1, 2.16613127946501421439e-01) (2, 2.17020041405802416312e-01) (3, 2.31143738239651425070e-01) (4, 2.52814202665930687353e-01) (5, 2.65988314944781789606e+00) (6, 1.83447009958798562534e-01) (7, 1.44753716111253294407e+00) (8, 1.25114824444905292644e+00) (9, -4.26532543155923615785e+00) (10, 2.87745143697317828924e+00) (11, 7.89788350839322084163e-01) (12, 1.39533730343900863602e+00) (13, 8.53309522502006867484e-01) (14, 1.58379069444381292975e+00) (15, 1.28903348854863852857e+00) (16, 5.54498539639097232090e-01) (17, 5.83351505430582673029e-01) (18, 2.40231236049154750489e+00) (19, -5.41750417675392004213e+00) (20, 2.89638217759899703196e+02) (21, 1.22544003951269075969e+00) (22, -2.68238834518307489585e-01) (23, -4.90414670651749540209e-01) (24, 1.21748748871726752974e+00) (25, 1.56223775485831573029e+00) (26, 2.67256776757934300104e-01) (27, 1.47450423319876233741e+00) (28, 3.74605203388316876367e-01) (29, 1.80470948155684896008e+00) (30, -3.43243314453211478821e+00) (31, 4.77585462636443836004e+00) (32, 6.65338027600738568523e-01) (33, 8.15860657120700216716e-01) (34, 2.05288187292532287032e+00) (35, -2.03150519951523689244e+00) (36, 1.27301054961264026311e+00) (37, 2.45115703475694912683e+00) (38, 1.28367037176318898872e+00) (39, -3.31118479096791462624e+00) (40, 1.96096287988406325908e+00) (41, 8.60104239305289341999e-01) (0, -2.66709895893617350282e+01) (1, -4.53309417689407440077e-02) (2, -3.62619162524307342421e-02) (3, -6.09764755690658105669e-02) (4, -1.02041773589905543362e-01) (5, 4.30913902006035798298e-01) (6, 8.48086269840177764401e-01) (7, 1.67646538870058536830e+00) (8, 2.91339171315211808988e+00) (9, -1.17212823512750044519e-01) (10, -6.63898490448057709834e-02) (11, 8.37955136982355464070e-01) (12, 1.11807463900434012061e+00) (13, 1.77093504398285439549e+00) (14, 2.86736944960168001206e-02) (15, 1.50068763620215173127e+00) (16, 1.01783944681068039273e+00) (17, 1.68726814412555681244e+00) (18, 2.92830063398986650824e+00) (19, 3.07001919970617320743e+00) (20, -1.61711263434316493415e-01) (21, 5.08340396974055613866e-02) (22, -6.99203822645029893224e-01) (23, 1.55140115719195037514e+00) (24, 2.68568843613717200824e+00) (25, 1.90265979046004329867e+00) (26, 7.17241993301294011864e-01) (27, 2.45077857761115325275e+00) (28, -1.25992081159279667446e+00) (29, 9.73214317734542477822e-01) (30, 1.04187275148944324954e+00) (31, -1.34733342051898952185e+00) (32, 1.65434853348500254810e+00) (33, 8.49995276411816469420e+00) (34, -2.71060301631837197167e-01) (35, 1.99942442092886785154e+00) (36, -1.90792362793173048141e-01) (37, 1.35746926603648931930e+00) (38, 2.16534763477777315865e-02) (39, 6.16172976106458580858e+00) (40, 1.29304825783730570343e+00) (41, -6.64451772419987429785e-01) (0, 8.78512825701357691344e+00) (1, 2.63946032773265892857e-01) (2, 2.06262199829825965125e-01) (3, 2.16119295607814398963e-01) (4, 2.29297405730495118537e-01) (5, 1.07630705796649239758e+00) (6, 4.74392103777602436310e-01) (7, 6.86240558133978550970e-01) (8, 5.21957724813754020410e-01) (9, -1.14846773989273809313e+00) (10, 2.77340145163106077675e+00) (11, 3.93158059847170116008e-01) (12, 4.51410884262222034113e-01) (13, -6.68407080191891544985e-01) (14, 1.22835936281927948777e+00) (15, 2.92330529256150939421e-01) (16, -1.90174845857889152079e+00) (17, -1.28654573588541737417e-01) (18, 1.53319029107232762676e+00) (19, -6.43447000739730601282e+00) (20, 2.87368136967465318321e+02) (21, 7.24419363543303607145e-01) (22, -9.88670524011304285850e-01) (23, -7.73592800423976711954e-01) (24, 1.32069274924482771283e+00) (25, 3.60447352593262076992e-02) (26, 1.94156801748098739591e-01) (27, 9.33275276711645118688e-01) (28, -2.86289932053855755711e+00) (29, 1.72242320414771032944e+00) (30, -4.78310122535245874076e+00) (31, 3.83046774108694663141e+01) (32, 2.82672823047147026010e-01) (33, 5.60552151719162283783e-01) (34, 1.96026594833951661734e+00) (35, -1.96334824926799655920e+00) (36, 6.92305440559854212701e-01) (37, 1.60213727031734354256e+00) (38, 8.28952756224209053038e-01) (39, -4.12556460960475135380e+00) (40, 2.19301591386145711127e+00) (41, 1.60655097297927906830e+00) (0, -2.06839676404527637033e+01) (1, -2.57726264451834038982e-02) (2, -8.08593285535665895480e-02) (3, -2.59401751016470269451e-02) (4, -8.72669247244688417453e-02) (5, 3.74320183978581577655e-01) (6, 4.12122608266692447287e-01) (7, 1.28719130615662979977e+01) (8, 1.59676433691436492346e+00) (9, -2.77417601018709936156e-01) (10, 2.33379219442025193088e-02) (11, 7.75907105057448531760e-01) (12, 2.25155363044085099489e+00) (13, 1.32241661538911836615e+00) (14, -7.61531274076043818155e-02) (15, 9.71126818782708012279e-01) (16, 1.34414214866702508289e+00) (17, 3.76533816739267646057e+00) (18, 3.36709201542977254462e+00) (19, 1.44396128049978544894e+00) (20, 4.25827511955060633575e-01) (21, 2.18755470739642104983e-01) (22, -1.34122033728245215745e-01) (23, 9.21559943392109115479e-01) (24, 2.08809549988670095644e+00) (25, 9.31543404708126132618e-01) (26, -6.66748180216155894584e-01) (27, 2.31517634564423380183e+00) (28, -1.01199145597760198356e+00) (29, 3.79109419343781561818e-01) (30, 1.48442971602641127227e+00) (31, -7.55708016179567620974e-01) (32, 2.33857851811835804057e+00) (33, 2.60215373954276385504e+00) (34, -2.42027360984539141597e-02) (35, 2.20918017709565628337e+00) (36, -7.17147594363501533765e-02) (37, 2.14759314454111649439e+00) (38, -8.57628110588936135028e-03) (39, 4.01491082545436661633e+00) (40, 7.28095773437747766366e+01) (41, -5.30821416935634560197e-01) (0, 3.68005422848330567831e+01) (1, 8.41742964591601361413e-01) (2, 8.14126612748721112389e-01) (3, 8.37588848676302899499e-01) (4, 7.10240753497698884544e-01) (5, 1.93430567873489955844e+00) (6, 9.69350815462064474559e+01) (7, -2.90362295380674506617e+00) (8, -3.89118975992725646407e+00) (9, 3.16405009970999229196e+00) (10, -4.79138062745325887803e-01) (11, 1.42755433834771724833e+03) (12, 9.56041091119204907045e+02) (13, -1.94869574249564458945e+00) (14, -2.29567789550505629848e+00) (15, 8.54027846442198601551e+00) (16, -1.46538495818208591714e+00) (17, -7.36948901168063574829e+00) (18, -6.97176122260173247724e+00) (19, 6.03140324897542257077e+00) (20, -8.61364385735819859669e-01) (21, 6.24172621034066010814e-01) (22, 9.10036090213118768588e+02) (23, -9.15443903225507615851e-01) (24, 5.60080910695554834433e+00) (25, 4.72644737314769145087e+02) (26, 1.18754503930216196750e+03) (27, 9.58044574820444154284e+02) (28, 7.20625422940101900693e-01) (29, 8.29282594712027787409e+00) (30, 9.67305091600493938131e+00) (31, 2.89565191210078776152e+00) (32, -4.91710031674855674311e+00) (33, -3.82685676380577000089e+00) (34, -3.17840251680794105837e-01) (35, -6.27798961179489811713e+00) (36, 1.50000000000000000000e+03) (37, -1.77042088473502161605e+01) (38, 9.69786447646236098308e+01) (39, 6.91297173884796167798e-01) (40, -5.62000838882983178024e+00) (41, 2.99246937189104222909e-01) (0, 4.87878857931280995874e-01) (1, 3.22493043137797030795e-02) (2, 6.71466317368753923267e-02) (3, -3.20846188472501334110e-02) (4, 1.35198559952982577670e-02) (5, -3.82297091457157751232e-03) (6, -3.38483782170085789609e-01) (7, 4.31697626003460257493e+01) (8, 9.47628151550271468295e+02) (9, -1.55722376643672388852e-01) (10, -5.98226836251950083723e-02) (11, 1.18967434092372856269e-01) (12, 1.18717208623308761162e+03) (13, -1.27318616224034930617e+00) (14, -7.91938049580176994802e-02) (15, 2.51432153905220112655e-01) (16, 2.95249608470169067065e-01) (17, 9.10848464070467933595e-01) (18, -6.35452702862939339257e-02) (19, -3.41529138923335529032e-01) (20, -7.24148168509220063749e-02) (21, 1.60683524371583869028e-02) (22, 1.14514849227398622133e+03) (23, 4.04963718012679885216e-01) (24, -5.42190210872844802203e-01) (25, 1.66769330223953404779e-02) (26, -2.06067553607738318533e-01) (27, 9.54442281129596949540e+02) (28, -3.11435917905043158083e-01) (29, 2.11698543567585523162e-01) (30, -1.00016287316632937476e-01) (31, -3.29940524969938087096e-01) (32, 1.50000000000000000000e+03) (33, 7.07378021100271212163e+02) (34, -1.25066670411422414810e-01) (35, 1.65122534436439813987e+01) (36, -1.57000734278908815611e-01) (37, 9.69276197659837862375e+02) (38, -1.47522157868061554176e-01) (39, -7.03752329401298993616e+02) (40, 1.72979782731985287647e+00) (41, -8.98615459373437730495e-02) (0, -1.41988857996865753819e+01) (1, -7.60975361125991543038e-03) (2, -4.06694102312855354509e-02) (3, -1.18464014234714948293e-01) (4, -5.28748545076184253699e-02) (5, 4.20361313457983720721e-01) (6, 4.34051293735228771453e-01) (7, 1.65929608717827048459e+00) (8, 3.24431325763282796260e+00) (9, -1.81638463705563801831e-01) (10, -8.10817281274445605943e-02) (11, 7.78635947805150330225e-01) (12, 2.16990398530478056927e+00) (13, 1.06341383122201404987e+00) (14, 1.25596952186449156014e-02) (15, 6.18272930008681886882e-01) (16, 1.13663775541317968454e+00) (17, 3.26602852294745815698e+00) (18, 4.05343545962504414604e+00) (19, 1.09373384292620290381e+00) (20, 5.33741028136058837106e-01) (21, 2.88811029046965872524e-01) (22, 2.24050797468229445641e+00) (23, 5.35959000568945964638e-01) (24, 1.39074557063561021764e+00) (25, 1.55382828673162642907e+00) (26, -8.65620419094584536701e-01) (27, 2.52136409303997011122e+00) (28, -9.66485473085067381405e-01) (29, 3.75365649587435956658e-01) (30, 1.99415341607105434107e+00) (31, -5.36701871613668002325e-01) (32, 2.40287932287937033848e+00) (33, 2.09085194573267907359e+00) (34, 1.84397006018107434411e-01) (35, 2.69282399267654826147e+00) (36, 4.83051890708543041342e-01) (37, 2.34815388811480652009e+00) (38, 1.37290547974455479086e+00) (39, 2.51817624454957078584e+00) (40, 2.41755049894641782515e+00) (41, -9.72330144156270503863e-01) (0, 1.36835697782583256554e+01) (1, 4.03736179743137080234e-01) (2, 5.05513003144587691473e-01) (3, 5.40222099099482377937e-01) (4, 5.24209698710764948615e-01) (5, -3.15735869533510893348e+00) (6, -7.83579953823024477622e-01) (7, -1.52439513354060474093e+00) (8, -2.23446020230289477126e+00) (9, -1.07786561183150664256e+00) (10, -8.64961813406049662145e-02) (11, 1.42789258818171174426e+03) (12, 9.56143766080294994936e+02) (13, -1.92495989823648433470e-01) (14, 4.41431097285440188216e+00) (15, -1.59443275226917924314e+00) (16, -3.54190715155323454510e+00) (17, 5.69348743001943624620e+00) (18, 4.59594949608634184557e+00) (19, 6.01602662934110288262e+00) (20, -5.58965011843261305735e-01) (21, 3.91726452257189439177e-01) (22, 9.10229914690612417871e+02) (23, -2.91880554159705640771e+00) (24, -1.14313578245809543965e+00) (25, 8.50147052196934205348e-01) (26, -7.86206249248161181953e-01) (27, 9.58095334661200809023e+02) (28, 1.04697286002036937802e+00) (29, -8.83552830388823373653e-01) (30, -1.01315620379809967488e+00) (31, 3.44439495750541058161e-01) (32, 2.06751375181056545882e-01) (33, -1.47624448722708256909e+00) (34, -7.34383152733748267860e-02) (35, -8.89090163966394286810e-01) (36, 8.78901079546147823152e-01) (37, -1.46108035497809041203e+00) (38, 8.24871708825500205009e-01) (39, 1.85397592101148633859e+00) (40, -2.54580050805149049609e+00) (41, -5.18550112753759062656e-01) (42, -6.02450821899650351687e-02) (43, -5.86853714172502982649e-01) (44, -6.06638875939506938550e-02) (45, 5.28277636897654612191e-01) (46, -5.31012352275882643093e-02) (47, 4.33596350411734776653e-01) (48, 7.69802669934611327740e-01) (49, 1.78465570244970367364e-01) (50, 4.19437092595669913653e-01) (51, 6.89435569663370051430e-01) (52, 6.30287657298237435910e-01) 
