FANN_FLO_2.1
num_layers=3
learning_rate=0.700000
connection_rate=1.000000
network_type=0
learning_momentum=0.000000
training_algorithm=2
train_error_function=1
train_stop_function=1
cascade_output_change_fraction=0.010000
quickprop_decay=-0.000100
quickprop_mu=1.750000
rprop_increase_factor=1.200000
rprop_decrease_factor=0.500000
rprop_delta_min=0.000000
rprop_delta_max=50.000000
rprop_delta_zero=0.100000
cascade_output_stagnation_epochs=12
cascade_candidate_change_fraction=0.010000
cascade_candidate_stagnation_epochs=12
cascade_max_out_epochs=150
cascade_min_out_epochs=50
cascade_max_cand_epochs=150
cascade_min_cand_epochs=50
cascade_num_candidate_groups=2
bit_fail_limit=1.00000000000000005551e-01
cascade_candidate_limit=1.00000000000000000000e+03
cascade_weight_multiplier=4.00000000000000022204e-01
cascade_activation_functions_count=10
cascade_activation_functions=3 5 7 8 10 11 14 15 16 17 
cascade_activation_steepnesses_count=4
cascade_activation_steepnesses=2.50000000000000000000e-01 5.00000000000000000000e-01 7.50000000000000000000e-01 1.00000000000000000000e+00 
layer_sizes=24 4 2 
scale_included=0
neurons (num_inputs, activation_function, activation_steepness)=(0, 0, 0.00000000000000000000e+00) (0, 0, 0.00000000000000000000e+00) (0, 0, 0.00000000000000000000e+00) (0, 0, 0.00000000000000000000e+00) (0, 0, 0.00000000000000000000e+00) (0, 0, 0.00000000000000000000e+00) (0, 0, 0.00000000000000000000e+00) (0, 0, 0.00000000000000000000e+00) (0, 0, 0.00000000000000000000e+00) (0, 0, 0.00000000000000000000e+00) (0, 0, 0.00000000000000000000e+00) (0, 0, 0.00000000000000000000e+00) (0, 0, 0.00000000000000000000e+00) (0, 0, 0.00000000000000000000e+00) (0, 0, 0.00000000000000000000e+00) (0, 0, 0.00000000000000000000e+00) (0, 0, 0.00000000000000000000e+00) (0, 0, 0.00000000000000000000e+00) (0, 0, 0.00000000000000000000e+00) (0, 0, 0.00000000000000000000e+00) (0, 0, 0.00000000000000000000e+00) (0, 0, 0.00000000000000000000e+00) (0, 0, 0.00000000000000000000e+00) (0, 0, 0.00000000000000000000e+00) (24, 6, 5.00000000000000000000e-01) (24, 6, 5.00000000000000000000e-01) (24, 6, 5.00000000000000000000e-01) (0, 6, 0.00000000000000000000e+00) (4, 4, 5.00000000000000000000e-01) (0, 4, 0.00000000000000000000e+00) 
connections (connected_to_neuron, weight)=(0, 1.37299255360665561909e+00) (1, 7.21610119981441187065e+01) (2, -3.94722468185230379589e-01) (3, 2.77627498890998047898e+00) (4, 2.65434283538506576861e+00) (5, -2.13505122533454855249e-01) (6, 3.89948173831591193839e-01) (7, -1.54194706660688574118e+00) (8, -2.71266105505944876697e-01) (9, 1.00662151394637744417e+00) (10, 1.22449255703129464279e-01) (11, -2.18089165834932474652e+00) (12, 6.63518281818128663474e-01) (13, 1.73941059198907144179e+00) (14, -2.15996337384544156990e+00) (15, -2.06414047194521110828e-01) (16, -9.46444367323083096677e-02) (17, -1.71886828873174337673e+01) (18, -4.01737611073242462112e+01) (19, 5.59736516433377226387e-02) (20, -1.18468414113912801078e+00) (21, -8.32057717122543616384e-01) (22, -1.09566842475073000784e+00) (23, 7.06707777534449133050e-01) (0, -1.40654115924239442315e+00) (1, 5.52944571349305959984e+01) (2, 4.07404179626004614434e-01) (3, 6.39846369404278192405e+01) (4, -1.71836328058138948505e-01) (5, 1.55236283334184044236e-01) (6, 6.56302216364811341620e-02) (7, 1.32552038030425567428e+00) (8, 1.49294823405010812500e+00) (9, -6.18314950036189057286e-03) (10, 3.26414998202969042218e-02) (11, 1.52003823406682014863e+00) (12, 1.35406725398188293452e-01) (13, -1.11762138611254148446e-02) (14, 1.68355943711830113863e+00) (15, 4.16921986608691175213e-01) (16, 3.80370622842497896343e-01) (17, 1.40279065966170257695e+01) (18, 1.40368161350052780278e+01) (19, 1.81430717975129107700e-01) (20, 1.04108571983192410570e+00) (21, 1.07550855219349927872e+00) (22, 1.12895476610612810475e+00) (23, -1.01673089195025476150e-01) (0, -1.20415718763854098228e+01) (1, 5.54972768425515937452e+02) (2, 1.62028627876008635145e-01) (3, 5.05207222106839282105e+00) (4, -2.10833028385091481027e+00) (5, 1.50144645203733562155e+00) (6, -3.65146257061865542326e-01) (7, 3.35706347131752025348e+00) (8, 2.76612647221533691777e+00) (9, -4.87142786324027909917e-01) (10, 1.62413514080150234165e+00) (11, 1.86249630076876870888e+00) (12, -9.89459734778645322306e-02) (13, -3.19438186022637893302e+00) (14, 2.55435746975637689715e+00) (15, 1.22892282121496632108e+00) (16, 8.55463906221138659092e-01) (17, 2.00916797472920372059e+00) (18, 6.31693589262101351522e+00) (19, -4.97606024501850319197e-01) (20, 5.09327383283146328807e+00) (21, 2.92713727570158832592e+00) (22, 4.12606283186462974300e+00) (23, -2.30945515761439246205e+00) (24, -3.43075008109684054247e+00) (25, 4.81296983143598644528e-01) (26, 1.39535359754490304596e+01) (27, -2.92242512882552851750e+00) 
