FANN_FLO_2.1
num_layers=3
learning_rate=0.700000
connection_rate=1.000000
network_type=0
learning_momentum=0.000000
training_algorithm=2
train_error_function=1
train_stop_function=1
cascade_output_change_fraction=0.010000
quickprop_decay=-0.000100
quickprop_mu=1.750000
rprop_increase_factor=1.200000
rprop_decrease_factor=0.500000
rprop_delta_min=0.000000
rprop_delta_max=50.000000
rprop_delta_zero=0.100000
cascade_output_stagnation_epochs=12
cascade_candidate_change_fraction=0.010000
cascade_candidate_stagnation_epochs=12
cascade_max_out_epochs=150
cascade_min_out_epochs=50
cascade_max_cand_epochs=150
cascade_min_cand_epochs=50
cascade_num_candidate_groups=2
bit_fail_limit=1.00000000000000005551e-01
cascade_candidate_limit=1.00000000000000000000e+03
cascade_weight_multiplier=4.00000000000000022204e-01
cascade_activation_functions_count=10
cascade_activation_functions=3 5 7 8 10 11 14 15 16 17 
cascade_activation_steepnesses_count=4
cascade_activation_steepnesses=2.50000000000000000000e-01 5.00000000000000000000e-01 7.50000000000000000000e-01 1.00000000000000000000e+00 
layer_sizes=11 4 2 
scale_included=0
neurons (num_inputs, activation_function, activation_steepness)=(0, 0, 0.00000000000000000000e+00) (0, 0, 0.00000000000000000000e+00) (0, 0, 0.00000000000000000000e+00) (0, 0, 0.00000000000000000000e+00) (0, 0, 0.00000000000000000000e+00) (0, 0, 0.00000000000000000000e+00) (0, 0, 0.00000000000000000000e+00) (0, 0, 0.00000000000000000000e+00) (0, 0, 0.00000000000000000000e+00) (0, 0, 0.00000000000000000000e+00) (0, 0, 0.00000000000000000000e+00) (11, 6, 5.00000000000000000000e-01) (11, 6, 5.00000000000000000000e-01) (11, 6, 5.00000000000000000000e-01) (0, 6, 0.00000000000000000000e+00) (4, 4, 5.00000000000000000000e-01) (0, 4, 0.00000000000000000000e+00) 
connections (connected_to_neuron, weight)=(0, -5.46856939496930261058e-01) (1, 1.96993059487661348328e+01) (2, -2.37034474085155455469e+00) (3, -2.00972356156790503690e+01) (4, -5.81034344653723833218e-01) (5, -4.55926642858128250424e+00) (6, -1.19046439497111133932e+00) (7, 1.95053475483385447831e+01) (8, -1.78924726487799312658e+00) (9, 2.14068947585283986257e+01) (10, -1.55595689588507490875e+00) (0, -2.10854874230785371836e+00) (1, 3.27574643039036161873e-01) (2, 4.01410799089118341954e+00) (3, 1.27408446859364978820e+01) (4, 5.50884028823667160069e-01) (5, 2.26764419132185635064e+00) (6, -5.90887799670854807488e-01) (7, 3.90118861117631721136e-01) (8, 3.81509651315668774085e-01) (9, 6.75732358596836224507e+00) (10, -4.39587610492876113000e+00) (0, -2.32811071744126385497e+00) (1, 9.26330890610188584233e-01) (2, -2.55601923986583257076e+00) (3, 1.35727988488804385270e+01) (4, -3.65654536557230736005e-01) (5, 6.73608946097779526241e+00) (6, -1.18750608010948055515e-01) (7, -1.00996894410986648438e+00) (8, 7.04371549107654537636e-01) (9, 6.16560948801983199630e-01) (10, -3.76847610313745873256e+00) (11, 4.02848701041839252213e+00) (12, 1.86228394979449496383e+00) (13, 3.78801307528689434889e+00) (14, -4.70359064721787945018e+00) 
