FANN_FLO_2.1
num_layers=3
learning_rate=0.700000
connection_rate=1.000000
network_type=0
learning_momentum=0.000000
training_algorithm=2
train_error_function=1
train_stop_function=1
cascade_output_change_fraction=0.010000
quickprop_decay=-0.000100
quickprop_mu=1.750000
rprop_increase_factor=1.200000
rprop_decrease_factor=0.500000
rprop_delta_min=0.000000
rprop_delta_max=50.000000
rprop_delta_zero=0.100000
cascade_output_stagnation_epochs=12
cascade_candidate_change_fraction=0.010000
cascade_candidate_stagnation_epochs=12
cascade_max_out_epochs=150
cascade_min_out_epochs=50
cascade_max_cand_epochs=150
cascade_min_cand_epochs=50
cascade_num_candidate_groups=2
bit_fail_limit=1.00000000000000005551e-01
cascade_candidate_limit=1.00000000000000000000e+03
cascade_weight_multiplier=4.00000000000000022204e-01
cascade_activation_functions_count=10
cascade_activation_functions=3 5 7 8 10 11 14 15 16 17 
cascade_activation_steepnesses_count=4
cascade_activation_steepnesses=2.50000000000000000000e-01 5.00000000000000000000e-01 7.50000000000000000000e-01 1.00000000000000000000e+00 
layer_sizes=16 11 2 
scale_included=0
neurons (num_inputs, activation_function, activation_steepness)=(0, 0, 0.00000000000000000000e+00) (0, 0, 0.00000000000000000000e+00) (0, 0, 0.00000000000000000000e+00) (0, 0, 0.00000000000000000000e+00) (0, 0, 0.00000000000000000000e+00) (0, 0, 0.00000000000000000000e+00) (0, 0, 0.00000000000000000000e+00) (0, 0, 0.00000000000000000000e+00) (0, 0, 0.00000000000000000000e+00) (0, 0, 0.00000000000000000000e+00) (0, 0, 0.00000000000000000000e+00) (0, 0, 0.00000000000000000000e+00) (0, 0, 0.00000000000000000000e+00) (0, 0, 0.00000000000000000000e+00) (0, 0, 0.00000000000000000000e+00) (0, 0, 0.00000000000000000000e+00) (16, 6, 5.00000000000000000000e-01) (16, 6, 5.00000000000000000000e-01) (16, 6, 5.00000000000000000000e-01) (16, 6, 5.00000000000000000000e-01) (16, 6, 5.00000000000000000000e-01) (16, 6, 5.00000000000000000000e-01) (16, 6, 5.00000000000000000000e-01) (16, 6, 5.00000000000000000000e-01) (16, 6, 5.00000000000000000000e-01) (16, 6, 5.00000000000000000000e-01) (0, 6, 0.00000000000000000000e+00) (11, 6, 5.00000000000000000000e-01) (0, 6, 0.00000000000000000000e+00) 
connections (connected_to_neuron, weight)=(0, -9.69026587303441289123e+00) (1, -2.80844774541465613815e-01) (2, -3.30525141653625342819e-01) (3, -3.77579730448333650283e-01) (4, -3.19714438614456086807e-01) (5, -8.58588363907289708887e-02) (6, 7.03522314048680041942e-01) (7, 1.84282876136701828651e-01) (8, 3.06848622555606187490e+00) (9, -2.50612938796409334685e-01) (10, -9.96811023158402198519e-01) (11, 7.25498870875498447219e+00) (12, -2.82348690861440365651e+00) (13, 1.54877109213607394578e-01) (14, -1.51649254701459712535e+00) (15, -5.39420771096334350503e-01) (0, 5.10722088312682931388e+00) (1, 2.15209608932053181318e-01) (2, 3.02716290612732641385e-01) (3, 3.24280684848343658810e-01) (4, 3.09471925755058940855e-01) (5, 1.25552133851996705616e-01) (6, -4.11039964226466325581e-01) (7, -6.11244043371117262708e-01) (8, 1.50000000000000000000e+03) (9, 9.29809159184865783795e-04) (10, 2.75073726272621443822e-01) (11, -4.14994213043221460424e+00) (12, 9.47342753360592304546e+00) (13, -9.17289615763032251117e-02) (14, 8.05504577829344725615e+00) (15, 1.97427872803057985474e-01) (0, 1.07298321251733497217e-01) (1, 5.79534312997875833418e-02) (2, 9.08970674787580035225e-02) (3, 5.48244407688198709394e-02) (4, 2.33955047122102743895e-01) (5, 6.41640379556636941683e-02) (6, 1.90945082737460775091e-01) (7, 1.62348907645442741554e-01) (8, -6.88707839820546130483e+00) (9, 8.27586562569721101434e-02) (10, 1.26576186999037831882e-01) (11, 1.29754660291986823495e+02) (12, 4.91574480675296521248e-01) (13, 2.24776949915417495474e-01) (14, 8.01634711925561793677e-01) (15, 2.24899708070795345538e-01) (0, -1.88743600466949388306e+01) (1, -1.88758597761607832544e-01) (2, -8.66177017392880249647e-02) (3, -1.07319006345333971264e-03) (4, -1.66546569258189863794e-01) (5, 1.04813203383312805728e-01) (6, -1.72067278050775027132e-02) (7, -2.32887784834832842207e-02) (8, -7.95580298573088651182e-01) (9, -1.91183848960868985056e-01) (10, -3.15597087133998532860e-01) (11, 8.83704754429966321538e+00) (12, -2.69263854347470266148e+00) (13, 2.77303604455544416840e-01) (14, -2.73355905674304455744e+00) (15, -6.85555846209504826660e-01) (0, 9.04033991468621600518e+00) (1, 1.41434118551352172588e+00) (2, 1.43263747197725921367e+00) (3, 1.46193097186424880718e+00) (4, 1.50266852629521041607e+00) (5, 4.34380162578170525567e-01) (6, 8.90364767346831786909e-01) (7, 4.42634679562672606057e-01) (8, 1.50000000000000000000e+03) (9, 3.62997806345332740818e-01) (10, 6.14452217364609865058e-01) (11, -8.84542256581647201585e+00) (12, 1.53318343359341979770e+00) (13, 2.72298804141973216364e-01) (14, 9.75236072636026918303e+00) (15, 1.07787746266581740961e+00) (0, 5.70425919366208944439e+00) (1, 7.91562305433359036932e-01) (2, 6.48459667009916196356e-01) (3, 8.15630303365793118964e-01) (4, 7.87972272975053678046e-01) (5, 1.13657188269125142277e+00) (6, -1.62431846283630187955e+00) (7, 1.38982424445932672974e-01) (8, 1.50000000000000000000e+03) (9, 2.55684562985200147800e-01) (10, 8.63142781471037512375e-01) (11, -7.13460259861604129128e+00) (12, 8.99095172401575659649e+00) (13, -1.88554269852808076280e+00) (14, 8.90428675844326278366e+00) (15, 2.26093128943436999512e-01) (0, 1.10900636177494504864e+00) (1, 1.81680910726506050779e-01) (2, 2.85348184843976060421e-01) (3, 2.10043043335396639737e-01) (4, 1.44231170853096779538e-01) (5, 1.10816839864490601641e+00) (6, 6.65838140868695305130e-01) (7, 6.96168669563371866893e-01) (8, 3.34223759655536811763e+00) (9, 5.47443107758363356474e-01) (10, -3.68627191340169191314e-01) (11, 3.58077960352912505471e+00) (12, 3.59782445852700749622e-01) (13, -1.09739620787908931376e+00) (14, 2.81273547213885377616e+00) (15, 7.00734913842803064377e-01) (0, 1.44199709631649719555e+00) (1, 1.27384432156694926697e-01) (2, 8.40810914832481742787e-02) (3, 1.26683917393101225235e-01) (4, 2.01745555301321544128e-01) (5, -1.04399541966010667160e+00) (6, -5.62304193571220523040e-01) (7, 6.63108094094453370815e-01) (8, 3.25002412363296100395e+00) (9, 6.92198119880444329155e-01) (10, 5.69730769155471161724e-01) (11, 3.47196453212349132045e+00) (12, 9.84881694554071596137e-01) (13, 1.07211172288624645432e+00) (14, 2.76906121925206072376e+00) (15, 9.35066429424941780724e-01) (0, 5.07236635360662102556e+00) (1, 4.06143032879614396258e-01) (2, 2.46498205632948302890e-01) (3, 3.27888959021353232348e-01) (4, 2.70791714013599971178e-01) (5, 1.98178611748205113496e-01) (6, -1.26170475821474448175e+00) (7, -5.98481414875423833877e-01) (8, 1.50000000000000000000e+03) (9, -3.77463746001860944723e-01) (10, -8.34020662726977363155e-02) (11, -4.45968101659582227825e+00) (12, 9.32173980242377631100e+00) (13, -9.54291590902310443711e-02) (14, 1.22245245391965706716e+01) (15, 1.56652399041107753819e-01) (0, 6.17923163789374840782e-01) (1, -9.00049475312046827480e-03) (2, -2.73922231543045242852e-02) (3, 1.31599161279220278065e-02) (4, -1.01124256526229860942e-01) (5, 1.44284297495657978794e-02) (6, 4.39718332408824408297e-02) (7, 5.42934813931377074914e-02) (8, 1.50000000000000000000e+03) (9, 8.12782560988125762913e-02) (10, 6.43380577958925364834e-02) (11, -2.17364225894978141396e-01) (12, -1.38457438260344693239e-03) (13, 6.72025781840026020103e-03) (14, 3.75218426325346771089e-02) (15, 1.56875931281124127159e-02) (16, 9.66425146014392999483e-01) (17, 2.74800718304029911732e-01) (18, 2.41004995841302360748e-01) (19, 3.32652756507224089955e-01) (20, 3.22609426660062093006e-01) (21, 3.07856348843649263447e-01) (22, -1.40162269224898800024e-01) (23, -1.14530722250716684996e-01) (24, 2.91410841521135721699e-01) (25, 4.36259990921366413996e-01) (26, 1.37142128165542914742e-01) 
