FANN_FLO_2.1
num_layers=3
learning_rate=0.700000
connection_rate=1.000000
network_type=0
learning_momentum=0.000000
training_algorithm=2
train_error_function=1
train_stop_function=1
cascade_output_change_fraction=0.010000
quickprop_decay=-0.000100
quickprop_mu=1.750000
rprop_increase_factor=1.200000
rprop_decrease_factor=0.500000
rprop_delta_min=0.000000
rprop_delta_max=50.000000
rprop_delta_zero=0.100000
cascade_output_stagnation_epochs=12
cascade_candidate_change_fraction=0.010000
cascade_candidate_stagnation_epochs=12
cascade_max_out_epochs=150
cascade_min_out_epochs=50
cascade_max_cand_epochs=150
cascade_min_cand_epochs=50
cascade_num_candidate_groups=2
bit_fail_limit=1.00000000000000005551e-01
cascade_candidate_limit=1.00000000000000000000e+03
cascade_weight_multiplier=4.00000000000000022204e-01
cascade_activation_functions_count=10
cascade_activation_functions=3 5 7 8 10 11 14 15 16 17 
cascade_activation_steepnesses_count=4
cascade_activation_steepnesses=2.50000000000000000000e-01 5.00000000000000000000e-01 7.50000000000000000000e-01 1.00000000000000000000e+00 
layer_sizes=19 11 2 
scale_included=0
neurons (num_inputs, activation_function, activation_steepness)=(0, 0, 0.00000000000000000000e+00) (0, 0, 0.00000000000000000000e+00) (0, 0, 0.00000000000000000000e+00) (0, 0, 0.00000000000000000000e+00) (0, 0, 0.00000000000000000000e+00) (0, 0, 0.00000000000000000000e+00) (0, 0, 0.00000000000000000000e+00) (0, 0, 0.00000000000000000000e+00) (0, 0, 0.00000000000000000000e+00) (0, 0, 0.00000000000000000000e+00) (0, 0, 0.00000000000000000000e+00) (0, 0, 0.00000000000000000000e+00) (0, 0, 0.00000000000000000000e+00) (0, 0, 0.00000000000000000000e+00) (0, 0, 0.00000000000000000000e+00) (0, 0, 0.00000000000000000000e+00) (0, 0, 0.00000000000000000000e+00) (0, 0, 0.00000000000000000000e+00) (0, 0, 0.00000000000000000000e+00) (19, 6, 5.00000000000000000000e-01) (19, 6, 5.00000000000000000000e-01) (19, 6, 5.00000000000000000000e-01) (19, 6, 5.00000000000000000000e-01) (19, 6, 5.00000000000000000000e-01) (19, 6, 5.00000000000000000000e-01) (19, 6, 5.00000000000000000000e-01) (19, 6, 5.00000000000000000000e-01) (19, 6, 5.00000000000000000000e-01) (19, 6, 5.00000000000000000000e-01) (0, 6, 0.00000000000000000000e+00) (11, 6, 5.00000000000000000000e-01) (0, 6, 0.00000000000000000000e+00) 
connections (connected_to_neuron, weight)=(0, 2.22387058317400354568e+00) (1, 6.36437381167927807013e-01) (2, 6.49425590892353965522e-01) (3, 5.99520834644356792609e-01) (4, 7.15129064877549125434e-01) (5, -5.36930156867580166136e+00) (6, 3.14558854185376102208e+00) (7, -8.02365897728356758378e-01) (8, 6.65063939896058275991e-01) (9, 1.33944831749751536165e+00) (10, 4.06413522938841753618e-01) (11, 4.33925220665767108486e-01) (12, -4.02258313515906884561e+00) (13, 7.60828093535348415344e-01) (14, 3.80641912813412697236e-01) (15, 1.23881009308456513374e+00) (16, 5.86879797051736762370e-01) (17, -6.46561342380283132769e+00) (18, 2.02918648506227405903e+00) (0, -1.08314438930135068517e+01) (1, -1.73705487011250880869e-01) (2, -1.94695083854970363291e-01) (3, -1.68447955010709193857e-01) (4, -2.31426557956513678782e-01) (5, 9.99598949724742169565e-01) (6, 3.49844652646811915542e-01) (7, 4.76652547569485385281e-01) (8, 1.84421533487536565277e-01) (9, 2.05408686734995171719e+00) (10, 2.43456517259803079112e-01) (11, 5.91002229101616816109e-01) (12, 8.34053464503961228260e-01) (13, 4.50588592447371316663e-01) (14, 5.20436125134428384520e-01) (15, 6.33997871299885384921e-01) (16, 9.06291907261027041010e-01) (17, 4.90348263101453740731e-01) (18, -6.71911722817490564275e-01) (0, 2.31543513025446472398e+01) (1, 6.50081378127944420342e-01) (2, 5.92572373058211754326e-01) (3, 6.19755756761443565850e-01) (4, 5.75380583013904045586e-01) (5, 7.07427221505580483552e+00) (6, 1.08725788839419556098e+03) (7, 1.94561117634492020123e+00) (8, 5.44877426748214599428e-01) (9, -8.05747748130681706868e+00) (10, 5.80941635242199994060e-01) (11, 4.48141352991645758319e-01) (12, 5.14131349721739638881e+00) (13, 4.18015183873836004835e+00) (14, 4.37446941517361354013e-01) (15, -7.68595411938407524488e-01) (16, 9.76039397843473288674e+00) (17, 7.04263007711269484190e+00) (18, 7.26221661479236724190e-01) (0, -2.15255929134680101811e+00) (1, -4.56530963488749469414e-02) (2, -5.57067756959131951677e-02) (3, -7.43753825732402368276e-02) (4, -1.11075191707246709316e-01) (5, -7.74589995948024995220e-02) (6, 1.24889261108550164714e+00) (7, 9.64032199843128267958e-01) (8, 6.77709203647594987663e-02) (9, -4.09533071440667945096e-02) (10, 1.02861669877425988828e-02) (11, 2.64419943352411757065e-01) (12, 8.26066004126459030310e-01) (13, -1.89011932969777224356e-01) (14, 2.65844629276652866245e-01) (15, 1.16137409744494357611e+00) (16, -4.56223762903632867882e-01) (17, 2.27294787278302878875e-01) (18, -4.81064682859918435476e-01) (0, 5.50288840213509615751e+01) (1, 6.08668295031722483834e-01) (2, 6.44722131377395091256e-01) (3, 5.47662888950046111702e-01) (4, 5.87922235315974650582e-01) (5, 7.13874432413516579743e+00) (6, 2.49463949706378862459e+00) (7, -3.38806567016078363785e-01) (8, -4.46045214854700777796e-01) (9, -5.84319118125937553287e+00) (10, -4.39456395977227132210e-01) (11, 2.97308378771760362103e-01) (12, 4.20923606641914016535e+00) (13, 7.12461034513889934772e+00) (14, 6.66753120742210492189e-01) (15, -4.59966806261810023937e-01) (16, 5.78698321460267006699e+00) (17, 7.12647634815075026182e+00) (18, -3.64239863986106249261e-01) (0, 1.02232519108685373510e+01) (1, 9.16631463380810640462e-02) (2, 1.37571660748338403524e-01) (3, 1.89706845155572595418e-01) (4, 7.21240397008416078695e-02) (5, -3.80924450586717477929e-01) (6, 4.29573392983032320558e-01) (7, -3.63958806238665111277e-01) (8, -6.29372172053697803706e-02) (9, -4.60316141408706958060e+00) (10, -3.85112920147583581709e-01) (11, 3.16211669283453677970e-01) (12, -2.89605375053257396711e-01) (13, -1.89868475565946825956e-01) (14, 8.86891541485371193154e-01) (15, 1.07187118355449473306e-01) (16, 6.76906026378307879021e-01) (17, -3.17257019216191260558e-01) (18, 1.23268920599072830113e-04) (0, -2.21922186918314334747e+00) (1, -1.43406960498115715330e-01) (2, -5.79102293956489169724e-02) (3, -7.21537427413673215781e-02) (4, -9.72479463923187903429e-02) (5, 1.31311842773656728411e+00) (6, 1.17328241272297595366e+00) (7, 1.01910089245049451101e+00) (8, 8.10160041089060811714e-01) (9, -8.43304089821733704468e+00) (10, 2.93122494411882539289e-01) (11, 8.82511204723757991530e-01) (12, 1.32227218733336449041e+00) (13, 8.17237826100146280695e-01) (14, 8.02682983577275077636e-01) (15, 8.98039183361830861685e-01) (16, 2.96525767884301050259e+00) (17, -1.32954094312653370302e+00) (18, 1.04528512472925910748e-01) (0, 1.00965566397023831513e+01) (1, 1.08150815537786187948e-01) (2, 1.22778756490564008863e-01) (3, 1.56810877791261377157e-01) (4, 9.68315544935223482259e-02) (5, -2.48378878413055698138e-01) (6, 7.08314406662372331169e-01) (7, -6.54149722031461045013e-01) (8, 9.75134081310475783755e-03) (9, -4.63100762379194552665e+00) (10, -4.06515636784241352064e-01) (11, 4.80818813638581310510e-01) (12, -6.53086275776807889670e-01) (13, -1.62787182025998122814e-01) (14, 6.18862330002799332362e-01) (15, 1.00905030149539803874e-01) (16, 6.63604916947665990357e-01) (17, -2.90656248563897046111e-01) (18, 4.97763303739648665935e-02) (0, 3.19980397174153186057e+00) (1, 2.71822424270507401189e-01) (2, 2.67889460213777186315e-01) (3, 2.33286196030971032522e-01) (4, 3.42216664590236141485e-01) (5, -9.27833069248146014019e-01) (6, -3.16520274686574865086e+00) (7, -3.01211437837389306438e+00) (8, 5.91591862761315034902e-01) (9, -1.99697818654908876290e-01) (10, 2.83965781131318983910e-01) (11, 7.87460405972990051815e-02) (12, -3.05271933798833394746e+00) (13, -1.52994406802852633831e+00) (14, -6.56676157213662459178e-01) (15, -3.49680614877624473813e-01) (16, 1.77991278935962254915e-01) (17, -2.22228975123124516955e+00) (18, 8.78628947524682679671e-01) (0, 5.36020650056704539566e+00) (1, 4.84242396900618488065e-02) (2, 8.65741739520990843948e-02) (3, 1.07293776656147213378e-01) (4, 6.66849608073198790725e-02) (5, 1.17358507233390113589e-01) (6, 4.80478498911941387384e-01) (7, 2.75629213107833059837e-01) (8, 6.87961588485203190402e+00) (9, -9.54645883144869866754e-01) (10, 6.47424237201198321534e-02) (11, -5.66987675306819677301e-02) (12, 6.29637496610806568498e+00) (13, -2.74252186046466561731e-01) (14, -1.73388877070295127636e-01) (15, -1.25187352656957706643e+00) (16, 1.02862221275856891012e+00) (17, 5.60092848641382090591e+00) (18, -1.63836191670474834448e-01) (19, -1.63019300581843495923e-01) (20, 9.67031311468833032485e-01) (21, 5.97796020050878507135e-01) (22, 9.38900644423222296986e-01) (23, 5.00645556893809962062e-01) (24, -1.19994491871360284274e-01) (25, -7.87167784031519546240e-01) (26, -1.86711498137477477366e-01) (27, -1.08362999101891913090e-01) (28, 4.47234558848420352128e-02) (29, 4.90192305402020689353e-01) 
