FANN_FLO_2.1
num_layers=3
learning_rate=0.700000
connection_rate=1.000000
network_type=0
learning_momentum=0.000000
training_algorithm=2
train_error_function=1
train_stop_function=1
cascade_output_change_fraction=0.010000
quickprop_decay=-0.000100
quickprop_mu=1.750000
rprop_increase_factor=1.200000
rprop_decrease_factor=0.500000
rprop_delta_min=0.000000
rprop_delta_max=50.000000
rprop_delta_zero=0.100000
cascade_output_stagnation_epochs=12
cascade_candidate_change_fraction=0.010000
cascade_candidate_stagnation_epochs=12
cascade_max_out_epochs=150
cascade_min_out_epochs=50
cascade_max_cand_epochs=150
cascade_min_cand_epochs=50
cascade_num_candidate_groups=2
bit_fail_limit=1.00000000000000005551e-01
cascade_candidate_limit=1.00000000000000000000e+03
cascade_weight_multiplier=4.00000000000000022204e-01
cascade_activation_functions_count=10
cascade_activation_functions=3 5 7 8 10 11 14 15 16 17 
cascade_activation_steepnesses_count=4
cascade_activation_steepnesses=2.50000000000000000000e-01 5.00000000000000000000e-01 7.50000000000000000000e-01 1.00000000000000000000e+00 
layer_sizes=54 4 2 
scale_included=0
neurons (num_inputs, activation_function, activation_steepness)=(0, 0, 0.00000000000000000000e+00) (0, 0, 0.00000000000000000000e+00) (0, 0, 0.00000000000000000000e+00) (0, 0, 0.00000000000000000000e+00) (0, 0, 0.00000000000000000000e+00) (0, 0, 0.00000000000000000000e+00) (0, 0, 0.00000000000000000000e+00) (0, 0, 0.00000000000000000000e+00) (0, 0, 0.00000000000000000000e+00) (0, 0, 0.00000000000000000000e+00) (0, 0, 0.00000000000000000000e+00) (0, 0, 0.00000000000000000000e+00) (0, 0, 0.00000000000000000000e+00) (0, 0, 0.00000000000000000000e+00) (0, 0, 0.00000000000000000000e+00) (0, 0, 0.00000000000000000000e+00) (0, 0, 0.00000000000000000000e+00) (0, 0, 0.00000000000000000000e+00) (0, 0, 0.00000000000000000000e+00) (0, 0, 0.00000000000000000000e+00) (0, 0, 0.00000000000000000000e+00) (0, 0, 0.00000000000000000000e+00) (0, 0, 0.00000000000000000000e+00) (0, 0, 0.00000000000000000000e+00) (0, 0, 0.00000000000000000000e+00) (0, 0, 0.00000000000000000000e+00) (0, 0, 0.00000000000000000000e+00) (0, 0, 0.00000000000000000000e+00) (0, 0, 0.00000000000000000000e+00) (0, 0, 0.00000000000000000000e+00) (0, 0, 0.00000000000000000000e+00) (0, 0, 0.00000000000000000000e+00) (0, 0, 0.00000000000000000000e+00) (0, 0, 0.00000000000000000000e+00) (0, 0, 0.00000000000000000000e+00) (0, 0, 0.00000000000000000000e+00) (0, 0, 0.00000000000000000000e+00) (0, 0, 0.00000000000000000000e+00) (0, 0, 0.00000000000000000000e+00) (0, 0, 0.00000000000000000000e+00) (0, 0, 0.00000000000000000000e+00) (0, 0, 0.00000000000000000000e+00) (0, 0, 0.00000000000000000000e+00) (0, 0, 0.00000000000000000000e+00) (0, 0, 0.00000000000000000000e+00) (0, 0, 0.00000000000000000000e+00) (0, 0, 0.00000000000000000000e+00) (0, 0, 0.00000000000000000000e+00) (0, 0, 0.00000000000000000000e+00) (0, 0, 0.00000000000000000000e+00) (0, 0, 0.00000000000000000000e+00) (0, 0, 0.00000000000000000000e+00) (0, 0, 0.00000000000000000000e+00) (0, 0, 0.00000000000000000000e+00) (54, 6, 5.00000000000000000000e-01) (54, 6, 5.00000000000000000000e-01) (54, 6, 5.00000000000000000000e-01) (0, 6, 0.00000000000000000000e+00) (4, 4, 5.00000000000000000000e-01) (0, 4, 0.00000000000000000000e+00) 
connections (connected_to_neuron, weight)=(0, -3.86698564087572693726e-01) (1, 1.50000000000000000000e+03) (2, 2.70787748542691453224e+01) (3, 2.18420008774538771945e+01) (4, 2.44564059303111562826e+01) (5, 3.12785204125897942085e-01) (6, 1.50000000000000000000e+03) (7, 2.52235836466131608802e+01) (8, 2.57925506937173167898e+01) (9, 2.45057705515442378896e+01) (10, 2.41421570908682809886e+01) (11, 2.50149539474796256400e+01) (12, 2.32442372919975923651e+01) (13, 2.43097183062209083459e+01) (14, 2.33856102706848787420e+01) (15, 2.33305639679005309972e+01) (16, 2.34043966861426042669e+01) (17, 2.64995414630905870013e+01) (18, 2.70100719002953297831e+01) (19, 2.26446664270864665980e+01) (20, 2.67801383942923010295e+01) (21, 2.62634588798569801327e+01) (22, 2.12950980644251401941e+01) (23, 2.90240540015902759308e+01) (24, 2.34607685373131769069e+00) (25, 2.65645010636584046892e+01) (26, -1.57448713242668003609e+00) (27, 2.64856584740634171116e-01) (28, -7.61831242268391606309e-01) (29, 2.08583922995701415148e-01) (30, 2.89505512213405757915e-01) (31, 2.62075566508470358951e-01) (32, -7.56172139757501193813e-01) (33, -1.98530168433261589023e+00) (34, 2.61824957386068035703e-01) (35, 4.00996952722620814136e-01) (36, 1.50000000000000000000e+03) (37, 2.70130871109391179630e+01) (38, 2.44307136234800452712e+01) (39, 2.45265826207558745864e+01) (40, 2.70108190051938024112e+01) (41, 2.45238261900841081342e+01) (42, 2.56828352342050081347e+01) (43, 2.70140494665473589464e+01) (44, 2.71197834708388327840e+01) (45, 2.81765201909118587764e+01) (46, 2.53675978073862395945e+01) (47, 2.47749888127405064608e+01) (48, 2.49204181523758343531e+01) (49, 2.42799570599752314592e+01) (50, 2.50258168693077607259e+01) (51, 2.70266451497943833715e+01) (52, 2.68377584975497534003e+01) (53, -3.94631212150278631867e-01) (0, -4.32191582091773329743e-01) (1, 1.50000000000000000000e+03) (2, 2.56228244797709194813e+01) (3, 2.18185710987885777001e+01) (4, 2.73622300407673009204e+01) (5, 9.42401074966967566837e-01) (6, 1.50000000000000000000e+03) (7, 2.42832627929179487580e+01) (8, 2.53839848429647219064e+01) (9, 2.71210633608234559233e+01) (10, 2.41619461819189069729e+01) (11, 2.50041001714419337532e+01) (12, 2.32867516545226749258e+01) (13, 2.69285824044813963951e+01) (14, 2.32224176210521875419e+01) (15, 2.31764351656308349447e+01) (16, 2.32784748395144163169e+01) (17, 2.32175034596799640951e+01) (18, 2.69745874473026532314e+01) (19, 2.25838311165677261272e+01) (20, 2.68715877283176816093e+01) (21, 2.47396740154918788335e+01) (22, 2.15663051748587228928e+01) (23, 2.86013667115297565147e+01) (24, 9.74614257899396485563e-01) (25, 2.31367751076101093588e+01) (26, -9.68297107681168167659e-01) (27, 1.50000000000000000000e+03) (28, 1.41756954424909292767e-01) (29, 1.50000000000000000000e+03) (30, 1.50000000000000000000e+03) (31, 1.50000000000000000000e+03) (32, -2.25680020267713110638e-01) (33, 6.13244769710447057420e-02) (34, 1.50000000000000000000e+03) (35, 1.50000000000000000000e+03) (36, 1.50000000000000000000e+03) (37, 2.59816665950292922105e+01) (38, 2.69973347580270228718e+01) (39, 2.69384064322547374104e+01) (40, 2.61252471509451247300e+01) (41, 2.46790128222094864441e+01) (42, 2.74367378409124604843e+01) (43, 2.80597266236199018863e+01) (44, 2.70355422060783361360e+01) (45, 2.82097939462238258557e+01) (46, 2.53202184838441226589e+01) (47, 2.48248256930071740101e+01) (48, 2.44487485699016033891e+01) (49, 2.68364202744429896086e+01) (50, 2.51994696109768341330e+01) (51, 2.68808249258072819998e+01) (52, 2.66847196593420328270e+01) (53, -3.62815016575778304109e-01) (0, -2.82408019121163533782e+00) (1, 1.50000000000000000000e+03) (2, 2.62433131654123208421e+01) (3, 2.14397387435683484114e+01) (4, 2.68760952649439488482e+01) (5, 1.26542700148227749146e+00) (6, 1.50000000000000000000e+03) (7, 2.60043314610992979397e+01) (8, 2.68230939578843745608e+01) (9, 2.66524635674131502583e+01) (10, 2.51480205632679805205e+01) (11, 2.39050695042835279480e+01) (12, 2.54884310011980979027e+01) (13, 2.70076044797285028665e+01) (14, 2.54429010843155829491e+01) (15, 2.54802320246813742699e+01) (16, 2.54458209966538397850e+01) (17, 2.02702217175845262886e+01) (18, 2.57751619872456529947e+01) (19, 1.68205068468811944626e+01) (20, 2.57920604230878929286e+01) (21, 2.84091006881462142530e+01) (22, 1.66848622389764926766e+01) (23, 3.44050619370395338592e+01) (24, 2.73481500350723250037e+00) (25, 2.02436891793493387581e+01) (26, -3.33880663593763404862e+00) (27, 3.19296097796869782215e+00) (28, -2.17491298511604563837e-01) (29, 1.57388095335924416140e+00) (30, 3.22765374567799678829e+00) (31, 1.91863456420256206503e-01) (32, 1.16845935405157996811e+00) (33, -1.15777007621269384385e-01) (34, 1.91807327002869260069e-01) (35, 2.65640054660465407821e+00) (36, 1.50000000000000000000e+03) (37, 2.68748559651697789263e+01) (38, 2.64044390652335252412e+01) (39, 2.62715623635805215486e+01) (40, 2.69986367745126401019e+01) (41, 2.66543043004048456623e+01) (42, 2.78867724498305733505e+01) (43, 3.07620973219678397470e+01) (44, 2.46188730996271019080e+01) (45, 2.76143990553898213136e+01) (46, 2.38657557838650227211e+01) (47, 2.84206722109007685617e+01) (48, 2.55181040973667627725e+01) (49, 2.46784134839252402571e+01) (50, 2.67741022003251636363e+01) (51, 2.77647294041977232837e+01) (52, 2.62535932919626944226e+01) (53, -2.99798075075619863128e+00) (54, 5.03146803366569361771e-01) (55, 1.32321934061483542644e-01) (56, 1.16805081174350142703e+01) (57, -3.31553127873775688172e+00) 
