FANN_FLO_2.1
num_layers=3
learning_rate=0.700000
connection_rate=1.000000
network_type=0
learning_momentum=0.000000
training_algorithm=2
train_error_function=1
train_stop_function=1
cascade_output_change_fraction=0.010000
quickprop_decay=-0.000100
quickprop_mu=1.750000
rprop_increase_factor=1.200000
rprop_decrease_factor=0.500000
rprop_delta_min=0.000000
rprop_delta_max=50.000000
rprop_delta_zero=0.100000
cascade_output_stagnation_epochs=12
cascade_candidate_change_fraction=0.010000
cascade_candidate_stagnation_epochs=12
cascade_max_out_epochs=150
cascade_min_out_epochs=50
cascade_max_cand_epochs=150
cascade_min_cand_epochs=50
cascade_num_candidate_groups=2
bit_fail_limit=1.00000000000000005551e-01
cascade_candidate_limit=1.00000000000000000000e+03
cascade_weight_multiplier=4.00000000000000022204e-01
cascade_activation_functions_count=10
cascade_activation_functions=3 5 7 8 10 11 14 15 16 17 
cascade_activation_steepnesses_count=4
cascade_activation_steepnesses=2.50000000000000000000e-01 5.00000000000000000000e-01 7.50000000000000000000e-01 1.00000000000000000000e+00 
layer_sizes=14 4 2 
scale_included=0
neurons (num_inputs, activation_function, activation_steepness)=(0, 0, 0.00000000000000000000e+00) (0, 0, 0.00000000000000000000e+00) (0, 0, 0.00000000000000000000e+00) (0, 0, 0.00000000000000000000e+00) (0, 0, 0.00000000000000000000e+00) (0, 0, 0.00000000000000000000e+00) (0, 0, 0.00000000000000000000e+00) (0, 0, 0.00000000000000000000e+00) (0, 0, 0.00000000000000000000e+00) (0, 0, 0.00000000000000000000e+00) (0, 0, 0.00000000000000000000e+00) (0, 0, 0.00000000000000000000e+00) (0, 0, 0.00000000000000000000e+00) (0, 0, 0.00000000000000000000e+00) (14, 6, 5.00000000000000000000e-01) (14, 6, 5.00000000000000000000e-01) (14, 6, 5.00000000000000000000e-01) (0, 6, 0.00000000000000000000e+00) (4, 4, 5.00000000000000000000e-01) (0, 4, 0.00000000000000000000e+00) 
connections (connected_to_neuron, weight)=(0, -1.47839372962170689796e+00) (1, 1.88528628091781746967e+00) (2, 2.09147370530721676829e+00) (3, 1.27405928277316160546e+01) (4, -2.76610778878462859609e+00) (5, 5.67002571501564389678e+00) (6, 1.62233751998358100010e+00) (7, 1.84057935425986607392e+00) (8, 2.18254905990259429061e+00) (9, 7.34947073836836839433e+00) (10, 3.05873160529650078843e+00) (11, 5.91484382179231538146e+00) (12, 1.76779207181874253862e+00) (13, -3.57183352250541963357e+00) (0, 2.17462307942980537234e+00) (1, -1.12513605685844075843e+00) (2, -1.45529478253162558588e+00) (3, 1.22804479072878502954e-01) (4, 1.69019082763725836394e+00) (5, -9.47505013570566267944e-01) (6, -1.38225349133469643803e+00) (7, -1.31473466211030665107e+00) (8, -3.18300989171184545157e-01) (9, 1.20531180154819464456e-01) (10, 3.12086005934070626067e-02) (11, -1.70148843688762019255e+00) (12, -1.25505438780357858608e-01) (13, 2.14499676210755119143e+00) (0, 1.48392065976278586525e+00) (1, -2.98689099970440041787e+00) (2, 7.17064019462270163530e-02) (3, -2.61484108814258764397e-01) (4, 2.19648439394178707218e+00) (5, 4.39218366023365891504e-01) (6, -2.85958626573156449169e+00) (7, -2.76267190296996689725e+00) (8, -1.61325820535149877522e-01) (9, 7.55371984245084338028e-01) (10, 9.62981515765196860457e-01) (11, 1.22077641484754439993e+00) (12, 5.14063376538291150197e-01) (13, 1.48523744074709229679e+00) (14, 8.88273615669935345807e+00) (15, -7.85950862168292196941e+00) (16, -6.37017928301235869526e+00) (17, -3.73250283719835529439e+00) 
