FANN_FLO_2.1
num_layers=3
learning_rate=0.700000
connection_rate=1.000000
network_type=0
learning_momentum=0.000000
training_algorithm=2
train_error_function=1
train_stop_function=1
cascade_output_change_fraction=0.010000
quickprop_decay=-0.000100
quickprop_mu=1.750000
rprop_increase_factor=1.200000
rprop_decrease_factor=0.500000
rprop_delta_min=0.000000
rprop_delta_max=50.000000
rprop_delta_zero=0.100000
cascade_output_stagnation_epochs=12
cascade_candidate_change_fraction=0.010000
cascade_candidate_stagnation_epochs=12
cascade_max_out_epochs=150
cascade_min_out_epochs=50
cascade_max_cand_epochs=150
cascade_min_cand_epochs=50
cascade_num_candidate_groups=2
bit_fail_limit=1.00000000000000005551e-01
cascade_candidate_limit=1.00000000000000000000e+03
cascade_weight_multiplier=4.00000000000000022204e-01
cascade_activation_functions_count=10
cascade_activation_functions=3 5 7 8 10 11 14 15 16 17 
cascade_activation_steepnesses_count=4
cascade_activation_steepnesses=2.50000000000000000000e-01 5.00000000000000000000e-01 7.50000000000000000000e-01 1.00000000000000000000e+00 
layer_sizes=11 4 2 
scale_included=0
neurons (num_inputs, activation_function, activation_steepness)=(0, 0, 0.00000000000000000000e+00) (0, 0, 0.00000000000000000000e+00) (0, 0, 0.00000000000000000000e+00) (0, 0, 0.00000000000000000000e+00) (0, 0, 0.00000000000000000000e+00) (0, 0, 0.00000000000000000000e+00) (0, 0, 0.00000000000000000000e+00) (0, 0, 0.00000000000000000000e+00) (0, 0, 0.00000000000000000000e+00) (0, 0, 0.00000000000000000000e+00) (0, 0, 0.00000000000000000000e+00) (11, 6, 5.00000000000000000000e-01) (11, 6, 5.00000000000000000000e-01) (11, 6, 5.00000000000000000000e-01) (0, 6, 0.00000000000000000000e+00) (4, 4, 5.00000000000000000000e-01) (0, 4, 0.00000000000000000000e+00) 
connections (connected_to_neuron, weight)=(0, -1.76566803085090739955e+00) (1, 1.90526047157528033438e+00) (2, 3.09283956589242792212e-01) (3, -8.41325924540350711389e-01) (4, -1.02580919190723696133e+00) (5, -1.73173707353355510463e+00) (6, 1.76942609804155459585e+00) (7, -1.72868386658312900295e+00) (8, 1.73159257131101718130e+00) (9, -1.75176766889574153652e+00) (10, 3.03942932091565309882e-01) (0, -1.77884773539783580532e+00) (1, 1.88969105290653338614e+00) (2, 2.88602132054111337744e-01) (3, -8.60958264017889773889e-01) (4, -1.02326391711313524624e+00) (5, -1.02253528758365908047e+00) (6, 1.76863304706694712820e+00) (7, -1.67914817857029086134e+00) (8, 1.90140741872074237051e+00) (9, -1.01267481669266024014e+00) (10, 2.59212805233807741523e-01) (0, 2.82352124335082477202e+00) (1, -4.74219776161634865019e+00) (2, -7.54227166230192036522e-01) (3, 1.23231496954332642169e+00) (4, 2.32776091322917277893e+00) (5, 2.40480215922612483581e+00) (6, -4.82118830301487388823e+00) (7, 2.24008481279630000671e+00) (8, -4.84155932285511436675e+00) (9, 2.28717362583298022827e+00) (10, 1.59203449111054190501e-01) (11, 7.14103530544618836373e-01) (12, 7.93503965026717272835e-01) (13, -4.84825600900375786040e+00) (14, -1.20836286226779568431e-02) 
