FANN_FLO_2.1
num_layers=3
learning_rate=0.700000
connection_rate=1.000000
network_type=0
learning_momentum=0.000000
training_algorithm=2
train_error_function=1
train_stop_function=1
cascade_output_change_fraction=0.010000
quickprop_decay=-0.000100
quickprop_mu=1.750000
rprop_increase_factor=1.200000
rprop_decrease_factor=0.500000
rprop_delta_min=0.000000
rprop_delta_max=50.000000
rprop_delta_zero=0.100000
cascade_output_stagnation_epochs=12
cascade_candidate_change_fraction=0.010000
cascade_candidate_stagnation_epochs=12
cascade_max_out_epochs=150
cascade_min_out_epochs=50
cascade_max_cand_epochs=150
cascade_min_cand_epochs=50
cascade_num_candidate_groups=2
bit_fail_limit=1.00000000000000005551e-01
cascade_candidate_limit=1.00000000000000000000e+03
cascade_weight_multiplier=4.00000000000000022204e-01
cascade_activation_functions_count=10
cascade_activation_functions=3 5 7 8 10 11 14 15 16 17 
cascade_activation_steepnesses_count=4
cascade_activation_steepnesses=2.50000000000000000000e-01 5.00000000000000000000e-01 7.50000000000000000000e-01 1.00000000000000000000e+00 
layer_sizes=36 11 2 
scale_included=0
neurons (num_inputs, activation_function, activation_steepness)=(0, 0, 0.00000000000000000000e+00) (0, 0, 0.00000000000000000000e+00) (0, 0, 0.00000000000000000000e+00) (0, 0, 0.00000000000000000000e+00) (0, 0, 0.00000000000000000000e+00) (0, 0, 0.00000000000000000000e+00) (0, 0, 0.00000000000000000000e+00) (0, 0, 0.00000000000000000000e+00) (0, 0, 0.00000000000000000000e+00) (0, 0, 0.00000000000000000000e+00) (0, 0, 0.00000000000000000000e+00) (0, 0, 0.00000000000000000000e+00) (0, 0, 0.00000000000000000000e+00) (0, 0, 0.00000000000000000000e+00) (0, 0, 0.00000000000000000000e+00) (0, 0, 0.00000000000000000000e+00) (0, 0, 0.00000000000000000000e+00) (0, 0, 0.00000000000000000000e+00) (0, 0, 0.00000000000000000000e+00) (0, 0, 0.00000000000000000000e+00) (0, 0, 0.00000000000000000000e+00) (0, 0, 0.00000000000000000000e+00) (0, 0, 0.00000000000000000000e+00) (0, 0, 0.00000000000000000000e+00) (0, 0, 0.00000000000000000000e+00) (0, 0, 0.00000000000000000000e+00) (0, 0, 0.00000000000000000000e+00) (0, 0, 0.00000000000000000000e+00) (0, 0, 0.00000000000000000000e+00) (0, 0, 0.00000000000000000000e+00) (0, 0, 0.00000000000000000000e+00) (0, 0, 0.00000000000000000000e+00) (0, 0, 0.00000000000000000000e+00) (0, 0, 0.00000000000000000000e+00) (0, 0, 0.00000000000000000000e+00) (0, 0, 0.00000000000000000000e+00) (36, 6, 5.00000000000000000000e-01) (36, 6, 5.00000000000000000000e-01) (36, 6, 5.00000000000000000000e-01) (36, 6, 5.00000000000000000000e-01) (36, 6, 5.00000000000000000000e-01) (36, 6, 5.00000000000000000000e-01) (36, 6, 5.00000000000000000000e-01) (36, 6, 5.00000000000000000000e-01) (36, 6, 5.00000000000000000000e-01) (36, 6, 5.00000000000000000000e-01) (0, 6, 0.00000000000000000000e+00) (11, 6, 5.00000000000000000000e-01) (0, 6, 0.00000000000000000000e+00) 
connections (connected_to_neuron, weight)=(0, 4.67466291805163152162e+01) (1, 1.91896719046435210165e-01) (2, 3.30640060015521208836e-01) (3, 3.65893376179538931670e-01) (4, 2.12761101432642790732e-01) (5, 8.70144214928365933304e+00) (6, -7.52680883305476999823e-01) (7, 1.19748492340966739000e+00) (8, 1.99658733516710396039e+00) (9, -6.07532408301133308726e+00) (10, 1.65625898670807258917e+00) (11, -9.58675211766139767633e+00) (12, -1.79200869645076227288e-01) (13, 3.88399262268221523442e+00) (14, 1.66353933097507833416e+00) (15, -2.23476348811896796676e+00) (16, 1.87819676154683778968e+00) (17, 1.05412392137942667603e+01) (18, 3.98787334942175732522e+02) (19, 2.84961269106151249275e+00) (20, 1.07800878085794220596e+01) (21, 1.18345893858933290943e+01) (22, 1.83038329027040340691e+01) (23, 8.75299320634519695261e+00) (24, 1.89324820881207500634e+00) (25, -1.11794369666312620737e+00) (26, -1.18249916191668705268e-01) (27, 3.34816138872096602519e-01) (28, 1.48191097609676392111e+00) (29, -6.07233872532425777990e+00) (30, 6.08169164576847265380e+00) (31, -6.60658445504264157933e+00) (32, -5.90875005730362801160e+00) (33, 6.75881947199211685628e-01) (34, 1.37721368389269627208e+00) (35, 7.38258251075016191933e-01) (0, 1.50000000000000000000e+03) (1, 1.50000000000000000000e+03) (2, 1.50000000000000000000e+03) (3, 1.50000000000000000000e+03) (4, 1.50000000000000000000e+03) (5, 2.56811275277352146773e+00) (6, 4.36799715215745953945e-01) (7, -1.49301133568670843488e+03) (8, 1.17261650796520257245e+03) (9, -1.50000000000000000000e+03) (10, 2.94789699305079699876e-01) (11, -1.50000000000000000000e+03) (12, -1.50000000000000000000e+03) (13, -1.50000000000000000000e+03) (14, -1.50000000000000000000e+03) (15, -1.50000000000000000000e+03) (16, 1.49996098410730724027e+03) (17, -4.44382372308333799538e+01) (18, -6.00998617935498735676e+00) (19, -1.50000000000000000000e+03) (20, 1.03701250751495240365e+03) (21, -1.17742560035025576326e+03) (22, -1.32479626137692525845e+03) (23, -1.50000000000000000000e+03) (24, -1.46405233230622275187e+03) (25, -6.41637633974278060123e+02) (26, -1.50000000000000000000e+03) (27, -9.29214553604355955940e+02) (28, 8.61313724245570028870e+02) (29, -1.50000000000000000000e+03) (30, -1.50000000000000000000e+03) (31, -1.50000000000000000000e+03) (32, -1.50000000000000000000e+03) (33, -1.50000000000000000000e+03) (34, 1.49992257052396098516e+03) (35, 1.33220161743746707828e+01) (0, -2.20323240714686328090e+01) (1, -3.79293538726583279175e-01) (2, -3.37027564741388008240e-01) (3, -3.59732054270520906769e-01) (4, -3.89149341828838091217e-01) (5, -1.51747510107365757293e+00) (6, 2.15455118312320378915e-02) (7, 1.06369076496272474408e+00) (8, -2.53850278756674485603e-01) (9, -5.02137646466053855221e+00) (10, -6.84758737686224777663e-02) (11, 7.65766833166205440619e+00) (12, 7.33766324373894440747e-01) (13, 1.35065448506032637077e+00) (14, -5.24212475871858707421e+00) (15, -5.60108325870691547976e+00) (16, -2.55130020726896444838e-01) (17, 5.68388501912251320469e-01) (18, 5.77829996337998141875e-01) (19, -1.13879476965551562628e+00) (20, -7.54166266383516470384e-01) (21, -1.43058695435645066851e+00) (22, -1.41753751513235948245e+00) (23, -1.18932179658108139186e+00) (24, -1.42151595577345113419e+00) (25, 1.07188191390341441833e-01) (26, -5.06318395810138044411e-01) (27, -4.56819872758493061848e-01) (28, -2.24578175225435244799e-01) (29, -5.23696621974904275021e+00) (30, 2.91951160622244132448e-01) (31, -4.81204812423729055837e+00) (32, -5.32243724563231701552e+00) (33, -4.92116604273817781490e+00) (34, -3.16121322621813860554e-01) (35, -4.46178534205691812442e-01) (0, 1.50000000000000000000e+03) (1, 2.40452692242318562421e+02) (2, 2.40380611130947016818e+02) (3, 2.40513137580806187543e+02) (4, 2.40369422620141648395e+02) (5, 2.82448880989549211407e+00) (6, 4.42381119086217355907e-01) (7, -1.36753524726378032028e+03) (8, 9.38847005204370930187e+02) (9, -1.50000000000000000000e+03) (10, -6.58924308708088296571e-02) (11, -1.50000000000000000000e+03) (12, -1.50000000000000000000e+03) (13, -1.50000000000000000000e+03) (14, -1.50000000000000000000e+03) (15, -1.50000000000000000000e+03) (16, 4.64453704925559634376e+02) (17, -4.74081272916571734299e+01) (18, -7.85888039613211741852e-01) (19, -1.50000000000000000000e+03) (20, 2.89351220980471453004e+02) (21, -1.47910341588269670865e+03) (22, -1.47782764257108510719e+03) (23, -1.50000000000000000000e+03) (24, -1.46405233230622275187e+03) (25, -6.23190981969879885582e+02) (26, -1.49970108971952595311e+03) (27, -7.31923366258826717967e+02) (28, 8.81999154162544641622e+02) (29, -1.50000000000000000000e+03) (30, -1.50000000000000000000e+03) (31, -1.50000000000000000000e+03) (32, -1.50000000000000000000e+03) (33, -1.50000000000000000000e+03) (34, 3.46063549161014691435e+02) (35, 1.17875318862719087321e+01) (0, -1.63279778858133362007e+01) (1, -3.95130451854396602673e-02) (2, -1.44667209320895467917e-01) (3, -8.99137865837746352859e-02) (4, -6.15639352165952245810e-03) (5, -1.40564608858844142247e+00) (6, -5.66903893276022086134e-01) (7, 4.94113810860982993756e-01) (8, -8.75668638478452110441e-01) (9, 2.84780390239050484880e+00) (10, -1.97528827910912108123e+00) (11, 5.08395137881598024876e+00) (12, 9.77983097121284061792e-01) (13, 6.01692645165664563578e-01) (14, 1.69050913403748892527e+00) (15, 1.38664406653074800957e+00) (16, -1.03225817137410502689e+00) (17, -5.34377686835273202348e-01) (18, -5.23692471243068502496e-01) (19, -1.10339201523889074430e+00) (20, -1.79556496515728691854e-01) (21, -1.35044867476579910637e+00) (22, -1.41927772464048018719e+00) (23, -1.26360264536647459721e+00) (24, -1.75684437235544010925e+00) (25, 2.88964401256436853593e-01) (26, -8.31066608845113519166e-01) (27, -5.33069272995548959493e-01) (28, -1.01546807358237267671e+00) (29, 2.92840220354216818066e+00) (30, 5.57026944312725480479e-01) (31, 2.09687397947325004921e+00) (32, 1.67171309838529946745e+00) (33, -1.10639526203047644515e+00) (34, -1.02536490231647881011e+00) (35, -8.65579934124234950943e-01) (0, 1.57843136099729104416e+01) (1, 2.75029248437376860892e-01) (2, 3.20262714168520867819e-01) (3, 3.60942586204500981406e-01) (4, 2.86601810595484673971e-01) (5, 8.23089179525544945015e-01) (6, -6.61642245230115999544e-02) (7, -5.21595257102602682941e-01) (8, 1.43874115203547470188e+00) (9, 4.90224163487836650521e-01) (10, 5.10001723396981243575e-01) (11, -5.60165963976022851512e+00) (12, -2.95329242451495221911e-01) (13, -1.00570144891235657703e+00) (14, -1.88647412294634864161e+00) (15, -1.54602569816618196086e+00) (16, 9.69467135535460600160e-01) (17, -4.11362261467878242982e-01) (18, -2.30562513310008460055e-01) (19, 2.70201439419307354317e-01) (20, -2.95577461425597265432e-01) (21, 4.49901663244020422194e-01) (22, 4.03757719895839028990e-01) (23, 1.14056476475649953839e-01) (24, 6.80319668872423233275e-01) (25, 6.96658130487329940728e-01) (26, 7.56978327473956935645e-02) (27, 1.45332381887924938502e-01) (28, 1.22159883155314941128e+00) (29, 8.63548268527820517271e-01) (30, 9.67864888582251836624e-01) (31, -2.77673424727894069264e+00) (32, -3.13248221104124580094e+00) (33, 1.50000000000000000000e+03) (34, 1.14445648265305188751e+00) (35, -7.21108134609737660980e-01) (0, 1.91551607781146380205e+01) (1, 1.70866187423130561074e-01) (2, 3.09412497788332740978e-01) (3, 2.19654753565451194008e-01) (4, 2.40320268779655926705e-01) (5, 1.65429101729812155774e+00) (6, 1.58121973997091824771e+00) (7, -1.55945586373740385788e+00) (8, 1.43790492029575767141e+00) (9, -2.09746037516321548466e+00) (10, 6.56219589433622019214e-01) (11, -5.19694841442887067728e+00) (12, 3.47529759496108980876e-01) (13, -7.99867199958594343734e-01) (14, -2.61753015035687219836e+00) (15, -2.87365475361217859174e+00) (16, 1.24270968839366524605e+00) (17, -2.83774764612161611854e-01) (18, -2.91772233942390546435e-01) (19, 5.25202142012309858288e-01) (20, 5.67612856910312021767e-04) (21, 1.85645467844662515056e+00) (22, 1.86454996724938193431e+00) (23, 8.17914657546153667234e-01) (24, 1.09372127083062431474e+00) (25, 1.06594654184402792829e+00) (26, 1.22572356953920391653e+00) (27, 5.44611374898371775055e-02) (28, 1.15691187953910024078e+00) (29, -9.44866801649475451796e-01) (30, 7.55051387010495567154e-01) (31, -3.11752803419075874558e+00) (32, -3.22801434052810387598e+00) (33, 1.50000000000000000000e+03) (34, 1.38129553125501680633e+00) (35, -1.16310871400128235109e+00) (0, -8.77716513731961356370e+00) (1, -8.51137620354967538994e-02) (2, -3.61459088469817668710e-02) (3, 5.89819536082423676558e-04) (4, -1.13228803589471016533e-01) (5, -1.04201445183162766384e+00) (6, -1.83653764127302637776e-01) (7, -1.51339718194148042940e-01) (8, -3.02501353701659037032e-01) (9, 2.91130575873643948626e+00) (10, -3.29224700358648147969e-01) (11, 4.98138949404788267117e+00) (12, 9.78172073535253372434e-01) (13, 5.97061029464805104183e-01) (14, 1.44766978725579686937e+00) (15, 1.58255840436669270588e+00) (16, -1.93744185986499894980e-01) (17, 2.54113084250649046147e-01) (18, 3.35987629058149273042e-01) (19, -1.10065386074301030384e+00) (20, -1.97524465640266400079e+00) (21, -9.93613471076271737026e-01) (22, -1.02177863985135286562e+00) (23, -1.16552711752815829627e+00) (24, -1.49038404533775770133e+00) (25, 3.30002936578167038739e-01) (26, -1.17320891822384343328e+00) (27, -4.25551127767325065854e-01) (28, -1.71111670078090610803e-01) (29, 2.88392699477832747945e+00) (30, 9.98277257684171859253e-01) (31, 1.52423715373928825301e+00) (32, 1.61208300675797833179e+00) (33, -1.51173265388827737787e+00) (34, -2.21801160865905622188e-01) (35, -3.88170428255170296694e+00) (0, 3.27724454775322548983e+00) (1, -1.03049266670776490384e-01) (2, -1.31794083450866850171e-01) (3, 3.37441679375063974256e-03) (4, -1.12260806892944681179e-01) (5, 1.68986132092579288688e+00) (6, 9.42600176755999941136e-02) (7, -3.61942217663018095397e-01) (8, -3.32526150986860724590e-01) (9, -5.38275843901188633112e+00) (10, 2.44826505857852455561e-01) (11, -5.98023562906932237837e+00) (12, -1.19622369769701042408e+00) (13, -1.04497109106894625619e+00) (14, -3.28065922014047162136e+00) (15, -3.39658676920381319420e+00) (16, -4.60297762361779216889e-01) (17, 5.04175958568951920746e-01) (18, 5.84029296065015413042e-01) (19, 1.67168313932967094182e+00) (20, 2.36498979770918182908e+00) (21, 1.50935176265189530120e+00) (22, 1.44657111192949816569e+00) (23, 1.52593078561377182290e+00) (24, 1.91967221425052247952e+00) (25, -5.88354218597908151800e-01) (26, 6.18137228302010455216e-01) (27, 2.24115938251602836440e-01) (28, -2.54964070120953067988e-01) (29, -5.48146549644925240585e+00) (30, -9.45085962425783687735e-01) (31, -3.41875722965692219191e+00) (32, -3.62014789555955562861e+00) (33, 2.15342368040600495860e+00) (34, -5.31674008347197135649e-01) (35, 8.81162161531870324893e+00) (0, 1.90107437526396658711e+01) (1, 2.31681910826216336252e-01) (2, 2.40005692018519040110e-01) (3, 2.46863072289476959131e-01) (4, 2.05840056313524866205e-01) (5, 3.06172987294431098171e-01) (6, -1.06792142143688573164e+00) (7, -1.12260628014502916727e+00) (8, 7.59806945052103666072e-01) (9, 3.26227513427296444970e-01) (10, 5.44163527252924383859e-01) (11, -5.38713045294976389243e+00) (12, -7.27277985518143488264e-01) (13, -1.31165501374958726188e+00) (14, 7.20757261424402106975e-01) (15, 8.78134615659416306599e-01) (16, 5.67799421312480845359e-01) (17, 7.85381100609417792668e-01) (18, 7.44771868320320939993e-01) (19, -3.14588957423655724011e-01) (20, -1.43593634100267353304e+00) (21, 4.11781081540393278928e-02) (22, -5.21388241235506630367e-03) (23, -4.08674130292617121540e-01) (24, 2.32357746291654954085e-01) (25, 1.31680620832983930057e-01) (26, -1.14646265926726775852e+00) (27, -1.89486413371569767383e-01) (28, 8.71391441202623018292e-01) (29, 7.25853699679949504464e-01) (30, 2.13311293881767216618e+00) (31, -2.12245701788180296532e+00) (32, -6.82391089215269142088e-01) (33, 1.50000000000000000000e+03) (34, 6.59006554328882665494e-01) (35, 4.13829375748134331570e-01) (36, 3.76829911594163402544e-01) (37, 4.92135954188895607953e-01) (38, -1.59565011160786340838e+00) (39, 4.56211493179330199177e-02) (40, 9.89475203178683204719e-01) (41, -1.86844181583359497667e-01) (42, -2.68696198080016768195e-01) (43, 6.93941145724629282476e-01) (44, -6.76456930785199972433e-01) (45, -2.57303047562327080744e-01) (46, 5.51035934244589520326e-01) 
