FANN_FLO_2.1
num_layers=3
learning_rate=0.700000
connection_rate=1.000000
network_type=0
learning_momentum=0.000000
training_algorithm=2
train_error_function=1
train_stop_function=1
cascade_output_change_fraction=0.010000
quickprop_decay=-0.000100
quickprop_mu=1.750000
rprop_increase_factor=1.200000
rprop_decrease_factor=0.500000
rprop_delta_min=0.000000
rprop_delta_max=50.000000
rprop_delta_zero=0.100000
cascade_output_stagnation_epochs=12
cascade_candidate_change_fraction=0.010000
cascade_candidate_stagnation_epochs=12
cascade_max_out_epochs=150
cascade_min_out_epochs=50
cascade_max_cand_epochs=150
cascade_min_cand_epochs=50
cascade_num_candidate_groups=2
bit_fail_limit=1.00000000000000005551e-01
cascade_candidate_limit=1.00000000000000000000e+03
cascade_weight_multiplier=4.00000000000000022204e-01
cascade_activation_functions_count=10
cascade_activation_functions=3 5 7 8 10 11 14 15 16 17 
cascade_activation_steepnesses_count=4
cascade_activation_steepnesses=2.50000000000000000000e-01 5.00000000000000000000e-01 7.50000000000000000000e-01 1.00000000000000000000e+00 
layer_sizes=20 4 2 
scale_included=0
neurons (num_inputs, activation_function, activation_steepness)=(0, 0, 0.00000000000000000000e+00) (0, 0, 0.00000000000000000000e+00) (0, 0, 0.00000000000000000000e+00) (0, 0, 0.00000000000000000000e+00) (0, 0, 0.00000000000000000000e+00) (0, 0, 0.00000000000000000000e+00) (0, 0, 0.00000000000000000000e+00) (0, 0, 0.00000000000000000000e+00) (0, 0, 0.00000000000000000000e+00) (0, 0, 0.00000000000000000000e+00) (0, 0, 0.00000000000000000000e+00) (0, 0, 0.00000000000000000000e+00) (0, 0, 0.00000000000000000000e+00) (0, 0, 0.00000000000000000000e+00) (0, 0, 0.00000000000000000000e+00) (0, 0, 0.00000000000000000000e+00) (0, 0, 0.00000000000000000000e+00) (0, 0, 0.00000000000000000000e+00) (0, 0, 0.00000000000000000000e+00) (0, 0, 0.00000000000000000000e+00) (20, 6, 5.00000000000000000000e-01) (20, 6, 5.00000000000000000000e-01) (20, 6, 5.00000000000000000000e-01) (0, 6, 0.00000000000000000000e+00) (4, 4, 5.00000000000000000000e-01) (0, 4, 0.00000000000000000000e+00) 
connections (connected_to_neuron, weight)=(0, 9.18045439092477488785e-01) (1, 2.54213387953403291419e+00) (2, -1.55372345214344651509e+01) (3, 5.32374309551127300466e-01) (4, 3.41666986126313187988e-01) (5, 2.82048569962614372741e+01) (6, -2.66275662271923696522e+00) (7, 2.42322269539230505941e+00) (8, 4.75621449825765818531e+00) (9, -4.16477830226868928065e+00) (10, 3.47978659689151292866e+00) (11, -1.25956907335801489012e+01) (12, 3.07119796688010566754e+01) (13, 1.92391049345757125799e+00) (14, 2.44115068048749517260e+00) (15, -1.64158175821413259143e+01) (16, 2.00712924889141177687e+01) (17, -1.36814773630048343023e+01) (18, -1.38005385488879124267e+01) (19, 2.46276245631810691838e-01) (0, 4.65045381823044081671e+01) (1, -8.71939688244975030784e+01) (2, 1.62209452687117050118e+02) (3, -2.12129269824490762630e+00) (4, 6.81130535177156604121e-01) (5, 6.01432687714319513361e+02) (6, 2.54857012966662566100e+00) (7, 3.27328162587267801342e+00) (8, 1.05176151032544655806e+01) (9, -4.69185445169057757653e+00) (10, 1.43745874989289723622e+00) (11, 7.09995244917836054732e-01) (12, -3.08419939462833383459e+01) (13, 5.72290227879271906630e+00) (14, 1.74981015348194851589e-01) (15, 2.25265420317589558863e+02) (16, -1.26943307646201812844e+01) (17, -8.21315727026731394744e+01) (18, -9.35181166876922702613e+01) (19, 6.17936463276972336445e+00) (0, -2.87762754626788748169e+01) (1, 9.52126232473801259459e+00) (2, -1.10499061688087056865e+01) (3, 1.88000627238436868183e+00) (4, 2.75868224899138780870e+00) (5, 4.30612934269891667327e+01) (6, -2.32599043149656042884e-01) (7, 2.23614821793879009482e-01) (8, -2.93840489580876107478e-01) (9, 5.35574479294291894149e+00) (10, 5.88517078785519220929e+00) (11, 1.01943110466890174415e+00) (12, -9.12191541789018844888e-01) (13, 8.28739612666146041597e-01) (14, 1.36302047002111770269e+00) (15, -6.20365091129391430513e+01) (16, 3.71715929812782874819e+01) (17, 5.77472548625859172233e+00) (18, 5.77386301116857847404e+00) (19, -2.69978503370371125669e+00) (20, -9.26923874918742640716e+00) (21, -2.57086373967236436755e-01) (22, 1.01514746871943941642e+01) (23, -6.30965820737753002589e+00) 
