FANN_FLO_2.1
num_layers=3
learning_rate=0.700000
connection_rate=1.000000
network_type=0
learning_momentum=0.000000
training_algorithm=2
train_error_function=1
train_stop_function=1
cascade_output_change_fraction=0.010000
quickprop_decay=-0.000100
quickprop_mu=1.750000
rprop_increase_factor=1.200000
rprop_decrease_factor=0.500000
rprop_delta_min=0.000000
rprop_delta_max=50.000000
rprop_delta_zero=0.100000
cascade_output_stagnation_epochs=12
cascade_candidate_change_fraction=0.010000
cascade_candidate_stagnation_epochs=12
cascade_max_out_epochs=150
cascade_min_out_epochs=50
cascade_max_cand_epochs=150
cascade_min_cand_epochs=50
cascade_num_candidate_groups=2
bit_fail_limit=1.00000000000000005551e-01
cascade_candidate_limit=1.00000000000000000000e+03
cascade_weight_multiplier=4.00000000000000022204e-01
cascade_activation_functions_count=10
cascade_activation_functions=3 5 7 8 10 11 14 15 16 17 
cascade_activation_steepnesses_count=4
cascade_activation_steepnesses=2.50000000000000000000e-01 5.00000000000000000000e-01 7.50000000000000000000e-01 1.00000000000000000000e+00 
layer_sizes=9 11 2 
scale_included=0
neurons (num_inputs, activation_function, activation_steepness)=(0, 0, 0.00000000000000000000e+00) (0, 0, 0.00000000000000000000e+00) (0, 0, 0.00000000000000000000e+00) (0, 0, 0.00000000000000000000e+00) (0, 0, 0.00000000000000000000e+00) (0, 0, 0.00000000000000000000e+00) (0, 0, 0.00000000000000000000e+00) (0, 0, 0.00000000000000000000e+00) (0, 0, 0.00000000000000000000e+00) (9, 6, 5.00000000000000000000e-01) (9, 6, 5.00000000000000000000e-01) (9, 6, 5.00000000000000000000e-01) (9, 6, 5.00000000000000000000e-01) (9, 6, 5.00000000000000000000e-01) (9, 6, 5.00000000000000000000e-01) (9, 6, 5.00000000000000000000e-01) (9, 6, 5.00000000000000000000e-01) (9, 6, 5.00000000000000000000e-01) (9, 6, 5.00000000000000000000e-01) (0, 6, 0.00000000000000000000e+00) (11, 6, 5.00000000000000000000e-01) (0, 6, 0.00000000000000000000e+00) 
connections (connected_to_neuron, weight)=(0, 2.22335115752126180610e-02) (1, 6.91296296973027135646e-02) (2, 1.40628597404459959597e-01) (3, 6.22401821274556274477e-02) (4, 1.93672931458453184694e-01) (5, 7.10439530296346211102e-02) (6, 1.61431687256094624772e+00) (7, 5.24629946571133820576e-01) (8, 9.66813099131244024775e-01) (0, -1.33696296240816137058e-01) (1, -9.59038391256302885646e-02) (2, -5.01876279258698307362e-02) (3, -1.80540963217016986464e-01) (4, -1.59547488346096805190e-01) (5, 3.02534869170679843187e-01) (6, 2.77383003219179080645e-01) (7, 3.29922959553434036462e-01) (8, 3.94181708712439515807e-01) (0, 1.66449484133562961574e+01) (1, 5.58468565283502194063e-01) (2, 5.86402311859811398165e-01) (3, 5.12684047160829048373e-01) (4, 5.87324812947000118868e-01) (5, -6.52047789916714570779e+00) (6, -1.79515068343793937622e+00) (7, -2.51049887827285234110e+00) (8, 2.02780176766205100236e+00) (0, 7.15340296396591934780e+00) (1, 3.94654702611653196431e-01) (2, 2.88363792218653602895e-01) (3, 2.96051550873009605702e-01) (4, 2.93463371910540504750e-01) (5, 1.29152728079460050736e+01) (6, 6.96840230940382610036e-02) (7, -2.08829613695535609708e+00) (8, -2.13769669030658748810e-01) (0, -1.94347996961381108694e-01) (1, -1.56871751989176605457e-01) (2, -2.59890343201665367789e-02) (3, -1.00779951657107277874e-01) (4, -1.12238929714014931682e-01) (5, 5.04615883068081805263e-01) (6, 4.94510309959440230720e-01) (7, 4.35033994903120446729e-01) (8, 4.46684174876854855896e-01) (0, 1.57046856117754494164e+01) (1, 4.19113642385680884583e-01) (2, 4.80708188226897925599e-01) (3, 4.58868822863776892884e-01) (4, 3.96524949780185431703e-01) (5, -4.51598426224412197172e+00) (6, -1.06499456111177814854e+00) (7, -2.29765392393163825346e+00) (8, 4.41238636425543562236e-01) (0, -9.83461817806040805579e+00) (1, -1.74613273094483600900e-01) (2, -1.56553389827796152201e-01) (3, -1.50149481694289377298e-01) (4, -2.25202127798283247007e-02) (5, 7.46336625434840805760e-01) (6, 4.53202616453694806520e-01) (7, 2.57447695102487283947e+00) (8, 1.62820080516371479273e-01) (0, 7.46916935889036892604e+00) (1, 2.67765117763063886791e-01) (2, 4.04417743860266132305e-01) (3, 3.68421068368933124493e-01) (4, 3.67124414025328082989e-01) (5, 1.04222984821857007631e+01) (6, -2.34580266691446180649e-02) (7, -2.47819264056706023425e+00) (8, -5.88391000229473715155e-02) (0, 1.84452165623894104307e+00) (1, 2.84405455489941727532e-01) (2, 2.34883159895726251198e-01) (3, 1.89229231824465854439e-01) (4, 2.82085136075802933586e-01) (5, 3.85953693255336416357e+00) (6, 5.11776583897201597928e-01) (7, 3.21126575249302992354e-01) (8, 7.56192633026838700872e-01) (0, 1.47000474273761447819e+01) (1, 4.75602798109578117636e-01) (2, 3.18165592794941887167e-01) (3, 4.51541162972973808554e-01) (4, 5.06530977731274312248e-01) (5, -5.92370600118033685533e+00) (6, -9.50380034816357244232e-01) (7, -2.15235760221436045470e+00) (8, 2.01739793337869910417e+00) (9, -7.78629591797879994086e-02) (10, -1.30327697042431855934e-01) (11, -3.76745720380529947047e-01) (12, 3.28979124328998062676e-01) (13, 7.44130814646788707467e-02) (14, -2.68534749105245440504e-01) (15, 3.37309625066209761712e-01) (16, 3.55903161618639218844e-01) (17, 1.86189799348827733638e-01) (18, -3.13062771513730686568e-01) (19, 4.49444689395335161830e-01) 
