FANN_FLO_2.1
num_layers=3
learning_rate=0.700000
connection_rate=1.000000
network_type=0
learning_momentum=0.000000
training_algorithm=2
train_error_function=1
train_stop_function=1
cascade_output_change_fraction=0.010000
quickprop_decay=-0.000100
quickprop_mu=1.750000
rprop_increase_factor=1.200000
rprop_decrease_factor=0.500000
rprop_delta_min=0.000000
rprop_delta_max=50.000000
rprop_delta_zero=0.100000
cascade_output_stagnation_epochs=12
cascade_candidate_change_fraction=0.010000
cascade_candidate_stagnation_epochs=12
cascade_max_out_epochs=150
cascade_min_out_epochs=50
cascade_max_cand_epochs=150
cascade_min_cand_epochs=50
cascade_num_candidate_groups=2
bit_fail_limit=1.00000000000000005551e-01
cascade_candidate_limit=1.00000000000000000000e+03
cascade_weight_multiplier=4.00000000000000022204e-01
cascade_activation_functions_count=10
cascade_activation_functions=3 5 7 8 10 11 14 15 16 17 
cascade_activation_steepnesses_count=4
cascade_activation_steepnesses=2.50000000000000000000e-01 5.00000000000000000000e-01 7.50000000000000000000e-01 1.00000000000000000000e+00 
layer_sizes=8 11 2 
scale_included=0
neurons (num_inputs, activation_function, activation_steepness)=(0, 0, 0.00000000000000000000e+00) (0, 0, 0.00000000000000000000e+00) (0, 0, 0.00000000000000000000e+00) (0, 0, 0.00000000000000000000e+00) (0, 0, 0.00000000000000000000e+00) (0, 0, 0.00000000000000000000e+00) (0, 0, 0.00000000000000000000e+00) (0, 0, 0.00000000000000000000e+00) (8, 6, 5.00000000000000000000e-01) (8, 6, 5.00000000000000000000e-01) (8, 6, 5.00000000000000000000e-01) (8, 6, 5.00000000000000000000e-01) (8, 6, 5.00000000000000000000e-01) (8, 6, 5.00000000000000000000e-01) (8, 6, 5.00000000000000000000e-01) (8, 6, 5.00000000000000000000e-01) (8, 6, 5.00000000000000000000e-01) (8, 6, 5.00000000000000000000e-01) (0, 6, 0.00000000000000000000e+00) (11, 6, 5.00000000000000000000e-01) (0, 6, 0.00000000000000000000e+00) 
connections (connected_to_neuron, weight)=(0, -6.02872413200663093136e-01) (1, -1.37713892509142871168e-01) (2, -2.14035948862235120282e-01) (3, -2.26953400422732404218e-01) (4, -2.81899148722092762753e-01) (5, 6.80778052899488672622e-01) (6, 7.29885993361734763951e-01) (7, -2.44559288943491104362e-02) (0, 1.84011658864804028557e-01) (1, 1.14519731773205131475e-02) (2, 1.05172759450799929715e-01) (3, 9.10519944204158659939e-02) (4, 8.11067731751270448726e-02) (5, -4.62418997965044820120e-01) (6, -5.43916133299401249879e-01) (7, 4.06568082208957903845e-01) (0, 1.37429188727113249513e+00) (1, 2.44271358618791789574e-01) (2, 4.34212898979242589714e-01) (3, 2.75199560592230052514e-01) (4, 4.09308543572481420281e-01) (5, -1.62473310145027305396e+00) (6, -1.32518524968489526117e+00) (7, 4.58509311116173989831e-01) (0, 1.14054829912666955138e+00) (1, 7.39403474875494515217e-01) (2, 7.12116796322866951741e-01) (3, 6.98325197943254982746e-01) (4, 7.68281508036657845295e-01) (5, 3.93014833299460253357e+00) (6, -1.68982798592474225963e+00) (7, -5.87398972623067616716e-01) (0, 2.36184882123881501048e-01) (1, 1.45680664166918077962e-01) (2, 1.59427387699594774739e-01) (3, 1.05530923292150774495e-01) (4, 1.88429249510279034352e-01) (5, -4.67036410975133264856e-01) (6, -7.41942313784650586683e-01) (7, 3.25009149842953704024e-01) (0, 1.12750041533124356619e+00) (1, 2.54038831362779826684e-01) (2, 3.67392322192247655632e-01) (3, 3.94676303634699132683e-01) (4, 3.24614299604948197686e-01) (5, -1.49485738935358192236e+00) (6, -1.10010682092820477607e+00) (7, 3.51795615404879358223e-01) (0, 1.33283927081796171876e+00) (1, 4.33706304592978930668e-01) (2, 4.55766736132991290287e-01) (3, 4.65896426303279376224e-01) (4, 4.37968468828093981937e-01) (5, -2.36144865939507297981e+00) (6, -1.49154511011395096709e+00) (7, 4.54947720629198637532e-01) (0, -6.00722285143025502840e-01) (1, -1.92927030970255902753e-01) (2, -2.72591715802352030362e-01) (3, -1.92909790326754621015e-01) (4, -1.29337919999758715894e-01) (5, 8.87992464322428065593e-01) (6, 8.55304317385219947667e-01) (7, -1.59763944985934241982e-01) (0, -6.51388448280619147823e-01) (1, -1.90520418931643537030e-01) (2, -1.79795725394885114179e-01) (3, -1.30611566950480456617e-01) (4, -1.79895533372561505780e-01) (5, 6.66873317453512415298e-01) (6, 6.75763154238724128575e-01) (7, -1.59810275757990005729e-02) (0, 5.28525424520148168206e-01) (1, 1.35876659618141854002e-01) (2, 1.51105869875672066405e-01) (3, 1.28391441272022927000e-01) (4, 7.00145255191352289259e-02) (5, -5.79496398914896640453e-02) (6, 1.61856997116007345072e-01) (7, 3.97531449846371676138e-02) (8, 5.42599929499086641727e-01) (9, -2.17149956712463882910e-03) (10, -2.21754780162970593915e-01) (11, 1.19939962979739567217e+00) (12, -2.14045361299224246032e-01) (13, -2.12085026681989613495e-01) (14, -2.67318438081373288551e-01) (15, 4.58436017858442568240e-01) (16, 4.87307982521709703860e-01) (17, -1.03236450692272427321e-01) (18, 5.63830513822488277320e-01) 
