FANN_FLO_2.1
num_layers=3
learning_rate=0.700000
connection_rate=1.000000
network_type=0
learning_momentum=0.000000
training_algorithm=2
train_error_function=1
train_stop_function=1
cascade_output_change_fraction=0.010000
quickprop_decay=-0.000100
quickprop_mu=1.750000
rprop_increase_factor=1.200000
rprop_decrease_factor=0.500000
rprop_delta_min=0.000000
rprop_delta_max=50.000000
rprop_delta_zero=0.100000
cascade_output_stagnation_epochs=12
cascade_candidate_change_fraction=0.010000
cascade_candidate_stagnation_epochs=12
cascade_max_out_epochs=150
cascade_min_out_epochs=50
cascade_max_cand_epochs=150
cascade_min_cand_epochs=50
cascade_num_candidate_groups=2
bit_fail_limit=1.00000000000000005551e-01
cascade_candidate_limit=1.00000000000000000000e+03
cascade_weight_multiplier=4.00000000000000022204e-01
cascade_activation_functions_count=10
cascade_activation_functions=3 5 7 8 10 11 14 15 16 17 
cascade_activation_steepnesses_count=4
cascade_activation_steepnesses=2.50000000000000000000e-01 5.00000000000000000000e-01 7.50000000000000000000e-01 1.00000000000000000000e+00 
layer_sizes=11 4 2 
scale_included=0
neurons (num_inputs, activation_function, activation_steepness)=(0, 0, 0.00000000000000000000e+00) (0, 0, 0.00000000000000000000e+00) (0, 0, 0.00000000000000000000e+00) (0, 0, 0.00000000000000000000e+00) (0, 0, 0.00000000000000000000e+00) (0, 0, 0.00000000000000000000e+00) (0, 0, 0.00000000000000000000e+00) (0, 0, 0.00000000000000000000e+00) (0, 0, 0.00000000000000000000e+00) (0, 0, 0.00000000000000000000e+00) (0, 0, 0.00000000000000000000e+00) (11, 6, 5.00000000000000000000e-01) (11, 6, 5.00000000000000000000e-01) (11, 6, 5.00000000000000000000e-01) (0, 6, 0.00000000000000000000e+00) (4, 4, 5.00000000000000000000e-01) (0, 4, 0.00000000000000000000e+00) 
connections (connected_to_neuron, weight)=(0, -5.87035569014810931776e+00) (1, 3.42242250514253365523e+00) (2, 1.87997865754839854624e+00) (3, 2.93902422931568008124e+00) (4, -2.33531756569382231703e+00) (5, 3.68530518000937279410e+00) (6, 3.05184283799494693312e+00) (7, 2.21338839924707997397e+00) (8, -4.77103946943675694126e-01) (9, 2.92857199776718557516e+00) (10, -5.42549432318100777195e+00) (0, 4.35590652004820313437e+01) (1, 1.23602614613622585615e+00) (2, -2.81152426691422152594e-01) (3, -5.66755307685318232558e+00) (4, 2.84055863141425035678e+00) (5, -5.70509128630009243466e+00) (6, -5.60373456915713408222e+00) (7, -6.19578743507708207261e+00) (8, -2.13289675458944971709e+00) (9, -1.10663546042845553075e+01) (10, 8.16711514313776909546e+00) (0, 4.35991451964718308432e+01) (1, 1.22216031762212673506e+00) (2, -3.19122425706753420904e-01) (3, -5.67421842585983515761e+00) (4, 2.93356118171818680551e+00) (5, -5.62843292564001629330e+00) (6, -2.93047944344414412754e+00) (7, -6.14227874731267586839e+00) (8, -1.88689506979977905665e+00) (9, -1.10778086128042048131e+01) (10, 8.12142085899670540527e+00) (11, 7.91376894243018824682e+01) (12, -1.16037408438260558619e+00) (13, -1.21818586614663604273e+00) (14, -1.16559216983210811591e+00) 
