FANN_FLO_2.1
num_layers=3
learning_rate=0.700000
connection_rate=1.000000
network_type=0
learning_momentum=0.000000
training_algorithm=2
train_error_function=1
train_stop_function=1
cascade_output_change_fraction=0.010000
quickprop_decay=-0.000100
quickprop_mu=1.750000
rprop_increase_factor=1.200000
rprop_decrease_factor=0.500000
rprop_delta_min=0.000000
rprop_delta_max=50.000000
rprop_delta_zero=0.100000
cascade_output_stagnation_epochs=12
cascade_candidate_change_fraction=0.010000
cascade_candidate_stagnation_epochs=12
cascade_max_out_epochs=150
cascade_min_out_epochs=50
cascade_max_cand_epochs=150
cascade_min_cand_epochs=50
cascade_num_candidate_groups=2
bit_fail_limit=1.00000000000000005551e-01
cascade_candidate_limit=1.00000000000000000000e+03
cascade_weight_multiplier=4.00000000000000022204e-01
cascade_activation_functions_count=10
cascade_activation_functions=3 5 7 8 10 11 14 15 16 17 
cascade_activation_steepnesses_count=4
cascade_activation_steepnesses=2.50000000000000000000e-01 5.00000000000000000000e-01 7.50000000000000000000e-01 1.00000000000000000000e+00 
layer_sizes=23 4 2 
scale_included=0
neurons (num_inputs, activation_function, activation_steepness)=(0, 0, 0.00000000000000000000e+00) (0, 0, 0.00000000000000000000e+00) (0, 0, 0.00000000000000000000e+00) (0, 0, 0.00000000000000000000e+00) (0, 0, 0.00000000000000000000e+00) (0, 0, 0.00000000000000000000e+00) (0, 0, 0.00000000000000000000e+00) (0, 0, 0.00000000000000000000e+00) (0, 0, 0.00000000000000000000e+00) (0, 0, 0.00000000000000000000e+00) (0, 0, 0.00000000000000000000e+00) (0, 0, 0.00000000000000000000e+00) (0, 0, 0.00000000000000000000e+00) (0, 0, 0.00000000000000000000e+00) (0, 0, 0.00000000000000000000e+00) (0, 0, 0.00000000000000000000e+00) (0, 0, 0.00000000000000000000e+00) (0, 0, 0.00000000000000000000e+00) (0, 0, 0.00000000000000000000e+00) (0, 0, 0.00000000000000000000e+00) (0, 0, 0.00000000000000000000e+00) (0, 0, 0.00000000000000000000e+00) (0, 0, 0.00000000000000000000e+00) (23, 6, 5.00000000000000000000e-01) (23, 6, 5.00000000000000000000e-01) (23, 6, 5.00000000000000000000e-01) (0, 6, 0.00000000000000000000e+00) (4, 4, 5.00000000000000000000e-01) (0, 4, 0.00000000000000000000e+00) 
connections (connected_to_neuron, weight)=(0, 1.45293916927585287091e+00) (1, -1.72141432231680857612e+00) (2, -4.80385513260074115127e-01) (3, -3.35808159539127126791e-02) (4, 1.14824883802988852999e+00) (5, 3.88692483796570620314e+00) (6, 1.40467603931114726201e+00) (7, 9.52196193183367345370e-01) (8, -4.30202367443304645178e-01) (9, 1.27884404210012703196e+00) (10, -5.68393485039730972375e-03) (11, 1.24690514274837771502e+00) (12, 1.99369173947051314677e+00) (13, -1.85195405716503458393e+00) (14, 1.41585324984056099007e-01) (15, -4.96074914579446302199e-02) (16, -4.51122724666304819596e-01) (17, 4.49081547472500314244e-02) (18, 1.39734507200878366184e+00) (19, -9.41508963709196899927e-01) (20, 1.58517271116908475825e+00) (21, 6.69886044998296092956e+00) (22, 1.05663895932244922271e+00) (0, -1.91126750457011018725e+00) (1, 3.28710181348422647574e+00) (2, 4.80564472077505577818e-01) (3, 3.06171580237055929175e-01) (4, 2.78609064961215957545e-01) (5, 1.34972501438303682519e+00) (6, -1.98043792179432043277e+00) (7, 1.35032914437512818751e+00) (8, 5.82975725536689082240e-01) (9, -2.35308051059343048550e+00) (10, 9.21271821965069515059e-01) (11, -1.21178496580293582063e+00) (12, -1.14965469341447756868e+00) (13, 6.61961211537134497362e-01) (14, -3.98816003285312609128e-02) (15, -4.86228897057437853269e-02) (16, 5.40385355907585629431e-01) (17, -1.39406456433200792722e-02) (18, -2.28976104358531662442e+00) (19, 1.79898928111259714946e+00) (20, -2.25045381849196690638e+00) (21, -6.10049693283600902305e+00) (22, -1.21816355989358471312e+00) (0, -1.81470590877257142992e+00) (1, 3.22830773227313638785e+00) (2, 3.51038039473907825805e-01) (3, 4.12829979342127895148e-01) (4, 4.44248346234103974606e-01) (5, 1.39007763456745836450e+00) (6, -2.08685554048624011259e+00) (7, 1.30164638020257417139e+00) (8, 4.48976073057403168853e-01) (9, -2.37786064992047974087e+00) (10, 9.94180581082195757858e-01) (11, -1.18153978462984965425e+00) (12, -1.14005425523689196687e+00) (13, 6.21153167163145392138e-01) (14, -1.13207390793409384822e-01) (15, -5.65452932201290087155e-02) (16, 7.04380793231632940099e-01) (17, 3.61723739733913474126e-02) (18, -2.32541294345952698208e+00) (19, 1.82209597533409373149e+00) (20, -2.18253692602303805970e+00) (21, -5.98839299005432224021e+00) (22, -1.19210851446769283690e+00) (23, -5.71111849854616515643e+00) (24, 6.74498800988658597788e+00) (25, 7.85667700109738031955e+00) (26, -5.94631572526976848181e-01) 
