FANN_FLO_2.1
num_layers=3
learning_rate=0.700000
connection_rate=1.000000
network_type=0
learning_momentum=0.000000
training_algorithm=2
train_error_function=1
train_stop_function=1
cascade_output_change_fraction=0.010000
quickprop_decay=-0.000100
quickprop_mu=1.750000
rprop_increase_factor=1.200000
rprop_decrease_factor=0.500000
rprop_delta_min=0.000000
rprop_delta_max=50.000000
rprop_delta_zero=0.100000
cascade_output_stagnation_epochs=12
cascade_candidate_change_fraction=0.010000
cascade_candidate_stagnation_epochs=12
cascade_max_out_epochs=150
cascade_min_out_epochs=50
cascade_max_cand_epochs=150
cascade_min_cand_epochs=50
cascade_num_candidate_groups=2
bit_fail_limit=1.00000000000000005551e-01
cascade_candidate_limit=1.00000000000000000000e+03
cascade_weight_multiplier=4.00000000000000022204e-01
cascade_activation_functions_count=10
cascade_activation_functions=3 5 7 8 10 11 14 15 16 17 
cascade_activation_steepnesses_count=4
cascade_activation_steepnesses=2.50000000000000000000e-01 5.00000000000000000000e-01 7.50000000000000000000e-01 1.00000000000000000000e+00 
layer_sizes=11 4 2 
scale_included=0
neurons (num_inputs, activation_function, activation_steepness)=(0, 0, 0.00000000000000000000e+00) (0, 0, 0.00000000000000000000e+00) (0, 0, 0.00000000000000000000e+00) (0, 0, 0.00000000000000000000e+00) (0, 0, 0.00000000000000000000e+00) (0, 0, 0.00000000000000000000e+00) (0, 0, 0.00000000000000000000e+00) (0, 0, 0.00000000000000000000e+00) (0, 0, 0.00000000000000000000e+00) (0, 0, 0.00000000000000000000e+00) (0, 0, 0.00000000000000000000e+00) (11, 6, 5.00000000000000000000e-01) (11, 6, 5.00000000000000000000e-01) (11, 6, 5.00000000000000000000e-01) (0, 6, 0.00000000000000000000e+00) (4, 4, 5.00000000000000000000e-01) (0, 4, 0.00000000000000000000e+00) 
connections (connected_to_neuron, weight)=(0, 5.38408530307502131151e-01) (1, 3.30916815844996214935e+00) (2, -3.60578150636403949036e+00) (3, -2.05529153422311178234e-01) (4, -1.30060491924096854888e-01) (5, -1.27936836351453511185e+01) (6, 5.81482257578340488990e-01) (7, -8.38857238604261840065e-02) (8, -3.93164938016852927305e-01) (9, -3.49895584928744673991e-01) (10, 6.58111024449136050585e-01) (0, -8.74266919119193097742e+00) (1, 1.81495444216032186802e+00) (2, 4.07535002577105065491e-01) (3, 1.93306144302501725640e+00) (4, -4.73689400437708074687e-01) (5, 2.60697578879790015094e+00) (6, 1.21904447426350381889e+00) (7, 1.87643190806897641743e+00) (8, 4.20969441678422096054e-01) (9, 1.81724565711507879406e+00) (10, -2.59783693988522257357e+00) (0, -4.13990517001682345466e+00) (1, 3.44050365220720788528e+00) (2, 4.77920978777923277647e-01) (3, 7.09303413367715962501e-01) (4, -2.03335403766322109220e+00) (5, -5.92827388653500778060e-02) (6, 2.54306102069905426433e+00) (7, 1.07436606228520625805e+00) (8, -1.01477842677607191235e-01) (9, 9.55003710501200031580e-01) (10, -3.47595373286037068183e+00) (11, -2.07523977431740860311e+01) (12, 7.63659660403887130542e+01) (13, 1.97151189909973325598e+01) (14, -1.34685380893583883655e+00) 
