FANN_FLO_2.1
num_layers=3
learning_rate=0.700000
connection_rate=1.000000
network_type=0
learning_momentum=0.000000
training_algorithm=2
train_error_function=1
train_stop_function=1
cascade_output_change_fraction=0.010000
quickprop_decay=-0.000100
quickprop_mu=1.750000
rprop_increase_factor=1.200000
rprop_decrease_factor=0.500000
rprop_delta_min=0.000000
rprop_delta_max=50.000000
rprop_delta_zero=0.100000
cascade_output_stagnation_epochs=12
cascade_candidate_change_fraction=0.010000
cascade_candidate_stagnation_epochs=12
cascade_max_out_epochs=150
cascade_min_out_epochs=50
cascade_max_cand_epochs=150
cascade_min_cand_epochs=50
cascade_num_candidate_groups=2
bit_fail_limit=1.00000000000000005551e-01
cascade_candidate_limit=1.00000000000000000000e+03
cascade_weight_multiplier=4.00000000000000022204e-01
cascade_activation_functions_count=10
cascade_activation_functions=3 5 7 8 10 11 14 15 16 17 
cascade_activation_steepnesses_count=4
cascade_activation_steepnesses=2.50000000000000000000e-01 5.00000000000000000000e-01 7.50000000000000000000e-01 1.00000000000000000000e+00 
layer_sizes=12 4 2 
scale_included=0
neurons (num_inputs, activation_function, activation_steepness)=(0, 0, 0.00000000000000000000e+00) (0, 0, 0.00000000000000000000e+00) (0, 0, 0.00000000000000000000e+00) (0, 0, 0.00000000000000000000e+00) (0, 0, 0.00000000000000000000e+00) (0, 0, 0.00000000000000000000e+00) (0, 0, 0.00000000000000000000e+00) (0, 0, 0.00000000000000000000e+00) (0, 0, 0.00000000000000000000e+00) (0, 0, 0.00000000000000000000e+00) (0, 0, 0.00000000000000000000e+00) (0, 0, 0.00000000000000000000e+00) (12, 6, 5.00000000000000000000e-01) (12, 6, 5.00000000000000000000e-01) (12, 6, 5.00000000000000000000e-01) (0, 6, 0.00000000000000000000e+00) (4, 4, 5.00000000000000000000e-01) (0, 4, 0.00000000000000000000e+00) 
connections (connected_to_neuron, weight)=(0, 1.87634273373483075886e+01) (1, -6.83063375204443978816e+00) (2, -4.90008401611090338434e+00) (3, 6.87179510427133766193e-01) (4, 1.92341658541397064752e+00) (5, -6.25988297353743394780e+00) (6, -6.09571128154917563080e+00) (7, -9.58495710976320403063e+00) (8, -4.70184629541333709568e+00) (9, -1.36531570458791229328e+01) (10, 7.87215702162721187030e-01) (11, 8.00338834566861656583e+00) (0, 1.49366399488743031299e+01) (1, -6.46037683731268064236e+00) (2, -4.99069332691388556356e+00) (3, 6.35839059921443738865e-01) (4, 1.57846939757584636688e+00) (5, -1.02495982905910265615e+00) (6, -5.35525660072927589539e+00) (7, -1.41880276590738674258e+01) (8, -3.70118193185675758983e+00) (9, -1.32472274960010274469e+01) (10, 7.44904644714334041034e-01) (11, 8.11223846781385127258e+00) (0, -7.08401223825573467252e+00) (1, 1.23166272496544459969e+00) (2, 1.59244418940167409282e+00) (3, 1.50368969799603041659e-01) (4, 1.82068085300309025210e-02) (5, -1.65719451942627660213e-01) (6, 4.11742429362355999434e-01) (7, 1.02549039286064425092e+00) (8, 3.75487783263137364642e-01) (9, 1.53338824743808443962e+00) (10, -8.59690285135589538079e-01) (11, 4.47524978215954674643e-02) (12, -2.73678230909746567079e+00) (13, -4.83178010314886297039e+00) (14, 9.13698635871818543031e-01) (15, -1.76534017256694730769e+00) 
