FANN_FLO_2.1
num_layers=3
learning_rate=0.700000
connection_rate=1.000000
network_type=0
learning_momentum=0.000000
training_algorithm=2
train_error_function=1
train_stop_function=1
cascade_output_change_fraction=0.010000
quickprop_decay=-0.000100
quickprop_mu=1.750000
rprop_increase_factor=1.200000
rprop_decrease_factor=0.500000
rprop_delta_min=0.000000
rprop_delta_max=50.000000
rprop_delta_zero=0.100000
cascade_output_stagnation_epochs=12
cascade_candidate_change_fraction=0.010000
cascade_candidate_stagnation_epochs=12
cascade_max_out_epochs=150
cascade_min_out_epochs=50
cascade_max_cand_epochs=150
cascade_min_cand_epochs=50
cascade_num_candidate_groups=2
bit_fail_limit=1.00000000000000005551e-01
cascade_candidate_limit=1.00000000000000000000e+03
cascade_weight_multiplier=4.00000000000000022204e-01
cascade_activation_functions_count=10
cascade_activation_functions=3 5 7 8 10 11 14 15 16 17 
cascade_activation_steepnesses_count=4
cascade_activation_steepnesses=2.50000000000000000000e-01 5.00000000000000000000e-01 7.50000000000000000000e-01 1.00000000000000000000e+00 
layer_sizes=8 4 2 
scale_included=0
neurons (num_inputs, activation_function, activation_steepness)=(0, 0, 0.00000000000000000000e+00) (0, 0, 0.00000000000000000000e+00) (0, 0, 0.00000000000000000000e+00) (0, 0, 0.00000000000000000000e+00) (0, 0, 0.00000000000000000000e+00) (0, 0, 0.00000000000000000000e+00) (0, 0, 0.00000000000000000000e+00) (0, 0, 0.00000000000000000000e+00) (8, 6, 5.00000000000000000000e-01) (8, 6, 5.00000000000000000000e-01) (8, 6, 5.00000000000000000000e-01) (0, 6, 0.00000000000000000000e+00) (4, 4, 5.00000000000000000000e-01) (0, 4, 0.00000000000000000000e+00) 
connections (connected_to_neuron, weight)=(0, -9.77524703126895100347e-01) (1, 1.64222101882805793238e+00) (2, 1.53837247356513717733e+00) (3, -7.38875331626104969729e-01) (4, 2.47238496803322549411e+00) (5, 9.16818778831148817332e-02) (6, 6.70211106757029551062e-01) (7, -1.52784481605337019161e+00) (0, -1.09116829778095114634e+00) (1, 1.96103500436708566568e+00) (2, 1.82464058659094718884e+00) (3, 1.15263597929433081468e-01) (4, 1.73845494912528986120e+00) (5, 4.92953152426730989433e-01) (6, 3.38704054850351532480e+00) (7, -2.88919891803701212041e+00) (0, 2.80883325687529605830e+00) (1, 1.21884140532277016056e-01) (2, -4.36790979803377443780e-01) (3, 2.11779313117888801088e+00) (4, 1.34741074855304021618e+00) (5, 1.62811047945174935947e+00) (6, 1.92866261404907635146e+00) (7, 8.58133459041600765715e+00) (8, 1.01122668020602208827e+01) (9, 2.45567136730833510683e+01) (10, -1.90319317184235892171e+00) (11, -1.89780217759158453816e+00) 
