FANN_FLO_2.1
num_layers=3
learning_rate=0.700000
connection_rate=1.000000
network_type=0
learning_momentum=0.000000
training_algorithm=2
train_error_function=1
train_stop_function=1
cascade_output_change_fraction=0.010000
quickprop_decay=-0.000100
quickprop_mu=1.750000
rprop_increase_factor=1.200000
rprop_decrease_factor=0.500000
rprop_delta_min=0.000000
rprop_delta_max=50.000000
rprop_delta_zero=0.100000
cascade_output_stagnation_epochs=12
cascade_candidate_change_fraction=0.010000
cascade_candidate_stagnation_epochs=12
cascade_max_out_epochs=150
cascade_min_out_epochs=50
cascade_max_cand_epochs=150
cascade_min_cand_epochs=50
cascade_num_candidate_groups=2
bit_fail_limit=1.00000000000000005551e-01
cascade_candidate_limit=1.00000000000000000000e+03
cascade_weight_multiplier=4.00000000000000022204e-01
cascade_activation_functions_count=10
cascade_activation_functions=3 5 7 8 10 11 14 15 16 17 
cascade_activation_steepnesses_count=4
cascade_activation_steepnesses=2.50000000000000000000e-01 5.00000000000000000000e-01 7.50000000000000000000e-01 1.00000000000000000000e+00 
layer_sizes=38 11 2 
scale_included=0
neurons (num_inputs, activation_function, activation_steepness)=(0, 0, 0.00000000000000000000e+00) (0, 0, 0.00000000000000000000e+00) (0, 0, 0.00000000000000000000e+00) (0, 0, 0.00000000000000000000e+00) (0, 0, 0.00000000000000000000e+00) (0, 0, 0.00000000000000000000e+00) (0, 0, 0.00000000000000000000e+00) (0, 0, 0.00000000000000000000e+00) (0, 0, 0.00000000000000000000e+00) (0, 0, 0.00000000000000000000e+00) (0, 0, 0.00000000000000000000e+00) (0, 0, 0.00000000000000000000e+00) (0, 0, 0.00000000000000000000e+00) (0, 0, 0.00000000000000000000e+00) (0, 0, 0.00000000000000000000e+00) (0, 0, 0.00000000000000000000e+00) (0, 0, 0.00000000000000000000e+00) (0, 0, 0.00000000000000000000e+00) (0, 0, 0.00000000000000000000e+00) (0, 0, 0.00000000000000000000e+00) (0, 0, 0.00000000000000000000e+00) (0, 0, 0.00000000000000000000e+00) (0, 0, 0.00000000000000000000e+00) (0, 0, 0.00000000000000000000e+00) (0, 0, 0.00000000000000000000e+00) (0, 0, 0.00000000000000000000e+00) (0, 0, 0.00000000000000000000e+00) (0, 0, 0.00000000000000000000e+00) (0, 0, 0.00000000000000000000e+00) (0, 0, 0.00000000000000000000e+00) (0, 0, 0.00000000000000000000e+00) (0, 0, 0.00000000000000000000e+00) (0, 0, 0.00000000000000000000e+00) (0, 0, 0.00000000000000000000e+00) (0, 0, 0.00000000000000000000e+00) (0, 0, 0.00000000000000000000e+00) (0, 0, 0.00000000000000000000e+00) (0, 0, 0.00000000000000000000e+00) (38, 6, 5.00000000000000000000e-01) (38, 6, 5.00000000000000000000e-01) (38, 6, 5.00000000000000000000e-01) (38, 6, 5.00000000000000000000e-01) (38, 6, 5.00000000000000000000e-01) (38, 6, 5.00000000000000000000e-01) (38, 6, 5.00000000000000000000e-01) (38, 6, 5.00000000000000000000e-01) (38, 6, 5.00000000000000000000e-01) (38, 6, 5.00000000000000000000e-01) (0, 6, 0.00000000000000000000e+00) (11, 6, 5.00000000000000000000e-01) (0, 6, 0.00000000000000000000e+00) 
connections (connected_to_neuron, weight)=(0, 4.99730706900836025852e+01) (1, -1.03124878898301890889e-02) (2, 2.40062870487533393249e-02) (3, 1.04025880287583569195e-01) (4, 1.13903800438340654932e-01) (5, -6.80791664490150161271e-01) (6, 3.36721913437162609362e-02) (7, -1.74583852369387976244e-01) (8, -3.36075926044860917585e-01) (9, -1.38408515596219833244e-01) (10, -1.82421649277465269812e+00) (11, -2.16552958396999883917e+00) (12, -2.70564126930410520089e+00) (13, -2.65779762008067133028e-01) (14, -3.40250859272821282175e-01) (15, -2.13488907229118884956e+00) (16, -2.23110003097965092778e+00) (17, -2.05781523954818057476e+00) (18, -6.39981574906979600037e-01) (19, -1.79621794494708764134e+00) (20, -6.24983359456868559079e-01) (21, -1.03159458270066312080e-01) (22, -3.69111169099147051753e+00) (23, 5.66293393431269789784e-02) (24, -1.32041410081892807149e+00) (25, -2.62371859021857167793e-01) (26, -1.56019690850094483459e+00) (27, -3.23851604356039857180e+00) (28, -1.25932156287020369234e-01) (29, -1.58710267548862016262e+00) (30, -9.95787744543994768343e-01) (31, -2.97332319627949814844e+00) (32, -5.59945856770901873034e+00) (33, -3.23221155389412162506e+00) (34, -3.80107273176424609318e+00) (35, -4.67756829013207298118e+00) (36, 1.76523880642792896367e+00) (37, 4.23484364213349895323e+00) (0, 1.70110133101484417573e+00) (1, 1.32487311383967659717e-01) (2, 9.12006369119324660291e-04) (3, 1.33148461004977430866e-01) (4, -9.53649787020146265382e-03) (5, 7.68510465691984445691e-02) (6, 5.43084930940450003045e-02) (7, -3.92811941839766240459e-02) (8, 1.03303098284635963555e-01) (9, 2.85585611043965952038e-02) (10, 4.79494289024816477962e+00) (11, -8.72011568004412929156e-01) (12, -2.23239851299571423482e+00) (13, 1.14704972772211311050e-01) (14, -1.17841486811044674626e-02) (15, 3.00130056229379917065e-02) (16, -1.35006998336277295181e+00) (17, -2.08233507199989287262e-01) (18, -3.81854753709479285972e-02) (19, 1.48043344573516810669e+03) (20, 1.47252609113463550639e-01) (21, -4.22889117026719052461e-02) (22, 1.50000000000000000000e+03) (23, -8.84284581541643216474e-02) (24, -2.73547230659277662568e-01) (25, 1.14008582881571604584e-01) (26, 1.29114802018674676987e+01) (27, 1.99152501739284587545e-01) (28, -2.66499048838016505680e-01) (29, 5.17543697730217466813e-01) (30, -1.77999571847760607035e-02) (31, 5.41352969134457495670e+00) (32, 3.22035945488313979368e+00) (33, 6.97110848122787341019e-01) (34, 9.81861092346369535022e-01) (35, -5.20695699005306522622e+00) (36, 1.50000000000000000000e+03) (37, 5.95780633349067209603e-02) (0, 3.93153013780274163125e+00) (1, 6.60435370969502111294e-01) (2, 6.47603727745739599087e-01) (3, 6.87514237928120275356e-01) (4, 5.81264167892662775294e-01) (5, 5.79189042556312472243e+00) (6, 5.91125037266788555534e-01) (7, 3.23832259992128541626e+01) (8, 6.60887175967556572687e+00) (9, 2.21566302760858341303e-01) (10, -7.71310183231868151665e+00) (11, 1.50000000000000000000e+03) (12, 1.50000000000000000000e+03) (13, 2.71422157090738913610e-01) (14, 4.33448155534533141608e-01) (15, 6.19703146817299099780e+00) (16, -9.60706379958431666566e-01) (17, 2.09418121100486516184e+01) (18, 4.97626517028412607146e+00) (19, 5.07026955144976454903e+02) (20, 3.44701180889975145050e-01) (21, 1.41215896101988258593e-01) (22, 1.50000000000000000000e+03) (23, 6.08829598501591684467e-01) (24, 2.16541578658886692210e+02) (25, 2.06290096495512859098e-01) (26, -7.13046852168471634315e+00) (27, 3.44496177776758738531e+00) (28, -5.23155691016107704527e-01) (29, 6.00048818410945461466e+00) (30, -2.83807667716590217299e-01) (31, -6.28113374705621474448e+00) (32, -1.32184610342457560250e+01) (33, -1.41471558449603063146e+00) (34, 3.13652821912644874658e+00) (35, -5.79669595356941158570e+00) (36, 1.50000000000000000000e+03) (37, 2.15753739646654940643e+00) (0, 9.74392328804993823610e+00) (1, 9.29736801225695963513e-03) (2, 6.61952317579460325359e-02) (3, 6.54737361509359367534e-03) (4, 1.81102243147678726443e-01) (5, -7.88422266742507676929e-02) (6, 5.43479126065626958614e-03) (7, -1.83512012684615227753e-01) (8, -3.69347092182128813875e-02) (9, 4.93657952183815598723e-02) (10, -1.07711070007552733863e+00) (11, -4.01952968523297926584e-01) (12, -5.59377054559308861670e-01) (13, 1.25984732422915912675e-01) (14, 3.48808853228854548467e-02) (15, -2.18675971716798339672e-01) (16, -3.09821028220085947780e-01) (17, 1.25566064463153570507e+00) (18, -1.34767028839829637772e-03) (19, 4.30027612852539675714e+00) (20, 1.53629279736431589853e-01) (21, -1.29557249020862880196e-01) (22, -5.91769933881504006656e-01) (23, 4.98815982871279040012e-02) (24, 1.54054801807449037732e+00) (25, 3.02934148441640332255e-03) (26, 9.31676270716251253567e-02) (27, 4.52374208138713873595e-01) (28, 7.01647184911058929835e-02) (29, 1.12514128722725725851e+00) (30, -7.28263006159620002178e-02) (31, 1.60003584141515317607e-02) (32, -2.14523541127973027542e+00) (33, -1.20724265845574996181e-01) (34, 3.64992448006198677568e-01) (35, 5.97014111868113928061e-01) (36, 1.38073721874886268246e+00) (37, 4.67363305056776479063e-01) (0, 9.82944591549142110409e+00) (1, 1.76070648733701623501e-01) (2, 3.89024424591925543915e-02) (3, 1.29638623003091812969e-01) (4, 1.90227973763074792446e-01) (5, 1.86168043683698094526e+01) (6, 2.12291907124769174686e+00) (7, 3.17136396659942363385e+01) (8, 2.15247333824080211429e+00) (9, -8.57472167897510684220e-01) (10, 1.36131234779128487133e+01) (11, -8.75257421169209126610e-01) (12, -1.16863910274953441970e+00) (13, -1.12886990883371374217e+00) (14, -1.02072807022837469537e-01) (15, 2.15910342527678622560e+01) (16, -1.57129432778445599084e+00) (17, 1.19211664631521259139e+02) (18, -1.51271099616055648696e+00) (19, -5.21737708812197542585e+00) (20, -3.84068718997060453216e-04) (21, 3.29847107469444289496e-01) (22, -1.41385989729233472190e+01) (23, 5.36559151012958590599e-01) (24, 8.95419768747513842300e+01) (25, 3.77675556643785215183e-01) (26, 2.92706651568407210107e+01) (27, -1.15074385055855561433e+01) (28, -6.03277071727424174519e-01) (29, 8.66839682122501997696e+00) (30, 1.01319840205458353011e-01) (31, 1.26345985178897510792e+01) (32, -6.95484677447164223452e+00) (33, -1.26012961876166063035e+01) (34, -1.19621110538626442832e+01) (35, -4.99159046164177389038e-01) (36, 1.29362028540099438523e+00) (37, 3.19426211905590062834e-01) (0, -2.22865280459729042661e+00) (1, -9.61788758791640857604e-02) (2, -1.41877503708715824171e-01) (3, -1.87393130377645877882e-01) (4, -6.17872715152453441667e-02) (5, 2.88069354806055943907e-01) (6, 3.26656657541921469079e-01) (7, 2.75929588861308305869e-01) (8, 4.33532200846493465107e-01) (9, 3.46882630758762133816e-01) (10, 1.19785671806889770785e+00) (11, 1.04450449111969501104e+00) (12, 1.78214593236789231590e+00) (13, 2.35309672586389823090e-01) (14, 4.28520057479280236379e-01) (15, 5.18709891933865629987e-01) (16, 1.17952719137347949996e+00) (17, -4.86149335419471528841e-01) (18, 8.80875307390308753819e-02) (19, 4.94351409071457492672e+00) (20, 3.71491181665727865369e-01) (21, 3.73007365678201197046e-01) (22, 2.63685497893704345884e+00) (23, 3.21973211875419884631e-01) (24, -4.42416315541590721150e-01) (25, 1.29741401102918957333e-01) (26, 2.41788027063243804449e+00) (27, 4.85884828833655291191e+00) (28, 3.86698491168591895750e-01) (29, -3.63911329025993324215e-01) (30, 3.53223152931348038930e-01) (31, 3.22768175467683970936e+00) (32, 6.68396482341054021248e+00) (33, 4.53773382802665992131e+00) (34, 4.70799068489786254332e+00) (35, 1.70883252761459369928e+00) (36, -3.18807564540085408566e+00) (37, 8.08104489343373401378e-03) (0, -1.98495474719655248919e+02) (1, -1.39921626551674033179e-01) (2, 2.58026211423415946511e-02) (3, -9.56562594609721844607e-02) (4, -9.11312411598962264503e-03) (5, 6.79438362260076811339e-01) (6, 2.63049321087566123634e-01) (7, 7.17426875240421285662e-02) (8, 9.28874652006940748628e-01) (9, 3.68845790551423691195e-01) (10, 4.57038369683380008013e+00) (11, 2.22101633673392306889e+00) (12, 3.44951067347142981134e-01) (13, -5.33168273622885227625e-02) (14, 1.55150774697679821879e-01) (15, 4.62618937193317414369e+00) (16, 1.18771554428787884383e+00) (17, 7.41604004443487063725e+00) (18, 3.04101711709590938337e-01) (19, -4.49407463271873819366e+00) (20, 1.22073205509439952632e-01) (21, 1.84760522017896028357e-01) (22, -5.61541723403145343063e-01) (23, 7.59654847238369845819e-01) (24, 7.91734775672934532054e+00) (25, 1.38183625433304813068e-01) (26, 3.79714703533434985161e+01) (27, -2.18142190002687907935e+00) (28, 1.86113963180913444262e-01) (29, 5.72307177160129576521e+00) (30, 4.72364144228008153714e-01) (31, 4.69233268999975372537e+00) (32, -2.40713504606209083292e+00) (33, -2.01197331343578689200e+00) (34, -1.88565667047973417603e+00) (35, 1.56752882924639980189e+01) (36, -7.14585819983828418600e-01) (37, -9.43750206453297241227e-02) (0, 1.22168220914543095290e+01) (1, 3.43188119669248059562e-01) (2, 3.10623338063050757896e-01) (3, 3.70788475115586768638e-01) (4, 3.09634005267907630454e-01) (5, 1.87626245066277519413e+01) (6, 9.72973322278329194601e-02) (7, 7.97019800589360016829e+01) (8, 1.47028251994701868455e+01) (9, -2.08285905511037006121e+00) (10, 1.37401076340132828335e+01) (11, 1.92864925346437776632e+00) (12, -7.15040368313059726546e-01) (13, 7.53067360483241299285e-01) (14, 2.74004526833492023652e-01) (15, 5.23482017857658661342e+01) (16, 9.67418397787861983339e-01) (17, 5.22549090007801524393e+01) (18, -6.47086594491865785272e-01) (19, -2.12226560690788712549e+00) (20, 8.79566770009224674354e-02) (21, -2.39603692371216725476e+00) (22, -6.45972980723727374652e+00) (23, -5.47854731590689120191e-02) (24, 5.17550387411689371220e+02) (25, -6.80387847743188611815e-01) (26, 1.98719709352945486103e+01) (27, -3.75827699036776330388e+00) (28, -1.14546804269887836369e+00) (29, 1.40728683884094056822e+01) (30, -4.84542155220354864298e+00) (31, 1.22443106869326179265e+01) (32, -5.06417817050870233686e+00) (33, -4.96112796138363520981e+00) (34, -4.17564338241441035393e+00) (35, -2.31166738545688099649e+00) (36, 1.85639881902839176675e+00) (37, -3.39671167685769725963e+00) (0, 1.16465247451820097524e+01) (1, 1.06311773738993087246e-01) (2, 6.33139776505363960357e-02) (3, 8.22768191315064456592e-02) (4, 5.37205951727762059944e-02) (5, -5.03589878942990940014e-02) (6, -1.38240144956273985910e-01) (7, -2.08273426517784632228e-01) (8, -2.17143024735176604079e-01) (9, -2.70908980641370970843e-02) (10, 1.82565713382924887931e+00) (11, 1.94959793756873916992e-01) (12, 6.03499819249896374274e-01) (13, 3.07770344203046365694e-02) (14, -2.06770934893398788956e-01) (15, -5.37836340568896953407e-01) (16, 5.67707702243073833448e-02) (17, 8.58502206870807471617e-01) (18, -8.05056694645846747382e-03) (19, -3.67906738402329969162e+00) (20, 6.36128268001621144379e-02) (21, -1.72384731554523856767e-01) (22, -2.21593867406833089362e+00) (23, -1.19192413587751191995e-01) (24, 9.54259941319074322941e-01) (25, -4.53070871802927002681e-02) (26, 4.00858809493819301384e-01) (27, -9.40599913651874230958e-01) (28, -3.91527055551033238701e-03) (29, 7.13089688453354408892e-01) (30, -2.00973685171547677975e-02) (31, 4.21887230507733801410e-01) (32, 1.50000000000000000000e+03) (33, -1.21352036393112605595e+00) (34, -8.55632602771678740794e-01) (35, -1.99665833303453532643e+00) (36, -1.13457671322331465902e+00) (37, 4.46788974207622036072e-01) (0, 2.48955303141100792175e+00) (1, 1.61914677841234283528e-01) (2, 2.84118162018826114767e-01) (3, 2.18225823266077118001e-01) (4, 2.97070251328518497580e-01) (5, 6.61743131696379115886e-03) (6, -6.81722429015625519533e-01) (7, -4.69840126486573195219e-01) (8, -9.79399855813439912389e-01) (9, 8.71247427629665283089e-02) (10, 4.18267531497780353789e+00) (11, -1.74720179306095579896e+00) (12, -1.76883339005041628766e+00) (13, -3.73588239251462783663e-01) (14, -1.19999178939905815078e+00) (15, -7.22615985348626144180e-01) (16, -1.67108833796340716660e+00) (17, -4.76596689791048078177e-01) (18, -1.83784237724236437783e-01) (19, 1.49068849461746435736e+03) (20, -6.01484740177979371190e-01) (21, -5.82509607088971481659e-01) (22, 1.50000000000000000000e+03) (23, -6.06318699997848264971e-01) (24, -4.56731378456340597616e-01) (25, -2.73858443097762527252e-01) (26, 7.60778073897075035603e+00) (27, 2.39180655864002167377e+00) (28, 9.98949355287996609842e-02) (29, -1.56005853285841178391e+00) (30, -7.52698052974990206021e-02) (31, 5.50001919228478630686e+00) (32, 4.34519990665595567947e+00) (33, 2.86440385998837765413e+00) (34, 2.83681271512543053959e+00) (35, -5.77465505354282093720e+00) (36, 1.50000000000000000000e+03) (37, 1.46835142081505526379e-01) (38, -4.73493383169570958291e-01) (39, 2.60213706046670434358e-01) (40, 7.17729187468986284948e-01) (41, -7.69787713743169677016e-01) (42, 2.64621564017205712638e-01) (43, 7.64862332475023221079e-01) (44, 1.09253793920092423519e+00) (45, 8.32819246884284547505e-01) (46, -3.90088346684927367303e-01) (47, 5.77935358534471421699e-01) (48, 8.12827118540633386523e-01) 
