FANN_FLO_2.1
num_layers=3
learning_rate=0.700000
connection_rate=1.000000
network_type=0
learning_momentum=0.000000
training_algorithm=2
train_error_function=1
train_stop_function=1
cascade_output_change_fraction=0.010000
quickprop_decay=-0.000100
quickprop_mu=1.750000
rprop_increase_factor=1.200000
rprop_decrease_factor=0.500000
rprop_delta_min=0.000000
rprop_delta_max=50.000000
rprop_delta_zero=0.100000
cascade_output_stagnation_epochs=12
cascade_candidate_change_fraction=0.010000
cascade_candidate_stagnation_epochs=12
cascade_max_out_epochs=150
cascade_min_out_epochs=50
cascade_max_cand_epochs=150
cascade_min_cand_epochs=50
cascade_num_candidate_groups=2
bit_fail_limit=1.00000000000000005551e-01
cascade_candidate_limit=1.00000000000000000000e+03
cascade_weight_multiplier=4.00000000000000022204e-01
cascade_activation_functions_count=10
cascade_activation_functions=3 5 7 8 10 11 14 15 16 17 
cascade_activation_steepnesses_count=4
cascade_activation_steepnesses=2.50000000000000000000e-01 5.00000000000000000000e-01 7.50000000000000000000e-01 1.00000000000000000000e+00 
layer_sizes=13 4 2 
scale_included=0
neurons (num_inputs, activation_function, activation_steepness)=(0, 0, 0.00000000000000000000e+00) (0, 0, 0.00000000000000000000e+00) (0, 0, 0.00000000000000000000e+00) (0, 0, 0.00000000000000000000e+00) (0, 0, 0.00000000000000000000e+00) (0, 0, 0.00000000000000000000e+00) (0, 0, 0.00000000000000000000e+00) (0, 0, 0.00000000000000000000e+00) (0, 0, 0.00000000000000000000e+00) (0, 0, 0.00000000000000000000e+00) (0, 0, 0.00000000000000000000e+00) (0, 0, 0.00000000000000000000e+00) (0, 0, 0.00000000000000000000e+00) (13, 6, 5.00000000000000000000e-01) (13, 6, 5.00000000000000000000e-01) (13, 6, 5.00000000000000000000e-01) (0, 6, 0.00000000000000000000e+00) (4, 4, 5.00000000000000000000e-01) (0, 4, 0.00000000000000000000e+00) 
connections (connected_to_neuron, weight)=(0, -3.05214992679808228004e-01) (1, -1.14055408240847877543e+00) (2, 8.70527013151919382139e-01) (3, 8.43851170817004447855e-01) (4, -3.29225161328774496017e-01) (5, 6.54549295465680747164e-01) (6, 9.31533221197995642271e-01) (7, 2.04432562989759158967e+00) (8, 2.06370551297374271726e+00) (9, -1.49537184182426341472e+00) (10, 1.40237202601069066432e+00) (11, 1.71956716056762748401e+00) (12, 6.47941687631811813475e-01) (0, -2.91523835577223278115e-01) (1, -1.16554093625985455418e+00) (2, 9.02853990851914423033e-01) (3, 7.97132320911219882653e-01) (4, -3.56424522450099701132e-01) (5, 6.55305825457774382414e-01) (6, 8.93705815119418600645e-01) (7, 1.96487447107109836075e+00) (8, 1.92127887287555498830e+00) (9, -1.59712732382914346374e+00) (10, 1.33580694888690576505e+00) (11, 1.63529890727101423487e+00) (12, 6.87598931619330500098e-01) (0, 1.16161695604280534866e+00) (1, 1.84642110760514155388e+00) (2, 3.70126183552860155146e+00) (3, -1.95815789681061036553e+00) (4, 3.64321097083479905621e+00) (5, -1.55403417374222829750e+00) (6, 3.73852708070568873211e+00) (7, 3.37888351307091605591e+00) (8, 3.37652012441737792159e+00) (9, 2.65478919597913032291e+00) (10, 3.83279821661532249522e+00) (11, 3.20033668468434884247e+00) (12, -3.32714847725408313650e+00) (13, -3.65008745286030267252e+00) (14, -1.60164966592517892252e+01) (15, 5.25415081840688529269e+01) (16, -4.63740739467329632362e+00) 
