FANN_FLO_2.1
num_layers=3
learning_rate=0.700000
connection_rate=1.000000
network_type=0
learning_momentum=0.000000
training_algorithm=2
train_error_function=1
train_stop_function=1
cascade_output_change_fraction=0.010000
quickprop_decay=-0.000100
quickprop_mu=1.750000
rprop_increase_factor=1.200000
rprop_decrease_factor=0.500000
rprop_delta_min=0.000000
rprop_delta_max=50.000000
rprop_delta_zero=0.100000
cascade_output_stagnation_epochs=12
cascade_candidate_change_fraction=0.010000
cascade_candidate_stagnation_epochs=12
cascade_max_out_epochs=150
cascade_min_out_epochs=50
cascade_max_cand_epochs=150
cascade_min_cand_epochs=50
cascade_num_candidate_groups=2
bit_fail_limit=1.00000000000000005551e-01
cascade_candidate_limit=1.00000000000000000000e+03
cascade_weight_multiplier=4.00000000000000022204e-01
cascade_activation_functions_count=10
cascade_activation_functions=3 5 7 8 10 11 14 15 16 17 
cascade_activation_steepnesses_count=4
cascade_activation_steepnesses=2.50000000000000000000e-01 5.00000000000000000000e-01 7.50000000000000000000e-01 1.00000000000000000000e+00 
layer_sizes=63 11 2 
scale_included=0
neurons (num_inputs, activation_function, activation_steepness)=(0, 0, 0.00000000000000000000e+00) (0, 0, 0.00000000000000000000e+00) (0, 0, 0.00000000000000000000e+00) (0, 0, 0.00000000000000000000e+00) (0, 0, 0.00000000000000000000e+00) (0, 0, 0.00000000000000000000e+00) (0, 0, 0.00000000000000000000e+00) (0, 0, 0.00000000000000000000e+00) (0, 0, 0.00000000000000000000e+00) (0, 0, 0.00000000000000000000e+00) (0, 0, 0.00000000000000000000e+00) (0, 0, 0.00000000000000000000e+00) (0, 0, 0.00000000000000000000e+00) (0, 0, 0.00000000000000000000e+00) (0, 0, 0.00000000000000000000e+00) (0, 0, 0.00000000000000000000e+00) (0, 0, 0.00000000000000000000e+00) (0, 0, 0.00000000000000000000e+00) (0, 0, 0.00000000000000000000e+00) (0, 0, 0.00000000000000000000e+00) (0, 0, 0.00000000000000000000e+00) (0, 0, 0.00000000000000000000e+00) (0, 0, 0.00000000000000000000e+00) (0, 0, 0.00000000000000000000e+00) (0, 0, 0.00000000000000000000e+00) (0, 0, 0.00000000000000000000e+00) (0, 0, 0.00000000000000000000e+00) (0, 0, 0.00000000000000000000e+00) (0, 0, 0.00000000000000000000e+00) (0, 0, 0.00000000000000000000e+00) (0, 0, 0.00000000000000000000e+00) (0, 0, 0.00000000000000000000e+00) (0, 0, 0.00000000000000000000e+00) (0, 0, 0.00000000000000000000e+00) (0, 0, 0.00000000000000000000e+00) (0, 0, 0.00000000000000000000e+00) (0, 0, 0.00000000000000000000e+00) (0, 0, 0.00000000000000000000e+00) (0, 0, 0.00000000000000000000e+00) (0, 0, 0.00000000000000000000e+00) (0, 0, 0.00000000000000000000e+00) (0, 0, 0.00000000000000000000e+00) (0, 0, 0.00000000000000000000e+00) (0, 0, 0.00000000000000000000e+00) (0, 0, 0.00000000000000000000e+00) (0, 0, 0.00000000000000000000e+00) (0, 0, 0.00000000000000000000e+00) (0, 0, 0.00000000000000000000e+00) (0, 0, 0.00000000000000000000e+00) (0, 0, 0.00000000000000000000e+00) (0, 0, 0.00000000000000000000e+00) (0, 0, 0.00000000000000000000e+00) (0, 0, 0.00000000000000000000e+00) (0, 0, 0.00000000000000000000e+00) (0, 0, 0.00000000000000000000e+00) (0, 0, 0.00000000000000000000e+00) (0, 0, 0.00000000000000000000e+00) (0, 0, 0.00000000000000000000e+00) (0, 0, 0.00000000000000000000e+00) (0, 0, 0.00000000000000000000e+00) (0, 0, 0.00000000000000000000e+00) (0, 0, 0.00000000000000000000e+00) (0, 0, 0.00000000000000000000e+00) (63, 6, 5.00000000000000000000e-01) (63, 6, 5.00000000000000000000e-01) (63, 6, 5.00000000000000000000e-01) (63, 6, 5.00000000000000000000e-01) (63, 6, 5.00000000000000000000e-01) (63, 6, 5.00000000000000000000e-01) (63, 6, 5.00000000000000000000e-01) (63, 6, 5.00000000000000000000e-01) (63, 6, 5.00000000000000000000e-01) (63, 6, 5.00000000000000000000e-01) (0, 6, 0.00000000000000000000e+00) (11, 6, 5.00000000000000000000e-01) (0, 6, 0.00000000000000000000e+00) 
connections (connected_to_neuron, weight)=(0, 2.17906277917742308148e+00) (1, 7.55902792594055072950e-02) (2, 1.85915235736091699614e-01) (3, 8.03170318982222852799e-02) (4, 2.45863501288612451567e-01) (5, -1.50000000000000000000e+03) (6, 1.08179937212061719198e-01) (7, 4.73867770124918458174e-02) (8, -9.35844399103854973632e-01) (9, 3.58970560092628732107e-01) (10, -1.63825793884116638344e-01) (11, -1.15857284970788287914e+00) (12, 5.55544898494398919908e-01) (13, -1.47841420823281310959e+00) (14, 3.74980150211762175427e-01) (15, -3.84968085546064742175e+00) (16, 9.33718894712721292350e-01) (17, -1.24502978195009839091e+00) (18, 3.91170313288760995718e+00) (19, -6.73457978795858647203e+00) (20, 4.01892233412071697707e-02) (21, -1.69181523028954683419e+00) (22, 1.98411517694927241884e+00) (23, -5.27047459423888664531e+00) (24, -2.69581745074439008136e-02) (25, -1.02481792900880352981e+00) (26, -6.90477227368617829661e-01) (27, -2.39070351946183201619e+00) (28, 3.69942480472227996913e-01) (29, 1.15439161490789699016e+00) (30, -7.40497714511432536533e-01) (31, 1.52857715567204643925e+00) (32, 7.63936045665907892399e-01) (33, 1.65120818512259104338e+00) (34, 3.10496093724526689428e+00) (35, -1.60708083510808963368e+00) (36, 1.48463580903066905137e+00) (37, 2.84944488454298383573e+00) (38, -2.59013296887430910509e-01) (39, -1.93561908813536742713e-01) (40, -7.65779061089362778070e-02) (41, -3.07164097047642048466e+00) (42, -9.71862497782930156998e-02) (43, -1.25722779353270963654e+00) (44, -4.34394181647516419709e-01) (45, -6.43498073831596184569e-01) (46, -1.64915552467595727393e+00) (47, 2.66858174131106729021e+00) (48, -4.18209050351579492144e+00) (49, 2.26654557799333661317e-01) (50, -1.41550834371478106988e+00) (51, 2.40239715373165400869e-02) (52, 6.16739914085804863397e-01) (53, -3.02980927195881477587e+00) (54, 8.41881851349982390786e-01) (55, 7.79979378158969671730e-01) (56, 8.82268703724091096774e+00) (57, -3.42585665322965926549e+00) (58, -3.99332101184962562357e+00) (59, 1.29488970292790522842e-01) (60, 5.15273657129861462067e+00) (61, -7.80323136686432050624e-01) (62, -4.29676323644276533797e-02) (0, 9.27576745772426036751e+00) (1, 7.68595818712203698864e-02) (2, 9.14588529898606589219e-02) (3, 2.29029137296863416484e-01) (4, 1.99154186649509290508e-01) (5, -1.50000000000000000000e+03) (6, -2.36358203749530648707e+00) (7, 3.86229033826874894320e-03) (8, -5.64459790221496859886e+00) (9, 1.67351346992803629021e+00) (10, -8.79172698055356693914e-01) (11, -2.65522651771186657399e+00) (12, -6.27680630073181866635e+00) (13, -1.00783710141238644353e-01) (14, 1.31132022990589947042e+00) (15, 6.20845390423951593029e-01) (16, 1.62184039906673249654e+00) (17, 4.03871159110360200550e-01) (18, 2.23702676914322218238e+00) (19, 2.45382760371719754744e+00) (20, -1.55507011928411937873e+01) (21, -1.04507629695134713899e+01) (22, 2.22102599086638683445e+01) (23, 2.03163190592342868257e+00) (24, -3.84612157839178037122e+00) (25, 2.15341267943978031951e+00) (26, -6.79115608631844036580e+00) (27, -2.45150048641457063425e+00) (28, -8.57817743108168961896e+00) (29, -4.20579428514257713800e+00) (30, -1.49338674501056857480e+03) (31, 1.58888082273123787402e+00) (32, 2.46518972243520151366e+00) (33, -7.49232249029617713987e-01) (34, 2.27872329290639674682e+00) (35, -5.53538181352205338470e+00) (36, 1.47861871005011624725e+00) (37, -4.09526961574096759477e+00) (38, -1.64415947666650730241e+00) (39, -9.83899900376558167459e-01) (40, -1.31843760603310888868e+00) (41, -4.19384829978749085200e+00) (42, -2.72052529085926009245e+00) (43, -7.17425877906942011109e-01) (44, -3.94161695723478633369e+00) (45, -5.80446001971778624551e+00) (46, -3.81284306179121834646e+00) (47, -3.76410394500101297410e+00) (48, -1.28653555881766656910e+00) (49, 1.42540423267233440363e+00) (50, 1.99128865284000200475e+00) (51, -1.51057758818730047956e+00) (52, 1.36045381576653778843e+00) (53, -3.19738201586052461778e+00) (54, 5.44710854837660130023e-01) (55, -7.66036216017005155976e+00) (56, -2.40673664338077353264e+00) (57, 5.71240079152996016454e-01) (58, -2.17938736550331313424e+00) (59, -4.08542114538199285789e+00) (60, 1.42060802168669475520e+00) (61, 1.97670648888070599192e+00) (62, -8.69082271355218899389e-02) (0, 1.22676135829651311582e+01) (1, 1.45831055573512641255e-01) (2, 3.03051396838722508775e-01) (3, 2.54439144960930063721e-01) (4, 2.06708915165950413151e-01) (5, -1.11356823456296827324e+00) (6, -3.30595371918368130526e-01) (7, -8.95833487834111069636e-02) (8, -7.59040527574686407775e+00) (9, 9.62342019927143410563e-01) (10, 5.63368019835179478783e-01) (11, -7.49750947333127104599e+00) (12, -5.34006745277240746361e+00) (13, -1.96882988132643954593e+00) (14, 6.42772971596699993491e-01) (15, -1.27966339062158729334e+00) (16, 3.00835148130581764292e+00) (17, -3.03152460005007062804e+00) (18, 1.65248063437165733092e+01) (19, -1.08767029835732085274e+01) (20, -6.07566555919540896014e+00) (21, -2.49256320138529080532e-01) (22, 4.89374797207323641857e+00) (23, -1.22621421213451462506e+01) (24, -8.01403387380656617722e+00) (25, 4.69651396139783405825e-01) (26, -8.65338539364845504842e-01) (27, -5.54639884732063670469e+00) (28, 5.61511599301573460785e-01) (29, -2.52156928199008811831e+00) (30, 1.70915908136465732881e+00) (31, 3.95108194233634169024e+00) (32, 1.58814178524516869118e+00) (33, 1.23259154576731089215e+00) (34, -5.01155949598196492900e+00) (35, -1.13620463909671620684e-01) (36, 4.00304204503247262892e+00) (37, -2.51042327012778709872e+00) (38, -2.21890947605673516385e-01) (39, -4.75607947398809183248e-01) (40, -1.01504479141965764377e+00) (41, -1.95710149523454379761e+00) (42, 1.08955510458467491608e-01) (43, -1.62036234111381705070e+00) (44, -1.82042567454977444186e+00) (45, -7.72169659955207521307e+00) (46, 8.83117944205335625441e-01) (47, 1.03686984915711732924e+01) (48, -9.11838349235373790691e+00) (49, 5.06641106254749673532e-01) (50, -6.83220669896236465490e+00) (51, -1.73826579310326012617e+00) (52, 9.44179875988001349185e-01) (53, -4.00552905280262194765e+00) (54, 1.05580668744427841332e+00) (55, 3.26749339367420343905e+00) (56, 1.09403625464002498546e+01) (57, -8.36284083921852272603e-01) (58, -8.48477049864731647233e+00) (59, -2.42407641253153682825e+00) (60, 6.69074969629477056543e+00) (61, 6.70611247547616917686e-01) (62, 9.88328062818406793966e-01) (0, -2.44339276507701708141e+00) (1, -8.42534065057354980555e-02) (2, -7.26916490092904127307e-03) (3, 1.79066524098810166132e-02) (4, -5.88716402460629714688e-02) (5, -1.50000000000000000000e+03) (6, 3.34795164446536008818e-01) (7, -1.53929398859830202095e-01) (8, 1.39282051320236655023e+00) (9, -4.75774235068987527697e-01) (10, -1.46440580457586094765e-01) (11, -5.44270703796712229661e+00) (12, -8.82413103982600333097e+00) (13, 4.36489003409541276302e-01) (14, -3.72578919150153231588e-01) (15, -1.50000000000000000000e+03) (16, -7.45113324501824547674e-01) (17, -1.50000000000000000000e+03) (18, -2.19635497765079756860e+00) (19, 3.06554966140492979321e+00) (20, 1.84677336488616727905e+00) (21, -6.31727605737516828555e+00) (22, -2.01909384662969015878e+00) (23, 2.89640809371004959161e+00) (24, -5.78715694557479132243e+00) (25, -2.76021023699108836169e+00) (26, 1.72819118854498987581e+00) (27, -9.14767467756829510961e+00) (28, 4.76904806766636601978e-01) (29, -2.87285186428984616602e-02) (30, 1.78151945975324310645e+00) (31, -9.05398276773250909599e-01) (32, -7.76178465843415876790e-01) (33, -1.47993876283116014747e+03) (34, -5.31224908091835090751e-01) (35, -2.58333413452911872521e-02) (36, -8.98236352851731534308e-01) (37, -1.50000000000000000000e+03) (38, 2.17712329153990608033e-01) (39, 2.18335018006014985881e-01) (40, 2.45266148500700720270e-01) (41, -1.50000000000000000000e+03) (42, 2.46327730705704794900e-01) (43, 6.51942596973293819751e-01) (44, 7.85090792847966345569e-01) (45, -3.18799735311710330521e+00) (46, -1.23677760950920387018e+02) (47, -2.90191721811934888464e+00) (48, 3.22296311133179225195e+00) (49, -2.53326830284285986483e-01) (50, 9.04223033461399983146e-01) (51, 1.41445082026276452991e-01) (52, 1.60324644854780512526e-01) (53, 1.47042658568896467131e+00) (54, -5.08182401959166196725e-01) (55, 1.81320873907044477491e+00) (56, -5.19155784087782912195e+00) (57, -1.26309107435772260963e+00) (58, 1.28562511269961432525e+00) (59, 9.90830002499129225413e-01) (60, 2.95525782383599389114e-01) (61, -1.14465746537247489711e-01) (62, -8.71729599756330131299e-01) (0, 2.26298016776639243641e-01) (1, -3.03662692739983461343e-02) (2, 9.67660719916787898098e-02) (3, -1.39019837214965670535e-02) (4, 1.17346780762657629249e-02) (5, -5.36711839694223957764e+00) (6, -3.39948367531085871018e-01) (7, -8.22366675855054352073e-02) (8, -4.54834163303030003522e-01) (9, -9.77782628084993415962e-02) (10, -7.66359870403234694214e-02) (11, 1.01557245121180206304e+00) (12, 3.05973568707904330921e+00) (13, -1.20504498995697906238e+00) (14, -4.01913321487802677190e-01) (15, 2.85166014475349349766e+00) (16, 1.28610709119946542422e-01) (17, -6.00006831232766746353e+00) (18, -3.28643116003456747798e-01) (19, -2.55430510575230973469e-01) (20, 4.65280440914196535829e+00) (21, -1.82814540592914265282e+00) (22, 5.95292961769992512444e+00) (23, -3.88314809119851078734e+00) (24, 2.68153604866582995214e+00) (25, -5.32218046466486160995e+00) (26, -2.98519257950887784148e+00) (27, 6.40031408696759651633e+00) (28, -4.06540247453483871709e+00) (29, -4.18111854493815293665e+00) (30, 4.64779268323351424375e-01) (31, 1.43436769509274919532e-01) (32, -8.64574935318802584305e-02) (33, -1.45365051176874815475e+00) (34, 2.48308862983558675808e+00) (35, -1.95027347519372806772e+00) (36, 1.37794517409831784871e-01) (37, 4.18136675439061367143e+00) (38, -4.42451169678489075743e-01) (39, -7.77023344537443927393e-01) (40, -9.69276919767962263919e-01) (41, -1.43128519515358321179e+00) (42, -1.70623256945800466644e-01) (43, -2.20070293713023890092e+00) (44, -2.25660389525330362659e+00) (45, 4.66527369500995092721e+00) (46, 4.36369061670772317996e+00) (47, 1.48364826231070787799e+03) (48, -4.51724592729779761413e+00) (49, -2.20564988548655804834e-01) (50, -1.55976388272096277987e+00) (51, 1.50000000000000000000e+03) (52, -3.20389103157476096140e-01) (53, -7.43867865492901958469e-01) (54, 1.40435755932127332574e-02) (55, -1.50000000000000000000e+03) (56, -2.36460877652480450095e+00) (57, -3.19241198590080932362e+00) (58, -1.88935811773600992325e+00) (59, -3.64040069466076143812e+00) (60, -1.67650177422967394669e-01) (61, -8.92827674975929519441e-02) (62, -3.27074266356173481984e-01) (0, 1.85513547673283483164e+01) (1, 3.85391913021600585054e-01) (2, 4.45090751762187708529e-01) (3, 4.09349720592296462129e-01) (4, 4.82038993055617925876e-01) (5, 6.33342373419069293305e-01) (6, 7.13224008115321339574e+00) (7, -9.43632784619734321652e-01) (8, -8.61560855322932006573e+00) (9, -6.50406301152563592893e-01) (10, 4.59740973662241447784e+00) (11, -1.44560767535991239185e+01) (12, -4.10969146936841678297e+00) (13, -3.74627274280966782172e+00) (14, -5.40213104922047437917e-01) (15, -8.59275886085269036130e+00) (16, 6.51386067130773493972e+00) (17, -1.75860784269410679315e+01) (18, 4.08906008662200559645e-01) (19, -6.80236256617140355729e+00) (20, -1.50000000000000000000e+03) (21, -3.54096655572993324057e+00) (22, 2.31135254721369376441e+00) (23, -1.10373258379171979016e+01) (24, -1.46940690484704976626e+01) (25, -3.19389742505640716885e+00) (26, -2.19077080850290473180e+00) (27, -9.16263856791506015043e+00) (28, 5.47385995014544057824e+00) (29, 2.33770092321709554994e+00) (30, -6.18987843865275344513e+00) (31, 1.09757524445962673099e+01) (32, -4.11210196688099438589e-01) (33, -1.08035545804487789212e+01) (34, -1.00466577584317451333e+00) (35, -3.32334926187443047141e+00) (36, 1.30569711073583629712e+01) (37, -4.41498454338608858905e+00) (38, -9.68737267804363422208e-01) (39, -1.25061873822830160741e+00) (40, -7.13617890392853504444e-01) (41, -1.01244851210996120727e+01) (42, -1.02531188673687312374e+00) (43, -2.15305606605920774044e+00) (44, -2.78529600587231529474e+00) (45, -1.02231646693165991735e+01) (46, -2.39893765549417681271e+00) (47, 2.74166557607703298416e+00) (48, -8.96199015801143517024e+00) (49, -6.37760006653077304861e+00) (50, -8.30131965613076872046e+00) (51, 8.21881358812154694249e+00) (52, -1.76506754747902221137e-02) (53, -7.51974366690342943542e+00) (54, -4.32259627250306421864e-01) (55, -7.34213596794276401880e+00) (56, 2.96203239887068647818e+00) (57, 6.07551082159090705126e-01) (58, -1.39981826069892312248e+00) (59, 2.71797170177933811175e+00) (60, 1.36433823075608473552e+00) (61, 4.67302682221939325036e-01) (62, 6.55702128114406868065e-01) (0, 1.50000000000000000000e+03) (1, 7.12878595434430550881e+00) (2, 7.17937818311456066311e+00) (3, 7.04172767095569085427e+00) (4, 7.12671498351100396462e+00) (5, -2.54205533084562773638e+01) (6, 1.50000000000000000000e+03) (7, 1.49999854617734990825e+03) (8, 1.50000000000000000000e+03) (9, 5.90722475500306831719e+00) (10, 1.50000000000000000000e+03) (11, -1.50000000000000000000e+03) (12, -3.04138844148727862660e+01) (13, 1.49998409047983864184e+03) (14, 1.49990274349817218535e+03) (15, 1.50000000000000000000e+03) (16, -2.20279660802150161203e+01) (17, 1.50000000000000000000e+03) (18, 1.50000000000000000000e+03) (19, 2.54946418223486887200e+02) (20, 1.50000000000000000000e+03) (21, 4.30631906531771413427e+00) (22, 1.50000000000000000000e+03) (23, -2.38272427781326676666e+01) (24, -1.50000000000000000000e+03) (25, -2.55256781585905976328e+01) (26, 1.48918521835786486918e+03) (27, 1.18869219751775627714e+01) (28, 1.50000000000000000000e+03) (29, -2.14444469295737860648e+01) (30, 1.49999877734392725870e+03) (31, 1.50000000000000000000e+03) (32, -1.88732795660473904320e+01) (33, 1.50000000000000000000e+03) (34, -2.76053418543766326820e+00) (35, -1.45499731987924434407e+01) (36, 4.21389997812795911614e+02) (37, -2.34631784076885097079e+01) (38, 1.50000000000000000000e+03) (39, 1.50000000000000000000e+03) (40, 1.50000000000000000000e+03) (41, 1.50000000000000000000e+03) (42, 1.49982320615279309095e+03) (43, 1.50000000000000000000e+03) (44, -2.33151153327199693877e+01) (45, -3.97477930771397211629e+02) (46, -2.86622173283933875609e+02) (47, 2.84665994161322011280e+01) (48, 5.58267107985060761166e+02) (49, 1.49788383491822833093e+03) (50, 1.50000000000000000000e+03) (51, -2.45435465580169704936e+01) (52, 6.53681543778122708943e+00) (53, 1.50000000000000000000e+03) (54, 1.50000000000000000000e+03) (55, 1.50000000000000000000e+03) (56, -2.46596354310710559332e+01) (57, 1.49462178960299610253e+02) (58, 1.02630091617669112480e+01) (59, -1.08364010407773903033e+00) (60, 3.28380043945148543116e+01) (61, 1.49252306279654817445e+03) (62, 1.07687113649862045150e+01) (0, -7.07536112160626089462e+01) (1, -8.43849721646322270541e-02) (2, -2.05315010557173771577e-01) (3, -2.55664432356352389064e-01) (4, -1.55786456475257018006e-01) (5, 7.03674024393161956503e-01) (6, 1.01688051209560170740e+00) (7, 2.62852654454142520279e-01) (8, 2.88435704988380292590e+00) (9, 1.62683631758217894792e+00) (10, 1.65982601287758768649e+00) (11, 2.20268279470515704332e+00) (12, 2.21794176844015922256e+00) (13, 9.54023554867816092617e-02) (14, 2.03865937623913273669e+00) (15, 2.22745205264794216005e-01) (16, 8.63039186790475976174e-01) (17, 1.48968959042333565224e-01) (18, 1.47156178985731522779e+00) (19, -9.29430780926060906566e-01) (20, 3.13865996616908793371e+00) (21, 2.71430848596643681248e-01) (22, 2.89594785605709592602e+00) (23, -6.68741948837326266597e-02) (24, 1.74004201557025650615e+00) (25, 1.62907938086693881985e+00) (26, 1.57306870325900649554e+00) (27, 3.92867211269544114316e+00) (28, 1.47361872153878570302e+00) (29, 1.34656447214687124969e+00) (30, 1.03192223004105021467e+00) (31, 7.81075883385978081419e-02) (32, 9.94859519278471271519e-01) (33, 1.85945116176093772076e+00) (34, 1.53996872959460628927e+00) (35, 3.33730681033543419289e-01) (36, -1.02155840588793900281e-01) (37, -6.29375322702916406570e-01) (38, 3.10206220444027735983e-01) (39, -1.85211579179602015000e-01) (40, 9.33729004347984004042e-02) (41, -4.97420041346126814985e-02) (42, -2.98453819763827732370e-01) (43, 2.59382729096333530805e-01) (44, 1.15707823815381027899e+00) (45, 3.39353116956073641575e+00) (46, 1.21519404278328035929e+00) (47, 2.48471412890541909491e+00) (48, -1.47284871742808509687e+00) (49, 2.41128887832042826389e+00) (50, 2.55271713094474117511e+00) (51, 2.53875109599394521709e+00) (52, 1.76536953724964362777e+00) (53, 1.43680016086978556977e+00) (54, 4.67807543086762867013e-01) (55, 1.05784568448701099541e+00) (56, 2.29953600614750808262e+00) (57, 1.76965644393027066172e+00) (58, 3.07055026850402867922e+00) (59, 8.97665145942978526250e-01) (60, 2.39757144187939275071e+00) (61, 8.39652477881106862334e-01) (62, -1.69966466409278327276e+00) (0, 2.08193503602086380511e+01) (1, 7.37015500003545431795e-01) (2, 7.44457303816526083651e-01) (3, 8.08625831538884787264e-01) (4, 7.73968919450490844270e-01) (5, -5.31947283499357492786e+00) (6, 1.50000000000000000000e+03) (7, -1.42114832421459968970e+00) (8, 1.50000000000000000000e+03) (9, 7.66560378223284644150e+00) (10, -4.06604346070180344697e+00) (11, 3.43343402570721112355e+00) (12, -4.45357350338832258529e+00) (13, -2.07418784596785910068e+00) (14, 1.49990274349817218535e+03) (15, 1.50000000000000000000e+03) (16, 8.16048467530053112107e-01) (17, -1.15503579649944878582e+01) (18, 1.50000000000000000000e+03) (19, 2.23569716938278361340e+02) (20, 1.50000000000000000000e+03) (21, -2.68035543329462067064e+00) (22, 1.50000000000000000000e+03) (23, -4.07154244319895486370e+00) (24, -5.64701961498793636451e+00) (25, -1.50000000000000000000e+03) (26, -4.50061446955231581057e+00) (27, 2.78765375408688726111e+02) (28, 1.50000000000000000000e+03) (29, -5.06418712053467223733e-01) (30, 1.49999877734392725870e+03) (31, 1.50000000000000000000e+03) (32, 6.82733944404035342224e-01) (33, 1.50000000000000000000e+03) (34, -2.90197235558464461391e+00) (35, -3.03854153074226696063e+00) (36, 1.32607790429701638546e-01) (37, -8.63019034582651833887e+00) (38, -1.39239658448163328153e+00) (39, 1.50000000000000000000e+03) (40, 1.50000000000000000000e+03) (41, -1.95246309854104111992e+01) (42, 1.49982320615279309095e+03) (43, 8.04324467128159426466e+02) (44, -9.43124741586194081933e-01) (45, -2.55854404665568235799e+00) (46, -3.89158442257523828900e+00) (47, -1.56879446274111278292e+00) (48, -3.94875158588113395197e+00) (49, 1.49788383491822833093e+03) (50, 1.50000000000000000000e+03) (51, -2.02591218249777726967e+00) (52, 1.42611752536662672597e+00) (53, -5.75356472067213609023e+00) (54, -1.49146041448336608148e+00) (55, -4.44962869013582729139e+00) (56, -1.19534116780075327924e+00) (57, 1.47741740734285571079e+02) (58, 1.02250431339110381401e+01) (59, -1.39406458065443650263e+00) (60, 3.29878239027097777125e+01) (61, -6.86465050692585898595e-01) (62, 1.51359529469101783405e+00) (0, 9.14934342298669989191e+00) (1, 8.89622107883839552400e-02) (2, 3.56969446679531871025e-02) (3, 9.23463539024739210603e-02) (4, 7.70369604965596144197e-02) (5, 1.50000000000000000000e+03) (6, -6.42117565453179550694e-01) (7, 5.92683937575360763467e-03) (8, 2.23902888007026484862e-01) (9, 3.79567659898011777742e-01) (10, -3.34121578889807868684e-01) (11, 1.69224473386138107855e-01) (12, -8.75790575992205888589e-01) (13, -4.87071239217791773779e-01) (14, 2.74584410244950449798e-01) (15, -4.74892490987511795009e-01) (16, 5.05738724246796236828e-02) (17, -9.92527415385325295638e-01) (18, -1.84801392496849303804e+00) (19, 2.63178504011696023923e+00) (20, -1.13711652227119278113e-02) (21, -7.02288516102744231340e-01) (22, -1.82596048303486169218e+00) (23, 3.84306034245736594102e+00) (24, 2.93347422465433771421e-01) (25, -5.91934581408136151204e-01) (26, -3.06711048536584707236e-01) (27, 9.78012819093504043311e-02) (28, -2.15287855986133180863e+00) (29, -2.47842412992231198032e+00) (30, 1.62133876733483628385e+00) (31, 8.70751463750811138809e-01) (32, 4.98291810829856129939e-01) (33, -9.81256759746313877990e-01) (34, 5.00414514933056997492e-01) (35, -6.77497099650540723914e-01) (36, 9.18708904804553361245e-01) (37, 1.50000000000000000000e+03) (38, -1.81700611058085936822e-01) (39, -2.60961780172230262131e-01) (40, -9.04639859995221423672e-02) (41, -4.14451620765216799391e-01) (42, 4.16735933869531796625e-02) (43, -5.10614440455751328329e-01) (44, -5.56484479602652792884e-01) (45, 3.07121990647526599272e-01) (46, -2.27107552057546235869e-01) (47, -2.58980511679327607411e+00) (48, 5.52035232810442153095e+02) (49, 1.46450661205633259065e+00) (50, 3.19286431503554457567e-01) (51, -2.47212146300656687714e+00) (52, 4.21253056046175078375e-01) (53, 4.66694094073458909389e-01) (54, 2.91785223187464470840e-01) (55, 1.50000000000000000000e+03) (56, -2.97938488569404258399e+00) (57, 6.85239464197341385798e-01) (58, -1.22487932118461984032e+00) (59, 8.34532278603578592246e-01) (60, -3.03607485926933140519e+00) (61, 6.36046892967941146502e-01) (62, 2.26891612766558538328e-02) (63, -2.22548910042698694367e-01) (64, -2.37164256698982611749e-01) (65, -2.67197604794704224318e-01) (66, -9.38112095280272839659e-01) (67, -1.82371893368801468727e-01) (68, -3.89934013069423435205e-01) (69, 3.43316284515145953016e-01) (70, 2.10361091157907775795e+00) (71, 6.01313518713566086404e-01) (72, 1.00407583465115357590e+00) (73, 3.65407427121845429507e-01) 
