FANN_FLO_2.1
num_layers=3
learning_rate=0.700000
connection_rate=1.000000
network_type=0
learning_momentum=0.000000
training_algorithm=2
train_error_function=1
train_stop_function=1
cascade_output_change_fraction=0.010000
quickprop_decay=-0.000100
quickprop_mu=1.750000
rprop_increase_factor=1.200000
rprop_decrease_factor=0.500000
rprop_delta_min=0.000000
rprop_delta_max=50.000000
rprop_delta_zero=0.100000
cascade_output_stagnation_epochs=12
cascade_candidate_change_fraction=0.010000
cascade_candidate_stagnation_epochs=12
cascade_max_out_epochs=150
cascade_min_out_epochs=50
cascade_max_cand_epochs=150
cascade_min_cand_epochs=50
cascade_num_candidate_groups=2
bit_fail_limit=1.00000000000000005551e-01
cascade_candidate_limit=1.00000000000000000000e+03
cascade_weight_multiplier=4.00000000000000022204e-01
cascade_activation_functions_count=10
cascade_activation_functions=3 5 7 8 10 11 14 15 16 17 
cascade_activation_steepnesses_count=4
cascade_activation_steepnesses=2.50000000000000000000e-01 5.00000000000000000000e-01 7.50000000000000000000e-01 1.00000000000000000000e+00 
layer_sizes=14 4 2 
scale_included=0
neurons (num_inputs, activation_function, activation_steepness)=(0, 0, 0.00000000000000000000e+00) (0, 0, 0.00000000000000000000e+00) (0, 0, 0.00000000000000000000e+00) (0, 0, 0.00000000000000000000e+00) (0, 0, 0.00000000000000000000e+00) (0, 0, 0.00000000000000000000e+00) (0, 0, 0.00000000000000000000e+00) (0, 0, 0.00000000000000000000e+00) (0, 0, 0.00000000000000000000e+00) (0, 0, 0.00000000000000000000e+00) (0, 0, 0.00000000000000000000e+00) (0, 0, 0.00000000000000000000e+00) (0, 0, 0.00000000000000000000e+00) (0, 0, 0.00000000000000000000e+00) (14, 6, 5.00000000000000000000e-01) (14, 6, 5.00000000000000000000e-01) (14, 6, 5.00000000000000000000e-01) (0, 6, 0.00000000000000000000e+00) (4, 4, 5.00000000000000000000e-01) (0, 4, 0.00000000000000000000e+00) 
connections (connected_to_neuron, weight)=(0, -4.48953807171738361603e+00) (1, 1.05206623546049566897e+01) (2, 1.63448712012220398471e+00) (3, -6.54449918140061814853e-01) (4, -1.41197175931952578765e-01) (5, -1.16562037620514757918e+00) (6, -2.98236713957808596831e-01) (7, 1.04262646383807631167e+01) (8, -1.25309726060819048854e+00) (9, 2.21428697962622544892e+00) (10, -1.61222801756880862456e-01) (11, 7.24633908510000368519e-02) (12, 1.04665901682541342410e+01) (13, -1.33912491623783624917e+00) (0, -5.05106289570884547935e-01) (1, 7.68668475063401190894e-01) (2, 3.02361409748293175070e-01) (3, -1.82957473168943229869e-01) (4, 3.24263326766513038102e-01) (5, 1.90160998594034874598e-01) (6, 3.16484503390811133805e-01) (7, 6.93765813918667761939e-01) (8, -9.42595501968381488389e-01) (9, 5.29779068212993586862e-01) (10, 2.24278673472426581803e-01) (11, 2.61948548200152564469e-01) (12, 8.16167729409295050758e-01) (13, -1.84548812876317802623e-01) (0, -4.04935139844572677958e+00) (1, 4.29172927746927879156e+00) (2, 4.43528562082129096389e-01) (3, -4.60048056324612208989e-01) (4, 5.02001157342000237094e-01) (5, -3.16167505063702947155e-01) (6, 4.62439557848973448184e-01) (7, 4.19636675576126716436e+00) (8, -9.69161458835122169297e-01) (9, 2.73395782900396788762e+00) (10, 5.12240922390027275668e-01) (11, 3.86965556381745512393e-01) (12, 4.25305708358442924322e+00) (13, -7.62715443749489518943e-01) (14, 1.05411439112589331302e+01) (15, 1.04520336411819458888e+00) (16, 1.38099356184826449478e+00) (17, -8.48835620131185963899e-01) 
