FANN_FLO_2.1
num_layers=3
learning_rate=0.700000
connection_rate=1.000000
network_type=0
learning_momentum=0.000000
training_algorithm=2
train_error_function=1
train_stop_function=1
cascade_output_change_fraction=0.010000
quickprop_decay=-0.000100
quickprop_mu=1.750000
rprop_increase_factor=1.200000
rprop_decrease_factor=0.500000
rprop_delta_min=0.000000
rprop_delta_max=50.000000
rprop_delta_zero=0.100000
cascade_output_stagnation_epochs=12
cascade_candidate_change_fraction=0.010000
cascade_candidate_stagnation_epochs=12
cascade_max_out_epochs=150
cascade_min_out_epochs=50
cascade_max_cand_epochs=150
cascade_min_cand_epochs=50
cascade_num_candidate_groups=2
bit_fail_limit=1.00000000000000005551e-01
cascade_candidate_limit=1.00000000000000000000e+03
cascade_weight_multiplier=4.00000000000000022204e-01
cascade_activation_functions_count=10
cascade_activation_functions=3 5 7 8 10 11 14 15 16 17 
cascade_activation_steepnesses_count=4
cascade_activation_steepnesses=2.50000000000000000000e-01 5.00000000000000000000e-01 7.50000000000000000000e-01 1.00000000000000000000e+00 
layer_sizes=24 11 2 
scale_included=0
neurons (num_inputs, activation_function, activation_steepness)=(0, 0, 0.00000000000000000000e+00) (0, 0, 0.00000000000000000000e+00) (0, 0, 0.00000000000000000000e+00) (0, 0, 0.00000000000000000000e+00) (0, 0, 0.00000000000000000000e+00) (0, 0, 0.00000000000000000000e+00) (0, 0, 0.00000000000000000000e+00) (0, 0, 0.00000000000000000000e+00) (0, 0, 0.00000000000000000000e+00) (0, 0, 0.00000000000000000000e+00) (0, 0, 0.00000000000000000000e+00) (0, 0, 0.00000000000000000000e+00) (0, 0, 0.00000000000000000000e+00) (0, 0, 0.00000000000000000000e+00) (0, 0, 0.00000000000000000000e+00) (0, 0, 0.00000000000000000000e+00) (0, 0, 0.00000000000000000000e+00) (0, 0, 0.00000000000000000000e+00) (0, 0, 0.00000000000000000000e+00) (0, 0, 0.00000000000000000000e+00) (0, 0, 0.00000000000000000000e+00) (0, 0, 0.00000000000000000000e+00) (0, 0, 0.00000000000000000000e+00) (0, 0, 0.00000000000000000000e+00) (24, 6, 5.00000000000000000000e-01) (24, 6, 5.00000000000000000000e-01) (24, 6, 5.00000000000000000000e-01) (24, 6, 5.00000000000000000000e-01) (24, 6, 5.00000000000000000000e-01) (24, 6, 5.00000000000000000000e-01) (24, 6, 5.00000000000000000000e-01) (24, 6, 5.00000000000000000000e-01) (24, 6, 5.00000000000000000000e-01) (24, 6, 5.00000000000000000000e-01) (0, 6, 0.00000000000000000000e+00) (11, 6, 5.00000000000000000000e-01) (0, 6, 0.00000000000000000000e+00) 
connections (connected_to_neuron, weight)=(0, 2.80938183409429509396e+00) (1, -1.35946170755765372018e-01) (2, 5.74159535084749345080e-02) (3, -9.03439944173310832687e-02) (4, -6.18084234680150307328e-02) (5, -1.61127092731922216817e-01) (6, -1.64332863463251210856e-01) (7, -1.65516413581835664104e-01) (8, -4.57777413261639232189e+00) (9, -5.75351112996117963760e-01) (10, 3.97575851049909778645e-01) (11, 3.59308106107518998584e+00) (12, -1.99726943138942458766e-01) (13, -5.64279165435582097388e-01) (14, 7.04974155395170082317e-02) (15, -6.19567752695270757002e-01) (16, -2.03390475722342056741e+00) (17, -5.53536856176647162897e+00) (18, 5.34766615409809853432e-01) (19, 2.82307575525008874751e-02) (20, 9.92588662299785373655e-02) (21, 4.66775678635952401274e-02) (22, 4.07373908078022817225e-01) (23, 4.42806174803143381968e-02) (0, 7.97749833032870503402e-01) (1, -5.94772526829804790149e-02) (2, 6.07580153054338920060e-03) (3, 3.33778766697984509773e-03) (4, 3.11099087984000009788e-02) (5, 1.39143977557018044822e-01) (6, 1.67644409148735462622e-01) (7, 4.24123628442652986226e-02) (8, 9.94795267007358763323e-01) (9, 1.94025441337507625894e-01) (10, 6.04794463313210323152e-02) (11, -9.97276779751384956363e-01) (12, 2.75198030716724169331e-02) (13, -3.59156643879995907120e-02) (14, 1.89437003126631503536e-01) (15, 1.93288212306569645582e-01) (16, 2.61303577442886549032e-02) (17, -6.53823465002925652279e-03) (18, 7.77763627214890923556e-02) (19, 3.49325838139942668192e-01) (20, 6.66232407836749640495e-01) (21, 6.06247552482917395622e-01) (22, 4.10838400175469797837e-01) (23, 5.76557268365102681962e-02) (0, 1.35867584262990419575e+01) (1, 2.09132966649853757612e-01) (2, 1.92701251310431531660e-01) (3, 2.16132779670083097212e-01) (4, 3.55300703150355612348e-01) (5, -2.45644468800476689641e-01) (6, -2.06475375895057516873e-01) (7, -2.73929925107046279287e-01) (8, -2.64177020160300601859e+00) (9, -2.33903205877300568449e-01) (10, 1.97105932890313612083e-01) (11, -4.70156048899067480207e-01) (12, -2.75892996160086778623e-01) (13, -1.24364746151297986265e-01) (14, 9.00522122832643906465e-02) (15, -1.74975324774527596361e+00) (16, -1.10886555934238439924e+00) (17, -2.14789305023465315614e+00) (18, 1.90168508735157865130e-01) (19, -9.43438110243541294686e-01) (20, -9.14627439519183127459e-01) (21, -9.82871350389676989856e-01) (22, -6.14949221653986466407e-01) (23, 2.72888920698784898100e-01) (0, 1.68457213085441779299e+01) (1, 1.94016897612919930749e-01) (2, 2.01986757600417260461e-01) (3, 3.04957882994523477027e-01) (4, 2.19842901015391473107e-01) (5, -3.39846023399286378819e-01) (6, -1.58556209566150990709e-01) (7, -2.65964008751866709535e-01) (8, -2.67331121781653680003e+00) (9, -2.48766328677092141142e-01) (10, 2.70902230403253119206e-01) (11, -9.01651751798961537121e-02) (12, -2.47741597845808764200e-01) (13, -2.44092987091505453368e-01) (14, 1.41553283459948969769e-01) (15, -2.92412081882932284316e+00) (16, -1.15179796645692178458e+00) (17, -2.79329086840075024867e+00) (18, -9.73305008328014392704e-02) (19, -8.42011082821677581123e-01) (20, -7.10524427687274751086e-01) (21, -1.96945050701158708151e+00) (22, -5.49962508209069556031e-01) (23, 3.71565317056803512408e-01) (0, 3.39163485159992772466e+00) (1, -3.18817432523328461724e-02) (2, 5.31459887027186383968e-02) (3, 6.62639428376596562043e-02) (4, 1.88331518768710196032e-02) (5, -9.07938885105166959555e-01) (6, -1.72373299831802073712e+00) (7, -7.89924817824761982266e-01) (8, -1.33428037510121000331e-01) (9, -8.52456080460946341582e-01) (10, -1.61382525056529835261e-01) (11, 1.00723208210649577410e+01) (12, -8.34263781389135150590e-01) (13, -1.53026653633874887284e+00) (14, -3.12373793193908511068e-01) (15, -2.26887309599180742037e-01) (16, -1.13530614827340126105e+00) (17, -2.52917555646503033895e-01) (18, 1.44963112192254515997e-02) (19, -9.36749425148923342554e-02) (20, -1.08988910907879854584e+00) (21, -6.00947582170446636951e-01) (22, -2.66873942037683775652e-01) (23, -3.70733223994570926241e-01) (0, 1.14074181030947485738e+00) (1, -1.55422987858431976838e-01) (2, -1.38197722355502289338e-01) (3, -4.59704943696432541400e-02) (4, -1.39284337381499451203e-01) (5, -4.09870714052934948662e-03) (6, -3.48070200366702789396e-02) (7, -4.27477513262044667153e-02) (8, -9.87932859940946705990e-01) (9, -1.99250439018867075980e-02) (10, 1.93840624546737227973e-01) (11, 1.54442730001789696459e+00) (12, -1.13159880152303680967e-02) (13, 1.58415470198403074420e-02) (14, 1.40040604658685924333e-01) (15, -6.16905924847129139010e-01) (16, -4.78848158109455734888e+00) (17, -1.12421076260621772419e-02) (18, -1.47774864412449108420e-01) (19, 2.68430720188900018286e-01) (20, 3.64957920086164955276e-02) (21, -4.42208821769824567127e-01) (22, 2.68991775460057591651e-01) (23, 3.19396597672997217821e-01) (0, -3.76415335039338883050e+00) (1, -1.98301087893848593247e-01) (2, -2.02347870745067770493e-01) (3, -2.30318974532489895157e-01) (4, -1.35514590718155081284e-01) (5, 2.51996882473470906749e-01) (6, 5.63032123487772651060e-01) (7, 2.66341491549690390084e-01) (8, 1.17733285469104931309e+00) (9, 3.28197901441130202027e-01) (10, -1.67276076377252780336e-01) (11, 1.84832748567942428686e+00) (12, 4.16324834412567568176e-01) (13, 4.38452296245601003122e-01) (14, -1.90146712064692191557e-01) (15, 7.75094674514557380185e-01) (16, 3.85671386732528487240e-01) (17, 1.49729778838235394467e+00) (18, -1.00353805942006713003e-01) (19, 6.90151375072369566155e-01) (20, 9.85705948548039279089e-01) (21, 4.02418951069340169457e-01) (22, 3.28823067888290909710e-01) (23, -3.25319073503786304613e-01) (0, 8.15277434569978431966e+00) (1, 3.06798367712237007865e-01) (2, 4.16163994881846022178e-01) (3, 4.02857392046190809776e-01) (4, 4.01161625001169752647e-01) (5, 6.28083519664583200814e-01) (6, 5.28415161424972912307e-01) (7, 4.03119382605179155110e-01) (8, 3.69970905064371606841e+01) (9, 4.17974238919984253382e-01) (10, 1.36900224723320391718e+01) (11, -5.22049286529229306097e+00) (12, 4.51094094309951509914e-01) (13, 4.16027661940213122627e-01) (14, 7.97211558084424876114e+00) (15, -6.37116693206308121189e-02) (16, -4.71829218426980501189e-01) (17, 8.13217145616552450349e+00) (18, 4.31453360360772730786e+00) (19, 1.46821562939475597220e-01) (20, -1.58159661354107888842e-01) (21, -4.63274654198116697668e-01) (22, 1.73584829456699327177e-02) (23, -2.95892885457369470004e-01) (0, -3.77147285292587097771e+00) (1, -1.96037173279042936658e-01) (2, -1.51584014304395414685e-01) (3, -2.04535014935250919477e-01) (4, -1.64090521641488767957e-01) (5, 2.34518171505057770876e-01) (6, 4.62042681368370455885e-01) (7, 2.16732467888553742563e-01) (8, 1.37685907253755424051e+00) (9, 1.78871701835354030008e-01) (10, -2.07424351416251484537e-01) (11, 1.62917878997151488463e+00) (12, 1.55875383674592027372e-01) (13, 5.46385521479518243559e-01) (14, -2.36214902812836358148e-01) (15, 7.93681645794859336185e-01) (16, 4.24666685010615829743e-01) (17, 1.55998648456222355208e+00) (18, -2.76147821726801023789e-01) (19, 7.20856668349479812186e-01) (20, 9.36984511634699979155e-01) (21, 3.87774149452671579308e-01) (22, 2.79039614542992142621e-01) (23, -2.67538851389504950262e-01) (0, 7.87277513230473346972e-01) (1, 8.77045583889621976903e-03) (2, -8.07588803603510700657e-03) (3, 2.37532232420219965863e-02) (4, -4.80412202908854241851e-03) (5, 2.96981255289174350676e-01) (6, 2.98554836520172894865e-01) (7, 3.28284803874795638734e-01) (8, 1.06224350250310739519e+00) (9, 3.02775386817758340730e-01) (10, 2.96407891185634896070e-02) (11, -1.09213480438995858002e+00) (12, 2.35127803035085319872e-01) (13, 1.18536318932374734603e-01) (14, 7.80535664451492278149e-02) (15, 1.19841974563439990220e+00) (16, 8.14072229577571859771e-01) (17, 2.69661559347203871884e-01) (18, -5.80774344149019960959e-01) (19, 2.54695145985773585551e-01) (20, 6.97044231741263953239e-01) (21, 6.06759921459987250358e-01) (22, 4.64252072256340797551e-01) (23, 1.91951430984893034459e-01) (24, -2.73349402814566211362e-01) (25, 1.17145095238450278052e-01) (26, -2.35309754286334188444e-01) (27, -2.92497970377855909252e-01) (28, 9.57524074366284505544e-01) (29, -1.98072982079288084645e-01) (30, 6.65091570720530711469e-01) (31, 1.30372986306122795597e+00) (32, 1.22477175214352818067e+00) (33, 7.67172887082231136358e-02) (34, 4.16319783303930102125e-01) 
