FANN_FLO_2.1
num_layers=3
learning_rate=0.700000
connection_rate=1.000000
network_type=0
learning_momentum=0.000000
training_algorithm=2
train_error_function=1
train_stop_function=1
cascade_output_change_fraction=0.010000
quickprop_decay=-0.000100
quickprop_mu=1.750000
rprop_increase_factor=1.200000
rprop_decrease_factor=0.500000
rprop_delta_min=0.000000
rprop_delta_max=50.000000
rprop_delta_zero=0.100000
cascade_output_stagnation_epochs=12
cascade_candidate_change_fraction=0.010000
cascade_candidate_stagnation_epochs=12
cascade_max_out_epochs=150
cascade_min_out_epochs=50
cascade_max_cand_epochs=150
cascade_min_cand_epochs=50
cascade_num_candidate_groups=2
bit_fail_limit=1.00000000000000005551e-01
cascade_candidate_limit=1.00000000000000000000e+03
cascade_weight_multiplier=4.00000000000000022204e-01
cascade_activation_functions_count=10
cascade_activation_functions=3 5 7 8 10 11 14 15 16 17 
cascade_activation_steepnesses_count=4
cascade_activation_steepnesses=2.50000000000000000000e-01 5.00000000000000000000e-01 7.50000000000000000000e-01 1.00000000000000000000e+00 
layer_sizes=92 11 2 
scale_included=0
neurons (num_inputs, activation_function, activation_steepness)=(0, 0, 0.00000000000000000000e+00) (0, 0, 0.00000000000000000000e+00) (0, 0, 0.00000000000000000000e+00) (0, 0, 0.00000000000000000000e+00) (0, 0, 0.00000000000000000000e+00) (0, 0, 0.00000000000000000000e+00) (0, 0, 0.00000000000000000000e+00) (0, 0, 0.00000000000000000000e+00) (0, 0, 0.00000000000000000000e+00) (0, 0, 0.00000000000000000000e+00) (0, 0, 0.00000000000000000000e+00) (0, 0, 0.00000000000000000000e+00) (0, 0, 0.00000000000000000000e+00) (0, 0, 0.00000000000000000000e+00) (0, 0, 0.00000000000000000000e+00) (0, 0, 0.00000000000000000000e+00) (0, 0, 0.00000000000000000000e+00) (0, 0, 0.00000000000000000000e+00) (0, 0, 0.00000000000000000000e+00) (0, 0, 0.00000000000000000000e+00) (0, 0, 0.00000000000000000000e+00) (0, 0, 0.00000000000000000000e+00) (0, 0, 0.00000000000000000000e+00) (0, 0, 0.00000000000000000000e+00) (0, 0, 0.00000000000000000000e+00) (0, 0, 0.00000000000000000000e+00) (0, 0, 0.00000000000000000000e+00) (0, 0, 0.00000000000000000000e+00) (0, 0, 0.00000000000000000000e+00) (0, 0, 0.00000000000000000000e+00) (0, 0, 0.00000000000000000000e+00) (0, 0, 0.00000000000000000000e+00) (0, 0, 0.00000000000000000000e+00) (0, 0, 0.00000000000000000000e+00) (0, 0, 0.00000000000000000000e+00) (0, 0, 0.00000000000000000000e+00) (0, 0, 0.00000000000000000000e+00) (0, 0, 0.00000000000000000000e+00) (0, 0, 0.00000000000000000000e+00) (0, 0, 0.00000000000000000000e+00) (0, 0, 0.00000000000000000000e+00) (0, 0, 0.00000000000000000000e+00) (0, 0, 0.00000000000000000000e+00) (0, 0, 0.00000000000000000000e+00) (0, 0, 0.00000000000000000000e+00) (0, 0, 0.00000000000000000000e+00) (0, 0, 0.00000000000000000000e+00) (0, 0, 0.00000000000000000000e+00) (0, 0, 0.00000000000000000000e+00) (0, 0, 0.00000000000000000000e+00) (0, 0, 0.00000000000000000000e+00) (0, 0, 0.00000000000000000000e+00) (0, 0, 0.00000000000000000000e+00) (0, 0, 0.00000000000000000000e+00) (0, 0, 0.00000000000000000000e+00) (0, 0, 0.00000000000000000000e+00) (0, 0, 0.00000000000000000000e+00) (0, 0, 0.00000000000000000000e+00) (0, 0, 0.00000000000000000000e+00) (0, 0, 0.00000000000000000000e+00) (0, 0, 0.00000000000000000000e+00) (0, 0, 0.00000000000000000000e+00) (0, 0, 0.00000000000000000000e+00) (0, 0, 0.00000000000000000000e+00) (0, 0, 0.00000000000000000000e+00) (0, 0, 0.00000000000000000000e+00) (0, 0, 0.00000000000000000000e+00) (0, 0, 0.00000000000000000000e+00) (0, 0, 0.00000000000000000000e+00) (0, 0, 0.00000000000000000000e+00) (0, 0, 0.00000000000000000000e+00) (0, 0, 0.00000000000000000000e+00) (0, 0, 0.00000000000000000000e+00) (0, 0, 0.00000000000000000000e+00) (0, 0, 0.00000000000000000000e+00) (0, 0, 0.00000000000000000000e+00) (0, 0, 0.00000000000000000000e+00) (0, 0, 0.00000000000000000000e+00) (0, 0, 0.00000000000000000000e+00) (0, 0, 0.00000000000000000000e+00) (0, 0, 0.00000000000000000000e+00) (0, 0, 0.00000000000000000000e+00) (0, 0, 0.00000000000000000000e+00) (0, 0, 0.00000000000000000000e+00) (0, 0, 0.00000000000000000000e+00) (0, 0, 0.00000000000000000000e+00) (0, 0, 0.00000000000000000000e+00) (0, 0, 0.00000000000000000000e+00) (0, 0, 0.00000000000000000000e+00) (0, 0, 0.00000000000000000000e+00) (0, 0, 0.00000000000000000000e+00) (0, 0, 0.00000000000000000000e+00) (92, 6, 5.00000000000000000000e-01) (92, 6, 5.00000000000000000000e-01) (92, 6, 5.00000000000000000000e-01) (92, 6, 5.00000000000000000000e-01) (92, 6, 5.00000000000000000000e-01) (92, 6, 5.00000000000000000000e-01) (92, 6, 5.00000000000000000000e-01) (92, 6, 5.00000000000000000000e-01) (92, 6, 5.00000000000000000000e-01) (92, 6, 5.00000000000000000000e-01) (0, 6, 0.00000000000000000000e+00) (11, 6, 5.00000000000000000000e-01) (0, 6, 0.00000000000000000000e+00) 
connections (connected_to_neuron, weight)=(0, 2.11117583720580377360e+01) (1, -1.52123421548084978433e-02) (2, 2.95274779083058679097e-02) (3, -1.78964659689145981492e-02) (4, -8.61926078913905630019e-02) (5, 6.69985470852562881028e-01) (6, 3.35498902995241432556e-01) (7, 4.89363979119089506642e-02) (8, 3.91855016404539346908e-01) (9, 2.59144487289711678013e-01) (10, -3.61245752688689580889e-01) (11, 3.85029721821699089102e-01) (12, 3.67297304524829781869e-01) (13, -2.85213173165335086290e-02) (14, 5.39422930550965337715e-02) (15, 1.94580525007189114595e-01) (16, 3.30742800695260075194e-01) (17, 4.06741857292843622673e-01) (18, -3.90030717134719762118e-01) (19, -3.75062112243395695543e+00) (20, 1.16204334125793735666e+01) (21, -2.58543722141814036330e-01) (22, 3.30286745907032164293e-01) (23, 3.04493860368364288593e-01) (24, -6.92603744197097664914e-02) (25, -4.00175043631525007015e+00) (26, -7.91650679233116716382e-01) (27, -3.81131818210597561603e+00) (28, 4.73976143847999811798e-02) (29, -2.61840798108702355051e+00) (30, -2.15958020440217501879e-01) (31, -1.94280147665546881752e-02) (32, 2.71390125524023473336e-01) (33, 1.50000000000000000000e+03) (34, 5.26541785659327854496e-01) (35, 1.11602159092542185803e+00) (36, -6.31730392482530822562e-01) (37, 2.96970480776184375671e+00) (38, 4.16346001533335619005e-01) (39, -2.57605983915933228756e-02) (40, -2.55696305769461451618e-01) (41, -3.91626392680900092813e+00) (42, -1.60736180284555230102e+00) (43, -1.99204720658769218744e+00) (44, -3.83963359182821095672e+00) (45, 2.48921787549262529815e-01) (46, 3.85222950215727111267e-01) (47, -1.04559880183705988799e-01) (48, 2.49686750265176976571e-01) (49, 5.35920728667590440253e-01) (50, 2.73985962363126445140e-01) (51, -9.66187742630056009552e-03) (52, 1.22188202779251287033e+00) (53, 6.44353763748823582524e-01) (54, 1.15159569453995458410e+00) (55, 3.08738033927647448351e+00) (56, 1.06555498093669887005e+00) (57, 1.34994767324694953103e+00) (58, 7.06393523412211621348e-01) (59, 5.32762654906826282897e-01) (60, 6.03149403245942905549e-01) (61, 2.44918112024443646035e+00) (62, 9.42157515974498371847e-01) (63, 4.32245090423375710742e+00) (64, 1.05081751082198179836e-01) (65, -1.16075304509097887440e+00) (66, 1.50000000000000000000e+03) (67, -2.68519580804206103863e+00) (68, 2.48642990802711816301e+00) (69, 4.70631568466193073164e+00) (70, 1.08665502980113931608e-01) (71, -1.10459416880776511993e-01) (72, 1.57223183232550134392e+00) (73, 7.38113353366593782923e-01) (74, 1.33572014818660628199e-01) (75, 1.50000000000000000000e+03) (76, 4.13722583158761892719e+02) (77, -3.24164770446597350073e+00) (78, 1.11874708919955097031e+01) (79, 4.98760042058237984541e-01) (80, 5.85003137686702090470e-01) (81, 1.28998684923528217361e+00) (82, 1.05618841459001466809e+00) (83, 1.43437543610905993141e+00) (84, 1.59034156379964075612e+00) (85, 1.94140191424186081548e+00) (86, 6.86766141817951769610e+00) (87, 1.50000000000000000000e+03) (88, 1.38199108401255243983e+00) (89, 4.03094915160188971281e-01) (90, 1.50000000000000000000e+03) (91, 3.73028891162625539368e-02) (0, 6.10866981374333661847e+00) (1, 1.56799381785724667449e-01) (2, 8.42681659391869841702e-02) (3, 2.47280044668052034762e-01) (4, 2.06187440269325034103e-01) (5, -1.53660496725982764765e+00) (6, -5.86136294557541903671e-01) (7, -1.05256887178247957593e+01) (8, -8.91702312373516048361e-01) (9, -9.24709788559269885155e-01) (10, -5.76280730442102706590e-01) (11, 2.34047697789672576318e-01) (12, -2.75104879829253357038e-01) (13, -6.66982772290193426379e-01) (14, -2.82230303637529655880e-01) (15, -9.69513801184811868650e-02) (16, -7.38678251981306627227e-02) (17, -1.31605099729532520891e-01) (18, -5.49575658764645313958e-01) (19, 5.25926910068795461228e+00) (20, -1.02521398285051628108e+01) (21, -5.12040858348600358418e-01) (22, 9.10242125765245435609e-01) (23, 3.48062778877093803587e-01) (24, -1.37242813596269264131e+00) (25, 1.96832369161576492544e+00) (26, 4.75710561407398024869e+00) (27, 1.56317471516202899373e+00) (28, -8.68016059408098228367e-01) (29, 1.42379312670064250845e+00) (30, -1.87263896236695681630e+00) (31, -7.86753572535725531623e-01) (32, -1.94674208173770213470e+00) (33, -1.06120683143288339068e+01) (34, -1.05770743422278923340e+00) (35, 2.42631153167929936032e+00) (36, 1.48165005940434730292e+03) (37, -1.48720563103829181273e+03) (38, -2.80740528857748783409e+00) (39, -3.99620142026449048922e-02) (40, 1.50000000000000000000e+03) (41, 1.89826223480249245412e+00) (42, 4.13571829992823380984e-01) (43, 7.83069774961871606367e-02) (44, 2.32153828078538948532e+00) (45, 2.88614440795266873063e-02) (46, 3.09736160834774065798e-01) (47, -1.95104559987352565997e+00) (48, 1.50839482792133411371e-01) (49, -1.02021548642856729749e+00) (50, 3.69680923088471502513e-01) (51, -7.03759482737004038455e+00) (52, -4.52635301589341176864e-01) (53, -4.13499827907939554450e+00) (54, -3.58713903258852351286e+00) (55, -8.47000916345685861408e-01) (56, 2.81111647032044331684e-01) (57, -2.61374716830918840671e-01) (58, 2.40281321840804085177e-01) (59, 1.51791560548794279839e-01) (60, -3.48944689270583952023e+00) (61, 4.77090913692515272704e-01) (62, -2.14988863841195365634e-01) (63, -5.93750577548897706670e-01) (64, -3.77689665589713494120e-02) (65, -1.16963766022502890785e+00) (66, 6.48469204612956939826e+00) (67, -7.93306692224466747376e+00) (68, -2.62231212924752765669e-01) (69, 2.53416065702792048242e+00) (70, -1.98035223078121769280e-01) (71, 1.42170894959682492242e+00) (72, -3.12908881850998543683e+00) (73, -1.00274659061220128287e+00) (74, 3.00617619236585198461e-01) (75, 3.94938825111628988296e+00) (76, 9.74830950415884842641e+01) (77, -1.07355686145937667675e+02) (78, 1.96288707611487578397e+00) (79, -1.70898643613323201862e+02) (80, 9.03527221063789909294e+00) (81, 1.29654698730299777765e+00) (82, 5.56319852383436952437e-01) (83, 1.45556253737652185887e-01) (84, -1.37657390605668328298e+00) (85, 4.25280195850984998884e+00) (86, 9.85453563934919452016e-01) (87, 1.23654229405103599504e+00) (88, -3.40783306866786483980e-01) (89, 1.26693559224114715711e+00) (90, 1.78216378195586933053e+00) (91, -1.87807667296865897499e-02) (0, 1.20319490054615219066e+01) (1, 1.78130399220475604816e-01) (2, 1.61443795793542371753e-01) (3, 2.23072003357896314624e-01) (4, 2.49296556942948804858e-01) (5, 4.33918797094101804657e-01) (6, 7.96507099287743547400e-01) (7, -1.39295076359333225291e+00) (8, 5.43207064511469606138e-01) (9, -1.21557634874344899778e+00) (10, -2.96098408771333809764e-01) (11, -3.40028456702985037996e-01) (12, -4.21558943913924941138e-02) (13, -2.95660151586257108347e-02) (14, 1.14039209033027208462e-01) (15, 1.47719971729906168756e-01) (16, -9.98281048736934101262e-02) (17, -5.12147831432870792590e-01) (18, -2.69116973647004931181e-01) (19, 1.99797758105944495810e+02) (20, 4.99918601632618830877e+00) (21, 4.99305157973073898692e-01) (22, 3.67741497523895122246e-01) (23, -2.13922022842215453498e-01) (24, -1.30899802696428757542e+00) (25, 1.50000000000000000000e+03) (26, 1.50000000000000000000e+03) (27, 1.50000000000000000000e+03) (28, 3.60253468131798038065e-01) (29, -7.61265481119463949256e+00) (30, -1.34257622036486612416e+00) (31, -1.03594756146571032041e+00) (32, -7.75496629094525047332e-02) (33, 1.75177040307645004447e+00) (34, 7.78441154664748918846e-02) (35, -1.51275999171793551490e+00) (36, 3.45817649812621086269e+00) (37, -1.77948895783022775774e+00) (38, -1.96290188095599749118e+00) (39, 3.72286279499810593419e-02) (40, 1.54162778829124014202e+00) (41, -4.77440867786019379482e-02) (42, -9.45586842862132459508e-01) (43, -1.55384808683381181460e+00) (44, 1.48114728608468453785e+03) (45, -8.18767932397586939430e-01) (46, -6.47054544660836894465e-01) (47, -1.36363799203731006493e+00) (48, -7.64467146021963861457e-01) (49, 9.87516124240299802972e-02) (50, -6.98080224707586793897e-01) (51, -1.01648880271074992798e+00) (52, -4.72502837341162329476e-01) (53, -3.51454086585449521074e-01) (54, -1.32915534954270042611e+00) (55, -5.89360360832728469305e-01) (56, -1.15417829947510514055e-01) (57, 8.58126527944399614123e-02) (58, -6.37093995036203786242e-01) (59, -1.22514434188968879269e+00) (60, 1.50000000000000000000e+03) (61, -4.75759021159878614515e-01) (62, 8.76836011836547912779e-01) (63, 8.92633375340616908034e+00) (64, -1.65688110817107459027e+00) (65, 1.33985076171821448909e+00) (66, 1.50000000000000000000e+03) (67, -8.47642903429492378109e+00) (68, -2.60308934377961494200e-02) (69, 1.81029987149108384514e+00) (70, 3.49349786263243644591e-01) (71, -2.19588332488585802338e+00) (72, 4.68659653040719714756e-02) (73, -7.78667907093880784508e-01) (74, -1.44646835045353849836e+00) (75, 1.50000000000000000000e+03) (76, 8.45351491714419921664e+02) (77, -7.37933842038382553641e-02) (78, 3.13969319321697637459e-01) (79, 1.62836358872573883083e+00) (80, -1.72350098035331722457e+00) (81, 1.25138732364335675262e-01) (82, -1.60135172380445528484e-01) (83, -1.28785632013397766116e+00) (84, -7.50679402930002348526e-01) (85, -5.88524004472173317692e-02) (86, -2.88180331748548868021e+00) (87, 1.50000000000000000000e+03) (88, 4.20207863797156688790e-01) (89, 3.10898206249402897505e-01) (90, -2.95721403492597145757e+00) (91, 9.12514380178729100912e-01) (0, -1.07548333589852038172e-01) (1, -2.63305775077294114406e-02) (2, 2.22994543600515612858e-03) (3, 1.37176995798828610384e-01) (4, 1.16996889635803555385e-01) (5, 3.79475509342341976726e-01) (6, -4.10899167268925558094e-01) (7, 5.18986030233495543307e-01) (8, -3.29990956274135216475e-01) (9, -2.66421545041737262149e-01) (10, -4.62079398499645410681e-01) (11, -1.34053159562545182171e-01) (12, -2.04409722722570186271e-01) (13, -3.38388219156043557057e-01) (14, -3.72978176779945880259e-01) (15, -5.28333826167733056067e-01) (16, -4.37244200780715797094e-01) (17, -1.98876739144094938361e+00) (18, -4.92984193041892726495e-01) (19, 2.46180700963749776733e+00) (20, -3.69762795310213165934e+00) (21, -4.37590667281589462689e-01) (22, -2.03579900148176645702e-01) (23, -1.41800290714717613927e-01) (24, -1.11144601813402110757e+00) (25, 8.87885876641443583246e-01) (26, -1.50000000000000000000e+03) (27, 1.30767653605076450418e+00) (28, -3.58451071718960567747e-01) (29, 9.91331066611271682909e-01) (30, -9.15930320026424493740e-01) (31, 9.60418415698497951460e-01) (32, -2.21768339268294673028e-01) (33, -2.32318103418118493408e+00) (34, 4.11803352444728709703e-01) (35, 3.57164301065250378020e-01) (36, 4.88909507011872168647e+00) (37, -7.11575493696295025003e-01) (38, -6.85115968415866971597e-01) (39, -3.72845603864976060660e-02) (40, -2.96464089481852766106e-01) (41, 1.25700864286030089545e+00) (42, 4.66197716373999315742e-01) (43, 1.52240339059054624604e-01) (44, 1.41685983557793737653e+00) (45, -2.78152516535021543387e-02) (46, -9.54838586603643096895e-02) (47, -1.13217069589684671271e+00) (48, -1.21381677087633033096e-01) (49, 3.94472065721583942111e-01) (50, -4.05481336861833852048e-01) (51, 2.56616777488149538922e-01) (52, 1.50069408868613324987e-02) (53, 5.83370891633612442817e-01) (54, 1.92490306274901157302e-01) (55, 1.11442267107638515178e+00) (56, 2.92370979666371003103e-02) (57, -3.04429187909422804825e-01) (58, 1.01020960830818884446e+00) (59, -7.40886846572990753756e-01) (60, -2.35982969136590114978e-01) (61, -8.12088227746857072020e-01) (62, -5.64733191318877447706e-01) (63, -5.07022537703149422939e-01) (64, 6.84642929546001477448e-01) (65, 1.14038504278736696484e+00) (66, 7.51651256563524605703e-01) (67, -3.23031896222528169815e+00) (68, -5.79617423426721400936e-01) (69, 6.58409029415378654448e+02) (70, -3.17130244846046105422e+00) (71, 1.39370311163195959026e+00) (72, -6.82509187141859374748e-01) (73, 4.78734095939890302862e-01) (74, -6.40567748786868729205e-01) (75, 4.81586903918901754196e+00) (76, 4.62140537918769922499e+00) (77, -5.23472515254242267702e+01) (78, -7.39252676467629099566e-02) (79, 3.43452076635429870421e-01) (80, -5.95079089747135414612e-01) (81, 1.35756191879789350763e-01) (82, 2.37613310366117491679e-01) (83, -2.07648496608081351011e-01) (84, 7.66501477744360726341e-01) (85, -2.58311356707256745135e-01) (86, 5.99955054051007352633e-01) (87, 4.41977729983935763158e+00) (88, -5.40827473272253111958e-01) (89, 4.12224803099124903483e-01) (90, 4.79486279959017469565e+00) (91, 1.66514698581972625524e-01) (0, -7.80123527671897409874e-01) (1, 1.26528041627582077400e-01) (2, 9.28555822040372097481e-02) (3, 1.25693353083308534401e-01) (4, 1.41794400479968496498e-01) (5, -7.90662913245586462807e-01) (6, -9.79911445336322239896e-02) (7, -4.08262815061683714823e-01) (8, -3.69822326630457776098e-01) (9, -3.99413979364367233149e-01) (10, -3.30442231030538768888e-01) (11, -7.12523902592228086661e-01) (12, -5.17248968136416187313e-01) (13, -4.25937938377013214364e-01) (14, -3.02534395752122042822e-01) (15, -2.71327367009487563365e-01) (16, -2.08846967122328475153e-01) (17, 1.22383361071705769330e-02) (18, -3.48725167661059487489e-01) (19, -4.90566191520706129658e-01) (20, 9.06385804795613148066e-01) (21, -4.24028316002311445043e-01) (22, -2.25101074576768367397e-01) (23, -3.07707696659837992570e-01) (24, -1.25153274792970281570e-01) (25, -1.42060662753513922141e-01) (26, -1.34382197048613361012e+00) (27, -4.40079606377319632049e-02) (28, -6.15153832640793596376e-01) (29, -1.47333284664091568317e-01) (30, -9.78538060385770180893e-02) (31, -6.09847476073946181963e-01) (32, -6.11031148491302578130e-01) (33, 1.14194700624183820281e+00) (34, -2.54702646676681465632e-01) (35, -1.50077862060939787314e-01) (36, -5.43927733183216766122e+00) (37, -5.45184632051984308099e-01) (38, 5.28913941212725002838e-02) (39, -4.68612164963396915507e-01) (40, -1.53773590974363133510e-01) (41, -1.19005153124880816429e-01) (42, -1.99523023619982614596e-01) (43, -2.15766236047238407769e-01) (44, -1.67364632551313591291e-01) (45, -4.84672096682191022587e-01) (46, -4.74523729098304758445e-01) (47, -6.01280794677284888272e-02) (48, -4.73498161595902911092e-01) (49, -2.30592422385492323844e-01) (50, -4.28706562298991011861e-01) (51, -3.41590908048340025083e-01) (52, -7.42320759397041562977e-01) (53, -2.46513989165131286452e-01) (54, 3.32926287435051704300e-01) (55, -1.25529560519033545063e+00) (56, -2.97515125326086815605e-01) (57, -7.15524492414798762852e-01) (58, -8.37459090161048747003e-02) (59, -6.49670315695075273332e-01) (60, -7.18097215206316086267e-01) (61, 6.98254097729807676753e-02) (62, 1.82698564407562025202e+00) (63, 5.89336945837960879402e+00) (64, -8.62077467574114564286e+00) (65, -2.47894568923029467999e-01) (66, 5.70768742631299907941e+00) (67, -1.50000000000000000000e+03) (68, -2.04777792075869463639e-01) (69, -5.14676456140784566173e+00) (70, -2.98436127974611720148e-01) (71, -1.55876812884875071141e+00) (72, 7.28597854537562983346e-01) (73, -6.96724211904691603792e+00) (74, -2.12246875492473785485e+00) (75, -5.33053919503169382210e+00) (76, -6.77287957454707889582e+00) (77, 3.24545595190287716747e+00) (78, -6.82532804729540698574e-01) (79, -9.79607471676996049981e-02) (80, 4.71341586535982903783e-01) (81, 2.40582131508339652770e-01) (82, 2.62338832976492353222e-01) (83, -1.15373828170702696916e+00) (84, -1.42367924003388313103e+00) (85, -6.41959244248660132470e-01) (86, -1.51090194821694889793e-01) (87, -5.22749508770499726751e+00) (88, 3.04438216607691783389e-02) (89, 2.27977640208863491234e-01) (90, -5.28645313800174587726e+00) (91, -5.08731185098142302259e-01) (0, 3.29079666100580539023e+02) (1, 6.73400295582219032831e-01) (2, 6.47931558695240883416e-01) (3, 6.50293437447949318475e-01) (4, 5.07912804987835753145e-01) (5, 3.01768054427244125648e+00) (6, 4.37842956040854824895e-01) (7, 8.04481943804147614507e-01) (8, 1.10455464517107992961e+00) (9, 1.49995466530787462034e+03) (10, 3.03663969689285636377e+02) (11, 2.53310342138853838989e+00) (12, 2.53498387138744130098e+00) (13, 3.12161324287876240646e+00) (14, -5.80431031850429235419e+00) (15, 3.20888218897391075402e+00) (16, 3.64764349497500761643e+00) (17, 5.11389169554634115400e+00) (18, 1.60803998080073249355e+01) (19, 6.58421179451520632853e+00) (20, -4.93299666102570011361e+00) (21, 1.53078721856533106482e+00) (22, 5.48777696105510859326e-01) (23, -2.41990998595240363045e+01) (24, 1.10261238035824112558e+03) (25, 1.50000000000000000000e+03) (26, 4.38823653813098513155e+00) (27, 1.50000000000000000000e+03) (28, 1.36860647732277925570e+02) (29, 5.02355858568403562003e+02) (30, 7.26168314965167496666e+02) (31, -2.20316302806533279579e+01) (32, 2.84185989254134163673e+00) (33, -7.36823277173716064681e+01) (34, 2.37995770756889912789e+00) (35, 7.26699175147547005160e-01) (36, 3.50026971169131240202e+00) (37, 1.35627155207530791792e+00) (38, 1.22727922910200149431e+02) (39, 2.94032796265552320847e+00) (40, 1.12505966271098838405e+01) (41, 1.49893011188036030035e+03) (42, 6.70288674789981886448e+00) (43, 1.50000000000000000000e+03) (44, 1.51143068063486623487e+02) (45, 1.84148633658938121194e+00) (46, 2.24537357917535063123e+00) (47, 4.06066488882730084242e+02) (48, 2.46405255613640861156e+00) (49, 2.12166158667929938275e+00) (50, 7.72200695284467553137e-01) (51, 1.49729481282461915725e+03) (52, -4.45552985942461976521e+00) (53, 3.15385164146581731259e+00) (54, -6.33467216772074626085e-01) (55, -5.85478842804051993198e+01) (56, 6.11515425720251193376e-01) (57, -3.49462575169524480856e+00) (58, -4.56875940394018620339e+00) (59, 3.28114747911017179405e+00) (60, 2.24541040160184612873e+00) (61, 2.23789904323059873903e+00) (62, -2.26654494379342263954e+00) (63, -1.05550236015361731390e+00) (64, -3.31536557261677922170e+00) (65, 6.95157112451852032819e+00) (66, 3.21288674711884958413e+00) (67, 1.23058395335879877663e+00) (68, -1.58059321068203884053e+00) (69, -2.05470796289853616656e+01) (70, -1.77319609527796268056e-01) (71, 2.35628636903426560423e+01) (72, 1.92508464187213124141e+00) (73, 1.85348448605594784411e+00) (74, 4.33901642904399642564e-01) (75, 7.83219837067973378986e-01) (76, 1.31029787680558411012e+03) (77, 4.92458757741166497368e+00) (78, -4.30067509428775629488e+00) (79, 1.74956927509862514292e+00) (80, -6.58729605178852661851e+00) (81, 4.04553674920275252447e+00) (82, 3.55437289335066575191e+00) (83, 4.85375064052888216537e+00) (84, 1.96806769425841454613e+00) (85, -3.24538255130793107384e+00) (86, 1.57226623370496518817e+01) (87, 3.58246778765886642049e+00) (88, 2.44065155245770348813e+00) (89, 7.69458295269976333408e-02) (90, 2.52695232732041352719e+00) (91, -6.37602497567905324161e+00) (0, 9.29639074112233032565e+00) (1, 2.09784952220927162214e-01) (2, 6.60810668444755389128e-02) (3, 2.12088492927561683699e-01) (4, 2.05226493296633644148e-01) (5, -7.60798277248681764640e-01) (6, -5.28259229925966855568e-01) (7, 1.53388398927707347852e+00) (8, -3.89076543582746903205e-01) (9, -4.24268256727325432376e-01) (10, -6.72594947799993320148e-02) (11, -9.05383232541256521841e-01) (12, -3.67898495291113070138e-01) (13, -3.61892008447992352682e-01) (14, -2.36755325999787741287e-01) (15, -1.31491716294859450898e-01) (16, -9.92367322893461245581e-02) (17, 1.61888685644823215881e+00) (18, -9.02724716753229572408e-02) (19, -2.97864850020335247827e-01) (20, 2.70296548747325893203e+00) (21, -5.30651230261247164322e-01) (22, -6.71384691919726717124e-01) (23, -4.84032869078975525046e-01) (24, -2.56332157257612491819e-01) (25, 9.38563403571555210370e-01) (26, 2.01337400272461186646e+00) (27, 1.00570413540442316069e+00) (28, -4.18237464679186099481e-01) (29, 6.91379601881649596962e-01) (30, -8.29852751896799079034e-01) (31, -2.71055684081101699867e-01) (32, -4.72667881182736782097e-01) (33, -3.90175831126374816904e+00) (34, -1.05851427688490007384e+00) (35, -8.89837190977921577151e-01) (36, -7.18612788389785706045e-01) (37, -6.73573915014126445300e-01) (38, -5.02388449159263672517e-02) (39, -3.66395715139813671346e-01) (40, -4.65423287024741449969e-01) (41, 5.28999283662245134430e-01) (42, 6.20411020103024402061e-01) (43, 3.84155238367866802562e-01) (44, 6.80319661900202321547e-01) (45, -8.79614729191989686008e-01) (46, -2.22868921128574093427e-01) (47, -4.43038745511938170107e-01) (48, -8.00511629277637637436e-01) (49, -1.05298036011129880762e+00) (50, -3.36724877208661899086e-01) (51, 4.90996713627333492003e-01) (52, -4.98788179620564875449e-01) (53, -3.37866573350603716097e-01) (54, -1.72071694101691874401e-01) (55, 4.26048226952838227088e-01) (56, -2.78212292274010231097e-01) (57, 2.05320540852558214295e-01) (58, -1.94188959949612427458e+00) (59, 7.74525361915904264620e-01) (60, -5.51165956992556438365e-01) (61, -9.10029159681375876545e-01) (62, -4.21234786220564871861e-01) (63, -3.94964820314550657532e-01) (64, 2.33896654805706011304e-01) (65, -1.81739348185879356912e+00) (66, 4.47586880293646516282e-01) (67, -2.64397573403008046000e+00) (68, -8.09900525950845405487e-03) (69, 1.06320891672045281240e+00) (70, -1.05481340085595842737e+00) (71, 1.97864708850426729292e-01) (72, -6.92342005162603080226e-02) (73, -1.49097517618537978024e+00) (74, -5.03931192819505646696e+00) (75, 4.09698560317972226841e+00) (76, 4.52485620616274530903e+00) (77, 6.03976847058253962786e+00) (78, -1.07426985864013024852e+00) (79, -1.32249085298579149850e+00) (80, 7.72256266914885025621e-01) (81, -2.24638105659796166735e-01) (82, -1.33169589318049910731e-02) (83, 1.04089915785477563070e-01) (84, 9.74791989624675114801e-02) (85, -3.21720645226434454056e-01) (86, -2.20940299548410035158e+00) (87, 1.04838809216817785419e+00) (88, -9.91414519267784372092e-02) (89, -1.52058838641769211719e+00) (90, -6.97460743785817793849e-01) (91, -1.61789440972518350215e-01) (0, 8.59924532218362713820e+01) (1, 1.53636618497824228857e-01) (2, 1.05129673126193715071e-01) (3, 1.85725971105551279638e-01) (4, 9.28842266826358370357e-02) (5, -3.27426610846509369424e-01) (6, -3.59985016003753988123e-01) (7, -3.99215846930624129740e+00) (8, -6.50154036807427671008e-01) (9, -2.32019938846236106755e+00) (10, -2.91725408033118327467e+00) (11, -4.32565345296955838794e-01) (12, -9.31561791901761471202e-01) (13, -7.27016124566883470415e-01) (14, -7.93962345620916054578e-01) (15, -7.62176545646319425487e-01) (16, -7.60349865014780079697e-01) (17, 1.23179090495101584146e+00) (18, -2.85366499975964282854e+00) (19, -9.84734852656998449483e-01) (20, 2.21434138138225433678e-01) (21, -9.52896669803425577783e-01) (22, -1.17582786097984026696e+00) (23, -1.81790154162086081691e+00) (24, -1.21968450220662893990e+00) (25, 1.81919139300687676686e-01) (26, -2.28140376810289646770e+00) (27, 1.16833825332315499601e+00) (28, -1.50211083728055361242e+00) (29, -1.27593620480940694861e+00) (30, -9.79961608703860287406e-01) (31, -4.39880702346604479658e+00) (32, -2.41481442070891894058e-01) (33, 1.37322416138851055578e+00) (34, 1.50503856867704288724e+00) (35, -5.89573378668600933672e-01) (36, -1.85806645502337186571e+00) (37, -9.26214368857870451457e-01) (38, -5.17361579507001456690e-01) (39, -3.66945356029525271424e-01) (40, 8.00261044893137873935e-01) (41, 1.75061087545169756334e-03) (42, -1.04622336310958408134e+00) (43, 5.55236206070901627818e-01) (44, 2.30985274187627764864e-01) (45, -8.40511367164135547725e-01) (46, -7.90333006795450487836e-01) (47, -8.20201060195873243863e-01) (48, -6.89244734890602006594e-01) (49, 1.23854368637753342597e+00) (50, -6.97343677413191254111e-01) (51, -1.17734721623826010806e+00) (52, -1.42462817992711232584e+00) (53, -5.44860439131165441573e-01) (54, -8.26514593402782660192e-01) (55, -7.45989406430948298610e-02) (56, -6.37925356481335525949e-01) (57, -7.81022039655030919647e-01) (58, -2.73376518653115718749e+00) (59, 1.82269225329934531077e-01) (60, -4.09521373988189718585e-01) (61, 1.80473874410436330162e-01) (62, 1.95576189065382100019e+00) (63, 2.15571793575495052053e+00) (64, -4.50360394130857333295e+00) (65, 4.19549543598087470997e+00) (66, -3.00669741754726216332e-01) (67, -1.73194844000043524090e+01) (68, 3.13827607384622730979e-01) (69, -2.55362635502351409400e+01) (70, 2.61296451089178149996e-01) (71, -6.88841976220274432308e+00) (72, -1.16643417571301122315e+00) (73, -6.91098906613451968717e-01) (74, 2.76999329002685923395e-01) (75, 3.18115052850660307016e+00) (76, 3.74929876078083701429e+00) (77, -2.41834436248788264834e+01) (78, 1.80270953430059543976e+00) (79, 1.02445360409597419071e+00) (80, -3.81572486716237335713e+00) (81, 5.41233750495799914582e-01) (82, -8.12196501413155469429e-02) (83, 5.00154183175974126341e-02) (84, 4.25786630284342548780e-01) (85, -4.17888092241375463942e-01) (86, -2.01214764361707709739e-01) (87, -1.28078389690580357607e-01) (88, -6.37897995755724256384e-01) (89, -6.23829169418655515855e-01) (90, 7.21275590904942975889e-01) (91, 7.66140122115272603764e-01) (0, 6.37800643216627065613e+01) (1, 1.26451331407351486025e-01) (2, 1.57129720156617413984e-02) (3, 9.97540831869052069258e-02) (4, -4.73187312180565131103e-02) (5, -1.10589632950111282916e+00) (6, -1.43425602956453257519e+00) (7, -1.19211655631291080226e+00) (8, -1.43386253216619818929e+00) (9, 9.52103533932316947741e-01) (10, -1.03939364020127933408e+00) (11, -5.84304605654286879357e-01) (12, -6.17298398174505158487e-01) (13, -1.19469296866142937752e+00) (14, -1.38568324766414496807e+00) (15, -4.52669259212694907735e-01) (16, -3.82187138235937140518e-01) (17, 5.12777134142625989899e-02) (18, -1.03808354361611754335e+00) (19, -1.29949502273044892320e+00) (20, 8.49409805549816598891e-01) (21, -3.31101223311064618571e+00) (22, -1.50775463060378545066e+00) (23, 8.31224068366009039011e-01) (24, -7.43791069305403396150e-01) (25, -1.59025556731944139877e+00) (26, -1.25192817616348928134e+00) (27, -1.68046232315341614871e+00) (28, -2.56771893721275246136e+00) (29, -1.28728301803071665255e+00) (30, -1.71839619318321346064e+00) (31, 4.21472243594057272009e-01) (32, -3.54989400818960187944e-01) (33, 1.39243695322589844388e+00) (34, -3.54431660243235935326e+00) (35, -6.42417875229508550383e-01) (36, -1.02606950133661301017e+00) (37, -2.22957727826746415767e-01) (38, 1.14177846865240928409e+00) (39, -1.51605565061777824987e+00) (40, 6.65959571398418437305e-01) (41, -1.62087541378122046432e+00) (42, -4.63469112566236435269e-02) (43, -8.55186566073985687808e-01) (44, -1.57585748853547213955e+00) (45, -1.01461269910321671972e+00) (46, -1.21562515731205200709e+00) (47, -5.97108217479466407696e-01) (48, -9.54136609814623892767e-01) (49, -3.51587242397408639150e+00) (50, -1.22921920689070174326e+00) (51, -3.68313449867216813338e-01) (52, -5.23166529979180894294e-01) (53, -6.28725699221318379273e-01) (54, -1.05922630749514645743e+00) (55, -8.62025811615939052679e-01) (56, -7.88256374179075569586e-01) (57, -1.36371279809322842880e-01) (58, -6.82630296289354010497e-01) (59, -8.34388067890692530781e-01) (60, -1.85588005687241097696e-01) (61, 9.23918148162488628294e-01) (62, -3.27825310891120214052e+00) (63, -1.18827783454723867607e+00) (64, 3.17266488526689982574e-01) (65, -5.90268203916898848149e+00) (66, -3.03632571038859822021e-01) (67, 9.29907800040281840026e-01) (68, -5.42792483250677526563e-01) (69, 8.46876390588871541532e-01) (70, -2.61419566805431935475e-01) (71, 3.74410160883684006716e-01) (72, -3.59478426763146508005e-02) (73, -6.86108210132718387975e-01) (74, 2.10932787198490317992e-01) (75, -1.59138152908195529278e+01) (76, 3.48475670926637226543e+00) (77, -3.56886835841065774844e+00) (78, 1.05527496382227492511e+00) (79, -8.33893905871604501634e-01) (80, 3.87476167408016658467e-01) (81, -1.07292150506690520118e+00) (82, -1.42345776922994904368e+00) (83, -1.38925817513735716524e+00) (84, -1.93757537309276084425e-01) (85, -1.31624825228510461406e-01) (86, 3.60345202630650771058e-02) (87, 4.74808437366517413492e-02) (88, -4.28905323609951649733e-01) (89, -1.15764493083334940593e+00) (90, 9.14935195329024453237e-01) (91, 1.05506592087317541129e+00) (0, 2.95241809231026675064e+00) (1, 1.98668964377200468752e-01) (2, 2.34775491228854937820e-01) (3, 1.75014652481830040864e-01) (4, 9.74549652846228575687e-02) (5, 1.59890872820665763676e+00) (6, -4.40751326391447206809e-01) (7, -5.83197285201756843165e-01) (8, -2.59916199017426630125e-01) (9, -8.91481377239186634220e-01) (10, -5.47707572142920717795e+00) (11, 2.39726219062843526331e-01) (12, -7.79899686570521444295e-01) (13, -3.71482232823772084984e+00) (14, -8.54786130061180982054e-01) (15, -8.24769610282468534912e-01) (16, -6.05019683475619851620e-01) (17, -3.96621156385681583600e+00) (18, -5.34759419174202221825e+00) (19, 9.59763798032199022536e-01) (20, -5.64377703172797007269e-01) (21, -3.53569992640250463367e+00) (22, 4.04195108003892300541e-01) (23, -4.70725830382535292973e-01) (24, -2.98914929347931312975e+00) (25, -3.58676655380791797878e-01) (26, -1.50000000000000000000e+03) (27, -1.50000000000000000000e+03) (28, -3.91039566732974730456e+00) (29, -1.07406155828276594910e+00) (30, -2.19163182716078841494e+00) (31, -7.49298072092115852172e-01) (32, -2.15059903891753195770e-01) (33, 3.12753888436115623506e+00) (34, -3.07698211134861354665e+00) (35, -7.06823816315722908143e+00) (36, 2.56175784126945771391e+00) (37, 7.52211002505119408212e-01) (38, -4.73707118446719821492e+00) (39, 8.47863075725675319205e-01) (40, 1.32922783090700180608e+00) (41, -5.76410294172512660538e-01) (42, -9.75111756337608381884e-01) (43, -6.77821522516623642396e-01) (44, -3.43888695252517861967e-01) (45, -4.90709720837130658477e-01) (46, -3.17548341941438305724e+00) (47, -2.74742241756330285440e+00) (48, -5.11367075882116162155e-01) (49, -3.18273197083193526424e+00) (50, -8.77234040745296206332e-01) (51, -2.83130672257959670191e+00) (52, -7.52500739439374705109e-02) (53, -1.50000000000000000000e+03) (54, -9.10247877449475217837e-01) (55, 4.57076058346686187051e-01) (56, 2.84271458730021298056e-01) (57, -1.47649542954108170534e+00) (58, 5.71548583489060924023e+00) (59, -8.68918156664288843238e-01) (60, 6.52356533596419874144e-02) (61, -4.29766085980519407794e-01) (62, -3.46844184747960970761e-01) (63, -7.47416339440538202155e-01) (64, -4.30736068237799335501e-02) (65, 5.05330767806041913914e-01) (66, -1.50000000000000000000e+03) (67, -1.44818984897358160602e+00) (68, 4.90138261790219409431e-01) (69, 7.33940897751805021443e+00) (70, -1.65304034380463898968e-01) (71, -1.56972998063027890936e-01) (72, 2.40545628294579483253e-01) (73, 7.55676543229097941179e-01) (74, -2.67782668682933877591e-01) (75, 4.38223580170581072935e+00) (76, 4.72612763208612385313e+00) (77, -2.28675905349544938971e+00) (78, -5.87800359067065070207e-01) (79, -1.42379844397006655177e-01) (80, -3.22470964375277446834e+00) (81, 7.65510764604690030488e-01) (82, 4.02573811267721626272e-01) (83, -4.19567099928446068935e-02) (84, -1.32714218960565388805e+00) (85, 6.83832133155828497673e-02) (86, -6.02208806090904769093e-01) (87, 2.82496930762546405447e+00) (88, -1.42130046239755419846e-01) (89, -2.70295887744145882370e-02) (90, -1.83123129469092327248e+00) (91, -4.64793342269294862401e-01) (92, 1.23189056081246506302e+00) (93, -2.23884573823930566050e-01) (94, 4.23302404115725061651e-01) (95, -5.65151689791609790348e-01) (96, -7.35314724580971690315e-01) (97, 9.93057170826342927583e-01) (98, -7.31284556271314167830e-01) (99, -1.02101966452970338572e+00) (100, -1.05674704747228020985e+00) (101, -5.43649138448687452296e-01) (102, 7.55602749650573501938e-01) 
