FANN_FLO_2.1
num_layers=3
learning_rate=0.700000
connection_rate=1.000000
network_type=0
learning_momentum=0.000000
training_algorithm=2
train_error_function=1
train_stop_function=1
cascade_output_change_fraction=0.010000
quickprop_decay=-0.000100
quickprop_mu=1.750000
rprop_increase_factor=1.200000
rprop_decrease_factor=0.500000
rprop_delta_min=0.000000
rprop_delta_max=50.000000
rprop_delta_zero=0.100000
cascade_output_stagnation_epochs=12
cascade_candidate_change_fraction=0.010000
cascade_candidate_stagnation_epochs=12
cascade_max_out_epochs=150
cascade_min_out_epochs=50
cascade_max_cand_epochs=150
cascade_min_cand_epochs=50
cascade_num_candidate_groups=2
bit_fail_limit=1.00000000000000005551e-01
cascade_candidate_limit=1.00000000000000000000e+03
cascade_weight_multiplier=4.00000000000000022204e-01
cascade_activation_functions_count=10
cascade_activation_functions=3 5 7 8 10 11 14 15 16 17 
cascade_activation_steepnesses_count=4
cascade_activation_steepnesses=2.50000000000000000000e-01 5.00000000000000000000e-01 7.50000000000000000000e-01 1.00000000000000000000e+00 
layer_sizes=9 11 2 
scale_included=0
neurons (num_inputs, activation_function, activation_steepness)=(0, 0, 0.00000000000000000000e+00) (0, 0, 0.00000000000000000000e+00) (0, 0, 0.00000000000000000000e+00) (0, 0, 0.00000000000000000000e+00) (0, 0, 0.00000000000000000000e+00) (0, 0, 0.00000000000000000000e+00) (0, 0, 0.00000000000000000000e+00) (0, 0, 0.00000000000000000000e+00) (0, 0, 0.00000000000000000000e+00) (9, 6, 5.00000000000000000000e-01) (9, 6, 5.00000000000000000000e-01) (9, 6, 5.00000000000000000000e-01) (9, 6, 5.00000000000000000000e-01) (9, 6, 5.00000000000000000000e-01) (9, 6, 5.00000000000000000000e-01) (9, 6, 5.00000000000000000000e-01) (9, 6, 5.00000000000000000000e-01) (9, 6, 5.00000000000000000000e-01) (9, 6, 5.00000000000000000000e-01) (0, 6, 0.00000000000000000000e+00) (11, 6, 5.00000000000000000000e-01) (0, 6, 0.00000000000000000000e+00) 
connections (connected_to_neuron, weight)=(0, 1.02735851247067024872e+01) (1, 2.61964913200855298303e-01) (2, 2.41566911082983060144e-01) (3, 3.18142715584754876001e-01) (4, 2.61272217821598096155e-01) (5, -1.30284598638158644057e+00) (6, -1.84437722753604527171e+00) (7, -6.50007446934278254602e-01) (8, 1.85795733919180083848e-01) (0, -1.76456630623143817527e-02) (1, 4.34082302362094260562e-02) (2, -4.45729789226879460906e-02) (3, 3.86482480079303122866e-02) (4, -5.39852079838146689528e-02) (5, 7.28561904646385261053e-01) (6, -3.35129174767207160812e+00) (7, 4.46456024730190748073e-01) (8, -7.87307937723554507325e-02) (0, 2.00115342427014075710e+00) (1, 3.37461275381901126824e-01) (2, 3.20857894940235477410e-01) (3, 2.23423940462925324502e-01) (4, 3.40206084174969058953e-01) (5, -2.27822752599001887575e+00) (6, -3.69337759973804469205e-01) (7, 3.43537661526146287372e+00) (8, 1.83249730505395225233e-01) (0, 5.53736354486150439413e-01) (1, 3.73127394350041330373e-01) (2, 2.76529663236607381460e-01) (3, 2.68741101952065353231e-01) (4, 2.88045019836892013387e-01) (5, 5.00590037760623740581e+00) (6, -4.58158320420395437367e+00) (7, 1.18957523406045551084e+00) (8, 1.27670507662579563180e-01) (0, 5.39841951761646648977e-02) (1, 9.08265114419614522090e-03) (2, -4.92242872125948482259e-03) (3, 5.66480889975324655716e-02) (4, -2.32612430990442077550e-02) (5, -6.37103428676534577768e-01) (6, -6.99590233716153808707e-01) (7, 7.59440536625360151923e-01) (8, -8.41898804805152056741e-02) (0, 1.03169769708270600006e+01) (1, 2.45860197079632386563e-01) (2, 2.48147212398502930997e-01) (3, 4.37601075005982165234e-01) (4, 2.60842159820053709485e-01) (5, -2.21000243451154121388e+00) (6, -1.62643059244736831737e+00) (7, -6.82604493279750590418e-01) (8, 4.61703973379173238101e-01) (0, -5.67516446506779875802e-02) (1, -5.53651896912349950064e-02) (2, 6.55329249317510367789e-03) (3, 1.24793879906486077092e-01) (4, -3.32744715410961261481e-02) (5, 1.69802571058481968636e-02) (6, -1.51954605041562884615e+00) (7, 5.36442457390350457835e-01) (8, 5.03664816635691001134e-02) (0, -8.34005696739748697555e-02) (1, -5.57354300284821774225e-02) (2, 8.74401868319074765390e-02) (3, -4.98672968709904934625e-02) (4, -8.38711841965158050316e-02) (5, -5.57585967317033914803e-01) (6, -5.33968988456442250623e-01) (7, 5.81595777226013299632e-01) (8, 4.14941961783014470755e-02) (0, -2.74578893435705462256e-01) (1, -3.29012545988647472917e-02) (2, -3.63190445349304211198e-02) (3, -7.38891691423341785000e-03) (4, -7.45917978928176683695e-02) (5, 4.37043475736909381446e-01) (6, 6.22088614361044012213e-01) (7, -5.92496851617105163568e-02) (8, -2.45193796593314305987e-02) (0, 1.02738843549246361420e+01) (1, 2.20206929887547836477e-01) (2, 4.08875769521012677465e-01) (3, 2.13783121253266678030e-01) (4, 3.48757064486756584998e-01) (5, -1.34115572069626654006e+00) (6, -1.84998542856296177561e+00) (7, -5.96306470860536230738e-01) (8, 5.07281741404897387748e-02) (9, -3.41928501059129863471e-01) (10, -3.42239511982193267414e-01) (11, 5.74484078785472918049e-01) (12, 5.52678989628630601416e-01) (13, 2.10956362845072520340e-02) (14, -4.32754286727965620241e-01) (15, -2.78714124176855981840e-01) (16, -8.32181143741075463049e-02) (17, 5.40106640661426773420e-01) (18, -3.08960382272318034858e-01) (19, 1.88914919802218667089e-01) 
