FANN_FLO_2.1
num_layers=3
learning_rate=0.700000
connection_rate=1.000000
network_type=0
learning_momentum=0.000000
training_algorithm=2
train_error_function=1
train_stop_function=1
cascade_output_change_fraction=0.010000
quickprop_decay=-0.000100
quickprop_mu=1.750000
rprop_increase_factor=1.200000
rprop_decrease_factor=0.500000
rprop_delta_min=0.000000
rprop_delta_max=50.000000
rprop_delta_zero=0.100000
cascade_output_stagnation_epochs=12
cascade_candidate_change_fraction=0.010000
cascade_candidate_stagnation_epochs=12
cascade_max_out_epochs=150
cascade_min_out_epochs=50
cascade_max_cand_epochs=150
cascade_min_cand_epochs=50
cascade_num_candidate_groups=2
bit_fail_limit=1.00000000000000005551e-01
cascade_candidate_limit=1.00000000000000000000e+03
cascade_weight_multiplier=4.00000000000000022204e-01
cascade_activation_functions_count=10
cascade_activation_functions=3 5 7 8 10 11 14 15 16 17 
cascade_activation_steepnesses_count=4
cascade_activation_steepnesses=2.50000000000000000000e-01 5.00000000000000000000e-01 7.50000000000000000000e-01 1.00000000000000000000e+00 
layer_sizes=30 11 2 
scale_included=0
neurons (num_inputs, activation_function, activation_steepness)=(0, 0, 0.00000000000000000000e+00) (0, 0, 0.00000000000000000000e+00) (0, 0, 0.00000000000000000000e+00) (0, 0, 0.00000000000000000000e+00) (0, 0, 0.00000000000000000000e+00) (0, 0, 0.00000000000000000000e+00) (0, 0, 0.00000000000000000000e+00) (0, 0, 0.00000000000000000000e+00) (0, 0, 0.00000000000000000000e+00) (0, 0, 0.00000000000000000000e+00) (0, 0, 0.00000000000000000000e+00) (0, 0, 0.00000000000000000000e+00) (0, 0, 0.00000000000000000000e+00) (0, 0, 0.00000000000000000000e+00) (0, 0, 0.00000000000000000000e+00) (0, 0, 0.00000000000000000000e+00) (0, 0, 0.00000000000000000000e+00) (0, 0, 0.00000000000000000000e+00) (0, 0, 0.00000000000000000000e+00) (0, 0, 0.00000000000000000000e+00) (0, 0, 0.00000000000000000000e+00) (0, 0, 0.00000000000000000000e+00) (0, 0, 0.00000000000000000000e+00) (0, 0, 0.00000000000000000000e+00) (0, 0, 0.00000000000000000000e+00) (0, 0, 0.00000000000000000000e+00) (0, 0, 0.00000000000000000000e+00) (0, 0, 0.00000000000000000000e+00) (0, 0, 0.00000000000000000000e+00) (0, 0, 0.00000000000000000000e+00) (30, 6, 5.00000000000000000000e-01) (30, 6, 5.00000000000000000000e-01) (30, 6, 5.00000000000000000000e-01) (30, 6, 5.00000000000000000000e-01) (30, 6, 5.00000000000000000000e-01) (30, 6, 5.00000000000000000000e-01) (30, 6, 5.00000000000000000000e-01) (30, 6, 5.00000000000000000000e-01) (30, 6, 5.00000000000000000000e-01) (30, 6, 5.00000000000000000000e-01) (0, 6, 0.00000000000000000000e+00) (11, 6, 5.00000000000000000000e-01) (0, 6, 0.00000000000000000000e+00) 
connections (connected_to_neuron, weight)=(0, -1.14751711740771220605e+01) (1, -7.63204222827769673820e-02) (2, -1.06651549628338948583e-01) (3, -9.90805676489688313957e-02) (4, -1.08573040276384782249e-02) (5, 3.03787749648230354094e-01) (6, -4.58854229245402520099e-02) (7, 9.44157623036846332942e-02) (8, 1.42024536660703892821e+00) (9, -9.57687627491122378531e-02) (10, -2.29253909352627183171e-01) (11, -1.59753585861105301680e-02) (12, -2.83089276393558075817e-01) (13, -1.93350431124900893565e+02) (14, 2.58452704108220387980e+00) (15, -1.71678376671774990392e-01) (16, 6.71041791390985964405e-01) (17, 2.88780407901185143249e-01) (18, 5.84408574284764115170e-01) (19, 6.36717388877953482940e-01) (20, -9.22162294882710592558e-02) (21, 1.75646187617180427054e+00) (22, 3.13676745896094122390e-01) (23, 6.30515877709025979181e-02) (24, 2.51629011098563226678e-01) (25, -5.31794903533951979213e-01) (26, -4.80675862501205031219e-02) (27, 6.65279568381972219449e-01) (28, 5.51677168513538762618e-01) (29, 2.58462454506812634725e-02) (0, 7.88386102416120415626e+00) (1, 5.83576108308519803103e-01) (2, 5.66653217168535672243e-01) (3, 5.57564551921572171267e-01) (4, 4.43173120709147605467e-01) (5, -1.49521202890932269902e+00) (6, 5.62476814591003737576e-01) (7, 4.60330914632115728580e-01) (8, -1.41755172907665705218e+00) (9, 5.06303889867769418842e-01) (10, -9.92285560566508878511e-02) (11, 1.46578184728593741148e-01) (12, 1.19317926599921997344e+00) (13, -2.36968218237833072592e+00) (14, -1.52444332896181289350e+00) (15, 6.09676668044060288132e-01) (16, -2.66277416983596082467e-01) (17, 4.74751436425434880650e-02) (18, 5.25765587723177940660e-01) (19, 1.44441715436522316596e-01) (20, 6.51241762469809248870e-01) (21, 1.82049355834508971852e-02) (22, 5.63955922778212159763e-01) (23, 5.60422366224208801100e+01) (24, 5.61054943315664260695e+01) (25, 4.86115897969591603811e+00) (26, 8.30247933949823102573e-01) (27, 1.52357595819439806117e-01) (28, 5.08597340036233358518e-01) (29, -1.53045762407052809984e+00) (0, -6.76953043299909662522e+00) (1, 2.21478767193246280087e-02) (2, -1.38545619746358372737e-01) (3, -6.24997862183164984429e-02) (4, -5.74671946965764832149e-02) (5, 1.63838259512403028317e+00) (6, 2.83315648562720456827e-01) (7, -2.38508646678622260318e-01) (8, 1.44123277932359039610e+00) (9, 2.45622708426870284271e-02) (10, 1.33185293563601925282e-01) (11, 5.19497022774532205003e-02) (12, 1.06100729693451500957e+00) (13, -1.93464363481139258738e+02) (14, 3.36713081749457643355e+00) (15, -8.66754506265094537554e-01) (16, 3.98773746693197816970e-01) (17, 2.09397228355782671905e-01) (18, 9.01805662264427820851e-01) (19, 3.78072777158768191796e-01) (20, -7.65308993855508323811e-01) (21, 8.92714427567409152253e-01) (22, 4.25391021794459089911e-01) (23, 3.34721063211361608003e-02) (24, -8.02367982962074038911e-02) (25, 6.87580367460620123232e-02) (26, -1.99414299554640017664e-01) (27, 3.44701961959236191646e-01) (28, 5.96872982735636048446e-01) (29, -5.99189345674583581647e-02) (0, -4.51073620142127840182e+00) (1, -1.87884258376258585221e-02) (2, 5.61580968750816436619e-02) (3, 1.00177579904923944043e-01) (4, 5.86912719262939822085e-02) (5, 1.93204224098773691409e+00) (6, 9.83592552552539356459e-02) (7, -1.02145543502082311593e-01) (8, 1.17091604170181318167e+00) (9, 2.47465887191829908565e-02) (10, 6.29561953429046000652e-02) (11, 9.60326454175739613328e-02) (12, 7.76269676801096597529e-01) (13, 4.86490222370788816253e-01) (14, 4.92453299121791410187e+00) (15, 5.74299205283142419343e-02) (16, 5.73982979654515945711e-01) (17, 3.26332482424604441995e-01) (18, 4.64905342780571440020e-01) (19, 5.78384792989665719176e-01) (20, 9.05738555504029124732e-02) (21, 5.01619577709144115474e-01) (22, 4.09298434372493358246e-01) (23, 2.56480303486806504587e-01) (24, 3.08931552806666287481e-01) (25, -2.22189573698586356754e-01) (26, 8.74028841456910621233e-01) (27, 4.80532653199529480315e-01) (28, 4.95748926165778203146e-01) (29, -1.00192973311551658533e+00) (0, 2.75353669478527365300e+01) (1, 1.51530171176595923610e-01) (2, 1.10152712455196852281e-01) (3, 2.30186673244638734248e-01) (4, 7.98400886265472620185e-02) (5, -1.50432992981448809822e+00) (6, -3.95454323155930986822e-02) (7, -7.71606578853816227337e-02) (8, -1.48311816512563021675e+00) (9, -7.94007400785559785961e-02) (10, -2.62820869814501534290e-01) (11, -1.68422279530098500944e-01) (12, -1.11937667773808713356e+00) (13, -1.69239616459063446641e+00) (14, -2.47354914236214851186e+00) (15, 2.38348298686427456650e-01) (16, -1.09074421685676514748e+00) (17, -2.53055433508560023714e-01) (18, -2.70290867354264552347e-01) (19, -3.08999221359649467455e-01) (20, 2.17034126899482066042e-01) (21, -5.56369728820714448680e-01) (22, -7.36834236025290301164e-01) (23, 2.84484288264841511662e-01) (24, 3.09770815757165474125e-01) (25, -1.30619489492081930493e+00) (26, -1.02432269881221160723e+00) (27, -2.70936993072665721627e-01) (28, -2.84463773979002465531e-01) (29, 7.44124746935421188532e-01) (0, -4.25408970763095961587e+00) (1, -6.70592309494433547190e-02) (2, 1.23517765144887554929e-02) (3, 8.58688606361928397082e-02) (4, 1.12592409406143720285e-01) (5, 4.68882494341720967856e-01) (6, 3.50153404911652310627e-01) (7, 2.64058921698624771146e-01) (8, 1.31296164109296165101e+00) (9, 5.35491112103827215929e-02) (10, 1.65092851707827392715e-01) (11, 1.64339609700808381154e-01) (12, 1.05503713693367484616e+00) (13, -1.93424892734026030894e+02) (14, 3.51517871173400209273e+00) (15, 1.07113712789757989721e-03) (16, 7.03646984946341147449e-01) (17, 5.03577298739520173854e-01) (18, 4.43416737589260812058e-01) (19, 7.19183901858538310314e-01) (20, -2.60118061753600027242e-02) (21, 8.28984176461062038932e-01) (22, 4.03632818530153869574e-01) (23, 2.98213697872530936195e-01) (24, 3.83837604990090008883e-01) (25, 4.61800408166808187826e-02) (26, -2.32316559644203113333e-01) (27, 3.17255110824935959712e-01) (28, 6.62039832378628068099e-01) (29, 2.01633718355129554212e-01) (0, 2.62023734768953175944e+01) (1, 3.96348073781156925999e-02) (2, 1.40870644122423976929e-01) (3, 1.28249144524397701295e-01) (4, 1.98773620992960781129e-01) (5, -8.43329904380076600390e-01) (6, -1.80603105701941574202e-01) (7, -3.01076067369862830636e-02) (8, -9.21694889856493837499e-01) (9, -1.45846350931519708194e-01) (10, -5.41106619588517467889e-01) (11, -3.30520424583360616921e-01) (12, -1.00850079592763486325e+00) (13, -8.40225685253115806006e-01) (14, -1.47064621425193009507e+00) (15, -2.71217284741797848291e-01) (16, -9.66231653729921480256e-01) (17, -6.04896337700379094215e-01) (18, -4.72597255679718109000e-01) (19, -1.21474207237367348711e-01) (20, -2.35713039518485045765e-01) (21, -4.43728163850813761560e-01) (22, -6.32483856346050532515e-01) (23, 1.20518196405739602683e-01) (24, 8.12111403187541353033e-02) (25, -8.73306302412150126102e-01) (26, -8.13957083800131986351e-01) (27, -3.64611442007719444014e-01) (28, -3.83957366229287111459e-01) (29, 5.71032665132453320922e-01) (0, 6.89743905079213082132e+00) (1, 1.60684632551640033116e-01) (2, 1.21405484569042584897e-01) (3, 1.46150665771931143055e-01) (4, 7.53247276365455603608e-02) (5, -1.81534223453765442002e+00) (6, 4.38912457193347593787e-01) (7, 1.08604210867612338554e+00) (8, -1.92864823877772950667e+00) (9, 1.14789307788679684208e+00) (10, 1.26754721931407021707e+00) (11, 7.42162941275277932007e-01) (12, 2.72529086924240937506e-01) (13, -4.35729914748393465374e+00) (14, -2.02591620663345262088e+00) (15, 1.24538497624554409526e+01) (16, 1.32454391534599102975e+00) (17, 2.52974017629069508964e-03) (18, 1.52092473729335786459e+00) (19, 2.09700941137357071975e-01) (20, 6.06874065215254034911e+01) (21, 8.61540216992624952042e-01) (22, -6.21611792611236058104e-03) (23, 2.33890328697837048821e+01) (24, 2.34231661923206502252e+01) (25, 1.62859992370027528708e+00) (26, 2.33190241554532162738e-01) (27, 1.61515121035925190984e-01) (28, 1.15594933122893459704e-02) (29, 2.93802975326806148360e+00) (0, 9.13322082730383399962e+00) (1, -9.17406801844464388218e-03) (2, 1.20535213008872321705e-01) (3, 1.60703513279906506916e-01) (4, 1.19144249216071418385e-01) (5, -7.48743677880110869438e-01) (6, -5.43838114002795636193e-02) (7, -2.19417325206958946371e-02) (8, -8.62328352910351259020e-01) (9, 1.98723952789518709672e-01) (10, 5.51792421386199244404e-02) (11, 6.86685977724094537278e-02) (12, -4.89279504535922393771e-01) (13, -4.05731943968195563066e-01) (14, -5.21010014814374478043e-01) (15, 3.00681245507908811998e-01) (16, -5.75206151775396024028e-01) (17, 2.50903614682356709831e-02) (18, -1.34210606662377135434e-01) (19, -3.14599574668384812659e-02) (20, 3.22590412044682139925e-01) (21, -3.56017193588129610138e-01) (22, -3.65958320300829587080e-01) (23, 1.12684178652355873607e-01) (24, 1.02656066677866142367e-01) (25, -2.00551261629900778871e-01) (26, -1.20334052031034824393e-01) (27, -2.08282361601821036645e-01) (28, -1.75035650203351628162e-01) (29, 5.29575581756623225971e-01) (0, 9.75391678632977665586e+00) (1, 7.11780478478201139581e-02) (2, 1.10133058321548224501e-01) (3, 1.65475106728149051749e-01) (4, 5.08817796827085930267e-02) (5, -9.40423011892202787010e-01) (6, -9.82246033707114170330e-03) (7, -1.31165776180212273472e-01) (8, -3.22706078284953734592e-01) (9, -1.29032557280446102954e-01) (10, -4.67527838931656725130e-02) (11, -7.70523416455568821437e-02) (12, -6.93460311272558471707e-01) (13, -7.50893251040822828912e-01) (14, -7.87092076424194209139e-01) (15, 4.73599823190291702169e-01) (16, -7.41241865218936313298e-01) (17, -2.48573004151303567077e-01) (18, 7.80893290630130659791e-02) (19, -6.15430711442914030185e-02) (20, 4.40785569739572780090e-01) (21, -4.84766442143536535614e-01) (22, -3.81807911579380376832e-01) (23, -1.67420327080352072946e-02) (24, 3.17765873952900249066e-02) (25, 3.51085245960653158370e-01) (26, -3.13303817888403612901e-01) (27, 1.11735786500869349602e-01) (28, 1.05734553790806998230e-01) (29, 7.19193826351984921708e-01) (30, -3.02280320244463440726e-01) (31, 9.60261947880706401293e-01) (32, -4.19225373285050328942e-01) (33, 7.37738381539539300746e-01) (34, -1.24585111027511641346e+00) (35, -2.46528537756210364140e-01) (36, -4.15778024446212479681e-01) (37, 6.05485063701771353273e-01) (38, -4.49971377965318553027e-01) (39, -3.93411348461941312582e-01) (40, 7.07911109307455821416e-01) 
