FANN_FLO_2.1
num_layers=3
learning_rate=0.700000
connection_rate=1.000000
network_type=0
learning_momentum=0.000000
training_algorithm=2
train_error_function=1
train_stop_function=1
cascade_output_change_fraction=0.010000
quickprop_decay=-0.000100
quickprop_mu=1.750000
rprop_increase_factor=1.200000
rprop_decrease_factor=0.500000
rprop_delta_min=0.000000
rprop_delta_max=50.000000
rprop_delta_zero=0.100000
cascade_output_stagnation_epochs=12
cascade_candidate_change_fraction=0.010000
cascade_candidate_stagnation_epochs=12
cascade_max_out_epochs=150
cascade_min_out_epochs=50
cascade_max_cand_epochs=150
cascade_min_cand_epochs=50
cascade_num_candidate_groups=2
bit_fail_limit=1.00000000000000005551e-01
cascade_candidate_limit=1.00000000000000000000e+03
cascade_weight_multiplier=4.00000000000000022204e-01
cascade_activation_functions_count=10
cascade_activation_functions=3 5 7 8 10 11 14 15 16 17 
cascade_activation_steepnesses_count=4
cascade_activation_steepnesses=2.50000000000000000000e-01 5.00000000000000000000e-01 7.50000000000000000000e-01 1.00000000000000000000e+00 
layer_sizes=18 11 2 
scale_included=0
neurons (num_inputs, activation_function, activation_steepness)=(0, 0, 0.00000000000000000000e+00) (0, 0, 0.00000000000000000000e+00) (0, 0, 0.00000000000000000000e+00) (0, 0, 0.00000000000000000000e+00) (0, 0, 0.00000000000000000000e+00) (0, 0, 0.00000000000000000000e+00) (0, 0, 0.00000000000000000000e+00) (0, 0, 0.00000000000000000000e+00) (0, 0, 0.00000000000000000000e+00) (0, 0, 0.00000000000000000000e+00) (0, 0, 0.00000000000000000000e+00) (0, 0, 0.00000000000000000000e+00) (0, 0, 0.00000000000000000000e+00) (0, 0, 0.00000000000000000000e+00) (0, 0, 0.00000000000000000000e+00) (0, 0, 0.00000000000000000000e+00) (0, 0, 0.00000000000000000000e+00) (0, 0, 0.00000000000000000000e+00) (18, 6, 5.00000000000000000000e-01) (18, 6, 5.00000000000000000000e-01) (18, 6, 5.00000000000000000000e-01) (18, 6, 5.00000000000000000000e-01) (18, 6, 5.00000000000000000000e-01) (18, 6, 5.00000000000000000000e-01) (18, 6, 5.00000000000000000000e-01) (18, 6, 5.00000000000000000000e-01) (18, 6, 5.00000000000000000000e-01) (18, 6, 5.00000000000000000000e-01) (0, 6, 0.00000000000000000000e+00) (11, 6, 5.00000000000000000000e-01) (0, 6, 0.00000000000000000000e+00) 
connections (connected_to_neuron, weight)=(0, 3.03244728216523817821e+00) (1, 1.28551846753522214239e-01) (2, 9.38074648489201773360e-02) (3, 1.25782102455342312264e-02) (4, 3.35836635129098870153e-03) (5, 5.82725500771823612389e-01) (6, 5.54589419139003059200e-01) (7, 3.60858434871717481673e-01) (8, 8.39962514597878517897e-01) (9, 4.14761004398172428154e-01) (10, -9.60962621734465560763e-01) (11, -1.98804157589541813378e-01) (12, 3.81739241980446689095e-02) (13, -2.75429273776256144934e-01) (14, -3.28564932628203021370e-01) (15, 7.38927703858279549820e-01) (16, 4.65552644368002893627e-02) (17, 2.82947381515065363167e-02) (0, -1.29519543181944047916e+01) (1, 3.12646887008835930311e-02) (2, 1.02664511532037441843e-01) (3, -7.26179417923191340006e-03) (4, 7.88286736910035340520e-02) (5, 5.45217116514803770699e-02) (6, 1.63249206878598979165e-01) (7, -1.14093979586299951179e-01) (8, 4.30063707595798927485e-01) (9, 2.10996766519445932975e-02) (10, 1.36732628735421268829e+00) (11, -1.68273080413064955729e-02) (12, -1.04548362209987893978e-01) (13, -5.73899344490904281257e-02) (14, -7.97886354985366946790e-02) (15, 2.87283121733744817305e-01) (16, -4.84634567932348936381e-01) (17, -1.66860745624136969090e-01) (0, 6.28564053426896141019e+00) (1, -1.15249703752525009537e-01) (2, -2.80140879678256626839e-01) (3, -2.60540234970577044837e-01) (4, -1.71972694921024016335e-01) (5, -5.72352732214272297284e-01) (6, -2.81454971026107114707e-01) (7, -8.72774261480507407285e-01) (8, -7.15734758224317868525e-01) (9, -3.60604337499277449730e-01) (10, -2.53189444830631726902e+00) (11, -3.34670552692805045591e-01) (12, -1.86214553791010317685e-01) (13, 6.17554830553165734486e-01) (14, 4.25046700568275426235e-01) (15, -4.67917433577772712283e+00) (16, 1.14118958990040542112e+00) (17, 6.27273333688102230354e-01) (0, 6.89008782067365488366e-01) (1, -8.61758889918951276332e-02) (2, -1.98164100115923100254e-02) (3, 5.54742326671453164777e-02) (4, -1.16216998762431578118e-01) (5, -4.47195082688284228922e-02) (6, -1.64930672267931816011e-01) (7, -3.11050478004197605841e-01) (8, -1.94170574609857737869e+00) (9, -1.03773618323114558137e+00) (10, 1.36910025407043640655e+01) (11, 6.32618230108773632603e-02) (12, 7.88232618224153219755e-02) (13, 1.61049460819191081473e-01) (14, 8.74451216373752338029e-01) (15, -2.81869092108777552497e+00) (16, -9.05936952300753911560e-02) (17, 3.17229604727744307624e-01) (0, -3.14216078031172019180e-01) (1, 6.14734310543636475188e-01) (2, 6.57353483027319107634e-01) (3, 6.15706190353731308562e-01) (4, 7.51405276244977882172e-01) (5, -2.46133594419443069157e+00) (6, -3.24260547848510860547e+00) (7, 2.51867917334600965873e+00) (8, 1.43662083238868376611e+00) (9, 2.98389238300223524902e+00) (10, 7.00107245783158571584e+00) (11, -2.53563982013758781875e+00) (12, -1.78872968720890823668e+00) (13, -2.27304826633435957950e-01) (14, -2.26199902176843181678e+00) (15, 6.56208802479389952111e+00) (16, 2.49398616089348212910e-01) (17, -2.61136246624642298642e+00) (0, 6.28280848662768409696e+00) (1, -2.18145912918652123968e-01) (2, -1.98942406508530150733e-01) (3, -2.65484514120424841543e-01) (4, -1.61721958252991210303e-01) (5, 9.98632280900117220990e-03) (6, -3.01727160126461668721e-01) (7, -1.21200686691232006886e+00) (8, -1.34949454238517563276e+00) (9, -3.83999853477613783959e-01) (10, -2.61007576001354779649e+00) (11, -2.74858988597065589943e-01) (12, -1.31824965369615659805e-01) (13, 4.37720833674367315602e-01) (14, 9.43808071863549757907e-01) (15, -4.98089986381519800318e+00) (16, 1.02477209765799170960e+00) (17, 6.17763190593732747224e-01) (0, 4.30013711365841599932e-01) (1, -8.31501533431639600069e-02) (2, 2.39928240733513764571e-02) (3, -1.24799893532477890190e-01) (4, -1.41830456737958354729e-01) (5, 1.11149937945474619472e-01) (6, 1.52825818908926186479e-01) (7, -2.86400240995476840222e-01) (8, -6.50709279534462226025e-01) (9, -1.45372182363359622737e-02) (10, 2.32910955270148350982e-01) (11, -7.84706444608088138359e-02) (12, 1.83808816064674418467e-01) (13, 1.25895718689120583722e-01) (14, 3.40573716214787658441e-01) (15, -1.42958299884823936132e+00) (16, -1.23943247974952056034e-01) (17, 4.03772772199757157274e-01) (0, 2.94375700125093153758e+00) (1, 1.19121708659745723091e-01) (2, 8.56877348705306629562e-02) (3, -2.71039374784454653589e-02) (4, 3.23971591278090845223e-02) (5, 7.71042389879051048851e-01) (6, 3.22587843399701645897e-01) (7, 4.68566523925348255020e-01) (8, 8.42290001470551552565e-01) (9, 3.90043181727235843681e-01) (10, -1.13503345812974210105e+00) (11, -7.02081252156153273747e-02) (12, 6.22084417772214709474e-02) (13, -7.38408816295256925644e-02) (14, -1.54675278028393675678e-01) (15, 6.28505607855341152934e-01) (16, 2.07740593263544298663e-01) (17, 8.06926257556608295118e-02) (0, 6.42692666209485619078e-01) (1, -3.71360557593599510673e-02) (2, -7.41901958801046007563e-02) (3, -6.26170451261297139611e-02) (4, 3.22074105523332265832e-02) (5, 1.51617133386808378148e-01) (6, 2.38672168322282773900e-01) (7, -2.76968026342343964785e-01) (8, -1.76850114812474118464e-01) (9, -2.84444086422582613494e-02) (10, -4.59554271147058435165e-01) (11, 3.23152482762260329086e-02) (12, -1.39292925036528347782e-01) (13, 2.58282934978706357754e-01) (14, 4.33030739990805546569e-01) (15, -1.17785340352592515778e+00) (16, 2.41715708138062090882e-01) (17, 6.86449289050413802293e-01) (0, 3.01878632156284743004e-01) (1, 6.46458500095138666186e-02) (2, 3.81841369934806523778e-02) (3, 8.94774653979072687182e-02) (4, -1.67949712805023215756e-02) (5, 2.88326940065141035241e-01) (6, -4.84669474526056576202e-02) (7, -1.05726753338533138726e-01) (8, 6.18097998418228655737e-01) (9, 1.61793530753212150275e-01) (10, -4.49926714309946962356e-02) (11, -5.02227322972169931692e-02) (12, 8.29049244897983733660e-02) (13, -1.49051789930207789769e-01) (14, -3.50756825937557914497e-01) (15, 7.15793110988416692031e-01) (16, -1.08801113996225787273e-01) (17, 2.33596571309622608181e-02) (18, 6.05297526012979925092e-01) (19, 1.36103120198272042884e+00) (20, 2.91054495938825541490e-01) (21, 4.77103570488616179901e-01) (22, -1.23697556029650254650e-01) (23, 3.68058555581586011041e-01) (24, -3.60969783171585678616e-01) (25, 5.72812100540720403608e-01) (26, -1.57218809215017851777e+00) (27, 5.28054995015012185178e-01) (28, 3.37719550732009154981e-01) 
