FANN_FLO_2.1
num_layers=3
learning_rate=0.700000
connection_rate=1.000000
network_type=0
learning_momentum=0.000000
training_algorithm=2
train_error_function=1
train_stop_function=1
cascade_output_change_fraction=0.010000
quickprop_decay=-0.000100
quickprop_mu=1.750000
rprop_increase_factor=1.200000
rprop_decrease_factor=0.500000
rprop_delta_min=0.000000
rprop_delta_max=50.000000
rprop_delta_zero=0.100000
cascade_output_stagnation_epochs=12
cascade_candidate_change_fraction=0.010000
cascade_candidate_stagnation_epochs=12
cascade_max_out_epochs=150
cascade_min_out_epochs=50
cascade_max_cand_epochs=150
cascade_min_cand_epochs=50
cascade_num_candidate_groups=2
bit_fail_limit=1.00000000000000005551e-01
cascade_candidate_limit=1.00000000000000000000e+03
cascade_weight_multiplier=4.00000000000000022204e-01
cascade_activation_functions_count=10
cascade_activation_functions=3 5 7 8 10 11 14 15 16 17 
cascade_activation_steepnesses_count=4
cascade_activation_steepnesses=2.50000000000000000000e-01 5.00000000000000000000e-01 7.50000000000000000000e-01 1.00000000000000000000e+00 
layer_sizes=38 4 2 
scale_included=0
neurons (num_inputs, activation_function, activation_steepness)=(0, 0, 0.00000000000000000000e+00) (0, 0, 0.00000000000000000000e+00) (0, 0, 0.00000000000000000000e+00) (0, 0, 0.00000000000000000000e+00) (0, 0, 0.00000000000000000000e+00) (0, 0, 0.00000000000000000000e+00) (0, 0, 0.00000000000000000000e+00) (0, 0, 0.00000000000000000000e+00) (0, 0, 0.00000000000000000000e+00) (0, 0, 0.00000000000000000000e+00) (0, 0, 0.00000000000000000000e+00) (0, 0, 0.00000000000000000000e+00) (0, 0, 0.00000000000000000000e+00) (0, 0, 0.00000000000000000000e+00) (0, 0, 0.00000000000000000000e+00) (0, 0, 0.00000000000000000000e+00) (0, 0, 0.00000000000000000000e+00) (0, 0, 0.00000000000000000000e+00) (0, 0, 0.00000000000000000000e+00) (0, 0, 0.00000000000000000000e+00) (0, 0, 0.00000000000000000000e+00) (0, 0, 0.00000000000000000000e+00) (0, 0, 0.00000000000000000000e+00) (0, 0, 0.00000000000000000000e+00) (0, 0, 0.00000000000000000000e+00) (0, 0, 0.00000000000000000000e+00) (0, 0, 0.00000000000000000000e+00) (0, 0, 0.00000000000000000000e+00) (0, 0, 0.00000000000000000000e+00) (0, 0, 0.00000000000000000000e+00) (0, 0, 0.00000000000000000000e+00) (0, 0, 0.00000000000000000000e+00) (0, 0, 0.00000000000000000000e+00) (0, 0, 0.00000000000000000000e+00) (0, 0, 0.00000000000000000000e+00) (0, 0, 0.00000000000000000000e+00) (0, 0, 0.00000000000000000000e+00) (0, 0, 0.00000000000000000000e+00) (38, 6, 5.00000000000000000000e-01) (38, 6, 5.00000000000000000000e-01) (38, 6, 5.00000000000000000000e-01) (0, 6, 0.00000000000000000000e+00) (4, 4, 5.00000000000000000000e-01) (0, 4, 0.00000000000000000000e+00) 
connections (connected_to_neuron, weight)=(0, -1.49331030500036243680e+00) (1, 1.46999999880790710449e+03) (2, 7.61883699669158809265e-01) (3, -4.10855628432657304927e+00) (4, 8.66431387544051023752e-01) (5, 1.50000000000000000000e+03) (6, 1.14326183837708731517e+03) (7, 1.12597756884985855663e+02) (8, -1.81000638759508847286e+00) (9, -5.80651855392578575277e+00) (10, -1.41294898994787931912e+00) (11, 9.48604185717668713096e+00) (12, 2.73347413317944472055e+02) (13, 9.34435739533464357010e+02) (14, 7.04804948343616160855e+02) (15, -5.27071431268571117812e+01) (16, -9.13944812369026848842e+00) (17, -3.82137323329020034635e+02) (18, 1.50000000000000000000e+03) (19, 1.50000000000000000000e+03) (20, 1.45000000000000000000e+03) (21, 1.46999999880790710449e+03) (22, 1.50000000000000000000e+03) (23, 1.46999999880790710449e+03) (24, 1.45000000000000000000e+03) (25, 1.46999999880790710449e+03) (26, 1.46999999880790710449e+03) (27, 1.45000000000000000000e+03) (28, 1.50000000000000000000e+03) (29, 3.09217002434324001570e+02) (30, 1.46999999880790710449e+03) (31, 1.46999999880790710449e+03) (32, 1.50000000000000000000e+03) (33, 1.46999999880790710449e+03) (34, 1.50000000000000000000e+03) (35, 1.46999999880790710449e+03) (36, 1.50000000000000000000e+03) (37, -1.02503368716932397042e+00) (0, -5.85203851497792526537e-01) (1, 1.46999999880790710449e+03) (2, 1.57509402172608736770e+00) (3, -3.56851185504837031814e+00) (4, 9.07527157468804013263e+00) (5, 1.50000000000000000000e+03) (6, 3.18885614325540345249e+00) (7, -5.16008249975484822869e+00) (8, 1.04052800699028153986e+01) (9, 9.41018709658859586753e-01) (10, 7.08618893797575033489e-01) (11, 8.62894558232933263753e+02) (12, 1.97210441989434102084e+01) (13, 5.10935066831281346822e+02) (14, -2.92660914448400717447e+02) (15, 9.14115733429199384119e-01) (16, 5.35422370170621864105e+00) (17, -2.21025120621204990812e+02) (18, 1.50000000000000000000e+03) (19, 2.10016589979212788819e+01) (20, 1.45000000000000000000e+03) (21, -2.92575985157646755397e+02) (22, 1.50000000000000000000e+03) (23, 1.46999999880790710449e+03) (24, 1.45000000000000000000e+03) (25, 1.46999999880790710449e+03) (26, 1.46999999880790710449e+03) (27, 1.45000000000000000000e+03) (28, 1.50000000000000000000e+03) (29, 3.05492168061933909939e+02) (30, 1.46999999880790710449e+03) (31, 1.46999999880790710449e+03) (32, 1.50000000000000000000e+03) (33, 1.46999999880790710449e+03) (34, 1.50000000000000000000e+03) (35, 1.46999999880790710449e+03) (36, 2.09896628656632557863e+01) (37, -1.61075660583284596683e+00) (0, -6.23230034482664123630e+01) (1, 2.17546631705060462991e+02) (2, 1.46999999880790710449e+03) (3, 1.55935358291807858677e+02) (4, 2.40701657291298971586e+02) (5, 2.17288729379046060330e+02) (6, 1.87078414511678903231e+00) (7, 1.50000000000000000000e+03) (8, 3.26266781827193526055e+01) (9, -4.56192196463403334405e+01) (10, 1.61859467434607665837e+02) (11, 1.53626757019902015600e+02) (12, 1.50375761023102825220e+02) (13, 3.59921118022868125053e+00) (14, 1.83145212224605813844e+02) (15, 1.50000000000000000000e+03) (16, 1.10913994777059855323e+02) (17, 2.97709948401000644935e+02) (18, 1.50000000000000000000e+03) (19, 2.56445479138267238284e+01) (20, 2.16181820507903665884e+02) (21, 4.19242316729743606629e+02) (22, 1.55836873349706678482e+02) (23, 9.85397429624056684361e+01) (24, 2.19404264060068385334e+02) (25, 1.83109719303809498570e+02) (26, 2.19485931773069239625e+02) (27, 2.17220952643342997135e+02) (28, 1.50000000000000000000e+03) (29, 7.54798670909350022384e+01) (30, 1.01378964036676791238e+02) (31, 1.42818361797494532084e+02) (32, 2.17290914188270193108e+02) (33, 2.19485189910268672975e+02) (34, 2.19459031317436881636e+02) (35, 2.20655474596952359434e+02) (36, 1.74411214696480215025e+02) (37, -2.08820058802331686820e+02) (38, 3.82799255500631208093e+00) (39, 8.24550426636728595042e+00) (40, 8.18176312155238072421e+00) (41, -1.45796845273578838942e+01) 
